,0,1,2,3,4,5,6,7,8,9,10,11,12,13,14,15,16,17,18,19,20,21,22,23,24,25,26,27,28,29,30,31,32,33,34,35,36,37,38,39,40,41,42,43,44,45,46,47,48,49,50,51,52,53,54,55,56,57,58,59,60,61,62,63
CDK19,-0.16448344,-0.081224956,0.14472052,-0.119671784,0.12641883,0.007709479,0.021729276,0.034766205,-0.046846718,-0.12270033,-0.17531389,-0.13041282,0.22376579,0.19204037,-0.060480736,0.20239107,0.17472042,-0.19329827,-0.16854818,0.12912732,-0.120486796,-0.15622874,0.18662407,0.112089284,0.15821692,-0.20682627,0.14090909,-0.05618276,0.15304969,-0.028506901,-0.10160666,-0.18173945,0.16304743,-0.15512717,-0.17216785,-0.16792303,-0.14974876,-0.20170945,-0.09016482,-0.17601866,0.15372507,-0.15962118,0.028046913,-0.14726019,0.14406666,0.08759736,-0.13607976,-0.17097926,0.16924036,0.08903063,-0.061154798,-0.079365164,0.14694789,-0.123689465,-0.1639215,-0.13499404,-0.11818515,-0.10271715,-0.058843587,-0.20510635,-0.18294492,-0.14263701,0.09722473,0.15828569
NXPE2,-0.014554344,-0.00604824,-0.00856794,0.008419521,-0.011083379,-0.0048100054,0.030127142,-0.041695353,-0.013358057,-0.021673726,-0.0018041544,0.0002374947,0.0025324337,0.022305012,-0.046691347,0.006281724,0.001324513,0.008138529,-0.02269768,-0.023298748,-0.012584121,0.0031087194,-0.0022424199,-0.037960272,0.011554395,-0.019204408,0.021710264,0.011311797,-0.02212913,-0.048750248,-0.0071722046,-0.00041984767,0.011005778,0.0036541745,-0.022441924,0.0034869537,-0.028998751,-0.0098753385,-0.0054181106,0.009683887,-0.025377266,-0.0071277693,-0.040735543,0.022243828,0.0069608893,0.010096528,0.0023589619,-0.0350866,0.042411655,0.010504149,0.01915757,-0.02921232,0.006996818,-0.03171791,0.0012821807,-0.030589174,0.008206859,0.0041740406,-0.027619794,-0.0006999001,0.00033626333,-0.0014062449,0.02489118,-0.016701724
CNOT7,0.007856937,-0.14112532,-0.015251735,0.15687415,-0.04756467,0.13105609,0.20113678,-0.2323964,-0.14653927,0.022891648,-0.01799627,-0.0058570206,-0.14137298,-0.0050131157,-0.081948,-0.013342449,-0.008003303,0.10742594,-0.006683916,-0.1282534,-0.034408048,0.04264368,0.002367124,-0.22111419,-0.03835406,0.027782857,-0.000811778,0.24924718,-0.0795476,-0.21053497,-0.10136049,0.042798467,-0.0075946227,-0.019136177,0.020879604,0.08232154,-0.037560098,0.018100621,-0.016520072,0.0057884827,-0.10490748,0.115871295,-0.13759667,0.100459196,-0.1462141,-0.013152283,-0.013161231,-0.0374111,0.041908957,0.11509055,0.07662229,-0.018262092,-0.014502695,-0.11223895,0.10221871,0.020559248,-0.008564755,-0.0033097863,-0.18202932,0.0035132729,0.05070937,-0.04125195,-0.112260394,-0.17740113
EMILIN1,-0.13649996,-0.037934788,0.0999299,-0.09858009,0.10097559,-0.051550318,-0.013252884,0.059744652,-0.009489045,-0.08509363,-0.12926856,-0.08621584,0.19276977,0.15322088,-0.09116098,0.16433603,0.11963228,-0.15858255,-0.1285205,0.09437503,-0.0811228,-0.11612848,0.13570014,0.13403574,0.12617314,-0.1761151,0.10383728,-0.091781415,0.13052924,-0.011228681,-0.055813663,-0.14393482,0.12267627,-0.08162196,-0.14439371,-0.15045604,-0.10141182,-0.1431365,-0.050319877,-0.12808701,0.1326884,-0.11186199,0.017424613,-0.11265206,0.1578862,0.056572277,-0.09204024,-0.11351698,0.12881419,0.045913797,-0.03832752,-0.08695565,0.11474803,-0.07383558,-0.12920085,-0.13162841,-0.059972152,-0.06865701,-0.012345396,-0.15651365,-0.13564844,-0.09147394,0.121645115,0.13454048
ORC6,-0.37720704,0.13257939,0.47362044,-0.48772725,0.55108047,-0.4551851,-0.3747453,0.5834685,0.21604836,-0.17583686,-0.55097723,-0.22717448,0.8666487,0.39762232,-0.37331778,0.49001783,0.36778927,-0.80600655,-0.28408885,0.4335659,-0.19948174,-0.41022298,0.34137177,1.0093,0.45671976,-0.6556068,0.22477488,-0.7106503,0.6679474,0.32931548,-0.023496076,-0.5253317,0.38358054,-0.21444416,-0.3637909,-0.82352996,-0.22096312,-0.3667497,-0.13685331,-0.5169325,0.7386661,-0.2831463,0.2023419,-0.5605823,0.82772654,0.12962365,-0.23475687,-0.23417063,0.2864546,-0.183286,-0.16965576,-0.44841662,0.3619008,0.1599471,-0.5590655,-0.5860316,-0.30122316,-0.2364331,0.28611946,-0.3479761,-0.4533254,-0.21289992,0.72902244,0.79197854
ETF1,-0.035073627,0.04142291,0.02897226,-0.06680299,0.040816203,-0.09772168,-0.054692745,0.06093365,0.025238952,0.010608884,-0.03334888,-0.006737776,0.08207874,0.04468566,-0.072762445,0.06027183,0.020571746,-0.08498131,-0.036142953,0.023287896,-0.0014135087,-0.034007296,0.007681381,0.08524899,0.045377478,-0.06521785,0.008380834,-0.09729973,0.033074368,0.017830204,0.030015945,-0.04894859,0.009518065,0.0045716166,-0.03663125,-0.07022271,0.0013654418,-0.027832799,0.032790735,-0.012144823,0.062617496,-0.02570535,0.006760873,-0.037097353,0.106724545,-0.005191643,0.005247684,-0.016994119,0.03479411,-0.044152442,0.0076781176,-0.05181607,0.033993024,0.019587308,-0.051622286,-0.07671428,0.029924698,0.0020627081,0.045558743,-0.036654238,-0.031501636,-0.0020162314,0.094227515,0.06709981
NGLY1,0.2683961,0.14649308,-0.24265791,0.084713176,-0.18931665,-0.05798881,-0.1015306,-0.024116475,0.11664324,0.2220958,0.30666152,0.21908353,-0.28095797,-0.23181422,0.075429514,-0.25735688,-0.2232998,0.22116941,0.17912503,-0.13853087,0.1621086,0.20408183,-0.2283949,-0.18947393,-0.18199348,0.26756698,-0.18003719,0.017417615,-0.24362189,0.033960517,0.19706118,0.17549756,-0.26578182,0.21376225,0.25306293,0.23784366,0.24078052,0.29950318,0.14818832,0.3106879,-0.24178731,0.15111773,-0.07925098,0.26115087,-0.17810145,-0.14303607,0.24970506,0.2311101,-0.22706896,-0.19951905,0.116257966,0.15254131,-0.18365976,0.16407815,0.23805946,0.16761172,0.20421265,0.19018121,0.12468599,0.24279644,0.25834727,0.23261929,-0.12703872,-0.22419204
MCM3,-0.36271366,0.19966161,0.43776813,-0.6072691,0.6098388,-0.4816847,-0.5125532,0.78446525,0.34490535,-0.19841598,-0.5331559,-0.23669143,0.8860556,0.4247781,-0.3009296,0.5326612,0.3475427,-0.83759445,-0.25294167,0.4898427,-0.1452382,-0.40682387,0.2924838,1.1128209,0.4990176,-0.67059475,0.1906401,-0.9324627,0.71308494,0.51463306,0.053689875,-0.60181016,0.36615235,-0.22589329,-0.32583413,-0.8868933,-0.15634729,-0.2849213,-0.13931444,-0.4722802,0.7211775,-0.36196846,0.23689608,-0.6164134,0.8613824,0.20540014,-0.2618195,-0.24567842,0.21711916,-0.2299516,-0.2546764,-0.39229253,0.4045813,0.27738845,-0.59699476,-0.5319685,-0.26555228,-0.21860549,0.38486058,-0.3446064,-0.43675387,-0.116659164,0.69839096,0.9456384
ZFP655,-0.015802111,-0.021616437,-0.014978009,0.010582991,-0.0349074,0.0323814,0.048632283,-0.0664683,-0.032229885,-0.027463773,0.016359422,-0.0099300295,-0.022494785,0.025340108,-0.010355193,0.009824574,0.005387171,0.03211995,-0.03922969,-0.010306936,-0.006116604,0.0014559757,0.015228141,-0.09601534,0.008738513,-0.0022340664,0.028476479,0.042690564,-0.036383346,-0.06662142,-0.027236938,-0.00051853806,0.017001987,-0.005010754,-0.03584677,0.03702396,-0.027362574,-0.029818527,-0.01483123,0.01827879,-0.05493185,-0.0071855336,-0.03666675,0.030370573,-0.02147051,0.014289215,-0.005335409,-0.041534662,0.031847633,0.043198727,0.010931775,0.015432507,0.003868077,-0.06579544,0.011990214,-0.008052938,0.009913951,0.01351827,-0.0490346,-0.019717023,-0.01940877,-0.022022039,-0.022962831,-0.04176507
CCNB1,-0.42905825,-0.035502054,0.48589972,-0.44408455,0.5057165,-0.24662657,-0.23132019,0.4297644,0.09754726,-0.27597558,-0.5572661,-0.29969704,0.791226,0.4380076,-0.23777781,0.50605196,0.44709077,-0.7336758,-0.3492329,0.44297183,-0.27456337,-0.4494089,0.40620354,0.7564687,0.47096795,-0.6056551,0.29689097,-0.52135503,0.6182438,0.2236635,-0.16225967,-0.51364774,0.43281177,-0.34120584,-0.42124268,-0.6971662,-0.3262297,-0.44731465,-0.22877339,-0.54094017,0.6518356,-0.3571126,0.20220135,-0.5181496,0.6920681,0.2159402,-0.3150373,-0.33406937,0.36021748,-0.021809677,-0.20182304,-0.33764383,0.41855228,-0.007125389,-0.55511063,-0.46248546,-0.34948474,-0.28127784,0.11177924,-0.41811198,-0.49450386,-0.30436176,0.5674781,0.6990741
ZKSCAN6,-0.11012477,-0.11677753,0.08914299,-0.033859212,0.033277504,0.1581432,0.11715965,-0.14153442,-0.08785207,-0.1250381,-0.08689179,-0.11951617,0.03255411,0.12096827,0.0243054,0.10974826,0.073038444,-0.029745972,-0.11554833,0.068104014,-0.100591704,-0.106113896,0.15669006,-0.107694685,0.06850745,-0.08642794,0.118858784,0.12824167,0.005723845,-0.112331495,-0.15660831,-0.08287653,0.10415909,-0.13475439,-0.13421017,-0.022506453,-0.1316514,-0.1730783,-0.1127653,-0.09102532,-0.025805034,-0.08433092,-0.0140867755,-0.054294933,-0.08230819,0.09310094,-0.12004337,-0.12245258,0.1468676,0.15864469,-0.055685,-0.0040421374,0.06832479,-0.17306237,-0.06172716,-0.035473812,-0.10949762,-0.0743496,-0.17583624,-0.13081169,-0.12988754,-0.13163993,-0.07310271,0.01819602
SP100,0.25617206,0.16333914,-0.23812446,0.08342356,-0.17538556,-0.077929944,-0.11918719,-0.017982293,0.12144465,0.23573256,0.2895374,0.21859245,-0.25765282,-0.22451602,0.053628992,-0.24237987,-0.22178659,0.20000483,0.17751943,-0.14278212,0.15864117,0.19740357,-0.22743356,-0.15102725,-0.17555672,0.25107247,-0.18305263,-0.0061801714,-0.22145668,0.047702502,0.20709479,0.16638714,-0.25482392,0.2129941,0.24008396,0.21255079,0.24174453,0.28974465,0.15548323,0.2970213,-0.21594955,0.1594852,-0.07735358,0.23853488,-0.15636966,-0.14900073,0.23999406,0.23916546,-0.23144308,-0.20808066,0.11726695,0.13035682,-0.18428004,0.17513958,0.2277559,0.1502606,0.20250101,0.1813154,0.13780236,0.23506041,0.24943565,0.23272063,-0.10429858,-0.2132651
ZBTB20,-0.09563948,-0.08986368,0.065913826,0.0045624394,0.0339434,0.115140155,0.098202944,-0.13502449,-0.07624883,-0.068275094,-0.08943007,-0.092552766,0.022578316,0.073829964,-0.005896952,0.09928888,0.0576751,-0.013542065,-0.09427188,0.035435457,-0.07196069,-0.07111427,0.113924086,-0.08111037,0.052507307,-0.07267969,0.08224721,0.10208367,0.0063748695,-0.101736054,-0.12719584,-0.05824852,0.089045785,-0.07444549,-0.09381724,-0.02250833,-0.11500142,-0.1500393,-0.07278091,-0.08682343,-0.004660111,-0.034042537,-0.017527826,-0.05276798,-0.05005271,0.057077188,-0.09476404,-0.07052817,0.12753251,0.14335695,-0.029163444,-0.014412435,0.052601155,-0.14550807,-0.04898403,-0.04422523,-0.059150733,-0.05742995,-0.15665625,-0.11416613,-0.11044628,-0.09837875,-0.039233267,-0.031610467
ARHGAP15,0.014880955,0.042733785,-0.013819709,0.00854643,-0.0106249675,-0.08010937,-0.02392608,0.0037660785,0.013880856,0.035950925,0.0094342735,0.045810908,0.020234797,0.018551819,-0.09445636,0.013011261,-0.008465235,-0.020877594,-0.022787612,-0.024422944,0.023225779,0.02868515,-0.01156836,0.054594018,-0.003597729,-0.029109135,-0.007997293,-0.044174466,0.009264182,-0.024916437,0.059412267,-0.0055609047,-0.007145934,0.041084222,-0.0038063843,-0.032357454,0.022423904,0.019091034,0.044807777,0.026123336,0.018952906,0.01242147,-0.03031236,0.01665412,0.055738397,-0.04631903,0.034844063,0.0056469906,-0.009669058,-0.04516833,0.05773564,-0.052252546,-0.025358638,0.017348751,0.0049336664,-0.06601403,0.059141323,0.039486304,0.0426037,0.008597139,0.01944935,0.025441112,0.0575466,-0.007996917
ZKSCAN17,0.03380306,-0.021672562,-0.019395929,0.17162208,-0.029237144,-0.0022812225,0.1504968,-0.19490571,-0.0872268,0.018973304,-0.034236677,0.01695747,-0.07211551,0.008616332,-0.1888778,0.019246008,-0.033549204,0.055386074,-0.0046829134,-0.16053969,-0.0017846659,0.057241194,-0.016435072,-0.06483753,-0.043573268,-0.01913244,0.013186179,0.14154662,-0.031073606,-0.18174674,-0.014891468,0.049438305,0.044634208,0.006594181,0.008633874,0.033750415,-0.028167758,0.016169813,0.009560943,-0.042021956,-0.02328366,0.118297786,-0.14172636,0.054994233,-0.07322745,-0.06586891,0.030841315,-0.042698137,0.020798665,0.04723427,0.11727087,-0.10830684,-0.048197255,-0.07606129,0.1025198,-0.056963746,0.011533387,-0.01423664,-0.0869914,0.059906982,0.043597113,-0.011474729,0.010142447,-0.14403744
H2-DMB1,0.114584744,0.04841116,-0.12715374,0.08891566,-0.122165605,0.004815721,0.006258648,-0.08092442,0.019000253,0.0844232,0.14620328,0.10582055,-0.15309118,-0.08747682,0.00010313094,-0.115560785,-0.107965484,0.1432426,0.06200376,-0.09807378,0.08346069,0.11845269,-0.100771904,-0.14000984,-0.09393308,0.12800342,-0.064141154,0.06207248,-0.12999311,-0.050180893,0.07811973,0.097871445,-0.10017546,0.102331005,0.09634188,0.13292396,0.083428234,0.1263929,0.056116365,0.1479778,-0.1500409,0.08374439,-0.08054376,0.14195566,-0.11259172,-0.06961087,0.1089731,0.08223874,-0.09573235,-0.050859563,0.07614778,0.05668767,-0.10957569,0.032928005,0.1340795,0.06021783,0.10329591,0.10111368,0.015012024,0.11866297,0.12812921,0.09415167,-0.08295827,-0.15473334
ERLIN2,0.11446263,0.04667072,-0.122175515,0.06822747,-0.1219843,-0.01078655,-0.004873637,-0.072582364,0.030549297,0.07739761,0.14381623,0.10280144,-0.15127558,-0.09254958,0.011525817,-0.11991884,-0.10719297,0.12919757,0.063203126,-0.089681685,0.07828891,0.11364458,-0.09735884,-0.1409809,-0.08730576,0.12074057,-0.06394303,0.044239953,-0.12931602,-0.036556225,0.07398009,0.09692084,-0.10219713,0.10505775,0.0950208,0.13336211,0.07761891,0.12154861,0.052330717,0.15436448,-0.15056422,0.07619904,-0.076006524,0.14817873,-0.102495015,-0.064464755,0.11278613,0.08324348,-0.083023526,-0.06028539,0.06931293,0.06429468,-0.09010522,0.040892318,0.1268183,0.06433378,0.10200916,0.09745315,0.022490917,0.124917045,0.1282001,0.090381846,-0.06534433,-0.13884336
AFF4,0.17056262,0.10560101,-0.17067805,0.059265062,-0.13903457,-0.06804332,-0.07350768,-0.020508591,0.08209313,0.16443469,0.20111707,0.15752943,-0.17793015,-0.14011972,0.01944476,-0.16642587,-0.16629772,0.14588222,0.1138819,-0.109010145,0.12277232,0.1480304,-0.15995206,-0.10661775,-0.12533027,0.16885546,-0.11990628,-0.0070243985,-0.16065735,0.01435937,0.1486789,0.12041897,-0.17450476,0.15906289,0.16078882,0.14520144,0.16766286,0.20276722,0.10951331,0.2153045,-0.15217142,0.117361605,-0.07270378,0.173273,-0.10146506,-0.116191275,0.17031014,0.15774521,-0.16291216,-0.13574967,0.09151688,0.077561274,-0.14329271,0.11619209,0.15999728,0.08639194,0.14900161,0.1418196,0.09537087,0.17424375,0.18539608,0.1532464,-0.06747349,-0.14925699
ABL1,-0.21770598,-0.30325222,0.1783632,-0.10215659,0.064811446,0.2875521,0.18622224,-0.1198217,-0.13782272,-0.30133268,-0.15681714,-0.20200522,0.041233428,0.2083963,0.19771051,0.15318519,0.19082037,-0.041146256,-0.18353856,0.16072497,-0.1929959,-0.166188,0.21777818,-0.23212263,0.19588828,-0.11719214,0.19514155,0.13309252,0.027790684,-0.09541041,-0.31783485,-0.12484114,0.21014589,-0.22533971,-0.23888507,-0.00097072124,-0.27424935,-0.29651245,-0.22623038,-0.14036994,-0.020172697,-0.26163557,0.057651088,-0.067547664,-0.03275372,0.2275295,-0.22860862,-0.25569153,0.2563982,0.3287968,-0.13783377,0.14969873,0.21212815,-0.28968367,-0.17074618,0.05377305,-0.18756554,-0.14298011,-0.23749773,-0.2442223,-0.23098664,-0.23729432,-0.11013595,0.06437938
DDX58,-0.03160825,-0.0059683844,0.02002246,-0.030907812,0.010808732,-0.055025164,-0.012807697,0.011241354,0.02494871,-0.033093214,-0.02450462,0.0114007,0.032565508,0.03376503,-0.03604994,0.016351357,0.021078855,-0.039932147,-0.048685145,0.028383631,-0.007865849,0.0017930996,0.019501131,0.053173423,0.030939404,-0.043689843,0.020118635,-0.06602804,0.043106157,-0.010157723,0.00386744,-0.029264487,0.026200913,0.008766264,-0.04370515,-0.033317298,-0.022801492,-0.024209984,0.0017498285,0.0040406343,0.01918377,-0.032018095,-0.009992391,0.0015842207,0.06750447,0.005258873,0.0013858378,-0.026965238,0.03208227,-0.0101737995,0.031499792,-0.024202015,0.024142113,0.0009006411,-0.017178573,-0.061997868,0.025035158,0.010764208,0.028613195,-0.017627655,-0.009672094,-0.016082555,0.07121508,0.017149892
E2F4,-0.17930885,-0.17034245,0.14753464,-0.11421734,0.11692643,0.023891289,0.0011343472,0.048844,-0.06640691,-0.20627517,-0.19754103,-0.15875316,0.16217327,0.2136021,-0.02794436,0.18680248,0.17365518,-0.19970857,-0.17001648,0.14610632,-0.14024559,-0.1588158,0.15913911,0.07969317,0.21887109,-0.22823346,0.12604395,-0.117699146,0.19385837,0.01204228,-0.15532997,-0.17227592,0.17585754,-0.15431099,-0.19548638,-0.18926479,-0.16933767,-0.20124254,-0.10248536,-0.17599346,0.093640715,-0.19352277,0.013542645,-0.13841584,0.17728728,0.15016034,-0.1837231,-0.20279548,0.2039299,0.12775715,-0.10256991,-0.036524665,0.18806912,-0.098618105,-0.17001376,-0.11314227,-0.12480668,-0.13577415,-0.07251434,-0.20661093,-0.16067632,-0.11916442,0.12379328,0.18459
CD93,0.12880996,0.09887703,-0.13781588,0.056967672,-0.11374052,-0.08731496,-0.069373116,-0.023076963,0.06434547,0.14920893,0.14524788,0.13710426,-0.12801693,-0.1062374,-0.025580753,-0.11545354,-0.13558961,0.10002317,0.08508618,-0.0961825,0.10185626,0.12551846,-0.13230278,-0.04901331,-0.10258042,0.11806903,-0.10765678,-0.021925835,-0.1096863,-0.0040373504,0.13224138,0.098684855,-0.13660926,0.1310609,0.1147947,0.093210205,0.14166886,0.15461148,0.10822186,0.16986999,-0.10060748,0.1072664,-0.06227067,0.12721986,-0.06446844,-0.11413435,0.13781781,0.13292584,-0.13678214,-0.118391946,0.09044024,0.031021256,-0.119925454,0.101198226,0.12526369,0.04435001,0.14165227,0.119738415,0.0918861,0.13630912,0.15126824,0.1265337,-0.034946166,-0.12487428
MCM7,-0.56590134,-0.054347657,0.61742866,-0.7243601,0.6633252,-0.26627138,-0.3663243,0.7373727,0.28789163,-0.4439361,-0.6602012,-0.43703467,0.93496907,0.5664586,-0.12329963,0.6301466,0.52082884,-0.87088674,-0.3900035,0.65030295,-0.31086057,-0.55253476,0.45486453,1.0013983,0.6247329,-0.7386294,0.36471304,-0.83358073,0.7786536,0.46120408,-0.19014677,-0.6972175,0.5468777,-0.41442165,-0.5182127,-0.90351224,-0.40079775,-0.52625257,-0.30691934,-0.60506034,0.7466555,-0.541789,0.3380605,-0.6654601,0.83811694,0.38390362,-0.45239395,-0.40877783,0.42172793,0.018680349,-0.35172403,-0.2719495,0.6041533,0.09204972,-0.7600986,-0.47283491,-0.41016692,-0.37186095,0.20651118,-0.5282178,-0.5992108,-0.32873568,0.65608054,1.0330201
INKA1,0.108100176,0.09167291,-0.114442065,0.039133538,-0.09997174,-0.092463404,-0.05572567,-0.0060457587,0.055870462,0.124605775,0.127281,0.12399383,-0.10700552,-0.086440295,-0.024531476,-0.099093944,-0.11419312,0.07825481,0.063157275,-0.07719447,0.08786409,0.110224895,-0.11050835,-0.04281819,-0.08292012,0.09649367,-0.090453506,-0.029252494,-0.09985265,-0.0068414547,0.115861,0.084082894,-0.11994063,0.120795704,0.100060195,0.083596334,0.121526614,0.1335495,0.097030595,0.14788154,-0.08976056,0.087460935,-0.05502983,0.12309191,-0.032598495,-0.10300512,0.12815727,0.10407024,-0.109813206,-0.1121061,0.08530113,0.032592718,-0.10606849,0.08750233,0.10572221,0.02883837,0.12430178,0.109550565,0.085220546,0.12445441,0.13563925,0.10543523,-0.019528564,-0.10106777
ZFP945,0.14509864,0.06925052,-0.154371,0.102188386,-0.13601243,-0.0017633643,-0.012446918,-0.089687794,0.037520688,0.119283915,0.17511442,0.12563021,-0.18327805,-0.12611447,0.009873662,-0.14812389,-0.13924637,0.16452746,0.087879226,-0.11616585,0.10117866,0.13822798,-0.12691185,-0.14829251,-0.119373254,0.15797383,-0.089811325,0.05716201,-0.14572117,-0.032211807,0.09942738,0.11763022,-0.12742126,0.12256294,0.1277766,0.15227214,0.11549543,0.1613685,0.076592505,0.1737963,-0.1652934,0.1145172,-0.083810024,0.15311942,-0.13858384,-0.08870471,0.1343925,0.12574552,-0.12712753,-0.07913016,0.08408554,0.064297155,-0.12832613,0.063193604,0.1628021,0.08032249,0.12002958,0.11007255,0.02944665,0.15434034,0.15359302,0.12104097,-0.09387187,-0.17935546
WDR4,-0.18439281,-0.071317516,0.16579083,-0.14231877,0.15811174,0.0025285166,0.015217181,0.060105767,-0.030512467,-0.13990963,-0.18497664,-0.13256493,0.24714321,0.18088083,-0.0541352,0.2019698,0.17760001,-0.20079917,-0.16629459,0.14856228,-0.12080594,-0.17719564,0.17293389,0.11418117,0.1673176,-0.20353752,0.14694111,-0.08089459,0.16090244,-0.008749146,-0.1224589,-0.1747652,0.18076873,-0.15151699,-0.19440922,-0.1818346,-0.1605929,-0.21941094,-0.1061292,-0.18301475,0.17025413,-0.15299274,0.05701916,-0.15592289,0.17474663,0.107600786,-0.13858917,-0.1713248,0.17774361,0.08655836,-0.074549526,-0.07134827,0.15991692,-0.12137057,-0.18727505,-0.13556397,-0.13669288,-0.09475869,-0.053162176,-0.20535813,-0.2201358,-0.15713944,0.118838616,0.19107236
MFNG,-0.1465703,-0.1725227,0.14898184,-0.02093243,0.092258275,0.23922686,0.16500369,-0.19767274,-0.11496908,-0.15259963,-0.13936552,-0.1791709,0.03745725,0.12974095,0.06011739,0.14619222,0.109870024,-0.032922976,-0.13283947,0.08814545,-0.13830824,-0.14719296,0.18873341,-0.14221764,0.09336415,-0.104728915,0.13912244,0.18704517,0.012760598,-0.13219137,-0.23582357,-0.10401105,0.13696796,-0.16208619,-0.14692676,-0.031992465,-0.19243197,-0.24327166,-0.1583446,-0.1521856,0.0021740422,-0.09749211,0.00033321977,-0.094489366,-0.11023745,0.13036427,-0.17365584,-0.13479221,0.2101351,0.23539071,-0.07957773,0.0035659038,0.102339596,-0.22205919,-0.09292161,-0.031672135,-0.16332504,-0.11772008,-0.26046175,-0.18833753,-0.18533191,-0.17681493,-0.10974299,-0.0040063523
NSMAF,0.07555568,0.077591464,-0.080446124,0.018408172,-0.059193358,-0.070773646,-0.04536762,-0.00077160075,0.037736543,0.08552833,0.08555561,0.07839468,-0.0594794,-0.04731002,-0.044226505,-0.05849775,-0.06811662,0.04524543,0.040318564,-0.05983567,0.058144104,0.071163245,-0.07989466,-0.024104547,-0.047684856,0.052555792,-0.056633387,-0.03054365,-0.07208884,-0.006518401,0.09301873,0.04472842,-0.079571165,0.08310322,0.07273331,0.05044171,0.08227457,0.09004076,0.077156365,0.094829515,-0.056755144,0.053832788,-0.049628675,0.07862489,-0.0078709535,-0.06674967,0.0892023,0.061619423,-0.064561315,-0.080489054,0.062289942,0.0043009184,-0.06786361,0.055574372,0.071758516,1.6171485e-05,0.08787972,0.07164404,0.060896035,0.07399775,0.08869775,0.0793194,0.0024542585,-0.06572041
ITSN1,-0.026670095,-0.013539068,-0.0199651,0.02474499,-0.023788147,0.045848124,0.03279873,-0.09202367,-0.020288073,-0.004601976,-0.00642851,-0.012212012,-0.02734233,0.011966258,-0.012822818,0.017644573,-0.01166137,0.033412386,-0.029373314,-0.0026985034,-0.014475088,0.0015824866,0.03060573,-0.07665458,0.00810864,-0.0065541,0.016428065,0.04499159,-0.027957965,-0.059294295,-0.044165753,-0.009989195,0.018338643,-0.0024821796,-0.04445803,0.024302829,-0.031913638,-0.04404666,-0.02518683,0.0009608846,-0.052054428,0.013114672,-0.031707168,0.008456819,-0.038831733,0.0059061423,-0.01255434,-0.0040407423,0.03408686,0.053688895,-0.0026965886,-0.0003987588,-0.0033259243,-0.05860403,0.012782205,-0.024881486,0.00062435865,0.010268908,-0.062061127,-0.01810953,-0.028648427,-0.02612546,-0.030291863,-0.052567393
PCYT1A,-0.077467054,-0.049279116,0.058515724,-0.026914263,0.033536345,0.011256712,0.061956525,-0.053970914,-0.04819966,-0.06817137,-0.07861535,-0.052304197,0.07191111,0.08930515,-0.06616482,0.08217557,0.07899427,-0.065678574,-0.09594709,0.026803691,-0.057546344,-0.06393171,0.09459755,-0.0063919313,0.061347194,-0.10342906,0.074221596,0.023944683,0.033973638,-0.071830615,-0.066539995,-0.055871144,0.089025505,-0.05646287,-0.09319621,-0.0512217,-0.09830074,-0.11467059,-0.049804434,-0.07068874,0.03611984,-0.05488615,-0.004981242,-0.03210706,0.049379636,0.03688173,-0.0479579,-0.086962156,0.12000199,0.06146795,0.0003115572,-0.052376226,0.057213653,-0.101716086,-0.06480851,-0.083094895,-0.0451117,-0.038266014,-0.0688159,-0.07940769,-0.093437776,-0.08415744,0.049770005,0.030968186
UMPS,0.059051707,0.09238423,-0.055688158,-0.026031228,-0.02384919,-0.113930106,-0.08126773,0.058950715,0.063425206,0.08883757,0.070402786,0.07037625,-0.01581335,-0.033523913,-0.05140987,-0.04171343,-0.060593046,0.00017236918,0.03763079,-0.03611885,0.054423116,0.046202406,-0.079510316,0.036513157,-0.02654149,0.030011974,-0.054532688,-0.08770264,-0.04260911,0.033892743,0.10557841,0.02084732,-0.08060513,0.08250206,0.06464644,0.0072507225,0.085590586,0.08747254,0.083283156,0.08296418,-0.01347325,0.03699458,-0.029915757,0.05281384,0.043647166,-0.055499353,0.082515575,0.06261534,-0.057953797,-0.10689083,0.05212145,-0.008805569,-0.04644529,0.085010365,0.035919745,-0.020399477,0.08045602,0.06316146,0.09491208,0.06225615,0.07360788,0.07998857,0.048408344,-0.004531741
PSTPIP1,0.091134906,0.043250542,-0.11748138,0.0733514,-0.10007881,0.0052480735,-0.0057624206,-0.08298108,0.031226343,0.085150965,0.12107711,0.090453476,-0.13551584,-0.09147249,0.011627771,-0.10327022,-0.098559275,0.122956626,0.053799212,-0.07317331,0.07421852,0.10184608,-0.08408393,-0.1226662,-0.082266085,0.1131861,-0.062221456,0.038526937,-0.108130515,-0.031739544,0.0531632,0.08164381,-0.091311805,0.09038661,0.07911375,0.111966126,0.07608344,0.10630195,0.047319733,0.12893434,-0.13386104,0.08987868,-0.06858048,0.113576055,-0.10280651,-0.056763865,0.09233667,0.09100256,-0.0840277,-0.045487776,0.05557284,0.048369084,-0.085473046,0.04379973,0.11423237,0.050546955,0.09239529,0.085312456,0.004749406,0.105155095,0.106852934,0.0796006,-0.07078725,-0.13709861
MNDAL,0.08612874,0.07658958,-0.09882504,0.049951233,-0.08256136,-0.056975875,-0.04942,-0.043101784,0.04325066,0.10882588,0.093541935,0.09621687,-0.08822324,-0.078121126,-0.02729971,-0.070622325,-0.09263343,0.07129335,0.049792908,-0.064180896,0.0736016,0.087520085,-0.08188741,-0.043058805,-0.07048671,0.07675091,-0.06942198,-0.016442072,-0.07554334,-0.01299341,0.08238165,0.063022204,-0.08693742,0.09205099,0.06765638,0.06204308,0.092717856,0.09404154,0.07036367,0.11585942,-0.07585253,0.088631034,-0.0495406,0.084425405,-0.046785668,-0.078192346,0.09041461,0.09833201,-0.093490265,-0.07469331,0.06572755,0.018101644,-0.0860585,0.06457101,0.08531424,0.020308498,0.11009565,0.08460048,0.04800827,0.08969092,0.09277101,0.08426297,-0.023442518,-0.09648618
GM8995,0.14914405,0.09876115,-0.1503269,0.07027208,-0.12252696,-0.068067014,-0.064189896,-0.032610606,0.06852232,0.14845413,0.17572215,0.14820983,-0.15785047,-0.12861939,0.0021262392,-0.13777281,-0.14736757,0.12784898,0.09196891,-0.10003479,0.11535556,0.13451464,-0.14020202,-0.086849436,-0.11170136,0.14890152,-0.10920152,-0.0037588966,-0.127793,0.0023039319,0.13014194,0.10814794,-0.14735508,0.14168689,0.13463707,0.12382468,0.14660366,0.17171653,0.09894201,0.18971519,-0.13417146,0.11535859,-0.06394707,0.15015289,-0.09522705,-0.10800662,0.15192872,0.14631307,-0.14836371,-0.12330103,0.08484906,0.062148515,-0.12362766,0.10952765,0.13956985,0.07390721,0.15002078,0.12749536,0.07937305,0.15017807,0.1654512,0.13925871,-0.05674067,-0.14241771
USP4,0.009140527,0.016859494,-0.026203062,0.012992434,-0.039042793,0.010879734,0.016059048,-0.05796201,-0.00926026,0.013307184,0.019656824,0.013491061,-0.03300784,-0.009965673,-0.009375367,-0.01061579,-0.016812596,0.025654605,-0.012479275,-0.015341893,0.007872179,0.010157356,-0.011697292,-0.081500106,-0.010078564,0.015222855,-0.0014240965,0.022050612,-0.05139652,-0.042993207,-0.01160948,0.010698117,-0.014344685,0.011893205,-0.00847977,0.038946904,0.001258228,3.392622e-05,0.006009668,0.03549138,-0.053957008,0.019475024,-0.025488012,0.03402012,-0.021845868,-0.011620712,0.01677457,0.001217097,0.007044878,0.008894134,0.018515617,0.01679077,-0.01647744,-0.029967757,0.022370854,-0.0026909076,0.03069295,0.023979293,-0.036198143,0.013515286,0.007256102,0.0036081076,-0.012226004,-0.0376584
TRIM30A,0.13703436,0.0994302,-0.14104223,0.056201894,-0.11867176,-0.08031067,-0.06490927,-0.025060277,0.06860286,0.1493626,0.15754765,0.14641099,-0.1417213,-0.124721795,-0.0013496466,-0.12736954,-0.13633984,0.1108633,0.088924006,-0.08940713,0.10538247,0.13102366,-0.13467361,-0.0717969,-0.103716426,0.13312611,-0.11130528,-0.015741156,-0.12008868,-0.00033798814,0.12495996,0.1040731,-0.14580429,0.13400844,0.12406832,0.115244254,0.1468158,0.16069508,0.106170714,0.18267758,-0.117208734,0.10994078,-0.05762595,0.14369352,-0.06931178,-0.1113754,0.15079616,0.13700134,-0.14022058,-0.124804184,0.08956128,0.055791866,-0.1166624,0.10593906,0.133866,0.06461221,0.14785352,0.12787713,0.0846119,0.14492826,0.15883873,0.12779467,-0.043835014,-0.13403682
STEAP3,-0.15326543,-0.06516636,0.12559853,-0.11878366,0.11138727,-0.0029075742,0.013208233,0.041592292,-0.021795101,-0.11537288,-0.14288983,-0.10193759,0.18103732,0.14136116,-0.045781568,0.14677194,0.12453877,-0.15057804,-0.11918359,0.10710657,-0.09813276,-0.13583052,0.11157718,0.08695552,0.13183877,-0.15501547,0.11367576,-0.07282392,0.108203575,-0.013163429,-0.10047432,-0.1168325,0.1292293,-0.10812188,-0.15516558,-0.14193305,-0.11798982,-0.16611436,-0.066768415,-0.12829825,0.11834073,-0.11020887,0.036024228,-0.113919675,0.14203437,0.089714654,-0.10455191,-0.12854566,0.14465196,0.06293546,-0.05248914,-0.059933092,0.12351933,-0.07990587,-0.14371315,-0.10787527,-0.10057619,-0.076637,-0.047718506,-0.14710566,-0.15392028,-0.11363031,0.11107459,0.14212878
CKAP5,-0.31913865,-0.06912442,0.34920734,-0.30995694,0.34705657,-0.11401762,-0.10996182,0.25021657,0.03683641,-0.24350956,-0.38319775,-0.23731609,0.5253881,0.32705033,-0.12699765,0.3629688,0.32765073,-0.47561044,-0.2711534,0.31951132,-0.21179597,-0.32543978,0.31671807,0.4461564,0.34179062,-0.42406872,0.23302582,-0.31271517,0.40874216,0.11481331,-0.1588394,-0.36036164,0.3285849,-0.25315607,-0.3293418,-0.45106316,-0.26847228,-0.36219552,-0.18537349,-0.37394792,0.42136186,-0.28409395,0.1435069,-0.34741968,0.43822005,0.17837447,-0.24556445,-0.266326,0.2900644,0.051496435,-0.14651795,-0.19680755,0.31692886,-0.07917595,-0.3897407,-0.29987428,-0.25047576,-0.20834701,0.034209203,-0.33745164,-0.38199666,-0.25283116,0.3519432,0.46561843
INCENP,-0.033334393,0.13523453,0.06450537,-0.14155151,0.13724317,-0.22374886,-0.18693784,0.22231783,0.1330344,0.043323144,-0.09063435,0.020916793,0.22808103,0.07292839,-0.17235442,0.075568706,0.034798697,-0.20875098,-0.017025154,0.06860991,0.019082328,-0.042364344,0.00608043,0.35950598,0.08543719,-0.15278396,0.003385488,-0.28596872,0.1499975,0.13623042,0.1108692,-0.1261946,0.034552507,0.04113952,-0.02412052,-0.23587185,0.041956645,0.01848283,0.04408466,-0.066647574,0.1932847,-0.029232256,0.01202479,-0.1189982,0.26928565,-0.027618468,0.019535638,0.0081283655,-0.0015956387,-0.15943691,0.008803949,-0.15888917,0.021969229,0.15301122,-0.10033317,-0.20806716,-0.026165918,0.010300348,0.1873705,-0.01381202,-0.04536386,0.039548993,0.25407973,0.20619266
STARD7,-0.1858442,0.08194832,0.22371352,-0.24864118,0.26734123,-0.29112813,-0.20713757,0.31239215,0.12560353,-0.051569805,-0.26652855,-0.08397384,0.43515208,0.20566581,-0.23142697,0.23507202,0.17028728,-0.40709817,-0.14283767,0.18875507,-0.0808736,-0.18715444,0.14117602,0.542154,0.2209025,-0.32968298,0.09627442,-0.39386103,0.33169785,0.16265278,0.029367812,-0.26054543,0.1705347,-0.06985498,-0.17583688,-0.41874623,-0.08017216,-0.15374953,-0.019169953,-0.22591323,0.38131022,-0.12559184,0.09114392,-0.2648001,0.45203182,0.038813546,-0.09077287,-0.09724869,0.12887181,-0.12419571,-0.04835943,-0.24967746,0.16937082,0.112152055,-0.26637337,-0.32081112,-0.102373965,-0.09522726,0.1844208,-0.16935326,-0.20019068,-0.08814472,0.4061592,0.38554558
NFATC1,-0.11371906,-0.17667651,0.080188006,-0.0075664073,0.045372777,0.1416195,0.09672784,-0.082987964,-0.12198136,-0.16657709,-0.117724635,-0.12033662,0.03597826,0.1320467,0.0059822984,0.11949326,0.118463,-0.03604103,-0.10917464,0.060034413,-0.09404003,-0.09102198,0.106541604,-0.09966038,0.114575796,-0.093646996,0.10909878,0.07549867,0.057493877,-0.07833047,-0.14371386,-0.08387343,0.1360693,-0.119569324,-0.13650467,-0.044448286,-0.13677083,-0.1499793,-0.09829579,-0.11829014,0.00046364963,-0.11601792,-0.031308614,-0.062918276,0.0067018652,0.13960096,-0.15360649,-0.1625337,0.13212544,0.18396707,-0.07368624,0.02992474,0.09384656,-0.15847307,-0.08080254,-0.048564628,-0.102537744,-0.08522582,-0.13010652,-0.14244391,-0.124533266,-0.11091174,-0.035710163,0.04883272
CHAMP1,0.16112074,0.08903673,-0.16356876,0.06559947,-0.13121046,-0.028913397,-0.042190403,-0.045158055,0.059064377,0.13091266,0.19693449,0.13589494,-0.18384308,-0.13333957,0.029048886,-0.15980652,-0.14390573,0.15746535,0.10320151,-0.10637729,0.107465394,0.1374711,-0.14570047,-0.1455082,-0.11565062,0.16722783,-0.1051926,0.024691772,-0.17160897,-0.0037604347,0.120170824,0.11700063,-0.15890366,0.1407229,0.15356421,0.16373782,0.14228258,0.18432803,0.09525511,0.19773437,-0.16974449,0.09929949,-0.075191215,0.17162582,-0.12153846,-0.09139375,0.15574084,0.13378397,-0.13412222,-0.10530884,0.079867825,0.084490374,-0.12401216,0.08912104,0.16261041,0.09171462,0.13296723,0.12342681,0.06034366,0.15372935,0.17039005,0.13927609,-0.088483684,-0.1611426
VAV1,0.06300309,0.065874234,-0.070489466,0.029587468,-0.065639466,-0.057710152,-0.03742595,-0.027831178,0.03148049,0.0772533,0.07411372,0.0730683,-0.064882435,-0.053968947,-0.02526367,-0.04717511,-0.068863355,0.05066079,0.027894273,-0.051220816,0.060789872,0.06572429,-0.06545739,-0.0370523,-0.045428947,0.054420523,-0.04987729,-0.019885167,-0.06536614,-0.012878656,0.06824925,0.04360172,-0.0638941,0.07720012,0.049562342,0.05487872,0.07150759,0.070953965,0.060518928,0.093487844,-0.059267554,0.063284874,-0.042715885,0.068153486,-0.016979493,-0.0637408,0.07749902,0.064913966,-0.06437937,-0.06088288,0.054039907,0.01676463,-0.06503086,0.04763774,0.06445429,0.010306004,0.092237845,0.07405233,0.035486672,0.06796855,0.07332207,0.059574217,-0.008720512,-0.07630786
IFT140,-0.08938666,-0.025439806,0.062224183,-0.058871433,0.06068684,-0.015959438,0.010538399,0.01587389,-0.017221175,-0.064979754,-0.081758,-0.055434186,0.116425015,0.09998365,-0.07072787,0.095677584,0.076442435,-0.08841119,-0.0858858,0.053137284,-0.04961577,-0.06599525,0.07540856,0.055783294,0.08567484,-0.1148406,0.07528231,-0.04180824,0.07382281,-0.026713036,-0.03793619,-0.08593653,0.087035425,-0.05928144,-0.09334487,-0.09380269,-0.072141886,-0.09599197,-0.040870935,-0.07772596,0.06374283,-0.059813075,-0.011001453,-0.06021862,0.095779076,0.045427706,-0.052911628,-0.09287186,0.09140461,0.028954856,-0.022015544,-0.06421487,0.06312129,-0.05863907,-0.076798014,-0.09691793,-0.051728204,-0.032569643,-0.02412752,-0.083693385,-0.088405095,-0.06486509,0.07778428,0.07911073
SNRNP200,-0.21108897,-0.0875274,0.20438027,-0.15711458,0.18498415,-0.024021242,0.019235365,0.07264905,-0.060752384,-0.1455118,-0.2333875,-0.15007618,0.30038998,0.22509281,-0.09971935,0.25794104,0.22297433,-0.2621626,-0.20481338,0.14963193,-0.14701708,-0.21548648,0.20497745,0.16415665,0.19985878,-0.26274303,0.16874935,-0.084356435,0.19702396,-0.017905112,-0.1275422,-0.21199906,0.20813742,-0.18281865,-0.21825969,-0.22992817,-0.18608962,-0.25088435,-0.10593818,-0.22896609,0.23398255,-0.17974807,0.066131845,-0.19391358,0.22510596,0.10548819,-0.15956496,-0.19819143,0.21830949,0.09215997,-0.072061494,-0.1145231,0.19101226,-0.13346492,-0.22446793,-0.16753888,-0.14576986,-0.12631273,-0.06502169,-0.25241482,-0.2471268,-0.17994165,0.1583687,0.21733604
PRKAA1,-0.051836867,-0.044401333,0.022963047,-0.010496193,-0.0005271882,0.037664153,0.05762465,-0.07079272,-0.059828825,-0.046651416,-0.035077758,-0.0434668,0.021741435,0.06093138,-0.03311403,0.054435052,0.038798716,-0.016216652,-0.059661325,0.0062508397,-0.039402176,-0.045771956,0.050499972,-0.06998036,0.038912006,-0.051114224,0.05255059,0.048113767,-0.0146875195,-0.07720588,-0.05701617,-0.030242018,0.047478765,-0.03642361,-0.06491828,-0.005596176,-0.05574526,-0.07758255,-0.030460037,-0.030079927,-0.013172589,-0.028741624,-0.023085628,-0.015080985,0.0036869524,0.03323205,-0.04391184,-0.0645313,0.08054254,0.068531185,-0.005422352,-0.016397886,0.033819836,-0.092987314,-0.024575837,-0.04330643,-0.025979143,-0.021274634,-0.077287,-0.06343001,-0.06531465,-0.05280666,-0.005190186,-0.006968897
SCARF1,-0.08195585,-0.13101172,0.06853853,0.010225257,0.011665277,0.20735286,0.15276065,-0.1923729,-0.10404838,-0.11054216,-0.057025097,-0.10250628,-0.022145763,0.08832039,0.046868276,0.07812716,0.056239136,0.02319833,-0.09158354,0.034064557,-0.08682741,-0.07150166,0.12671912,-0.17598888,0.03634115,-0.037656575,0.10659118,0.18667573,-0.03934224,-0.13861358,-0.16484112,-0.04510923,0.08080984,-0.11256992,-0.088836215,0.02955408,-0.12884934,-0.15013756,-0.11301833,-0.07132752,-0.065537505,-0.053741198,-0.0389861,-0.020754587,-0.14052968,0.08608653,-0.10974981,-0.10586579,0.12937644,0.18110308,-0.04096867,0.02435666,0.03672875,-0.18316856,-0.02498933,-0.0021077432,-0.108851954,-0.058679584,-0.21099384,-0.102450885,-0.097488046,-0.11471397,-0.13084355,-0.048198633
PLAC8,-0.021562818,0.0156040415,-0.0022743978,-0.0010856611,-0.0035639778,-0.025478419,-0.011176534,-0.033866372,-0.0005158782,0.010997249,-0.021265924,-0.0013048351,0.02468147,0.02283569,-0.050464444,0.038682036,0.010493218,-0.019833727,-0.03541918,0.0075568594,-0.0056862254,-0.012318701,0.02500349,0.0047158375,0.012950351,-0.035140134,0.014218383,-0.017344555,0.004148528,-0.03517819,0.0011599436,-0.02558671,0.017266352,0.0008222237,-0.039300174,-0.020079978,-0.0058162548,-0.03605251,0.00917121,-0.0035901107,0.005614385,0.005704347,-0.013953067,-0.009280201,0.031404678,-0.005781673,-8.43592e-05,-0.007937787,0.02502269,0.0048579127,0.016374845,-0.027168054,0.0045834295,-0.027707318,-0.014144162,-0.043573547,0.030619264,0.009867929,-0.017504424,-0.028715614,-0.03515568,-0.007740449,0.024132906,-0.0081916135
NCAPG,-0.40518296,-0.08832192,0.44547874,-0.40108705,0.44203115,-0.13546579,-0.16384263,0.34390193,0.06481094,-0.28240162,-0.48250595,-0.2917307,0.6824032,0.40405133,-0.14515929,0.4473197,0.4200336,-0.6238361,-0.3275692,0.41679785,-0.26281384,-0.41358516,0.38605243,0.59117895,0.42689443,-0.5127394,0.28916952,-0.41133127,0.53036505,0.17527957,-0.1952551,-0.45091254,0.3966946,-0.34037405,-0.40078613,-0.5807797,-0.31358084,-0.42601314,-0.24130376,-0.4809456,0.5482196,-0.34697065,0.18944798,-0.4480103,0.57081586,0.23571432,-0.30483243,-0.32609117,0.33167586,0.03882528,-0.19706225,-0.24663998,0.3885842,-0.058950264,-0.49990836,-0.36856282,-0.33943284,-0.26087686,0.051455375,-0.39493787,-0.4681019,-0.3079095,0.44029468,0.60460764
ABCD3,-0.046512235,-0.020239182,0.026170291,-0.015749138,0.016546011,-0.0039652027,0.03214718,-0.026246574,-0.027809136,-0.028592655,-0.037954114,-0.020231023,0.05438342,0.060000554,-0.06545515,0.04759299,0.04379929,-0.03576807,-0.06189227,0.013965044,-0.028346794,-0.029196221,0.047070708,-0.0030959249,0.036354296,-0.060603175,0.04945656,0.006584548,0.017155487,-0.055303443,-0.022643425,-0.035628393,0.04550877,-0.027763983,-0.05555008,-0.035696924,-0.047726993,-0.055104483,-0.020530406,-0.031864822,0.018500917,-0.027502123,-0.0269421,-0.010864828,0.046372473,0.016844932,-0.01708104,-0.062855914,0.061799247,0.024202308,0.011674419,-0.04585326,0.019248959,-0.064498916,-0.035563424,-0.06851843,-0.022941604,-0.0020075552,-0.0328683,-0.04229463,-0.0506035,-0.045388103,0.040410362,0.015984789
TBCD,0.15543905,0.076463826,-0.15704414,0.07668638,-0.13339002,-0.020497747,-0.0336117,-0.055195104,0.05419658,0.12535273,0.1917935,0.13217413,-0.18244526,-0.13678159,0.03403185,-0.15447502,-0.1386799,0.15723203,0.09731777,-0.10096964,0.10842624,0.1344109,-0.13929173,-0.15048516,-0.115197144,0.16953322,-0.099102646,0.03222159,-0.16273025,-0.013881635,0.10821374,0.119065754,-0.1549434,0.13440436,0.14674425,0.16567838,0.13748457,0.17996867,0.08526325,0.19491905,-0.17014039,0.10237943,-0.07563968,0.1690523,-0.1251118,-0.08304087,0.15059426,0.12723444,-0.13318104,-0.09820767,0.07768406,0.08773227,-0.11626083,0.08661011,0.15717384,0.098147005,0.136767,0.120841086,0.045827355,0.15131128,0.16820298,0.13259852,-0.088644676,-0.16476606
VPS33B,0.14544548,0.07314541,-0.14918993,0.06898237,-0.13305114,-0.015335534,-0.022477597,-0.05762219,0.045658495,0.11620422,0.1770375,0.12235157,-0.1725358,-0.11666845,0.018336762,-0.14868821,-0.13260716,0.14957844,0.089143366,-0.10044792,0.09404245,0.12931617,-0.12738825,-0.14899209,-0.11081772,0.1517064,-0.088291824,0.04003867,-0.16225308,-0.020956408,0.1023049,0.11050963,-0.14151528,0.12444661,0.12917405,0.15210487,0.1219224,0.16352369,0.07502331,0.17842484,-0.16311726,0.09555428,-0.0773292,0.16322507,-0.116194226,-0.083784916,0.13671947,0.11131766,-0.11968783,-0.085757956,0.07703766,0.07645701,-0.1235276,0.062418953,0.14769813,0.076176435,0.11403237,0.11627777,0.041439045,0.14826246,0.15304214,0.12085618,-0.08348358,-0.15192969
NUPR1,-0.08067523,-0.008800231,0.10340507,-0.093641385,0.08758346,-0.14467637,-0.035318226,0.11167705,0.043698173,-0.05081263,-0.14337161,-0.03149986,0.1356589,0.13387483,-0.1819407,0.1219073,0.056165837,-0.1755277,-0.07983182,0.0350332,-0.03911879,-0.051546596,0.06336348,0.2317864,0.09614926,-0.21167773,0.06907353,-0.17607458,0.15152301,0.019968614,-0.01269009,-0.11966384,0.11140615,-0.016388131,-0.065727204,-0.24033833,-0.0869433,-0.056190033,-0.039887108,-0.10505372,0.107614145,-0.014779393,-0.026662964,-0.076364934,0.19976571,0.014655527,-0.050978307,-0.0973437,0.09583171,-0.044184167,0.02552763,-0.13813111,0.082023114,0.021163702,-0.14075276,-0.17470668,-0.0632828,-0.017351117,0.008076752,-0.023645218,-0.034360822,-0.041006647,0.22770686,0.1913973
PNO1,-0.13384941,-0.093097396,0.10559067,-0.07077613,0.087172136,0.04209852,0.06332441,-0.014118079,-0.05755598,-0.11262962,-0.114590876,-0.089192584,0.13026139,0.12283735,-0.02368974,0.12670627,0.12600434,-0.095662355,-0.12258341,0.07920246,-0.08842975,-0.12207512,0.105796486,-0.012424411,0.10241317,-0.11544782,0.1083424,0.0050915177,0.07319802,-0.058762286,-0.1160916,-0.08651328,0.1242142,-0.105889864,-0.14401028,-0.07602173,-0.12479831,-0.1605842,-0.07296477,-0.10688868,0.07966927,-0.10156803,0.03127028,-0.07537936,0.0771689,0.08771313,-0.09929073,-0.12883024,0.13901702,0.098058164,-0.0385242,-0.022398287,0.11250143,-0.12626964,-0.107241,-0.066387884,-0.08600902,-0.061182346,-0.09022504,-0.14408766,-0.14863668,-0.12160435,0.046406485,0.08892198
AP1G2,-0.10229647,0.017373964,0.10115798,-0.10295367,0.11239658,-0.09788613,-0.058261223,0.09806809,0.029748384,-0.051988266,-0.11889333,-0.0463439,0.19926564,0.11057915,-0.110367686,0.11934644,0.09161403,-0.16903521,-0.09010495,0.090222985,-0.046499047,-0.09333507,0.084230065,0.19097069,0.10740932,-0.15770164,0.07055943,-0.14307399,0.13797337,0.030089159,-0.014984138,-0.12182168,0.097520545,-0.043351125,-0.10734533,-0.1750343,-0.058013037,-0.09535755,-0.026282113,-0.10530998,0.14928268,-0.069277465,0.02071768,-0.1169177,0.19464725,0.036421772,-0.054183725,-0.0770797,0.08316046,-0.022831822,-0.020710183,-0.10757297,0.07921341,0.0025832504,-0.11821202,-0.16115382,-0.06045489,-0.04024073,0.041042063,-0.089875616,-0.113165274,-0.06320868,0.16559963,0.16002196
RARS,-0.060711157,0.03484689,0.06217945,-0.08365866,0.07981752,-0.12380332,-0.06130323,0.09276414,0.02663609,-0.0023217555,-0.07390204,-0.014693569,0.14158338,0.08125915,-0.123811975,0.08809284,0.052890398,-0.1315719,-0.06108877,0.03957087,-0.022799253,-0.054388203,0.034755986,0.1606678,0.070978984,-0.11638304,0.03341074,-0.12297637,0.08491737,0.022461493,0.032126814,-0.08107251,0.04402692,-0.011161577,-0.056859776,-0.13211918,-0.021793555,-0.0470548,0.023169592,-0.05858062,0.11873235,-0.042177726,0.010721847,-0.06666036,0.15958649,-0.0031116083,-0.009622753,-0.043021083,0.062056392,-0.051700577,0.007512402,-0.10355498,0.048025344,0.014623933,-0.085210904,-0.12853934,-0.0004918054,-0.012499843,0.057584863,-0.058238618,-0.05808169,-0.019034125,0.14888518,0.11192821
RHD,-0.108546585,-0.06268411,0.076097056,-0.072603226,0.062230997,0.025556225,0.03295815,-0.0027992763,-0.028956853,-0.09756668,-0.084213905,-0.07856491,0.098329425,0.09167373,-0.018131774,0.090526864,0.07758247,-0.07256164,-0.08169591,0.062558085,-0.06991408,-0.08379449,0.070240766,0.010119818,0.09487573,-0.09394132,0.08438919,-0.024344053,0.05052154,-0.033055294,-0.08419763,-0.065894835,0.08393513,-0.07642937,-0.11041914,-0.0684783,-0.08911012,-0.117178604,-0.049552962,-0.076983586,0.04693134,-0.0776768,0.005219817,-0.057917316,0.06687793,0.073577285,-0.070221275,-0.0976094,0.111041225,0.061210293,-0.03778918,-0.02903255,0.087420166,-0.06986809,-0.08506174,-0.057432957,-0.063528374,-0.05465507,-0.057592098,-0.10242285,-0.0963162,-0.07805079,0.05522757,0.06536198
VIM,-0.102510914,-0.1115283,0.088654056,0.004049698,0.05124131,0.13983881,0.105174854,-0.14429748,-0.06928847,-0.08680527,-0.09799553,-0.116967164,0.030746756,0.08250091,0.02127945,0.10400927,0.07717178,-0.007119309,-0.09090692,0.04737835,-0.08269146,-0.08458048,0.13066214,-0.093205035,0.0656416,-0.08073922,0.08820282,0.11486942,0.015753526,-0.09478134,-0.14658922,-0.073500976,0.109678,-0.09500909,-0.11725582,-0.026893176,-0.13541034,-0.17550997,-0.10255255,-0.097479016,0.0010541305,-0.051299315,-0.0066276602,-0.06496169,-0.05614677,0.0785036,-0.107989505,-0.076550044,0.14088657,0.1619312,-0.047762014,-0.005326273,0.07618506,-0.14996484,-0.0685245,-0.03855207,-0.08062186,-0.06994504,-0.17149203,-0.13680434,-0.13506794,-0.11991316,-0.04987683,-0.021237291
TTF2,0.1686999,0.06733638,-0.1673912,0.09214989,-0.15075676,0.01234572,-0.0047371686,-0.08078791,0.042280346,0.11535677,0.20879099,0.13550629,-0.2113302,-0.13847311,0.03953777,-0.17611262,-0.14434992,0.19426832,0.1002004,-0.1175735,0.107305005,0.14812513,-0.13815607,-0.19134462,-0.12586087,0.18569171,-0.09398237,0.07601877,-0.1882616,-0.03156953,0.10061638,0.12526435,-0.14987439,0.13577908,0.15256749,0.18927918,0.12751624,0.1892486,0.07680419,0.20174846,-0.19993576,0.1008596,-0.08895211,0.18882358,-0.155746,-0.08443872,0.15582381,0.12272867,-0.12805086,-0.07987535,0.08684446,0.09842715,-0.13644008,0.059649065,0.18111047,0.10398942,0.11953314,0.12774378,0.030438598,0.16393228,0.17025721,0.1311142,-0.11771194,-0.19157118
KRT18,-0.07682088,-0.121580385,0.057075668,0.008401502,0.0063578747,0.18022268,0.13415922,-0.15829282,-0.09281946,-0.10871661,-0.04586626,-0.08654526,-0.01616799,0.07022857,0.06455223,0.07193015,0.07469211,0.042288303,-0.08567292,0.035583023,-0.06182745,-0.061269857,0.10793188,-0.17770407,0.043988705,-0.023715762,0.09584474,0.15684602,-0.035089437,-0.117062226,-0.14351511,-0.049412295,0.084056675,-0.09393079,-0.09334004,0.035468012,-0.112472914,-0.12962316,-0.09851719,-0.055049468,-0.05466571,-0.06068029,-0.023776911,-0.017828792,-0.10784367,0.09033403,-0.10025808,-0.10592825,0.1122985,0.17370151,-0.0426971,0.04770832,0.047975186,-0.17074968,-0.028918315,0.007087048,-0.07319209,-0.04467832,-0.17455184,-0.113149434,-0.11087622,-0.10239044,-0.115463436,-0.05007915
APLP2,-0.061292525,-0.034681708,0.04373591,-0.019676069,0.024606016,0.026266538,0.050009184,-0.058205236,-0.05206368,-0.06496452,-0.06406168,-0.04858247,0.030467363,0.050085064,-0.024734281,0.0688889,0.05529868,-0.035427466,-0.06924942,0.022752482,-0.040732756,-0.052209973,0.049329948,-0.054471657,0.054946396,-0.059848696,0.05089325,0.027781129,0.004700493,-0.06447883,-0.07297919,-0.04049704,0.06450506,-0.043779776,-0.07296901,-0.012531642,-0.08092122,-0.09688069,-0.035081815,-0.043636013,0.0014506876,-0.037887204,0.00046073645,-0.024771098,0.014247792,0.040778756,-0.04180892,-0.06670487,0.10073887,0.066506125,-0.012165364,-0.012241406,0.062039044,-0.086046994,-0.03934885,-0.04098402,-0.01668822,-0.02988477,-0.07449566,-0.07589824,-0.07637887,-0.061370917,0.01739259,0.006304726
PHACTR2,-0.090992406,-0.10357296,0.06638229,0.00047232,0.026557535,0.13807946,0.109044336,-0.14220533,-0.081466205,-0.0845768,-0.07478902,-0.10260038,0.014744632,0.08803165,0.007920664,0.09413773,0.05710035,-0.00933574,-0.0949829,0.040149625,-0.07642001,-0.074068435,0.12760504,-0.10422539,0.052154128,-0.071103156,0.08937457,0.12027814,-0.0027047656,-0.11172454,-0.13750547,-0.059705786,0.08565551,-0.08861724,-0.09850571,-0.017157838,-0.120750666,-0.15010725,-0.08566722,-0.07440466,-0.026678927,-0.05359615,-0.02167496,-0.04645325,-0.069117896,0.06688342,-0.098254725,-0.08551991,0.13383937,0.14596424,-0.036194097,-0.010340828,0.056484845,-0.15561315,-0.049497973,-0.03559102,-0.075494274,-0.054792207,-0.16587783,-0.11468114,-0.11040135,-0.10975778,-0.06279256,-0.02313383
VDR,-0.2360634,-0.42598978,0.19400369,-0.08209321,0.0042783767,0.46266523,0.29657114,-0.25285557,-0.23608881,-0.33187917,-0.13408732,-0.25966918,-0.055443205,0.18134633,0.29308945,0.13918978,0.19672404,0.07618715,-0.1747927,0.15918297,-0.23878053,-0.15359563,0.24715519,-0.4402897,0.1747036,-0.061933603,0.24917996,0.3157877,-0.10228154,-0.2171355,-0.41656208,-0.0623015,0.2028358,-0.24891913,-0.21637216,0.09566603,-0.32298186,-0.33754054,-0.25853804,-0.12606695,-0.11841324,-0.24896714,0.016499393,0.021326946,-0.19138192,0.26485628,-0.2727726,-0.2739985,0.27712354,0.4888212,-0.12226176,0.2651498,0.19360828,-0.4180985,-0.16582981,0.14184344,-0.2262149,-0.13757487,-0.36395863,-0.27808136,-0.20146236,-0.31184196,-0.2618129,-0.040284272
RGS19,-0.056044113,-0.0144428685,0.03044821,-0.009239899,0.021386534,0.0028374689,0.021353155,-0.052573275,-0.0281585,-0.0114177,-0.060231157,-0.028037084,0.043855157,0.052085884,-0.05722348,0.08053957,0.037782967,-0.03825575,-0.068942934,0.017317045,-0.026742391,-0.03268142,0.065953955,0.010005418,0.040252365,-0.06931691,0.041077755,0.010032544,0.024216477,-0.0535851,-0.036601856,-0.050487924,0.056048352,-0.02555579,-0.06531581,-0.039917767,-0.050937608,-0.08390115,-0.016505554,-0.047011945,0.029500887,-0.011425216,-0.011433691,-0.035634164,0.028771922,0.0012679063,-0.024762016,-0.03205634,0.06598534,0.042344373,0.0040166415,-0.0401581,0.024031218,-0.06381357,-0.03886562,-0.062195696,-0.0023740605,-0.008928161,-0.048257116,-0.067342155,-0.06929717,-0.049215704,0.02455842,-0.011881299
NUP155,0.015060198,0.056774877,-0.010423508,-0.020456525,0.016411506,-0.08934128,-0.049383685,0.047426224,0.03554541,0.041918688,0.00063103065,0.037344374,0.04881964,0.021705847,-0.106879935,0.007052783,-0.006486875,-0.03990721,-0.0020322874,-0.017913504,0.021468345,0.021681527,-0.022445701,0.08993325,0.00423868,-0.04010833,-0.005889695,-0.07248154,0.014916126,0.0063410886,0.07564546,-0.018042106,-0.011650868,0.03674937,0.014992651,-0.057127953,0.029397722,0.035949904,0.040091135,0.011991244,0.035600856,0.012372676,-0.033045914,0.004397616,0.07796327,-0.031793788,0.041211836,0.0047400836,-0.008841202,-0.07459438,0.040120717,-0.074680656,-0.023562338,0.042051643,-0.008741887,-0.07969059,0.025512487,0.033575065,0.059380267,0.0287337,0.01865847,0.03882169,0.083118334,0.028610084
PLIN2,-0.1632207,-0.15954596,0.13964073,-0.082311265,0.078133695,0.1478093,0.13733545,-0.090886354,-0.114640854,-0.1603016,-0.14008975,-0.15134509,0.106135875,0.15690482,0.040813815,0.16242449,0.15756387,-0.0813601,-0.15893735,0.09654717,-0.12775199,-0.15239362,0.18071094,-0.11066868,0.12335817,-0.12689355,0.15163334,0.10316182,0.037742894,-0.09963223,-0.19259262,-0.110553406,0.16072549,-0.17428264,-0.17595729,-0.045095935,-0.18862961,-0.24005236,-0.14028901,-0.14070277,0.04410486,-0.14546959,0.042316273,-0.08379188,0.013982691,0.13043968,-0.1433079,-0.18304121,0.20499536,0.18709894,-0.07495695,0.01762921,0.13482782,-0.22154942,-0.14084268,-0.03930433,-0.1425921,-0.087956026,-0.183267,-0.1983885,-0.21073677,-0.19254568,-0.04066284,0.060563523
PKM,-0.1411847,-0.06734867,0.11622161,-0.05241546,0.0969338,0.021751551,0.03918357,-0.05688269,-0.061120026,-0.059592202,-0.16296452,-0.10822019,0.124748096,0.12059842,-0.072835565,0.17661582,0.096160285,-0.11895408,-0.12940845,0.07005857,-0.08736398,-0.117341645,0.15129352,0.0722689,0.10388724,-0.15932903,0.08955065,0.0035893186,0.09072554,-0.065352604,-0.11066245,-0.1127218,0.12573743,-0.085897155,-0.13343886,-0.124848604,-0.12229815,-0.19570194,-0.0510624,-0.14687964,0.11060107,-0.060073026,0.02231013,-0.12466949,0.058645505,0.03942467,-0.10771549,-0.07255928,0.15797564,0.1095926,-0.031056684,-0.08078042,0.098098844,-0.1102848,-0.11895914,-0.113122724,-0.054277606,-0.081500456,-0.10005842,-0.16933613,-0.15588413,-0.119656295,0.0603275,0.05072305
FNTA,0.041692216,0.08204481,-0.047916055,-0.025998505,-0.029023081,-0.111806944,-0.073980495,0.04551011,0.056669477,0.08269287,0.06045133,0.06733264,-0.018069081,-0.03267966,-0.036827438,-0.023478644,-0.05670286,-0.003895307,0.018146396,-0.024418306,0.053336907,0.037911452,-0.066290356,0.026591577,-0.025280774,0.026226673,-0.049823266,-0.08560633,-0.036378086,0.024597354,0.08752615,0.017915167,-0.06995218,0.07558898,0.046570256,0.010795323,0.078539476,0.066403255,0.080928564,0.08603598,-0.014713436,0.03844035,-0.0219406,0.047827095,0.041497607,-0.056471087,0.075868726,0.058760367,-0.05154399,-0.090097204,0.049999867,0.0026344694,-0.03262988,0.07506938,0.02920698,-0.009770729,0.09782587,0.06812897,0.08009247,0.04669804,0.06289494,0.06261986,0.04144533,-0.015589054
MECOM,-0.037798088,-0.18746156,0.060490225,0.17377195,0.014976889,0.1822751,0.22858435,-0.2563826,-0.1975643,-0.07697207,-0.10875525,-0.06734836,-0.07367338,0.048551977,-0.121206194,0.06626247,0.06762366,0.07111926,-0.03567154,-0.107427105,-0.06080012,0.0017569382,0.044271816,-0.15831599,0.0004933253,-0.019730192,0.056695852,0.2841591,-0.02425641,-0.23744158,-0.12802896,0.018446691,0.09297188,-0.08040205,-0.0631583,0.03607634,-0.1055333,-0.07870261,-0.048381332,-0.103661925,-0.020113312,0.04532871,-0.121691495,0.016103867,-0.120589316,0.051026598,-0.08392766,-0.106595404,0.083120525,0.19781995,0.06074548,-0.045198284,-0.00838986,-0.17668095,0.045471944,-0.036529474,-0.055948567,-0.07695998,-0.20313697,-0.050232597,-0.037819646,-0.08907862,-0.0980602,-0.14047769
SP4,0.05722694,0.07840978,0.014586434,0.22002521,0.06809428,-0.17552038,0.1342354,-0.15384679,-0.06944015,0.12326067,-0.10454791,0.03936097,0.021572176,0.008713145,-0.41124082,0.09653016,-0.04009698,-0.041883036,0.026827998,-0.23912902,0.036479436,0.07057381,-0.06816308,0.17866257,-0.05620368,-0.096699245,-0.033849034,0.06278967,0.07587218,-0.19933811,0.0785646,0.033682935,0.048089627,0.03176424,0.05274892,-0.08309589,0.057367083,0.062492505,0.11268106,-0.12944956,0.16024147,0.23854147,-0.18441144,-0.022171203,0.018562706,-0.17052028,0.09127323,-0.014877571,-0.05532918,-0.05572888,0.21469969,-0.26836634,-0.08246733,0.008992642,0.11027817,-0.15714203,0.026165493,-0.029683601,0.0029287077,0.08403902,0.073983565,0.014351249,0.15223879,-0.12360795
UBR7,-0.03199246,0.08286069,0.051400166,-0.09444667,0.09176199,-0.16800399,-0.12036429,0.14648415,0.0729084,0.02693554,-0.06804746,0.009784751,0.1665985,0.06070009,-0.13979101,0.06772243,0.031134695,-0.1532978,-0.0252164,0.044793006,0.0097223455,-0.033717215,0.002926521,0.24016258,0.067658715,-0.114040695,0.0075403117,-0.1949123,0.10738027,0.07103665,0.077363916,-0.08602775,0.025278416,0.0257748,-0.028744176,-0.16810825,0.021184485,-0.00038739853,0.038073756,-0.048001584,0.13705139,-0.020300273,0.0026349127,-0.083171785,0.19643909,-0.01625003,0.011813015,-0.0077893827,0.010637462,-0.10943816,0.011251949,-0.120951384,0.022552144,0.090978295,-0.07636522,-0.15541238,-0.008774579,0.0037966631,0.12231456,-0.01981762,-0.038023137,0.017980114,0.18458425,0.14003891
NEDD1,-0.15534484,-0.057645276,0.13710544,-0.11182758,0.11595254,-0.0050645974,0.011272892,0.041854143,-0.02814176,-0.11966096,-0.15788427,-0.10491166,0.20512478,0.1566586,-0.053498987,0.15905161,0.14029753,-0.16597047,-0.14156792,0.12564376,-0.10419122,-0.13973624,0.15146318,0.09787024,0.15035078,-0.17863998,0.12047075,-0.07430499,0.13822556,-0.016259052,-0.10363112,-0.14391977,0.14782727,-0.12013394,-0.16532087,-0.1567252,-0.13205777,-0.18564282,-0.08873693,-0.15284105,0.13347156,-0.11984326,0.033993408,-0.12839934,0.15161341,0.08581333,-0.113933906,-0.14486012,0.14577991,0.071438506,-0.05706989,-0.066632375,0.12860233,-0.09590693,-0.14707279,-0.1301605,-0.11490927,-0.088014275,-0.04272725,-0.16187814,-0.17216347,-0.13530214,0.10626746,0.16125284
PGM1,0.09043719,0.055353437,-0.09353396,0.047482476,-0.088237986,-0.05948599,-0.030017354,-0.027782928,0.04521848,0.075968556,0.09849879,0.0975119,-0.09255638,-0.049510818,-0.049414445,-0.08910479,-0.091185875,0.0788153,0.047017038,-0.08271234,0.06964336,0.09956917,-0.08082783,-0.04381262,-0.06403196,0.06596091,-0.051020954,-0.0038110507,-0.079478115,-0.019085366,0.09331898,0.06575816,-0.07184551,0.10247459,0.07510941,0.06297068,0.06901915,0.10512033,0.051702842,0.11570808,-0.08846721,0.06840506,-0.073164776,0.11102176,-0.03217522,-0.06803867,0.09669204,0.06523656,-0.06739395,-0.07499052,0.072924465,0.010208715,-0.08988191,0.049418896,0.09033471,0.0028487854,0.08379899,0.08699978,0.054580968,0.1097717,0.10431516,0.08386761,-0.00150612,-0.085996635
IGKC,0.06805121,0.037875954,-0.09893194,0.062325254,-0.08510667,0.023437137,0.0014239326,-0.08739139,0.018078022,0.062616,0.09379877,0.06465186,-0.10884026,-0.06483111,0.006874997,-0.07306839,-0.07689032,0.10150321,0.032192163,-0.057325073,0.05583317,0.07600189,-0.05852663,-0.12240323,-0.06503808,0.08986639,-0.037332375,0.04055646,-0.09765106,-0.038821068,0.034314394,0.054429337,-0.06564566,0.06410988,0.04874158,0.0919885,0.052895617,0.07740606,0.03379315,0.101472676,-0.12330591,0.06882289,-0.0655339,0.08740562,-0.09417539,-0.03775888,0.06486641,0.06375468,-0.0627109,-0.016992075,0.034977037,0.03799371,-0.07091355,0.0124990605,0.0907148,0.03153197,0.06938751,0.0745997,-0.009836774,0.07496799,0.07002981,0.058240257,-0.067778856,-0.116052404
ELAC2,-0.092858315,-0.08614767,0.058438603,-0.036237344,0.040617857,0.07303563,0.07942772,-0.050228547,-0.05564227,-0.09417704,-0.06483634,-0.06561054,0.060041003,0.08799446,0.0026116706,0.076297395,0.090012826,-0.034695618,-0.09552729,0.04974452,-0.064558536,-0.07564308,0.07771982,-0.07143031,0.062404502,-0.060918488,0.091956764,0.041059464,0.017968137,-0.07069236,-0.09944724,-0.05165909,0.08937499,-0.08063701,-0.104507305,-0.016459942,-0.0994304,-0.110899806,-0.06489392,-0.062154826,0.014083222,-0.077819765,0.0016859993,-0.026081812,0.022393957,0.074454494,-0.07193729,-0.10767308,0.104203954,0.09844394,-0.02297837,0.0054999627,0.068646565,-0.12389639,-0.061102375,-0.031624474,-0.06465669,-0.03471021,-0.09401661,-0.099151656,-0.102424294,-0.09199077,0.0026366692,0.027798671
HNRNPAB,-0.19617932,-0.0315632,0.19376251,-0.18986212,0.18968444,-0.14916793,-0.06358385,0.1441787,-0.005178623,-0.09300189,-0.21766192,-0.12854955,0.31468853,0.21375035,-0.1613397,0.25175413,0.17532036,-0.2954695,-0.16992429,0.13473034,-0.112792455,-0.19695085,0.1695498,0.28172627,0.1950269,-0.27919847,0.11956754,-0.18682392,0.21023586,0.034206398,-0.055528976,-0.1952247,0.17134869,-0.11192798,-0.20288661,-0.27214372,-0.13242885,-0.22172184,-0.040339816,-0.2009379,0.2658009,-0.14591452,0.08756383,-0.19664246,0.29509518,0.056606047,-0.114748314,-0.12681063,0.1991063,0.011985813,-0.05336799,-0.16271423,0.18190752,-0.045920663,-0.2300913,-0.20815244,-0.08256933,-0.110401645,0.02537656,-0.22269365,-0.21939443,-0.13771698,0.24476255,0.24862452
FOXO1,-0.11111559,-0.24567202,0.09467989,0.034710415,0.025976479,0.25622046,0.19317582,-0.1832578,-0.1776137,-0.18007585,-0.103142,-0.12586826,-0.029402573,0.11570893,0.05755901,0.09688321,0.1231013,0.0396424,-0.09636393,0.030989248,-0.1147419,-0.07411158,0.11620659,-0.2261447,0.09148624,-0.049472693,0.11993961,0.2173935,-0.014552619,-0.1548956,-0.20466447,-0.03879512,0.12835011,-0.14138487,-0.13664822,0.0305704,-0.16581704,-0.16814329,-0.13058692,-0.10995683,-0.049168497,-0.1139825,-0.04082881,-0.01423727,-0.09214096,0.1513978,-0.16758886,-0.17110834,0.14499855,0.26799533,-0.056732565,0.08287908,0.07472783,-0.22748032,-0.051924698,0.008579809,-0.12858048,-0.09873141,-0.21589422,-0.13982175,-0.11797227,-0.143659,-0.13062975,-0.027310938
GPKOW,0.15569289,0.05019679,-0.15782295,0.0927334,-0.14192022,0.01192921,-0.00019884855,-0.0921675,0.034163266,0.09205253,0.1889816,0.12327458,-0.20174009,-0.12787072,0.031383242,-0.16403775,-0.1300307,0.17779696,0.09151892,-0.112546444,0.09243377,0.13829185,-0.12481856,-0.18709248,-0.11441677,0.16487023,-0.08358653,0.073366076,-0.17211948,-0.039621126,0.085552804,0.12562066,-0.13379475,0.12979087,0.13899933,0.17887181,0.09949751,0.16317321,0.061984107,0.18535872,-0.19450994,0.090658054,-0.08630976,0.1857824,-0.15187877,-0.07116365,0.14032876,0.10927709,-0.10113867,-0.07129565,0.083023414,0.08744237,-0.11292082,0.049327247,0.16811863,0.09552732,0.11526668,0.1081804,0.018500092,0.15094544,0.15926056,0.12066813,-0.10019452,-0.18136477
GATA2,-0.1432917,-0.29039907,0.13302098,-0.00011509494,0.039369226,0.31930014,0.20885456,-0.18759418,-0.19547436,-0.21860468,-0.13212869,-0.17132299,-0.018273957,0.13773452,0.12651421,0.12535578,0.15567848,0.017114738,-0.11411316,0.072392195,-0.13458467,-0.12266361,0.13365205,-0.27245337,0.12168054,-0.053860318,0.14799853,0.23434219,-0.017498698,-0.15754604,-0.26676434,-0.0598268,0.15556249,-0.17855102,-0.16869311,0.027165536,-0.19838549,-0.21781708,-0.16788298,-0.12368536,-0.04997658,-0.14785616,-0.009969141,-0.042173397,-0.10247211,0.18838164,-0.20915347,-0.20383982,0.17445362,0.3236112,-0.09312764,0.14429304,0.10777998,-0.26401323,-0.09782251,0.040640872,-0.17361917,-0.11158459,-0.25374156,-0.19473167,-0.16685116,-0.18770173,-0.1620319,-0.0021259002
RASSF5,0.036566295,0.03704559,-0.073383674,0.045371838,-0.05169359,0.0051794313,-0.009712249,-0.07577677,0.022913288,0.059095547,0.049294423,0.051363036,-0.074074134,-0.057528283,-0.0046542287,-0.04290863,-0.058951307,0.06694422,0.01730027,-0.030558847,0.03666413,0.055556655,-0.03718036,-0.07680657,-0.04104022,0.057228893,-0.032119516,0.014464311,-0.061082907,-0.028064419,0.016249284,0.03280525,-0.045734264,0.048470862,0.020724881,0.06147617,0.036646057,0.04065564,0.025042444,0.06684865,-0.08155136,0.06568281,-0.043920748,0.05773844,-0.059305973,-0.030250117,0.046965905,0.060211338,-0.04187461,-0.013809991,0.02680536,0.020112917,-0.044618934,0.01548427,0.063862406,0.011882979,0.062883586,0.05293931,-0.013637941,0.051469296,0.043418836,0.039775014,-0.037179068,-0.086421624
ACSS1,-0.26907915,-0.055171557,0.2774672,-0.25350848,0.27782166,-0.09269291,-0.07985468,0.19044268,0.017609973,-0.20592687,-0.31292892,-0.18339561,0.42001265,0.2631571,-0.110823035,0.29459578,0.25044593,-0.37869403,-0.21586004,0.24939051,-0.17186478,-0.26615828,0.23772863,0.34122556,0.27785212,-0.3420967,0.194926,-0.25021553,0.30942363,0.077502176,-0.13731843,-0.27551392,0.2627565,-0.20211267,-0.27289146,-0.36176184,-0.20996168,-0.29609984,-0.13728538,-0.29562053,0.3241622,-0.22036824,0.103507325,-0.27831933,0.35293123,0.14836419,-0.19716893,-0.22019401,0.24222553,0.04151371,-0.1214515,-0.16226284,0.24655357,-0.06626638,-0.3098381,-0.2497325,-0.20509504,-0.16406234,0.012464263,-0.26125687,-0.30383813,-0.19382122,0.28617656,0.37350532
CNN2,0.10927957,0.09322305,-0.12693669,0.05112601,-0.09081538,-0.04961217,-0.06530221,-0.049065705,0.07332531,0.13771376,0.12116807,0.11099447,-0.12519282,-0.11813179,0.002725836,-0.10765526,-0.12213069,0.09824744,0.07691197,-0.06816931,0.08254436,0.10804875,-0.10308798,-0.065936685,-0.094768494,0.112416506,-0.09064303,-0.01922677,-0.104160495,0.01207532,0.09408646,0.07565,-0.1176608,0.10897688,0.0939683,0.0900023,0.115339056,0.12847371,0.078137845,0.14267491,-0.105251,0.11091359,-0.052629657,0.106893435,-0.07751337,-0.087884374,0.1113608,0.13860779,-0.11584636,-0.09384227,0.0631136,0.037605535,-0.10009554,0.08880496,0.11128398,0.04548673,0.116566494,0.098815724,0.053806815,0.12526073,0.115790695,0.11050604,-0.043593884,-0.12121607
LPCAT3,-0.0023809671,0.06888437,0.0078579,-0.057289824,0.030904058,-0.120302215,-0.07399672,0.07827274,0.04432145,0.037674047,-0.0063389353,0.023685694,0.06253679,0.020678481,-0.085990936,0.026473664,-0.0027848342,-0.06942102,-0.00975585,0.0044634007,0.02159491,-0.00064170733,-0.026729349,0.102705054,0.026222853,-0.04203382,-0.014801133,-0.11188672,0.02336197,0.031406663,0.06698659,-0.029266458,-0.019271083,0.03766633,0.0027980916,-0.06405404,0.03318007,0.0178754,0.05346036,0.011613114,0.053635433,-0.0022465475,-0.010351554,-0.012618583,0.106089525,-0.024384461,0.032021917,0.004601555,0.000461258,-0.079406865,0.02593236,-0.055333138,-0.00043728203,0.05622308,-0.027244527,-0.08183728,0.04152648,0.027951263,0.0823291,8.297339e-05,0.0056404322,0.027854105,0.09950905,0.0543758
TVP23B,0.11063014,0.06255848,-0.11593248,0.07258038,-0.11486468,-0.0026829112,-0.0034231357,-0.07677804,0.015469655,0.09057933,0.12875956,0.09856117,-0.13636532,-0.09043807,-0.0060857944,-0.10776284,-0.09815001,0.11988274,0.062417194,-0.09269355,0.0712482,0.102972575,-0.10096845,-0.13479546,-0.09003134,0.11549034,-0.06500755,0.051578354,-0.130833,-0.041607838,0.07416211,0.09134685,-0.09808185,0.085362025,0.090545416,0.12249938,0.08890581,0.11596216,0.063665986,0.1369572,-0.13118024,0.08405906,-0.06849362,0.12560734,-0.093921885,-0.07150337,0.10683267,0.077055745,-0.09022834,-0.05811732,0.07037631,0.049494248,-0.104698375,0.027818173,0.12081889,0.05415817,0.09513579,0.097283185,0.012261871,0.11680089,0.11370443,0.08723967,-0.07141935,-0.13887326
ZFP397,0.07485512,0.034629613,-0.08639993,0.05332111,-0.08178882,0.0031851716,0.0051471777,-0.06186479,0.012317061,0.053283237,0.10086214,0.06709268,-0.10511455,-0.06350985,0.009952888,-0.07736637,-0.071463585,0.09462263,0.034503914,-0.06004443,0.056925103,0.07077465,-0.06866409,-0.117322944,-0.05886803,0.08968133,-0.04187793,0.0363153,-0.0990221,-0.037164833,0.044262838,0.06345924,-0.07520794,0.06699802,0.06499262,0.10126771,0.06104863,0.08405709,0.042125836,0.107280165,-0.11093742,0.055476967,-0.056744568,0.09365329,-0.07588452,-0.036097474,0.076378405,0.050198317,-0.05702763,-0.03226092,0.046068687,0.043638047,-0.058134418,0.0236983,0.08888599,0.04157942,0.082233086,0.06692899,-0.0030443035,0.072658665,0.08345081,0.06196621,-0.055553414,-0.10319546
NECAP2,0.0221194,0.049582265,-0.025165327,-0.019618321,-0.018180415,-0.058336247,-0.03315793,0.0072660483,0.01699236,0.03344964,0.033145424,0.025933102,-0.009231564,-0.009661812,-0.033096123,-0.0040379725,-0.027911762,-0.0029530115,0.005428657,-0.018266017,0.026037663,0.013614384,-0.042035423,-0.010850184,-0.0056414977,0.008226357,-0.020456549,-0.043775782,-0.038674474,-0.0026154295,0.043900676,0.008557051,-0.03656598,0.040688865,0.0152861215,0.010764472,0.036914628,0.023794077,0.046334356,0.04888539,-0.01682188,0.012838479,-0.020683419,0.022501979,0.027004449,-0.021700762,0.037054222,0.018643359,-0.013766013,-0.04078294,0.0291549,-0.0031530373,-0.01550338,0.023806304,0.01367715,-0.022841316,0.051808752,0.036268372,0.029311944,0.015456885,0.02245466,0.031157877,0.0240379,-0.009702763
VPS41,-0.042258967,0.010529175,0.01614457,-0.03313532,0.007348921,-0.040672593,-0.011131793,-0.0062069856,-0.010049619,-0.0042105895,-0.039679237,-0.02152333,0.06403349,0.063461915,-0.07771489,0.062460646,0.021201279,-0.061773807,-0.05243486,0.012420837,-0.021008465,-0.034292065,0.047701668,0.04219421,0.039250582,-0.07385625,0.026942225,-0.034950856,0.020782057,-0.029570524,0.0003909394,-0.04639465,0.029316142,-0.014558541,-0.053189036,-0.05393464,-0.020731658,-0.04964364,-0.0024980046,-0.02828535,0.026167274,-0.01716079,-0.014442161,-0.030271392,0.06443433,0.0022502244,-0.013659362,-0.034745306,0.055405993,0.0011280627,-2.143532e-05,-0.06010676,0.019441966,-0.027671877,-0.040204108,-0.08173222,0.002142474,-0.011055216,-0.0022425614,-0.03687591,-0.04759556,-0.022935286,0.058471553,0.029923
KLF3,0.021016108,0.023488835,-0.051142678,0.035768002,-0.049568117,0.024995267,0.0127764195,-0.079477,-0.0026627257,0.030086014,0.037572913,0.021289002,-0.057336703,-0.017443676,-0.009876255,-0.026686827,-0.03740902,0.05232554,0.0034233332,-0.033010364,0.016401296,0.028633943,-0.014734924,-0.08932154,-0.02549047,0.034238055,-0.010768391,0.03504511,-0.06089928,-0.04879467,0.0031016693,0.02039712,-0.024887443,0.025655128,0.0034627412,0.05556974,0.013421755,0.016210498,0.008730561,0.044993505,-0.07457888,0.03601319,-0.048000246,0.0442314,-0.055552326,-0.021684743,0.02044535,0.019452518,-0.016494729,0.009804986,0.02018857,0.010083001,-0.036807016,-0.020394672,0.046573028,-0.0022787936,0.03068629,0.03368663,-0.030843403,0.029948868,0.024092738,0.017302252,-0.037124336,-0.06533243
GEMIN5,-0.013959963,-0.024269633,-0.016555041,0.017614128,-0.03621047,0.054134507,0.05319052,-0.084996045,-0.041022725,-0.017324654,0.0068495926,-0.014472485,-0.03496498,0.015611293,-0.006155785,0.011049898,0.0053461483,0.03570106,-0.030714065,-0.012469668,-0.007286973,-0.00013881363,0.016290225,-0.110402964,0.0053266846,0.0025021657,0.02521762,0.0610658,-0.050164923,-0.0751743,-0.04027667,-0.0017033294,0.009558938,-0.008820564,-0.02280441,0.041450832,-0.028242607,-0.030503679,-0.01676429,0.016571477,-0.065061525,0.0025882088,-0.041992243,0.024610866,-0.04134006,0.016312674,-0.0074367635,-0.033233747,0.03677534,0.05331656,0.007981587,0.014631946,-0.00026239827,-0.07190852,0.01456766,-0.006714415,0.0059310794,0.013487391,-0.07057834,-0.022632362,-0.019150302,-0.023494102,-0.04150267,-0.058674242
EDC3,0.0446423,0.017496627,-0.05404893,0.050829113,-0.060363084,-0.010347802,0.017894141,-0.06830722,0.0012718514,0.02570385,0.06061749,0.052662894,-0.07093695,-0.039855745,-0.018573664,-0.050725125,-0.045577794,0.061795816,0.0058418065,-0.04886894,0.03302151,0.051629506,-0.041963257,-0.08604981,-0.041443817,0.04727236,-0.021937896,0.031789392,-0.061985984,-0.0502812,0.022600595,0.04937788,-0.038710043,0.043364137,0.031622298,0.062276624,0.023994546,0.050448675,0.02701278,0.07135445,-0.07477471,0.037438568,-0.044698562,0.07071731,-0.04768276,-0.031249307,0.057157107,0.020653548,-0.015997425,-0.022563506,0.047967065,0.011421256,-0.039459214,-0.0070489123,0.05668994,0.012432393,0.06666903,0.047734637,-0.012714662,0.058554567,0.056146864,0.03405137,-0.01560287,-0.076936394
DDX1,-0.12340714,-0.025249913,0.10689767,-0.10121098,0.10067609,-0.06451696,-0.008148104,0.054339785,-0.01677756,-0.06602784,-0.1253117,-0.075760946,0.17752485,0.1315261,-0.10082608,0.14728959,0.108468734,-0.15823184,-0.11708426,0.077684745,-0.066291824,-0.116715126,0.110161126,0.11982585,0.11118251,-0.16347829,0.0890451,-0.081460506,0.10454181,-0.011578947,-0.052403085,-0.11322017,0.11108315,-0.06737389,-0.1313484,-0.13977182,-0.093373954,-0.14003393,-0.038558494,-0.11317752,0.12971291,-0.08662042,0.034979716,-0.09728217,0.15809706,0.04319568,-0.06876092,-0.09445456,0.13346669,0.028838245,-0.025778055,-0.08569242,0.10000411,-0.06470911,-0.1317142,-0.13314706,-0.05197277,-0.050906416,-0.015469149,-0.12995577,-0.13551643,-0.09597632,0.13491108,0.13243933
CAD,-0.3549915,-0.12393177,0.37793377,-0.31798148,0.36230463,-0.028828587,-0.05748464,0.20781662,-0.014561385,-0.26311088,-0.39949468,-0.26785088,0.5297432,0.34388903,-0.07305085,0.39378896,0.35730195,-0.46440545,-0.29399398,0.3331806,-0.24125853,-0.36775818,0.3311905,0.34926555,0.34457302,-0.40149584,0.26999086,-0.24000551,0.38382867,0.075722694,-0.22213745,-0.3569196,0.34636346,-0.31494954,-0.3600565,-0.4220026,-0.2984635,-0.40749934,-0.21591774,-0.39042938,0.41792417,-0.30329114,0.16813596,-0.3554817,0.3946888,0.214537,-0.28374815,-0.30840254,0.30834767,0.112918735,-0.17016155,-0.15627697,0.34270513,-0.15047115,-0.41262636,-0.24500717,-0.28967124,-0.21848112,-0.041503217,-0.379928,-0.4308157,-0.30005267,0.28690585,0.46407962
GRN,-0.14255749,-0.0690218,0.094034374,-0.058203906,0.06799123,0.013187636,0.036434267,-0.04327071,-0.039800055,-0.09518264,-0.13312292,-0.10288374,0.10528886,0.121141985,-0.047387954,0.14078836,0.080488786,-0.09798545,-0.12364304,0.078884006,-0.08680962,-0.10653287,0.14398402,0.046068773,0.1090224,-0.14328673,0.08774765,-0.015393235,0.08464576,-0.05246332,-0.11275915,-0.10724148,0.12408885,-0.07791891,-0.15218088,-0.09679474,-0.13283668,-0.17596705,-0.07690021,-0.11483687,0.063600585,-0.07481937,0.0205056,-0.092292905,0.06502084,0.05567815,-0.09705298,-0.08557022,0.16336961,0.09708266,-0.042749986,-0.063452415,0.10290757,-0.10080328,-0.10671083,-0.097528994,-0.059693776,-0.07438438,-0.08157356,-0.13254777,-0.14111008,-0.11937559,0.06456158,0.065005764
TBC1D20,0.20558695,0.11315698,-0.19445252,0.07675212,-0.16342773,-0.0620522,-0.06897178,-0.033773903,0.0849787,0.18063776,0.23830464,0.17923643,-0.21972556,-0.1762279,0.03594478,-0.19746122,-0.18250749,0.17461376,0.13313977,-0.122186676,0.13717996,0.17154996,-0.18520963,-0.14338732,-0.14717096,0.20246041,-0.14221936,0.011412531,-0.19226936,0.0076527074,0.1581319,0.14775494,-0.2054804,0.17929506,0.1927425,0.18559295,0.18979858,0.23457028,0.12351149,0.2485291,-0.18951023,0.13099581,-0.07726999,0.20978194,-0.13247561,-0.1275121,0.19823949,0.18073219,-0.1807388,-0.15030311,0.10647641,0.106107265,-0.15425934,0.1323282,0.19257051,0.11595954,0.17346548,0.15788761,0.09613165,0.19781291,0.21739827,0.17607294,-0.089096,-0.18667544
KIF20B,-0.32195014,0.024995219,0.36763337,-0.37604684,0.40767157,-0.25625473,-0.24087934,0.39729205,0.12643862,-0.18848586,-0.42794877,-0.2115351,0.6544775,0.34664184,-0.22765426,0.39167106,0.3347001,-0.6106308,-0.2589957,0.36278403,-0.18605295,-0.33610782,0.30617478,0.6877175,0.3801669,-0.49825963,0.2197105,-0.49671316,0.50662124,0.21805923,-0.0795575,-0.41999424,0.323983,-0.22663856,-0.32126495,-0.5917624,-0.21470179,-0.3209772,-0.15694217,-0.41496372,0.53249294,-0.26817465,0.1472891,-0.41594878,0.6053031,0.15259674,-0.22132735,-0.23439024,0.24862385,-0.06975046,-0.14792511,-0.29316583,0.30599046,0.05226261,-0.43720385,-0.410293,-0.2634404,-0.20306095,0.15368816,-0.30557674,-0.3732623,-0.20473519,0.50123775,0.5840119
VPS16,-0.076992586,-0.020846792,0.063308015,-0.050427105,0.054930538,-0.050462592,0.0003254041,0.019341163,-0.0133072585,-0.035598822,-0.069471344,-0.03825431,0.11333519,0.089259155,-0.08689271,0.091339424,0.06725393,-0.09197533,-0.08284084,0.039382312,-0.04001663,-0.066339925,0.071446195,0.06864997,0.065868735,-0.10274538,0.06260435,-0.042299032,0.06477898,-0.028252143,-0.02268584,-0.06997828,0.07001393,-0.03875361,-0.084962934,-0.09016582,-0.05735909,-0.08273311,-0.014988262,-0.06616543,0.08168179,-0.049359113,0.0034581274,-0.057442915,0.10202634,0.019742865,-0.033400822,-0.064389035,0.08404669,0.014810306,-7.408485e-05,-0.0697518,0.056232493,-0.052989338,-0.075685844,-0.09631831,-0.02287662,-0.026069235,-0.014300454,-0.077875264,-0.08237669,-0.05993779,0.08770233,0.07132493
COPB1,0.05952018,0.05738606,-0.06955226,0.022273146,-0.060808077,-0.044795338,-0.025435515,-0.024534922,0.02876897,0.06875881,0.079553664,0.07214747,-0.07069367,-0.05483329,-0.013923366,-0.05267185,-0.05903715,0.04915362,0.026378572,-0.04288033,0.054166242,0.06381463,-0.06630072,-0.05736477,-0.045422018,0.05770988,-0.049486313,-0.010133848,-0.06804375,-0.018667113,0.05863754,0.049039252,-0.0724575,0.066646,0.054930568,0.06362905,0.06551997,0.068592176,0.061847568,0.0969083,-0.06870314,0.04983828,-0.04072378,0.078014255,-0.025372189,-0.052956536,0.08154319,0.051574796,-0.05347044,-0.06020223,0.054946218,0.026826259,-0.05057255,0.03578207,0.064807326,0.019833822,0.09073663,0.07229282,0.028297255,0.06450299,0.07590735,0.058798343,-0.012933509,-0.07345508
CCNG1,0.11791906,0.08869694,-0.11802505,0.036341198,-0.100486085,-0.05409113,-0.05353792,-0.02607454,0.052116472,0.11824186,0.1342032,0.107480645,-0.11923927,-0.09681682,0.0003210567,-0.10994552,-0.10880995,0.091648035,0.07542367,-0.07881077,0.083398834,0.096149914,-0.115053535,-0.08638287,-0.08599851,0.11171954,-0.0848061,-0.010954356,-0.12270625,0.00386028,0.10325293,0.081663944,-0.122356944,0.105854295,0.10523881,0.10483423,0.118652865,0.1337823,0.08659938,0.15106437,-0.11002365,0.085025445,-0.054668516,0.119145885,-0.060492814,-0.080281086,0.12033144,0.10675966,-0.10697358,-0.09798453,0.06769097,0.05055194,-0.09693891,0.07897988,0.10987867,0.05009407,0.11288504,0.09931582,0.05754197,0.11968523,0.12431936,0.10787557,-0.039193004,-0.10435489
PSMD9,-0.1430806,0.052402698,0.15631962,-0.18205659,0.18604302,-0.19923763,-0.14312127,0.21173948,0.08243875,-0.050063618,-0.18278787,-0.07023688,0.30824164,0.14811096,-0.15587075,0.17755009,0.1215714,-0.27877983,-0.10757346,0.14000694,-0.055325653,-0.13406874,0.09953779,0.35983628,0.16831136,-0.23084885,0.07015554,-0.27895102,0.22613195,0.106432974,0.013287894,-0.18598858,0.12012869,-0.04957084,-0.13544077,-0.28607368,-0.05660073,-0.120090306,-0.011469308,-0.15699983,0.2562136,-0.095765725,0.059374854,-0.19065693,0.31350031,0.041495427,-0.06867747,-0.0803703,0.10092145,-0.07744745,-0.04433442,-0.16574672,0.12708148,0.06732729,-0.18475434,-0.2279923,-0.06667274,-0.06837711,0.12137288,-0.13445966,-0.15024838,-0.067767434,0.27472693,0.26308012
PBX1,-0.01692114,-0.06625628,0.06805122,0.12118777,0.04553915,-0.067354426,0.07909385,-0.11279751,-0.12664339,-0.00062461756,-0.16986087,-0.046078052,0.042470194,0.07195933,-0.30298865,0.12021959,0.048049834,-0.073137745,-0.03254559,-0.116227284,-0.03881727,-0.023307024,0.01431904,0.09526118,0.04518971,-0.13284957,0.013406705,0.080186166,0.110840976,-0.1449836,-0.0032132491,-0.049004365,0.0903673,-0.046496935,-0.056981064,-0.11915915,-0.035831034,-0.047631312,0.037793264,-0.124069184,0.10392384,0.11323418,-0.13009897,-0.052249398,0.07929598,-0.023642294,-0.04155379,-0.07602502,0.051809173,0.036348816,0.08089416,-0.18602753,0.00070540607,-0.06387016,0.022806035,-0.17522272,-0.024158899,-0.0638946,-0.05454031,-0.046029005,-0.026229728,-0.053706527,0.11858063,-0.028935304
NFKBIA,-0.13345172,-0.23202807,0.09149167,-0.037384145,0.04815658,0.19803591,0.12719624,-0.09875381,-0.15775749,-0.1872157,-0.13250068,-0.15257223,0.015846316,0.124655545,0.04756191,0.120581225,0.1376813,-0.015494851,-0.10261388,0.07426977,-0.09829426,-0.10560748,0.104273796,-0.15679142,0.12504804,-0.08156427,0.12375878,0.10367694,0.02233487,-0.09511411,-0.19693276,-0.08140196,0.13787054,-0.12758574,-0.14411551,-0.033794597,-0.1618034,-0.17007114,-0.10789143,-0.10923909,-0.02997015,-0.11360921,-0.021927483,-0.038535465,-0.025302764,0.16073367,-0.18045188,-0.16168949,0.1654498,0.2215297,-0.08955447,0.08213481,0.111968845,-0.1750781,-0.10947023,-0.009371791,-0.11276026,-0.077492684,-0.17607923,-0.18223979,-0.13067754,-0.14342296,-0.06632353,0.0460524
TIFA,0.17273256,0.1197291,-0.15929937,0.053236827,-0.11144321,-0.08506468,-0.08251025,0.01383619,0.08855744,0.15894239,0.19291225,0.15774982,-0.15886417,-0.12983866,-0.0074174367,-0.1664411,-0.1542723,0.12721561,0.11071579,-0.10641743,0.12262821,0.14055954,-0.16086526,-0.07165652,-0.11372919,0.15734994,-0.111753434,-0.024906304,-0.14332727,0.024715662,0.15914285,0.104746394,-0.16615385,0.1610749,0.17306836,0.123074755,0.16742705,0.21153305,0.11476818,0.19434236,-0.13495988,0.109962046,-0.07513356,0.16436759,-0.08045323,-0.10917274,0.17280594,0.14671963,-0.15678898,-0.15277,0.09403874,0.06286731,-0.13943776,0.12694606,0.14906055,0.06162676,0.13797413,0.13710988,0.11509897,0.17072092,0.1828941,0.16159254,-0.037630342,-0.11970787
ANK,-0.12295583,-0.09163874,0.09632467,-0.0596259,0.069963306,0.04598748,0.062624305,-0.020413313,-0.057308987,-0.10144171,-0.10797957,-0.07930673,0.1221997,0.11861788,-0.029066289,0.11470339,0.11845542,-0.09201372,-0.11631307,0.07485697,-0.08126075,-0.104250364,0.10135929,-0.004125228,0.094162695,-0.10851323,0.10553916,0.008978931,0.068836376,-0.06127133,-0.10286418,-0.08544342,0.11416904,-0.10368936,-0.13141266,-0.07854646,-0.11862154,-0.13954423,-0.07307301,-0.09785457,0.0679601,-0.09195235,0.017680272,-0.06989308,0.07532413,0.0796898,-0.08517055,-0.12375529,0.12700336,0.086997494,-0.03189643,-0.03411759,0.09292272,-0.120007366,-0.10022461,-0.07122548,-0.08668269,-0.053002026,-0.08443302,-0.12140847,-0.13113092,-0.116417736,0.044331685,0.07386199
KAT7,0.107807994,0.1150714,-0.09908624,-0.008546131,-0.06402452,-0.124753386,-0.09601788,0.055038556,0.08032148,0.12642287,0.11925301,0.11136584,-0.065758154,-0.07278244,-0.040037066,-0.08762199,-0.10456397,0.042837776,0.07114716,-0.06264262,0.08546111,0.08489634,-0.11813699,0.010346781,-0.062573805,0.07714957,-0.08359775,-0.081950285,-0.08677983,0.041198958,0.13991508,0.053710066,-0.1220796,0.12515822,0.112325534,0.049817137,0.12962006,0.13760567,0.10509749,0.13349052,-0.0557069,0.07190074,-0.044421006,0.097678505,0.011416223,-0.08195094,0.1256368,0.10470227,-0.10219518,-0.13545717,0.071572974,0.02127983,-0.09004541,0.11425641,0.07960444,0.006268412,0.10711636,0.09869133,0.11804533,0.11063059,0.11855723,0.117953606,0.022118611,-0.04735757
TRIB3,-0.13359554,-0.23429248,0.05105463,-0.04695736,-0.037977524,0.19921552,0.13821092,-0.107961565,-0.12873435,-0.18435368,-0.07248273,-0.13118647,-0.028293181,0.115943,0.10302712,0.06289676,0.09980858,0.018352078,-0.12236745,0.10406396,-0.12306735,-0.0629083,0.13854505,-0.21756417,0.11453787,-0.07754905,0.13614878,0.09782124,-0.033407185,-0.12840803,-0.22243321,-0.045671362,0.105562076,-0.094758935,-0.12119247,0.016958337,-0.16508208,-0.16204098,-0.12095371,-0.06403062,-0.11074456,-0.13160914,-0.044676363,0.045825116,-0.043889772,0.14132378,-0.14354312,-0.16474622,0.16915315,0.2523684,-0.05626484,0.14177158,0.10551834,-0.21109274,-0.10610413,0.027874026,-0.09579158,-0.04636767,-0.16584636,-0.14550473,-0.06733457,-0.14467575,-0.06945517,-0.004761841
C330018D20RIK,-0.11846666,-0.13713828,0.08023222,-0.0376468,0.0391861,0.14579579,0.11325753,-0.09007171,-0.07846857,-0.14109266,-0.080205664,-0.09735079,0.058521938,0.11545843,0.055918563,0.089377865,0.12000459,-0.028218618,-0.12544522,0.085460186,-0.09706781,-0.0862383,0.13287172,-0.12439843,0.085082255,-0.06859931,0.12593888,0.08171587,0.03147379,-0.09426947,-0.15171367,-0.071668826,0.12255859,-0.13672502,-0.14281432,-0.004829835,-0.14121798,-0.15787996,-0.115331635,-0.086958334,-0.005310774,-0.11990413,0.0032887235,-0.029294703,-0.009228177,0.10417631,-0.111609235,-0.15399176,0.124839745,0.15308659,-0.04407091,0.04282399,0.091471836,-0.18217999,-0.071014315,-0.011153255,-0.10728561,-0.055793997,-0.13442267,-0.13458617,-0.13366081,-0.1352408,-0.045657113,0.024324778
PFKM,-0.09594074,-0.11071672,0.07133481,-0.022686535,0.038856555,0.08915256,0.11158748,-0.077630654,-0.08536006,-0.098624885,-0.07375522,-0.07149153,0.059635337,0.1002316,-0.00840142,0.09523498,0.106911145,-0.030261857,-0.10755315,0.037421968,-0.075672925,-0.082851954,0.08736394,-0.095931955,0.06440388,-0.071774736,0.10035823,0.08558995,0.018301535,-0.09784709,-0.10707406,-0.052021284,0.10792473,-0.10174012,-0.11223569,-0.014679126,-0.12022092,-0.13892785,-0.07231337,-0.07641865,0.023496374,-0.079560384,0.011746936,-0.02838317,0.00937707,0.07291749,-0.07275012,-0.123621956,0.12297179,0.115882844,-0.019251505,5.922839e-05,0.07570805,-0.1575125,-0.068826444,-0.026920171,-0.07372626,-0.037629258,-0.123764485,-0.11480315,-0.12053183,-0.113481,-0.019435763,0.012567114
CD9,0.01321964,0.040501248,-0.022522286,0.00214867,-0.024143614,-0.062351953,-0.022643596,-0.0071791,0.014957249,0.03755204,0.019975342,0.036836244,0.00212677,0.00906473,-0.07163617,0.009430835,-0.0180073,-0.006250603,-0.0164884,-0.023990829,0.027406067,0.027464533,-0.015344612,0.021299042,-0.0081219,-0.014121758,-0.010572452,-0.032777917,-0.009263124,-0.023142606,0.046252336,0.004071124,-0.010758989,0.03987307,-0.0014153719,-0.0124732405,0.022314932,0.012228971,0.03891258,0.03424795,-0.005362414,0.02181242,-0.0305487,0.024960514,0.035461765,-0.0399689,0.036141403,0.014689,-0.006877221,-0.033969946,0.047148753,-0.027916715,-0.024890723,0.011567995,0.010439534,-0.044008903,0.0600826,0.044017345,0.026719483,0.010187987,0.018798437,0.022454787,0.03901113,-0.023688111
MCM10,-0.3313622,0.058803372,0.38997382,-0.39748552,0.438397,-0.29698277,-0.2695297,0.43287936,0.15070215,-0.18821476,-0.447499,-0.20896657,0.6931348,0.3449952,-0.25093037,0.4013486,0.32755363,-0.6393225,-0.25523746,0.3829506,-0.18617289,-0.3459613,0.3106235,0.7534396,0.392476,-0.52574086,0.21482645,-0.5411007,0.5362302,0.24204774,-0.065157585,-0.4322393,0.32872862,-0.21424046,-0.3254421,-0.6362926,-0.2080659,-0.3321714,-0.14777024,-0.42920387,0.5695291,-0.26079318,0.15913542,-0.44300368,0.64516485,0.14825623,-0.21614887,-0.22753511,0.24697244,-0.097229026,-0.1525975,-0.3241503,0.31217444,0.0779407,-0.45496634,-0.4452609,-0.26709038,-0.21235059,0.1834737,-0.3041054,-0.3890273,-0.20219323,0.546307,0.6292775
NUDCD1,-0.112103805,0.0099135935,0.11059365,-0.12424,0.12792888,-0.09316476,-0.06583336,0.11325158,0.040907796,-0.06765602,-0.13422719,-0.059612192,0.21482107,0.13099377,-0.10654637,0.12670088,0.10535758,-0.19284765,-0.10113496,0.11357516,-0.06078086,-0.104594015,0.10153934,0.21498626,0.12845406,-0.17625749,0.083264396,-0.16638994,0.15433562,0.04450593,-0.01975663,-0.1419786,0.11090974,-0.055681843,-0.122401714,-0.19346091,-0.0746184,-0.11143194,-0.044160932,-0.12111589,0.15659648,-0.08959249,0.020010695,-0.12288873,0.2164127,0.050333403,-0.066182464,-0.08924238,0.09106828,-0.015505423,-0.03102502,-0.11268377,0.09134263,0.0014903471,-0.13474408,-0.17037654,-0.07861604,-0.054570254,0.04907749,-0.10693291,-0.12921512,-0.067038886,0.18498833,0.1820761
TMEM177,0.06473251,0.05306324,-0.07229386,0.020832954,-0.055227794,-0.026651207,-0.02025944,-0.020853665,0.03361821,0.0552259,0.0868755,0.06271766,-0.06488945,-0.04819591,-0.02313328,-0.06814601,-0.06432197,0.06874141,0.037425987,-0.047355622,0.05437366,0.066359706,-0.06425357,-0.05563937,-0.044402517,0.061251417,-0.0359387,-0.00054735364,-0.08153464,-0.015228059,0.05929514,0.042657785,-0.065414794,0.07685853,0.061070815,0.058087185,0.06354618,0.084163755,0.042824104,0.0877911,-0.0764736,0.04781652,-0.061802465,0.07538521,-0.028824128,-0.039148428,0.07471289,0.044269755,-0.04953865,-0.05111767,0.047118198,0.018378835,-0.07027997,0.03244909,0.06832469,-0.001472503,0.053350747,0.07222584,0.029923627,0.07339358,0.06862287,0.062108338,-0.01604715,-0.070188776
CMPK2,0.22782241,0.1325295,-0.2080749,0.074026644,-0.14735627,-0.059335437,-0.08890417,-0.009582594,0.10342934,0.19049224,0.26150936,0.18806429,-0.23345542,-0.19107607,0.049214322,-0.22370948,-0.19848716,0.19646955,0.15631048,-0.13199332,0.15049675,0.17594011,-0.20649031,-0.1464042,-0.1493645,0.22938803,-0.14759406,0.002225624,-0.20793962,0.032570716,0.17823294,0.14626792,-0.22138038,0.19936499,0.22779062,0.19938171,0.20841365,0.26613426,0.13174433,0.26002106,-0.20019296,0.13192569,-0.08409684,0.21857318,-0.1481128,-0.12123851,0.21403718,0.19535482,-0.20014074,-0.17187957,0.104885876,0.118482396,-0.16578114,0.15079612,0.20697436,0.12615521,0.1685352,0.16393761,0.11479306,0.20783825,0.2320546,0.20137131,-0.09317527,-0.18034935
ZFP143,-0.015341256,-0.23867086,-0.042575777,0.09887434,-0.1484109,0.2888402,0.26976,-0.30813527,-0.1798675,-0.07276597,0.04718422,-0.016649336,-0.23001075,-0.017291028,0.127058,-0.07632077,0.0026943972,0.20578983,-0.030913468,-0.06494112,-0.063160114,0.06299609,0.060600143,-0.45715964,-0.03259546,0.08854238,0.068140924,0.33168605,-0.21935922,-0.2420233,-0.22538966,0.096591614,-0.007065974,-0.038399186,-0.011887459,0.22078715,-0.103870556,-0.03990661,-0.116418585,0.07497126,-0.2676249,0.021430496,-0.096755706,0.20747904,-0.25316045,0.053953975,-0.046115693,-0.077405535,0.104880124,0.23952854,0.02709188,0.17752776,-0.0020421967,-0.23278452,0.07380544,0.15723133,-0.02724833,0.030653838,-0.26974848,-0.011611208,0.028648328,-0.095620096,-0.24354519,-0.24175312
CACFD1,0.12775822,0.05239178,-0.12525931,0.07320582,-0.118135765,-0.014868598,-0.0066546574,-0.06389685,0.03771326,0.08241289,0.1479652,0.10818066,-0.15315524,-0.090134904,-0.011859886,-0.13479227,-0.10996186,0.13528828,0.07335462,-0.10080293,0.07866365,0.11927665,-0.10744649,-0.124341205,-0.09309739,0.120462574,-0.06561257,0.04569195,-0.1347451,-0.032738823,0.0878353,0.09625202,-0.10142448,0.114600785,0.1084113,0.122585,0.080188796,0.13939215,0.052419767,0.14999567,-0.14886203,0.08027537,-0.08471474,0.15296982,-0.098219275,-0.067426816,0.11959016,0.08570232,-0.08119988,-0.069956556,0.08296631,0.050346714,-0.108207315,0.042442992,0.13014546,0.0490625,0.08938566,0.09980857,0.03200774,0.13658005,0.13105175,0.103473105,-0.05294893,-0.13841066
CRIP2,-0.13923003,-0.17043564,0.09210876,-0.03894373,0.02464094,0.15739234,0.1366579,-0.09949842,-0.09800131,-0.15230757,-0.095527954,-0.11348133,0.039905347,0.116014555,0.05685376,0.091724575,0.115605004,-0.022101978,-0.12535265,0.07424745,-0.11428065,-0.0958778,0.12800834,-0.14395016,0.09549318,-0.067818895,0.13420199,0.108023874,0.009761598,-0.108575955,-0.17849678,-0.05854475,0.11942866,-0.13189796,-0.14219514,0.0033753365,-0.1632142,-0.1751515,-0.12303952,-0.09024145,-0.015570547,-0.10915686,0.002380468,-0.019706998,-0.013406713,0.120153375,-0.11628781,-0.15222658,0.1587278,0.1745237,-0.053806655,0.04293097,0.10350658,-0.18632385,-0.086069696,-0.0019497499,-0.108587116,-0.06949149,-0.17128153,-0.1371243,-0.1262569,-0.15057868,-0.042997032,0.0074530505
GCNT2,0.016347276,0.020658847,-0.028753906,0.04415822,-0.03400906,-0.027545914,0.0085339025,-0.06423284,-0.027986966,0.055178195,-0.0014982224,0.04193782,-0.016212173,-0.0039925165,-0.079963036,0.020254118,-0.01958353,0.007985452,-0.018774666,-0.041985426,0.022809519,0.03321761,-0.006553551,-0.007279869,-0.018650822,-0.005784826,-0.010473035,0.020453881,-0.020317793,-0.063777015,0.022912964,0.014837526,-0.0048114136,0.031133361,0.003835462,0.0011166185,0.016796779,-0.002842335,0.04520963,0.016044004,-0.008803166,0.045426223,-0.0411006,0.014409974,-0.0071108784,-0.05670119,0.0358185,0.027538141,-0.009584062,-0.004990139,0.05489536,-0.031097334,-0.04137627,-0.016557014,0.025388226,-0.04075908,0.055332102,0.039619274,-0.010033723,0.004324734,0.014639918,0.01222197,0.0038379785,-0.07299711
USP10,0.110167906,0.10902402,-0.096144915,0.006066829,-0.049815282,-0.097270414,-0.082885236,0.039239496,0.07737975,0.11477658,0.12567262,0.106512606,-0.08403878,-0.09295252,-0.018017467,-0.092414446,-0.10098038,0.06133119,0.074072406,-0.05983878,0.09248903,0.08747511,-0.12525621,-0.0140890535,-0.06660458,0.095393054,-0.08340299,-0.06395005,-0.0933568,0.032324348,0.1228979,0.061844073,-0.12504292,0.12148664,0.11972818,0.06222565,0.12681462,0.14355646,0.101655856,0.13699901,-0.066192605,0.06889011,-0.047014307,0.095687315,-0.023745628,-0.07199482,0.12308738,0.1004517,-0.10344718,-0.12578651,0.06726314,0.029318947,-0.07974054,0.112149745,0.08176804,0.021722231,0.1174794,0.10036744,0.10095434,0.10118921,0.12207167,0.11801003,0.006276952,-0.060847428
SCRN3,0.07056135,0.057285402,-0.084588885,0.025836172,-0.06022443,-0.012210015,-0.018130839,-0.01993778,0.03185051,0.054394066,0.09508805,0.06344926,-0.07470657,-0.049139168,-0.011544898,-0.07575494,-0.0737601,0.08265862,0.050609447,-0.05830811,0.057776283,0.06888441,-0.08302994,-0.07011274,-0.050682843,0.08029688,-0.041718725,0.0017699986,-0.094223514,-0.009775236,0.06686566,0.04679083,-0.0774926,0.07639008,0.06957015,0.073388994,0.067924574,0.09483081,0.049331665,0.09715657,-0.092396736,0.044396717,-0.06491835,0.076179385,-0.048041385,-0.027265958,0.07463923,0.048287086,-0.05960817,-0.04592061,0.04219913,0.025654301,-0.07131082,0.039536685,0.07687143,0.012870494,0.053954683,0.069317,0.029401336,0.075126246,0.080775455,0.07729456,-0.033669747,-0.07520738
ABCF3,-0.09424828,-0.04954932,0.07426563,-0.05231985,0.048317067,-0.0003794618,0.04370686,-0.0155398585,-0.044622116,-0.07359053,-0.08166292,-0.065986425,0.10047433,0.10887088,-0.05607742,0.10341628,0.0810726,-0.07824366,-0.10073463,0.04298616,-0.06163335,-0.07646313,0.09893121,0.023644395,0.080991164,-0.106704734,0.08270796,0.001117812,0.04577789,-0.05260462,-0.056707837,-0.078480035,0.09155235,-0.063243285,-0.105776794,-0.0686111,-0.094408065,-0.1187385,-0.04659976,-0.07861924,0.06242715,-0.072483845,0.003933549,-0.058090363,0.07451844,0.04307514,-0.05589399,-0.094198085,0.11158067,0.060035862,-0.018521218,-0.056621693,0.07050279,-0.090047166,-0.08731215,-0.08385204,-0.050909,-0.045151677,-0.046705958,-0.10212972,-0.10622818,-0.09273586,0.05316768,0.0542914
SOX18,-0.035809506,-0.07020738,-0.006856285,0.015007867,-0.045412004,0.12883303,0.10657817,-0.13615018,-0.06805165,-0.067671314,0.0061281025,-0.03135065,-0.039389715,0.056035716,0.022984277,0.03524116,0.02275065,0.055045173,-0.07070604,0.0046700723,-0.04097373,-0.008313671,0.075293824,-0.16320348,0.0022551585,-0.0024431339,0.07048924,0.13139738,-0.057114955,-0.11721733,-0.07646117,-0.011723578,0.0412267,-0.06857551,-0.05529721,0.057707533,-0.06781496,-0.066345304,-0.06187204,-0.0036965609,-0.09395106,-0.032823373,-0.05572385,0.033233896,-0.105675936,0.044938497,-0.04441854,-0.087097526,0.059372667,0.108569965,-0.013768174,0.032452997,0.001553908,-0.13640185,0.018986473,0.0070753433,-0.037785266,-0.0048852526,-0.1224011,-0.04171958,-0.033858627,-0.052013054,-0.09921662,-0.06350133
TBC1D10C,-0.04053512,-0.014667943,-0.0048815124,0.012077436,0.000634931,0.020617723,0.009229384,-0.071687,-0.008468814,-0.002285393,-0.028921269,-0.015107818,-0.009920459,0.009683762,-0.025196232,0.04110883,-0.0013383487,0.010261679,-0.038749397,0.008636858,-0.005077737,-0.0002715811,0.028280135,-0.028298387,0.023240132,-0.02195783,0.012889821,0.009978816,0.005380731,-0.039489385,-0.04383301,-0.021139957,0.032444328,0.0018748827,-0.0464558,-0.00537166,-0.03512571,-0.061036784,-0.016234942,-0.014542941,-0.022259742,0.019403968,-0.02017793,-0.01311117,-0.014969006,0.008310325,-0.01849714,0.006859256,0.040527515,0.047643747,-0.0057830624,-0.0057428796,0.020081345,-0.029445447,-0.0052560996,-0.03230163,0.02079963,0.003540799,-0.051337216,-0.03821132,-0.0347351,-0.025718465,-0.005381693,-0.043268092
PDK3,0.13118373,0.08489379,-0.127731,0.04708489,-0.10621767,-0.052104067,-0.041670263,-0.027831476,0.05416301,0.12067437,0.15946597,0.12292062,-0.14188042,-0.11435984,0.010277431,-0.11772451,-0.12087766,0.112635866,0.07882716,-0.0830574,0.09248723,0.11225023,-0.12662114,-0.10257925,-0.09587841,0.12871984,-0.090222895,0.0052563283,-0.13336748,-0.005865004,0.1098049,0.09724858,-0.13311893,0.11776195,0.12357098,0.123538524,0.12299901,0.14750843,0.09245229,0.17013776,-0.12714872,0.08540864,-0.054168083,0.14451277,-0.079512104,-0.08834881,0.14439087,0.11462671,-0.10995086,-0.10434203,0.08026536,0.06556879,-0.09651004,0.07842916,0.12721422,0.074474305,0.1323057,0.114633694,0.05853689,0.12816639,0.14214666,0.11834128,-0.05255621,-0.1314703
AQP9,-0.118479684,-0.14591113,0.076334774,-0.029971646,0.02712825,0.15398379,0.13558298,-0.111738354,-0.10703262,-0.13978368,-0.077378474,-0.10598731,0.028238567,0.102036014,0.06185397,0.09747933,0.111226864,-0.003927728,-0.11322197,0.062700406,-0.09225549,-0.09470352,0.1156359,-0.17202514,0.08052261,-0.051081195,0.113551125,0.11820892,-0.008857917,-0.112054005,-0.16759628,-0.052213807,0.111507535,-0.11701068,-0.13525265,0.028311674,-0.14075352,-0.16997038,-0.10959021,-0.07773128,-0.02325062,-0.10029754,0.014915042,-0.024622869,-0.03827538,0.11492579,-0.11594938,-0.14246817,0.14570624,0.17458157,-0.05271899,0.06000791,0.09969184,-0.19366437,-0.07031306,0.010630038,-0.089666545,-0.05932666,-0.17302345,-0.14450288,-0.14111629,-0.13314547,-0.074551456,-0.0030532163
CRYZL2,0.1492286,0.07475695,-0.15307443,0.077988915,-0.13705333,-0.033581965,-0.030160375,-0.04968178,0.05202315,0.12685008,0.18139672,0.14281432,-0.17604676,-0.120423466,0.016058046,-0.15081283,-0.14220624,0.14801486,0.08955674,-0.10406484,0.10642719,0.13926046,-0.13435169,-0.12761036,-0.11262966,0.15540406,-0.097735375,0.03156641,-0.14824226,-0.021722432,0.11604172,0.115307964,-0.1484353,0.13473544,0.13951904,0.1479271,0.13297944,0.17148986,0.08882068,0.19255114,-0.16247803,0.10258658,-0.07738937,0.16691376,-0.114455774,-0.09294858,0.1500861,0.12407812,-0.13385943,-0.09806609,0.0886686,0.07535909,-0.12626882,0.082376376,0.15382072,0.07952131,0.13595665,0.123656616,0.056478523,0.15113482,0.16896845,0.13018912,-0.078891,-0.15730418
MARCH5,0.018278979,0.047043853,-0.026443966,-0.00128818,-0.023260243,-0.06563309,-0.025600538,-0.008154847,0.021173451,0.030392509,0.021724708,0.035597883,-0.01346596,-0.010330658,-0.039089747,-0.006438965,-0.027186092,-0.0021585748,-0.012315363,-0.023629213,0.024581429,0.018791048,-0.026348365,-0.004657464,-0.008576021,-0.0005156528,-0.020032767,-0.038088996,-0.024893142,-0.009606112,0.036185868,0.00444559,-0.019871876,0.043010227,0.00887176,0.012184873,0.018003564,0.020486973,0.037345454,0.04141485,-0.018679745,0.022607375,-0.019587755,0.028825399,0.021436201,-0.036741287,0.042377844,0.022449141,-0.0028461963,-0.040123794,0.035363566,-0.009845462,-0.013479609,0.021315895,0.016553052,-0.020923268,0.06137012,0.031534605,0.020535752,0.027298361,0.028516885,0.023905315,0.03603839,-0.018967876
RPA2,-0.5073685,-0.052245565,0.5867637,-0.5225603,0.6013516,-0.26103446,-0.24937479,0.48683152,0.089567006,-0.31107253,-0.63836175,-0.36309767,0.9261786,0.50463796,-0.2453718,0.60277903,0.5226269,-0.8363194,-0.41353595,0.5207836,-0.32887882,-0.54498297,0.48445204,0.8353686,0.54336697,-0.6853742,0.34758598,-0.57283175,0.7061019,0.24932046,-0.2109648,-0.5889938,0.49685025,-0.40398926,-0.49678648,-0.79201776,-0.37857047,-0.5534409,-0.26241666,-0.63037944,0.77415365,-0.41259015,0.2710501,-0.61108005,0.7794042,0.25781652,-0.38163275,-0.38811567,0.412134,0.00028495782,-0.24240278,-0.362815,0.5038583,-0.04745447,-0.65673345,-0.4975383,-0.40396297,-0.33867592,0.10492666,-0.5261797,-0.6069122,-0.38336205,0.622842,0.8180266
GCLC,-0.14987461,-0.14970458,0.10359934,-0.05927529,0.061196893,0.12347281,0.11671366,-0.07159741,-0.094546534,-0.1525625,-0.11818638,-0.11422122,0.08985332,0.13176085,0.03465442,0.12508866,0.13714106,-0.060584255,-0.13717856,0.085910335,-0.10995138,-0.120619334,0.13140775,-0.10499442,0.10886948,-0.09580856,0.13741964,0.0708305,0.047688123,-0.09786375,-0.1697571,-0.079497926,0.13763148,-0.1455984,-0.16451207,-0.025419787,-0.16051042,-0.19402395,-0.11146512,-0.11127828,0.025900818,-0.122329846,0.024341032,-0.05133732,0.016485337,0.1182637,-0.12870823,-0.16279149,0.16112092,0.1617407,-0.056715555,0.02705713,0.12350446,-0.18407345,-0.09954803,-0.022697613,-0.10737622,-0.075809866,-0.15120107,-0.1640686,-0.15628083,-0.15150353,-0.017944375,0.052992087
CD82,0.15387142,0.11362581,-0.14500077,0.0482854,-0.09855507,-0.096150234,-0.083842024,-0.0013171025,0.073998764,0.14386465,0.16015935,0.14139192,-0.13850714,-0.1197356,-0.022052968,-0.13892192,-0.13439068,0.099578604,0.0974053,-0.10133935,0.10228838,0.12275974,-0.14415126,-0.05947624,-0.10333102,0.12958476,-0.108982,-0.033502508,-0.1294276,0.0164559,0.1440081,0.10037356,-0.14805913,0.14401415,0.14944054,0.10772544,0.14668576,0.17881556,0.11378257,0.17254528,-0.112550035,0.098483235,-0.06272945,0.14709051,-0.06729366,-0.1093368,0.1539483,0.13515426,-0.12696499,-0.14576723,0.0886309,0.04163919,-0.11609849,0.11484167,0.1311158,0.049056914,0.13988309,0.11634162,0.10590699,0.1483696,0.16313909,0.14748195,-0.022623641,-0.11270416
ADAMTS10,0.124868155,0.06396629,-0.14807059,0.060462624,-0.118372485,-0.023411345,-0.0426613,-0.058448832,0.06070321,0.12435385,0.1600996,0.11948289,-0.16268265,-0.11979951,0.024154406,-0.13765487,-0.12695447,0.13806985,0.08533426,-0.082192615,0.095022865,0.1244451,-0.11926119,-0.12268383,-0.101991676,0.1436046,-0.09558782,0.015536383,-0.13159822,-0.0039200224,0.087693036,0.10141357,-0.13463092,0.12234364,0.11497608,0.12877421,0.11694969,0.14832836,0.076554984,0.1710199,-0.15093051,0.10543114,-0.06680921,0.14257598,-0.10799226,-0.079078294,0.1284732,0.13399985,-0.117178254,-0.088342115,0.06692508,0.06744863,-0.10364878,0.08426948,0.13662374,0.07090658,0.1164815,0.11176658,0.04071661,0.13568275,0.14372362,0.11240144,-0.07247836,-0.14688018
EBF1,-0.053397026,-0.05561293,0.014081832,0.012655902,-0.011038877,0.08517076,0.07369382,-0.112091765,-0.058015853,-0.044043027,-0.0351044,-0.045337908,-0.0057893097,0.051402595,-0.012815844,0.053090192,0.030623809,0.012916632,-0.06289253,0.0093044005,-0.039273463,-0.031391576,0.073538974,-0.09271448,0.026987284,-0.035096973,0.05808279,0.08237497,-0.024719134,-0.09314519,-0.07699113,-0.031050988,0.048806693,-0.03781417,-0.06048973,0.008716609,-0.067332156,-0.08453992,-0.04534612,-0.030691762,-0.037970826,-0.016409585,-0.037145656,-0.008833636,-0.044810377,0.03532152,-0.051337805,-0.054455288,0.07761709,0.09715983,-0.007561352,-0.004550034,0.019223329,-0.10986755,-0.011713037,-0.029223267,-0.026245002,-0.017782941,-0.10546227,-0.06294179,-0.0656214,-0.05908499,-0.043820117,-0.045214593
