,0,1,2,3,4,5,6,7,8,9,10,11,12,13,14,15,16,17,18,19,20,21,22,23,24,25,26,27,28,29,30,31,32,33,34,35,36,37,38,39,40,41,42,43,44,45,46,47,48,49,50,51,52,53,54,55,56,57,58,59,60,61,62,63
DUSP1,-0.029444281,-0.044323515,0.065210715,0.028999642,-0.06325651,0.046478547,0.068125986,-0.003422439,-0.10770275,0.071600005,0.051440965,-0.0263009,0.0053430535,-0.045322,0.0715279,0.04502349,0.07098233,0.03203547,-0.055400968,0.041772738,0.03825549,-0.049729947,0.040503908,-0.061716564,-0.019769613,-0.04249901,0.047890723,0.042175025,0.054621954,-0.023659421,-0.008924667,-0.05107143,-0.05143491,0.05156058,-0.025078334,0.05456625,0.020279326,-0.04523597,-0.010558154,-0.035395928,-0.00044298172,-0.043485187,0.05722007,-0.041849297,-0.05679279,0.03797821,-0.04101952,-0.026482705,-0.033796012,0.04678362,-0.041172855,0.03837245,0.070800535,0.061773505,-0.0630524,0.031217968,-0.03428212,0.003806416,0.047612607,0.07622831,0.0489798,0.032756366,-0.061216608,0.014288997
TFEC,-0.025460493,0.008517534,0.021830564,-0.013401084,-0.0032560527,0.0030034482,-0.012425603,0.019072194,-0.030568624,0.0026458874,-0.0011772886,0.0050947145,-0.001076363,0.020693034,0.02886485,0.0064417385,0.0062743723,-0.016356478,0.003415238,-0.02599828,-0.018192602,0.0009390395,-0.01141325,0.007861696,-0.0056186616,-0.0073660836,-0.016477212,-0.013558704,-0.006241638,-0.021604229,0.029551288,0.00466178,-4.0662475e-05,-0.0035294145,-0.0051442403,0.019058367,-0.023735423,0.0010251421,0.012242732,-0.01643401,-0.008647598,-0.013404574,0.011050859,0.0069507435,0.00019763038,-0.004208546,-0.0097960755,0.027850576,0.021877322,-0.0005714856,0.016982771,-0.0051345266,0.016182281,-0.0015675137,-0.031712748,-0.019669626,-0.01644189,0.011382289,0.0019014627,-0.0053099478,0.0054949797,0.0087996125,-0.04944903,0.026564222
GIMAP8,0.07098538,0.10685864,-0.10543938,-0.12888806,0.10480763,-0.1268728,-0.16962235,0.06344416,0.12886111,-0.119850054,-0.13980076,0.09849639,-0.045523476,0.15211155,-0.08363665,-0.14649582,-0.14479613,-0.13811374,0.14078021,-0.15913329,-0.09795128,0.1250978,-0.12507266,0.1321531,0.044174023,0.13250455,-0.1301525,-0.07052629,-0.16994654,-0.00988506,0.115351945,0.08858144,0.11335177,-0.09566121,0.045490723,-0.07458111,-0.09420997,0.11880504,0.08281218,0.09013939,-0.048761748,0.09999681,-0.09262002,0.1734393,0.15073343,-0.15575479,0.108877204,0.1352197,0.13154867,-0.14944556,0.14429735,-0.12067933,-0.10989037,-0.12884997,0.09826512,-0.113253236,0.06342768,0.025983188,-0.12654832,-0.16227005,-0.073321246,-0.07256373,0.038465016,0.06288391
F2R,-0.017828433,0.012848247,0.02032296,-0.017262636,-0.000603199,-0.00078091025,-0.015356412,0.019648336,-0.03517722,0.0013981815,-0.002190344,0.0028326511,-0.0052959807,0.018548544,0.029090926,-0.0008147545,-0.002601713,-0.01741562,0.008102249,-0.030116014,-0.020828236,0.0058962833,-0.011800136,0.007312078,-0.0047399104,-0.0011375621,-0.020004228,-0.010064609,-0.0059667304,-0.022775682,0.029838886,-0.002382949,0.0032312209,-0.0020259172,-0.004526779,0.01065103,-0.022438176,-0.00061350875,0.017277332,-0.011145819,-0.011909179,-0.011093319,0.008250361,0.011069648,0.0066439714,-0.008561097,-0.007355405,0.027653845,0.029068727,-0.007847872,0.024847075,-0.007363841,0.010711029,-0.0028939554,-0.026818775,-0.018332586,-0.013662353,0.008922271,-0.0015033782,-0.011418146,0.0045310645,0.007599458,-0.042433344,0.026117252
PLXNC1,-0.00047723204,0.016007151,0.0023447946,-0.02464775,0.0041698962,-0.018279832,-0.02818723,0.028131483,-0.011448685,-0.0125714205,-0.00821095,0.018360985,-0.00809972,0.038713068,0.016142793,-0.02203973,-0.016158238,-0.032275468,0.01530711,-0.038694095,-0.020000607,0.010463728,-0.02390382,0.011999562,0.0048917457,0.016501073,-0.032661296,-0.008218236,-0.020953037,-0.013799332,0.047861774,0.01016264,0.021149611,-0.014832355,-0.0014818124,0.00036871433,-0.022141814,0.005772358,0.021334399,0.0076663755,-0.014114298,0.012235387,-0.009698769,0.034336917,0.028291514,-0.029673602,0.009868279,0.035548076,0.026724407,-0.016939767,0.031946883,-0.019558385,-0.0019261837,-0.025430191,-0.009545691,-0.022589948,-0.009864499,0.017743055,-0.013014697,-0.021017212,-0.0005029659,-0.0027444288,-0.027259748,0.025088135
ITGAM,-0.08104517,-0.07374291,0.09790896,0.05038768,-0.050455138,0.07402097,0.084224455,-0.0019427277,-0.12151608,0.090884,0.08347137,-0.06619847,0.026627436,-0.06472092,0.09669931,0.08783273,0.0991729,0.06779436,-0.076472014,0.05723942,0.031891935,-0.07374102,0.060872484,-0.06435201,-0.019686613,-0.09292455,0.06045641,0.027454637,0.09357108,-0.028281294,-0.035031173,-0.06298147,-0.0724028,0.064873,-0.045787178,0.07018888,0.019076101,-0.062129274,-0.03638772,-0.07293525,0.0077972934,-0.09815144,0.08319572,-0.08761285,-0.09396431,0.07942559,-0.070844814,-0.029314395,-0.047184087,0.0847801,-0.060489893,0.05491873,0.08854397,0.0831395,-0.09909044,0.044916738,-0.06416569,-0.0128978975,0.069474384,0.0896394,0.05075846,0.06005057,-0.084008485,-0.0011251997
SOCS2,-0.02852973,-0.035661537,0.03129572,-0.0027698716,0.0042555034,0.015340881,0.017410079,0.030387094,-0.034919977,0.018483486,0.030047107,-0.017964732,0.0136965215,0.0012171362,0.03738551,0.00959903,0.010931976,0.0010347907,-0.017463708,-0.00018871576,-0.015461961,-0.024124118,0.009872727,-0.009649493,0.014085982,-0.019269371,-0.00044433773,-0.008706402,0.013558179,-0.02748296,0.01978353,-0.0122083295,-0.011181982,0.016694576,-0.012276223,0.019187393,-0.012835804,-0.009175038,0.0016379021,-0.020670488,-0.018008865,-0.021357257,0.02724652,-0.0050838366,-0.026597025,0.008226097,-0.012688944,0.018186502,-0.0034981184,0.013341218,0.0068058223,0.00467903,0.025324993,0.009717575,-0.026841566,0.0015214658,-0.023039473,0.0049857013,0.015407417,0.017950956,0.0060805003,0.0067312345,-0.03965783,0.023236632
IGHV1-82,-0.038627982,-0.0077300332,0.033822507,-0.0019448027,0.005962938,0.018759735,0.003257372,0.018625516,-0.044138588,0.013052532,0.0069343485,-0.017811667,0.0042748973,0.00059863366,0.041401513,0.023944978,0.019849166,0.0011668224,-0.009667481,-0.02056972,-0.025482874,-0.009288937,0.0019491203,-0.00024678186,-0.0040194914,-0.023104878,-0.005723059,-0.013773609,0.011698632,-0.02884689,0.014485393,-0.0122635905,-0.00907805,0.0074222162,-0.016991705,0.019287843,-0.02630027,-0.0016445182,0.00030948687,-0.029785968,-0.012370825,-0.043249965,0.029770939,-0.018485665,-0.022398151,0.013774082,-0.016992021,0.02804761,0.019076832,0.014640549,0.002242284,0.0035199076,0.01963336,0.010465371,-0.0408898,-0.014743598,-0.024519298,-0.0020456314,0.011796549,0.005712104,0.007208957,0.01665996,-0.050649114,0.025831832
TINAGL1,0.022670608,0.046350148,-0.04659249,-0.06815964,0.05280514,-0.060137037,-0.08781317,0.049693957,0.043900054,-0.06961903,-0.06200249,0.044263802,-0.01650193,0.08482799,-0.023881346,-0.075755894,-0.06664313,-0.08264059,0.06438804,-0.087918095,-0.059237972,0.049477756,-0.061893135,0.06599561,0.01913615,0.06008754,-0.07447794,-0.046134476,-0.084946886,-0.010089062,0.07390652,0.051442202,0.059520416,-0.0500938,0.016029622,-0.025934987,-0.05468883,0.061714776,0.044453017,0.040295336,-0.026115917,0.0441745,-0.038184196,0.086628005,0.069181144,-0.07950844,0.047355734,0.07972065,0.07314052,-0.07105989,0.074193284,-0.062120177,-0.038832515,-0.060778473,0.027565114,-0.061790157,0.03219942,0.0144862905,-0.054615185,-0.08170575,-0.027233195,-0.02972553,-0.004173778,0.042946294
EPSTI1,0.015972774,0.017501421,0.0020853989,-0.034120165,0.013028197,-0.016630944,-0.016558368,0.026421672,-0.0059418418,-0.0072426163,-0.014270881,0.014107041,-0.012659594,0.032162268,0.010507092,-0.03477752,-0.033595167,-0.037076198,0.019170817,-0.04103324,-0.029450387,0.01737388,-0.024027927,0.017026879,0.017681882,0.02347485,-0.025936874,-0.0016996376,-0.025525311,-0.023950119,0.053085543,0.0020932183,0.018433444,-0.005093366,0.008440342,-0.022441354,-0.01845406,0.0052906964,0.028763808,0.024348546,-0.027517416,0.012999061,-0.012791047,0.046541415,0.02506891,-0.03300846,0.02486533,0.034100078,0.029309575,-0.025594875,0.046428833,-0.028430406,-0.012273461,-0.028880343,0.011844054,-0.025419569,-0.010495095,0.018227365,-0.015402742,-0.01463203,-0.009871883,-0.012495957,-0.0050730333,0.027687455
EBI3,-0.048925713,-0.052785944,0.08827314,0.03946825,-0.06336557,0.06070509,0.0801492,-0.008928224,-0.116101265,0.08732484,0.0640859,-0.04249066,0.0130764805,-0.05413346,0.085648045,0.07297884,0.08616015,0.04995247,-0.06699182,0.049536288,0.040164143,-0.059126765,0.04761735,-0.063899025,-0.020722086,-0.073835656,0.062388442,0.040503714,0.0712094,-0.023802388,-0.01970822,-0.058666855,-0.066747345,0.05870248,-0.031875882,0.05926758,0.026087187,-0.060483187,-0.01911067,-0.049128264,0.0030832067,-0.06704292,0.06585743,-0.059886668,-0.072265655,0.060222995,-0.04990974,-0.033179592,-0.04600101,0.06864067,-0.04953835,0.03931709,0.081762224,0.070452824,-0.07446016,0.038150396,-0.05426973,0.0013551004,0.059927545,0.08487287,0.049857747,0.04957218,-0.071665265,0.0020675827
PSTPIP1,-0.030891897,-0.050151344,0.07078253,0.02543575,-0.039907724,0.0434262,0.07419893,9.8172575e-05,-0.09372435,0.07199639,0.05904236,-0.04152176,0.015478604,-0.04297419,0.074608624,0.04762085,0.05731249,0.039504245,-0.059353303,0.041675203,0.031246781,-0.053718843,0.039175,-0.04922989,-0.0048842095,-0.054745257,0.04674182,0.035317905,0.06849694,-0.027380638,-0.008232031,-0.055875443,-0.054480895,0.051622704,-0.033316612,0.037538573,0.021948837,-0.05295565,-0.013279116,-0.030544695,-0.009027787,-0.055140946,0.055743635,-0.04310401,-0.058494516,0.044543717,-0.034927476,-0.020037565,-0.03709171,0.05670118,-0.032689683,0.030968798,0.06504028,0.052615453,-0.052710444,0.03320858,-0.051251113,-0.0023198798,0.050869204,0.07686327,0.03600924,0.0351616,-0.046490677,0.0032356177
TTC39B,-0.12700799,-0.13091953,0.14750691,0.10169039,-0.10155085,0.1391114,0.15087508,-0.036553368,-0.19721173,0.14899237,0.14881618,-0.10231815,0.045187913,-0.14112283,0.15444463,0.15816788,0.17181647,0.13188636,-0.14806397,0.13496086,0.080011226,-0.13139977,0.11798355,-0.11454291,-0.04529439,-0.1498921,0.10974208,0.06781049,0.16776282,-0.021292655,-0.10018267,-0.112090066,-0.13038558,0.111779466,-0.079617575,0.11817275,0.0534373,-0.11308189,-0.08080958,-0.11928712,0.020901874,-0.14796883,0.1460299,-0.16012067,-0.1564467,0.15502754,-0.13903317,-0.07751468,-0.1133706,0.14770707,-0.12220974,0.11149409,0.15819278,0.15656753,-0.16081502,0.09931061,-0.08756867,-0.029810537,0.117538765,0.15579769,0.099227674,0.099657744,-0.11409554,-0.018645424
USP11,-0.041289926,-0.039947424,0.055955358,0.021613851,-0.03582278,0.038796246,0.046196707,0.006598316,-0.07846411,0.04907831,0.044334423,-0.031272236,0.008007202,-0.026059225,0.06352761,0.043784764,0.048577964,0.029401487,-0.04622923,0.022614755,0.0036836416,-0.041777268,0.027435932,-0.036562964,-0.006696444,-0.04394352,0.02383124,0.016533952,0.043606088,-0.02475372,-0.003271196,-0.032708436,-0.035898983,0.031455383,-0.026240017,0.03276106,0.0021854267,-0.03272166,-0.01613829,-0.03422469,-0.005727716,-0.046814755,0.05016025,-0.035770755,-0.0477167,0.030850478,-0.032958277,-0.008953694,-0.02428545,0.037759785,-0.022751406,0.02363211,0.054564934,0.040563844,-0.055657614,0.020343365,-0.042898253,0.0009347312,0.032501213,0.051158205,0.023912381,0.028527722,-0.050338645,0.012876142
ITPR2,-0.07871622,-0.04975694,0.0901265,0.042436227,-0.0474433,0.075591415,0.067002,-0.008776933,-0.1228594,0.070371866,0.063263565,-0.053740006,0.021613374,-0.057576038,0.08913281,0.08149539,0.095212325,0.052732572,-0.06705869,0.046965517,0.02484174,-0.061659098,0.05281396,-0.061540794,-0.03180779,-0.07875324,0.055858307,0.020772679,0.07583411,-0.030569736,-0.033852134,-0.058888704,-0.0707897,0.054864924,-0.03209984,0.06801139,0.011854559,-0.05548022,-0.025241347,-0.07476923,0.00587485,-0.08173648,0.08051546,-0.08141512,-0.08489808,0.08215796,-0.07029728,-0.021359298,-0.026037946,0.07573643,-0.048873596,0.05557295,0.08189981,0.083445035,-0.098782524,0.030533638,-0.05171285,-0.007367868,0.066292204,0.07376704,0.048183456,0.057708673,-0.09099919,0.007916408
LDHD,-0.118333876,-0.12034908,0.12965563,0.084445745,-0.074858025,0.11788677,0.12394686,-0.022940248,-0.1671626,0.12578088,0.13086946,-0.10067299,0.045816533,-0.12203193,0.13647455,0.13308328,0.14149013,0.11485726,-0.12209642,0.11120658,0.04939641,-0.11299434,0.097674385,-0.09620775,-0.025584243,-0.13209021,0.0836196,0.044806436,0.14462985,-0.0291292,-0.0809295,-0.09372364,-0.107283495,0.089780375,-0.07264155,0.09306998,0.040619276,-0.09332317,-0.075418666,-0.101173684,0.012378655,-0.13744575,0.12761474,-0.14265059,-0.14191104,0.13243721,-0.1151935,-0.05683447,-0.0900626,0.12516299,-0.098602146,0.09376102,0.13597524,0.13283195,-0.13570091,0.07552278,-0.0834039,-0.034038823,0.096931055,0.13000675,0.07365743,0.08279836,-0.09609118,-0.01067931
SERP1,0.08304013,0.08474901,-0.06477967,-0.095209055,0.05743058,-0.087307155,-0.0993624,0.04805497,0.083630994,-0.072776616,-0.077944495,0.07360272,-0.048233412,0.10767963,-0.049280375,-0.12150903,-0.12947965,-0.109042645,0.09030238,-0.12268706,-0.06953869,0.09011117,-0.084274724,0.08487385,0.045516305,0.10043866,-0.08933599,-0.019221995,-0.109129414,-0.013961617,0.12414293,0.04942667,0.09075728,-0.06352453,0.039714616,-0.07770174,-0.0466679,0.052132368,0.07337974,0.09564845,-0.045546234,0.090660386,-0.0905134,0.1492063,0.12452611,-0.12585646,0.09143182,0.07531479,0.07918971,-0.10259384,0.12115966,-0.093495734,-0.08579686,-0.11835069,0.08711124,-0.07101473,0.024466509,0.04269318,-0.084971406,-0.096928105,-0.050292976,-0.060858063,0.05315531,0.042782158
VLDLR,-0.14168555,-0.18897255,0.21164685,0.1379577,-0.15365864,0.17689423,0.22949655,-0.059658714,-0.2636288,0.24353155,0.20894222,-0.15501083,0.06649548,-0.19912969,0.2029987,0.21945404,0.23851702,0.20018768,-0.20019993,0.21431857,0.13183865,-0.17836554,0.16755566,-0.167416,-0.051391885,-0.21690181,0.18333131,0.11448078,0.2395873,-0.017068012,-0.14705053,-0.17576015,-0.19169225,0.17790005,-0.114369854,0.15155187,0.098504744,-0.1553459,-0.10064559,-0.15542306,0.031569883,-0.1899556,0.19753292,-0.21774969,-0.21206895,0.20745948,-0.17141123,-0.12468736,-0.16644643,0.1969488,-0.18658793,0.15593737,0.21656395,0.21347429,-0.19564098,0.16173723,-0.126288,-0.043237027,0.16629925,0.23660484,0.13771534,0.13984141,-0.13540646,-0.05762274
TYROBP,-0.018923057,0.00041479245,0.0470251,0.000606955,-0.015386522,0.01688929,0.025621463,0.0068402067,-0.061382294,0.030465037,0.014246579,-0.0133726895,0.00080150366,-0.0007659886,0.048133533,0.02317772,0.026501752,0.0010323133,-0.017648432,-0.009128448,0.007969029,-0.016868258,0.00664844,-0.018399477,-0.00789341,-0.026338946,0.012577593,0.012869772,0.028097678,-0.023486722,0.021018017,-0.026642978,-0.023467828,0.018555388,-0.012201926,0.017959954,0.00085061044,-0.03164064,0.008500279,-0.016494304,-0.008832455,-0.03204657,0.019751694,-0.006066229,-0.013688123,0.020857379,-0.0138483215,0.0056602918,0.0041190833,0.030133016,0.0025913361,0.0047853887,0.033707477,0.012822992,-0.03825576,7.529324e-05,-0.034728065,0.012518298,0.022556845,0.027319293,0.020762902,0.026778698,-0.047350362,0.013232804
FAM171A1,-0.0020724572,0.011716191,-0.01865869,-0.03707256,0.027066946,-0.026599608,-0.061430648,0.027154412,0.007159006,-0.027608704,-0.01646591,0.021161374,-0.00015458465,0.047925122,0.0024306513,-0.041081835,-0.029507928,-0.042780712,0.028667115,-0.04154391,-0.041159373,0.021041883,-0.037739515,0.042034037,0.010211334,0.03161689,-0.048301622,-0.02881797,-0.045701686,-0.010954738,0.04690747,0.020560991,0.037485056,-0.02829802,0.0021111555,-0.0034414604,-0.044904925,0.03685596,0.022449782,0.012732882,-0.02365502,0.015677266,-0.005649617,0.04077934,0.03281358,-0.045856994,0.021805836,0.058342665,0.047070216,-0.038623676,0.036253523,-0.027438838,-0.022298649,-0.03030023,0.0057016388,-0.040223572,0.009533748,0.003221713,-0.027716726,-0.047625884,-0.010485673,-0.0161613,-0.017247707,0.029996963
ITSN1,0.063946426,0.08685729,-0.09095445,-0.11245054,0.0792743,-0.107104,-0.14391856,0.068567514,0.108456686,-0.110210955,-0.102745205,0.083501086,-0.038839027,0.14165121,-0.06823203,-0.13844244,-0.13276872,-0.12844187,0.11578174,-0.13875073,-0.09198058,0.10039564,-0.10711393,0.10899956,0.04135213,0.114241146,-0.11890405,-0.058823545,-0.14231315,-0.0025776438,0.115641296,0.08274482,0.10261036,-0.085200354,0.03798594,-0.06724799,-0.08252338,0.09486929,0.07516904,0.0863408,-0.041863948,0.09720926,-0.08944474,0.15598938,0.13326094,-0.14035778,0.09613178,0.11325322,0.1092426,-0.12688899,0.1276997,-0.105126746,-0.09791665,-0.12031656,0.07729893,-0.09468431,0.043589726,0.028583223,-0.103644185,-0.14123754,-0.060449272,-0.06366765,0.03104394,0.051067635
H2-OB,0.058070403,0.067360684,-0.051434033,-0.082797915,0.07283233,-0.06977078,-0.08481362,0.046615683,0.077041775,-0.07012157,-0.077512175,0.051296793,-0.037134193,0.09356961,-0.035395443,-0.10046911,-0.11017897,-0.09748145,0.07660894,-0.11575832,-0.074836954,0.07665502,-0.072615355,0.07793995,0.043808267,0.082373366,-0.076963834,-0.030444045,-0.09736729,-0.015228894,0.10366984,0.04061014,0.07188979,-0.044117592,0.03333379,-0.07159283,-0.054038167,0.05242023,0.06136471,0.06707896,-0.044343174,0.062625445,-0.06890448,0.120840445,0.10097942,-0.09686488,0.08058707,0.07783358,0.079671934,-0.08271828,0.1035018,-0.08329729,-0.08082892,-0.101902016,0.06926984,-0.07137634,0.022173623,0.035728715,-0.06721506,-0.08761582,-0.04435871,-0.051545843,0.034032382,0.03889007
SPC24,0.028605927,0.0488927,-0.03328882,-0.06323719,0.04595927,-0.057476062,-0.07599813,0.04040691,0.042117935,-0.051968183,-0.05432401,0.042696152,-0.023490492,0.08183968,-0.015585251,-0.070846006,-0.07269818,-0.07253791,0.060950886,-0.08966562,-0.052803483,0.053118832,-0.06346248,0.061811313,0.024356946,0.057126552,-0.070325196,-0.030052532,-0.072410524,-0.014862431,0.08170186,0.040078197,0.05566647,-0.039068207,0.016680222,-0.03232363,-0.046826623,0.04697617,0.048078127,0.039646465,-0.027354397,0.036345117,-0.043676376,0.08750379,0.070241235,-0.0757602,0.051014114,0.07026969,0.066298336,-0.0627823,0.075132445,-0.05588951,-0.047793098,-0.068866156,0.033754893,-0.05754138,0.012754887,0.022550467,-0.05179625,-0.07091131,-0.029210478,-0.03219846,0.0008805245,0.035982173
NEURL3,-0.065713786,-0.08888237,0.08965734,0.05753392,-0.079294965,0.07946491,0.09372483,-0.01314503,-0.12525879,0.10564838,0.09570922,-0.05694368,0.021398641,-0.07790348,0.10191338,0.09099655,0.10527924,0.07863606,-0.09784648,0.0853155,0.04810317,-0.079455696,0.075911194,-0.07262829,-0.026529528,-0.091482244,0.0757299,0.05764334,0.09449121,-0.014269665,-0.04272576,-0.075666994,-0.078327775,0.07432075,-0.054561723,0.07987719,0.030979969,-0.06382286,-0.042089686,-0.06302723,0.0060525537,-0.072925955,0.09093144,-0.08365747,-0.08756614,0.06871115,-0.07356628,-0.047778536,-0.072088405,0.07912909,-0.07594929,0.06452801,0.10477358,0.09345001,-0.0935169,0.06478924,-0.05605492,-0.009665582,0.06721547,0.10772977,0.060367666,0.05362671,-0.0719409,-0.011909267
SLC16A10,-0.027748426,-0.00013278052,0.035859883,-0.006599541,-0.007416576,0.01041121,0.0033135065,0.014762102,-0.045931082,0.018400822,0.0101666935,-0.008672135,-0.0016835481,0.008502921,0.038372934,0.015278889,0.013425373,-0.0033155493,-0.0031589754,-0.01981042,-0.015484132,-0.0070762224,-0.0038915053,-0.0007990673,-0.004782621,-0.016640102,-0.005594887,-0.0046429,0.00909253,-0.023973355,0.023660723,-0.00989571,-0.009821279,0.008816205,-0.009731434,0.018777821,-0.017909609,-0.0073095206,0.008293383,-0.022073984,-0.008241877,-0.028384767,0.018991675,-0.0016100965,-0.013744976,0.007995427,-0.014241485,0.018619878,0.015077632,0.008938506,0.010593878,0.00012776442,0.019812755,0.0076934164,-0.037602555,-0.00913704,-0.027790893,0.0067767315,0.0070008337,0.0063124923,0.008620039,0.01548925,-0.05129182,0.022122422
UNC93B1,-0.17084423,-0.28710574,0.26855755,0.1928414,-0.20486967,0.22882268,0.32282054,-0.08824591,-0.33245042,0.3203896,0.3007605,-0.20802942,0.09159085,-0.29073024,0.2695621,0.288315,0.30055547,0.2836855,-0.2822647,0.30808237,0.1911465,-0.24291511,0.23492785,-0.22825578,-0.045851767,-0.28596377,0.24787179,0.17224719,0.3287885,-0.013297277,-0.21343677,-0.23232849,-0.25561666,0.23172243,-0.16700484,0.19022864,0.14991364,-0.20077899,-0.14777255,-0.18717761,0.025789812,-0.24209456,0.26837754,-0.29279223,-0.28375074,0.26780152,-0.22574122,-0.18344685,-0.2661555,0.25843674,-0.26000857,0.20658135,0.2981847,0.29261425,-0.22514334,0.23056583,-0.16669497,-0.07239388,0.20838097,0.33285284,0.1747252,0.17457402,-0.14642382,-0.08678973
NUCB2,0.1641268,0.15729809,-0.21394901,-0.2160539,0.18686838,-0.22197764,-0.28817767,0.09688637,0.26102725,-0.20327663,-0.23540483,0.1761381,-0.07745011,0.25589097,-0.16844627,-0.27272505,-0.2702565,-0.22834833,0.23270516,-0.2505425,-0.15747605,0.20051476,-0.21635893,0.24056554,0.093439765,0.2472103,-0.20935526,-0.119479135,-0.2867414,0.01762753,0.18905106,0.16258468,0.19733764,-0.17393246,0.079443514,-0.13509452,-0.15444475,0.21711728,0.13082443,0.1784022,-0.096317016,0.18823303,-0.16090977,0.30037147,0.25611115,-0.28342915,0.203098,0.21285057,0.18946491,-0.25063205,0.21649648,-0.21412188,-0.21434917,-0.23030601,0.21737981,-0.18210779,0.13450475,0.023512725,-0.23533133,-0.2930114,-0.12774317,-0.15254185,0.111606754,0.087647185
HSD3B7,0.115789846,0.14114644,-0.1462065,-0.16622144,0.122458294,-0.16802905,-0.20838863,0.07829425,0.18373077,-0.16764468,-0.15772349,0.13895606,-0.057946436,0.20579976,-0.12587407,-0.20560694,-0.21601984,-0.18495706,0.1839854,-0.20026428,-0.11694082,0.16196398,-0.15742554,0.16920492,0.06360502,0.1850904,-0.17068592,-0.071627334,-0.21625076,-0.008171221,0.17050487,0.12614787,0.15422331,-0.12564348,0.06902866,-0.123414636,-0.09350011,0.13982429,0.11988549,0.13787767,-0.06484645,0.1609497,-0.15490583,0.25113022,0.21864787,-0.20489448,0.15351279,0.14565432,0.15142357,-0.20541254,0.20093045,-0.1669369,-0.16029568,-0.19557907,0.15133935,-0.13051374,0.07409464,0.05320587,-0.15973347,-0.197094,-0.09605688,-0.097427644,0.07674528,0.0621427
TMEM246,0.104564294,0.12658522,-0.14742167,-0.15901527,0.12959251,-0.16755272,-0.2104667,0.080492586,0.17349544,-0.154852,-0.17290515,0.1267215,-0.056778476,0.1912605,-0.11324883,-0.19977014,-0.19383639,-0.17446215,0.17639859,-0.19290057,-0.115416996,0.14934644,-0.15783866,0.16762596,0.062407054,0.17203471,-0.16122591,-0.09449485,-0.21570641,0.0037238747,0.14112987,0.12614752,0.14988174,-0.12837051,0.05562797,-0.099188805,-0.11438495,0.15700625,0.100916274,0.12568945,-0.06372512,0.13775934,-0.12169385,0.22032353,0.18801756,-0.2065875,0.14488962,0.16006546,0.14879785,-0.19131076,0.17410995,-0.15883902,-0.14095254,-0.16421047,0.14057764,-0.13365711,0.09075804,0.026670909,-0.16451776,-0.21186836,-0.08756737,-0.09987215,0.06465883,0.07051268
SPNS2,-0.14627236,-0.21241261,0.21922721,0.16092657,-0.17676435,0.1951336,0.24993455,-0.07912272,-0.28626585,0.25624743,0.23617387,-0.15238939,0.06347561,-0.22221966,0.22142735,0.23847295,0.25450003,0.2165279,-0.22681142,0.24289942,0.15722635,-0.20054336,0.18584554,-0.18444541,-0.0582718,-0.22570837,0.19820279,0.14516139,0.26486197,-0.004411524,-0.15819201,-0.18893044,-0.1992435,0.17927848,-0.12608565,0.17949533,0.11631977,-0.16903763,-0.11254205,-0.15645152,0.036404885,-0.19391686,0.21119915,-0.23850992,-0.2219248,0.2176529,-0.19492136,-0.15355541,-0.2078205,0.22154061,-0.21075396,0.17376667,0.2502367,0.23644485,-0.20707257,0.18483429,-0.13324817,-0.047414582,0.16734657,0.2629755,0.15423454,0.14920133,-0.14672479,-0.06744662
SLC29A1,-0.051728006,-0.061864387,0.09965147,0.049640745,-0.07658703,0.074264124,0.09719216,-0.016869709,-0.13961478,0.10374218,0.07894054,-0.052165356,0.015714481,-0.07481232,0.099346064,0.08876997,0.106835485,0.067012005,-0.08497752,0.0684792,0.060637727,-0.070315495,0.06565088,-0.076740995,-0.032157328,-0.08424171,0.077746354,0.060752332,0.09486428,-0.024861485,-0.032928605,-0.08059618,-0.084322,0.071244754,-0.04216204,0.074991174,0.038949028,-0.07407357,-0.022020234,-0.061553977,0.005429156,-0.07617028,0.08404792,-0.072931066,-0.08141457,0.077833414,-0.06985915,-0.04661661,-0.056848347,0.08514345,-0.065888986,0.057005893,0.102948695,0.0912122,-0.09208249,0.054586556,-0.05921261,-0.0011534728,0.074325114,0.10854511,0.06399751,0.06406863,-0.077815466,-0.0053409804
FGD5,-0.062221542,-0.0286715,0.055686854,0.026811149,-0.026803978,0.04540026,0.028420657,0.0029384922,-0.08355928,0.038075175,0.04052658,-0.030068602,0.014818817,-0.02464997,0.06617463,0.05088685,0.059387382,0.023946797,-0.041726984,0.018427812,0.005568169,-0.041766107,0.027237017,-0.029521527,-0.023868842,-0.047395248,0.017529298,0.005484078,0.04348776,-0.025249382,-0.00675096,-0.03049171,-0.033445276,0.027854059,-0.024358978,0.048706528,-0.004051119,-0.032618225,-0.016826933,-0.048042875,0.0045179203,-0.057707027,0.05346196,-0.04808945,-0.051009454,0.043045998,-0.04786504,-0.00057211146,-0.007432457,0.043458607,-0.024332084,0.032062437,0.054089133,0.04604255,-0.07696386,0.011307923,-0.030924737,-0.002364751,0.03908706,0.037045263,0.033039913,0.035365645,-0.074301936,0.013268689
WFDC17,-0.008403089,-0.017001081,0.047657296,0.0046069883,-0.018246867,0.023584154,0.046222232,0.0032911617,-0.060957402,0.03958894,0.02546918,-0.021369994,0.00451928,-0.016753219,0.054954864,0.025786098,0.025328562,0.010741001,-0.034395665,0.0049847774,0.01216561,-0.025970342,0.017608978,-0.022417933,0.0010155886,-0.030298328,0.02250629,0.03151334,0.04031539,-0.023672244,0.018776115,-0.039899334,-0.03157053,0.027076855,-0.019976083,0.011296183,0.012694307,-0.04142874,0.0024390584,-0.0045975484,-0.017591543,-0.03402313,0.027955614,-0.0069380254,-0.019252686,0.022746777,-0.008783003,-0.005589314,-0.016386554,0.035860796,-0.002865851,0.002559822,0.037843347,0.01903683,-0.02536241,0.013348779,-0.043809995,0.009444881,0.02850917,0.04840067,0.020638745,0.024387173,-0.024336074,0.0029684082
TBXAS1,0.016052265,0.0086102635,-0.00031958148,-0.020204484,-0.011902574,-0.011292111,-0.010716323,0.021959195,-0.022576384,-0.002898842,-0.0025994647,0.02278085,-0.011661939,0.026548257,0.015892591,-0.028440665,-0.011512376,-0.030283106,0.0073006656,-0.028586233,-0.008076891,0.0048734527,-0.013944292,-0.0009963922,0.0032032058,0.019706324,-0.015430171,0.011170365,-0.020622969,-0.014382418,0.049373776,-0.0008473061,0.016022915,-0.0043510944,0.0021943748,0.0010453835,-0.007982586,-0.0014787931,0.021683443,0.015012678,-0.014871396,0.027109839,-0.005143758,0.038476244,0.025485395,-0.034540255,0.014723092,0.019873912,0.013970818,-0.018953018,0.027349059,-0.020275764,0.0023399144,-0.014474348,-0.0030978695,-0.011248408,-0.0033130012,0.023518734,-0.006594658,-0.0029011378,0.011114275,-0.007927604,-0.014027432,0.02539646
C230085N15RIK,-0.0058924668,0.016953886,0.0017384514,-0.02952509,0.028692953,-0.014567159,-0.030440658,0.028778313,-0.00077134,-0.020193469,-0.022693364,0.008765563,-0.009122789,0.037575644,0.017101478,-0.018481422,-0.02656833,-0.033966362,0.019651588,-0.054760568,-0.041275326,0.01948659,-0.024993714,0.030190408,0.010526627,0.014068935,-0.036010712,-0.021635655,-0.024987891,-0.01975771,0.046166036,0.011609469,0.019041767,-0.010225818,-0.0009062197,-0.009378638,-0.037025124,0.01972287,0.023988592,0.0021909587,-0.020132013,-0.004900879,-0.005389286,0.031921633,0.024481522,-0.028204832,0.014983483,0.044821292,0.039723277,-0.019821968,0.03746862,-0.026732855,-0.011945009,-0.028500285,-0.0064337924,-0.034073625,-0.007817314,0.01201513,-0.016404875,-0.029896576,-0.009354951,-0.0075210854,-0.025708925,0.027158171
CISH,-0.071777046,-0.07317783,0.080262184,0.05051525,-0.050022382,0.07398668,0.07150099,-0.0048397407,-0.10648074,0.07469557,0.08689198,-0.047398064,0.020652913,-0.053545,0.08921547,0.07319865,0.086562246,0.056944728,-0.077623755,0.06538371,0.027473442,-0.07465366,0.060679857,-0.055927668,-0.021638338,-0.07375069,0.05872228,0.032410998,0.07746573,-0.013452379,-0.029131893,-0.05765278,-0.061453372,0.05810216,-0.03947412,0.0724014,0.01781156,-0.050327376,-0.036133967,-0.06506404,0.0051515475,-0.063300915,0.076750085,-0.07275063,-0.071238756,0.07013612,-0.068117134,-0.030593771,-0.05426535,0.07488867,-0.05828993,0.054126818,0.085366584,0.071205884,-0.092657596,0.051402282,-0.045769468,-0.0038712732,0.05682179,0.07802833,0.056208782,0.049364243,-0.08047554,-0.004435664
TMEM37,-0.11380188,-0.113870785,0.12780765,0.087868676,-0.07722185,0.11632815,0.12510855,-0.022069667,-0.16750018,0.12392455,0.12853548,-0.09490153,0.038881652,-0.1160993,0.1379542,0.13175225,0.14379579,0.10752036,-0.12536304,0.10508891,0.061611004,-0.112040736,0.098156065,-0.09460777,-0.032469288,-0.13038507,0.09196452,0.047976643,0.14200245,-0.02589409,-0.081132054,-0.091716334,-0.10984311,0.08863431,-0.06716144,0.09570929,0.038308896,-0.09534054,-0.069883525,-0.10227148,0.0129481405,-0.1349351,0.12691334,-0.13719344,-0.13634503,0.12860928,-0.116368644,-0.059582468,-0.09214692,0.12695895,-0.096982434,0.09182096,0.13532221,0.13234723,-0.13980654,0.075508215,-0.07854802,-0.027385872,0.09719068,0.12643999,0.08103199,0.0822804,-0.10293675,-0.009470647
D630039A03RIK,-0.01172344,0.026721023,-0.013766892,-0.03859536,0.030708343,-0.02374034,-0.045803204,0.033491436,-0.0027216524,-0.03296258,-0.03875424,0.017924218,-0.0044343546,0.049561385,0.0024270006,-0.02663168,-0.017919637,-0.042876747,0.03414062,-0.058894936,-0.040536996,0.021139344,-0.030539054,0.033559404,0.00276196,0.019906498,-0.04359667,-0.037215564,-0.042088993,-0.019382842,0.04232263,0.028040264,0.030207409,-0.028706841,0.0024578162,0.0054494888,-0.042090222,0.0343661,0.025024585,5.487725e-05,-0.013233937,0.004171311,-0.0051489957,0.0354819,0.024303345,-0.033037025,0.009711577,0.05779951,0.05193208,-0.031293586,0.038357206,-0.030085966,-0.0012420341,-0.022384655,-0.011265852,-0.041696478,0.010565745,0.011187557,-0.022216447,-0.04126582,-0.008330071,-0.0023134723,-0.035762414,0.03946995
SLC39A13,-0.07757561,-0.07031335,0.09235728,0.06001512,-0.073514596,0.08026257,0.081131026,-0.01659146,-0.13305315,0.09353621,0.08948976,-0.055634785,0.021673486,-0.06889686,0.09962857,0.091345415,0.10746805,0.06996774,-0.087187394,0.07582856,0.041927457,-0.07867959,0.06424822,-0.06883273,-0.03446605,-0.088187546,0.06634516,0.042918913,0.08937845,-0.018756831,-0.04102065,-0.06921236,-0.07020226,0.065703,-0.04700544,0.08013645,0.022697784,-0.06228473,-0.038810357,-0.071724236,0.015377827,-0.08271055,0.0878843,-0.0897481,-0.087534145,0.07753025,-0.08051994,-0.042684924,-0.054356694,0.07946832,-0.06796031,0.06531577,0.099317595,0.092023805,-0.107204504,0.057327326,-0.054799534,-0.007230375,0.06835695,0.093398206,0.061322123,0.058728434,-0.084885746,-0.0068314075
CDK6,-0.13045774,-0.24440904,0.23630548,0.16564125,-0.19767195,0.20033614,0.28560382,-0.08504232,-0.29663378,0.28421843,0.25759485,-0.15864787,0.06886532,-0.24869065,0.22655246,0.24108459,0.26761234,0.22883645,-0.2477984,0.29038498,0.1910525,-0.20617646,0.21143396,-0.20880854,-0.05079196,-0.2400386,0.25101927,0.16525987,0.27335843,-0.015817285,-0.17128399,-0.21244077,-0.2245306,0.21068002,-0.1324869,0.19116145,0.13731325,-0.17137198,-0.10274388,-0.154703,0.026065487,-0.18789846,0.23128156,-0.24320012,-0.23832439,0.21454859,-0.18398327,-0.17384605,-0.22552529,0.22319563,-0.23731022,0.18169817,0.26342475,0.25728574,-0.1946612,0.20973423,-0.13928244,-0.049951304,0.19032285,0.31245422,0.16960819,0.14702806,-0.13479611,-0.082907386
IRAK3,-0.017501572,0.003149096,0.009215066,-0.017571334,0.0050813183,-0.0064906143,-0.01863696,0.023398064,-0.020075012,-0.006377736,-0.0018864032,0.0054283664,0.0015633777,0.027870676,0.024115467,-0.0060380884,-0.005417593,-0.019635824,0.0046806466,-0.03273567,-0.023923796,-0.000113558024,-0.017524678,0.01847417,0.0018210672,0.001061976,-0.029951144,-0.013469983,-0.01319585,-0.019882578,0.0343198,0.010594543,0.014012145,-0.008040495,-0.006762415,0.0057199504,-0.024284385,0.008748854,0.011592911,-0.0067381077,-0.011766985,-0.010567441,0.00751069,0.017324366,0.0053209737,-0.021672476,-0.00036840187,0.033634488,0.02359435,-0.013994746,0.023953421,-0.013588369,0.005733229,-0.008552727,-0.02204059,-0.019549897,-0.009530789,0.009461705,-0.0036446005,-0.009582984,-0.0008201152,0.00086405873,-0.031391863,0.026054371
OBSCN,0.10275464,0.12268218,-0.14587454,-0.15666127,0.12626104,-0.16286781,-0.20882246,0.07542306,0.16617273,-0.15157947,-0.17034695,0.12446104,-0.053562712,0.18551458,-0.108687885,-0.19594939,-0.18812236,-0.1721971,0.16907482,-0.18575174,-0.116287254,0.14609772,-0.15599138,0.16677672,0.0592554,0.16956863,-0.15916052,-0.09435597,-0.21459597,0.0045862123,0.13786194,0.12629844,0.14714666,-0.12331672,0.05352768,-0.0939305,-0.11189118,0.1587676,0.09960042,0.122820735,-0.061970003,0.13317332,-0.1152823,0.21826169,0.18148708,-0.20025882,0.13929185,0.15871453,0.14786753,-0.1873218,0.16583957,-0.15339774,-0.13558005,-0.1584477,0.13746366,-0.1308028,0.09203255,0.021969486,-0.15824074,-0.21034646,-0.083642915,-0.097254165,0.06354726,0.06897339
DACH1,-0.5017692,0.05202273,0.32511145,0.16291821,-0.29984164,0.41989636,0.16097303,-0.5205579,-0.4666018,0.3506583,0.15584439,-0.043621216,-0.055220112,-0.2258807,0.2383064,0.43634444,0.6027692,0.089836195,-0.2649766,0.32818326,0.48313755,-0.20939581,0.2421404,-0.21934474,-0.29242563,-0.27706468,0.372879,0.3754362,0.2542021,0.13560112,-0.1762854,-0.24227388,-0.30932346,0.28909403,0.10378179,0.5312098,0.32603887,-0.40544838,0.06947856,-0.3029457,0.36634737,-0.04888524,0.29847267,-0.22916052,-0.023523508,0.49915788,-0.50511825,-0.3995179,-0.30337334,0.34832165,-0.15314898,0.40634274,0.38532364,0.16288936,-0.56925106,0.2535534,-0.18705319,0.40097287,0.40439814,0.37994036,0.5479595,0.50310445,-0.448622,-0.35250133
SOX18,-0.48353538,0.061993398,0.32185674,0.16606224,-0.29563063,0.40814406,0.1577307,-0.4990409,-0.46744445,0.34584528,0.15901189,-0.04473235,-0.05295396,-0.21225616,0.23220277,0.4068033,0.5731341,0.09762956,-0.2529626,0.33503252,0.46004015,-0.21952017,0.23350818,-0.23127446,-0.27407885,-0.2697151,0.3490516,0.34865734,0.26739803,0.12951688,-0.16233647,-0.23543532,-0.2898669,0.27883613,0.09088789,0.49019393,0.311219,-0.39178205,0.058787927,-0.2998444,0.35356203,-0.04907028,0.2824587,-0.24155793,-0.016298054,0.48083374,-0.49091393,-0.3933823,-0.28860086,0.33956376,-0.14967997,0.39888445,0.38869536,0.14665228,-0.5536664,0.25909904,-0.18730825,0.38096973,0.38692796,0.36456606,0.5359067,0.4966026,-0.4194596,-0.33212852
NUDT19,0.15821026,0.17945309,-0.20164861,-0.21857148,0.18081672,-0.22005728,-0.27368698,0.09362791,0.2622978,-0.21681115,-0.22019772,0.17764466,-0.07724183,0.257775,-0.17365271,-0.2730577,-0.28060645,-0.23656711,0.23966454,-0.27001306,-0.15331168,0.21613105,-0.20837905,0.23084581,0.08959914,0.24184099,-0.21988198,-0.10113183,-0.28742376,-0.0035982449,0.20643872,0.1612645,0.20017788,-0.15922958,0.08855313,-0.16781801,-0.12182948,0.19490363,0.14654839,0.18285072,-0.086011924,0.2029455,-0.19717321,0.31425226,0.2788104,-0.2807982,0.21000642,0.19609219,0.19387653,-0.2614991,0.25520772,-0.22463906,-0.22017066,-0.24977987,0.21556038,-0.17723979,0.11432479,0.056730814,-0.21440881,-0.26745895,-0.1326411,-0.13757807,0.122870155,0.07572406
GM37124,-0.009182107,0.022729166,-0.008826321,-0.036765624,0.035350233,-0.02049204,-0.04117077,0.03450665,0.0036811456,-0.023144051,-0.042255513,0.010686278,-0.008992538,0.044272907,0.008727327,-0.022090327,-0.022072986,-0.039062105,0.03056584,-0.060598098,-0.0487943,0.024149952,-0.029892769,0.033299312,0.009434488,0.016871769,-0.039285913,-0.039068874,-0.037738167,-0.022426123,0.040499464,0.020148057,0.027037477,-0.021158881,0.0010420941,-0.0032270104,-0.052669324,0.033755854,0.021717696,-0.0015648343,-0.018041782,-0.0060157785,-0.0013106233,0.0278157,0.019006396,-0.033334192,0.01779586,0.060572535,0.05223345,-0.02859144,0.036070235,-0.026651971,-0.010610618,-0.0285303,-0.0075916126,-0.045976356,0.002384184,0.007235963,-0.02345211,-0.041784108,-0.011560037,-0.010168247,-0.031076558,0.038416192
VDR,-0.4419065,0.04826108,0.29456162,0.13782677,-0.2806763,0.36923978,0.1427616,-0.477776,-0.43855223,0.3272255,0.1388002,-0.05000438,-0.03941024,-0.2072575,0.20979351,0.3929607,0.53427345,0.095822126,-0.24224798,0.28884116,0.41916564,-0.19777955,0.18710215,-0.20083451,-0.24054462,-0.25083342,0.32502657,0.33530283,0.22619751,0.11568184,-0.16394126,-0.21824707,-0.27785984,0.25414175,0.08325051,0.47257552,0.2906483,-0.3438532,0.06638523,-0.2824107,0.31932157,-0.058857035,0.27251378,-0.22047013,-0.029600276,0.44795227,-0.46376845,-0.34807158,-0.2701405,0.31495672,-0.14244483,0.3696711,0.32806182,0.15274605,-0.50775635,0.22202107,-0.18957701,0.35691604,0.3664338,0.33339825,0.48176005,0.4587629,-0.3951939,-0.30490574
ITGB7,0.09529333,0.115079135,-0.12847228,-0.14711922,0.12452909,-0.14096129,-0.19021885,0.07436345,0.15935218,-0.14473057,-0.14696352,0.10396689,-0.053847425,0.1724371,-0.09663365,-0.1834908,-0.18172163,-0.16470888,0.15016393,-0.18337438,-0.124408714,0.14265174,-0.13673592,0.15571243,0.058945283,0.15468845,-0.15200466,-0.08116746,-0.1934846,-0.0022728723,0.13999335,0.10231905,0.13526544,-0.101468846,0.0545349,-0.10500848,-0.105025634,0.13484612,0.09636499,0.11824162,-0.057940178,0.12240017,-0.11797914,0.1994957,0.17800494,-0.18983309,0.136901,0.14873375,0.14726181,-0.1703654,0.16409479,-0.13892958,-0.13785024,-0.1613962,0.1240116,-0.126529,0.080827735,0.031114174,-0.1352486,-0.1904499,-0.08347216,-0.09296376,0.066459216,0.060295537
KBTBD11,-0.048012737,-0.020194512,0.048362426,0.011231322,-0.018161789,0.031907894,0.020405915,0.012347389,-0.06801509,0.029174209,0.025635824,-0.026438344,0.0077298135,-0.014762364,0.05487923,0.03634064,0.039314073,0.013716375,-0.027005918,-0.00020776317,-0.009723786,-0.024268651,0.016342204,-0.021364212,-0.0112685785,-0.036284804,0.007832013,-0.0030019507,0.028383609,-0.028204773,0.001415126,-0.022238616,-0.026577113,0.021113299,-0.019141268,0.03096871,-0.013882715,-0.019959474,-0.0060355105,-0.03842663,-0.005782515,-0.047312032,0.041875035,-0.032768186,-0.038422346,0.02700209,-0.032035794,0.009713475,0.004160717,0.027518101,-0.008874036,0.017430682,0.038480114,0.032421473,-0.057123505,-0.0010980428,-0.031952135,-0.0007328391,0.02620466,0.024073917,0.017342664,0.024896216,-0.060541376,0.020530218
RGS19,0.10363169,0.10737972,-0.08738827,-0.11924265,0.08327119,-0.113146126,-0.12816624,0.059354424,0.117373034,-0.10468499,-0.10759078,0.09641184,-0.053809825,0.14006343,-0.07482424,-0.15275963,-0.16614756,-0.14066754,0.12631978,-0.15725005,-0.091498345,0.11671419,-0.113279566,0.110707395,0.055252947,0.12875092,-0.1132506,-0.032994676,-0.14761089,-0.013831925,0.15237308,0.07716866,0.118610375,-0.07831104,0.054344546,-0.101413816,-0.05950287,0.08166062,0.091955885,0.11357199,-0.054518558,0.109629415,-0.11865112,0.18779682,0.15603909,-0.14940938,0.12159508,0.09354375,0.104688644,-0.1365441,0.15015295,-0.12123502,-0.12197432,-0.15408354,0.11591277,-0.09073548,0.03925012,0.04975515,-0.11002722,-0.12931001,-0.061829414,-0.07734164,0.06481723,0.04904972
GNG11,0.17510927,0.19497609,-0.23029564,-0.23958641,0.1922216,-0.2643114,-0.31996754,0.11068099,0.29040596,-0.24276617,-0.24765025,0.1986545,-0.08351765,0.29136956,-0.19974184,-0.31340027,-0.30209947,-0.26727173,0.27286324,-0.28156924,-0.15991032,0.23330374,-0.2407739,0.25354758,0.10031148,0.27030367,-0.23835835,-0.12686646,-0.3325874,0.01636643,0.21783005,0.1897866,0.22384629,-0.19672252,0.094809815,-0.16585803,-0.14759335,0.22882766,0.15169565,0.21130505,-0.08588456,0.2314864,-0.20982984,0.34972456,0.30214804,-0.31282339,0.2344988,0.22571504,0.21533602,-0.2944234,0.27044624,-0.2446773,-0.23496838,-0.25804383,0.23153219,-0.19520818,0.13718341,0.04463362,-0.25373685,-0.3131636,-0.14401543,-0.15636858,0.13084844,0.08826845
NEAT1,-0.16316763,-0.23960812,0.23273835,0.1773583,-0.18313871,0.21148641,0.2714299,-0.08064538,-0.30009452,0.27211222,0.254736,-0.17240897,0.07190971,-0.25111365,0.24264562,0.25952017,0.27377328,0.24074507,-0.25401494,0.25737888,0.16798079,-0.21728246,0.20689125,-0.19841522,-0.055451214,-0.24572906,0.20206735,0.15319663,0.2897419,-0.003639795,-0.18456043,-0.20066598,-0.21838863,0.19174483,-0.14205365,0.17915094,0.12542486,-0.18465915,-0.13379699,-0.16832022,0.03128644,-0.21474093,0.23268417,-0.26052958,-0.24317804,0.23697329,-0.21495652,-0.16045146,-0.23439571,0.24028704,-0.22615068,0.18789646,0.2706098,0.25736782,-0.22094965,0.19428873,-0.14053255,-0.05877183,0.17635167,0.27971494,0.16054766,0.15816993,-0.14753819,-0.06720374
CYFIP2,0.007126678,-0.01752669,0.031061627,-0.0064334874,-0.020155892,0.006561639,0.03128928,0.014235441,-0.04705237,0.03210217,0.020300832,-0.0042145364,-0.0035305023,-0.0012358949,0.037319593,0.0029214062,0.010314971,-0.0010143537,-0.01597892,0.0013969876,0.009728432,-0.014765497,0.00783791,-0.017457154,0.0085966885,-0.011832062,0.009657338,0.02941797,0.023010403,-0.021608928,0.03587693,-0.024187237,-0.010805642,0.016080342,-0.013491161,0.01249283,0.009649165,-0.025477571,0.01179462,0.009904813,-0.014500864,-0.009361295,0.013064414,0.015342098,-0.0038821455,-0.003407184,0.0030942145,-0.0014712624,-0.012559459,0.016431676,0.0044734105,-0.0032442324,0.03498525,0.00289883,-0.011929803,0.008573864,-0.032437414,0.012240898,0.0119158365,0.038337853,0.017030433,0.009030763,-0.016649403,0.009756422
FCHO2,0.20070346,0.22405483,-0.26035672,-0.26791614,0.22162725,-0.29549122,-0.3598821,0.1138268,0.33615014,-0.26709008,-0.28706026,0.22868748,-0.09416494,0.32321727,-0.22916213,-0.34943548,-0.34384587,-0.29328755,0.3104046,-0.31796515,-0.17387134,0.26850045,-0.27134252,0.28710774,0.11595275,0.30824745,-0.26690838,-0.13688335,-0.3725459,0.012731992,0.23822929,0.20588002,0.253169,-0.2171187,0.108555734,-0.19610527,-0.15980776,0.2542422,0.17033789,0.23484966,-0.10095338,0.26052946,-0.23465708,0.38879028,0.3433216,-0.35390905,0.26140416,0.2515074,0.24038802,-0.33626938,0.3081782,-0.27566367,-0.27417737,-0.2914123,0.27215552,-0.21886536,0.15612529,0.051847905,-0.28888273,-0.3499597,-0.16471305,-0.17889115,0.15450919,0.09773047
XRCC6,-0.2348288,-0.11312951,0.27034822,0.1590376,-0.23414476,0.2596026,0.15228434,-0.26233447,-0.37615043,0.30968043,0.19482583,-0.16185696,0.04665789,-0.22023624,0.21759927,0.31493354,0.34345505,0.18177018,-0.2564373,0.24486944,0.2666255,-0.21005258,0.13307704,-0.1858817,-0.101085536,-0.27778405,0.21882427,0.25912043,0.24900435,0.03848368,-0.15949084,-0.24113955,-0.1955881,0.18210477,-0.08482026,0.30752376,0.22504994,-0.22783875,-0.02748618,-0.1853435,0.117466986,-0.16146635,0.2923038,-0.2140767,-0.09576945,0.29244846,-0.42343935,-0.17921956,-0.228223,0.30938536,-0.17687947,0.3090691,0.27468383,0.14628045,-0.3289103,0.21130796,-0.17574854,0.1347691,0.2917914,0.25393674,0.28460938,0.32479653,-0.22669998,-0.17085278
CD33,-0.052306123,-0.019416269,0.05817341,0.01246462,-0.014470965,0.037205026,0.029076047,0.007672403,-0.07144946,0.0377032,0.027932566,-0.029985264,0.0111707635,-0.018856011,0.05876074,0.044385515,0.04262169,0.018478403,-0.029879902,0.0037893131,-0.004373271,-0.027783526,0.017464142,-0.020617614,-0.011917414,-0.04460287,0.0145056695,-0.00066968426,0.03874644,-0.027738301,-0.0004138127,-0.029721713,-0.03467328,0.028254017,-0.022151995,0.036351845,-0.008852363,-0.027247477,-0.0067219585,-0.0411684,-0.005510986,-0.057880938,0.042772245,-0.04038797,-0.04457939,0.0379606,-0.031807825,0.010501053,0.001827199,0.038467493,-0.013916656,0.018111411,0.036974516,0.0341569,-0.05817824,0.0026260628,-0.037937686,-0.0035687648,0.03419041,0.030941382,0.021345053,0.032613575,-0.06383712,0.015199829
RNF38,0.10136378,0.12607978,-0.13297056,-0.1502341,0.13098288,-0.14516218,-0.18864532,0.07581963,0.16833414,-0.14907093,-0.152576,0.11775625,-0.06217415,0.18531822,-0.10934215,-0.19035724,-0.1945999,-0.16993044,0.16656399,-0.20019236,-0.12238345,0.15091337,-0.14338815,0.15398595,0.061182737,0.16236499,-0.14855966,-0.07736799,-0.19944344,-0.009467367,0.15289524,0.10038601,0.13610215,-0.10847123,0.060011763,-0.11110854,-0.10052021,0.13362467,0.10131364,0.11950876,-0.062297873,0.13323538,-0.13309035,0.21378309,0.19362678,-0.19380412,0.14645888,0.14779754,0.14890833,-0.17617175,0.17803957,-0.15450123,-0.15465163,-0.17544109,0.13359222,-0.1272331,0.071143955,0.04391517,-0.14639622,-0.19381121,-0.089372374,-0.091292374,0.06662204,0.06412328
F11R,-0.048058778,-0.060095746,0.050729163,0.04673166,-0.037602223,0.038062025,0.042572852,0.005712323,-0.0770296,0.0496552,0.06406911,-0.03787144,0.015113067,-0.033870876,0.07785897,0.04438703,0.058348227,0.031534404,-0.066028655,0.035522096,0.016542546,-0.056032438,0.036397938,-0.039508335,-0.011891214,-0.046568528,0.025830857,0.0226446,0.043871194,-0.017288826,-0.0089234,-0.0420741,-0.032712236,0.037824087,-0.03616974,0.035336204,0.007126376,-0.031334132,-0.03445681,-0.036411095,-0.0004420802,-0.051823925,0.059066363,-0.04507525,-0.0471872,0.029978747,-0.035872813,-0.0107713975,-0.036371782,0.0454667,-0.036638893,0.037290294,0.059802495,0.044808056,-0.060783118,0.027553944,-0.028800279,-0.0040369146,0.03409739,0.050245285,0.03729645,0.026136506,-0.048890136,0.0044170823
RARB,-0.45185778,0.052761856,0.29928333,0.14851439,-0.27036855,0.36847115,0.14878099,-0.46872646,-0.44265607,0.3225224,0.15315615,-0.04774264,-0.039707214,-0.20395008,0.21185085,0.38334632,0.5347276,0.092500366,-0.23543574,0.30334136,0.42453355,-0.20316629,0.20288202,-0.20657724,-0.24992311,-0.253655,0.31794816,0.3292357,0.23774898,0.112982824,-0.14941072,-0.2190678,-0.27387384,0.25181264,0.08893368,0.46882078,0.29003736,-0.35497466,0.06452498,-0.28955117,0.3252122,-0.05613517,0.26363856,-0.2179825,-0.026574848,0.44980675,-0.4550355,-0.35961592,-0.26420894,0.3153866,-0.14121674,0.3719001,0.34559917,0.14217497,-0.5070667,0.22934192,-0.1800607,0.35815576,0.3613689,0.33618104,0.4894653,0.45290667,-0.39212516,-0.30483425
GIMAP1OS,-0.012266707,-0.0013449304,0.008110801,-0.01576588,0.0018197894,-0.0045140423,-0.016893268,0.025352567,-0.019716915,-0.0069739968,-8.794293e-05,0.006099567,-0.0013010167,0.022725128,0.024535868,-0.011810228,-0.005116448,-0.022731874,0.003646832,-0.027477954,-0.025491722,0.0008655954,-0.012834204,0.0063239336,0.0040248036,0.0052079335,-0.021556048,-0.009382937,-0.01891325,-0.021855542,0.035137437,0.0053500123,0.010882901,-0.0029064864,-0.0026076678,0.0014577098,-0.022596661,0.0064191855,0.0122016035,-0.0040665977,-0.015277743,0.00017581414,0.008269416,0.019960456,0.0064908154,-0.018437225,0.004455838,0.029207285,0.022031464,-0.014849134,0.02477823,-0.0118050985,0.003683731,-0.006910418,-0.015532084,-0.019758591,-0.009095351,0.012696896,-0.0043276027,-0.007944963,0.00065037934,-0.00552769,-0.027107839,0.027290128
CDT1,0.18702905,0.20090042,-0.23732908,-0.24561861,0.208842,-0.2611201,-0.32995367,0.106470145,0.30551264,-0.24467266,-0.26269984,0.20373441,-0.09416711,0.297799,-0.20074615,-0.31681365,-0.31276175,-0.26332623,0.2750277,-0.29583627,-0.16692132,0.24458434,-0.24726667,0.26927662,0.10289476,0.28251392,-0.24074984,-0.119785115,-0.33316728,0.012524907,0.22367765,0.17902184,0.22180869,-0.19674115,0.10109152,-0.1762934,-0.15531206,0.23124166,0.15602699,0.21183088,-0.09869801,0.23189105,-0.21049193,0.35843453,0.31686226,-0.3188521,0.24223794,0.23079725,0.22395921,-0.29256964,0.27236062,-0.24999762,-0.25059235,-0.272238,0.25017816,-0.20576131,0.14444348,0.04978132,-0.2611609,-0.32150015,-0.15284222,-0.16387436,0.1384114,0.08810772
PRPS2,0.04087199,0.06284583,-0.040211327,-0.071458876,0.046403527,-0.0583614,-0.0744386,0.04073291,0.045526203,-0.058762524,-0.06068706,0.045623776,-0.02681072,0.07789408,-0.024772279,-0.07800205,-0.087353416,-0.079928085,0.06781106,-0.09675823,-0.062085386,0.06634552,-0.061349563,0.061349794,0.025266178,0.066850215,-0.06876667,-0.02626552,-0.08449811,-0.018852234,0.082728505,0.03682441,0.05928611,-0.040436834,0.026909508,-0.05554858,-0.04770852,0.044789135,0.054824263,0.049313355,-0.038229324,0.05393804,-0.0542105,0.099932075,0.08362281,-0.077245474,0.05653198,0.06562178,0.07393696,-0.07931146,0.09353062,-0.06663569,-0.057283327,-0.07666921,0.049787275,-0.06071544,0.018674621,0.031229958,-0.054400124,-0.07606401,-0.03579432,-0.036702998,0.013110183,0.040735945
TXNIP,0.03385355,-0.0016435198,0.008234113,-0.02236475,-0.027538698,-0.012406092,0.017427221,0.010786597,-0.024451554,0.020208951,0.006009698,0.026882313,-0.017884322,0.011349041,0.017475218,-0.02365842,-0.016122617,-0.024021776,-0.00049570017,-0.012173403,0.01450612,0.0047974717,-0.0032608472,-0.0026942007,0.009733822,0.016637292,0.0052730404,0.032993406,-0.009338996,-0.015816476,0.05505372,-0.0078008026,0.002664432,0.004259385,0.0025735311,0.0062874258,0.0088959485,-0.0085827615,0.026308686,0.03014816,-0.018302135,0.0357598,-0.0037505012,0.050338864,0.019543597,-0.03804229,0.020744864,-0.0036313348,-0.014701471,-0.01670881,0.023001527,-0.023256741,0.020255305,-0.0142581845,0.016097672,0.0020355242,-0.011925307,0.025607776,-0.0077460334,0.027760863,0.016469821,-0.0114356205,-0.0021364018,0.01865412
ZNRF2,0.12192297,0.14888693,-0.16317037,-0.17761433,0.151252,-0.18085675,-0.233557,0.07984866,0.20258443,-0.17306238,-0.19490212,0.1418067,-0.06712025,0.21504976,-0.13274133,-0.21766834,-0.21734175,-0.19308025,0.19554344,-0.219444,-0.1279282,0.1753572,-0.17531282,0.18789029,0.069391064,0.1961197,-0.18020228,-0.0936718,-0.2392709,0.001309216,0.15961021,0.12723699,0.16362649,-0.1377321,0.06619066,-0.1228929,-0.118138015,0.16570495,0.11485751,0.14199208,-0.07039208,0.15720518,-0.1441243,0.2467692,0.22281504,-0.23069718,0.1648209,0.17737539,0.16863598,-0.21192148,0.1992188,-0.17504185,-0.16757439,-0.19211411,0.1621601,-0.15218465,0.099659115,0.039531514,-0.18215409,-0.23048432,-0.10603734,-0.11038565,0.08213896,0.073995985
DEF8,-0.003890235,-0.010606628,0.033886954,0.0015912587,-0.035040516,0.013200562,0.024135992,0.0055220425,-0.05522452,0.03276584,0.019828029,0.0036196075,-0.0039630085,-0.006126322,0.045280732,0.016083382,0.02653195,0.001259068,-0.023993004,0.003381651,0.019534029,-0.014811469,0.008589964,-0.020922352,-0.0091048945,-0.015687548,0.016747922,0.025673285,0.0130310245,-0.014143607,0.0255076,-0.022249287,-0.019669803,0.018731095,-0.011540731,0.029630471,0.007722877,-0.023379177,0.009266513,-0.010274079,-0.004253857,-0.0013555307,0.021272272,0.0053377114,-0.005543055,0.0039719082,-0.011037443,-0.0051677376,-0.01180549,0.016682686,-0.0062243193,0.0028158817,0.03962403,0.014907899,-0.026327014,0.007097458,-0.019783664,0.019616887,0.01856725,0.034167908,0.02985875,0.0139719695,-0.0361671,0.013083639
IL18BP,-0.009956975,0.03278301,-0.010628708,-0.040620606,0.030798137,-0.025243003,-0.047766,0.03427654,-0.0003282763,-0.029249825,-0.043917418,0.020534387,-0.009965986,0.0515821,0.0002583936,-0.028915513,-0.023982607,-0.041971833,0.04196352,-0.06269407,-0.044994824,0.02869154,-0.036791783,0.03489805,0.005083408,0.0207198,-0.043408435,-0.03960746,-0.04319844,-0.019946536,0.04339693,0.02768312,0.031434357,-0.027975745,0.0030370168,0.0035354346,-0.04851518,0.035819754,0.025792498,0.0005491115,-0.014913872,0.0024151625,-0.00799487,0.03517779,0.026898155,-0.03470086,0.012860177,0.06034647,0.055691253,-0.03172621,0.042378753,-0.031828117,-0.0065690875,-0.025134634,-0.008498624,-0.042223543,0.0062872116,0.009964582,-0.027627744,-0.048583742,-0.010409092,-0.0039526,-0.0372327,0.0398942
CBFB,-0.21800844,-0.34325334,0.27681267,0.23838112,-0.2145872,0.27971622,0.25683057,-0.17513512,-0.37993044,0.36332434,0.36857066,-0.28743634,0.14038214,-0.29672712,0.25120598,0.30082324,0.26919475,0.28561726,-0.31526878,0.34568295,0.22439682,-0.2871041,0.1987978,-0.22164583,0.017775297,-0.3259199,0.19495389,0.2339604,0.37757197,-0.016151894,-0.2061645,-0.28035372,-0.1870241,0.20451581,-0.23699753,0.22932096,0.22104809,-0.20324838,-0.1733759,-0.15208837,-0.0020829514,-0.2952014,0.36727557,-0.29687318,-0.19551484,0.27718073,-0.45169607,-0.15377618,-0.30456534,0.33323944,-0.23315243,0.31227934,0.29707062,0.17678604,-0.2635194,0.28456447,-0.22270139,-0.023814324,0.30090716,0.313443,0.22316912,0.295577,-0.12941046,-0.09298514
TEK,0.10642573,0.124052554,-0.15142125,-0.15996718,0.13483669,-0.16757375,-0.21735598,0.07912891,0.1763034,-0.15655404,-0.17297773,0.1266184,-0.056226898,0.1916688,-0.11141088,-0.204479,-0.19605342,-0.17673513,0.17597021,-0.18698192,-0.12099582,0.15050134,-0.15793483,0.17280868,0.06375592,0.17627439,-0.16399181,-0.09829387,-0.21667387,0.0070231855,0.14054719,0.12691891,0.15333804,-0.12558709,0.05296382,-0.10212135,-0.11666402,0.16358157,0.100739405,0.12830529,-0.06792844,0.13671757,-0.11851856,0.22387543,0.18975316,-0.20733851,0.1448791,0.16414373,0.1515886,-0.19352832,0.16943872,-0.1581805,-0.14232443,-0.16696902,0.14298514,-0.13306129,0.09766619,0.018703204,-0.16446131,-0.21927741,-0.086004905,-0.1006,0.067997046,0.06945975
MKI67,0.14871801,0.16897549,-0.19375922,-0.20629469,0.17101096,-0.21566184,-0.27366143,0.09145794,0.24356134,-0.20016687,-0.2229676,0.168148,-0.07386984,0.24749269,-0.16300556,-0.2630875,-0.25669363,-0.22501528,0.23138826,-0.24907687,-0.14537272,0.20317638,-0.20827715,0.2198197,0.08605319,0.23220137,-0.20762417,-0.108334035,-0.27994123,0.007454533,0.18522279,0.15461004,0.19169237,-0.16086209,0.08001253,-0.14332812,-0.13318616,0.19442515,0.13255006,0.1734463,-0.08056923,0.18605563,-0.17146033,0.2883226,0.25562114,-0.27079573,0.19700563,0.20205225,0.19173402,-0.2472978,0.22956033,-0.20598152,-0.20331018,-0.22075768,0.19635975,-0.17441787,0.11616404,0.03980887,-0.21382302,-0.27019837,-0.12461442,-0.13540268,0.104146935,0.07947552
MAGED1,-0.15885651,-0.22767855,0.21185577,0.15994725,-0.15972476,0.19460718,0.25052223,-0.066995785,-0.26686922,0.2440237,0.23830661,-0.1628566,0.06948654,-0.22285797,0.22385156,0.23642018,0.24355522,0.2204893,-0.2305595,0.23706922,0.13702989,-0.19989668,0.18921028,-0.17456603,-0.046389483,-0.22842592,0.18410784,0.12803672,0.25811267,-0.00394994,-0.16961232,-0.17640352,-0.19786677,0.18107244,-0.13040759,0.15689445,0.09988477,-0.15813087,-0.12869607,-0.16112138,0.026036277,-0.19963667,0.21200398,-0.23737848,-0.22714256,0.2153039,-0.18596642,-0.1461976,-0.20943952,0.21077755,-0.20335089,0.17063361,0.24150896,0.23030402,-0.20104504,0.17510441,-0.1261557,-0.0545871,0.16063562,0.25455797,0.14374788,0.13596925,-0.13423643,-0.055093467
CERS4,0.0036503486,0.019707851,-0.0005862415,-0.024917055,0.002010122,-0.01321562,-0.034281503,0.024338478,-0.0119648315,-0.010503195,-0.011076771,0.021027977,-0.011814512,0.03540003,0.01771095,-0.026003528,-0.018603496,-0.029883055,0.016388062,-0.038490962,-0.026186693,0.014865024,-0.024504345,0.016575858,0.00021898746,0.019837439,-0.024398891,-0.0072183497,-0.024045493,-0.013219601,0.048865855,0.0015896559,0.015153868,-0.013975561,0.00038984045,0.0066463538,-0.02790134,0.0070775785,0.021714494,0.0058059655,-0.014762886,0.017584845,-0.00412279,0.03272941,0.031731896,-0.029063132,0.010108536,0.036627725,0.034793157,-0.019439004,0.026468629,-0.02153971,-0.01083567,-0.020291656,-0.010383487,-0.026633376,-0.0070803845,0.016261827,-0.012597226,-0.026568681,0.0036829938,-0.0070682988,-0.02749614,0.026733972
NKG7,0.020204682,0.023179568,-0.00017874874,-0.04106054,0.025312282,-0.026382435,-0.019254476,0.03064433,0.0063442998,-0.011882603,-0.021876378,0.020981357,-0.014435884,0.053308036,0.0029802322,-0.038066287,-0.0426099,-0.04265537,0.028115638,-0.053471245,-0.027628712,0.01937286,-0.032545395,0.026400782,0.01879073,0.02512779,-0.025080394,-0.009541944,-0.027034163,-0.018588308,0.06543501,0.01077595,0.018185113,-0.010156982,0.012304496,-0.023062013,-0.021282665,0.0076775644,0.034730807,0.02252638,-0.024485402,0.021484487,-0.023690736,0.060166616,0.03585165,-0.03421933,0.033413086,0.038451977,0.031626638,-0.025320306,0.05172999,-0.03592058,-0.018522292,-0.048667174,0.015659511,-0.02859758,-0.0121252015,0.025028795,-0.021620862,-0.023192562,-0.009116955,-0.011859722,-0.013569456,0.024018731
SULT1A1,0.04524738,0.06820946,-0.080072165,-0.101206034,0.080167904,-0.09600982,-0.12424046,0.061874427,0.08662416,-0.09561224,-0.100538656,0.06416012,-0.026247542,0.11260572,-0.052418455,-0.11531223,-0.1037389,-0.11171532,0.100174636,-0.11964671,-0.08028713,0.078988306,-0.09005061,0.09797748,0.036205024,0.09385855,-0.10117698,-0.07042749,-0.12939021,-0.007048808,0.09081863,0.08132437,0.087310635,-0.07424413,0.030291937,-0.048781916,-0.07953583,0.09778603,0.062858805,0.06603077,-0.036746465,0.06958876,-0.062653154,0.12692621,0.09584752,-0.11664352,0.08067795,0.10539594,0.09741819,-0.10914594,0.10583457,-0.09396707,-0.06748009,-0.09085872,0.06518119,-0.088961035,0.048992813,0.016321335,-0.08667856,-0.119346194,-0.046675198,-0.055352293,0.019530453,0.050696976
RNF213,0.03599898,0.035234265,-0.021722838,-0.044577777,0.02376853,-0.041635405,-0.051403943,0.035644308,0.025380995,-0.038162,-0.03585196,0.039951336,-0.023269147,0.05837418,-0.0023231506,-0.06005797,-0.058586456,-0.0622809,0.035909817,-0.06815024,-0.036934737,0.039968506,-0.045136515,0.034745343,0.020794056,0.048976384,-0.0466477,-0.009298947,-0.057264186,-0.016560666,0.0770273,0.024737064,0.04238823,-0.024769038,0.015973408,-0.035822637,-0.027379595,0.026560688,0.03909178,0.04007941,-0.0312135,0.041344903,-0.03315813,0.079740286,0.062167987,-0.061835263,0.045474578,0.04574139,0.044338353,-0.04832992,0.06116903,-0.047213867,-0.033784986,-0.058312718,0.03253088,-0.042172838,0.009891072,0.027986616,-0.037928656,-0.045832057,-0.013271874,-0.028333612,0.0062967986,0.031910285
ARHGAP27,-0.16980559,-0.24199535,0.23556124,0.16712011,-0.1690904,0.2046182,0.27045566,-0.07251307,-0.2917563,0.27448085,0.2587238,-0.18466245,0.078893445,-0.24672113,0.24036577,0.25937483,0.26745644,0.24559802,-0.23737876,0.25067464,0.14848071,-0.21178336,0.19671445,-0.18925741,-0.045132294,-0.25506595,0.19707224,0.13474931,0.28568414,-0.008881804,-0.18096611,-0.19018634,-0.21314506,0.19194952,-0.14729404,0.16101487,0.116347246,-0.17263182,-0.14090312,-0.17159829,0.029366814,-0.22707877,0.22547254,-0.258134,-0.25108302,0.24584271,-0.20179482,-0.15524144,-0.22545087,0.22738338,-0.21666068,0.17765746,0.2608209,0.24801321,-0.2118476,0.18966572,-0.15031786,-0.06311619,0.17359999,0.27372682,0.14927281,0.15750846,-0.13864478,-0.06763097
UPP1,0.03349025,0.0725597,-0.061803445,-0.08879918,0.06802428,-0.08165178,-0.108850196,0.04924996,0.06841767,-0.077322185,-0.09721042,0.06295821,-0.026291758,0.10673356,-0.046927005,-0.09162736,-0.090612926,-0.09473785,0.095958516,-0.11405811,-0.07038784,0.07877912,-0.08455835,0.087006755,0.027726136,0.07819151,-0.09038465,-0.058968965,-0.110453054,-0.012812564,0.08010779,0.06477082,0.07759415,-0.06679772,0.023587402,-0.03754343,-0.0717363,0.08085615,0.056294963,0.048346374,-0.032131433,0.056159556,-0.053684503,0.10693954,0.09016961,-0.10117683,0.06283191,0.100856036,0.09175891,-0.09629522,0.098293886,-0.08228665,-0.058146358,-0.07792948,0.049458228,-0.07809061,0.034866996,0.017559,-0.082288064,-0.108232595,-0.044122394,-0.039930396,0.0037003383,0.052995823
ESR1,-0.12716495,-0.67480445,0.2610389,0.32916752,-0.16179737,0.27401137,0.38225684,-0.00012543052,-0.27643007,0.4092918,0.5646622,-0.49448583,0.25420097,-0.46579897,0.3032231,0.28897208,0.18559456,0.42652375,-0.42577738,0.41596404,0.13085166,-0.31488714,0.24928732,-0.20088533,0.15668032,-0.34280074,0.20370755,0.1338123,0.4605331,-0.13772461,-0.33779195,-0.28845042,-0.20952381,0.2450883,-0.45209953,0.09431887,0.15634581,-0.09646069,-0.3954376,-0.10348602,-0.22215673,-0.5248851,0.49994147,-0.44307527,-0.3760839,0.21116316,-0.41239896,-0.08877705,-0.35754874,0.28267434,-0.30228168,0.2358084,0.22144352,0.32615772,-0.14380354,0.2803272,-0.2246352,-0.29039815,0.27538458,0.37463477,0.08081121,0.13876176,0.033103734,0.004937647
TRAF1,-0.0077263042,0.026204318,-0.014947794,-0.041347474,0.03254965,-0.026016034,-0.05001383,0.032255966,0.0073274486,-0.0291984,-0.03748451,0.018771878,-0.004971683,0.053116456,0.001928363,-0.028343532,-0.028764851,-0.044791475,0.033593144,-0.059867647,-0.049444206,0.026889404,-0.035282653,0.043506198,0.008127946,0.019913867,-0.045946904,-0.042568672,-0.049189392,-0.019860126,0.043271482,0.030092526,0.032803327,-0.026718661,0.0027020052,-0.0043096244,-0.05062592,0.041758247,0.026554285,0.0046929233,-0.018849619,0.005922145,-0.007334426,0.038172007,0.026613371,-0.042205665,0.019657604,0.062624454,0.05301542,-0.04027161,0.042176306,-0.034571413,-0.013623938,-0.031231198,-0.002758339,-0.043436904,0.009176755,0.007492911,-0.026636802,-0.049997687,-0.013368934,-0.010723412,-0.028361533,0.038476225
ICA1,-0.041837458,-0.03573082,0.06228671,0.02105958,-0.0410582,0.037387557,0.050382815,0.0067820065,-0.085436486,0.055607084,0.046462808,-0.028682787,0.009862825,-0.026731882,0.06334354,0.048160445,0.056942288,0.028504902,-0.042370956,0.0281825,0.01836127,-0.04181043,0.026272263,-0.040225446,-0.010788467,-0.04762615,0.027976029,0.018749934,0.048370585,-0.025738757,-0.0026463643,-0.033316467,-0.03741003,0.032344535,-0.02743063,0.047663722,0.005576603,-0.03625151,-0.010370204,-0.037579976,-0.0014708489,-0.050926983,0.04751824,-0.0374843,-0.049914867,0.038010634,-0.03866359,-0.010142997,-0.02394697,0.04640658,-0.028638452,0.029525023,0.06007304,0.043100864,-0.060733303,0.022818593,-0.04417395,0.0021990798,0.038094014,0.05700789,0.03072891,0.033570215,-0.060184505,0.0128570795
ZFP422,0.040788297,0.026996877,-0.009403987,-0.041273046,0.00891158,-0.03316529,-0.019465052,0.027631976,0.0024461113,-0.013066292,-0.019557582,0.033126723,-0.022366215,0.047356617,0.00010588765,-0.04986785,-0.044331625,-0.049041793,0.028427128,-0.05016583,-0.013070494,0.024817636,-0.030415853,0.020210005,0.018988661,0.037983827,-0.026175104,0.012151945,-0.031113809,-0.017466024,0.07596268,0.0075044185,0.030431455,-0.017291576,0.011923511,-0.018100344,-0.010303613,0.005916346,0.0405017,0.04145721,-0.023828983,0.03637796,-0.029650474,0.07296658,0.048803985,-0.05158742,0.03754649,0.028917288,0.024348585,-0.029500283,0.050324343,-0.03740228,-0.013535261,-0.0461478,0.024215229,-0.023246558,-0.006199018,0.02868464,-0.02515255,-0.01281835,-0.0037892838,-0.017445989,0.0045503452,0.027464688
TAPT1,-0.1804062,-0.27502406,0.25973034,0.19198573,-0.1919389,0.23150362,0.30825606,-0.08474518,-0.3202799,0.30984908,0.29203862,-0.20456569,0.0903742,-0.28295612,0.26801223,0.29251724,0.29967505,0.28010085,-0.27607197,0.2871692,0.17466846,-0.23881887,0.2261949,-0.20887977,-0.05339076,-0.2826915,0.2267259,0.16272476,0.32252827,-0.0032422803,-0.20914282,-0.21886793,-0.24586345,0.2212375,-0.16991657,0.18293718,0.13818869,-0.19482554,-0.1570753,-0.1902999,0.032039177,-0.24818784,0.2564941,-0.28870565,-0.27790675,0.2746397,-0.22814707,-0.1771787,-0.26272008,0.25883776,-0.24966346,0.20269385,0.29024336,0.2811331,-0.23516822,0.21964286,-0.16571966,-0.073091194,0.19631103,0.3108393,0.16953173,0.17451003,-0.14915043,-0.083369695
MAMDC2,-0.039533965,-0.013471503,0.027721446,0.004575491,-0.006779209,0.02171034,0.0014754352,0.015568174,-0.049820308,0.01090645,0.020811629,-0.006705625,0.006958112,0.0078033973,0.037704512,0.017427607,0.028580002,-0.004417414,-0.015568393,-0.0033033565,-0.011300296,-0.024212232,0.007288102,-0.0043682978,-0.011964198,-0.018659199,-0.002765417,-0.0058199987,0.011054035,-0.015723743,0.016056746,-0.0067384876,-0.007236203,0.004269935,-0.011541653,0.035600353,-0.017432574,-0.008112479,-0.0039786147,-0.026053526,-0.0031493008,-0.02463254,0.028505154,-0.01119012,-0.016345156,0.012496764,-0.026449477,0.015498426,0.004618272,0.0149129145,-0.0004279837,0.0071514174,0.033798188,0.017849103,-0.052461483,-0.00068513164,-0.013296098,0.005834773,0.010170378,0.008932359,0.020585977,0.01893916,-0.059647176,0.019660538
FHL1,-0.16264857,-0.21210493,0.19856463,0.15168591,-0.12925363,0.18079367,0.21767259,-0.061539896,-0.24876028,0.21305662,0.22339156,-0.14744,0.06706607,-0.20691419,0.20457631,0.21427692,0.23161927,0.19700626,-0.20691346,0.19808206,0.12435783,-0.18827735,0.16479705,-0.15538692,-0.039106492,-0.20958,0.15634269,0.102036774,0.24003784,-0.022350142,-0.14676093,-0.15469006,-0.18602583,0.14396285,-0.11898884,0.1415211,0.10005944,-0.15799186,-0.12690917,-0.1474149,0.021588597,-0.20752177,0.19749555,-0.21498194,-0.20816456,0.21735954,-0.18233965,-0.12113072,-0.19568728,0.20839542,-0.17442317,0.14776517,0.22572564,0.21016507,-0.19318135,0.14689736,-0.12867354,-0.054028694,0.1466381,0.22354816,0.13129209,0.13422635,-0.122202426,-0.041637257
FCRL1,-0.008134659,0.016600344,-0.015097246,-0.041495644,0.042771637,-0.021558683,-0.044769756,0.036688197,0.015523102,-0.02446058,-0.039694577,0.0126174595,-0.0036719292,0.04432876,0.0010697544,-0.026892234,-0.032300152,-0.03817518,0.02953934,-0.05997164,-0.057714805,0.025750866,-0.033108465,0.04610955,0.01839181,0.02110381,-0.046983898,-0.04301529,-0.045176182,-0.027729096,0.044516105,0.026622374,0.031190561,-0.023309633,0.0014164224,-0.008755572,-0.05638161,0.04147578,0.023142623,0.00602933,-0.024248257,-0.0049594985,-0.0031634923,0.034175888,0.018115824,-0.039734285,0.025239427,0.06454837,0.05043673,-0.035333425,0.03981728,-0.03515102,-0.020463675,-0.037877064,0.0043047443,-0.047113203,0.004074225,0.0030909255,-0.02772639,-0.044402022,-0.0212752,-0.018150933,-0.017545834,0.037499562
GDF3,-0.012215618,0.019223921,-0.00070616044,-0.030078378,0.022485755,-0.016126122,-0.041396998,0.025824685,-0.0089819245,-0.019695204,-0.024229646,0.00988799,-0.0048238,0.038884893,0.015772413,-0.019074451,-0.01685071,-0.033516407,0.019973997,-0.04581525,-0.03775618,0.016749462,-0.028137129,0.028256461,0.0035295784,0.012187257,-0.03616718,-0.03137317,-0.032881394,-0.018869082,0.037666127,0.014550503,0.020811247,-0.017070934,-0.0014520045,0.0013586339,-0.039961886,0.026026929,0.020924233,-0.0029961504,-0.0151226595,-0.0016196277,0.001973752,0.024690777,0.019272922,-0.028896537,0.009418702,0.050995495,0.04604554,-0.023736201,0.031746186,-0.019203529,-0.0036704838,-0.01964603,-0.012263089,-0.035911117,0.0013187919,0.0071261153,-0.013470985,-0.03496609,-0.00422472,-0.0035041198,-0.032173295,0.031261005
MECOM,-0.151695,-0.41921356,0.26224554,0.26143026,-0.18540403,0.25763223,0.27863985,-0.091766044,-0.2860606,0.38399616,0.41592044,-0.32806355,0.20089792,-0.35866714,0.2648182,0.29364452,0.23882031,0.32510188,-0.3663736,0.3344461,0.16200805,-0.2682708,0.19011576,-0.17321816,0.039810404,-0.2857306,0.21431139,0.17645663,0.36354107,-0.07747717,-0.24466752,-0.2672126,-0.20127346,0.24042536,-0.2867857,0.18285096,0.15383089,-0.15778728,-0.24879515,-0.12655349,-0.076236926,-0.35619476,0.40366286,-0.36755174,-0.27388424,0.24676338,-0.3857362,-0.11912228,-0.29541287,0.2742707,-0.25242066,0.25849828,0.21806346,0.27953961,-0.2065917,0.24175721,-0.17605507,-0.13424638,0.2545907,0.31843445,0.15270783,0.17402318,-0.0897447,-0.058996037
SDC1,-0.026942842,-0.012359571,0.050308082,0.0028919503,-0.00492052,0.021136893,0.02319261,0.013607699,-0.06011782,0.027976114,0.025012236,-0.022425491,-0.001555793,-0.0006305352,0.049202394,0.022561502,0.02362214,0.0061866157,-0.01483481,-0.012645144,-0.0058146194,-0.017344756,0.009632543,-0.015000649,-0.002931133,-0.031405557,0.014160305,0.01046798,0.029575258,-0.026448764,0.019504637,-0.030687515,-0.022193149,0.023006737,-0.01548082,0.019658256,-0.009414315,-0.020880606,0.004139154,-0.026178801,-0.013472132,-0.04396288,0.025001545,-0.007611539,-0.020731872,0.023313915,-0.014663927,0.009922866,0.0054336265,0.03345451,0.0023903083,0.0070462357,0.025927197,0.017189234,-0.039619245,0.0042674015,-0.0376871,0.0023666695,0.019767009,0.02157627,0.013261395,0.02463866,-0.04743005,0.018836625
DYNLL1,-0.017763449,-0.061308872,0.076214865,0.029301785,-0.06333555,0.044555828,0.08947536,-0.0094590485,-0.10470311,0.088284776,0.06726985,-0.03400223,0.008693039,-0.054818094,0.077565536,0.051890876,0.065253966,0.044792846,-0.06384242,0.06063609,0.05084786,-0.05501932,0.0447199,-0.06000285,-0.006224178,-0.056645624,0.06240212,0.056164633,0.069848284,-0.023282535,-0.008507002,-0.059917696,-0.05941105,0.057716005,-0.034655944,0.047519743,0.03643766,-0.05225391,-0.01068997,-0.025664141,-0.0076899678,-0.04672241,0.06079095,-0.03791705,-0.059575982,0.041324813,-0.035917867,-0.041256327,-0.057945035,0.054334387,-0.0442523,0.033694703,0.08455272,0.061157886,-0.046411663,0.04839233,-0.05293888,0.0018748455,0.04905372,0.09804867,0.048742976,0.03600707,-0.044107243,-0.0028222678
CDK19,0.02789599,0.030804913,-0.019086372,-0.04730171,0.03220205,-0.038461935,-0.046106577,0.03257286,0.026432421,-0.030430969,-0.029372009,0.026725378,-0.016167423,0.05753089,-0.0055795535,-0.056811254,-0.06258296,-0.052456923,0.03578611,-0.06257503,-0.044949822,0.03307505,-0.04218967,0.04096034,0.028325982,0.04149808,-0.048382215,-0.013337035,-0.04711562,-0.017500017,0.071794584,0.016578816,0.041894875,-0.02482009,0.011759959,-0.04131969,-0.029944725,0.02087578,0.034588877,0.03922594,-0.032640234,0.03449318,-0.030376857,0.072110996,0.054344416,-0.05819227,0.040221408,0.048851646,0.041502353,-0.043718413,0.06405708,-0.046278723,-0.034943163,-0.058014203,0.032709636,-0.03596868,-0.0016453732,0.022324692,-0.035403058,-0.043445557,-0.023438005,-0.024086915,0.011185251,0.026975175
ITGAL,-0.023484966,-0.013846789,0.030745132,-0.0026604282,-0.0017161667,0.010066615,0.0052619395,0.020066326,-0.0379401,0.014599547,0.019126046,-0.01668289,0.0070752837,0.0014974196,0.042076524,0.011413064,0.00787925,0.00023060851,-0.016197493,-0.014143158,-0.018055812,-0.011384534,0.0017505623,-0.0013957843,0.006174147,-0.016779473,-0.010131717,0.00048488006,0.013864979,-0.026960306,0.02377987,-0.015643582,-0.006039094,0.010752395,-0.017418709,0.006095238,-0.01594644,-0.011269018,0.0032342034,-0.011619743,-0.01691521,-0.030405093,0.022131428,-0.0014414899,-0.014329171,0.004104249,-0.011216288,0.019623758,0.008757319,0.013147527,0.010866953,0.00042232499,0.017094705,0.0063000275,-0.026323035,-0.007217946,-0.029311256,0.0010783374,0.009942401,0.010283439,4.8163347e-06,0.009244222,-0.029752098,0.01967616
IFI27L2A,-0.014681233,-7.232651e-05,0.009067541,-0.022870395,0.02693984,-0.0045064352,-0.009415943,0.032286897,-0.00496595,-0.0075580794,-0.00838197,-0.0030468274,0.0015238374,0.025784194,0.023376307,-0.00720644,-0.017348923,-0.023699379,0.0029671732,-0.041416865,-0.035475895,0.0044181887,-0.011792425,0.021181732,0.01593192,0.0011205934,-0.028016875,-0.016440976,-0.010188706,-0.025741335,0.041050404,0.0055584274,0.0070440937,-0.0020605102,-0.006540777,-0.005136162,-0.030717604,0.0040833745,0.015598959,0.0016636066,-0.021814413,-0.016813278,0.004211575,0.01948159,0.0062875617,-0.013978746,0.012319552,0.04019507,0.02292688,-0.0068593286,0.029676685,-0.02220808,-0.0047086775,-0.02409025,-0.008901261,-0.025588965,-0.016925301,0.009680878,-0.0034392104,-0.009525492,-0.01043394,-0.0041638166,-0.020653538,0.023242787
NRROS,0.03647079,0.024862912,-0.004172338,-0.037794672,0.0031351075,-0.026815489,-0.014098469,0.018096775,-0.0042897463,-0.008942811,-0.01949904,0.026176559,-0.019234985,0.032096162,0.004669629,-0.04500923,-0.038400203,-0.046534136,0.022188585,-0.04243146,-0.01638879,0.022957323,-0.028022898,0.015559964,0.018785644,0.035351522,-0.021082057,0.0134745985,-0.035237234,-0.020835163,0.06404653,0.0030230917,0.024297817,-0.010116875,0.015473675,-0.02780307,-0.006429665,0.003754042,0.03581795,0.041073937,-0.027611732,0.0306269,-0.020132346,0.06454521,0.037987918,-0.044619907,0.034708478,0.024586271,0.023218144,-0.030495808,0.04947689,-0.03495209,-0.011224426,-0.032984026,0.026498966,-0.024653126,-0.0044051856,0.026158046,-0.020622544,-0.0058724983,-0.005470566,-0.018352143,0.00799536,0.026783597
ENG,0.01725648,0.0029843114,0.014942409,-0.017000522,-0.024849623,-0.0037355013,0.015930295,0.013048479,-0.036158144,0.017678719,0.0037490577,0.020399336,-0.013031501,0.01363129,0.024792623,-0.010904711,0.00015243143,-0.020964874,-0.00336105,-0.016952746,0.011801884,-0.0009621382,-0.002564676,-0.008125119,-0.0010317154,0.008494463,0.0036331788,0.024491003,-0.0059237983,-0.016115835,0.044738762,-0.006780736,-0.003969712,0.0072969943,0.0010497794,0.01280725,0.0037878156,-0.011563275,0.023654697,0.01175328,-0.011988036,0.01979316,-0.00045162253,0.035896637,0.013064133,-0.020930622,0.010494288,0.0024228655,-0.004641913,-0.0075774863,0.018258397,-0.014925271,0.022598535,-0.006790162,-0.004559949,-0.0027166526,-0.012617464,0.025768071,0.0010056421,0.022705898,0.018858667,-0.0010735616,-0.021285191,0.021607125
ANKRD44,-0.16795857,-0.23452397,0.2301446,0.16572541,-0.16295926,0.20841832,0.2627848,-0.07057333,-0.28651816,0.26552796,0.24713898,-0.17822932,0.07609379,-0.24261649,0.23423478,0.2528133,0.26542994,0.23683757,-0.23701352,0.24402443,0.14416292,-0.2078732,0.19902708,-0.18701792,-0.047353815,-0.24519655,0.19241488,0.13130367,0.27945754,-0.007951183,-0.17894618,-0.19118877,-0.21310152,0.18993223,-0.14082545,0.1622704,0.114960544,-0.17418851,-0.13722609,-0.17013249,0.031082362,-0.21864364,0.22174227,-0.2542416,-0.24164777,0.24099818,-0.19880296,-0.14971839,-0.21584368,0.22921579,-0.2139193,0.17865062,0.25506097,0.24362351,-0.2188698,0.18170841,-0.14181654,-0.06171779,0.17236808,0.26563868,0.15136826,0.15325174,-0.14000133,-0.06210223
DOCK11,0.026533317,0.036267634,-0.0038094223,-0.047133364,0.025803134,-0.03133451,-0.028250486,0.031751,0.009078819,-0.017186392,-0.030718647,0.027098935,-0.02407763,0.054710686,-0.0018639974,-0.04560556,-0.05029788,-0.052833892,0.037586007,-0.06412107,-0.031021565,0.032542802,-0.035995156,0.029682294,0.021409009,0.033681937,-0.0361342,-0.0070291273,-0.03503379,-0.021519164,0.071748026,0.012502547,0.029714072,-0.017948434,0.015982617,-0.02724078,-0.02424467,0.010196172,0.04112692,0.035040136,-0.02736929,0.022498596,-0.034127258,0.068760574,0.046665885,-0.046693508,0.037754808,0.041404884,0.038985133,-0.03265807,0.06103336,-0.042303406,-0.022261828,-0.05449101,0.020848721,-0.034278426,-0.008787868,0.027025394,-0.029951185,-0.030099917,-0.014646733,-0.0141945705,-0.005295314,0.030019168
RORA,-0.5502457,0.052947115,0.3647834,0.19938242,-0.33602542,0.4714444,0.17711587,-0.58188903,-0.5080155,0.38561615,0.19046786,-0.048878897,-0.058487825,-0.26572067,0.27085307,0.48522776,0.6615403,0.09911757,-0.29921967,0.3873087,0.5404258,-0.23239945,0.2752227,-0.24098065,-0.33100307,-0.30410832,0.42258054,0.4241383,0.28601527,0.15577388,-0.20072715,-0.27530798,-0.3331271,0.32616228,0.113124326,0.5846442,0.36825934,-0.4533995,0.06554464,-0.32942083,0.4063694,-0.053802304,0.3422378,-0.2634276,-0.021199582,0.5637362,-0.5719812,-0.45528913,-0.34280255,0.3862083,-0.17136519,0.4620176,0.42771214,0.18596458,-0.63064665,0.29764766,-0.1950338,0.44188663,0.44555914,0.416424,0.61786664,0.55016625,-0.4945573,-0.40353662
SLBP,0.11479844,0.13638254,-0.13758662,-0.15780571,0.12114413,-0.15928902,-0.19708705,0.07195544,0.17613079,-0.15487343,-0.15176909,0.12817469,-0.058530934,0.19355604,-0.116537236,-0.1984229,-0.20826313,-0.17784595,0.17316072,-0.19873032,-0.11901269,0.15703568,-0.15357427,0.16174144,0.06338023,0.17673624,-0.1571755,-0.06848121,-0.21192972,-0.007979117,0.1662146,0.1130736,0.14492594,-0.11561762,0.0678215,-0.122865066,-0.09195547,0.13372345,0.111839496,0.13058127,-0.06361767,0.15181151,-0.14545074,0.237421,0.2071133,-0.19558871,0.15041809,0.14061892,0.14756137,-0.19376467,0.19321066,-0.15733394,-0.1598787,-0.18686144,0.14857674,-0.12635534,0.07044449,0.052979276,-0.15300632,-0.19246265,-0.09329079,-0.09824342,0.07648619,0.061407574
BDH2,-0.06761916,-0.045650836,0.06828425,0.039047338,-0.042016786,0.055692308,0.049101762,0.00030710176,-0.095520526,0.060704153,0.05605944,-0.04072724,0.016557299,-0.036407292,0.07570103,0.06183076,0.071922936,0.040333614,-0.05700434,0.038329884,0.014868647,-0.054811694,0.038704034,-0.04350509,-0.021242242,-0.060187496,0.03455191,0.012894284,0.06036028,-0.023519808,-0.019911606,-0.043605015,-0.04670828,0.041990235,-0.03130327,0.05621135,0.0027150586,-0.04289701,-0.028948335,-0.05443911,0.005858332,-0.06690135,0.062365703,-0.06387989,-0.06543293,0.051670622,-0.051425863,-0.011140123,-0.022618547,0.055742368,-0.03985239,0.04206712,0.064473405,0.058720753,-0.08462779,0.025937328,-0.039894864,-0.004738465,0.048252508,0.054135315,0.039967872,0.041086327,-0.07587859,0.008729285
AI504432,-0.068518706,-0.04253235,0.09025771,0.038371943,-0.060699075,0.06885376,0.071190745,-0.009689946,-0.123725206,0.080486625,0.06344253,-0.045184135,0.015950609,-0.053230986,0.08626765,0.08243743,0.096528195,0.053122953,-0.06498021,0.044291034,0.03331808,-0.058411468,0.049493667,-0.0598559,-0.035868943,-0.078348145,0.05898366,0.0324845,0.073556915,-0.02598589,-0.027385313,-0.056262262,-0.07053526,0.055928156,-0.032264642,0.06915275,0.018187687,-0.05769176,-0.0204163,-0.0687346,0.008905977,-0.075144306,0.07202704,-0.06875233,-0.077638075,0.076364465,-0.06787536,-0.027671177,-0.03290318,0.07150964,-0.048227295,0.04878427,0.083314374,0.078035,-0.09527433,0.035650633,-0.0546161,0.00018634275,0.064329006,0.07881581,0.04986974,0.059369292,-0.08905766,0.0045070257
LAG3,-0.10213423,-0.100012094,0.12926951,0.07318747,-0.07854347,0.10399456,0.1143855,-0.02472718,-0.16103779,0.12382741,0.109082416,-0.08928765,0.03603445,-0.103054315,0.12659264,0.12691069,0.13499892,0.101324394,-0.10759601,0.09696571,0.04788761,-0.09944223,0.081481114,-0.0913773,-0.027996417,-0.12448423,0.087698855,0.044323318,0.123826146,-0.029316433,-0.06841947,-0.09017433,-0.10353958,0.08681007,-0.058146156,0.08688748,0.039030544,-0.08522763,-0.054825217,-0.09551759,0.01096455,-0.12251031,0.11603586,-0.12388149,-0.13043275,0.119114414,-0.09413306,-0.05073675,-0.074282885,0.11475772,-0.09100108,0.084232196,0.11943154,0.12023016,-0.119928166,0.06695959,-0.0801204,-0.022863079,0.092289366,0.12228878,0.06706068,0.07930449,-0.09597066,-0.010950465
XPC,-0.25863668,-0.26607358,0.28650236,0.21022812,-0.23099716,0.28847966,0.21051915,-0.24594222,-0.3745876,0.3659937,0.3165092,-0.26117238,0.10628389,-0.30543405,0.23446396,0.34693742,0.3276439,0.25026396,-0.3047236,0.3241674,0.25766814,-0.24706423,0.16252811,-0.19984302,-0.032258365,-0.31022376,0.22549745,0.25661448,0.31723005,0.0074745156,-0.21434642,-0.26882666,-0.19687724,0.21748559,-0.16408987,0.27395618,0.2402794,-0.21819143,-0.12507491,-0.17015892,0.04901743,-0.2532601,0.38108924,-0.28147724,-0.16348061,0.3195001,-0.47711158,-0.18145171,-0.29060173,0.32490525,-0.21420723,0.3180684,0.2559252,0.17151614,-0.31421003,0.25732508,-0.20813027,0.06900373,0.31710947,0.3070751,0.26924294,0.3262402,-0.18360232,-0.15988052
TEAD2,-0.52404857,0.069992825,0.34787118,0.1628902,-0.33577693,0.43569332,0.15769944,-0.5773081,-0.5048585,0.37983328,0.1592804,-0.040555242,-0.050143167,-0.23543788,0.23701185,0.45908087,0.6310589,0.09981803,-0.27082077,0.35868856,0.51064014,-0.22734325,0.23823406,-0.23708314,-0.30109423,-0.29894513,0.38883367,0.40543422,0.26432535,0.14969447,-0.18832792,-0.25766668,-0.31021276,0.3039406,0.1081619,0.55573,0.35303372,-0.42211354,0.077283464,-0.3269664,0.39100045,-0.04986792,0.3171498,-0.24993107,-0.01327817,0.53652996,-0.54991996,-0.4245448,-0.31915972,0.3634271,-0.16069888,0.44420296,0.38873577,0.17014857,-0.59769946,0.27971393,-0.20819445,0.42646992,0.42897868,0.39157185,0.58305293,0.5436171,-0.46088597,-0.37506112
PLSCR4,0.04163732,0.07487508,-0.06893709,-0.097433016,0.074064195,-0.086976856,-0.119728714,0.055385914,0.07921998,-0.084042415,-0.09703106,0.06673278,-0.033251826,0.12005652,-0.05640032,-0.10537058,-0.10189427,-0.104610465,0.10144885,-0.12173856,-0.07926606,0.083605446,-0.09284377,0.09286041,0.034578316,0.08788241,-0.09640348,-0.067564875,-0.1208287,-0.0076321475,0.089119606,0.07260193,0.08027081,-0.07326998,0.032031033,-0.043851353,-0.078086935,0.08767278,0.06519809,0.057872463,-0.03462427,0.06946267,-0.06712027,0.12051414,0.10100408,-0.11425778,0.075670764,0.104229115,0.098044336,-0.10213405,0.10829212,-0.087918654,-0.06971985,-0.092304714,0.05519869,-0.08341346,0.03534945,0.02419718,-0.090240054,-0.12332486,-0.04854119,-0.047368668,0.006753199,0.048602656
EMP1,0.1781656,0.15585604,-0.22350492,-0.21908349,0.20858346,-0.2323101,-0.29730532,0.1094483,0.28517458,-0.20772645,-0.23801203,0.16849326,-0.076689065,0.26424277,-0.16751152,-0.28422937,-0.28602794,-0.2312419,0.23029998,-0.2658268,-0.16942015,0.20469244,-0.22027375,0.25724363,0.10563175,0.2534028,-0.22460017,-0.122627854,-0.28987002,0.013003588,0.19782852,0.16182293,0.21531357,-0.17163186,0.07665928,-0.16052884,-0.16153395,0.2179709,0.12836152,0.18843675,-0.0999107,0.18175514,-0.17268229,0.30773303,0.26575366,-0.30740368,0.21955186,0.22578742,0.19737583,-0.2579811,0.2275217,-0.21939355,-0.23063771,-0.2482952,0.2293511,-0.18784381,0.14392744,0.022623353,-0.23809195,-0.3020333,-0.14316829,-0.16725236,0.13525876,0.08899768
LYN,-0.016729027,-0.01791976,0.039245076,0.00014557876,-0.016768757,0.013774227,0.02612444,0.012889301,-0.048150912,0.034817535,0.02645113,-0.018272234,0.0063399784,-0.0068042427,0.043546215,0.015579456,0.015130136,0.00694244,-0.022888161,0.0037782118,-0.006348543,-0.020681445,0.0055088736,-0.013971791,0.0094271675,-0.02088815,0.002288051,0.013198957,0.024176795,-0.024269056,0.021243803,-0.023234937,-0.012162453,0.018203292,-0.016431045,0.007466849,0.00028271228,-0.025327504,0.0011200197,-0.0020327978,-0.0158756,-0.028105337,0.02441332,-0.0052186325,-0.020578677,0.008639751,-0.009207111,0.0101623945,-0.007979691,0.02347905,0.00032006204,0.004148733,0.027266838,0.0073405197,-0.024120383,0.0050128424,-0.03712323,0.0041078143,0.017460678,0.029774997,0.008163162,0.015418537,-0.026796091,0.011822616
TFR2,-0.085007004,-0.091661975,0.115662776,0.07723708,-0.09202736,0.101556554,0.11784381,-0.02599863,-0.15984322,0.12629546,0.113346666,-0.07032888,0.024551459,-0.09385055,0.11949036,0.11740403,0.13284814,0.09436,-0.113646224,0.10378318,0.06540918,-0.0993292,0.08702491,-0.092028946,-0.039472852,-0.11126712,0.09819839,0.06209694,0.1215391,-0.019834992,-0.059500497,-0.09236686,-0.09948445,0.08635007,-0.058316212,0.09875138,0.040165007,-0.08281109,-0.050080396,-0.08309157,0.014800571,-0.10209771,0.10746291,-0.11320445,-0.112138465,0.10110611,-0.09502448,-0.06438823,-0.08096743,0.10757987,-0.093356505,0.08159204,0.12333204,0.11577005,-0.12298964,0.07940605,-0.07078545,-0.011910435,0.08707571,0.1265399,0.07834565,0.07508369,-0.09593745,-0.013997288
ZFP62,0.12928925,0.15283197,-0.17047292,-0.18815613,0.15712339,-0.18469265,-0.2330046,0.08340051,0.22096692,-0.18513983,-0.19203177,0.14800423,-0.06769499,0.22465265,-0.14413235,-0.23408855,-0.24292627,-0.20682317,0.20173301,-0.23464179,-0.13902454,0.18400854,-0.1760011,0.19694635,0.08027253,0.20628461,-0.18950719,-0.09427415,-0.24548177,-0.0020922367,0.17937896,0.13598241,0.16935177,-0.13509558,0.07495311,-0.1416148,-0.11323577,0.16624703,0.12534235,0.15531446,-0.07223984,0.17216638,-0.16622192,0.26430613,0.23631556,-0.24258456,0.1786546,0.17407301,0.16987246,-0.22263455,0.21623787,-0.1920847,-0.18589358,-0.21597548,0.17617548,-0.15629701,0.094488636,0.05003258,-0.18285722,-0.2305487,-0.11324667,-0.11636353,0.09511707,0.06985987
IPCEF1,0.07544957,0.10368972,-0.10631856,-0.12628438,0.10477938,-0.1257544,-0.16712977,0.066392206,0.12564321,-0.117584616,-0.14014882,0.09476489,-0.045004778,0.14994448,-0.08021163,-0.14797755,-0.14275098,-0.1369226,0.13687035,-0.15914391,-0.09731364,0.12083327,-0.124581546,0.13126895,0.04571352,0.13161358,-0.12890837,-0.07335855,-0.16793661,-0.008273624,0.1143357,0.08914845,0.113766305,-0.09718408,0.040360805,-0.07350658,-0.09695485,0.119663976,0.08014883,0.08993912,-0.05043251,0.094809614,-0.08896738,0.16877483,0.14718886,-0.1573722,0.107641466,0.13651973,0.12764409,-0.14493325,0.13677579,-0.12117744,-0.106865376,-0.12710539,0.098177604,-0.113202,0.06599306,0.022787772,-0.12607387,-0.16369814,-0.0722942,-0.073173456,0.039926596,0.06461847
FADS1,0.008735467,0.0325702,-0.011106696,-0.036921322,0.016365074,-0.029960275,-0.044595793,0.030000996,0.0032734126,-0.028727505,-0.026714811,0.027942179,-0.011032581,0.0532448,0.005308751,-0.035128508,-0.03114181,-0.048129924,0.029592823,-0.057688557,-0.028206598,0.024903929,-0.03700363,0.027806513,0.0072737746,0.030361801,-0.046587534,-0.012935374,-0.039136343,-0.016380029,0.058326703,0.021680687,0.033238463,-0.025980875,0.0063060634,-0.0106271915,-0.030067403,0.017421262,0.032772552,0.016982835,-0.01758276,0.020252358,-0.019965278,0.051216654,0.04264883,-0.042334545,0.019900784,0.04689382,0.042581413,-0.033014134,0.048721045,-0.029234707,-0.01525332,-0.037411716,0.00015869737,-0.036158986,-0.0016603796,0.022260737,-0.023535535,-0.035865195,-0.010359334,-0.010732785,-0.020672768,0.030549146
SERPINF1,-0.019209735,-0.012810994,0.043496154,0.005901754,-0.025643513,0.019989105,0.029808257,0.010572456,-0.062327076,0.03127254,0.029926542,-0.009358242,0.0024459213,-0.00457171,0.046013497,0.023117647,0.029317237,0.007079242,-0.02308711,0.0021800846,0.008690581,-0.024780968,0.008391287,-0.02338393,-0.0065797456,-0.024261413,0.011438951,0.015459597,0.024340592,-0.020219516,0.019195732,-0.020789184,-0.019036178,0.01725002,-0.013808986,0.022591406,0.0027748793,-0.02556294,0.0029817089,-0.019319467,-0.00736209,-0.023200903,0.024526002,-0.0071422197,-0.017474214,0.016518192,-0.01997772,-0.0007211976,-0.01058545,0.026161773,-0.0032449476,0.0059607774,0.03840891,0.016644027,-0.039583318,0.01026253,-0.032935135,0.012611274,0.021660216,0.032720253,0.023380712,0.024657182,-0.04671409,0.014686315
VAV3,-0.107173875,-0.12701182,0.16120093,0.105079435,-0.11921814,0.13231888,0.16097257,-0.038767427,-0.20578812,0.17427218,0.14775264,-0.103799775,0.04079269,-0.13687254,0.15353104,0.16166387,0.18121545,0.13338685,-0.14430977,0.14205033,0.09150971,-0.12757798,0.115935564,-0.12332336,-0.04763057,-0.15873457,0.13683823,0.08359079,0.1627935,-0.020100983,-0.09011984,-0.1249129,-0.13572475,0.12558275,-0.07671887,0.12039261,0.0641099,-0.110084645,-0.06535268,-0.11597416,0.02335922,-0.14166537,0.14480278,-0.15437685,-0.15269348,0.14483362,-0.12177451,-0.08970897,-0.112603605,0.14627829,-0.13228334,0.10804319,0.15939191,0.15376307,-0.1535604,0.11055759,-0.09220468,-0.021382269,0.1224159,0.16937327,0.10528044,0.10580101,-0.11866114,-0.03447526
IRF6,-0.3978244,-0.24172737,0.32128012,0.20632471,-0.26563573,0.4052982,0.24491145,-0.40019166,-0.41268048,0.41077268,0.35943103,-0.21232753,0.095560715,-0.33130383,0.25260818,0.43025064,0.46695372,0.24761736,-0.36120784,0.39941263,0.35443002,-0.26833352,0.22650458,-0.1997214,-0.111178905,-0.33034688,0.34420422,0.33271682,0.3464799,0.054653212,-0.24969532,-0.29570222,-0.27003726,0.30512023,-0.10510506,0.41986164,0.2702528,-0.30661133,-0.11222096,-0.239373,0.15882292,-0.21172595,0.3965752,-0.3319044,-0.17810877,0.43329826,-0.5124557,-0.30024722,-0.37555972,0.33867502,-0.23445074,0.35812312,0.27291512,0.26247364,-0.4311242,0.30094,-0.23603415,0.1740546,0.40480936,0.3965785,0.37041986,0.40854728,-0.27604106,-0.238799
TSC22D3,-0.29046136,-0.14865442,0.28672165,0.1981057,-0.24812816,0.31832603,0.20282339,-0.27885062,-0.3934287,0.34230256,0.23924264,-0.15790747,0.04420308,-0.23700117,0.2514527,0.34940228,0.39584425,0.19414924,-0.3030252,0.28664443,0.31246972,-0.24370493,0.18849891,-0.2058638,-0.13403171,-0.29498488,0.28099018,0.2844576,0.31689832,0.04004801,-0.16172878,-0.2578235,-0.23999093,0.23566268,-0.09729153,0.37523502,0.2352573,-0.29317185,-0.054435328,-0.20538878,0.17914096,-0.16901727,0.31601077,-0.25941402,-0.111263946,0.34424078,-0.44555768,-0.24038322,-0.28438482,0.35452074,-0.20434274,0.33734185,0.33610648,0.17185865,-0.39112777,0.25288627,-0.19190532,0.15863141,0.31918234,0.31929782,0.3492815,0.35378185,-0.27072746,-0.21040149
FUCA2,0.04851297,0.07222231,-0.051117435,-0.08408021,0.057222053,-0.07166022,-0.08989942,0.04446702,0.06651604,-0.06892954,-0.07333456,0.05613863,-0.029963266,0.09400706,-0.03778585,-0.08963241,-0.104084365,-0.09379869,0.08157721,-0.10844661,-0.07255605,0.07712079,-0.07831056,0.07934784,0.032464452,0.08069355,-0.08634844,-0.039360244,-0.099966824,-0.017042788,0.09247555,0.054527212,0.073252685,-0.05038239,0.030309353,-0.062349223,-0.05324085,0.060568094,0.06317862,0.05834304,-0.0393043,0.062634125,-0.065082684,0.11150953,0.09542813,-0.09695563,0.06725115,0.078978196,0.081733614,-0.093373716,0.10528451,-0.07592333,-0.069168925,-0.09430518,0.05863502,-0.06956909,0.023441097,0.03341657,-0.069761015,-0.0911485,-0.04395508,-0.045971073,0.018348679,0.040890038
ATP8B4,0.020615872,0.05596941,-0.039504446,-0.06738886,0.05627258,-0.05636656,-0.08266391,0.043763027,0.043418344,-0.059504304,-0.0725622,0.04208339,-0.025740234,0.08437546,-0.023151524,-0.06821713,-0.068693765,-0.07510209,0.07023494,-0.09811079,-0.06454429,0.061275356,-0.06259781,0.062299043,0.020542096,0.05859571,-0.06933659,-0.046166558,-0.08054067,-0.016515858,0.0718603,0.041462105,0.05433868,-0.044428974,0.019248877,-0.03270545,-0.06292692,0.058214433,0.046525463,0.031049643,-0.027553074,0.036198933,-0.0396498,0.0824108,0.06972001,-0.07290122,0.049413092,0.07991187,0.08037008,-0.06817352,0.077938594,-0.058767892,-0.046099305,-0.066889845,0.029127702,-0.06635495,0.019145606,0.021076199,-0.058231734,-0.083533294,-0.032064725,-0.02946698,-0.010798864,0.042695507
PLXDC2,-0.0074546672,0.016829979,-0.0011905693,-0.02752645,0.009408742,-0.012183655,-0.030177377,0.02961551,-0.013033263,-0.016396087,-0.015594007,0.016772661,-0.0078916475,0.039437644,0.012672067,-0.021484416,-0.013054006,-0.032773234,0.019483063,-0.043883666,-0.032007553,0.01048894,-0.023119483,0.0163766,0.0012382418,0.016604789,-0.029956114,-0.015529681,-0.02895817,-0.018789437,0.044934157,0.013503775,0.016564839,-0.015191846,0.0035248362,0.0042619277,-0.03100073,0.014504278,0.022502523,-0.0016781427,-0.013269365,0.011310446,-0.0034833234,0.03308583,0.020985367,-0.023307767,0.0068638916,0.03908326,0.034352228,-0.022059157,0.033974674,-0.020314034,-0.0044962615,-0.019670915,-0.015392542,-0.028085133,-0.0068290103,0.017779391,-0.013072006,-0.025259707,-0.002787245,-0.003896676,-0.03455328,0.03096727
TOP2A,-0.04783309,-0.058596853,0.09042333,0.041001525,-0.065083265,0.052372884,0.08386512,-0.012337796,-0.12270972,0.09175649,0.07906513,-0.049488764,0.017111458,-0.058505602,0.08961016,0.07484767,0.08433594,0.062446646,-0.072698906,0.065567546,0.050744265,-0.06647078,0.046035323,-0.06681708,-0.013689058,-0.07295587,0.051701747,0.047686704,0.09074803,-0.025100973,-0.022550818,-0.06617497,-0.061738014,0.053505912,-0.047447886,0.06185095,0.03322246,-0.06237378,-0.023294488,-0.044813547,0.0021569952,-0.07536543,0.072309986,-0.06555247,-0.07451779,0.063887104,-0.06494559,-0.03301933,-0.05213531,0.07396209,-0.054732896,0.051123284,0.09576974,0.074431576,-0.0753406,0.052235555,-0.064585246,-0.005772326,0.05916325,0.096691325,0.04524111,0.055437397,-0.06197395,-0.0015719933
PRNP,-0.05375642,-0.032051098,0.044004858,0.015468415,-0.007986382,0.030187424,0.01739191,0.016600281,-0.062370583,0.027744835,0.030473996,-0.030013897,0.013751004,-0.01348687,0.056410983,0.03127567,0.039743386,0.010864006,-0.029721145,0.0042745844,-0.008429959,-0.03279478,0.019252323,-0.016227242,-0.0035436377,-0.039644703,0.0051984265,-0.0108306,0.026891422,-0.03275989,0.0031763054,-0.016060751,-0.020462014,0.019039713,-0.023347115,0.033312734,-0.012367383,-0.014283244,-0.013384549,-0.03260821,-0.0045131072,-0.055205893,0.04390949,-0.033187743,-0.04466822,0.024283605,-0.028750591,0.015762527,-0.0005131066,0.029016383,-0.012808118,0.018955272,0.042794578,0.027374081,-0.056430362,0.001283092,-0.024252187,-0.006821517,0.027263269,0.023265854,0.020073099,0.022501662,-0.053703044,0.021641983
FOXO1,-0.14278302,-0.3920524,0.24453773,0.23178987,-0.17066112,0.25081998,0.26429373,-0.09682581,-0.27198362,0.34668395,0.37619555,-0.3106335,0.17091508,-0.33805966,0.2498729,0.29025933,0.23327893,0.3038912,-0.34971923,0.2970753,0.1399132,-0.24028496,0.17092372,-0.1532954,0.03319437,-0.2696983,0.21079561,0.17167951,0.32980254,-0.06443272,-0.23475929,-0.24469061,-0.19250692,0.22429499,-0.26577726,0.17940152,0.13909078,-0.13554226,-0.22949287,-0.119706675,-0.07631398,-0.333406,0.38021755,-0.33779508,-0.25867847,0.2352798,-0.36247745,-0.112886176,-0.28119412,0.2555478,-0.23865728,0.2272752,0.19401146,0.26411843,-0.19342342,0.21518643,-0.17422515,-0.113952875,0.2542035,0.2995868,0.13780749,0.17405012,-0.08935534,-0.05470965
CD9,0.051822636,0.067719534,-0.070702165,-0.09470029,0.067728475,-0.089580715,-0.106602706,0.06181027,0.08427803,-0.08857173,-0.07902087,0.06942796,-0.026751494,0.1201348,-0.05452972,-0.11148277,-0.10704807,-0.10827666,0.093842715,-0.116182685,-0.06888282,0.07130885,-0.08439469,0.08266606,0.03693241,0.0934696,-0.095924884,-0.04709177,-0.11438091,-0.010659367,0.10719016,0.071363196,0.0839392,-0.06903921,0.03342214,-0.05434914,-0.05936448,0.07016498,0.065788455,0.06455146,-0.033169635,0.08549279,-0.07645794,0.13541546,0.10832094,-0.10899326,0.0764275,0.08802627,0.08154821,-0.103378475,0.11418584,-0.08941936,-0.07351449,-0.10612349,0.061691515,-0.072804,0.027524473,0.035429236,-0.08087977,-0.101256765,-0.045576587,-0.05008962,0.021555163,0.044413947
CSF3R,-0.08768521,-0.13019933,0.15250617,0.090770945,-0.11412229,0.12510021,0.16905062,-0.037803046,-0.1951126,0.17064585,0.14431635,-0.101725906,0.03938382,-0.13890956,0.1489628,0.14893374,0.16841102,0.131575,-0.14683011,0.14909351,0.098516636,-0.12341967,0.11940889,-0.123681605,-0.03771071,-0.15152356,0.14494985,0.08868268,0.1646312,-0.02452255,-0.087929145,-0.13122481,-0.14129624,0.12240116,-0.07826471,0.114519924,0.07006655,-0.11422556,-0.055666946,-0.10147316,0.011834629,-0.12417714,0.14205572,-0.14412905,-0.14547582,0.1346729,-0.113114946,-0.089533865,-0.11555831,0.14235856,-0.12818603,0.10186941,0.1611642,0.15342264,-0.13098721,0.111454144,-0.096406564,-0.019008417,0.12413959,0.18120316,0.097511925,0.09836337,-0.09662975,-0.03759999
SAT1,-0.03696241,-0.061379265,0.07706845,0.03885182,-0.064102665,0.055814445,0.08184851,-0.006870739,-0.11061615,0.08580127,0.07477595,-0.039542407,0.010310665,-0.054076537,0.081032604,0.06173095,0.08045155,0.05374883,-0.07046309,0.054964617,0.045021273,-0.062221617,0.05044287,-0.060633358,-0.015636967,-0.06338325,0.0597834,0.04703453,0.073075,-0.020300701,-0.016069662,-0.061381515,-0.06177993,0.052854765,-0.036870494,0.060352243,0.024004318,-0.052758962,-0.021280302,-0.045762204,-0.0006791726,-0.053016808,0.0684272,-0.05222651,-0.06563709,0.048362397,-0.052935556,-0.037648853,-0.055142514,0.062424496,-0.052873984,0.039926082,0.08378609,0.06982737,-0.06837015,0.04725421,-0.049043864,0.0017813481,0.053703405,0.089986265,0.050106127,0.04242456,-0.060268078,0.003867031
TRIM59,-0.04873079,-0.043008577,0.08169421,0.036239363,-0.058624275,0.05449866,0.06977556,-0.007471379,-0.11252307,0.08206044,0.057128374,-0.04407612,0.011621892,-0.047521636,0.07918508,0.06914887,0.07995108,0.049096055,-0.062424097,0.042920806,0.029596612,-0.05590366,0.04070772,-0.058059487,-0.018170755,-0.06720765,0.04713902,0.035029024,0.07221109,-0.024940781,-0.016579058,-0.05789617,-0.058028765,0.046406116,-0.034495942,0.052295577,0.020404376,-0.058476903,-0.021733118,-0.043321814,0.002271928,-0.06785407,0.06306377,-0.05886328,-0.06653592,0.056081727,-0.050668072,-0.024585646,-0.03664112,0.06617123,-0.043894783,0.03932454,0.07758655,0.062838525,-0.07548195,0.034852594,-0.057478413,-0.0014613979,0.052804712,0.07494975,0.03993359,0.050269272,-0.064727984,0.004099423
N4BP3,-0.067389175,-0.04812256,0.076750346,0.031134758,-0.032735664,0.054606467,0.056362115,0.0031567141,-0.095528826,0.058542687,0.05683103,-0.04776061,0.021035336,-0.043703422,0.080048025,0.06709267,0.07124683,0.044159144,-0.055167947,0.03508775,0.012953792,-0.052595302,0.040340666,-0.04540143,-0.013070434,-0.06603722,0.030581668,0.015041295,0.06899142,-0.030052489,-0.01602624,-0.044390567,-0.049460776,0.0414347,-0.035849705,0.054261312,0.0075201616,-0.046937056,-0.022919072,-0.053660057,0.0014969632,-0.07799104,0.06334101,-0.06328675,-0.06919686,0.06144604,-0.0544675,-0.009782631,-0.024895154,0.065074936,-0.038453996,0.04129094,0.07143744,0.05946112,-0.079210155,0.024637975,-0.05352878,-0.008313369,0.05176233,0.066169634,0.031006064,0.046124794,-0.06980097,0.0077801924
CTSW,0.04163101,0.0726964,-0.06579839,-0.089586794,0.078223184,-0.080674276,-0.118859746,0.050348528,0.07688525,-0.082662225,-0.09390585,0.061302807,-0.032978967,0.11153102,-0.044921838,-0.098725274,-0.09844876,-0.096719995,0.095483676,-0.118487254,-0.08189493,0.08482001,-0.08674599,0.09380796,0.030668594,0.085986145,-0.09367769,-0.059516612,-0.111277774,-0.010852942,0.08707074,0.058997158,0.079245664,-0.06516725,0.02626691,-0.047627322,-0.0776302,0.08359007,0.058909252,0.052644815,-0.036901504,0.056602918,-0.057954,0.1112182,0.10299082,-0.10938536,0.07135456,0.10368703,0.10212897,-0.09738824,0.09773098,-0.08235114,-0.0695975,-0.089432,0.051979847,-0.08392968,0.039744608,0.019575838,-0.08333207,-0.118892334,-0.045724496,-0.046193235,0.008138709,0.049566984
C130089K02RIK,0.006894592,0.026374944,-0.0038964972,-0.034824923,0.026172072,-0.019855209,-0.04075607,0.033840843,0.0031749867,-0.024093818,-0.025669087,0.018361319,-0.01643985,0.04660816,0.009955805,-0.03542014,-0.036542006,-0.042058602,0.029643748,-0.060207546,-0.0442118,0.027818447,-0.031676244,0.028802909,0.010675393,0.024886206,-0.034740977,-0.018827323,-0.03362681,-0.019626273,0.057422943,0.009861223,0.02393779,-0.01503139,0.0062216483,-0.013426222,-0.040090457,0.018641217,0.028877625,0.011159588,-0.022906803,0.010825808,-0.015108582,0.044615377,0.037690468,-0.03519618,0.02308805,0.046986453,0.049336467,-0.028173208,0.04453077,-0.03176596,-0.0241673,-0.03690347,0.00077641755,-0.03779424,-0.0037446972,0.016167399,-0.022747643,-0.04208642,-0.009864984,-0.013670124,-0.022465643,0.030998303
ME2,0.101088494,0.13264689,-0.13373895,-0.15629756,0.12728676,-0.15184708,-0.19478634,0.07070291,0.17089625,-0.14966407,-0.15943469,0.12415311,-0.05839645,0.18946205,-0.11250631,-0.18386126,-0.19344303,-0.16990682,0.1690209,-0.20054907,-0.11533145,0.15653498,-0.15064743,0.16313219,0.059545457,0.16439876,-0.15933585,-0.081542715,-0.2037886,-0.007885348,0.14600372,0.11243729,0.1394747,-0.11576085,0.058432724,-0.11073898,-0.098513365,0.13952297,0.10737493,0.11923821,-0.06179785,0.13580936,-0.13292085,0.21625023,0.19576834,-0.20038247,0.14014156,0.15081249,0.1471303,-0.18409042,0.18332426,-0.15715289,-0.14480808,-0.17271663,0.13511258,-0.1316661,0.073167965,0.04416493,-0.1539318,-0.1957296,-0.093378544,-0.090644784,0.063428186,0.06462322
KLHL4,-0.04822044,-0.022253256,0.05034004,0.012619343,-0.018137239,0.035821114,0.022107372,0.01222761,-0.07104358,0.031299435,0.027923401,-0.025097866,0.008252118,-0.013755888,0.0559719,0.03654081,0.041828226,0.015714807,-0.027414486,0.0034218766,-0.0069135725,-0.027352044,0.018451352,-0.025144998,-0.013797831,-0.037137,0.0148899555,-0.0020942576,0.030575827,-0.02737716,0.0020915233,-0.025796276,-0.032005858,0.023297794,-0.016183779,0.036395945,-0.012185194,-0.021468941,-0.006023288,-0.04279442,-0.0052861944,-0.0430607,0.044313055,-0.033012,-0.04004373,0.03464393,-0.03435297,0.01034103,0.0032786354,0.03077276,-0.01116243,0.021824278,0.041957617,0.03442375,-0.059001006,0.0012539825,-0.030957278,0.0008808039,0.028738558,0.023847077,0.021366822,0.02775877,-0.0683403,0.020609781
CD69,-0.03656997,-0.017895814,0.055826873,0.0077916756,-0.012981452,0.024594605,0.02898892,0.008780625,-0.0641415,0.038328983,0.026032783,-0.030136567,0.0058849007,-0.013770632,0.054590475,0.0314141,0.032622293,0.011131497,-0.023445003,0.00039810315,-0.0053732246,-0.023808578,0.009544518,-0.019798465,-0.0004307516,-0.035118982,0.010226414,0.0041204244,0.029672984,-0.02985888,0.007069204,-0.026674762,-0.024218993,0.026524238,-0.015871333,0.017685693,-0.0042711906,-0.022936251,-0.0020725876,-0.027540458,-0.010524221,-0.052949466,0.0346231,-0.023773264,-0.037122123,0.026604367,-0.016748548,0.009607654,0.0013487712,0.030054849,-0.0060091987,0.0133930575,0.030004803,0.022813775,-0.04441431,0.0017049923,-0.03912812,5.1353127e-05,0.024699654,0.032204695,0.016515546,0.025265448,-0.04811191,0.015227649
