,0,1,2,3,4,5,6,7,8,9,10,11,12,13,14,15,16,17,18,19,20,21,22,23,24,25,26,27,28,29,30,31,32,33,34,35,36,37,38,39,40,41,42,43,44,45,46,47,48,49,50,51,52,53,54,55,56,57,58,59,60,61,62,63
NAV1,0.002433017,0.05821894,-0.06365317,-0.06017328,-0.05723825,0.035175238,0.07083581,0.058952264,0.053876616,-0.02565414,0.048465796,-0.08023007,-0.022495665,-0.049831882,0.06686016,-0.05101864,0.051346038,-0.03615296,-0.054765277,0.04592442,-0.06555481,0.0719777,-0.009969749,-0.062101945,-0.045550197,0.06613125,0.037458252,0.026740573,0.054549605,-0.0015324112,0.06896645,-0.053679798,0.004685411,0.039193336,-0.053549845,0.043322958,-0.028194316,-0.04471807,0.028993793,-0.043272726,-0.049962293,-0.0019665733,-0.03508949,-0.028435096,-0.08546781,-0.06744294,-0.05582293,-0.08448997,0.036174797,-0.065491244,0.040563624,-0.05063152,0.065656684,0.058621526,-0.024754865,-0.00862658,0.043124165,0.050635528,-0.018188639,-0.05603863,0.08703829,0.06006592,-0.07092629,0.005644708
CD63,0.015407413,0.088301204,-0.10847174,-0.08974988,-0.10585296,0.067886494,0.10256046,0.10247128,0.0969791,-0.069696546,0.094409734,-0.11448394,-0.027633846,-0.08660041,0.10333529,-0.12866789,0.0966236,-0.062514395,-0.10510245,0.052505743,-0.14475189,0.1211928,-0.0066773696,-0.10870446,-0.07938803,0.102979824,0.055689212,0.081959,0.06668729,0.04761829,0.0984033,-0.06597572,0.022014378,0.060217466,-0.09269874,0.059001595,-0.052314676,-0.08407985,0.0569432,-0.069571875,-0.08842921,0.00026623905,-0.05463923,-0.047454145,-0.12619644,-0.116676584,-0.07909762,-0.13431482,0.03263107,-0.103413254,0.071700364,-0.09906201,0.1030407,0.0943272,-0.029695278,-0.004474167,0.061639126,0.08998323,-0.039560977,-0.11915182,0.16139947,0.12603222,-0.14514267,0.017819274
APP,-0.048389107,-0.05424133,0.08944044,0.06394982,0.11671387,-0.068757266,-0.06271187,-0.07824586,-0.05796302,0.06967428,-0.04250291,0.081538394,0.032579068,0.08892141,-0.04603911,0.0799312,-0.093256265,0.06953671,0.07258061,-0.019136235,0.11777525,-0.088448085,0.047658302,0.08777413,0.074902,-0.10615878,-0.030373534,-0.12651224,-0.06090083,-0.015774999,-0.09726773,0.011705738,-0.0038147997,-0.04660187,0.048978046,-0.046288125,0.042184763,0.08268905,-0.06307757,0.06047334,0.06745036,0.0031927489,0.0664774,0.049526356,0.06484648,0.07847959,0.05920597,0.050613422,-0.03224072,0.0817902,-0.059780233,0.09004712,-0.06303115,-0.056102734,0.053569037,0.013366669,-0.061712243,-0.072332606,0.07182228,0.09139549,-0.08541203,-0.08718932,0.12899002,-0.0295915
DEPP1,0.002046166,0.06312613,-0.052424174,-0.05345566,-0.039815262,0.021561187,0.054076217,0.05176597,0.040636104,-0.021361437,0.027962781,-0.07738853,-0.040768288,-0.036207736,0.05450511,-0.028963633,0.050608475,-0.03292633,-0.039014325,0.04830596,-0.03895648,0.058186717,0.001010811,-0.048542082,-0.03860005,0.053529367,0.042583138,0.025723793,0.052305035,-0.01757916,0.052879773,-0.060280457,-0.00022143032,0.027729094,-0.042186577,0.043952428,-0.01972607,-0.041390717,0.024669446,-0.02773323,-0.03712364,-0.0047221296,-0.028921176,-0.027579619,-0.07929139,-0.05978184,-0.043522038,-0.06959616,0.043277778,-0.052972484,0.034659147,-0.041119363,0.053381227,0.060976353,-0.032498203,-0.0063262098,0.04465444,0.040863182,-0.024216255,-0.035128407,0.064774655,0.03742968,-0.05044932,0.001393103
UBA7,-0.072453916,-0.0998767,0.15098499,0.10499167,0.14485753,-0.07333228,-0.09892516,-0.117594615,-0.08497874,0.09943217,-0.031174198,0.13280857,0.10928342,0.12684977,-0.06423518,0.09956925,-0.18320554,0.07573632,0.09492046,-0.040718935,0.14384326,-0.13148579,0.070599675,0.1369047,0.12764466,-0.17005251,-0.04969325,-0.20899019,-0.11835752,-0.0018695556,-0.13754974,0.056822244,0.012411324,-0.07230269,0.066507906,-0.10444285,0.04887127,0.12336387,-0.09548448,0.07377571,0.09135644,-0.002196204,0.09321305,0.08392442,0.115853,0.12316221,0.08481543,0.0906508,-0.076716095,0.12027648,-0.10619577,0.15336917,-0.08965735,-0.10115574,0.1117216,0.02655497,-0.09900485,-0.10398238,0.13444775,0.10936969,-0.10230004,-0.12550807,0.16905546,-0.072713755
GP9,0.02208757,0.09218244,-0.09524728,-0.081282906,-0.088463604,0.055710237,0.093921185,0.102129236,0.06913654,-0.05692498,0.054798484,-0.11804751,-0.045543686,-0.066890836,0.087368816,-0.09284931,0.08818863,-0.0634203,-0.083697654,0.066934556,-0.09288944,0.1034427,-0.011363275,-0.10248919,-0.076709814,0.09757885,0.059752584,0.07486526,0.08673115,0.008486783,0.08829384,-0.07859998,0.014979331,0.06441814,-0.08729065,0.06816978,-0.04956402,-0.08196369,0.05631607,-0.058633998,-0.07166817,-0.002822645,-0.06689133,-0.06176399,-0.12520958,-0.099704504,-0.081198454,-0.11232874,0.05281602,-0.09234291,0.06168149,-0.08314353,0.09679877,0.10387102,-0.05998691,-0.009908266,0.059190664,0.0746154,-0.045996785,-0.08014666,0.1243019,0.093013,-0.13537815,0.035263583
MTUS1,-0.003017895,0.039245434,-0.030411895,-0.027426437,-0.005704686,-0.0029629283,0.029432477,0.030680722,0.017530402,-0.01033904,0.010389004,-0.047216456,-0.038008448,-0.013903692,0.037462734,-0.0073570684,0.03807542,-0.011433877,-0.016643584,0.031183392,-0.02159135,0.030973576,0.008925006,-0.022318885,-0.025285188,0.032168098,0.026319342,0.011659078,0.03002698,-0.008605489,0.021858819,-0.048733637,-0.0043986887,0.01543951,-0.023587938,0.034550786,-0.0075770114,-0.013321899,0.009190604,-0.011028498,-0.016272597,-0.0019322857,-0.0090556415,-0.016324814,-0.051453,-0.043850552,-0.02213977,-0.05527142,0.023711242,-0.026969217,0.02701218,-0.026655901,0.03310501,0.04324864,-0.015009796,-0.0003547594,0.023658711,0.022611983,-0.008960714,-0.015727988,0.036239453,0.019544896,-0.016266048,0.00016983505
RAG2,0.73725635,0.15291731,-0.13818693,0.51892745,-0.0005926043,-0.21183984,-0.12391473,-0.14363211,-0.40741077,-0.043858822,-0.4834367,0.071915254,-0.7697376,-0.17523952,-0.52071655,0.12877408,0.9393845,0.322272,0.22866495,-0.54230684,-0.13434316,-0.034932014,-0.29601073,-0.05258122,-0.64531887,0.1358829,-0.28734326,0.9718292,0.2138102,0.46488833,0.37642464,0.17270891,-0.38197285,-0.18860862,0.1407963,0.65148705,0.09890389,-0.043161303,-0.2686724,0.52285916,0.037035733,0.16728868,-0.12061784,-0.40696138,-0.15419811,-0.11981067,-0.11886835,0.13597873,-0.41744757,0.062451217,0.65955544,-0.73601663,-0.06721393,-0.000918448,-0.56110454,0.44114974,-0.1013308,-0.23898101,-0.51903296,-0.07759003,-0.43160835,0.07557036,0.08512299,0.32986322
SSH2,-0.058369298,-0.10866839,0.15027553,0.10618201,0.13293427,-0.070989326,-0.0959184,-0.1272826,-0.08202503,0.09954524,-0.046970285,0.13953929,0.09851623,0.11467784,-0.06897661,0.10734941,-0.15770996,0.07451701,0.09253759,-0.035106815,0.14170744,-0.11997598,0.06358129,0.1334069,0.11825475,-0.1697331,-0.048177987,-0.1881243,-0.110308535,-0.02096051,-0.1340751,0.0647077,0.0051972326,-0.072138764,0.06932355,-0.102028444,0.051455095,0.116440475,-0.09335991,0.06273687,0.104736805,-0.004325725,0.09341811,0.079673216,0.12555037,0.12459506,0.0804884,0.080384165,-0.06685291,0.11651763,-0.11326825,0.1397413,-0.10337462,-0.10191311,0.102504306,0.020674067,-0.09682216,-0.09957332,0.12142119,0.11018165,-0.112551734,-0.13225529,0.17500377,-0.06318645
GM45837,0.08346723,0.20240691,-0.25403976,-0.21453223,-0.28981176,0.18368676,0.23901603,0.23260386,0.20413643,-0.19263412,0.13900955,-0.2544865,-0.07032777,-0.21399875,0.21739592,-0.27212518,0.22374724,-0.21622118,-0.23253107,0.13054666,-0.26877356,0.25174558,-0.052773513,-0.27251276,-0.17656636,0.29090154,0.17659985,0.23065382,0.21317841,0.054383833,0.20284602,-0.15061925,0.07576539,0.18897602,-0.21176544,0.09634373,-0.15068015,-0.24538682,0.18322727,-0.21623597,-0.19987957,-0.041574787,-0.15160468,-0.15510371,-0.27364275,-0.22238775,-0.21368235,-0.23294836,0.10310363,-0.23436598,0.17027017,-0.2030226,0.25576004,0.21025194,-0.15941401,-0.06031446,0.18834929,0.223712,-0.16995242,-0.22932711,0.3216574,0.2518269,-0.36495182,0.059304982
CD69,-0.059539035,-0.07636696,0.092339545,0.04779092,0.08274564,-0.04504366,-0.050768904,-0.08088368,-0.03946983,0.0692479,-0.026737,0.08391467,0.075371295,0.06030042,-0.02179582,0.07600708,-0.10132177,0.054295108,0.053103194,-0.0033098161,0.08837785,-0.066129096,0.040685043,0.06451638,0.07572459,-0.09992911,-0.023753973,-0.13999835,-0.064844005,-0.046851676,-0.06473119,0.022408586,0.0023016464,-0.042633973,0.039426714,-0.055449903,0.04291098,0.06529224,-0.06548216,0.03347869,0.056205533,0.0017037056,0.053157028,0.070617005,0.059660096,0.06672155,0.035434023,0.040542606,-0.021594703,0.06903601,-0.08369558,0.08362654,-0.06895453,-0.05771255,0.07214761,-0.0031887144,-0.060703635,-0.063798025,0.085936055,0.06986191,-0.058531247,-0.07837556,0.11282475,-0.044941016
HSD3B7,-0.0118194185,-0.0075537935,0.01457224,0.01551269,0.013583403,3.7409365e-05,0.0005450588,-0.012453556,0.0013404433,0.010983912,0.016536541,0.010283738,0.028840091,0.013286371,0.016934525,-0.0034713447,-0.025152642,0.014324486,-0.017333169,0.0042150468,-0.011920005,-0.011862338,0.02455374,0.021303385,0.017552443,-0.024954569,0.006419877,-0.052027177,-0.025013044,0.0090853525,-0.008801196,-0.006368432,0.005261371,-0.008489877,-0.003673668,-0.02032303,0.0023068357,0.023993894,-0.033060193,-0.00066845864,0.0048925397,-0.002243828,0.026862226,0.014354939,-0.0056853895,-0.0013515353,0.0027265474,-0.03068779,-0.015405282,0.008614678,-0.009731703,0.015343117,0.0061080977,-0.011907112,0.03836005,0.014334537,-0.012228958,-0.009713187,0.04042145,-0.013946764,0.024674911,-0.0040839724,0.025142513,-0.020169552
CBFB,0.1901097,0.025598638,0.071729824,0.32965264,0.08579452,-0.15666321,-0.14744176,-0.15841748,-0.19566649,0.098590285,-0.2264689,0.12117477,-0.2706048,0.017800719,-0.3434916,0.112719014,0.30155438,0.254597,0.1756247,-0.26568395,0.1315525,-0.14433001,-0.09203831,0.09405163,-0.20690094,-0.067573704,-0.27936098,0.31058502,0.0063683214,0.17110558,0.066041544,0.072747484,-0.19533126,-0.13261938,0.07473639,0.2865007,0.06594292,0.09580045,-0.17905885,0.33220565,0.075147845,0.17561573,-0.035930645,-0.13421625,0.066375814,0.1280711,0.060256228,0.14640832,-0.19764945,0.108443946,0.20933443,-0.17313138,-0.11568055,-0.06888737,-0.15980078,0.15264276,-0.15266983,-0.17887111,-0.1722772,0.11027277,-0.334008,-0.06890933,0.15719453,0.07064559
JAM2,0.012006275,0.071340755,-0.06763838,-0.05793675,-0.045993634,0.02656991,0.05877209,0.06591035,0.042338602,-0.03249056,0.030649222,-0.08771936,-0.05486672,-0.039261237,0.062213495,-0.041465603,0.06446092,-0.04012482,-0.048287764,0.047167458,-0.054591894,0.0632241,-0.0020430954,-0.05740474,-0.050013453,0.06904553,0.045015447,0.04834459,0.061635695,-0.006368126,0.057587758,-0.066173434,0.002412174,0.040107425,-0.051671274,0.047447026,-0.02684273,-0.048951566,0.03485313,-0.033604257,-0.047777183,-0.006737478,-0.03272091,-0.039008267,-0.091057226,-0.06835261,-0.049779106,-0.07739197,0.043954,-0.060152512,0.04830955,-0.056112107,0.06668075,0.07302967,-0.039814018,-0.0028931163,0.052131835,0.051220957,-0.031632286,-0.046890274,0.07610876,0.053200047,-0.06689982,0.011586162
RGS2,-0.112845995,-0.22852424,0.3370635,0.23624575,0.3128321,-0.16812094,-0.22420771,-0.2767249,-0.17939594,0.20346154,-0.13214025,0.30402923,0.17608204,0.25539187,-0.19578998,0.24384353,-0.30226955,0.16709414,0.24895322,-0.09774305,0.32997745,-0.28452325,0.119409665,0.28619355,0.24350153,-0.34677392,-0.117369175,-0.3580099,-0.21359502,-0.03612738,-0.30759636,0.14737025,0.0010736492,-0.1539337,0.17422895,-0.21432504,0.10564888,0.23445265,-0.18842626,0.17358798,0.22634633,-0.016232878,0.18177843,0.15838364,0.28923565,0.28128615,0.19969565,0.23088047,-0.14235623,0.2642033,-0.2258317,0.29766384,-0.2489694,-0.22993205,0.18734595,0.038934775,-0.2054371,-0.2334917,0.20581159,0.25151518,-0.2893331,-0.28602538,0.38215724,-0.09019766
E430014B02RIK,0.1264405,0.22482799,-0.27841282,-0.23726153,-0.3205132,0.19464971,0.24862854,0.2461277,0.2098815,-0.20829672,0.14890604,-0.27734226,-0.110891744,-0.22864835,0.21041232,-0.27917415,0.26183933,-0.23603332,-0.2548213,0.11698939,-0.28780067,0.2662245,-0.0683345,-0.27923656,-0.20866053,0.31499058,0.18788008,0.28683916,0.24707393,0.067067936,0.23282492,-0.14544839,0.06569104,0.19507332,-0.21820334,0.10500944,-0.15745364,-0.27388632,0.19533414,-0.22590244,-0.21713424,-0.058638126,-0.15374497,-0.18417346,-0.29444948,-0.24890594,-0.22463849,-0.25046033,0.089897156,-0.2489077,0.19231468,-0.22357468,0.27667302,0.23011626,-0.19314937,-0.048966996,0.21851248,0.25243708,-0.2054781,-0.23343164,0.33657157,0.2659895,-0.3801649,0.057687
PDE1B,0.026763953,0.103295475,-0.108310014,-0.097367205,-0.09862828,0.059476394,0.097747475,0.10721946,0.0799709,-0.066231966,0.062434666,-0.13151357,-0.06253476,-0.07661851,0.101671085,-0.08765722,0.1007458,-0.07613591,-0.08649877,0.06934099,-0.103511944,0.108959585,-0.012732247,-0.10617679,-0.07794705,0.11790089,0.07107156,0.087937005,0.09692398,0.004886997,0.09306123,-0.08613454,0.013777003,0.07240298,-0.08190884,0.06406493,-0.05704902,-0.09107718,0.06767707,-0.0737432,-0.08281511,-0.013304938,-0.059093185,-0.06193706,-0.13367069,-0.107074335,-0.08334748,-0.11209953,0.06048389,-0.10389872,0.07765786,-0.08635746,0.10857799,0.10745691,-0.06997741,-0.012884874,0.08679807,0.09188185,-0.056063116,-0.0885836,0.12753075,0.093609914,-0.13113162,0.01994709
5430427O19RIK,-0.01640274,0.023189262,-0.020832244,-0.03583865,-0.01939559,0.011849832,0.03342676,0.018123338,0.026706578,-0.0059146937,0.029670827,-0.035489906,-0.0033411002,-0.018401153,0.049783893,-0.02616702,0.015989933,-0.0134269,-0.024110265,0.029928032,-0.020993218,0.030611936,0.010890929,-0.025562555,-0.009568617,0.020784102,0.020736827,-0.013137847,0.021935947,-0.016419778,0.027286246,-0.03470523,0.00072719157,0.01849968,-0.027037159,0.019046927,-0.0035030227,-0.017824702,0.005418524,-0.022105992,-0.016506124,-0.0026918203,-0.006851174,8.6510554e-05,-0.04722921,-0.03269388,-0.028696703,-0.055427954,0.02719067,-0.026038092,0.0018998412,-0.019022446,0.030066691,0.030058254,0.0014380533,-0.011059634,0.013845194,0.022827417,0.011338839,-0.023523819,0.047821213,0.016649,-0.01626791,-0.012110867
PTGS1,-0.020217039,-0.009979337,0.02954527,0.019463733,0.037242215,-0.02292804,-0.013682727,-0.019117054,-0.015247808,0.02103578,0.0007321723,0.020099483,0.012835889,0.026018452,0.004364673,0.02220894,-0.03104512,0.019176375,0.008626068,0.0052016154,0.02173274,-0.022967875,0.03424169,0.029171742,0.020710021,-0.035841875,-0.0073306873,-0.062895454,-0.029545061,-0.006338984,-0.022048758,-0.012824263,-0.0020892601,-0.02305223,0.007958463,-0.007943964,0.011044422,0.032686293,-0.036233835,0.017228,0.01867579,0.0022451095,0.029100377,0.020299997,0.0016250485,0.005833186,0.010168463,-0.012008311,-0.01126042,0.0281595,-0.015058531,0.01980986,-0.0088894665,-0.004854694,0.029372767,0.008392867,-0.020654451,-0.022068985,0.042790756,0.013126593,-0.0023210105,-0.02134626,0.043313477,-0.02752116
MYCN,-0.027103908,-0.014090836,0.026033532,0.01619459,0.03390392,-0.013792317,-0.01131311,-0.018415648,-0.008537321,0.02335637,0.0130948,0.015678704,0.030129123,0.01999034,0.011072932,0.015120089,-0.04265241,0.023760136,0.00142527,0.002359651,0.006500598,-0.020437531,0.028449817,0.028456688,0.020516172,-0.038853135,-0.004690015,-0.071870625,-0.034228403,0.0029287515,-0.018184463,-0.0052863397,0.0020716805,-0.017510884,0.00088441465,-0.015009141,0.009693548,0.034607917,-0.040542517,0.015556615,0.016686626,0.0028862916,0.029113788,0.026034392,0.0021546339,0.0024620667,0.009449575,-0.014046941,-0.016237706,0.02102739,-0.019380357,0.023883412,-0.0074042007,-0.011454489,0.045013987,0.010546401,-0.021281384,-0.023136415,0.05318248,0.0058939233,0.012807367,-0.0146262385,0.034782276,-0.03191785
ZFP612,0.027271047,0.10088092,-0.10342379,-0.09203821,-0.09185721,0.05578306,0.094532505,0.10147259,0.07314844,-0.059046935,0.055286244,-0.1264715,-0.06211393,-0.068443105,0.0916788,-0.07484109,0.09543556,-0.07105666,-0.08339052,0.064644106,-0.092671245,0.102143124,-0.01424087,-0.09855434,-0.07346913,0.10978143,0.0685385,0.081815295,0.09241744,-0.0014184974,0.09066814,-0.083355196,0.013144089,0.06444972,-0.078985535,0.060493603,-0.05309271,-0.087120816,0.061883144,-0.06673878,-0.08131916,-0.012239397,-0.056830797,-0.062626645,-0.12868512,-0.1010745,-0.08081333,-0.10402283,0.056838304,-0.09941025,0.07612647,-0.079350814,0.10315072,0.100155205,-0.06736813,-0.008628361,0.08280948,0.084881976,-0.058045335,-0.079133034,0.11809835,0.08756535,-0.12193609,0.017335698
NUPR1,-0.021072956,-0.06166981,0.12032463,0.12184419,0.1818271,-0.11951642,-0.10184631,-0.124182165,-0.111018986,0.10419223,-0.1193355,0.12610357,0.0041625286,0.11608534,-0.10631032,0.13853501,-0.07720893,0.11727118,0.14476676,-0.06478962,0.16667438,-0.13250774,0.040469408,0.1356655,0.07079728,-0.15299718,-0.057849824,-0.111326836,-0.07322262,0.013497241,-0.13748229,0.0447678,-0.029759644,-0.082422934,0.09049194,-0.032984264,0.06068351,0.13838194,-0.109729424,0.13230324,0.09826183,0.010010079,0.08477959,0.04110266,0.11060026,0.123589575,0.08371126,0.09059776,-0.06542261,0.12409045,-0.054996785,0.08706678,-0.121508576,-0.08373214,0.042704508,0.04283416,-0.11134082,-0.11708792,0.058411907,0.13578543,-0.17300798,-0.13425493,0.19969186,-0.007569204
DACH1,0.01597261,0.08760962,-0.0959754,-0.08365404,-0.08345337,0.049685124,0.08914039,0.09192069,0.075456284,-0.055513937,0.061677262,-0.11461036,-0.051211376,-0.07062557,0.088812634,-0.085157074,0.093269885,-0.05602824,-0.079968765,0.060881294,-0.09451549,0.09889607,-0.011015989,-0.09076649,-0.06994346,0.10465132,0.058246955,0.07584455,0.08553443,0.008913128,0.082011215,-0.07600973,0.0065346267,0.06142351,-0.073401965,0.0618305,-0.04166641,-0.074565694,0.054372706,-0.060845725,-0.06656322,-0.007787738,-0.050252263,-0.04857344,-0.1187235,-0.10037981,-0.06720036,-0.10814445,0.052294165,-0.08627711,0.063784555,-0.08306678,0.089911886,0.09575951,-0.052182928,-0.014240526,0.067846864,0.07418246,-0.044534206,-0.08289274,0.11941732,0.08183901,-0.1097951,0.014447038
MSMO1,-0.024763875,-0.052150965,0.06870432,0.05617342,0.07362361,-0.0364819,-0.042090658,-0.063306525,-0.048187196,0.059125952,-0.009198321,0.06844806,0.053772256,0.060667336,-0.028925385,0.0543278,-0.084725276,0.04776434,0.029010996,-0.023788065,0.061545078,-0.06572984,0.039441474,0.0707759,0.050827116,-0.08913425,-0.037070353,-0.109303825,-0.06506842,-0.0018506125,-0.058303267,0.025593247,-0.0017874148,-0.03951139,0.025039822,-0.04004439,0.03277854,0.07282226,-0.06828925,0.035854787,0.05200207,0.008688312,0.049812604,0.040175363,0.050469417,0.0537749,0.03448827,0.025344912,-0.042600438,0.06679061,-0.045419917,0.06609,-0.043955456,-0.05026925,0.06040085,0.01935985,-0.05494381,-0.059947804,0.07750574,0.048187487,-0.041483007,-0.05966749,0.09396449,-0.036363333
TIE1,0.04222416,0.15594703,-0.17141964,-0.15774944,-0.17995766,0.10967465,0.16489427,0.17289667,0.14341374,-0.13184388,0.103194624,-0.1889428,-0.066417575,-0.140588,0.1607975,-0.1838015,0.15843582,-0.13091981,-0.15414205,0.096954376,-0.18559854,0.18000247,-0.027168421,-0.1870609,-0.12027639,0.19117008,0.10763452,0.1490562,0.14733079,0.036623366,0.14066854,-0.12220226,0.036900125,0.12204917,-0.13382308,0.09132984,-0.10175688,-0.15341504,0.1213999,-0.1361967,-0.12828313,-0.025764108,-0.09972742,-0.10053759,-0.18956076,-0.17166369,-0.13433565,-0.17121175,0.07831822,-0.15755875,0.11713864,-0.14805415,0.1688351,0.15859593,-0.10579369,-0.038504243,0.11663294,0.1465596,-0.09833607,-0.15995555,0.2289006,0.17346705,-0.2476134,0.04896219
ARHGAP15,-0.038356118,-0.11459172,0.14251256,0.10815993,0.1147003,-0.056498002,-0.08906554,-0.12698628,-0.07992634,0.09110661,-0.029091015,0.1396782,0.10615078,0.10913964,-0.06909545,0.105152875,-0.15234037,0.06747754,0.07579304,-0.040773965,0.123318136,-0.11061707,0.06168653,0.1269481,0.1125422,-0.1607651,-0.04944519,-0.18076798,-0.10703799,-0.030194249,-0.115079604,0.07196291,0.004902249,-0.07428188,0.070837304,-0.1032038,0.045292966,0.10751078,-0.09777474,0.055996567,0.098438755,0.001955133,0.092073694,0.07713228,0.11914537,0.11690393,0.07006432,0.07989173,-0.07401651,0.11237517,-0.10728063,0.12584727,-0.103359535,-0.10445614,0.1022939,0.020095509,-0.09493142,-0.1011138,0.118155845,0.088953994,-0.10104115,-0.1206526,0.16469869,-0.06560561
WFDC17,-0.017335042,0.056435347,-0.070362374,-0.0929713,-0.101232946,0.07002689,0.09807026,0.06253251,0.09216764,-0.04161491,0.093096286,-0.094307095,0.018273473,-0.08528684,0.108168855,-0.10495726,0.04756924,-0.06416487,-0.0719738,0.05495887,-0.09807043,0.10500333,-0.009268787,-0.09155609,-0.033845466,0.077868566,0.05140048,0.0045586303,0.06207996,0.0028444678,0.09086439,-0.047914892,0.016074045,0.06343973,-0.08011095,0.032618172,-0.034237675,-0.07151373,0.04852108,-0.08635222,-0.06979532,-0.008227006,-0.050569925,-0.013043829,-0.094950415,-0.084124014,-0.07966407,-0.106392875,0.036843717,-0.096711844,0.022425432,-0.058167923,0.0965795,0.05189839,-3.8979575e-05,-0.029493496,0.05790482,0.06894668,-0.0042610094,-0.09083738,0.1356052,0.08602573,-0.10496432,-0.016797986
FADS1,-0.055103242,-0.06385057,0.08980721,0.06276138,0.09713627,-0.057764243,-0.059962634,-0.06862511,-0.050664276,0.06930961,-0.021000244,0.078979164,0.060129438,0.08442051,-0.03192957,0.06411933,-0.121679895,0.05267955,0.05684188,-0.016096339,0.10373643,-0.08356586,0.057389244,0.082286835,0.082644135,-0.109272495,-0.03225299,-0.14041331,-0.071179286,-0.013639081,-0.089582056,0.02000546,0.011080632,-0.0488377,0.037455738,-0.061969005,0.040667593,0.08137022,-0.054103576,0.04829458,0.062445335,0.002488982,0.05975632,0.057776324,0.06500957,0.078722805,0.059474163,0.04695556,-0.041816235,0.08089726,-0.06606833,0.099940866,-0.05718247,-0.0544373,0.07032736,0.008310765,-0.060582798,-0.067937486,0.086630225,0.077930555,-0.061269283,-0.07977693,0.118081175,-0.04024209
ICOS,-0.0081954375,0.047972754,-0.03383745,-0.03329996,-0.008465737,-0.00021735951,0.036151983,0.033392236,0.019975077,-0.008742537,0.007812958,-0.05550099,-0.03819622,-0.015005991,0.034551814,-0.0026159063,0.030739281,-0.009470254,-0.019473542,0.04001074,-0.016175218,0.03292542,0.003597415,-0.025195375,-0.021895662,0.029025927,0.03236015,0.006979756,0.035084777,-0.017344497,0.027957909,-0.0542405,-0.0031521674,0.01381243,-0.023267586,0.03259118,-0.0060758535,-0.016191408,0.011549532,-0.00582204,-0.019770464,-0.00073481724,-0.013321324,-0.014295817,-0.05608955,-0.03980154,-0.025782574,-0.050266743,0.03575651,-0.028283112,0.020400334,-0.02450101,0.033006288,0.04410106,-0.015264729,-0.0037435926,0.023316044,0.023422282,-0.011243201,-0.012535349,0.03608109,0.020501744,-0.021826051,0.00477927
PRDM16,0.05664403,0.15808761,-0.18263903,-0.16556084,-0.19279677,0.11837858,0.17612308,0.17828935,0.14397079,-0.13950934,0.10546478,-0.20255151,-0.06823043,-0.1473815,0.16676243,-0.19158244,0.17341024,-0.14586335,-0.16237658,0.10153129,-0.19849788,0.18395513,-0.0317505,-0.1989465,-0.12921473,0.20858122,0.12240434,0.16452214,0.15488258,0.035002533,0.15021917,-0.1202538,0.039836183,0.13253838,-0.14650342,0.08895111,-0.10460241,-0.17179672,0.12351235,-0.14482161,-0.1408679,-0.026578173,-0.107490405,-0.111793384,-0.20880905,-0.1779391,-0.14987855,-0.18245903,0.081949875,-0.1706816,0.12443125,-0.15521766,0.18586704,0.17054498,-0.11184039,-0.03144434,0.13082477,0.15611078,-0.11361154,-0.17157504,0.23616289,0.17855515,-0.26073638,0.051401176
TCAF1,0.02773353,0.10299167,-0.098725036,-0.08876366,-0.091082096,0.051926386,0.09516619,0.10160439,0.07314228,-0.064459816,0.046794385,-0.124661155,-0.068325534,-0.07243015,0.086958274,-0.07981301,0.10097817,-0.06865911,-0.08412351,0.064852476,-0.0935899,0.10130404,-0.014058774,-0.09989296,-0.07489281,0.10846275,0.066891186,0.086307175,0.09138959,0.0012208149,0.089547254,-0.085162774,0.012328999,0.06159564,-0.07920705,0.062219277,-0.051599592,-0.08865677,0.060129426,-0.06251756,-0.07802387,-0.013166081,-0.055535216,-0.06516119,-0.12850314,-0.101872936,-0.07796037,-0.10756679,0.05885166,-0.09549749,0.07486765,-0.083092675,0.10381626,0.1031522,-0.06580202,-0.008509412,0.0774703,0.081673175,-0.061466284,-0.07909869,0.119977005,0.08768514,-0.1266205,0.0261514
MPO,0.021976419,0.069882184,-0.103585884,-0.098426886,-0.12877181,0.079355165,0.118798606,0.08225249,0.097308815,-0.06768638,0.117465734,-0.10777416,-0.0018218337,-0.08600402,0.10950798,-0.12921384,0.07863886,-0.07629473,-0.11032167,0.040304262,-0.15066479,0.12744948,-0.015185276,-0.10485047,-0.07274789,0.10814071,0.05366665,0.06719177,0.07158359,0.028624125,0.11831268,-0.045553178,0.02346727,0.06457708,-0.09309624,0.04718256,-0.056494094,-0.08919211,0.05619479,-0.094704844,-0.08841568,-0.0038841516,-0.0523498,-0.044653445,-0.123076946,-0.11004056,-0.09564017,-0.129977,0.01651872,-0.10368198,0.063126355,-0.09513447,0.108168505,0.07546849,-0.028630575,-0.016909882,0.06678383,0.096126385,-0.02853381,-0.13142076,0.16094181,0.11581646,-0.14088404,-0.0007245196
CPXM1,-0.018628709,0.03197408,-0.020342302,-0.022744983,0.0044636056,-0.00198422,0.024947146,0.023352407,0.017880496,0.00010967255,0.01688879,-0.038057737,-0.016033284,-0.0008684397,0.034467537,-0.0066096783,0.00899794,0.0013344847,-0.011002906,0.035276946,0.0002693683,0.019350551,0.012241773,-0.016847946,-0.009388741,0.012389094,0.020085858,-0.018278085,0.020284265,-0.013451697,0.011735056,-0.04594358,0.0018561818,0.0120422095,-0.02183995,0.022426074,-0.0038797054,-0.006881103,0.0034939274,-0.006136462,-0.009270633,0.0022970717,-0.0073410496,-0.004939853,-0.04111313,-0.026482407,-0.015237527,-0.041907005,0.023521814,-0.018443812,0.0069575356,-0.006574407,0.026534103,0.03302179,-0.0017150361,-0.0012761578,0.011665214,0.010334109,0.007118037,-0.0037057549,0.032127988,0.012017313,-0.011709832,-0.004249122
PARVG,-0.03852825,-0.08382036,0.10778068,0.07820606,0.072303236,-0.025524568,-0.053433575,-0.090971306,-0.044721767,0.06802197,0.010210242,0.09320606,0.10046118,0.076516256,-0.0334271,0.067844324,-0.12387868,0.05110605,0.04744944,-0.01508563,0.07929918,-0.065736786,0.048100747,0.08467117,0.09081003,-0.12212436,-0.029138451,-0.15639499,-0.08120785,-0.027603045,-0.074873224,0.05250388,0.008157009,-0.049803086,0.050282992,-0.08241177,0.025396043,0.07913591,-0.07624142,0.028580442,0.06675131,0.0065451562,0.071096465,0.063971855,0.07798172,0.07686481,0.045755796,0.047615383,-0.05534645,0.072121575,-0.0825389,0.101007104,-0.065907694,-0.08112565,0.09117939,0.01717944,-0.06286255,-0.07263251,0.10213399,0.048557885,-0.052713938,-0.0901231,0.1113509,-0.06639975
GIMAP1OS,0.076618195,0.21531841,-0.27648062,-0.2561826,-0.30508578,0.19936559,0.26638392,0.25607976,0.23225191,-0.21728097,0.18265422,-0.2851541,-0.059896294,-0.22391863,0.2661351,-0.30546007,0.23304726,-0.23703131,-0.25818714,0.14471242,-0.2990269,0.2768098,-0.048882507,-0.29758105,-0.17444485,0.31768763,0.18569759,0.23770812,0.2276655,0.059415706,0.2181687,-0.16225776,0.074901305,0.21165296,-0.21842396,0.112543955,-0.1665149,-0.25681734,0.19744655,-0.25252688,-0.21219444,-0.050638452,-0.15710086,-0.15425259,-0.2917728,-0.25183615,-0.22921133,-0.25278008,0.10764753,-0.25453708,0.17222045,-0.21628724,0.27026302,0.22917123,-0.16533755,-0.06408396,0.19951627,0.24884917,-0.16194995,-0.26306388,0.35797337,0.27204236,-0.39240196,0.054530066
LSP1,-0.03014531,-0.083581656,0.11958654,0.09286838,0.085890636,-0.031649288,-0.069371805,-0.10162212,-0.054206572,0.067734286,0.008283205,0.107591346,0.11105558,0.093125686,-0.040737387,0.053539887,-0.14121617,0.04506006,0.059446704,-0.031533718,0.08755248,-0.09041633,0.062952496,0.10789584,0.10510914,-0.13516787,-0.030563137,-0.17025316,-0.09735429,-0.0044694915,-0.1004377,0.06412648,0.010257026,-0.050850503,0.052839264,-0.09922477,0.025378121,0.08969573,-0.08907144,0.035543956,0.07153788,-0.0022795126,0.08293371,0.06248731,0.08747954,0.09206329,0.05729679,0.053918507,-0.07257405,0.078128144,-0.08441703,0.11832096,-0.057274822,-0.09184168,0.102047496,0.028375361,-0.07029255,-0.08315929,0.113352984,0.04769113,-0.05599709,-0.1002399,0.12996486,-0.08051278
ANXA5,-0.08296257,-0.16152327,0.24408917,0.18155009,0.23960271,-0.13082041,-0.17154557,-0.1967762,-0.14646202,0.14984809,-0.09357831,0.23104675,0.13416383,0.19568203,-0.1364074,0.16495174,-0.24273756,0.11859451,0.16757947,-0.09376688,0.2312543,-0.22474597,0.10785049,0.22364414,0.18475036,-0.25787908,-0.08827616,-0.27974984,-0.17774367,-0.0014121905,-0.22936004,0.100036666,0.00023313425,-0.12227746,0.1297107,-0.15413496,0.07718713,0.18154027,-0.14687383,0.13080218,0.15486333,-0.00898423,0.15270787,0.11271501,0.20510137,0.20245714,0.1526702,0.16403957,-0.12879756,0.20609929,-0.15289408,0.21799839,-0.1705477,-0.17260371,0.14614572,0.039543312,-0.15282321,-0.17394815,0.16946553,0.17844382,-0.19719623,-0.19759944,0.28256512,-0.08015549
MAGED1,0.10475025,0.24645208,-0.32339048,-0.29534122,-0.36236706,0.22705272,0.3157056,0.30272737,0.26634103,-0.25613734,0.19947709,-0.32517475,-0.069638066,-0.27042842,0.30537903,-0.37072012,0.27463126,-0.28589323,-0.29815876,0.16660191,-0.35792506,0.3193367,-0.061000504,-0.35304338,-0.21489726,0.3728664,0.21841893,0.28658065,0.26660225,0.08209585,0.2497971,-0.18093278,0.08954572,0.25449815,-0.25089988,0.12183516,-0.19142199,-0.29675716,0.2335599,-0.29456356,-0.2502573,-0.06549248,-0.17940897,-0.191899,-0.3383587,-0.29048917,-0.26670364,-0.2992457,0.12225549,-0.28915465,0.20294413,-0.25979745,0.31621552,0.26445007,-0.19548605,-0.07839863,0.22789857,0.29109582,-0.1952586,-0.31408623,0.41676474,0.31695077,-0.4610675,0.083564535
TEAD2,0.035218827,0.12012009,-0.12838553,-0.11191689,-0.12121093,0.07436733,0.11962639,0.12391454,0.09706856,-0.08783986,0.07061474,-0.14898059,-0.0690159,-0.096854076,0.113803566,-0.11244037,0.12630606,-0.08963957,-0.10839747,0.072342426,-0.1277016,0.12777314,-0.018948503,-0.13126296,-0.09171313,0.14204621,0.08002661,0.11442257,0.112704046,0.012454893,0.10958787,-0.09655915,0.017963594,0.082219064,-0.09913125,0.07545636,-0.06618207,-0.113914296,0.07925556,-0.086193524,-0.09551841,-0.0126550235,-0.07366766,-0.07321048,-0.15354821,-0.12670304,-0.09778132,-0.12866618,0.06511587,-0.118674204,0.093905136,-0.10974829,0.12535393,0.12412958,-0.0799018,-0.016693175,0.094634816,0.10374037,-0.0777581,-0.1108993,0.15828338,0.12172502,-0.16722915,0.029485919
ZFP62,-0.08595944,-0.18708223,0.2574636,0.18468648,0.25551575,-0.1385307,-0.1776931,-0.21797046,-0.14838147,0.16437182,-0.10262874,0.24842174,0.12993927,0.20797409,-0.14856176,0.19137177,-0.2435191,0.14103264,0.18626986,-0.090712875,0.26225835,-0.226352,0.10097495,0.2283118,0.19276796,-0.27404976,-0.1004958,-0.2817972,-0.17449127,-0.026681669,-0.24025121,0.1125287,-0.0051575173,-0.11970609,0.13842653,-0.15895692,0.09143967,0.19755265,-0.15730324,0.13525607,0.17833841,-0.005714614,0.15263285,0.12607703,0.22744042,0.21834113,0.15918866,0.1815061,-0.12189682,0.22119217,-0.17142561,0.22476746,-0.19690439,-0.1813138,0.14328209,0.029821575,-0.16098355,-0.18401411,0.17234752,0.2059657,-0.22680642,-0.2188527,0.3076413,-0.07703111
CKS1B,-0.048798844,-0.18166038,0.25208223,0.18842052,0.22050765,-0.11950384,-0.1698976,-0.20683342,-0.14299308,0.15966444,-0.10228888,0.25085407,0.13991012,0.18554503,-0.15398827,0.17945555,-0.22499573,0.11773723,0.16664788,-0.09829664,0.2267149,-0.2048008,0.10128182,0.21489231,0.16904931,-0.26503474,-0.09678033,-0.26799992,-0.17030184,-0.02216946,-0.2124758,0.12056519,-0.010299625,-0.120770566,0.13086879,-0.16365182,0.07038737,0.17380783,-0.15327421,0.120056145,0.15909286,-0.0025600083,0.14813471,0.10551465,0.22039194,0.21370819,0.14599895,0.16664496,-0.12905627,0.20175372,-0.15572926,0.20879728,-0.18103224,-0.18633325,0.13026258,0.034672346,-0.154591,-0.186168,0.16271317,0.17401674,-0.21268378,-0.20868494,0.29418576,-0.076744005
SLA,0.06316579,0.18198884,-0.2180944,-0.21046951,-0.248698,0.15646656,0.21830271,0.19417644,0.1905508,-0.15458499,0.15489173,-0.22970831,-0.05738898,-0.18735434,0.20189492,-0.24618334,0.20149468,-0.186389,-0.19274199,0.09701667,-0.2489949,0.23156674,-0.0474701,-0.22548077,-0.15459853,0.24834652,0.13605163,0.1935412,0.188233,0.05953351,0.19478682,-0.11778386,0.040777184,0.15803432,-0.17134123,0.09666969,-0.12268939,-0.20157282,0.15592694,-0.18638474,-0.17884822,-0.038183272,-0.12515724,-0.11661863,-0.23518449,-0.20156284,-0.17767096,-0.20805424,0.07646375,-0.20943193,0.13938706,-0.18525212,0.2172119,0.17011715,-0.12767304,-0.04978662,0.16297841,0.19725382,-0.123053946,-0.22475874,0.28541172,0.21113943,-0.2915658,0.026118726
FCGRT,0.01479397,0.08706389,-0.08213259,-0.072314985,-0.07323167,0.04070983,0.078452095,0.088569015,0.059515394,-0.051566143,0.051714532,-0.105432495,-0.05252814,-0.05944547,0.07897189,-0.07626013,0.07640794,-0.050081432,-0.07056572,0.057541963,-0.07919854,0.085539415,-0.00975134,-0.08129583,-0.06566136,0.08682948,0.0448506,0.06528901,0.07627594,0.0074912384,0.07510253,-0.07409253,0.00681708,0.05516017,-0.07073766,0.063597396,-0.038159065,-0.06314531,0.049780898,-0.050665595,-0.059731536,-0.0025555044,-0.05129658,-0.04989718,-0.10710471,-0.08577469,-0.06312826,-0.098961696,0.04733563,-0.07734758,0.056398075,-0.076297045,0.087609254,0.091799915,-0.044237174,-0.010642115,0.05278286,0.07073907,-0.037125506,-0.06886881,0.105851784,0.08143079,-0.108932815,0.025369849
KBTBD11,-0.023133658,-0.008316852,0.01763815,0.009177081,0.024716757,-0.01750813,-0.0020211507,-0.014726389,-0.014234017,0.030062333,-0.012539957,0.0077961907,0.0060815457,0.021184929,0.0017731152,0.034483626,-0.02887068,0.020736787,0.004997164,0.010398876,0.03050562,-0.013279829,0.013402898,0.024470616,0.012817681,-0.03870541,-0.004256723,-0.05306997,-0.01370414,-0.02695786,-0.008617945,-0.015253533,-0.0012671277,-0.014965735,-0.0061423266,-0.005881872,0.020136142,0.02417158,-0.019416593,0.0072213,0.01973579,0.00084010884,0.013152413,0.012242962,0.00079575554,0.013355352,0.0011684373,-0.017234135,0.003888581,0.015391052,-0.0248546,0.017149366,-0.010490246,0.0002724044,0.021001825,0.0064862818,-0.018034067,-0.013289397,0.031698875,0.024561405,-0.0047898497,-0.02120347,0.034560636,-0.00896123
CHIL5,0.0037041754,0.07187967,-0.056329038,-0.053576745,-0.044146717,0.019658957,0.06052515,0.063748285,0.042206608,-0.032632157,0.027867168,-0.08325142,-0.04839692,-0.033929944,0.054648638,-0.038254723,0.05273853,-0.035011016,-0.047928542,0.048831172,-0.039699435,0.05885181,-0.0013127318,-0.054969072,-0.04032865,0.05641198,0.040252034,0.033997722,0.055047937,-0.012737846,0.051043436,-0.06714413,0.0071561113,0.029119603,-0.049222104,0.046435528,-0.027283272,-0.04709962,0.035831474,-0.028501391,-0.038535845,-0.004845217,-0.036072288,-0.03773031,-0.08140586,-0.06020179,-0.046892487,-0.07250862,0.04060574,-0.056053553,0.039491083,-0.04571263,0.061981432,0.071165174,-0.03512805,-0.0058943257,0.041919496,0.04599283,-0.031344622,-0.03749527,0.07243995,0.048781577,-0.07156219,0.014970274
NRROS,-0.075055726,-0.20779493,0.3119698,0.22879928,0.2807495,-0.14985715,-0.21022485,-0.25099245,-0.17881022,0.18529466,-0.111309424,0.28801596,0.16506019,0.24881816,-0.18719532,0.21351743,-0.29211408,0.13521454,0.2177402,-0.114889726,0.28948933,-0.27010158,0.12529351,0.27684408,0.2266136,-0.32435566,-0.11616634,-0.32846174,-0.20823695,-0.021452375,-0.2780728,0.1460834,-0.0017645601,-0.14421168,0.1608079,-0.20624927,0.09022979,0.21587427,-0.17976138,0.15314484,0.20252,-0.014985379,0.17815042,0.13336354,0.26921043,0.2649414,0.1849843,0.21612269,-0.15620515,0.2538023,-0.19762582,0.2710702,-0.21968251,-0.21702276,0.17071041,0.05180198,-0.1900998,-0.21714194,0.19811153,0.2132262,-0.25431606,-0.25224656,0.35379842,-0.09698232
TM4SF1,0.0824661,0.15580106,-0.18344943,-0.15325803,-0.19897076,0.12321901,0.16346204,0.16626029,0.13240752,-0.12454265,0.092902556,-0.19266684,-0.08758843,-0.14655872,0.14208774,-0.1715549,0.17647363,-0.1469087,-0.15824345,0.086532705,-0.1801069,0.17970686,-0.042194106,-0.18430272,-0.14618012,0.20187528,0.119762585,0.18183997,0.16813521,0.034080617,0.15909481,-0.10877013,0.037426017,0.12829843,-0.1468788,0.08199187,-0.10018722,-0.17459911,0.12011098,-0.14148709,-0.1475939,-0.03279785,-0.10690631,-0.12394935,-0.20507619,-0.16562049,-0.15396336,-0.1765934,0.07189117,-0.16971037,0.13221872,-0.1496496,0.18781772,0.15946284,-0.13180287,-0.025854364,0.14541599,0.16050136,-0.12677749,-0.14967431,0.21409506,0.17184587,-0.2449713,0.045222245
NOTCH1,-0.52745485,-0.061058596,0.13654853,-0.05588586,-0.102990836,0.02570001,0.0011213296,0.038935278,0.10562727,-0.02538513,0.19775765,-0.059551194,0.33903283,0.043401293,0.16491282,-0.09114171,-0.4158653,-0.03268574,-0.063448474,0.26452243,0.12402916,0.027526386,0.08246353,-0.06955345,0.3092419,0.013108671,0.10194626,-0.35463184,-0.092869945,-0.2969991,-0.094740786,-0.17843242,0.1893099,0.12241794,-0.059592426,-0.11629844,-0.053882547,0.0052087978,0.21028408,-0.06967681,0.08730231,0.031530697,-0.089980155,0.24891853,0.074367985,0.108025506,0.10115022,0.07007013,0.24094045,-0.06640668,-0.25109687,0.27902326,-0.06503729,-0.017201569,0.19176908,-0.35174075,-0.013170999,0.0431775,0.21219508,0.112824075,0.114336945,-0.02957933,-0.14393723,-0.15134746
ENG,0.005017534,0.02578744,-0.02661619,-0.021190338,-0.03524606,0.029335814,0.031759925,0.027625572,0.03550166,-0.025140371,0.05713378,-0.033276893,0.012198123,-0.0168674,0.047100507,-0.062372126,0.017780714,-0.016540073,-0.052777685,0.0125989765,-0.073581114,0.03501054,0.023427589,-0.020106368,-0.020334642,0.015262008,0.019294305,-0.0017284378,-0.00082154665,0.03942687,0.034416206,-0.021819811,0.014253041,0.013691463,-0.041246008,0.0046262424,-0.020237116,-0.017122187,-0.0062472224,-0.025695883,-0.03242986,-0.002235774,-0.003740184,-0.006220974,-0.055510942,-0.04731215,-0.023413613,-0.072084375,-0.012999788,-0.02971739,0.02373973,-0.030483987,0.047622956,0.030958988,0.01395199,0.017975269,0.009377185,0.026546389,0.014886716,-0.070657015,0.08668635,0.04929396,-0.038115866,-0.015147918
KLHL4,0.04208591,0.1368074,-0.1613627,-0.1452843,-0.16293648,0.10440725,0.15317674,0.15231924,0.12898216,-0.11540195,0.100083575,-0.17938249,-0.061964247,-0.12553655,0.1491437,-0.16136536,0.14979646,-0.12082093,-0.14652398,0.0904669,-0.16407856,0.16199194,-0.02658367,-0.16545358,-0.1119105,0.18140896,0.10205659,0.13968036,0.14046471,0.023136094,0.13213733,-0.10806118,0.0286002,0.117363885,-0.12764528,0.084237576,-0.08798256,-0.1438009,0.10476705,-0.12550178,-0.119158015,-0.024479836,-0.09376606,-0.09373688,-0.18204814,-0.15555824,-0.12464122,-0.16080874,0.07424788,-0.14764613,0.10574435,-0.13726431,0.15314204,0.15015511,-0.100464664,-0.027657412,0.114356995,0.13612913,-0.0906665,-0.14684796,0.20265909,0.15034321,-0.21795008,0.035209097
IPCEF1,0.014157135,0.09196025,-0.092212275,-0.092444666,-0.09069431,0.055885125,0.089150265,0.08619781,0.08338143,-0.056857217,0.065987736,-0.11493572,-0.04628137,-0.07627036,0.09893882,-0.08964946,0.08741547,-0.0726291,-0.07449541,0.0629932,-0.08470082,0.10317686,-0.010158604,-0.09005985,-0.06326893,0.107384995,0.06091334,0.066842146,0.089861535,0.004858995,0.08273775,-0.0782709,0.009740481,0.065122515,-0.07912278,0.057490826,-0.046298534,-0.07728158,0.055344068,-0.07328575,-0.07535232,-0.016290985,-0.05204985,-0.046123475,-0.12003921,-0.09595986,-0.07358219,-0.107957676,0.055576038,-0.09613076,0.065238856,-0.07642718,0.09688719,0.09271102,-0.057277,-0.01875458,0.075298205,0.08269935,-0.044960942,-0.0812052,0.11871302,0.08179133,-0.10674279,-0.0020871637
WLS,-0.06757117,-0.13181454,0.19987212,0.14910868,0.19464307,-0.10184334,-0.1365594,-0.16597001,-0.11540273,0.11803196,-0.08124635,0.18793122,0.10580953,0.15977132,-0.10701604,0.13264054,-0.19824448,0.102708735,0.13376057,-0.064320415,0.19297712,-0.18268211,0.08597818,0.18146965,0.15437934,-0.2133893,-0.07063492,-0.23252931,-0.13948946,-0.00756523,-0.18631041,0.07355408,0.008811692,-0.091415875,0.09322469,-0.122603536,0.069324456,0.15231255,-0.12652287,0.099541195,0.1281224,-0.010110907,0.122198686,0.09359041,0.16023663,0.16487783,0.1189223,0.11795917,-0.093411505,0.1681874,-0.13046066,0.17722248,-0.13145915,-0.13642283,0.121362574,0.035276618,-0.13133629,-0.13883169,0.1408007,0.15470597,-0.1568854,-0.15764911,0.23067707,-0.057339236
USP11,-0.04323898,-0.067079246,0.090845585,0.06541766,0.08750248,-0.043887373,-0.05006195,-0.07795276,-0.054631725,0.06976982,-0.020637278,0.07844235,0.06307025,0.076848924,-0.034676995,0.08333048,-0.106180154,0.054288834,0.05022394,-0.015171908,0.090887316,-0.069527246,0.044755407,0.08414467,0.07254656,-0.113824576,-0.030248044,-0.1410393,-0.06934222,-0.028011996,-0.07575954,0.03065021,-0.0005307365,-0.04997561,0.038269714,-0.055366307,0.0350181,0.08276465,-0.068835355,0.03754869,0.06846513,0.0035854988,0.056678828,0.049301066,0.0719551,0.066378705,0.043104842,0.04068287,-0.04345584,0.077421926,-0.07031864,0.08260043,-0.063629776,-0.058858197,0.06859673,0.013696626,-0.06183561,-0.06693077,0.09233155,0.072521895,-0.06662639,-0.08319424,0.10921951,-0.045401618
SLC44A2,-0.10274125,-0.2033582,0.30062464,0.20934018,0.27357066,-0.14482671,-0.19912048,-0.24210088,-0.17237796,0.18882313,-0.11031285,0.27407545,0.16583695,0.23744379,-0.16762298,0.21080014,-0.2896093,0.14145848,0.20203842,-0.09485857,0.28811726,-0.25788122,0.11176048,0.25941312,0.21714832,-0.31851596,-0.111116305,-0.33002675,-0.20015791,-0.029554494,-0.2649424,0.12822075,0.0043417793,-0.13738263,0.14441656,-0.19491121,0.09608396,0.21311356,-0.16880217,0.14701709,0.19511427,-0.012702983,0.16668235,0.13626108,0.25728863,0.25178632,0.17611292,0.20865762,-0.13709071,0.24357669,-0.20145993,0.26574796,-0.21701822,-0.2109106,0.17324509,0.042886797,-0.18503591,-0.20231308,0.19708094,0.2167769,-0.24454851,-0.2466005,0.33632496,-0.087102704
PLD4,-0.049784955,-0.0439184,0.0638916,0.040965974,0.078129746,-0.05177849,-0.04184615,-0.054879356,-0.0447005,0.060191635,-0.0364696,0.054385915,0.029794116,0.06827879,-0.028286073,0.07014617,-0.07832887,0.050400592,0.047282282,-0.0026592165,0.0974209,-0.066511534,0.03488573,0.0670317,0.05435972,-0.09113893,-0.021944733,-0.10845871,-0.04288838,-0.03002545,-0.0622385,0.003113769,0.002704002,-0.03881318,0.025888756,-0.03697971,0.039896592,0.06563387,-0.041422926,0.041952815,0.04972221,0.0020440314,0.03990471,0.04413664,0.042324647,0.062239673,0.039991923,0.029740062,-0.018747836,0.056384493,-0.057536013,0.07205175,-0.05073119,-0.037034612,0.044452965,0.006680608,-0.05098227,-0.050007984,0.059191823,0.06883783,-0.06256426,-0.06877044,0.099847585,-0.015534369
SYTL1,-0.023782156,0.0035796985,0.0063055493,-0.00326401,0.012482639,-0.0022614822,0.010451208,-0.000334464,0.0023876242,0.015491845,0.023476064,-0.017581005,0.007360477,0.012593593,0.023134552,0.008042332,-0.024123974,0.009521812,-0.0048211403,0.02677368,0.008389242,0.002606701,0.013860047,0.0057435557,0.010108829,-0.016261742,0.0029044882,-0.048104484,-0.0025875932,-0.017470466,0.002435077,-0.020947818,0.003312828,-0.00055614114,-0.012959075,0.0027165879,0.00260704,0.014696445,-0.013694137,-0.0050378665,0.007506938,0.0012204088,0.0077681076,0.008845072,-0.020701993,-0.0060917996,-0.007180549,-0.032336883,0.008197401,-0.005383592,-0.010462995,0.012564896,0.010618791,0.01365117,0.020613452,0.0075200275,-0.0015325285,0.0012628613,0.032528907,0.0041000247,0.02206711,-0.0039592125,0.01066561,-0.017389376
ALDH1A1,-0.009492807,0.04812084,-0.04829504,-0.043564685,-0.038214028,0.022150677,0.04690685,0.058778286,0.035563044,-0.018992804,0.04389804,-0.066344306,-0.02161419,-0.02065961,0.058864888,-0.039589472,0.023864694,-0.023534134,-0.041216254,0.046783887,-0.03295642,0.052696645,0.011828365,-0.048905574,-0.03141608,0.039150953,0.029006584,0.0032290816,0.04235056,-0.0074384324,0.0477202,-0.05579389,0.0067316536,0.027858928,-0.04845039,0.03798896,-0.019611225,-0.029620841,0.027760692,-0.02386669,-0.03172697,0.008402929,-0.034657013,-0.018006017,-0.069153525,-0.048540834,-0.0363824,-0.06504819,0.0307143,-0.044976834,0.020719152,-0.03352114,0.053538598,0.060424738,-0.019585265,-0.007864542,0.025577959,0.03675315,0.00017579633,-0.036214598,0.065348655,0.044141952,-0.058673307,0.008198771
PLEKHG6,0.10081991,0.16789298,-0.20268421,-0.15774676,-0.2167809,0.12676284,0.17814493,0.17949438,0.1324786,-0.13229586,0.09210342,-0.20487751,-0.106718205,-0.15726006,0.13988051,-0.17869931,0.20143376,-0.15479285,-0.17334628,0.081763655,-0.20161979,0.19214493,-0.054590844,-0.1970045,-0.1661269,0.2219419,0.12471971,0.21320271,0.1776133,0.04866188,0.17496306,-0.10722712,0.038188614,0.13021395,-0.1548368,0.09061667,-0.10249533,-0.18559943,0.13158432,-0.1446132,-0.15982984,-0.031617355,-0.11501466,-0.14331624,-0.22008535,-0.17527847,-0.16671574,-0.18216453,0.059009783,-0.17570151,0.1560174,-0.16835679,0.20318398,0.1652896,-0.14593588,-0.022906661,0.15799439,0.17566575,-0.14688191,-0.16276646,0.22352512,0.18499303,-0.26003382,0.052091755
PECAM1,0.004946053,0.07440288,-0.08597964,-0.08708765,-0.09214027,0.060396373,0.09403432,0.07173288,0.08195853,-0.056299504,0.089103766,-0.10400404,-0.016532551,-0.06846085,0.10325773,-0.108919,0.07416318,-0.06834623,-0.08284573,0.051323712,-0.10032071,0.099285826,-0.005399594,-0.088089615,-0.055040896,0.10015996,0.05329942,0.055106558,0.076517105,0.013395447,0.08367795,-0.061456203,0.014521595,0.06461728,-0.078539126,0.052813053,-0.04577768,-0.07689117,0.050176494,-0.07649154,-0.06953241,-0.009888947,-0.045471717,-0.039880544,-0.113374844,-0.08973463,-0.07872273,-0.11623569,0.04126066,-0.08967705,0.051243085,-0.07515398,0.091035806,0.08126542,-0.034001835,-0.017144099,0.06030373,0.08080242,-0.027602045,-0.09144554,0.12970991,0.08798601,-0.111162,-0.0015794458
NEAT1,0.06867876,0.20148312,-0.23154812,-0.21607229,-0.2569524,0.15862393,0.23592393,0.23140661,0.19299924,-0.18284109,0.13377883,-0.2495371,-0.06924961,-0.19685777,0.21625008,-0.26398057,0.21366304,-0.1965822,-0.2099728,0.123027556,-0.2689944,0.24627908,-0.043878727,-0.26325497,-0.16273892,0.2582118,0.15682313,0.21318528,0.19483753,0.0624823,0.20032915,-0.14511663,0.058955617,0.16228487,-0.18703656,0.11205137,-0.1314076,-0.21478589,0.16531304,-0.18824643,-0.1869033,-0.036479786,-0.13953657,-0.13549605,-0.26357022,-0.23475872,-0.19862321,-0.23355761,0.09558641,-0.21641928,0.15308875,-0.20124434,0.22961652,0.2020462,-0.1395544,-0.049101554,0.15261447,0.20525435,-0.14363554,-0.22739941,0.3114349,0.24376313,-0.34335867,0.07447721
CDK18,0.020038366,0.07833431,-0.07575132,-0.056381278,-0.061533928,0.03614555,0.07159254,0.08271587,0.05083095,-0.03953731,0.042491846,-0.09132126,-0.048045386,-0.048573032,0.0621659,-0.066823564,0.07493184,-0.043633416,-0.06597902,0.04809956,-0.07111345,0.082995325,-0.007851949,-0.07043931,-0.06346068,0.07322954,0.03836672,0.057520352,0.06638244,0.01199013,0.070045546,-0.06877959,0.004635699,0.040825434,-0.068083495,0.060226373,-0.037758715,-0.057804853,0.037046105,-0.034127884,-0.05474469,0.0022256598,-0.0475234,-0.04681944,-0.10080103,-0.078146294,-0.058383573,-0.095459566,0.037203416,-0.069509104,0.05427185,-0.072438195,0.07461799,0.08546403,-0.04611621,-0.0026284643,0.042971905,0.056412116,-0.033892736,-0.063085556,0.09611276,0.07492094,-0.09873656,0.023178041
CAR2,0.004172288,-0.018912002,0.036657453,0.03405845,0.010450713,0.01221931,-0.0131790135,-0.029464964,0.0043881694,0.009426881,0.04768432,0.031465508,0.061363325,0.023032218,0.01000672,-0.02990017,-0.046840712,0.012609728,-0.011061408,-0.017801866,-0.024192676,-0.017460562,0.039132714,0.035847206,0.024431996,-0.046882503,-0.0016659624,-0.0694111,-0.04601602,0.038000576,-0.018846663,0.022128787,0.008705309,-0.007667415,0.0020864336,-0.046685494,-0.012816237,0.025746986,-0.051043566,0.0004497245,0.0048249154,1.1458993e-05,0.044903446,0.015686074,0.0071166656,0.012537811,0.013940997,-0.017755091,-0.049993545,0.006706562,-0.0141343,0.032892626,0.014890365,-0.035165083,0.058797732,0.03130219,-0.019226186,-0.026364908,0.058774382,-0.03965007,0.03490688,-0.011493009,0.028860066,-0.051663913
FAM171B,-0.022143498,-0.0113079995,0.041852236,0.042238057,0.09144236,-0.059663128,-0.034836676,-0.046389464,-0.04546588,0.048596885,-0.049160972,0.036934465,-0.015391192,0.05981333,-0.03332075,0.06705176,-0.033772063,0.057288047,0.058916584,-0.0075651705,0.08073842,-0.057517856,0.024300313,0.05967216,0.03242507,-0.065558665,-0.015604565,-0.059177905,-0.023840811,-0.010589544,-0.060134582,-0.0061079003,-0.014306733,-0.035749942,0.03435457,-0.006984368,0.034185015,0.061474398,-0.049866464,0.06261865,0.04443784,0.00525254,0.03999091,0.020122953,0.026376463,0.04597348,0.032075003,0.024820179,-0.011314958,0.052906267,-0.026952283,0.039492987,-0.046139203,-0.021036383,0.023491934,0.018845756,-0.04596778,-0.047621764,0.028750094,0.061700553,-0.06650576,-0.05938677,0.09338134,-0.0043049734
MN1,-0.024321415,0.00025330484,-0.0064491816,-0.025970362,-0.018112436,0.020775989,0.027403949,0.009551352,0.028761446,0.0061454754,0.04595667,-0.023797635,0.034203682,-0.01571422,0.047204994,-0.026084334,-0.013746179,-0.00031502545,-0.026573695,0.031210627,-0.02948901,0.029320568,0.009452084,-0.022356011,0.005841233,0.0028989613,0.019664777,-0.048644967,0.0030298075,-0.0077128597,0.024731152,-0.01591552,0.0067697894,0.017389074,-0.023593638,-0.0036520977,-0.006825423,-0.0032893792,-0.0070244,-0.028481312,-0.016894462,0.0029212274,0.0041182674,0.015371131,-0.03143967,-0.02566373,-0.025680672,-0.050025128,0.008954063,-0.030022945,-0.012638005,0.005032722,0.034093022,0.0039240085,0.03176045,-0.0049277097,0.0123167895,0.011272785,0.037790652,-0.022995107,0.04989902,0.012270354,-0.009249289,-0.02512082
RFTN1,-0.025491416,-0.03711588,0.06541084,0.057562817,0.060475983,-0.030647669,-0.033472273,-0.051969882,-0.04696483,0.04773696,-0.016691752,0.05786544,0.03851809,0.052126233,-0.026248556,0.05424709,-0.06992263,0.03750305,0.017355688,-0.013898425,0.04926836,-0.053155348,0.031780794,0.0734046,0.040915355,-0.08652876,-0.029242722,-0.09465368,-0.057847906,-0.0044526197,-0.045646515,0.013455678,-0.0018580239,-0.044062823,0.01729536,-0.030249942,0.02450425,0.06522875,-0.0592986,0.028620899,0.04403857,0.0031043664,0.0413792,0.025654234,0.040162988,0.04380661,0.026641287,0.009119477,-0.03961742,0.06012731,-0.043589145,0.045429774,-0.041468218,-0.03499611,0.055032346,0.02424833,-0.052689955,-0.037585907,0.06515438,0.03436844,-0.03303913,-0.048584737,0.07098279,-0.0256216
TEK,0.12423382,0.20933667,-0.27075648,-0.22043687,-0.30021486,0.18558888,0.24649352,0.23877317,0.19621801,-0.20231338,0.13867551,-0.26440272,-0.10781172,-0.218955,0.20771359,-0.2637735,0.26481768,-0.21947128,-0.24523324,0.11072387,-0.28641236,0.2608437,-0.06775641,-0.2811835,-0.20146015,0.30934614,0.17226818,0.2793415,0.2242599,0.075416,0.22482678,-0.13729118,0.062987156,0.17829189,-0.21435732,0.110216826,-0.15601182,-0.25929904,0.18389285,-0.21785903,-0.20680481,-0.04025153,-0.154353,-0.17537558,-0.28913912,-0.23676921,-0.22562104,-0.24147123,0.08178441,-0.240878,0.20464858,-0.2254207,0.26973763,0.21807586,-0.1889544,-0.041430056,0.20914304,0.2444218,-0.19586404,-0.23174098,0.31920144,0.26371774,-0.3692576,0.066241406
ESAM,0.055453293,0.1672433,-0.20371155,-0.18834987,-0.21008137,0.13615622,0.19373225,0.19599701,0.16695628,-0.15294883,0.12528622,-0.21755897,-0.06023809,-0.16289358,0.1918845,-0.22094077,0.18214619,-0.15708864,-0.17909771,0.111653194,-0.22107683,0.20735541,-0.033732474,-0.22344509,-0.13677348,0.22465958,0.12656067,0.17442417,0.16897415,0.04726969,0.16230851,-0.13178694,0.04518252,0.15026349,-0.16070056,0.09623661,-0.119375885,-0.18255658,0.13883075,-0.16819212,-0.15489061,-0.030718595,-0.12045984,-0.11690963,-0.22192109,-0.19427173,-0.16276261,-0.19664735,0.090354696,-0.18753445,0.13344228,-0.16868082,0.1967842,0.18102658,-0.12349736,-0.040441766,0.13444754,0.1702576,-0.114674896,-0.19293195,0.26825678,0.20333533,-0.2869018,0.051203758
VEGFC,-0.014237421,0.011373848,-0.0076935627,-0.0147263035,0.01576681,-0.008800115,0.015531125,0.009250723,0.0060272943,0.010769909,0.016631484,-0.018457774,-0.0033453899,0.011906557,0.024226274,0.011744421,-0.0046829255,0.013685282,-0.0077224746,0.020899773,0.0057373457,0.005135093,0.018084638,-0.00974375,7.981062e-05,-0.0038400441,0.008711366,-0.030881226,0.0026767757,-0.021312932,0.006547097,-0.030519456,-0.0018315297,0.0017790273,-0.005788413,0.011616917,0.0077763926,0.0045908242,-0.008995585,0.0028806552,0.003492584,0.005436659,0.0020841733,0.00850594,-0.024152016,-0.017032597,-0.01040677,-0.022443213,0.011651646,0.0024643783,-0.0015106527,0.0011018477,0.006202616,0.018705409,0.0023304094,0.0016676635,0.0018340684,-0.005295233,0.022272574,-0.003322553,0.025787784,0.0023717843,0.009156689,-0.012674063
CCT2,-0.03441077,-0.1063934,0.15599169,0.12252455,0.12847474,-0.05895702,-0.09695964,-0.1332256,-0.08310204,0.09604533,-0.01605801,0.14348345,0.12091227,0.12723878,-0.07233593,0.091557145,-0.17098846,0.06592384,0.09140156,-0.051746726,0.12552427,-0.12529168,0.0799824,0.14371777,0.12546073,-0.17712319,-0.04944046,-0.2018545,-0.1241801,-0.0066208765,-0.13598269,0.08349678,0.0049878936,-0.07483787,0.079120405,-0.11467907,0.040598772,0.11654439,-0.11290956,0.064802706,0.09800424,-0.0009144023,0.10096362,0.07257003,0.123943925,0.1232405,0.07988982,0.088934794,-0.095498964,0.12030876,-0.10339579,0.14821625,-0.09163459,-0.1133177,0.11425286,0.036357276,-0.09707236,-0.11495461,0.13346437,0.07906804,-0.0987107,-0.13104011,0.17466184,-0.08608407
PIRB,-0.01054967,0.04877564,-0.03092118,-0.030491754,-0.016957209,0.007661689,0.036463454,0.035016764,0.02136627,-0.009308446,0.012686003,-0.051742002,-0.031389404,-0.015679896,0.03278718,-0.016064703,0.025710147,-0.01397831,-0.02975028,0.038606055,-0.013848588,0.03253536,0.0005108984,-0.024663769,-0.023567066,0.02221553,0.020817952,0.0033494309,0.03230662,-0.016080579,0.03138884,-0.053883795,0.003819434,0.010742925,-0.037891887,0.03412819,-0.011119138,-0.022268832,0.013381869,-0.011568941,-0.016688997,-0.00025036559,-0.01959911,-0.019520927,-0.054768197,-0.034252536,-0.027837455,-0.057832815,0.03126795,-0.03222463,0.01456496,-0.023733974,0.03453785,0.04659477,-0.011734536,-0.0027142875,0.01393513,0.024733566,-0.012369389,-0.015701072,0.047831282,0.028297435,-0.036094718,0.010714491
BC035044,-0.030598924,-0.026394427,0.010487448,-0.021456733,-0.02038467,0.02388429,0.025323866,-0.015588444,0.022469655,0.0133356005,0.05447536,-0.0012940839,0.059983335,-0.009558141,0.04652244,-0.013562351,-0.030783176,-0.0030008927,-0.011148877,0.014145259,-0.024001226,0.030086327,0.016604757,-0.015773013,0.018406361,-0.013926156,0.009408733,-0.07064597,-0.009029836,-0.023115776,0.026627071,0.0046303235,0.005674813,0.008457549,-0.013841066,-0.018766595,0.0001531262,0.001233913,-0.01644145,-0.032735012,-0.0036361297,0.0041285567,0.011734359,0.033109985,-0.021249298,-0.021843057,-0.023656677,-0.03605132,-0.007069256,-0.01607813,-0.022884201,0.007196866,0.015565805,-0.010216888,0.03930959,-0.014993899,0.005680304,0.001093247,0.0501469,-0.027787052,0.049458243,-0.0012137294,0.007054597,-0.0528801
NWD1,-0.0663363,-0.092384085,0.14310497,0.104264006,0.18206573,-0.10741423,-0.10804136,-0.12714718,-0.101001054,0.110716745,-0.079350844,0.13782914,0.053962637,0.1477161,-0.08660218,0.13035497,-0.1480104,0.10681775,0.12616843,-0.048690252,0.1837354,-0.14763212,0.06632967,0.14738666,0.11964561,-0.17510168,-0.05231091,-0.18122667,-0.09996452,-0.012418084,-0.16020313,0.04497015,-0.0020806063,-0.0793811,0.08592103,-0.08128403,0.063979454,0.13477829,-0.094517216,0.10814963,0.1057104,-0.00052391365,0.09597717,0.07518598,0.11934146,0.13206618,0.097530626,0.10590169,-0.06537962,0.13623126,-0.09700862,0.14173082,-0.11995706,-0.09638865,0.07624286,0.023912475,-0.10912102,-0.11482051,0.10262541,0.14241445,-0.15431432,-0.1400313,0.20430571,-0.0359774
RBPMS,-0.007437445,0.017660186,-0.017075974,-0.013314277,-0.01116544,0.010049418,0.02957056,0.01831244,0.027953748,-0.0051535703,0.047683842,-0.03054931,0.0043578837,-0.014933243,0.042844735,-0.030603938,0.007489971,-0.00080159307,-0.040059075,0.013145048,-0.044676572,0.028057385,0.016836466,-0.01496464,-0.016042635,0.010955781,0.010205207,-0.011963867,-0.00056164805,0.016178824,0.026422836,-0.020380061,0.0016147997,0.0038245097,-0.022710044,0.010193134,-0.013705632,-0.003847301,-0.01289431,-0.013443656,-0.020265786,0.0034233853,0.0025600214,-0.004646335,-0.037620984,-0.03184275,-0.016712327,-0.053790294,-0.009384096,-0.019086368,0.019989878,-0.01707882,0.030061312,0.019378174,0.019066667,0.008838978,0.016825791,0.017968953,0.02238149,-0.039511234,0.05524727,0.025152843,-0.02021841,-0.016258866
RNF125,-0.018166877,0.011408374,0.0028811842,0.0008841455,0.019726768,-0.010621864,0.00421436,0.0025672,0.0013715336,0.012569677,0.00905541,-0.011370659,-0.0031354083,0.010331795,0.020056533,0.0016601495,-0.008408296,0.0108797625,-0.0042443275,0.016712088,0.007997822,-0.0017229915,0.022375988,0.007674694,-0.0008009076,-0.013181642,0.00477534,-0.034900047,-0.004487699,-0.00699078,-0.0044887625,-0.02652046,-0.00016872771,-0.00086563826,-0.0139239775,0.009902185,0.0061502345,0.010361068,-0.017417334,0.0068354085,0.0071078907,0.004162103,0.009750083,0.0038116947,-0.020909777,-0.007559456,-0.002586335,-0.03268908,0.008097999,0.0011008009,-0.0052639386,0.0047487356,0.008166693,0.016059685,0.017425716,0.0076180324,-0.005942326,-0.004502584,0.0225885,0.0047920123,0.017666487,-0.0024889708,0.013238795,-0.011825763
ITGB2,-0.058853514,-0.07394934,0.10243477,0.061559968,0.10008735,-0.056219097,-0.0625962,-0.08431937,-0.044159442,0.07002527,-0.03818049,0.091993585,0.06348391,0.07275296,-0.034204464,0.073372826,-0.10438668,0.05913104,0.06924984,-0.007037267,0.1117034,-0.07918658,0.04624007,0.07757216,0.08282249,-0.1065747,-0.027059035,-0.14274782,-0.06537848,-0.03008778,-0.090869494,0.019674491,0.004741458,-0.04262837,0.04370388,-0.06401756,0.039625563,0.07623205,-0.060703088,0.040469892,0.06622184,-0.0019596722,0.06544232,0.06600509,0.075167544,0.08257864,0.055313997,0.04479743,-0.028389663,0.073222406,-0.08051896,0.099908575,-0.06426175,-0.06462905,0.07001395,0.0035557933,-0.06002395,-0.071028695,0.08036629,0.08886633,-0.074588045,-0.087790176,0.12711655,-0.042689256
MPL,0.037026174,0.16617423,-0.20673035,-0.18042153,-0.22333989,0.13852784,0.18948121,0.19698022,0.17501709,-0.15621683,0.14874008,-0.20106371,-0.042356215,-0.17206427,0.18639804,-0.24934107,0.17329548,-0.14245552,-0.19116768,0.09431915,-0.25039685,0.21760191,-0.026655624,-0.21841434,-0.1356503,0.20370619,0.11096132,0.16843769,0.14394046,0.078245014,0.17429596,-0.11940533,0.048084967,0.12776987,-0.1663702,0.09966406,-0.10762458,-0.17676504,0.13850582,-0.14999443,-0.15936993,-0.010885671,-0.11950554,-0.094745174,-0.21265438,-0.20158978,-0.15620136,-0.21036714,0.073558256,-0.18654542,0.118014365,-0.19193952,0.19169009,0.17187724,-0.0830305,-0.042284556,0.10926846,0.16875345,-0.09552406,-0.21025258,0.285588,0.23710735,-0.30305043,0.05519365
IFI209,0.017251477,0.07931182,-0.07951464,-0.07548993,-0.07413998,0.04509493,0.078769825,0.07222508,0.060609143,-0.045354817,0.05346836,-0.102120966,-0.051722903,-0.056941144,0.076739386,-0.06657871,0.08395952,-0.056939296,-0.067155495,0.04966289,-0.07319151,0.088302255,-0.008106103,-0.07335639,-0.06593998,0.086813435,0.049160056,0.06451658,0.07746733,-0.0028608693,0.079522036,-0.06834406,0.0050965156,0.050777018,-0.070578575,0.05877416,-0.03523898,-0.071797624,0.04297804,-0.05598087,-0.057716765,-0.007914927,-0.048098806,-0.046735797,-0.10843702,-0.08258529,-0.06541832,-0.09905931,0.044323765,-0.078795835,0.05532759,-0.072442874,0.079135425,0.08525052,-0.05324225,-0.008550748,0.06317411,0.07307308,-0.04360369,-0.06914782,0.10007035,0.066145524,-0.092775546,0.006941733
CADPS2,0.0706375,0.16699849,-0.19952373,-0.178599,-0.21473569,0.13682789,0.19154406,0.18910795,0.15712087,-0.14799102,0.11415675,-0.21496342,-0.069363266,-0.16174693,0.18141244,-0.20617467,0.18073153,-0.1685954,-0.17895985,0.106581256,-0.20686834,0.20086952,-0.037312925,-0.21304506,-0.14223465,0.22691925,0.13591567,0.17771128,0.172702,0.03708987,0.16574743,-0.12454724,0.0474734,0.1490416,-0.16178048,0.08761239,-0.11689545,-0.18854775,0.1347073,-0.16869572,-0.15886776,-0.035691146,-0.116014615,-0.12527674,-0.22541796,-0.18481801,-0.16898164,-0.19170082,0.08568431,-0.18750243,0.13690205,-0.16267936,0.2032637,0.17682216,-0.13177775,-0.034587912,0.15125537,0.17513703,-0.12681693,-0.18259108,0.24770243,0.18964066,-0.2783253,0.048891217
LACTB,-0.05085961,-0.095060855,0.11815363,0.081457734,0.11887872,-0.068646386,-0.07618898,-0.105976984,-0.06640586,0.080873504,-0.055015206,0.115855366,0.05824587,0.08983405,-0.057696674,0.09850872,-0.11503233,0.07201226,0.07561433,-0.028672919,0.13073395,-0.100865915,0.047494,0.10326257,0.09305896,-0.12761024,-0.042725585,-0.14612854,-0.0768327,-0.035307802,-0.10449336,0.036740165,0.00029750727,-0.05783429,0.05682257,-0.07027681,0.053101003,0.093979165,-0.07533534,0.05414913,0.087184064,-0.0022216737,0.08049576,0.069177575,0.09756388,0.099700175,0.06520488,0.063198164,-0.0415835,0.10240701,-0.09269316,0.100155994,-0.09249314,-0.08209114,0.07538316,0.007969525,-0.07657184,-0.08296291,0.08892545,0.109820314,-0.10051423,-0.10002935,0.1517017,-0.03411815
RP2,-0.03085807,-0.04115066,0.040234063,0.01591973,0.040721133,-0.022437599,-0.014272149,-0.036184732,-0.008887787,0.03464434,0.002573654,0.03328418,0.043588523,0.027124997,0.0075464454,0.040485717,-0.05046936,0.026547123,0.021035906,0.0025058538,0.036530577,-0.018742185,0.033073023,0.025802098,0.039068535,-0.043869466,-0.0028155087,-0.08665729,-0.0301737,-0.033133626,-0.025347598,0.004371818,-0.00350813,-0.02228462,0.021344647,-0.025387704,0.01603383,0.033642977,-0.035278168,0.010739382,0.02745011,0.0033413842,0.03205306,0.03918949,0.021691125,0.016784895,0.010242313,0.0018417612,-0.010553665,0.028836042,-0.037825823,0.038215492,-0.026765883,-0.022063699,0.038999334,-0.0064269677,-0.019640911,-0.03650693,0.05619921,0.031419292,-0.01726471,-0.03910772,0.06140594,-0.040646713
CISH,-0.04424992,-0.054494828,0.09075932,0.073470466,0.106391594,-0.070097044,-0.0693474,-0.07173486,-0.067556374,0.076126665,-0.049252458,0.0854512,0.030720357,0.08912414,-0.051686626,0.07840661,-0.096130244,0.06393153,0.060640845,-0.03225468,0.110401526,-0.09186322,0.047475897,0.10170873,0.061387524,-0.11977932,-0.04313729,-0.11926706,-0.07172457,-0.0042195916,-0.092779346,0.018897545,-0.002380276,-0.058722056,0.03884915,-0.04463033,0.041140907,0.0865581,-0.060192615,0.0638631,0.06808614,0.005587712,0.062986135,0.039644476,0.06895859,0.084059805,0.061444,0.045022164,-0.0436799,0.08182055,-0.058826696,0.085639715,-0.068657815,-0.051543113,0.054578945,0.019718507,-0.07061904,-0.06666528,0.07210045,0.0845596,-0.08484086,-0.0840721,0.12464274,-0.021598402
KLF3,-0.052098393,-0.058446646,0.074336365,0.040899176,0.06552916,-0.029792529,-0.03718427,-0.060493205,-0.031142589,0.053303506,-0.0061081313,0.0628643,0.069768734,0.05729233,-0.005931005,0.051384676,-0.09681684,0.038722854,0.038712956,0.0050791353,0.07458046,-0.055072602,0.039788336,0.056613326,0.073807225,-0.08495322,-0.015897343,-0.13256742,-0.05763174,-0.030065171,-0.060432367,0.017336573,0.007438002,-0.029956281,0.026892647,-0.056351475,0.030551428,0.06641198,-0.05582694,0.018321477,0.04505442,-0.0030175373,0.047563728,0.058085643,0.046383344,0.051675156,0.030152485,0.024963245,-0.02513875,0.051794946,-0.065759055,0.0780804,-0.039036147,-0.048187923,0.06757268,0.002494853,-0.045474403,-0.04885608,0.08484373,0.051991887,-0.03723295,-0.06621316,0.09220834,-0.050591156
HNF4A,0.027796753,0.11283373,-0.12204762,-0.11546419,-0.12562327,0.07751006,0.121236615,0.11112654,0.10457066,-0.078708574,0.077955805,-0.13954848,-0.052919228,-0.09712055,0.11174843,-0.11271147,0.112464115,-0.09463108,-0.1033431,0.07109106,-0.12237786,0.12864962,-0.02026539,-0.11926697,-0.078924,0.13871804,0.081699796,0.09269322,0.10883845,0.011535037,0.10812228,-0.087298244,0.020685783,0.07660532,-0.09797779,0.062059402,-0.06016747,-0.10428703,0.07751679,-0.09270414,-0.09497387,-0.019118726,-0.06579392,-0.060222186,-0.14227244,-0.11968976,-0.09506301,-0.12834659,0.060023673,-0.11586948,0.08125065,-0.09940839,0.11978076,0.103202015,-0.07061004,-0.024661355,0.09320766,0.10603921,-0.06950931,-0.11117243,0.15508366,0.11160956,-0.14460626,0.009912538
FUT8,-0.024778448,-0.07348895,0.10648914,0.091723345,0.09220782,-0.041474897,-0.06401569,-0.09159374,-0.06505179,0.070461586,-0.015669342,0.10632925,0.08137299,0.08342826,-0.04863437,0.06637552,-0.11784363,0.053891845,0.04706841,-0.040100396,0.08059123,-0.090737954,0.053861864,0.10785605,0.07585834,-0.12880538,-0.0453885,-0.14885923,-0.09398727,0.001857724,-0.08757975,0.049464036,0.0010980498,-0.0571836,0.03924811,-0.06864627,0.034134716,0.093603924,-0.09350811,0.046359304,0.07227887,0.0041340627,0.0712114,0.05076503,0.08030527,0.07930934,0.052859195,0.045555014,-0.071561486,0.0901036,-0.06882168,0.090654925,-0.06483568,-0.07988705,0.08385501,0.028490238,-0.07695666,-0.0806707,0.100474015,0.054373406,-0.062211297,-0.08607161,0.12210806,-0.054820776
DCK,-0.05423427,-0.10894218,0.13746774,0.09163486,0.111535266,-0.059094783,-0.08358521,-0.11348064,-0.06876648,0.09322213,-0.03681604,0.13290487,0.101554304,0.09949111,-0.058290537,0.103135645,-0.14325258,0.06852192,0.079624906,-0.030617341,0.12909015,-0.097669214,0.06390911,0.10678374,0.10082652,-0.1526629,-0.04603865,-0.18694124,-0.096440755,-0.04184253,-0.10318611,0.05226816,0.0010160562,-0.06841501,0.05989051,-0.08668844,0.043381117,0.09706607,-0.085207716,0.050875776,0.089462936,0.0067088567,0.07758172,0.07697478,0.10867888,0.108681574,0.06809427,0.07312484,-0.0611206,0.10283813,-0.10400605,0.12018247,-0.09819643,-0.09275444,0.08364591,0.008144282,-0.08625148,-0.100276805,0.11159433,0.09815911,-0.10285227,-0.11902222,0.15884382,-0.061271153
IL18BP,0.033094972,0.11557384,-0.116743475,-0.10684515,-0.113369256,0.06663841,0.11427345,0.11790091,0.09012874,-0.08212462,0.06223084,-0.14108685,-0.06704873,-0.08732198,0.106652305,-0.0991616,0.11611681,-0.08538782,-0.10165393,0.07322951,-0.11578402,0.11993115,-0.018759837,-0.12155491,-0.082876444,0.1301927,0.07799679,0.101396866,0.10311275,0.0060410574,0.10107934,-0.09205066,0.01813667,0.07607568,-0.09527662,0.0689773,-0.06447678,-0.1023161,0.07444932,-0.08472783,-0.090733364,-0.015598051,-0.06834632,-0.07379735,-0.14354174,-0.11935821,-0.09349374,-0.12130511,0.061392732,-0.11232363,0.08773718,-0.09978181,0.12028698,0.11652349,-0.075498156,-0.012858734,0.08843753,0.10122844,-0.070391,-0.099487804,0.14457281,0.10893908,-0.15453628,0.027390536
ZBTB20,-0.040286116,-0.05631751,0.08976531,0.06398729,0.07946611,-0.031327616,-0.05506696,-0.077840164,-0.04311233,0.05276108,-0.0009522531,0.078731224,0.08303674,0.07006781,-0.022139587,0.04528658,-0.10533464,0.04611736,0.040872153,-0.016236871,0.060508847,-0.07393502,0.052134104,0.083464324,0.07677953,-0.10411319,-0.018396495,-0.14354339,-0.079307035,0.001493834,-0.07771471,0.02927633,0.009303516,-0.041229777,0.03238953,-0.061043248,0.023501197,0.07439239,-0.079958074,0.033916526,0.053238694,0.001285743,0.06519717,0.053459004,0.057074238,0.05701101,0.03966654,0.026745234,-0.046713606,0.06256646,-0.06493878,0.08712512,-0.042899087,-0.06198549,0.08540447,0.022195883,-0.0632409,-0.06276173,0.093395784,0.041740693,-0.035411112,-0.06684443,0.09906952,-0.061125107
SPNS3,-0.03195041,-0.044944942,0.058856566,0.03456362,0.049622364,-0.023806032,-0.021062536,-0.05607045,-0.026958589,0.047795698,-0.003322035,0.04541184,0.046800178,0.042295832,-0.009752091,0.056839723,-0.06259353,0.03817551,0.02675353,-0.0022145584,0.047276277,-0.030591354,0.02959709,0.047344934,0.045050286,-0.071516685,-0.013483657,-0.096899405,-0.042748395,-0.034508865,-0.032636795,0.015108701,-0.0018120091,-0.030247375,0.023201793,-0.02932197,0.022789994,0.045389578,-0.051172793,0.016095378,0.04342602,0.003804803,0.03747629,0.03601952,0.032796014,0.03263387,0.014842249,0.008012701,-0.017083883,0.04213506,-0.047796108,0.04822717,-0.0423766,-0.032717835,0.04529128,0.0062110424,-0.036798187,-0.03839059,0.06235014,0.03842973,-0.030493924,-0.054627985,0.071829975,-0.038234316
PKIB,-0.032143433,-0.014759727,0.02689442,0.010761447,0.035784595,-0.02051453,-0.007018635,-0.024326917,-0.0142973075,0.029809725,-0.0046627186,0.015564002,0.016622696,0.028916117,0.004814964,0.0368526,-0.03198648,0.02631186,0.01141439,0.014403284,0.038151108,-0.01660734,0.022272645,0.024030939,0.021494046,-0.04113889,-0.0035068966,-0.06719493,-0.017389385,-0.029511329,-0.018139267,-0.01603553,-0.0015085544,-0.018179007,9.686779e-05,-0.0022055972,0.017041406,0.029317006,-0.027919285,0.0080113895,0.026801253,0.006135199,0.019136664,0.02208687,0.005531931,0.010399681,0.0047585443,-0.011826355,0.0003594309,0.021656252,-0.030860271,0.026542127,-0.018826589,-0.005256787,0.025202088,0.0039140433,-0.022570312,-0.019616794,0.03966191,0.031236373,-0.012414115,-0.028788742,0.042409528,-0.018241003
PRNP,-0.027951902,-0.09533338,0.15080404,0.14316308,0.21197641,-0.13678914,-0.12325932,-0.15205099,-0.12722963,0.117580295,-0.12938648,0.1641136,0.025166444,0.14346325,-0.12599923,0.16065985,-0.117095076,0.12712905,0.15758434,-0.07781479,0.19965209,-0.16670276,0.054049097,0.16510786,0.10021679,-0.18422693,-0.071320444,-0.14671558,-0.097928226,0.004597053,-0.16640061,0.061729874,-0.027698452,-0.09872436,0.107868545,-0.06466715,0.071476534,0.15714225,-0.13019462,0.14705443,0.118542135,0.0066957064,0.10504979,0.0614653,0.13758822,0.15557057,0.10281304,0.12301357,-0.081347644,0.15400112,-0.08255204,0.11878602,-0.14556587,-0.110320374,0.06702775,0.043908138,-0.12888545,-0.13831683,0.08168946,0.15560907,-0.19704048,-0.15889631,0.23566595,-0.018992517
GM973,0.01825058,0.0996449,-0.100878954,-0.090905346,-0.08940855,0.05463994,0.09272184,0.10291003,0.07659379,-0.062301587,0.057817347,-0.12375982,-0.055946346,-0.07148953,0.09394589,-0.08332395,0.09266588,-0.06693677,-0.08082579,0.06635719,-0.09647402,0.103711486,-0.011278676,-0.09973474,-0.07074441,0.10864361,0.06700649,0.07417508,0.08739374,0.003976306,0.086887255,-0.085782245,0.012303183,0.064220205,-0.077220105,0.061575517,-0.054754622,-0.08526966,0.06220626,-0.06459045,-0.07639934,-0.009655025,-0.055184845,-0.056820065,-0.12359534,-0.10231955,-0.07748018,-0.10542001,0.058548246,-0.09808068,0.0703527,-0.080376655,0.10314643,0.10047428,-0.059913807,-0.014015682,0.077512965,0.079675615,-0.05105297,-0.080671735,0.12248246,0.08806889,-0.12633324,0.01781632
CORO1A,0.0041241944,-0.055702284,0.08364326,0.07163371,0.044240218,-0.0024348423,-0.041832067,-0.07613532,-0.027745917,0.039512184,0.033208635,0.07971184,0.0954636,0.0631848,-0.024618063,0.0109298825,-0.09394437,0.026872722,0.02737914,-0.033433095,0.027087897,-0.05506724,0.053111993,0.07973913,0.066378996,-0.098829426,-0.017474206,-0.12271941,-0.07520297,0.015669037,-0.059146967,0.05516355,0.0059616845,-0.028424747,0.033522394,-0.08197866,0.0017746519,0.05495526,-0.08011117,0.016243234,0.039821923,-0.00072549284,0.071187556,0.035961196,0.05096173,0.05768536,0.035669476,0.024446722,-0.0694377,0.04313979,-0.05175389,0.07714231,-0.023689572,-0.07416494,0.080774836,0.038067084,-0.04765162,-0.06402262,0.086360835,-0.008863881,-0.013086459,-0.06272054,0.085902184,-0.07610166
TIPIN,-0.07758446,-0.23376796,0.35036197,0.25352666,0.3389646,-0.1832056,-0.24702871,-0.28534275,-0.19726083,0.21897748,-0.16000007,0.3444481,0.1602657,0.2697907,-0.22245081,0.23901078,-0.29138547,0.16803047,0.27800483,-0.1498379,0.3340553,-0.30440712,0.13415745,0.30245462,0.230386,-0.3543797,-0.14433548,-0.34458637,-0.22346137,-0.0036919415,-0.3196871,0.16470523,-0.025081838,-0.15450653,0.19092166,-0.21082652,0.09718769,0.24676652,-0.20809025,0.19834006,0.21955566,-0.01114057,0.19172901,0.14275992,0.30380315,0.30034077,0.21819681,0.25119013,-0.17917752,0.28404915,-0.19913152,0.291551,-0.24907541,-0.24811386,0.16431746,0.046269484,-0.21169841,-0.26248553,0.20088845,0.2540094,-0.31550923,-0.29280186,0.41336986,-0.092489794
SDC1,-0.052409872,-0.056574672,0.07262921,0.032812923,0.05894997,-0.03890272,-0.04089874,-0.05360884,-0.02291016,0.049675457,-0.020878185,0.05618079,0.048876368,0.03916166,-0.0044413432,0.046169624,-0.07507254,0.03288375,0.04872425,0.011021048,0.06829477,-0.042418454,0.037854947,0.044670306,0.057868563,-0.06996196,-0.008863045,-0.10718152,-0.042153288,-0.028684095,-0.05410813,0.012478422,0.0051119756,-0.024946265,0.032099366,-0.044907708,0.025171226,0.05237693,-0.035896644,0.020859648,0.042098332,-0.006929215,0.044867147,0.054503478,0.04092857,0.044259552,0.028470814,0.011453681,-0.012354851,0.04154341,-0.06287493,0.06565909,-0.03701491,-0.03272165,0.056915283,-0.0070087984,-0.038166642,-0.039480124,0.06862164,0.053506337,-0.038746588,-0.060528427,0.08633517,-0.036968123
LTB,-0.020467956,0.0034697652,0.012898188,0.00472752,0.012061037,-0.00057817996,0.004879544,-0.00084319897,0.006603704,0.008417182,0.034732282,-0.00892036,0.017877884,0.011576068,0.027421195,-0.01295723,-0.023514882,0.007995352,-0.013589643,0.013182629,-0.0142138675,0.0001064837,0.026640404,0.011197805,0.010508895,-0.020032287,-0.0018267534,-0.04746487,-0.01952957,0.011188657,-0.0024693776,-0.01349543,0.00519784,-0.005794376,-0.011343175,-0.0069588367,-0.002596233,0.01815391,-0.023853354,-0.0026834384,-0.0005363985,0.00032939017,0.015957307,0.011439735,-0.018325524,-0.011429276,0.0003362745,-0.03588983,-0.0149320215,0.0021112487,-0.0010834271,0.011031246,0.015864141,0.0069407523,0.033892922,0.013554618,-0.0045637675,5.8085658e-05,0.039606456,-0.020029388,0.036538556,0.0041482113,0.0099198,-0.025955152
DUSP6,-0.0882371,-0.213276,0.29090047,0.20950517,0.28942105,-0.16143529,-0.20628755,-0.24966411,-0.16765074,0.18691117,-0.14197229,0.28878027,0.14010406,0.23222487,-0.1798356,0.2244133,-0.2587324,0.16065183,0.2266917,-0.107146665,0.30307674,-0.26624125,0.10575766,0.25893533,0.20853634,-0.3121906,-0.12015251,-0.3048629,-0.1925332,-0.02738782,-0.2720993,0.13530813,-0.008082563,-0.13813472,0.16248034,-0.18017495,0.103117295,0.22412272,-0.17614457,0.16901247,0.19523422,-0.011533059,0.15879816,0.14051756,0.25602305,0.25462282,0.1791848,0.21117243,-0.13788065,0.24393244,-0.18875109,0.25461307,-0.22621313,-0.20635422,0.15097891,0.036820747,-0.18773344,-0.21778627,0.17753017,0.22879013,-0.27317277,-0.25287777,0.35704795,-0.068901
UHRF1,-0.043514565,-0.104698926,0.11313523,0.07049294,0.086355746,-0.04189756,-0.073408246,-0.094561696,-0.049790137,0.08444399,-0.023811415,0.12621473,0.118795075,0.07615737,-0.038392346,0.07489774,-0.13284403,0.055540092,0.05840999,-0.02755645,0.09962467,-0.07843678,0.06337569,0.0787155,0.08946614,-0.12793967,-0.035254598,-0.17755418,-0.08920393,-0.032704532,-0.08264604,0.048453417,-0.002247436,-0.053767614,0.04830074,-0.083453454,0.03148593,0.08399044,-0.0786529,0.03544191,0.06418979,0.011101272,0.067763224,0.07503847,0.090942144,0.09218714,0.055158652,0.061023127,-0.05745081,0.07592037,-0.08754029,0.11107057,-0.074860826,-0.09083377,0.07414539,0.00070739165,-0.074552536,-0.09854277,0.10935308,0.072245896,-0.07779992,-0.10158795,0.14410698,-0.067771
BDH2,-0.008328902,0.016931161,-0.011686485,-0.007903263,0.014639091,-0.0077893585,0.010615882,0.0072872713,-3.456138e-05,0.008366877,-0.0010978505,-0.020845905,-0.018827718,0.0032264143,0.017859297,0.009164996,0.007993455,0.009051457,-0.009963185,0.014906559,-0.0056735277,0.0012563467,0.012241656,0.0037581995,-0.00918176,-0.0008042604,0.010249222,-0.015217714,0.004416148,-0.008514887,0.006729841,-0.028776929,-0.006523369,0.003984213,-0.012277429,0.015277436,0.0073489994,0.009656325,-0.011213258,0.004365772,7.266132e-05,-0.00059106946,0.009134956,-0.001808784,-0.026222333,-0.016750041,-0.0097064655,-0.036865987,0.01562997,-0.0032113083,0.0034721484,-0.010017369,0.010828875,0.018528517,0.007683659,0.009080745,0.001554396,-0.0007202001,0.015120732,0.0009900965,0.018704731,0.0051552095,0.012067806,0.00068043824
CAMSAP2,-0.045675077,-0.06130603,0.10192813,0.081751645,0.14915688,-0.09097089,-0.07811761,-0.098954484,-0.0781315,0.08918956,-0.07764677,0.09987058,0.025552295,0.10621504,-0.06712422,0.11224525,-0.09409443,0.089227036,0.09933797,-0.031908214,0.1416142,-0.112090476,0.041986935,0.109133825,0.07592556,-0.1293157,-0.039155796,-0.12648225,-0.065299995,-0.016137816,-0.1173966,0.026796516,-0.013688361,-0.06338286,0.06342835,-0.04756719,0.054962747,0.105851665,-0.08454615,0.09491201,0.08292997,0.002569031,0.06621422,0.05067884,0.08411426,0.10051996,0.06685553,0.07236333,-0.040484264,0.09989697,-0.06745914,0.096055895,-0.09467525,-0.06943147,0.056916185,0.021791914,-0.08531662,-0.090523444,0.06927079,0.11164401,-0.12595974,-0.110888034,0.1632953,-0.017078988
2810468N07RIK,0.13566914,0.22590646,-0.29276842,-0.24277306,-0.33593237,0.20615372,0.25942534,0.25666264,0.21351877,-0.2197001,0.15092517,-0.28355578,-0.121228695,-0.23525555,0.21755083,-0.2898292,0.279629,-0.24286741,-0.2697565,0.1204842,-0.3022248,0.2773031,-0.075693235,-0.2882873,-0.22478192,0.327918,0.19038728,0.30545372,0.25087428,0.07443216,0.23863599,-0.14506498,0.06999976,0.20560098,-0.231823,0.10377079,-0.15895852,-0.27652508,0.2021592,-0.24408591,-0.22707613,-0.062420085,-0.16392052,-0.19595465,-0.3028002,-0.25957832,-0.23172826,-0.26705962,0.08782357,-0.25528845,0.20717317,-0.24712913,0.286946,0.23799309,-0.20365329,-0.049478643,0.22497725,0.26863196,-0.21054973,-0.2529138,0.34512484,0.27479997,-0.3944943,0.06760248
MYO5A,-0.024485897,-0.04557857,0.052194126,0.03070277,0.043388214,-0.016635094,-0.02506618,-0.045424182,-0.027191639,0.047654323,-0.0022545774,0.049972452,0.057201218,0.037929807,-0.007836089,0.04126653,-0.06445247,0.03532446,0.016141389,-0.002968043,0.031967342,-0.03125954,0.02878731,0.042538874,0.038468182,-0.06824287,-0.01381691,-0.09915527,-0.04661651,-0.016561765,-0.030978745,0.015675899,-0.0038463231,-0.022505194,0.017287537,-0.035347957,0.015625535,0.04899302,-0.05207985,0.01088573,0.034358762,0.005467754,0.03903821,0.03506621,0.031708665,0.0301154,0.01480969,0.0034716614,-0.022557229,0.03442109,-0.043253604,0.047139302,-0.029304054,-0.0361291,0.046784293,0.008932244,-0.03524851,-0.040163647,0.06841162,0.027094,-0.019108104,-0.045781106,0.06810142,-0.037703916
DUSP5,-0.08914358,-0.13628899,0.18521066,0.12627783,0.19417962,-0.1118259,-0.12760131,-0.16491587,-0.107806414,0.1360987,-0.0787646,0.18311964,0.108844995,0.15707502,-0.1000137,0.15534621,-0.1978884,0.11651123,0.13765177,-0.05259511,0.21204494,-0.17168745,0.07350933,0.16950724,0.14946373,-0.21429078,-0.074388444,-0.2368581,-0.13743508,-0.03954868,-0.17611754,0.071766764,-0.0002868902,-0.10071819,0.10204513,-0.12087794,0.0789545,0.15326354,-0.12064893,0.110627934,0.13055141,0.00027861074,0.11246914,0.11045378,0.15836209,0.16944708,0.107691,0.13653517,-0.07716778,0.16461846,-0.13964504,0.17538476,-0.15145603,-0.12869893,0.11582704,0.014335219,-0.13120219,-0.14109701,0.13558471,0.15255797,-0.16871051,-0.16878262,0.23639715,-0.06632596
SAMSN1,-0.017236441,-0.025359683,0.03175704,0.021006383,0.012324549,0.008453611,-0.0029867976,-0.027893052,0.0027372753,0.020095812,0.05219212,0.013939604,0.050712865,0.019051172,0.018576339,-0.0098903105,-0.051539056,0.018801078,-0.013638534,0.0014333576,-0.00561738,-0.006782666,0.02369755,0.028314285,0.029769383,-0.04444553,-0.0063616238,-0.06858811,-0.03499589,0.0091428775,-0.0120405,0.018967498,0.0058616567,-0.004215695,-0.00023758691,-0.033357956,0.0008066464,0.031974975,-0.039840546,-0.007221207,0.016808914,0.0007674694,0.032814126,0.02319488,0.00979753,0.012720492,0.0066497102,-0.019529294,-0.027656302,0.0059244446,-0.026430279,0.031678785,0.0011193529,-0.02328812,0.057756707,0.019973721,-0.011969674,-0.010388815,0.06243761,-0.01585481,0.026552336,-0.018020282,0.026128385,-0.044429563
LAX1,-0.057231054,-0.08065988,0.09506546,0.053848594,0.08145531,-0.04431009,-0.057627346,-0.07740873,-0.048501574,0.07788794,-0.0228567,0.090023205,0.081952125,0.07709994,-0.026073795,0.07155199,-0.12152532,0.054163173,0.053856336,-0.011487946,0.09544858,-0.0725705,0.04808405,0.07608704,0.08506733,-0.117778085,-0.028183876,-0.14931428,-0.076240174,-0.03136146,-0.077191055,0.03478251,0.006122576,-0.04258143,0.038661197,-0.07147306,0.044509567,0.08013064,-0.06036347,0.032481767,0.062322337,0.00026226416,0.058080602,0.06893382,0.071082935,0.07762734,0.04457835,0.04677042,-0.03520309,0.0746101,-0.08559588,0.0983673,-0.064362325,-0.062829405,0.071790315,0.0041996352,-0.064328566,-0.06515701,0.09959963,0.072032966,-0.060884617,-0.08672036,0.121478684,-0.047523748
OAS2,0.01811688,0.10336089,-0.1229551,-0.115628175,-0.11655232,0.07854406,0.121478476,0.104738206,0.10823433,-0.07402083,0.09262817,-0.13912052,-0.039517928,-0.0915405,0.12060915,-0.11900758,0.09768277,-0.08759908,-0.10302754,0.07149024,-0.11569503,0.12031801,-0.016585665,-0.11463049,-0.06902601,0.13456117,0.07925123,0.07914134,0.10651141,0.009486666,0.09671948,-0.08279725,0.018094687,0.092209674,-0.09058402,0.05562921,-0.054824874,-0.09711735,0.077781,-0.09936749,-0.089371726,-0.021279901,-0.058524646,-0.055873983,-0.13372958,-0.11040704,-0.09025181,-0.12286557,0.061465126,-0.10935612,0.06878115,-0.08940928,0.117232494,0.09768017,-0.059448875,-0.0259898,0.093750805,0.099221654,-0.049758166,-0.10956435,0.15664624,0.10571064,-0.13967171,0.0044949437
NLRC3,-0.038972594,-0.04634648,0.057512186,0.033443335,0.065283194,-0.039845277,-0.028756276,-0.052502815,-0.035639405,0.050531797,-0.013819171,0.04625281,0.03413571,0.057405915,-0.017887745,0.0720156,-0.06907687,0.045375228,0.034053877,-0.0006880164,0.06472187,-0.04421269,0.032633223,0.053505763,0.05075804,-0.07374796,-0.015294651,-0.097007416,-0.0437368,-0.037042536,-0.045178723,0.008298926,-0.0021082703,-0.040123753,0.034114968,-0.030784514,0.02918257,0.05432675,-0.044990152,0.027334262,0.051633637,0.0035913736,0.043037463,0.040722076,0.039027058,0.0356706,0.02446147,0.021794412,-0.016596317,0.05719871,-0.051692568,0.0534626,-0.05144488,-0.027387764,0.043706052,0.004917763,-0.039562367,-0.041425765,0.063114874,0.053513043,-0.041906796,-0.05706298,0.081489906,-0.030767616
PPCDC,-0.049731337,-0.10479005,0.14118907,0.107060045,0.13252756,-0.06955509,-0.08649768,-0.123763785,-0.08938356,0.10324727,-0.037413172,0.12581752,0.08760621,0.116908625,-0.0736247,0.1147404,-0.1559192,0.079547085,0.08053002,-0.03971041,0.14049792,-0.12076485,0.05368045,0.1322338,0.10965982,-0.16054006,-0.0583008,-0.18213978,-0.10225267,-0.023109827,-0.119979635,0.061481763,0.0016935933,-0.072986625,0.06946158,-0.08949977,0.051290914,0.117157996,-0.0979871,0.063693136,0.10013825,0.003278479,0.089086205,0.06795865,0.118292674,0.1217619,0.073480025,0.08068374,-0.06771028,0.118273646,-0.09838337,0.13285938,-0.09932631,-0.10012843,0.0992369,0.026744395,-0.0926002,-0.09687356,0.11642576,0.110641815,-0.111082,-0.11909002,0.16588533,-0.04972446
KAZALD1,-0.04053375,-0.11824612,0.20008698,0.18338928,0.2656675,-0.16807987,-0.15658379,-0.1935486,-0.16403876,0.14920427,-0.16235784,0.20887129,0.04377045,0.18094416,-0.1608945,0.20203763,-0.14947121,0.15990111,0.20990391,-0.10292113,0.24863058,-0.20429505,0.064401284,0.20750606,0.13604517,-0.2368503,-0.08556763,-0.19322962,-0.12885672,0.01658342,-0.22235349,0.08620134,-0.0303019,-0.12482601,0.14225765,-0.08582364,0.085384384,0.20123358,-0.15273774,0.17890191,0.14894272,0.0056254044,0.13318458,0.07631425,0.18777438,0.1924147,0.13558841,0.15508199,-0.11368464,0.19184753,-0.09912728,0.15570647,-0.18759733,-0.14876932,0.079864286,0.050633974,-0.16387784,-0.1735242,0.1038085,0.20354038,-0.25617644,-0.20582372,0.2966769,-0.03100058
ATP8B4,-0.028512333,-0.019763097,0.023800608,0.0042598397,0.025473982,-0.012477197,-0.0019034753,-0.022256766,-0.008533922,0.028512632,0.006708475,0.01112619,0.021677569,0.023347333,0.010573629,0.034836445,-0.035864666,0.022437725,0.0073701404,0.013946682,0.026826978,-0.007101275,0.019455303,0.018827941,0.026729695,-0.038011525,-0.0012256331,-0.067667305,-0.018141352,-0.03496289,-0.010191552,-0.008117665,-0.0021836776,-0.013073675,0.004768408,-0.012568725,0.015909517,0.026386753,-0.0240101,0.00074864924,0.023067465,0.0009889565,0.020954233,0.025118578,0.0054743453,0.0057436563,-5.787611e-05,-0.011007544,0.0021820143,0.014798153,-0.029011834,0.022006817,-0.015587591,-0.0059833378,0.025591152,0.00010680035,-0.013308432,-0.016738662,0.04476233,0.020450823,-0.0028873086,-0.02652334,0.040817734,-0.029056925
IFITM3,0.010902412,0.0039788187,-0.001260832,0.0019331351,-0.029063962,0.03605906,0.021802021,0.0031264666,0.029120188,-0.012716394,0.069399,-0.008824211,0.04069306,-0.0050927103,0.035891503,-0.058844768,-0.013782992,-0.007033501,-0.048404366,0.0013391748,-0.060921162,0.021860532,0.019482503,0.0015601367,-0.0014419407,-0.008563109,0.014065174,-0.02914656,-0.016399661,0.03849385,0.019096587,0.005796306,0.0132812355,0.014869474,-0.0291349,-0.0280787,-0.023670258,-0.0012650639,-0.02236586,-0.028764643,-0.021119267,-0.0041774474,0.01995061,-0.0025939979,-0.02668325,-0.01727863,-0.012015004,-0.05190786,-0.034763232,-0.027962636,0.005448564,-0.0023582876,0.043706223,-0.009303056,0.03686677,0.023924664,0.005673174,0.011261606,0.038001858,-0.06652673,0.06871647,0.021304082,-0.016547378,-0.035796367
NCF1,-0.027402736,0.0052230954,-0.008553568,-0.03718663,-0.039155163,0.023144936,0.034243375,0.0028534457,0.036610473,-0.0026643183,0.034338817,-0.01700773,0.03354535,-0.04094013,0.05942369,-0.044569753,0.0032712566,-0.033239536,-0.018597938,0.020034194,-0.019914262,0.034465887,0.011455329,-0.02722042,-0.00016696006,0.020235501,0.0179097,-0.042794645,0.019497499,-0.016143072,0.03589735,-0.02391055,0.0042444263,0.023728669,-0.03855996,0.0036089346,-0.002678616,-0.023328304,0.0049663037,-0.042700596,-0.02565951,-0.007842436,-0.008996882,0.01687138,-0.04601259,-0.025526036,-0.036876,-0.058708467,0.02033614,-0.034405205,-0.009372254,-0.021888353,0.038382664,0.015269328,0.02247272,-0.027151816,0.013833422,0.019744918,0.022379352,-0.0304098,0.05868659,0.020602848,-0.015553281,-0.030433904
ART4,-0.039310317,0.00258217,0.019060843,0.0034224316,0.03663702,-0.022740696,-0.009249161,-0.0017383508,-0.00430297,0.023227409,0.01336211,0.00076818094,0.01652687,0.033308685,0.016646197,0.012048479,-0.049737856,0.020185687,0.0108389575,0.020467348,0.034282316,-0.0159289,0.038730778,0.007528469,0.02901046,-0.035924934,0.0074209,-0.06953366,-0.01853438,-0.016732818,-0.022767102,-0.025958499,0.010474158,-0.011621445,0.002207118,-0.009516256,0.012289608,0.019305423,-0.014234781,0.02178051,0.014438482,0.0068585724,0.015170015,0.025167868,-0.0075997454,0.008628134,0.009951785,-0.0043343604,0.0016695485,0.017116498,-0.022698466,0.03400992,-0.0031402335,0.0070637614,0.028946685,-0.0023687482,-0.017617326,-0.018241942,0.042193472,0.018112935,0.012124257,-0.013233835,0.026384078,-0.021115523
UBASH3A,-0.07797636,-0.1355713,0.18945175,0.13549432,0.2005265,-0.11403306,-0.12996522,-0.16757302,-0.11084731,0.12993614,-0.08368104,0.17867832,0.09009605,0.1580099,-0.10682835,0.15587124,-0.18190855,0.11929301,0.14614119,-0.05328791,0.20977141,-0.1661553,0.07490998,0.16814582,0.14007182,-0.20858864,-0.067759626,-0.22046915,-0.11991099,-0.03542544,-0.17860606,0.07190396,-0.005493028,-0.09407174,0.106298566,-0.10475273,0.0744039,0.14643013,-0.11772974,0.1106983,0.13813451,0.004251793,0.109965235,0.0977082,0.1570877,0.16524181,0.110420726,0.12378137,-0.07774091,0.1630276,-0.13480832,0.16697614,-0.15150851,-0.12317361,0.107996106,0.016640373,-0.12610528,-0.137481,0.12519604,0.16546491,-0.1795647,-0.16920675,0.23316184,-0.04783789
IFI206,0.14254501,0.2361843,-0.2970541,-0.24640116,-0.3358708,0.20691274,0.26570624,0.25723055,0.2182279,-0.2163706,0.1537949,-0.28888494,-0.11672492,-0.2415768,0.21641694,-0.29222155,0.27488932,-0.25182033,-0.2702312,0.11516946,-0.30275106,0.27989393,-0.0753182,-0.2937037,-0.22295024,0.33246893,0.19343698,0.30178708,0.25605065,0.06861439,0.24872497,-0.14823784,0.06617551,0.20223969,-0.2308193,0.11308548,-0.16977441,-0.28939068,0.20438862,-0.23363966,-0.23071559,-0.057182085,-0.16329019,-0.20184723,-0.30626583,-0.25089142,-0.24012998,-0.25329342,0.089067616,-0.26206642,0.20865153,-0.23747765,0.28972346,0.23106176,-0.20421676,-0.0477193,0.23030645,0.26537904,-0.2216385,-0.24780837,0.35022935,0.28245315,-0.39947644,0.061627664
TMSB4X,-0.0013031214,-0.055401057,0.0854698,0.07283614,0.048188273,-0.007081192,-0.045230817,-0.075173676,-0.029433854,0.04208687,0.030507248,0.08156937,0.09361546,0.06396482,-0.02341763,0.012221005,-0.09577179,0.028904364,0.028979372,-0.032640547,0.031932183,-0.05643706,0.056008115,0.0804842,0.06735149,-0.10112118,-0.019614493,-0.12501518,-0.0781673,0.016825814,-0.06273365,0.05260196,0.0054428633,-0.03116808,0.033848606,-0.07836032,0.004404286,0.058823727,-0.08017929,0.018966708,0.040512614,0.0013044253,0.07040125,0.037639156,0.05278879,0.057967953,0.037359893,0.025922269,-0.070810795,0.04607239,-0.051507566,0.07898311,-0.024491072,-0.073238745,0.081658654,0.035732154,-0.04879439,-0.06394392,0.08870787,-0.0046078786,-0.01611858,-0.06382891,0.08754691,-0.076063976
LHCGR,0.09614813,0.18824792,-0.22604819,-0.19442677,-0.25305802,0.15543184,0.21319035,0.21000047,0.17039607,-0.1708287,0.11778666,-0.235237,-0.09149735,-0.18580244,0.18530826,-0.23603803,0.21801575,-0.1901575,-0.20331183,0.10785767,-0.23839228,0.22526349,-0.05229304,-0.23887357,-0.17133805,0.25836515,0.14868279,0.22524348,0.19757237,0.0531628,0.18982539,-0.12986214,0.054649733,0.16113879,-0.18357137,0.09534922,-0.1278964,-0.21902277,0.15725651,-0.18791395,-0.17871211,-0.04104277,-0.13429584,-0.15273917,-0.25029716,-0.20625134,-0.19371963,-0.2138294,0.083431356,-0.20686884,0.16265929,-0.18904829,0.23446676,0.19699451,-0.1526485,-0.039006695,0.1712418,0.2012205,-0.16193569,-0.20438555,0.2787721,0.21960269,-0.31811407,0.06184511
IGHV1-74,0.13199824,0.22592327,-0.28079635,-0.23302507,-0.31554484,0.19855326,0.24977474,0.23934495,0.20906487,-0.20036022,0.15092538,-0.2750759,-0.11105561,-0.23104505,0.20593446,-0.284523,0.2589755,-0.23882812,-0.2513844,0.10441314,-0.28552473,0.26843446,-0.06952706,-0.27135944,-0.21756622,0.30920863,0.17944825,0.28459287,0.2510979,0.06522231,0.2377052,-0.14441971,0.058487564,0.19786005,-0.21835163,0.11074984,-0.1570043,-0.27533138,0.18966603,-0.22016907,-0.22173995,-0.05787908,-0.15364355,-0.18922317,-0.2911956,-0.2359554,-0.22548291,-0.2470347,0.087551855,-0.248176,0.18995696,-0.22933714,0.2727026,0.21944492,-0.19001009,-0.04837466,0.21632877,0.2467569,-0.2015321,-0.23970747,0.33477816,0.26520336,-0.37870982,0.0582627
GPC1,0.0033047386,0.05742804,-0.04500479,-0.036379933,-0.01928521,0.007903893,0.039186765,0.045181304,0.023219697,-0.014830943,0.0097433645,-0.062215813,-0.047708996,-0.018884733,0.0394979,-0.015420161,0.0416201,-0.019675381,-0.02722542,0.037241183,-0.023597866,0.03759168,0.001146256,-0.029898494,-0.03261773,0.037941873,0.031263135,0.02218996,0.042693157,-0.010391995,0.03386578,-0.057261102,-0.001426259,0.022043545,-0.0337461,0.035044953,-0.013052029,-0.023416355,0.02087751,-0.015728913,-0.027987568,-0.0052883253,-0.017743178,-0.028315593,-0.06417997,-0.045736957,-0.03086511,-0.057511237,0.032585453,-0.036150116,0.03148291,-0.03672879,0.0451181,0.053077072,-0.025145454,0.0012247227,0.0308404,0.02852796,-0.01968359,-0.022882484,0.04696793,0.030369785,-0.0338794,0.009727727
VAMP1,-0.065277174,-0.12101996,0.18150634,0.13773048,0.20363505,-0.11878462,-0.12777677,-0.16006184,-0.11752036,0.12291005,-0.10524145,0.17120351,0.06597591,0.15623118,-0.111509666,0.15953854,-0.16296671,0.116701335,0.14871334,-0.06383379,0.21096902,-0.1727616,0.06725998,0.17424737,0.12987874,-0.20819175,-0.07134858,-0.20097265,-0.11520196,-0.019988935,-0.18105066,0.067062065,-0.005942939,-0.09196349,0.09782621,-0.09770916,0.07060378,0.15485545,-0.116818964,0.117469996,0.13391586,-0.0048689246,0.10386211,0.08105373,0.15691791,0.1599144,0.113519885,0.11759731,-0.07975747,0.1572225,-0.11523703,0.15835121,-0.14384285,-0.12319268,0.094599955,0.028723251,-0.12409189,-0.13726258,0.11314128,0.17068934,-0.18422426,-0.16756645,0.23230937,-0.03456102
GDF3,0.020431727,0.10150592,-0.12598936,-0.11710023,-0.118370906,0.07822233,0.11367898,0.11650029,0.100893036,-0.08328211,0.08742699,-0.13838099,-0.043914143,-0.09227483,0.12609324,-0.11913016,0.10877468,-0.0837869,-0.10909858,0.07892543,-0.12540706,0.12576865,-0.012808844,-0.12576222,-0.07875347,0.13851058,0.074335374,0.090484135,0.103598714,0.008729445,0.100830145,-0.08955476,0.016926568,0.087023176,-0.10252669,0.07178883,-0.06701419,-0.10069518,0.077185504,-0.09690138,-0.08755103,-0.010280579,-0.07222755,-0.06261267,-0.13934132,-0.12300667,-0.094036914,-0.12809452,0.06632519,-0.11680941,0.07614204,-0.10456957,0.11484387,0.11609657,-0.0666632,-0.023682237,0.084061325,0.10423151,-0.05514621,-0.1098243,0.1556964,0.11669454,-0.1556268,0.017134607
ARHGEF28,0.019052677,0.08078337,-0.07869433,-0.068065934,-0.05771932,0.03348165,0.07125619,0.075761944,0.05269181,-0.042217042,0.038833067,-0.0999633,-0.058274735,-0.0480093,0.06911225,-0.05243621,0.07663141,-0.047454737,-0.059776574,0.05047769,-0.06796236,0.07558314,-0.005521048,-0.07045016,-0.056451693,0.08172612,0.053273916,0.062510945,0.07016631,-0.0028831903,0.06712072,-0.07053295,0.0044379327,0.043143548,-0.05839293,0.052974254,-0.033516843,-0.061221957,0.041793264,-0.04124791,-0.056594066,-0.0064600706,-0.03934768,-0.045496013,-0.10397078,-0.07907982,-0.057688214,-0.085688055,0.046756797,-0.07031131,0.058127765,-0.064138085,0.07647311,0.081239015,-0.04766699,-0.004127428,0.061467167,0.06198311,-0.04204077,-0.05787472,0.09090118,0.06306924,-0.08225436,0.012968357
MYC,0.5292381,-0.02396398,0.15758754,0.5863945,0.2967136,-0.31734705,-0.31856227,-0.31721807,-0.39027724,0.19847882,-0.5321791,0.34889412,-0.51278347,0.07244728,-0.6338511,0.21181768,0.5732073,0.4364642,0.4495837,-0.5789016,0.2362927,-0.32486016,-0.1038604,0.24176335,-0.3448853,-0.18725061,-0.5092499,0.5756037,-0.01607446,0.45567515,0.03071091,0.235049,-0.3417311,-0.23735023,0.21192099,0.4179236,0.10331784,0.22066288,-0.43141603,0.6002125,0.11911196,0.21373233,0.068774626,-0.26881313,0.13276666,0.20740242,0.116868965,0.2803244,-0.41278407,0.28399268,0.37257266,-0.28500283,-0.21645027,-0.14819457,-0.3163081,0.4362961,-0.29145467,-0.40146604,-0.33959725,0.19139773,-0.6136533,-0.16363259,0.42000994,0.21056382
FSTL1,0.018684525,0.100965396,-0.11270268,-0.09851564,-0.106256306,0.067698546,0.10736258,0.11252013,0.088667,-0.07697041,0.07589509,-0.13021192,-0.04545537,-0.08277795,0.1080111,-0.119827785,0.0980899,-0.07395776,-0.101177454,0.07285837,-0.10654603,0.11507781,-0.013559146,-0.115394816,-0.07917564,0.120964214,0.061882585,0.08506278,0.102180086,0.012286201,0.095265515,-0.08894166,0.01783199,0.07725708,-0.09456013,0.074570954,-0.054398753,-0.096175894,0.067501925,-0.07600633,-0.07616106,-0.007287778,-0.072879836,-0.0602222,-0.13410893,-0.1114579,-0.085869856,-0.124181345,0.057267707,-0.10554434,0.06707919,-0.09530179,0.10718974,0.113547415,-0.06396269,-0.023644127,0.06654155,0.088248946,-0.053774945,-0.10093302,0.1469237,0.11058088,-0.15642282,0.03184189
MPDZ,0.016738694,0.100943506,-0.09956333,-0.08945168,-0.088584274,0.052068833,0.0907809,0.09965211,0.07345527,-0.06363703,0.05470916,-0.1252457,-0.060802598,-0.06932007,0.09199765,-0.08090214,0.08990458,-0.06812302,-0.082012296,0.06497242,-0.09009762,0.0970407,-0.010749372,-0.09650099,-0.066427454,0.108456954,0.064818606,0.07835778,0.08931173,-0.0008932455,0.08394826,-0.08729595,0.013782069,0.06480799,-0.07937394,0.060451716,-0.04663018,-0.08385943,0.061305724,-0.06310768,-0.0767533,-0.011506084,-0.0569979,-0.05574499,-0.12612112,-0.09892535,-0.07495071,-0.10439971,0.060974248,-0.09392327,0.070726454,-0.080671325,0.10154248,0.10338093,-0.057063513,-0.013370413,0.07439521,0.08030256,-0.053654984,-0.07918985,0.12214514,0.09068814,-0.12434683,0.018513612
TTC39B,-0.047192454,-0.06809363,0.10351899,0.07565901,0.13942054,-0.079301566,-0.07519022,-0.097053066,-0.06733318,0.07825112,-0.06258236,0.09929572,0.035128374,0.09661136,-0.06094743,0.10538294,-0.09883667,0.080845386,0.08932006,-0.032347977,0.124578014,-0.10548068,0.048535444,0.106979445,0.078462094,-0.12550946,-0.03674533,-0.13029647,-0.07221933,-0.016969409,-0.11090199,0.02735686,-0.008957235,-0.058312856,0.061122864,-0.052395023,0.04960964,0.0987925,-0.0818148,0.07991739,0.08274773,-0.0010453314,0.06940648,0.0561686,0.08560304,0.087012574,0.06773735,0.06588276,-0.04155229,0.10258886,-0.072188154,0.092992604,-0.08859875,-0.066315904,0.06450364,0.01703965,-0.077570125,-0.08983984,0.078361675,0.10485958,-0.103768736,-0.100132525,0.14798233,-0.02938949
ARHGDIB,-0.00123097,-0.06364037,0.10031241,0.08731069,0.064167604,-0.014039468,-0.05393589,-0.08759996,-0.03948264,0.05110158,0.027681474,0.09111972,0.09913513,0.07745812,-0.036431324,0.026108764,-0.11134539,0.034019582,0.04310713,-0.038803935,0.048598804,-0.07060048,0.05932951,0.096574016,0.07954614,-0.1157859,-0.026213566,-0.13807234,-0.085883185,0.015175715,-0.0781395,0.06359044,0.00488404,-0.03759685,0.045090593,-0.089562535,0.008814232,0.06922048,-0.08763029,0.029570606,0.052560695,-0.00080090016,0.07858902,0.041445278,0.06707151,0.07320095,0.04779107,0.04097182,-0.078256875,0.058932874,-0.060689855,0.095322624,-0.036524627,-0.082923725,0.09081465,0.042344388,-0.056627102,-0.077106245,0.096115746,0.0064418204,-0.030505547,-0.07877399,0.10399738,-0.081262946
CST7,-0.04805083,-0.05476886,0.0713139,0.035564348,0.055731557,-0.030232694,-0.034573216,-0.05671944,-0.028927892,0.059598945,-0.0091336,0.058628835,0.06347599,0.052581325,-0.008991681,0.060138393,-0.08500722,0.044028513,0.036326326,0.0043102875,0.06950785,-0.03933432,0.036492802,0.050009355,0.058760375,-0.089567155,-0.0155356955,-0.122065485,-0.05359044,-0.041108713,-0.04790981,0.015108917,0.00068437867,-0.03297372,0.023934543,-0.040030375,0.027822362,0.055081047,-0.047192194,0.014450483,0.04869056,0.0064494386,0.038164403,0.04670708,0.045323294,0.045810107,0.022889927,0.018317662,-0.018826775,0.04481101,-0.064098455,0.067721814,-0.045666344,-0.03686885,0.052467465,0.0027533472,-0.04618355,-0.04513447,0.075362965,0.05212391,-0.039464243,-0.06497106,0.08416859,-0.04478039
PAG1,-0.03961345,-0.06316975,0.08165376,0.05849629,0.09346543,-0.054715794,-0.050523948,-0.073067635,-0.050185043,0.06632914,-0.03691083,0.07632141,0.0382338,0.0657001,-0.037719313,0.07548065,-0.082251735,0.057161696,0.050144285,-0.016737267,0.0897599,-0.06856392,0.038026698,0.07822799,0.06089866,-0.09478792,-0.029931547,-0.11157255,-0.05596884,-0.01665575,-0.075402655,0.019611578,-0.0035789106,-0.04423269,0.03790566,-0.040949114,0.037877887,0.07499733,-0.06175643,0.04370849,0.061771013,0.0021225326,0.05871008,0.0466417,0.06511541,0.064752676,0.043996193,0.034654815,-0.031397387,0.074945316,-0.06313845,0.07411812,-0.062090814,-0.052579354,0.058850013,0.011668149,-0.056381498,-0.05921074,0.074101895,0.07967359,-0.06942324,-0.07078432,0.10836179,-0.024392031
IRF6,-0.033625584,-0.018907003,0.054497063,0.047814004,0.0944425,-0.059017602,-0.042869397,-0.049889173,-0.048330586,0.054917034,-0.044375494,0.04505819,0.00026085135,0.07054662,-0.034048434,0.069944866,-0.055952925,0.05969141,0.062171035,-0.006466396,0.09181324,-0.06346721,0.03217679,0.06618743,0.04515943,-0.081086844,-0.015639553,-0.08545254,-0.036083765,-0.014708687,-0.07217157,-0.0027500428,-0.006411707,-0.038952224,0.03664432,-0.02077965,0.033775583,0.065718934,-0.04516658,0.058404785,0.04841761,0.0043672062,0.04549409,0.026175369,0.035978395,0.052489415,0.03921839,0.028748754,-0.018736579,0.055685624,-0.036045622,0.05528147,-0.046628498,-0.02969898,0.030613257,0.01606064,-0.049116626,-0.05304798,0.041725278,0.06949689,-0.07015024,-0.066331044,0.09908867,-0.012602078
