,0,1,2,3,4,5,6,7,8,9,10,11,12,13,14,15,16,17,18,19,20,21,22,23,24,25,26,27,28,29,30,31,32,33,34,35,36,37,38,39,40,41,42,43,44,45,46,47,48,49,50,51,52,53,54,55,56,57,58,59,60,61,62,63
SLC22A3,0.03950385,0.11947612,-0.12562926,-0.13456455,-0.1269644,0.12235351,0.12495109,0.10835284,-0.044135176,-0.0020898506,-0.11151617,0.1539686,-0.11773717,0.086591735,-0.0986817,0.09118526,-0.11174148,-0.070791274,0.016538491,0.09307808,0.155514,0.015437227,-0.12361227,-0.1467736,0.1438325,-0.12690854,0.13074508,0.11530359,0.11836395,0.13783696,0.10810574,0.11497795,-0.14820902,0.113063246,-0.0736033,-0.08940418,-0.122532845,-0.11271788,-0.096947804,-0.13135473,0.109554835,-0.12910858,-0.11410088,-0.14705256,0.1294594,0.11112903,0.12950215,-0.11715759,0.1038839,0.106240556,-0.11903699,0.069906615,0.088656545,-0.05717994,0.102488905,-0.12531449,-0.13182679,-0.093005456,0.16281565,-0.05262213,-0.10503874,-0.123353004,0.12310355,-0.048496332
CREG1,0.012664521,-0.019214932,-0.020539993,-0.011529826,-0.047699235,-0.004317723,0.033259958,0.03769261,-0.0031524822,0.025239512,-0.026913792,0.035208695,-0.0151109025,0.017678592,-0.039906617,0.024015456,-0.07060164,-0.019161716,0.022566782,0.04323575,0.0053705424,0.008427717,-0.038642764,-0.033147488,0.040561907,-0.01293692,0.014798097,0.022379976,0.014571108,0.028903197,0.03343594,0.03126496,-0.04543365,0.054035693,-0.0040057395,-0.010841038,-0.022596795,-0.060918458,-0.016320284,-0.025773667,0.032795064,-0.0014213833,-0.02467563,-0.01992441,0.03280087,0.040004432,0.023166552,0.002411902,0.025098039,0.029778797,-0.033780176,0.048208393,0.030852923,-0.03139433,0.05048903,-0.05075151,-0.038620494,-0.023474691,0.05781074,-0.01228652,-0.03886976,-0.031885028,0.012909036,-0.008395429
ENG,0.06663898,0.12642501,-0.16463721,-0.12691052,-0.22108032,0.16463831,0.15758187,0.16908577,-0.049169257,0.037396282,-0.15129659,0.15136519,-0.1461354,0.12913571,-0.15456726,0.15180129,-0.16723898,-0.115992695,0.037890665,0.13104849,0.20237628,0.037916765,-0.15142027,-0.17651004,0.18373667,-0.16687578,0.19359566,0.15561312,0.18422727,0.21995722,0.12486669,0.13957909,-0.22701243,0.20110244,-0.08584435,-0.13506126,-0.15527181,-0.15060465,-0.10051756,-0.18248986,0.1954315,-0.17638487,-0.151149,-0.1990432,0.19075628,0.16605414,0.15457237,-0.15648864,0.18540438,0.14946784,-0.14689521,0.07819895,0.16090342,-0.08922373,0.098607324,-0.19337055,-0.18383607,-0.14441514,0.22194262,-0.056840062,-0.12163698,-0.16803491,0.13713156,-0.036739614
ACAP1,0.055220526,0.10100654,-0.11175206,-0.09080554,-0.15314732,0.113767326,0.13309607,0.1243398,-0.0436676,0.035269484,-0.11368987,0.12746656,-0.103064716,0.08525604,-0.112543136,0.10497098,-0.14074947,-0.08389181,0.0312642,0.09279442,0.14729565,0.028527424,-0.12816195,-0.13713852,0.13987872,-0.10925154,0.1251487,0.11706141,0.12400998,0.15844782,0.098729394,0.10517271,-0.17036214,0.15520933,-0.06389125,-0.09768534,-0.11686671,-0.12949823,-0.073679134,-0.12907948,0.14126474,-0.121474825,-0.106717534,-0.12472464,0.13720185,0.12673818,0.11735048,-0.10233239,0.11975739,0.10381211,-0.10576545,0.06939885,0.10452286,-0.06934734,0.101077095,-0.14650245,-0.1352593,-0.107063666,0.1692902,-0.04588317,-0.09799192,-0.12853703,0.111781836,-0.042849932
VLDLR,0.022211507,0.08070026,-0.0721449,-0.08617417,-0.07807164,0.069747046,0.0785956,0.071905464,-0.016972654,0.0018925034,-0.07095842,0.096264675,-0.070571795,0.04972136,-0.0720848,0.06504514,-0.08598249,-0.048547238,0.009469219,0.051872432,0.09205468,0.014136337,-0.08136263,-0.09466606,0.08810375,-0.066176765,0.07720333,0.06916884,0.06992697,0.078254834,0.06024088,0.07350216,-0.09480357,0.08151567,-0.03619886,-0.04961497,-0.06592496,-0.085437015,-0.051853914,-0.07180716,0.06274811,-0.07378385,-0.06433288,-0.08332866,0.08553079,0.0681205,0.0731372,-0.06981238,0.05156403,0.077221766,-0.077144384,0.048849776,0.051325943,-0.05184983,0.07270159,-0.082204,-0.08859237,-0.061526462,0.10364835,-0.023449572,-0.07351222,-0.077173635,0.06794212,-0.02952499
HAAO,-0.057581544,-0.051565286,0.075026914,0.053506687,0.12164359,-0.11290535,-0.09434964,-0.06328113,0.08188842,-0.01993503,0.048489884,-0.0744658,0.056406908,-0.056850545,0.04159575,-0.06450059,0.081223615,0.0398752,0.015433304,-0.12004674,-0.14171019,-0.00844048,0.084210165,0.07450087,-0.10207677,0.113192365,-0.09022319,-0.07843709,-0.11178282,-0.10177234,-0.097857,-0.073692486,0.102970175,-0.11485615,0.08242551,0.07004641,0.11359641,0.069147736,0.05936221,0.11397357,-0.12852518,0.11652882,0.09076349,0.095450625,-0.09699911,-0.07908284,-0.10769697,0.09036635,-0.09294668,-0.037670843,0.067332774,-0.07104367,-0.084258795,0.022589074,-0.0730757,0.09638819,0.08414169,0.0671913,-0.11573221,0.081842825,0.06351619,0.112587065,-0.09201791,0.053907488
C230085N15RIK,0.04860937,0.14193916,-0.13510397,-0.13702546,-0.13942741,0.1480771,0.14348415,0.121621735,-0.054619387,0.0073123425,-0.117506415,0.16397151,-0.1298241,0.09509939,-0.11432016,0.10666913,-0.12083155,-0.081048414,0.021859046,0.08580139,0.18059552,0.018458351,-0.13506022,-0.1647571,0.1578259,-0.13478488,0.14706874,0.11790882,0.12988526,0.15285625,0.12773453,0.13991025,-0.17588142,0.1363743,-0.080390126,-0.10949138,-0.13607603,-0.11822969,-0.10376546,-0.14738153,0.13380519,-0.14126693,-0.12004656,-0.16190568,0.1383198,0.13613942,0.1347457,-0.14177302,0.118938066,0.117165,-0.12212442,0.06369377,0.106057584,-0.06323601,0.10474931,-0.14329633,-0.14531448,-0.11209799,0.17080088,-0.044861898,-0.11024932,-0.13897477,0.1383694,-0.0436144
4833407H14RIK,0.044111006,0.12759914,-0.12674385,-0.122985184,-0.15296127,0.1451549,0.12758675,0.11092453,-0.056612357,0.00238771,-0.103829145,0.1498706,-0.13049716,0.09951539,-0.11612043,0.11509677,-0.11234638,-0.07898866,0.030040774,0.08110491,0.17581844,0.030853244,-0.13389221,-0.14587574,0.15626796,-0.13157827,0.14075305,0.11998433,0.12228705,0.15699641,0.12031135,0.1292153,-0.16174302,0.12112439,-0.075354025,-0.1133703,-0.121609926,-0.11122119,-0.09650291,-0.13122158,0.12377455,-0.14586818,-0.118154325,-0.16386415,0.13309814,0.12931973,0.1224958,-0.13104169,0.13313407,0.11791441,-0.11954713,0.06087219,0.10853278,-0.03819036,0.10192712,-0.13618116,-0.14080149,-0.08950627,0.17024423,-0.048195884,-0.09749878,-0.14275044,0.12477233,-0.052794028
XPC,0.06962328,-0.24517354,0.47856802,0.6642835,0.5477393,-0.49567056,-0.47855452,-0.38315046,0.20476641,0.18604128,0.30216458,-0.5285853,0.4003352,-0.04920458,0.3527497,-0.4937485,0.47619483,0.4118438,0.037511043,-0.5504255,-0.60298645,-0.4821771,0.49586532,0.3569404,-0.6010324,0.60767424,-0.48848367,-0.5730685,-0.3967065,-0.5930488,-0.62908673,-0.65371114,0.082244575,-0.5150012,0.5609417,0.19960767,0.36281067,0.6013045,0.41759446,0.5170646,-0.3174907,0.66648173,0.6458991,0.6506414,-0.51042765,-0.34456146,-0.6189354,0.52108157,-0.56202704,-0.4168934,0.5821316,-0.49354205,-0.43170983,0.3434701,-0.74600863,0.5590344,0.54685265,0.45974886,-0.6345292,0.5433305,0.52705514,0.6558232,-0.7083858,0.5406817
CTNNAL1,0.0061230846,0.06748383,-0.07776929,-0.091575414,-0.09088425,0.092121035,0.06281965,0.06451574,-0.035177745,-0.0116206445,-0.063546725,0.10753353,-0.08811338,0.06171587,-0.06496777,0.057710823,-0.07339853,-0.05502734,0.016379036,0.061662473,0.117902026,0.019793987,-0.08071409,-0.09009364,0.10355905,-0.08123652,0.08855903,0.068104744,0.07375233,0.08565579,0.08031562,0.09048775,-0.08985623,0.06576736,-0.042062327,-0.06061216,-0.06505954,-0.065203026,-0.06618648,-0.07475138,0.051888682,-0.08656225,-0.08427552,-0.10921687,0.068136185,0.06934932,0.08226108,-0.08418822,0.06369044,0.0714723,-0.09084739,0.0480164,0.06856207,-0.018669903,0.07347951,-0.07722323,-0.08509456,-0.04676181,0.101322874,-0.033779062,-0.07047981,-0.09425843,0.075013585,-0.032495905
GM8203,-0.06825751,-0.11701256,0.12661447,0.12031491,0.16735044,-0.19976847,-0.12821576,-0.077144034,0.10527052,-0.00399331,0.07671752,-0.12165749,0.119918846,-0.103359155,0.08110494,-0.10500961,0.063696876,0.07760811,0.0031077582,-0.12275319,-0.23656866,-0.022898093,0.120646425,0.13145953,-0.14281133,0.14567249,-0.15694068,-0.11013965,-0.16677432,-0.18151562,-0.14124398,-0.133247,0.15349379,-0.13466641,0.13317737,0.14580089,0.13492207,0.06252597,0.08827204,0.16924833,-0.14438334,0.20385242,0.11846551,0.16640311,-0.13902923,-0.07731354,-0.14251375,0.16672125,-0.12155598,-0.0850735,0.11241667,-0.05382701,-0.1276012,-0.0017038472,-0.09435475,0.13971882,0.12745452,0.0847077,-0.17396061,0.078809716,0.06325344,0.15280737,-0.13396321,0.09604892
COX6A2,0.05517728,0.17102307,-0.1682962,-0.17343776,-0.17891651,0.18298037,0.17188546,0.123405755,-0.074768886,0.003887508,-0.13492393,0.19012429,-0.15146513,0.12885751,-0.1456512,0.13345324,-0.13383661,-0.100046486,0.024834685,0.1140272,0.23530686,0.0128380135,-0.15955165,-0.21474403,0.18793014,-0.17954928,0.18201005,0.12897474,0.18475576,0.19099154,0.15992326,0.16644949,-0.229144,0.18330538,-0.1059351,-0.15585063,-0.16394086,-0.14421755,-0.1144823,-0.18298814,0.18455002,-0.17914799,-0.15532312,-0.2185771,0.14956495,0.15797125,0.1565626,-0.18326706,0.11929675,0.13839401,-0.15384291,0.08018539,0.14552586,-0.051247638,0.1093406,-0.18218732,-0.16432898,-0.14233595,0.21215174,-0.0569356,-0.12153488,-0.17487776,0.15391104,-0.04947898
GM5111,0.037493438,0.086955056,-0.089934096,-0.09543726,-0.09619032,0.09043758,0.11013427,0.09045117,-0.031902276,0.012732543,-0.087079294,0.12282157,-0.09055439,0.06613965,-0.084139615,0.07017083,-0.10683358,-0.06430808,0.019975271,0.06520089,0.12005419,0.020412698,-0.10738265,-0.11477843,0.11418892,-0.08640992,0.09690423,0.09401252,0.088082016,0.1074155,0.08824661,0.09632701,-0.12749077,0.10703957,-0.05903095,-0.07839781,-0.09118791,-0.10092911,-0.069122344,-0.09475765,0.087138124,-0.09803579,-0.09089013,-0.1027883,0.09332636,0.09931572,0.09656281,-0.08323954,0.08264873,0.08635361,-0.08789399,0.05971566,0.07071825,-0.05377355,0.09358703,-0.107925296,-0.10797093,-0.08013853,0.1280016,-0.03981422,-0.07977329,-0.105508655,0.093670286,-0.032598093
GPR171,-0.081473395,-0.15117699,0.1694771,0.1591359,0.22348616,-0.23940976,-0.17169198,-0.12789237,0.1332165,-0.004810188,0.12734105,-0.16962692,0.15921643,-0.14489308,0.109415635,-0.12509444,0.12581834,0.09994419,0.0051138196,-0.18361208,-0.29194376,-0.012757078,0.16733071,0.18331954,-0.19974673,0.20093915,-0.20149635,-0.15697838,-0.23136522,-0.23692048,-0.18218477,-0.16597928,0.21973914,-0.18351237,0.18435517,0.16800031,0.19044283,0.10438885,0.13268837,0.22024657,-0.20237437,0.25929502,0.16718957,0.22363107,-0.18082203,-0.12817565,-0.19881344,0.21186602,-0.16373095,-0.117209956,0.15246014,-0.09369622,-0.1755642,0.021015812,-0.13902721,0.18501514,0.18840387,0.13445145,-0.23233663,0.116664246,0.11161324,0.2087684,-0.1839229,0.12678874
ADGRG3,0.09716063,0.1950945,-0.19345917,-0.16300234,-0.2166181,0.18871367,0.22475943,0.1946944,-0.06870957,0.036084272,-0.18446101,0.20456532,-0.17728126,0.14957884,-0.16338933,0.15682545,-0.1995721,-0.119430736,0.027402548,0.12696229,0.24505812,0.011353668,-0.18279245,-0.24095303,0.21164592,-0.18632102,0.22608796,0.1813279,0.22259387,0.23867093,0.14777428,0.1676214,-0.28695482,0.2409763,-0.106571585,-0.17569713,-0.20775813,-0.19196045,-0.1261006,-0.21553221,0.2415232,-0.21207148,-0.17064232,-0.21682726,0.21904933,0.22064586,0.19324723,-0.18365116,0.19582643,0.17364787,-0.15283264,0.093001075,0.17048387,-0.11642012,0.12023635,-0.23688647,-0.21154651,-0.17606352,0.2487808,-0.060138874,-0.14380342,-0.1964743,0.17982925,-0.024095997
ARRDC4,-0.017863518,-0.012250129,-0.0015203096,-0.032341287,-0.002594933,0.014003845,-0.011887386,0.004946932,-0.008330159,-0.021369837,0.0017427532,0.035262287,-0.016155433,0.006903816,-0.011746875,0.0018139109,-0.008788489,-0.008003075,0.022412088,0.004995834,0.005968772,0.0076533332,-0.007833861,-0.0103085805,0.027225617,0.005633034,-0.014011964,-0.008807588,-0.013838985,-0.012808837,0.030289132,0.02461619,0.008084329,-0.02017314,0.0074635223,0.0072206557,0.011526689,-0.000321378,-0.01944207,0.006846087,-0.040493384,-0.0008479727,-0.008501606,-0.024303794,-0.010539148,-0.005587466,0.0052051414,-0.008468233,-0.014487186,0.011203002,-0.03388527,0.007869516,0.0066424124,0.016491756,0.04234819,-0.0005134344,-0.014221961,0.011358149,0.018409606,0.0035883244,-0.013944557,-0.010755114,0.0154090505,-0.028798033
ERP29,-0.034027033,-0.036053833,0.044832155,0.035860285,0.08199425,-0.105971694,-0.03422066,-0.011756651,0.07428724,-0.006610986,0.0093560135,-0.032385867,0.047104724,-0.04536534,0.01813085,-0.0349857,-0.0038172975,0.024723947,-0.00031643175,-0.06479015,-0.109639026,-0.002634015,0.03177073,0.04532956,-0.05973375,0.06476041,-0.06268049,-0.02815276,-0.08040924,-0.079836704,-0.07226311,-0.055681624,0.059326224,-0.054527782,0.06295957,0.06932455,0.056310758,0.0006075846,0.035369165,0.07420358,-0.063444234,0.09650838,0.047211953,0.07632388,-0.045387913,-0.015987635,-0.05815833,0.082890734,-0.050734743,-0.016837742,0.04364648,-0.012000971,-0.058476415,-0.029686082,-0.023607075,0.049563337,0.044132106,0.023553623,-0.067837164,0.03100832,0.009347321,0.065685764,-0.04972949,0.05353631
AMIGO2,0.036608934,0.21126886,-0.20718478,-0.20987386,-0.22007285,0.18554838,0.18816644,0.17786238,-0.04766781,-9.07518e-05,-0.17424189,0.20448275,-0.18563077,0.15791704,-0.17530675,0.15381742,-0.17216544,-0.13339609,0.022521906,0.11796436,0.24748033,0.03076088,-0.16453528,-0.23890732,0.21615732,-0.20862359,0.23306926,0.17821321,0.221286,0.22308384,0.14323032,0.18403578,-0.26032734,0.17431933,-0.10095558,-0.16886339,-0.19591568,-0.1511095,-0.15253243,-0.20465131,0.21150231,-0.19835038,-0.17248526,-0.26366812,0.20158869,0.20150481,0.17754227,-0.22027783,0.20244376,0.18399447,-0.17380904,0.07797709,0.17432247,-0.083194226,0.10839763,-0.19323488,-0.19940302,-0.1805337,0.23248364,-0.056504972,-0.13503805,-0.19080716,0.16732551,-0.036296576
LSP1,-0.006985547,-0.0512533,0.044747345,0.043680668,0.030346308,-0.07360649,-0.018610172,0.004590217,0.03334311,0.020558544,0.007591403,-0.019852474,0.028335676,-0.023746278,0.0010628618,-0.025134481,-0.030304104,0.01253115,0.019811494,-0.039788224,-0.085159235,0.0014117584,0.01875002,0.02684268,-0.03333226,0.05596506,-0.03406509,-0.022314709,-0.054390382,-0.04762604,-0.028367862,-0.026050314,0.014462949,-0.0022986531,0.049992412,0.03850463,0.030563984,-0.022029493,0.014660999,0.05021712,-0.024470314,0.07776147,0.028927566,0.06076948,-0.034861166,0.013481051,-0.038836613,0.065186426,-0.018493693,-0.0054409057,0.02138009,0.0039641634,-0.0267932,-0.022483762,-0.0066980273,0.023936614,0.013656087,0.010648172,-0.032464493,0.029926607,-0.0024199504,0.02353216,-0.04506043,0.037611824
IFITM1,0.008496704,-0.07267931,0.012570245,0.03317079,-0.026855089,-0.045819294,-0.005210072,0.010156386,0.013221398,0.037726082,0.0074128276,-0.0042049475,0.012860723,-0.0054609478,-0.02439833,-0.0018507242,-0.050474316,-0.0081260055,0.03155361,0.019278686,-0.049637325,0.007910162,-0.0049103945,-0.00014127791,0.008295774,0.021945024,-0.009281475,-0.009896915,-0.019841157,-0.0063412897,0.014135741,0.011939671,-0.018804524,0.04175663,0.01929332,0.0035555437,0.007485606,-0.039594077,0.0013083145,0.009131659,0.013361186,0.042995524,-0.0038066264,0.018247698,-0.0042055137,0.024134047,-0.008550081,0.033767104,0.0073424783,0.0021880902,-0.007343173,0.039475024,0.006500639,-0.018782161,0.014652744,-0.027751494,-0.0070869178,-0.0008825343,0.018669274,0.010410318,-0.018784603,-0.0034247525,-0.029277347,0.019043595
ABCG3,-0.0584936,-0.041619968,0.039489157,0.02522491,0.031109288,-0.03971154,-0.07543181,-0.02303446,0.027389564,-0.01596366,0.026677888,-0.031664874,0.0257333,-0.028478919,0.018153058,-0.026824363,0.011935212,0.0018105134,0.0262242,-0.035257794,-0.04880201,0.010896876,0.028294027,0.045029026,-0.025945447,0.048784014,-0.040479153,-0.033503238,-0.03811989,-0.044726852,-0.036940068,-0.037914902,0.06175291,-0.07592371,0.058963947,0.059506755,0.0663131,0.04681408,0.014872864,0.06441765,-0.067155555,0.049285065,0.020555325,0.01944359,-0.048377585,-0.025070786,-0.04587447,0.045437403,-0.019685347,-0.016947944,0.009736106,-0.021151537,-0.013339933,0.024499118,-0.01782637,0.046110753,0.03588017,0.048799977,-0.045024734,0.0287231,0.0049179625,0.039013438,-0.03302941,0.016345672
PBLD2,0.046107665,0.18105169,-0.17333753,-0.17769198,-0.18961035,0.16702466,0.16013885,0.15145752,-0.06301093,0.0013480484,-0.14161833,0.17960693,-0.16622618,0.13381325,-0.13940188,0.13260731,-0.14274621,-0.11418675,0.015404308,0.11284307,0.22473443,0.025091846,-0.14277121,-0.20469904,0.19786294,-0.17304707,0.19802038,0.14328131,0.19160828,0.1892253,0.14504603,0.16199762,-0.22423056,0.14980994,-0.09603909,-0.14966455,-0.16302583,-0.13224792,-0.13503271,-0.18196216,0.17010584,-0.17987871,-0.14536554,-0.22668228,0.18432091,0.1658691,0.1536277,-0.18141875,0.16101527,0.14913851,-0.16009371,0.07547363,0.14796111,-0.058646042,0.103968024,-0.16949445,-0.17267552,-0.13436894,0.2069707,-0.045027375,-0.110135294,-0.1714591,0.14995302,-0.030569635
CD9,-0.036601692,-0.06008928,0.03381879,0.016215712,0.032899197,-0.046073984,-0.044664256,-0.032439776,0.016798057,-0.007897325,0.021128193,-0.01629961,0.0258677,-0.035449993,0.0071059735,-0.023222305,0.0021099746,0.023276214,0.018966598,0.011474848,-0.07488,-0.0070314407,0.020521276,0.031804603,-0.007089637,0.029531384,-0.05750402,-0.050988387,-0.053260535,-0.061710346,-0.008054674,-0.011269972,0.058810342,-0.04210243,0.034944087,0.065517336,0.043408267,0.015818194,0.0047362447,0.045346487,-0.054179218,0.06445448,0.020824457,0.015286423,-0.057874862,-0.030065892,-0.026595198,0.03536731,-0.048725247,-0.019859258,-0.0079343915,0.018987365,-0.018726695,0.008124389,0.012456521,0.03252024,0.027044177,0.032097124,-0.023869582,0.0051478148,-0.006937815,0.021037988,-0.031482324,-0.00075403135
HID1,-0.034386396,0.020959534,-0.01068384,-0.022584476,-0.01626037,-0.0014294796,-0.024323385,0.015003823,0.018981237,-0.020168137,-0.0142918425,0.010585424,-0.018065155,-0.004785374,-0.017327271,0.019628603,-0.027766146,-0.014764465,0.015623929,0.0050513074,0.015833668,0.010349944,-0.010495227,-0.0074320585,0.028916612,0.008491129,0.007714331,0.010660682,0.008647274,0.0018755011,-0.003282722,-0.0011700541,0.0004377272,-0.039595168,0.02693269,0.019434776,0.023431364,0.0129833175,-0.01808789,0.011687413,-0.018052984,-0.007238212,-0.013975803,-0.038824845,0.009291723,0.0050055124,-0.0050590336,-0.0068894997,0.03303037,0.022989955,-0.019784797,0.0063612424,0.01679597,0.0066957325,0.01803165,0.0042403303,-0.0077242814,0.006699659,0.009353757,0.004324835,-0.02199546,-0.006797038,-0.0024131532,0.008974048
SP100,-0.067548685,-0.12064847,0.123842716,0.09980102,0.1555435,-0.16691376,-0.13379085,-0.09378169,0.087477684,-0.0042448603,0.09644426,-0.1189549,0.10191398,-0.10007861,0.066191524,-0.09113162,0.09364393,0.06897555,0.0107324235,-0.13241315,-0.2146084,-0.008063611,0.13251728,0.12951484,-0.14080477,0.1495682,-0.14666149,-0.12703705,-0.1746452,-0.17397344,-0.12569912,-0.103714734,0.16247497,-0.13409933,0.1443284,0.121897995,0.14736867,0.07755405,0.09001123,0.16572087,-0.15219864,0.19372028,0.121857874,0.1475194,-0.13980033,-0.09414564,-0.14653134,0.14410518,-0.123592846,-0.07630884,0.09504928,-0.07115771,-0.116506815,0.021358551,-0.09842685,0.13864851,0.13012788,0.098064676,-0.16104057,0.08990981,0.07645258,0.14251482,-0.13667597,0.08344201
LY86,-0.13183102,-0.35244474,0.3721271,0.31949723,0.3737734,-0.4283022,-0.37586775,-0.31431037,0.087064505,-0.00026399642,0.30601728,-0.33642298,0.28848544,-0.21269326,0.27726984,-0.27346343,0.36385804,0.18956828,0.05719006,-0.25451443,-0.4426716,-0.08581883,0.344607,0.33291093,-0.33025303,0.41178966,-0.41619426,-0.36433554,-0.3559041,-0.3660243,-0.293481,-0.31362152,0.381551,-0.3604855,0.24757612,0.21823671,0.38754207,0.2960884,0.24964681,0.39973894,-0.39372277,0.40313154,0.32335493,0.3695539,-0.38587546,-0.36079967,-0.38704708,0.33125004,-0.33432856,-0.32439268,0.27156085,-0.2188172,-0.28339586,0.20899025,-0.28009418,0.28721413,0.37110886,0.35664636,-0.39807305,0.21078779,0.32204494,0.40711164,-0.37152445,0.16680562
IGLV1,7.621944e-06,0.05327236,-0.05626797,-0.08050585,-0.058266625,0.0776723,0.047860943,0.038821314,-0.035303555,-0.015551474,-0.036064647,0.10119186,-0.07119386,0.043873593,-0.042244732,0.040105514,-0.040879384,-0.03910313,0.023256764,0.043032452,0.09912098,0.0141357705,-0.0648162,-0.06941365,0.09200901,-0.05573734,0.053062778,0.045726135,0.049014732,0.06200746,0.07571814,0.07413435,-0.06262703,0.028019466,-0.034149002,-0.045420323,-0.04638626,-0.041183274,-0.055546682,-0.057235423,0.016091853,-0.07167654,-0.071552455,-0.087770194,0.046006814,0.035216473,0.06990036,-0.06816081,0.03446027,0.044924892,-0.070940495,0.036421232,0.04834936,0.0042467527,0.0707653,-0.057812307,-0.057328425,-0.016366398,0.078583404,-0.031904943,-0.050998397,-0.06442125,0.06927683,-0.036231212
NEO1,-0.033912025,-0.01703189,0.02322988,-0.014289163,0.023138274,-0.019173484,-0.03248646,-0.0122259185,0.011377484,-0.030090028,0.009930833,0.013003664,-0.0052498356,-0.010392908,0.007654122,-0.0060953796,0.020987798,-0.0029120408,0.015871672,-0.016754812,-0.009732202,-0.0025463179,0.008548811,0.012286801,0.006892048,0.031992443,-0.03135922,-0.021137495,-0.027199164,-0.026015595,-0.002256617,0.0014296547,0.04179439,-0.05869037,0.019597787,0.020400759,0.033904754,0.023242693,-0.004224051,0.03253665,-0.06637354,0.01786522,0.0068273246,-0.0071904697,-0.02478047,-0.035831712,-0.01614613,0.0047002584,-0.021936262,-0.002750557,-0.010097811,-0.008405775,-0.008991804,0.02489715,0.007831663,0.016179275,0.01972339,0.043694675,-0.014330961,0.0123760905,0.006956335,0.02340735,-0.011010315,0.0015330436
FCGRT,0.056890383,0.18107407,-0.16882227,-0.16202696,-0.18600605,0.16195199,0.15054658,0.14597374,-0.05143562,0.0050296895,-0.13306317,0.15988737,-0.1627453,0.11607598,-0.13695835,0.13924256,-0.1340208,-0.10705118,0.023848757,0.09500639,0.20222494,0.029235896,-0.13910183,-0.19078636,0.1817829,-0.15469655,0.18742268,0.13197732,0.18335101,0.19147716,0.1303001,0.14350344,-0.2153624,0.13591704,-0.08367027,-0.15117767,-0.14654802,-0.124994256,-0.12345988,-0.17115162,0.16462529,-0.18405297,-0.12908158,-0.21104166,0.17944805,0.15802602,0.14504111,-0.16510741,0.16923887,0.15163627,-0.14102975,0.0621232,0.14026819,-0.056960907,0.09411952,-0.15599391,-0.16699836,-0.12415621,0.2008216,-0.037338883,-0.096128024,-0.1668593,0.13458987,-0.022648942
ANGPT1,-0.0041536633,-0.032379847,-0.0013340805,0.006889373,-0.042226136,-0.022729643,0.0017528161,0.027249027,0.010196451,0.021372244,-0.016274888,0.014558915,0.0023174137,-0.0048932023,-0.022732008,0.018057737,-0.059827253,-0.031778082,0.021776067,0.023150995,-0.013526358,0.019049484,-0.021973751,-0.008237682,0.020757448,0.005417954,0.010087896,0.002963461,-0.0031660981,0.017955374,0.014140967,0.016298167,-0.017968968,0.021557845,0.0063215196,0.012915086,-0.0018387623,-0.04168229,-0.011626113,-0.007957336,0.010095619,0.017836,-0.0045729745,-0.009673804,0.021098664,0.030043982,0.006914459,0.01918424,0.027730351,0.01468933,-0.03722366,0.040459603,0.026577402,-0.026101585,0.03915257,-0.03513788,-0.028998202,-0.003110176,0.039303135,-0.0039889794,-0.027236791,-0.022755012,-0.0058301724,-0.0032219347
NCEH1,0.04336477,0.10166414,-0.11417329,-0.10115777,-0.16217169,0.120904475,0.094916604,0.10726391,-0.040973768,0.0057461075,-0.10369649,0.11781019,-0.101843864,0.0759725,-0.1092637,0.12020649,-0.11508471,-0.08208972,0.030828591,0.08248332,0.14191915,0.03402316,-0.11493006,-0.12971167,0.137873,-0.10646439,0.13275321,0.10665865,0.12265621,0.16394497,0.0934937,0.09334099,-0.15232196,0.116193086,-0.052103814,-0.09853864,-0.100641236,-0.10606839,-0.078952014,-0.120470956,0.11808144,-0.14445892,-0.10695221,-0.15063775,0.13818188,0.11098954,0.10532852,-0.105823435,0.14365098,0.11401131,-0.10896833,0.050338656,0.10790922,-0.041892987,0.087039515,-0.12574498,-0.12980959,-0.08776183,0.16700013,-0.047772273,-0.077979125,-0.13009062,0.09844459,-0.039376225
RNF125,0.050174654,0.15422109,-0.14804883,-0.14621721,-0.17613754,0.15660225,0.14065272,0.12930523,-0.052444264,0.0019062497,-0.13079613,0.157591,-0.14314966,0.11151031,-0.12925455,0.13209748,-0.12334862,-0.09847608,0.018794186,0.10104363,0.18981996,0.021295656,-0.14124809,-0.17704551,0.17215782,-0.1464467,0.16988638,0.13098478,0.16495033,0.18688683,0.12458818,0.13172129,-0.19867247,0.1313376,-0.086501256,-0.1388561,-0.14058733,-0.12216158,-0.110026285,-0.15659021,0.14378932,-0.17470294,-0.13073382,-0.1969278,0.16089712,0.14191975,0.14114454,-0.1562044,0.15370233,0.14043616,-0.13664971,0.064828984,0.12298909,-0.048350442,0.09918502,-0.1507389,-0.156661,-0.113895684,0.19147284,-0.04603775,-0.091757156,-0.15972717,0.1246795,-0.027825888
COX6A1,0.058952942,0.08476515,-0.114946365,-0.07935195,-0.15269552,0.099681914,0.14095244,0.13488898,-0.023859933,0.045566447,-0.12168271,0.12158534,-0.10219382,0.090307236,-0.11155067,0.100888826,-0.15013315,-0.08622855,0.02759632,0.09989977,0.13266361,0.01911693,-0.123261884,-0.133552,0.13212177,-0.11167092,0.1310462,0.11924249,0.1290629,0.15988794,0.08593771,0.100490876,-0.17767352,0.16904616,-0.058285836,-0.09703347,-0.121773094,-0.13911767,-0.071517535,-0.13311638,0.15677282,-0.1132875,-0.1021535,-0.118730575,0.14322193,0.13613923,0.12301249,-0.094788596,0.12168551,0.106964916,-0.102687016,0.081057794,0.11155765,-0.09630661,0.09328255,-0.15808377,-0.13532875,-0.114561945,0.17463888,-0.04154411,-0.098936684,-0.12268478,0.10085751,-0.023067914
IFI209,-0.032978453,-0.03502812,0.046561323,0.019519411,0.061210245,-0.04820704,-0.061526842,-0.039186962,0.030772336,-0.012150366,0.033546403,-0.024156071,0.021642707,-0.019513592,0.023848599,-0.04178921,0.054142762,0.024965007,0.021504898,-0.06486673,-0.06821277,-0.012911461,0.045234278,0.03764354,-0.04551497,0.06565277,-0.05229578,-0.058199313,-0.062420283,-0.059512507,-0.0401233,-0.025047168,0.05289777,-0.07125015,0.05254051,0.036571126,0.065781295,0.044633616,0.026143633,0.065490365,-0.09130082,0.06169307,0.04620274,0.045844477,-0.066799626,-0.054776017,-0.05306766,0.039802805,-0.06430955,-0.024460718,0.022589993,-0.041921854,-0.045338307,0.034769315,-0.036367096,0.05436416,0.044287972,0.054966755,-0.05736134,0.04221402,0.03326466,0.06269628,-0.049849503,0.025122095
CLU,-0.0019061435,0.06873089,-0.07412053,-0.09796022,-0.07449606,0.093008295,0.06070421,0.060183205,-0.020437784,-0.026196592,-0.071527176,0.10947335,-0.081505984,0.0519151,-0.06365725,0.059039444,-0.07250742,-0.045862492,0.0057872105,0.06389428,0.108021654,0.007848628,-0.0837674,-0.07931487,0.10416978,-0.08197249,0.0755474,0.06692814,0.06276648,0.07620531,0.07370335,0.08456053,-0.07234396,0.0440614,-0.044066597,-0.04137684,-0.06767529,-0.058370482,-0.07323598,-0.07602377,0.035328023,-0.08150126,-0.07669379,-0.11085226,0.06742784,0.057111375,0.08802335,-0.0869486,0.05581569,0.07729868,-0.08891229,0.05001507,0.06541859,-0.02876537,0.08413753,-0.068834215,-0.07745545,-0.04767129,0.09841548,-0.04417541,-0.0723958,-0.080472305,0.07966436,-0.040486995
CLEC12A,-0.038643375,0.020092208,0.031938232,0.014062956,0.08355584,-0.0922858,-0.055520408,-0.014776796,0.10151024,-0.026249066,-0.005492636,-0.05133022,0.025360785,-0.024396613,-0.018844817,-0.03554605,0.034385547,0.014995638,-0.012568938,-0.119745,-0.1078788,-0.029899552,0.057150416,0.027115721,-0.09136562,0.060616203,-0.047346476,-0.031526547,-0.06656515,-0.074601464,-0.106643155,-0.058864266,0.050879132,-0.09157482,0.07533251,0.05806682,0.06791948,0.04376321,0.036301024,0.081651255,-0.070402846,0.09104078,0.08492243,0.06748134,-0.035097826,-0.020823063,-0.07365679,0.050105423,-0.04636693,0.016134776,0.0577718,-0.06722827,-0.06743051,-0.025541741,-0.08461577,0.07247339,0.03414388,0.0036490206,-0.08515993,0.08583171,0.024013303,0.09450482,-0.05837929,0.06251742
RNF38,-0.0009677205,0.035757586,-0.023085905,-0.042672902,0.0038777888,0.0033002459,0.03655847,0.040197518,0.028434686,-0.0043694302,-0.04440238,0.056649167,-0.029978717,0.010853387,-0.029120144,0.022545237,-0.056634635,-0.01926754,0.0056490228,-0.00814613,0.0075598285,0.004817426,-0.04181339,-0.03693927,0.02387333,-0.009499989,0.022203393,0.033548087,0.0024698414,0.011783365,0.0016301684,0.024073955,-0.029362515,0.027123563,0.0025838986,-0.0034141056,-0.019345216,-0.046447154,-0.020146005,-0.0081778355,0.012415551,-0.0019736716,-0.027877197,-0.014704008,0.023088025,0.04014285,0.02306088,-0.004692279,0.006905658,0.036444984,-0.02641987,0.02311252,0.0019638576,-0.04984572,0.038298003,-0.028120596,-0.031034399,-0.03400498,0.024198905,-0.005818246,-0.04697045,-0.027746528,0.021368546,0.0075859595
MECOM,0.030553969,0.082966335,-0.10115421,-0.10029162,-0.14043927,0.11023539,0.087726764,0.10357499,-0.037000388,0.0018431433,-0.09452621,0.11377238,-0.09776266,0.074707806,-0.095537715,0.09669706,-0.11440016,-0.07129879,0.02223014,0.08587387,0.13167,0.03149356,-0.10139942,-0.11207281,0.1266655,-0.10410159,0.1183361,0.09479746,0.10880716,0.13398038,0.08797713,0.097585626,-0.12991574,0.10507128,-0.047267523,-0.075207025,-0.09416968,-0.09546727,-0.07459336,-0.1083166,0.10021416,-0.1184394,-0.10060382,-0.13263315,0.11639036,0.100381896,0.09916325,-0.09467586,0.11463303,0.10480117,-0.109044716,0.055178635,0.10164891,-0.049540754,0.08408678,-0.11225851,-0.11484289,-0.080940574,0.14324524,-0.0461473,-0.08642974,-0.11202867,0.0932487,-0.039126318
UNC45BOS,-0.0090431925,0.04757552,-0.04704421,-0.07387299,-0.043209016,0.063467905,0.03409023,0.036964692,-0.013329364,-0.025957964,-0.041748498,0.08477481,-0.058563076,0.028729491,-0.042397477,0.040949896,-0.042903945,-0.0347443,0.013162477,0.031726867,0.076375514,0.010602102,-0.055917732,-0.0531836,0.07793234,-0.045024134,0.040544122,0.04223015,0.03716284,0.049179826,0.052021295,0.057185147,-0.037646357,0.0069754347,-0.02235771,-0.026843194,-0.032581504,-0.031217493,-0.051269613,-0.041380197,0.0033452883,-0.059560575,-0.05653397,-0.077324465,0.046920445,0.029253408,0.058245365,-0.06079737,0.037466593,0.054681562,-0.06038761,0.02742862,0.039813153,-0.006998889,0.063658156,-0.04209863,-0.04679215,-0.01570136,0.06582062,-0.025060052,-0.045951024,-0.04995489,0.05603622,-0.03144102
TSC22D3,-0.46425012,0.04075167,-0.023622228,-0.026026487,0.32526988,-0.47880638,-0.22025141,0.28399134,0.7924904,-0.2837739,-0.3551324,-0.44100273,-0.053741634,-0.01186889,-0.048480496,-0.17680588,-0.16282152,-0.06590298,-0.32652053,-0.5156324,-0.5068069,0.024836019,0.4210772,0.30633405,-0.40907148,0.25347292,0.081353694,-0.046136107,-0.24671604,-0.21913692,-0.75570786,-0.26804972,0.39727986,-0.4522278,0.48885062,0.49336413,0.089524895,0.16730066,-0.12371812,0.27007908,-0.17525178,0.48338342,0.5143267,0.15025452,0.16837177,0.06715057,-0.18357682,0.1700145,0.22301176,0.23284675,0.17812413,-0.28316072,0.0057831965,-0.5049005,-0.5448333,0.3511453,-0.003908552,-0.22793558,-0.34237957,0.3958587,0.11184979,0.42296627,-0.3191332,0.41109404
H2AFY,-0.13106078,-0.39222822,0.4318633,0.4368265,0.5100704,-0.53770757,-0.43645585,-0.35731235,0.20922439,0.028195873,0.3526013,-0.42122465,0.42036715,-0.31802666,0.2958042,-0.33680192,0.37821406,0.26647094,0.04390099,-0.3950009,-0.64566845,-0.11140975,0.4164034,0.42070213,-0.46341226,0.46960658,-0.5166067,-0.4008254,-0.48873198,-0.53848815,-0.4012574,-0.42505735,0.46342713,-0.41883492,0.37654287,0.32941613,0.45458493,0.32201457,0.3350408,0.5235266,-0.4262436,0.5674667,0.39746374,0.5278263,-0.4768556,-0.33234078,-0.4772448,0.48010534,-0.4145638,-0.35355574,0.39013332,-0.25173947,-0.43107396,0.17074198,-0.35921803,0.4165441,0.48248973,0.3354478,-0.5462527,0.29471296,0.32670826,0.51398575,-0.43003127,0.26920736
LCP1,-0.1024728,-0.2071526,0.19920512,0.2117632,0.25207245,-0.28570014,-0.2142761,-0.14928818,0.14449906,0.0007205121,0.14363727,-0.20783709,0.19521162,-0.1585856,0.12296649,-0.1552633,0.13642886,0.11606833,-0.001016682,-0.18066978,-0.34822294,-0.028210945,0.18900508,0.21508506,-0.22494873,0.2172955,-0.23357536,-0.19683126,-0.2594698,-0.27444905,-0.21076651,-0.19126461,0.24505192,-0.19827035,0.19905615,0.20439845,0.20736343,0.12264986,0.14775544,0.2488089,-0.2109876,0.3039677,0.1847862,0.24109088,-0.22365865,-0.1405266,-0.22350106,0.23137182,-0.18255404,-0.14769474,0.17344816,-0.0921101,-0.19468778,0.02831433,-0.16537856,0.20894453,0.21287045,0.1519643,-0.2656165,0.12369828,0.1204397,0.23275365,-0.21465455,0.14259964
PDGFRB,-0.0005944688,0.04846014,-0.049375013,-0.07526332,-0.0419908,0.066343084,0.03857614,0.041566104,-0.015204556,-0.015687369,-0.04079991,0.085919455,-0.060175113,0.033394806,-0.052838396,0.041282564,-0.048609108,-0.031019116,0.017770395,0.030691713,0.06841071,0.0074782483,-0.060760163,-0.058727957,0.074361645,-0.05001487,0.03754358,0.04736151,0.03062363,0.04169969,0.061844997,0.0642509,-0.04981943,0.031226113,-0.026761632,-0.02602962,-0.038282942,-0.04022641,-0.046875976,-0.03898666,0.018022798,-0.04942427,-0.057109192,-0.07004474,0.03018858,0.037515253,0.05377954,-0.054770134,0.019899243,0.04950071,-0.06134214,0.027850293,0.036766514,-0.014006764,0.07016657,-0.04142793,-0.05569066,-0.036505446,0.060921766,-0.025702018,-0.058151014,-0.05553729,0.06623711,-0.03629959
CNN3,0.05495709,0.1612465,-0.16511278,-0.15337189,-0.15205894,0.16790782,0.16963881,0.1514144,-0.034135282,0.0060301013,-0.14682512,0.17852105,-0.15931228,0.12241106,-0.14301734,0.119070075,-0.14778437,-0.08940804,0.016293146,0.092898,0.20362091,-0.0011670515,-0.14714915,-0.19281681,0.17286739,-0.16087437,0.18000405,0.14801721,0.16296946,0.17410524,0.11914211,0.15322582,-0.21386936,0.16849086,-0.086457655,-0.13612345,-0.16575314,-0.13665055,-0.11285155,-0.16733105,0.1703121,-0.1605786,-0.14652506,-0.19168301,0.1544474,0.17050384,0.16750899,-0.17269823,0.13923576,0.15023714,-0.12966043,0.06431795,0.12417102,-0.087539494,0.10439798,-0.17075714,-0.16551156,-0.15059052,0.19065863,-0.048886567,-0.13086885,-0.16075076,0.15306915,-0.033627857
NDNF,-0.025664216,0.0057667084,-0.011036245,-0.04181318,-0.010294758,0.019920422,0.0020084456,0.008278947,0.0022653341,-0.00872086,-0.0027078995,0.041665446,-0.031373456,0.009927191,-0.016345989,0.007848438,-0.009875365,-0.01785363,0.020315364,0.010141473,0.025070915,0.009258859,-0.009142727,-0.013750756,0.03832227,-0.009706546,0.004791837,0.006619621,-0.007533198,-0.0029470809,0.02581445,0.033198528,0.0047437698,-0.015521865,0.011388648,0.008584276,0.010384524,-0.007964247,-0.024411445,-0.0025530364,-0.027202666,-0.0010453684,-0.023030747,-0.027741496,-0.005628675,-0.006948836,0.016639624,-0.024745554,-1.6530976e-05,0.012798717,-0.04230074,0.02176639,0.01887853,0.00040834025,0.035503123,-0.006512236,-0.009448724,0.007203795,0.015783522,-0.0012699887,-0.022103852,-0.013110593,0.017948559,-0.01162587
HNRNPAB,-0.017506199,-0.040005144,0.040923662,0.03915996,0.06588089,-0.099845484,-0.020757992,-0.0015598908,0.06703384,0.0119324885,0.0040976396,-0.026081856,0.04062531,-0.034764685,0.0073158247,-0.033793487,-0.019428179,0.019804131,-0.0022263099,-0.051332258,-0.10007899,-0.008674607,0.02464033,0.03184997,-0.050312012,0.05970022,-0.052529182,-0.024860617,-0.06274943,-0.06501964,-0.06077835,-0.046697237,0.03262847,-0.027475588,0.052290514,0.05021888,0.04216974,-0.015906405,0.033769824,0.059685204,-0.041259747,0.08661821,0.04390211,0.07533431,-0.033776004,-0.002327703,-0.046604633,0.07662016,-0.040002856,-0.008996744,0.037609156,-0.004541438,-0.05220208,-0.03689393,-0.01650408,0.030862488,0.027924784,0.013659369,-0.049022708,0.0317365,0.007762311,0.053250916,-0.047362138,0.05673716
PKIB,-0.06277321,-0.091296986,0.098203585,0.06661371,0.12851587,-0.14331664,-0.13027525,-0.08310125,0.06817758,-0.027671915,0.07629627,-0.09694153,0.09011497,-0.05124852,0.06440126,-0.08468514,0.113649726,0.047009964,0.015171234,-0.11589625,-0.14662156,-0.023018166,0.10939444,0.0998234,-0.12074405,0.13037273,-0.11584055,-0.10393983,-0.12683392,-0.12872988,-0.11478478,-0.09207086,0.12881564,-0.15280023,0.111943915,0.09230986,0.12898852,0.096349776,0.07602327,0.14386518,-0.15390408,0.13723725,0.11216851,0.10949831,-0.11879791,-0.10673261,-0.12969184,0.107115805,-0.11164556,-0.072045684,0.074232385,-0.07866944,-0.09157038,0.048578322,-0.096949086,0.10986887,0.11324381,0.10071925,-0.13032961,0.08535529,0.0877889,0.14653477,-0.111598425,0.057156675
LRRC8C,0.03477354,0.10720673,-0.121579625,-0.1243335,-0.12664755,0.12647593,0.12061962,0.11052095,-0.026343524,-0.0025062785,-0.116615705,0.14717124,-0.11142957,0.08769971,-0.10521391,0.09467863,-0.12486039,-0.06920385,0.0065084863,0.093915895,0.15771876,0.006102316,-0.12812924,-0.14241938,0.1413813,-0.12403595,0.12991016,0.10543384,0.11908868,0.14081973,0.08860789,0.11712986,-0.15417343,0.13007656,-0.07194431,-0.09130812,-0.123598546,-0.11296417,-0.085650876,-0.12971587,0.11612178,-0.12878792,-0.109268956,-0.14537685,0.12860247,0.11400604,0.13187483,-0.12730034,0.10132841,0.11796698,-0.112043515,0.06847615,0.10212216,-0.08415969,0.09873804,-0.14224255,-0.1306352,-0.10695456,0.15481186,-0.048408523,-0.105224706,-0.11569622,0.11041496,-0.035862174
MPDZ,-0.010182383,0.039156854,-0.044757046,-0.07034962,-0.051359408,0.05814828,0.028680809,0.036840677,-0.019009158,-0.025677007,-0.039904516,0.07724753,-0.06124319,0.036126927,-0.042450696,0.036284328,-0.039132684,-0.03600467,0.015534248,0.033345222,0.06974258,0.011982948,-0.048790094,-0.052015267,0.07129056,-0.04518935,0.040016383,0.03920267,0.03523263,0.043619957,0.057170585,0.05757765,-0.036273338,0.008866109,-0.019817643,-0.02357005,-0.031107996,-0.031377286,-0.049487032,-0.036821764,0.00079606473,-0.052293904,-0.04962372,-0.07770105,0.036535576,0.029859528,0.053145237,-0.055621773,0.029809324,0.04730323,-0.06469229,0.024575427,0.040608544,0.004553888,0.05631943,-0.035407025,-0.048475407,-0.014941322,0.062360883,-0.021174394,-0.04460337,-0.052518472,0.0538774,-0.032082822
SLC18A2,0.05050292,0.14279363,-0.15403819,-0.14648746,-0.19540064,0.1582576,0.13450456,0.14207315,-0.053099364,0.0067285374,-0.13133495,0.15123273,-0.14125833,0.11385639,-0.13843058,0.14510584,-0.13625698,-0.10324487,0.028271228,0.107650414,0.18919978,0.03415148,-0.13953726,-0.17358017,0.17548737,-0.14651117,0.17198436,0.13189085,0.16964166,0.19805248,0.11710031,0.1255634,-0.19893642,0.14917675,-0.074306116,-0.13363594,-0.13705151,-0.13073084,-0.102996506,-0.15991695,0.16046289,-0.17964712,-0.12968615,-0.19717586,0.17251433,0.14169788,0.14010972,-0.1523224,0.1686576,0.14514391,-0.13811775,0.060695626,0.14241296,-0.06159338,0.09867586,-0.16041762,-0.168297,-0.120459065,0.20389827,-0.054006286,-0.09493981,-0.15834081,0.1282392,-0.038171563
CCDC136,-0.014585951,0.004795391,-0.0017626211,-0.033689465,-0.0038667694,0.024891425,-0.0071018524,-0.0029087216,-0.01785203,-0.023024842,-0.0029121274,0.05307758,-0.02471874,0.00577317,-0.0038885893,0.0073611885,0.006172687,-0.010385184,0.02133962,0.014990415,0.03416479,0.0035656765,-0.028903887,-0.016524885,0.047190137,0.0048904717,-0.0040130466,-0.0011809282,0.00052822195,0.011492033,0.036452707,0.029963046,0.0010822695,-0.027678926,-0.008628614,-0.0069635063,0.0034476481,-0.0012466963,-0.022684446,-0.0024239495,-0.04332809,-0.026763843,-0.02744364,-0.036627233,-0.0014323406,-0.01852924,0.022718178,-0.02513872,-0.012356108,0.0076091923,-0.03440897,0.00958351,0.0072636716,0.030543497,0.04303116,-0.011385437,-0.0058057047,0.030848848,0.027341386,-0.012155121,-0.011923449,-0.010807723,0.023395186,-0.020404346
DUSP5,0.040700555,0.12741365,-0.119205244,-0.12299254,-0.13707651,0.13401483,0.1277686,0.11017777,-0.05316326,0.00863618,-0.11096771,0.1497327,-0.122353084,0.08848348,-0.1077784,0.098116785,-0.11474714,-0.08107706,0.02609576,0.08442932,0.16593708,0.021117002,-0.13152692,-0.14632912,0.14873312,-0.121329345,0.13213843,0.11477178,0.12042743,0.15207082,0.10762897,0.12136072,-0.16307998,0.12987894,-0.07735916,-0.099862725,-0.117017135,-0.108937785,-0.09471003,-0.12955044,0.11722065,-0.13211045,-0.116691,-0.15029857,0.12298022,0.119139194,0.12457644,-0.1241228,0.10700161,0.10599254,-0.11725782,0.06475079,0.09834883,-0.051861998,0.1023511,-0.12960044,-0.13903394,-0.1000479,0.16109578,-0.05045476,-0.10435126,-0.1319612,0.121470496,-0.048909683
CTNND2,-0.042619735,-0.09904948,0.11579992,0.0717277,0.11484764,-0.11714454,-0.12305733,-0.09851173,0.023812,-0.0050019696,0.096089564,-0.07290213,0.07838424,-0.055754058,0.079018705,-0.08907112,0.12287748,0.049269665,0.032416616,-0.082226165,-0.1245809,-0.027112305,0.095969684,0.089577794,-0.092279285,0.1261715,-0.12560348,-0.11124149,-0.113314524,-0.11732103,-0.075506456,-0.07574822,0.11047489,-0.12419807,0.07799737,0.06278077,0.12949808,0.08617563,0.0764439,0.124594435,-0.1564889,0.11461633,0.088594526,0.11242652,-0.12669504,-0.12683001,-0.116101794,0.096295625,-0.13606036,-0.08948451,0.057865348,-0.067900345,-0.08906332,0.07999323,-0.067196876,0.0912281,0.11001297,0.12519856,-0.11254753,0.06644054,0.09128929,0.12383298,-0.10496093,0.03847288
TMEM246,-0.07755604,-0.09366511,0.0887656,0.065120265,0.11025113,-0.110522375,-0.11937101,-0.08229459,0.046432745,-0.033084653,0.07665785,-0.07215491,0.07595778,-0.07740431,0.060748372,-0.059258282,0.070366755,0.047229905,0.027894426,-0.06687598,-0.11578699,-0.0014844798,0.081436135,0.094717056,-0.07094668,0.12269478,-0.11810875,-0.087912425,-0.10392768,-0.10346012,-0.086246684,-0.08637382,0.13607205,-0.13389379,0.088430524,0.09216157,0.12997687,0.08962509,0.051510975,0.13134512,-0.1333085,0.103611745,0.063544795,0.07721473,-0.10073352,-0.097019315,-0.1090317,0.08955903,-0.06329934,-0.0638098,0.06398225,-0.041327316,-0.0635881,0.055336203,-0.04660374,0.086391255,0.09822557,0.10491785,-0.10673007,0.044415206,0.062206626,0.103299655,-0.09665864,0.038265575
2810468N07RIK,-0.016434101,-0.0049800538,0.0050204974,-0.017455883,-0.014364146,0.024376765,-0.015061911,-0.0035688877,-0.023004554,-0.017240431,0.008079871,0.038984478,-0.018260643,-0.004098665,-0.0066293785,0.0023216866,-0.008074783,-0.0049999934,0.026483066,0.017006293,0.023929367,0.008835524,-0.013356764,-0.0092259385,0.040008605,0.00963584,-0.011255613,-0.010981996,0.005716739,0.0074887685,0.033147346,0.018480148,0.0045318557,-0.02786532,0.0017291903,-0.0018249489,0.017402057,0.0030110339,-0.020580396,-0.00037509762,-0.042206198,-0.024468398,-0.02113036,-0.028464157,-0.002171807,-0.017869338,0.012001203,-0.014557935,0.00032625347,0.01536423,-0.029446298,0.0081591755,0.014372978,0.038611405,0.045365315,-0.004870467,-0.009202294,0.036946088,0.02224276,-0.009792436,-0.004558323,-0.012039021,0.013846977,-0.021267477
RHOF,0.01273801,0.08563307,-0.08568009,-0.09167135,-0.12300466,0.097034074,0.067188345,0.09008917,-0.032596134,-0.012892015,-0.08266956,0.099684194,-0.08947377,0.059286207,-0.07931213,0.08267014,-0.09956534,-0.06360921,0.018303916,0.0697061,0.11215725,0.024977816,-0.08944838,-0.09521252,0.12019508,-0.08823068,0.09615579,0.07771514,0.09161795,0.10850556,0.08030108,0.07718189,-0.105252855,0.06678496,-0.03733961,-0.060069967,-0.08626394,-0.07831758,-0.08133096,-0.09327483,0.07517289,-0.10561902,-0.08085609,-0.12860972,0.09532808,0.086825624,0.090183295,-0.08812251,0.1051052,0.09051144,-0.09889373,0.04327353,0.09100364,-0.03214847,0.085994236,-0.084749,-0.10003218,-0.06607116,0.12162383,-0.04461149,-0.071377195,-0.10076854,0.08594273,-0.041920964
TM6SF1,-0.036606498,-0.06091806,0.09324098,0.06802535,0.13619563,-0.12376307,-0.109092385,-0.08469755,0.06934393,-0.0091016665,0.077416465,-0.083531365,0.07874777,-0.066762194,0.06076823,-0.073197864,0.09519136,0.05663259,0.017999249,-0.13566698,-0.14770845,-0.026855983,0.09961521,0.08601779,-0.11836043,0.14320204,-0.11255859,-0.09667963,-0.123278216,-0.12562259,-0.098834395,-0.086881325,0.10244716,-0.11156376,0.09156412,0.06640278,0.12397447,0.07754344,0.08035167,0.138977,-0.14019534,0.13370061,0.10166045,0.12161991,-0.11326504,-0.09160414,-0.13246587,0.119492024,-0.112319775,-0.061845154,0.09289487,-0.07067217,-0.111860126,0.032518584,-0.08550346,0.10014829,0.10272732,0.08745487,-0.14156975,0.09134181,0.07756326,0.12681878,-0.117416516,0.07587368
SMTNL1,-0.0037424862,0.06357572,-0.055300944,-0.07637176,-0.06782405,0.07315564,0.039473362,0.0463975,-0.027759284,-0.021357136,-0.0433898,0.090880305,-0.07145898,0.03593333,-0.051269684,0.048923038,-0.05369401,-0.039809316,0.020114101,0.036828786,0.09160433,0.011622567,-0.058286376,-0.06856537,0.09165815,-0.05742488,0.05797408,0.043310165,0.05608964,0.06026515,0.06684148,0.06406793,-0.060004015,0.022494197,-0.02845376,-0.039099265,-0.04721504,-0.03816868,-0.06229546,-0.061347444,0.02357427,-0.0739165,-0.06254889,-0.09472023,0.0583029,0.04589069,0.06271829,-0.06947172,0.058212772,0.060973592,-0.06737304,0.030547611,0.05138108,-0.0051197186,0.061268255,-0.05360956,-0.062595904,-0.023624627,0.07836932,-0.021934604,-0.049561672,-0.06428121,0.06511755,-0.027892541
JAM3,-0.029230906,-0.052207295,0.046474718,0.029222384,0.04282499,-0.023316834,-0.062112655,-0.040159546,-0.007949725,-0.012649871,0.043276306,-0.004326809,0.02230192,-0.029819045,0.034756664,-0.03439086,0.03814505,0.015923437,0.030142894,-0.015014429,-0.03061372,-0.0051962584,0.02921278,0.03401379,-0.009907149,0.06552972,-0.05920928,-0.049573313,-0.04032401,-0.044115078,0.0006904751,-0.024544485,0.04939046,-0.066889666,0.029043049,0.030290559,0.0690469,0.049363133,0.016505554,0.051719267,-0.08774829,0.029230539,0.015235977,0.022089627,-0.056738306,-0.058304705,-0.0381039,0.029778905,-0.04726225,-0.036886916,0.0073959567,-0.017883616,-0.021754775,0.060218792,0.0136425905,0.03485024,0.04002262,0.07627553,-0.03922778,0.017491719,0.029739793,0.033249304,-0.034228273,-0.00031391252
LYN,-0.028274795,-0.0043719895,0.017409535,-0.0022672564,0.03140747,-0.03563902,-0.011064831,0.0038361438,0.03693027,-0.0048942193,-0.014156361,0.0052239634,0.0051031895,-0.020242147,-0.0046370113,-0.011158474,-0.012747884,-0.0015531145,0.011320721,-0.021967346,-0.038742118,0.009626225,-0.012169853,0.015392158,-0.010803431,0.021095969,-0.021295229,-0.0036923029,-0.041120734,-0.02884974,-0.027582489,-0.006355487,0.025000077,-0.027959839,0.03221468,0.040917903,0.028536832,-0.009795123,0.0029573515,0.035742335,-0.037159167,0.04467781,0.007055183,0.0210731,-0.030484576,-0.0029485673,-0.018150464,0.028536968,-0.030734777,0.0026459545,-0.008744478,0.0128551945,-0.014534954,-0.019626752,0.010960069,0.028397776,0.008146346,0.0037002992,-0.016330287,0.002360586,-0.017835515,0.018385228,-0.00775493,0.012144218
IGFBP4,-0.04784131,-0.05273805,0.07728091,0.07000417,0.11816481,-0.14367469,-0.06780077,-0.031204596,0.09672889,-0.005327463,0.027120844,-0.06751393,0.06529156,-0.068165794,0.040916163,-0.054497458,0.02711944,0.039393235,-0.0031385627,-0.09100699,-0.16228473,-0.009155847,0.068375595,0.083303854,-0.09599882,0.09366533,-0.09239064,-0.05560558,-0.11614732,-0.118250266,-0.113159254,-0.08950156,0.099200904,-0.085045785,0.093211785,0.10327525,0.08786166,0.025388367,0.05545041,0.10626206,-0.093224995,0.13729475,0.07966001,0.10800032,-0.07391524,-0.042218708,-0.09372107,0.1140489,-0.07498741,-0.03713405,0.07034764,-0.0362242,-0.08640364,-0.03126925,-0.06058669,0.089474544,0.07141134,0.047572024,-0.10690121,0.052056663,0.025984911,0.1021073,-0.08771785,0.07890083
SLC16A10,-0.03524241,-0.012360763,0.022026503,-0.0038794205,0.06064931,-0.05320591,-0.04475973,-0.0167429,0.051277578,-0.024720173,0.0125910835,-0.012402147,0.02054894,-0.022365,0.0034678048,-0.019250825,0.023927819,0.008033544,0.008376429,-0.06856862,-0.063120104,-0.0012119934,0.034030333,0.016784374,-0.044929698,0.047992896,-0.04256465,-0.026036453,-0.059118204,-0.053406876,-0.03862886,-0.024497464,0.048739623,-0.062193573,0.044427626,0.03827087,0.052254777,0.024529364,0.022450976,0.0599997,-0.071197435,0.058881655,0.036138818,0.031057443,-0.03876083,-0.020361308,-0.044967584,0.04227248,-0.04223289,-0.005419951,0.014985293,-0.031263154,-0.04241391,-0.0022024848,-0.015665404,0.03994051,0.02597472,0.018989064,-0.051222052,0.043083325,0.011688687,0.047723465,-0.02864401,0.018138971
CD63,0.03606201,0.06687532,-0.09524343,-0.07693562,-0.15479003,0.09492189,0.08600741,0.10670428,-0.03302546,0.018547755,-0.089911036,0.09615052,-0.09050457,0.0757299,-0.099945575,0.097801074,-0.11928555,-0.077664606,0.032698125,0.08190912,0.12441637,0.028161617,-0.09719561,-0.11159305,0.11974542,-0.10000675,0.116850644,0.09483774,0.10867992,0.1344433,0.088985294,0.08741157,-0.13770348,0.11626688,-0.04798007,-0.08073652,-0.08941357,-0.10069262,-0.066183895,-0.111710295,0.112793215,-0.10343333,-0.09392554,-0.12569316,0.11980273,0.10420923,0.091367505,-0.08869126,0.12412738,0.09512126,-0.10231297,0.056757137,0.100590855,-0.046173114,0.072336875,-0.12004179,-0.11408416,-0.07837042,0.14535674,-0.03956365,-0.08000723,-0.10658948,0.08237434,-0.029014442
GIMAP1,0.020668283,0.023284491,-0.05255972,-0.041671738,-0.10223062,0.056198083,0.0632795,0.07379556,-0.017565727,0.020763777,-0.05773879,0.07109213,-0.06235273,0.038203128,-0.062075317,0.06369193,-0.0994553,-0.05544585,0.03402505,0.05518017,0.066950195,0.037399556,-0.070969805,-0.05841787,0.0837699,-0.05108992,0.067824885,0.05760064,0.0488405,0.08953242,0.058569383,0.06715219,-0.080292314,0.0900788,-0.01978335,-0.04384214,-0.052503247,-0.07997646,-0.04543556,-0.07243733,0.063368686,-0.05695427,-0.057966866,-0.072783366,0.07660614,0.074015096,0.058748193,-0.03681108,0.078280844,0.063931525,-0.07279569,0.055677302,0.07923816,-0.047975402,0.07565163,-0.089469165,-0.08109113,-0.04658535,0.10534997,-0.032715134,-0.060661837,-0.076330096,0.04982621,-0.027913973
RAB40B,-0.022197442,-0.032725427,0.041353233,0.007683955,0.031205188,-0.02016285,-0.04289124,-0.033545025,-0.011257604,-0.018692903,0.031657625,0.015223084,0.0050082915,-0.021133684,0.027183618,-0.020799085,0.03644417,0.009886634,0.02323656,-0.0076907054,-0.0107738525,-0.0027974658,0.008137308,0.018440526,0.015573859,0.050955195,-0.049110945,-0.04316419,-0.029748779,-0.025549259,0.009165779,-0.004775271,0.03660141,-0.05755036,0.0126131475,0.009028334,0.04408276,0.029242743,0.003919605,0.036640182,-0.07850718,0.0070637567,0.0049044974,0.0049843565,-0.039355267,-0.054885715,-0.017922342,0.0071035996,-0.039790753,-0.023685515,-0.0016994514,-0.012614077,-0.0226749,0.051909484,0.018876016,0.016056256,0.032290794,0.06555076,-0.016026184,0.01139828,0.024674086,0.025657061,-0.019307286,-0.0018089535
DYNLL1,-0.0057159048,-0.0012106188,0.009648593,0.010407668,0.030227281,-0.057510305,0.012520947,0.028280623,0.053425394,0.009999257,-0.02608874,0.012544524,0.009133972,-0.013253301,-0.0093824575,-0.004660882,-0.043122962,0.00037087128,0.0040391106,-0.026279967,-0.05172713,-0.0041441433,-0.005603619,0.0031487942,-0.0157843,0.024321152,-0.010368319,0.009995218,-0.030430665,-0.023487296,-0.034724563,-0.020303056,-0.0018850528,0.0015135407,0.026233062,0.030725285,0.008267432,-0.03718247,0.0070381165,0.020188082,-0.010260306,0.047250405,0.011304338,0.035726506,0.0022759363,0.026091255,-0.012498986,0.044795647,-0.004763646,0.015793363,0.007905725,0.015289683,-0.02273636,-0.0548322,0.008898646,-6.555766e-05,-0.0046159625,-0.010708893,-0.010290388,0.013135219,-0.02200043,0.017081022,-0.017544158,0.042117752
BTLA,0.026165297,0.116799474,-0.12300735,-0.13789496,-0.1190844,0.14106846,0.10822218,0.089846365,-0.043960504,-0.013413055,-0.10247633,0.15079805,-0.12313778,0.089019656,-0.10078044,0.0885836,-0.10042128,-0.07281412,0.011669679,0.09110761,0.17281088,0.010458551,-0.12443036,-0.14133944,0.14909598,-0.1327366,0.12795639,0.103240386,0.11760321,0.13341662,0.11635113,0.12278959,-0.14340684,0.10653499,-0.08352819,-0.09314676,-0.11360511,-0.09200261,-0.09542795,-0.12440814,0.09925122,-0.13100028,-0.118228294,-0.16342439,0.109980196,0.105425775,0.12692508,-0.1319016,0.08985543,0.10539946,-0.1218873,0.06516159,0.096285224,-0.040659633,0.1016832,-0.12304786,-0.1277341,-0.08744086,0.1532118,-0.056134783,-0.09444218,-0.12640388,0.12115948,-0.052742947
NAPSA,-0.075586095,-0.111008644,0.13153376,0.118052945,0.19029164,-0.21582903,-0.13381696,-0.090070836,0.1274067,-0.010698212,0.08921901,-0.13636701,0.13330281,-0.119403124,0.08569378,-0.10375453,0.08860695,0.07453135,0.0019763801,-0.16381839,-0.24922267,-0.0106029585,0.13542944,0.14301634,-0.17171797,0.16552755,-0.1685667,-0.11667493,-0.1916135,-0.19930549,-0.16723074,-0.14076473,0.18119553,-0.15993766,0.16003807,0.14371802,0.15841983,0.07838108,0.11161142,0.19243793,-0.16681457,0.22049087,0.1438367,0.19032286,-0.14057949,-0.0913888,-0.16594967,0.18220073,-0.13607608,-0.09139916,0.12805198,-0.07663723,-0.14663187,-0.00044482946,-0.11617789,0.15654984,0.15059108,0.096333854,-0.1931768,0.10163541,0.08339706,0.17673887,-0.144498,0.10590316
PPP1R15A,0.00208175,0.040266074,-0.05737126,-0.061741,-0.07423787,0.051402684,0.049778298,0.07193561,-0.0051940307,0.001620952,-0.0663356,0.07056908,-0.05943791,0.041612253,-0.06272151,0.057986245,-0.084323466,-0.045332603,0.012802068,0.05110783,0.060487993,0.012953751,-0.056460265,-0.067011826,0.07892396,-0.052076623,0.0627594,0.046486188,0.04540521,0.05934028,0.052208897,0.06734857,-0.06703354,0.06326541,-0.018587936,-0.02463131,-0.05452433,-0.065846816,-0.053453825,-0.059103917,0.054737218,-0.043340497,-0.043431573,-0.087010086,0.068854645,0.06835109,0.05932527,-0.058626585,0.06208144,0.063372314,-0.073734686,0.03891465,0.069813356,-0.055746917,0.06792901,-0.07035965,-0.07864159,-0.056566723,0.087535545,-0.019303752,-0.06638696,-0.0680533,0.048195064,-0.02100933
TTC39B,0.029656075,0.11982208,-0.11900127,-0.12804055,-0.13766786,0.13467261,0.10966916,0.10423004,-0.042685032,-0.011731772,-0.10410278,0.13901211,-0.11807633,0.084851846,-0.10108129,0.10000658,-0.10230702,-0.075527616,0.017444402,0.082917266,0.15753293,0.020182792,-0.11763333,-0.1375257,0.14368898,-0.11966852,0.12970085,0.10490255,0.12147778,0.14447655,0.10513994,0.11144832,-0.14653441,0.09327856,-0.06731132,-0.10104263,-0.11097875,-0.092865825,-0.09537912,-0.124289975,0.09764684,-0.1389499,-0.10880796,-0.1614889,0.12385923,0.10680102,0.12199682,-0.12425557,0.11547542,0.11161761,-0.119133085,0.05509617,0.10046657,-0.031740334,0.0966602,-0.1148144,-0.12523276,-0.08530453,0.15411927,-0.04998121,-0.082494125,-0.12738012,0.11268117,-0.043151375
ENPP5,0.042957,0.15070285,-0.15160546,-0.14681578,-0.15745987,0.15867777,0.14297289,0.13709968,-0.045065388,-0.0008055568,-0.13122055,0.16517425,-0.14887425,0.11220883,-0.119353324,0.11576044,-0.12981284,-0.09442806,0.018511314,0.09412122,0.19968602,0.022285499,-0.13963121,-0.16808392,0.1666832,-0.1533308,0.1701069,0.13165882,0.14647506,0.1648474,0.12630083,0.14333269,-0.1828445,0.12583014,-0.085678145,-0.11640695,-0.14500932,-0.11448681,-0.114740804,-0.15866388,0.13937327,-0.15364254,-0.13220248,-0.18879993,0.15205133,0.14966403,0.14240181,-0.15215519,0.1490424,0.13218468,-0.13665934,0.07100114,0.12718599,-0.062565506,0.1017959,-0.14548324,-0.15544724,-0.11301145,0.17839238,-0.049732335,-0.11300721,-0.15082863,0.13685979,-0.0354639
NDRG2,0.0390555,0.13963383,-0.14006679,-0.14788489,-0.14865665,0.14777756,0.121281914,0.11388843,-0.043685198,-0.0076672174,-0.11145397,0.15608305,-0.1363061,0.094598696,-0.11408759,0.11070748,-0.113179564,-0.08577449,0.014827337,0.09910132,0.1763598,0.021089751,-0.12802058,-0.15737818,0.1658458,-0.1405884,0.15348293,0.108681425,0.14253508,0.1589895,0.11574404,0.13309473,-0.16815147,0.112734705,-0.07977313,-0.115961775,-0.12854157,-0.10567218,-0.10614068,-0.14617018,0.12349553,-0.15699998,-0.122021414,-0.18432486,0.13752796,0.12111543,0.14036989,-0.14851287,0.12524179,0.12623897,-0.13246484,0.06787217,0.11595363,-0.05227388,0.1015905,-0.13542497,-0.14097512,-0.10439074,0.1722231,-0.046329282,-0.08956713,-0.14628762,0.12579122,-0.03441864
ITPR2,0.028197387,0.11839989,-0.12021024,-0.12718818,-0.110010296,0.13181658,0.11802869,0.09873881,-0.032040708,-0.0096747205,-0.10792277,0.14917314,-0.119804546,0.07823539,-0.10112682,0.09777996,-0.10750376,-0.06854859,0.01795403,0.082153544,0.1591018,0.02081953,-0.12429077,-0.13597825,0.14485314,-0.12517163,0.12678392,0.10830058,0.10511002,0.13466911,0.110679574,0.12241087,-0.13899775,0.110054314,-0.07830146,-0.08550452,-0.111823276,-0.09743416,-0.097164124,-0.12306954,0.10232846,-0.12701215,-0.11469611,-0.15671323,0.11503498,0.10976118,0.11956113,-0.1231644,0.10677979,0.110386774,-0.111548826,0.06615891,0.095400706,-0.051434923,0.10374038,-0.121622235,-0.1294725,-0.09287651,0.15405281,-0.056903988,-0.09889283,-0.12981293,0.1204675,-0.04795319
TUBB4B,-0.05635391,-0.10143855,0.07789856,0.0718348,0.11111799,-0.14743564,-0.088317215,-0.051032223,0.07941102,-0.003362313,0.042958543,-0.07360886,0.08125769,-0.061518297,0.035692737,-0.069836825,0.024884295,0.044232447,0.0013389271,-0.06997533,-0.16439468,-0.01819168,0.073509954,0.078771815,-0.09063348,0.093586236,-0.10391858,-0.077745914,-0.11070765,-0.12385522,-0.08942442,-0.07840969,0.09585069,-0.07713814,0.084425494,0.09869319,0.087949544,0.03267515,0.061425194,0.10938229,-0.09158486,0.14533067,0.07130924,0.09746732,-0.09336996,-0.046134286,-0.08778864,0.11219418,-0.088118896,-0.05335945,0.060617547,-0.019092478,-0.08178486,-0.009738818,-0.04832378,0.07887468,0.074602626,0.046647415,-0.10486765,0.049309067,0.032786526,0.09336293,-0.086319394,0.060337253
PRKCH,0.03881735,0.1186022,-0.13318203,-0.12961465,-0.1516645,0.14039621,0.12352937,0.11777258,-0.038333923,-0.00385236,-0.12435792,0.14334404,-0.12564501,0.09345226,-0.11193575,0.1161209,-0.12415308,-0.082907766,0.021676373,0.09350029,0.17169973,0.0270755,-0.12827408,-0.14810479,0.15206671,-0.12418806,0.14620748,0.119936004,0.13427013,0.16836686,0.10858755,0.120435975,-0.16340671,0.124798104,-0.07944417,-0.109977424,-0.11967707,-0.11109563,-0.09965817,-0.13737227,0.120323114,-0.15034409,-0.12127956,-0.17476505,0.1406391,0.122104034,0.12640613,-0.12895738,0.13681357,0.12553076,-0.122650504,0.06406651,0.11819054,-0.05260406,0.103196695,-0.13618629,-0.14613533,-0.1045568,0.1724871,-0.05403878,-0.09317198,-0.14237729,0.11309777,-0.039479192
C130089K02RIK,-0.03400317,-0.0038622208,0.020997288,-0.006105289,0.05612,-0.048419062,-0.024158008,-0.0080960095,0.057923593,-0.019021865,-0.006617277,-0.006397471,0.0061535165,-0.020986347,0.00212901,-0.022294663,0.0036070012,0.0032270849,-0.0011740737,-0.059922293,-0.060196646,0.0032435432,0.016825438,0.027944144,-0.03492398,0.039656244,-0.029289126,-0.016482886,-0.057671614,-0.044624526,-0.05032213,-0.017182529,0.047268834,-0.052573785,0.05046603,0.04899025,0.03954235,0.004715453,0.011014879,0.052785426,-0.06569426,0.0590117,0.03302641,0.039011095,-0.030548256,-0.015003234,-0.035745375,0.04020045,-0.042039543,0.006786797,0.010381971,-0.014543079,-0.032960895,-0.027816754,-0.017463148,0.041567583,0.024807088,0.012845075,-0.040745053,0.028935073,0.0023520868,0.043222763,-0.027294392,0.030646775
PARVG,0.024261553,0.04259447,-0.023398628,-0.026537454,-0.034089744,0.009986799,0.062466986,0.0644224,0.018923588,0.028360322,-0.05851847,0.056664072,-0.04499182,0.03295935,-0.053036183,0.030613128,-0.086072445,-0.028715,0.0065518934,0.01622381,0.026474886,-0.0038949102,-0.05643706,-0.049258515,0.0442719,-0.025395326,0.04518032,0.04986709,0.03348395,0.03906813,0.010684859,0.029056415,-0.08076826,0.06895998,-0.011677444,-0.022465732,-0.040688444,-0.072511636,-0.027054083,-0.036455337,0.053313427,-0.014523505,-0.033875875,-0.017321356,0.048723646,0.06636238,0.031116907,-0.01647111,0.03782197,0.061534874,-0.030139947,0.034296982,0.023963157,-0.066096306,0.037352737,-0.054349873,-0.060043737,-0.051592685,0.052764095,-0.0035505053,-0.050487556,-0.041381806,0.017227555,0.028147299
SNAP47,0.056509964,0.173124,-0.15772845,-0.15652181,-0.20273684,0.1601285,0.14426655,0.1371068,-0.06664564,0.005792018,-0.12849885,0.15334716,-0.15982395,0.12371512,-0.13779624,0.1414235,-0.12598377,-0.102688,0.019662438,0.10079786,0.1945523,0.022592947,-0.13432461,-0.1959868,0.18355805,-0.14162645,0.18239959,0.13080125,0.19315428,0.20531039,0.13291684,0.1325477,-0.22957124,0.14098816,-0.08302919,-0.16853918,-0.14091316,-0.12594463,-0.11868034,-0.16275434,0.1620102,-0.19417381,-0.12206171,-0.21721777,0.17565186,0.15356031,0.13927959,-0.16473095,0.16924778,0.1471324,-0.14182423,0.05103045,0.13478981,-0.031653773,0.08916819,-0.15840967,-0.16898248,-0.11972153,0.20391805,-0.032346666,-0.07871685,-0.17001638,0.120527804,-0.02466024
CAPG,0.044819664,0.05124318,-0.10199168,-0.06906307,-0.15151902,0.10515998,0.09713634,0.10415265,-0.037739232,0.03521783,-0.09080038,0.10233781,-0.09894386,0.07549667,-0.10877623,0.09910913,-0.1302998,-0.0743545,0.042250358,0.091982424,0.11703234,0.035401877,-0.10410085,-0.10930525,0.13464946,-0.09815488,0.11323891,0.09127758,0.106728435,0.1450888,0.099290825,0.10369903,-0.14983396,0.15244901,-0.049227104,-0.09137297,-0.09387694,-0.10817404,-0.06927262,-0.11799471,0.13343757,-0.10848827,-0.10064028,-0.13205676,0.113172546,0.11804545,0.100042105,-0.09080912,0.11816738,0.09629615,-0.099849135,0.05922904,0.11558052,-0.055207748,0.08775188,-0.13735996,-0.12512165,-0.093328945,0.15844512,-0.044425175,-0.08504041,-0.1220341,0.08971645,-0.037028626
ARHGEF18,0.003031304,0.06853442,-0.06077704,-0.08027818,-0.06804173,0.06601159,0.06908321,0.075271785,-0.01989311,-0.0006463006,-0.07448161,0.09851071,-0.0738254,0.054757476,-0.06530078,0.04948406,-0.092685804,-0.05555501,0.015849069,0.039071098,0.07788106,0.012203805,-0.07309523,-0.07891567,0.08801746,-0.06949372,0.064895526,0.07003502,0.06327559,0.07025111,0.061266672,0.06791863,-0.090210676,0.07355763,-0.03385226,-0.03377107,-0.06409137,-0.07163161,-0.060867235,-0.06367421,0.0625158,-0.05711332,-0.06805278,-0.08078706,0.06588827,0.08181995,0.067163534,-0.05567179,0.046508104,0.06783409,-0.075534895,0.040953673,0.05672931,-0.04972319,0.07296486,-0.067521855,-0.08378045,-0.07052601,0.08560793,-0.023517756,-0.07730994,-0.07792041,0.073303975,-0.027917612
PAQR5,-0.019388055,-0.03347132,0.05523835,0.039619423,0.0824331,-0.070804834,-0.057217337,-0.04984151,0.045679893,0.003278397,0.04147947,-0.033042643,0.038874492,-0.041761167,0.030509021,-0.041174315,0.057988048,0.03899056,0.019541478,-0.070405625,-0.103474505,-0.014644869,0.048058502,0.048152696,-0.062768176,0.08092261,-0.0616922,-0.06322144,-0.082280606,-0.072698526,-0.052115954,-0.045925677,0.0634707,-0.06775743,0.06184791,0.054797683,0.07019346,0.03554671,0.04114358,0.07725966,-0.0894409,0.08328522,0.0555813,0.06952837,-0.06865099,-0.057470303,-0.064836204,0.068848416,-0.07951742,-0.033389665,0.04337434,-0.035854425,-0.07014315,0.0143251605,-0.040610865,0.06208124,0.058867864,0.057761103,-0.07146351,0.05353467,0.028413784,0.07152398,-0.059904292,0.044794124
CTTN,-0.004080547,0.06878279,-0.06254376,-0.07910811,-0.08502266,0.07277115,0.04349982,0.066409804,-0.017610937,-0.021251695,-0.06342865,0.08097143,-0.06964004,0.051153794,-0.06269432,0.059461392,-0.071766995,-0.050869875,0.01560822,0.039715357,0.085548714,0.02187929,-0.072010584,-0.07144967,0.08318186,-0.067297004,0.072431274,0.06508623,0.061743006,0.07101059,0.0585968,0.05893733,-0.07206383,0.028394029,-0.02010578,-0.03847984,-0.054131713,-0.048768785,-0.06362367,-0.060260605,0.03569662,-0.076566294,-0.064993255,-0.09592576,0.06789777,0.06506044,0.063901246,-0.06408727,0.07412523,0.07136316,-0.07806246,0.029059231,0.05979528,-0.011662539,0.063966535,-0.051018704,-0.07245971,-0.042140357,0.08394525,-0.029494444,-0.059264407,-0.07437426,0.066812485,-0.031646498
ZFP658,0.019006921,0.11305797,-0.11505623,-0.1335037,-0.10872643,0.13526544,0.10733243,0.09129639,-0.040462404,-0.018379427,-0.09837408,0.14998044,-0.11690188,0.08111813,-0.0908478,0.08723241,-0.09923245,-0.06933527,0.014142051,0.08178932,0.1615701,0.014303565,-0.11875168,-0.13057138,0.14765164,-0.12577656,0.1196328,0.10229191,0.10304858,0.12336703,0.112411544,0.12146765,-0.1273144,0.08664006,-0.07443064,-0.083976686,-0.11107139,-0.08880249,-0.096527204,-0.120338365,0.08613739,-0.12068878,-0.117023356,-0.1545797,0.10434538,0.10194205,0.1239392,-0.12643495,0.08997852,0.10268529,-0.11775319,0.064340524,0.091235116,-0.03673124,0.10521745,-0.11193867,-0.1167571,-0.08254728,0.14554669,-0.056393906,-0.09416846,-0.12206116,0.12474995,-0.05263042
TFEC,0.054099277,0.14122707,-0.122608826,-0.12539075,-0.16949211,0.14673199,0.11286531,0.10445275,-0.06331055,0.008363407,-0.09459748,0.13694179,-0.12609845,0.09237796,-0.10944029,0.114060044,-0.10599135,-0.08056286,0.01953154,0.09255727,0.16929875,0.009105559,-0.12562966,-0.160477,0.16315459,-0.12066684,0.14633366,0.104181916,0.1571417,0.16415235,0.12648907,0.10998923,-0.19456762,0.11149955,-0.07978925,-0.13969338,-0.12064345,-0.10580971,-0.10209113,-0.13755472,0.12238594,-0.16454256,-0.11413691,-0.17554396,0.13891178,0.119320974,0.12434795,-0.14034468,0.13325153,0.12072791,-0.12224315,0.05236806,0.10248456,-0.015968796,0.098217085,-0.12855232,-0.13916403,-0.087548524,0.1704862,-0.04143703,-0.06971473,-0.14666991,0.10497979,-0.02825493
ICA1,0.06429266,0.15762576,-0.16098814,-0.15653367,-0.20726044,0.16348547,0.1423924,0.14530885,-0.06322275,0.011616647,-0.1334157,0.16387978,-0.14317426,0.11678119,-0.13780841,0.1493201,-0.13922402,-0.11098626,0.01892383,0.12347387,0.19600147,0.022380475,-0.14582554,-0.18908785,0.18483028,-0.15477127,0.18067156,0.13249452,0.18387167,0.20760958,0.117555775,0.12640902,-0.22117072,0.15605488,-0.07717063,-0.15058151,-0.15276614,-0.14385179,-0.101800516,-0.17397544,0.17471233,-0.19654822,-0.1314686,-0.19975139,0.18876983,0.14449577,0.15555537,-0.15937343,0.16340223,0.14450167,-0.14910354,0.06862082,0.14057048,-0.0652578,0.10683456,-0.16986485,-0.1708332,-0.12380193,0.22014226,-0.053806312,-0.097054996,-0.17159355,0.13529783,-0.036054242
RRAS,0.0064564943,0.064082816,-0.06318986,-0.08789508,-0.07994278,0.07603291,0.06307646,0.06803803,-0.031915173,-0.02249214,-0.051978674,0.10082424,-0.074366495,0.050318107,-0.054179832,0.056823254,-0.06688909,-0.043995056,0.020219615,0.044943884,0.097691804,0.025489688,-0.07753535,-0.07236862,0.09238694,-0.06384843,0.06778169,0.068353,0.054723784,0.07377957,0.06678066,0.07644807,-0.06835361,0.02936694,-0.025018422,-0.051630642,-0.05653063,-0.05533145,-0.061563507,-0.05738731,0.030761726,-0.082769,-0.06956088,-0.08703874,0.06439419,0.06014713,0.070127204,-0.062413134,0.06167443,0.06733568,-0.08046646,0.03975547,0.05737431,-0.007336106,0.08155195,-0.059835527,-0.07035743,-0.032681122,0.093571395,-0.03431829,-0.06363814,-0.07338393,0.07835125,-0.04299401
SPC24,-0.08111852,-0.086902425,0.14026733,0.099168226,0.19873028,-0.22160597,-0.16922647,-0.10295979,0.13623655,-0.033637766,0.07641982,-0.15612587,0.12162795,-0.08381476,0.07387673,-0.12234882,0.13874072,0.07303347,0.0006346982,-0.1853409,-0.26214358,-0.059194036,0.17305037,0.14004543,-0.20514986,0.16498289,-0.1703423,-0.1301248,-0.16778482,-0.19868173,-0.20586623,-0.16947882,0.17625579,-0.21167272,0.1589471,0.14621449,0.17900687,0.13909672,0.10738719,0.20920275,-0.1858142,0.22451319,0.17559963,0.17927392,-0.15178119,-0.11246596,-0.18433437,0.1706752,-0.15100366,-0.07520251,0.13078612,-0.11772,-0.15787739,0.023408756,-0.16987857,0.17644233,0.15085387,0.094660975,-0.21107315,0.14565642,0.1072825,0.21313606,-0.17471519,0.10905622
MPZL1,0.0067182276,0.06132253,-0.07705378,-0.09762478,-0.08892734,0.0813915,0.061622642,0.065970995,-0.031278454,-0.009156022,-0.056088876,0.10403673,-0.07546507,0.054156184,-0.06997867,0.056837935,-0.07047581,-0.057835937,0.024931991,0.046431333,0.105565466,0.027875973,-0.07279043,-0.08591266,0.09122312,-0.08122449,0.07548924,0.0661115,0.07068761,0.08025774,0.07535906,0.087056085,-0.08232435,0.05165293,-0.029615812,-0.057528596,-0.058036815,-0.05964594,-0.059028905,-0.06952256,0.054036133,-0.0826854,-0.07709869,-0.098979145,0.07678865,0.06940575,0.07768661,-0.0668964,0.06556083,0.07545746,-0.08425352,0.03922429,0.06940508,-0.019820943,0.07267733,-0.06872259,-0.082988754,-0.04412952,0.10082114,-0.031963646,-0.06715485,-0.08242379,0.08732597,-0.04096459
GIMAP4,-0.03238409,0.019443434,-0.015834773,-0.0291693,-0.019183166,0.024545416,-0.0018587261,0.020694025,0.014973331,-0.003568679,-0.0073669786,0.02622407,-0.03534399,0.007614568,-0.028346032,0.012327746,-0.02011092,-0.02496154,0.02449693,-0.0069153383,0.028851135,0.012639657,-0.007183954,-0.016380258,0.03815288,-0.006953545,0.016529784,0.008361656,0.005735604,0.0008338429,0.010691252,0.030286111,-0.00353406,-0.015005931,0.01753559,0.006419357,0.011158805,0.002385185,-0.02869153,0.003025284,-0.010743327,0.0024895698,-0.021334652,-0.037789498,-0.003979694,0.006132506,0.010299891,-0.038201258,0.027248232,0.019163897,-0.036079697,0.015439663,0.021086954,-0.007364642,0.01674395,-0.0037450343,-0.012237981,-0.0012171529,0.010223523,0.01163275,-0.026337592,-0.012488723,0.01590472,-0.002838282
WFDC17,-0.039596565,-0.10904458,0.1423636,0.13737917,0.22608544,-0.21175425,-0.14032888,-0.13481772,0.12486854,0.008807972,0.110761866,-0.1374659,0.14219236,-0.11949443,0.114797115,-0.124041654,0.13950941,0.100732446,0.016455242,-0.19887179,-0.2513443,-0.040925637,0.14754286,0.14335668,-0.18573076,0.20876774,-0.17295441,-0.14615192,-0.18844368,-0.19777258,-0.16805069,-0.14666606,0.16140883,-0.15865353,0.1470901,0.10829209,0.17081706,0.10857195,0.13531202,0.20107998,-0.18816218,0.2139609,0.15370128,0.21374856,-0.1681768,-0.1295279,-0.18117246,0.19749966,-0.18515745,-0.11802387,0.15985431,-0.098854095,-0.18795593,0.030434776,-0.14421272,0.14990927,0.1800848,0.123576164,-0.22021143,0.13881342,0.1218954,0.20285532,-0.1704294,0.13340063
MMRN1,-0.0569674,-0.043865915,0.024112472,0.018028088,0.032631814,-0.05532,-0.069319695,-0.019008853,0.03383089,-0.025131606,0.026041262,-0.030018177,0.03336095,-0.040156923,0.008599685,-0.015153892,-0.0012549609,0.01379551,0.020356607,-0.019434184,-0.062477536,0.0074068755,0.028894655,0.037132677,-0.018635064,0.0490457,-0.046329904,-0.038017016,-0.047018398,-0.044730775,-0.035824776,-0.0360073,0.06456387,-0.07111728,0.04973562,0.06685983,0.05632516,0.034636144,0.0127192065,0.057293944,-0.053981207,0.04745537,0.023125969,0.009586636,-0.04183169,-0.02573572,-0.043515757,0.047676265,-0.009080939,-0.016134273,0.009655066,-0.010087788,-0.0130083,0.011623135,-0.00026750565,0.032610465,0.031636424,0.036501244,-0.036582623,0.009669835,-0.00401224,0.036604077,-0.031213464,0.008619575
DCK,0.09733128,0.2179488,-0.21373996,-0.2124187,-0.2825482,0.21874245,0.21238422,0.17602488,-0.1003249,0.025115058,-0.22032055,0.22251701,-0.18820518,0.19295396,-0.18398236,0.18667942,-0.19965664,-0.15261629,0.010429606,0.1617438,0.29887486,-0.016391382,-0.20176089,-0.29319423,0.22342613,-0.22408247,0.2592194,0.17697912,0.2861379,0.29728296,0.17863242,0.17151088,-0.33751884,0.2587396,-0.13862236,-0.22783643,-0.22907075,-0.20284723,-0.148534,-0.25210595,0.27902785,-0.25084034,-0.18268913,-0.2910732,0.25063592,0.24299596,0.20361134,-0.2154263,0.20951547,0.18730175,-0.20360863,0.106309704,0.20495981,-0.10282475,0.1185005,-0.26783344,-0.2453546,-0.20108244,0.29952243,-0.05701614,-0.148658,-0.23498225,0.16310287,-0.020321574
NEAT1,-0.014195541,-0.02496088,-0.0055105146,-0.019928126,-0.01412759,0.004989799,-0.0052499324,0.0072483756,0.0009538084,-0.0008181259,-0.0057749534,0.039477646,-0.010685496,-0.0005088337,-0.02254061,0.0045223907,-0.040702596,-0.0047328696,0.021509182,0.025363378,-0.007131122,0.008487802,-0.018852316,-0.013693348,0.035747036,-0.008373611,0.0018987805,-0.0054122023,-0.010718385,-0.0016857795,0.02141817,0.03166984,-0.006903761,0.020958185,0.010263059,0.013553202,-0.004791092,-0.02169656,-0.019060884,-0.003992824,-0.008176543,0.008183706,-0.029480375,-0.017999828,-0.0035830587,0.011357322,0.016233115,-0.0015420392,-0.007680431,0.018429745,-0.034109123,0.033968396,0.01463018,-0.014823813,0.042693444,-0.016411465,-0.018697035,-0.0071920734,0.02442647,-0.014212711,-0.041215263,-0.021365494,0.0077604237,-0.016411848
IGLC2,0.025234865,0.12860121,-0.13161847,-0.14270407,-0.13015382,0.14175144,0.12316959,0.10563124,-0.047069043,-0.0058443286,-0.09845537,0.15498722,-0.12995419,0.09500689,-0.10258684,0.093909524,-0.10702379,-0.08163686,0.017257566,0.08926554,0.187992,0.020694893,-0.121897236,-0.14971197,0.16103067,-0.1376364,0.14226238,0.11462949,0.12791447,0.13597734,0.121361285,0.13840944,-0.15516512,0.10224882,-0.07952867,-0.10301098,-0.11599669,-0.095516786,-0.10184033,-0.13057138,0.10450656,-0.1347934,-0.12678927,-0.16946828,0.12188502,0.11617851,0.12498519,-0.14257407,0.109636895,0.11041742,-0.12767515,0.07126526,0.107991405,-0.03560363,0.10198061,-0.12584618,-0.12586452,-0.08988113,0.15682128,-0.048824262,-0.094451346,-0.13134475,0.12954505,-0.045297857
ADGRL4,-0.026615297,-0.0787608,0.07264852,0.06809741,0.06581361,-0.11556248,-0.053007327,-0.022650734,0.056845125,0.015237514,0.03346837,-0.05106825,0.056198977,-0.046205208,0.021536004,-0.044785686,0.0018392876,0.016616207,0.0070046317,-0.053580802,-0.12670231,0.0038771518,0.045752004,0.071782306,-0.07011482,0.07752926,-0.06548107,-0.049132507,-0.08971081,-0.0897966,-0.07283011,-0.056390986,0.06217198,-0.040217523,0.07958071,0.07776931,0.06549449,0.00395706,0.04458686,0.08003767,-0.06573719,0.11296468,0.059291847,0.09487407,-0.05732731,-0.028373202,-0.06915393,0.099315256,-0.05282508,-0.030962251,0.038026627,-0.007534981,-0.058341708,-0.021690655,-0.033345953,0.057500545,0.04512822,0.04521946,-0.06076328,0.036862142,0.016726848,0.06507807,-0.076489024,0.052391116
SERPINF1,0.0013418254,0.009306312,-0.0351884,-0.040793207,-0.046797924,0.03464618,0.026481204,0.039431855,-0.0106666535,0.0014247783,-0.044507638,0.04980556,-0.040060364,0.021717135,-0.035689313,0.026471656,-0.049717546,-0.019863743,0.017928405,0.065317586,0.026288196,0.008481249,-0.04242079,-0.045184392,0.059671775,-0.03914561,0.031574193,0.01794212,0.029408555,0.0327419,0.05058637,0.05017141,-0.032664593,0.039448395,-0.01706139,-0.004701514,-0.030049223,-0.038842767,-0.039493248,-0.03600876,0.018858649,-0.026995134,-0.03750419,-0.06430437,0.02557208,0.03243479,0.0440673,-0.030728444,0.014399787,0.035592645,-0.06659217,0.04624167,0.037483677,-0.021185417,0.05515759,-0.037838344,-0.04692115,-0.02442499,0.06404308,-0.018190484,-0.05231277,-0.045866713,0.03518276,-0.024394888
IGHV1-77,-0.020518055,0.016515795,0.0113551635,-0.007658709,0.033980735,0.00028681383,-0.021429174,-0.010732971,0.019921768,-0.0088228285,0.009395466,0.010084501,-0.016957238,-0.011934478,-0.0036915476,-0.011639036,0.018772107,0.011773009,0.028760703,-0.047392137,-0.027069785,0.00093019754,0.0027857795,0.005040098,-0.0050065443,0.041639622,-0.022504017,-0.022169705,-0.03169664,-0.02277558,-0.00917935,0.0050663725,0.01662791,-0.018647503,0.0199099,0.010993224,0.031617183,0.017757155,0.009492382,0.03430132,-0.05414921,0.025005082,0.0110951215,0.015072841,-0.039877255,-0.024584714,-0.023514856,0.01626382,-0.04240904,-0.0034272224,0.010104764,-0.019767035,-0.028647985,0.012190089,-0.00803896,0.023893956,0.007996209,0.017440775,-0.031914476,0.029318983,-0.0023284163,0.022826817,-0.01150634,0.014478319
NOTCH1,-0.085391045,-0.19732532,0.36135828,0.5037165,0.5221126,-0.5221245,-0.42236412,-0.25817066,0.3558845,0.048186935,0.21535113,-0.52896124,0.32811335,-0.1139408,0.2402892,-0.37939167,0.36158383,0.28218323,-0.025955206,-0.58300054,-0.59996027,-0.27831218,0.48482248,0.36334544,-0.5650934,0.52965784,-0.4038229,-0.43672386,-0.43224075,-0.52528405,-0.647508,-0.55398375,0.24648207,-0.52535206,0.5458416,0.29467884,0.3789999,0.4698384,0.3409724,0.5052177,-0.33872974,0.61242664,0.613996,0.55552876,-0.37569824,-0.28480536,-0.56633675,0.43484634,-0.36814556,-0.26097348,0.5084395,-0.46860725,-0.35356522,0.1715998,-0.65285516,0.52406114,0.4229085,0.32322586,-0.56496435,0.48540217,0.4657766,0.60527307,-0.58978933,0.4435029
FAM171A1,0.018892037,0.103185475,-0.1124455,-0.12746745,-0.122575596,0.12911625,0.09669723,0.09723976,-0.040325448,-0.016115513,-0.09501426,0.13937937,-0.10698461,0.08125178,-0.09442695,0.0886114,-0.10316455,-0.07209793,0.01086613,0.08930972,0.14953595,0.019910142,-0.11553531,-0.12538856,0.13963895,-0.12252345,0.11731834,0.098092586,0.110533595,0.12508933,0.10138941,0.111017436,-0.12926756,0.09061274,-0.063072264,-0.0799329,-0.10704321,-0.09355417,-0.0898305,-0.11561914,0.09044746,-0.12629433,-0.10728256,-0.14800455,0.11009514,0.09400158,0.12253823,-0.121021174,0.09447735,0.103379585,-0.11879009,0.05830299,0.095939785,-0.039430704,0.10446587,-0.10762194,-0.11766629,-0.08128116,0.14531748,-0.057421178,-0.08660779,-0.118989944,0.1167998,-0.052052334
GM20342,-0.05066192,-0.1081706,0.14289209,0.11951432,0.17328621,-0.16355333,-0.15908444,-0.12518254,0.064778335,-0.0024536476,0.1155593,-0.13580021,0.114644594,-0.087206736,0.093084954,-0.10441711,0.15475945,0.08887677,0.030411292,-0.14330867,-0.20157331,-0.04351291,0.13365787,0.13516685,-0.15208825,0.18665332,-0.1595236,-0.14549233,-0.15930286,-0.16479698,-0.12931235,-0.12551318,0.14617004,-0.1608077,0.11872016,0.096345976,0.17147967,0.122624844,0.10919551,0.1773439,-0.18291461,0.17193088,0.14075786,0.1529948,-0.16999507,-0.14713252,-0.17183018,0.15280816,-0.16016962,-0.10334788,0.11635019,-0.097525276,-0.13752347,0.08123348,-0.115478694,0.14275205,0.15004215,0.14080271,-0.17607136,0.10345863,0.11688898,0.17410345,-0.15625006,0.0880017
SLC25A5,-0.074885175,-0.1654987,0.16027674,0.16023394,0.20102553,-0.24085446,-0.1579364,-0.10795102,0.11621978,0.0056340545,0.11008532,-0.15174505,0.15308401,-0.1256482,0.09876696,-0.1284357,0.08558443,0.09031677,0.003134312,-0.1470826,-0.27799317,-0.021477915,0.14695972,0.16168055,-0.17556974,0.17864433,-0.19265598,-0.1440473,-0.20300363,-0.21973142,-0.16185643,-0.15525024,0.18181035,-0.14571315,0.15462585,0.1573234,0.16747718,0.08193725,0.11742035,0.20120476,-0.17072856,0.24398297,0.14200419,0.203815,-0.17490575,-0.102288164,-0.17404372,0.20054698,-0.15302004,-0.114776954,0.13945274,-0.06625572,-0.15660326,0.014497468,-0.110893294,0.16028905,0.15496314,0.11009619,-0.20537265,0.09478225,0.09245457,0.17899233,-0.1635739,0.107954234
RHOJ,-0.02887042,-0.030713249,0.032822527,-0.0033621825,0.032105174,-0.0153284,-0.044558823,-0.024782985,0.0023721606,-0.026398683,0.024470225,0.015646787,0.003612265,-0.012760051,0.022973828,-0.01747585,0.030592725,0.00889099,0.018776461,-0.014353316,-0.009851616,-0.00058206916,0.008523054,0.017913636,0.007609166,0.04249403,-0.040128775,-0.03558449,-0.029962745,-0.02385461,-0.0006172098,-0.0031892061,0.03940006,-0.057695374,0.017148353,0.0160521,0.04169426,0.030012142,0.0037362538,0.036988147,-0.07654816,0.011408121,0.0033731218,0.0020813718,-0.03550649,-0.046344467,-0.017099991,0.012222096,-0.037258126,-0.014117889,-0.005855195,-0.010878563,-0.018612232,0.03969077,0.013776004,0.016752372,0.023468107,0.054006636,-0.018280659,0.013291726,0.015788186,0.028693154,-0.014652174,-1.7446e-05
LGALS1,-0.059012376,-0.09100005,0.09870372,0.08299449,0.13644232,-0.14092316,-0.10553976,-0.071742974,0.09200216,-0.0031536892,0.05490058,-0.095900685,0.07547424,-0.07856457,0.046573848,-0.077532865,0.07424688,0.05679803,0.006432377,-0.098509066,-0.18924877,-0.016285062,0.09830699,0.10594115,-0.11229071,0.107917316,-0.119726956,-0.099975616,-0.14052242,-0.14063802,-0.110687986,-0.09190555,0.13566545,-0.11833656,0.11207606,0.1200861,0.11544822,0.06722174,0.06396214,0.12981062,-0.11944353,0.16565803,0.09629346,0.11128114,-0.12123802,-0.07395265,-0.10851777,0.113714546,-0.108782165,-0.057938114,0.06878461,-0.053892016,-0.097399205,0.008115977,-0.08449459,0.11825004,0.10469919,0.06935421,-0.13465175,0.07129389,0.04972947,0.12548243,-0.10431724,0.07312719
CTSG,0.017285164,0.07315993,-0.06940765,-0.08109299,-0.061891705,0.0535796,0.08301493,0.08641429,0.009833418,-0.0049400665,-0.09269226,0.09600021,-0.06794755,0.0515737,-0.070593864,0.057100672,-0.091285035,-0.04413779,0.0014562998,0.0524334,0.07512176,-0.00372722,-0.08451428,-0.08252851,0.074815504,-0.073645845,0.07390851,0.07656993,0.05971037,0.06701462,0.038290113,0.061271645,-0.084226355,0.064003274,-0.028652515,-0.032488573,-0.074299544,-0.079052314,-0.055428155,-0.0722712,0.065046184,-0.057253502,-0.05949842,-0.077369176,0.07967287,0.074862346,0.08036348,-0.06352084,0.052820414,0.08036825,-0.07123794,0.046014503,0.052236006,-0.070333585,0.06707972,-0.07342602,-0.077394105,-0.07278884,0.09357634,-0.033651497,-0.07979048,-0.06387251,0.07079465,-0.013501168
FSTL1,-0.007712042,0.034596145,-0.04886564,-0.06873351,-0.06698839,0.05654595,0.034286328,0.050747167,-0.017482989,-0.0149321295,-0.046875574,0.0725673,-0.054458693,0.033073694,-0.052205857,0.040379643,-0.057603896,-0.038176604,0.021476664,0.051027358,0.06310656,0.014633432,-0.057050273,-0.053743154,0.0744029,-0.0609413,0.044698566,0.04211326,0.040919177,0.0444634,0.058133863,0.05921127,-0.040471304,0.023182988,-0.016892333,-0.015374351,-0.0411815,-0.03787618,-0.051043667,-0.04696295,0.026876755,-0.0460422,-0.053014457,-0.08078469,0.03813523,0.0415167,0.060974702,-0.051151767,0.03773518,0.04998557,-0.0745244,0.03548874,0.048590753,-0.013271306,0.0653476,-0.040366087,-0.055349,-0.032742344,0.073779,-0.030098766,-0.06168578,-0.057391346,0.06436812,-0.041839104
C1RL,0.0008828528,0.05995027,-0.06264591,-0.086877294,-0.07936111,0.07529912,0.05458326,0.064202845,-0.030047402,-0.02002675,-0.055615537,0.09867882,-0.070391335,0.046714507,-0.055179965,0.05321067,-0.06988762,-0.04903681,0.01533842,0.049564347,0.09642096,0.019318245,-0.07256269,-0.07140124,0.08820173,-0.070732586,0.06399561,0.058481667,0.0563889,0.06933777,0.0662571,0.07624255,-0.066143475,0.03984259,-0.028452218,-0.03773435,-0.057760086,-0.058926985,-0.059209906,-0.06281531,0.034140162,-0.07422697,-0.06470742,-0.08869225,0.06426393,0.054602355,0.0706528,-0.06207724,0.048435524,0.06455745,-0.08373073,0.045313828,0.06166298,-0.02455524,0.08015816,-0.061532784,-0.072304755,-0.036213495,0.091058135,-0.038784385,-0.06897845,-0.07455109,0.07973888,-0.044512358
TSPAN13,-0.005457947,-0.05485503,0.041415192,0.04347548,0.034032952,-0.074961916,-0.009813368,0.0009353757,0.042809755,0.022384085,0.00054335874,-0.014642369,0.025514461,-0.018895473,-0.0011328653,-0.022209235,-0.039918832,0.016049255,0.008028315,-0.01746374,-0.08044093,-0.004741255,0.0076677725,0.028370913,-0.027808085,0.048380774,-0.03374118,-0.020836484,-0.049107872,-0.04564215,-0.037382945,-0.024472892,0.009503727,0.0047637224,0.043508694,0.03960449,0.02940122,-0.03060783,0.019540057,0.038962472,-0.022091888,0.06880214,0.025010502,0.05905838,-0.0281807,0.007882092,-0.032648034,0.06281263,-0.02522431,0.00071077794,0.0149083845,0.022970714,-0.023663092,-0.028505739,0.0038152933,0.010341845,0.011302151,0.010071034,-0.018314593,0.0143547,-0.0040065143,0.018931791,-0.05083111,0.04367362
HNF4A,1.2223613,-0.49370608,0.8175835,1.49442,0.31866318,0.0060796253,-0.5455467,-1.1738844,-1.2548693,1.1598533,1.3967547,-0.27489233,0.91000766,0.0701901,0.76144093,-0.60459715,1.2592711,0.8840067,0.75210077,-0.0021976978,-0.054204673,-1.1839056,0.2705304,-0.10426563,-0.34976736,0.81345034,-1.0048825,-1.1423546,-0.06934462,-0.60948664,0.6471584,-0.6170577,-0.8873362,0.04269463,-0.20665157,-0.62115645,0.44537318,0.70240813,1.0382662,0.18955773,-0.07154941,0.29581118,0.49190292,0.8157605,-1.2371308,-0.98660433,-0.9929338,0.5700246,-1.7020569,-1.3618731,0.79194987,-0.48057842,-0.6707603,1.6456406,-0.2618305,0.12947461,0.9058217,1.3667222,-0.5044735,0.5238231,0.8463223,0.47139204,-0.71703506,0.34786546
TBC1D5,-0.019372312,0.03756901,-0.040069588,-0.056317218,-0.009579033,0.002361957,0.027092412,0.05451547,0.0376674,-0.014574025,-0.054238245,0.04680553,-0.03802356,0.029337622,-0.049769156,0.020784974,-0.048812322,-0.040540718,-0.0016911235,-0.010027587,0.0053813383,0.008130815,-0.028959505,-0.033257205,0.021572914,-0.02639746,0.03276889,0.039290965,0.011016104,0.018337961,-0.0067966133,0.025400847,-0.023318414,0.0104003325,0.012499705,0.007811848,-0.028464582,-0.03517977,-0.029775767,-0.012667168,0.012937017,-0.0038536082,-0.015690338,-0.036890924,0.040760744,0.04524249,0.02807692,-0.015637368,0.025485298,0.048601627,-0.034123197,0.0056487806,0.012614112,-0.060873087,0.017225757,-0.01618753,-0.0422856,-0.043425247,0.034730528,0.008091511,-0.049802326,-0.013665117,0.0335833,0.00506988
HMGB2,-0.20459586,-0.21213612,0.33314818,0.41920137,0.5570152,-0.59383726,-0.4241013,-0.14917898,0.50361323,-0.060691126,0.12364661,-0.54277354,0.3199225,-0.1393278,0.2254529,-0.37013558,0.28634745,0.22804356,-0.12026436,-0.6262295,-0.6727559,-0.21848696,0.5226681,0.42866683,-0.6060175,0.5061509,-0.34776765,-0.3571462,-0.45966846,-0.54025465,-0.77950585,-0.5601315,0.36846513,-0.60584915,0.62486434,0.41015634,0.39513043,0.43140545,0.30170777,0.5511968,-0.4062479,0.64141965,0.63106096,0.57125926,-0.26131958,-0.24470831,-0.5114316,0.41695982,-0.25838226,-0.17240421,0.49609488,-0.48671767,-0.3625239,0.0031766891,-0.6709423,0.5320864,0.39181998,0.2481333,-0.5712153,0.49496233,0.43620637,0.6586248,-0.58336926,0.46012086
PSTPIP1,0.07340863,0.17904872,-0.18607448,-0.16934909,-0.2299033,0.19137734,0.19486246,0.17831124,-0.07137337,0.022823878,-0.17705889,0.18602982,-0.17235273,0.15484658,-0.16205472,0.17238548,-0.17974086,-0.13191754,0.016078733,0.14030789,0.24749368,0.021194771,-0.17881763,-0.22108644,0.20171756,-0.19011506,0.21580032,0.1710146,0.21399863,0.2411692,0.14200203,0.16448933,-0.25698027,0.21340132,-0.10638322,-0.17169571,-0.19161034,-0.18187071,-0.1177986,-0.20340526,0.21905476,-0.20808597,-0.15695286,-0.23280264,0.21903722,0.19630954,0.17829514,-0.18602706,0.19269428,0.17032163,-0.16736336,0.08744074,0.17965096,-0.10148892,0.116875894,-0.22098917,-0.20574898,-0.15399218,0.25069177,-0.06349263,-0.1323728,-0.20260397,0.16001675,-0.03511022
TMEM173,0.0055712853,0.014196977,-0.007343279,-0.011525005,0.0046760365,-0.025799077,0.040840663,0.043369565,0.038389407,0.00577271,-0.040048532,0.033821836,-0.014246147,-0.0048656818,-0.0175014,0.021126214,-0.069045074,-0.009276066,0.013074854,-0.016749425,-0.020712234,0.020056564,-0.028868575,-0.02016835,0.007349089,0.022478223,0.01781096,0.0296598,-0.016626565,0.008123066,-0.012289863,0.004547678,-0.018776972,0.028408304,0.01987094,0.0042369924,-0.005739987,-0.06120238,-0.011143278,0.0041571483,0.0060824156,0.013019737,-0.007679824,0.013573259,0.02173179,0.04305005,0.0034280904,0.024193287,0.02555917,0.03620393,-0.009876046,0.0247841,0.004668545,-0.057051796,0.03588288,-0.02427822,-0.028104043,-0.021114679,0.023794837,-0.0028634053,-0.027720565,-0.020023972,-0.0071950867,0.024640366
FDFT1,0.049899757,0.15823042,-0.16887261,-0.16969064,-0.18529983,0.16689374,0.15278706,0.14045843,-0.05627197,0.0018486977,-0.14917848,0.16706157,-0.15976515,0.12244375,-0.14041466,0.13792638,-0.14575794,-0.10147856,0.01484793,0.115597114,0.21620455,0.027593873,-0.1481953,-0.19426863,0.184214,-0.15520343,0.18419507,0.13543825,0.1805292,0.20769165,0.13147603,0.15020126,-0.21508883,0.16687237,-0.09925051,-0.14442474,-0.14861423,-0.14051269,-0.11483657,-0.16896455,0.17027763,-0.18505427,-0.1324955,-0.21734147,0.17240408,0.15829292,0.15000015,-0.16703656,0.1580016,0.15184624,-0.15053271,0.0670772,0.15517439,-0.074448034,0.105213046,-0.17721903,-0.18316215,-0.13670763,0.20950516,-0.052590527,-0.10316362,-0.1699244,0.13537379,-0.038229346
IL18BP,-0.0034751184,0.051330972,-0.052012496,-0.072291106,-0.06207466,0.06427854,0.033544578,0.04590241,-0.025524542,-0.014912227,-0.03946246,0.082339875,-0.060712747,0.03650088,-0.050637633,0.041848708,-0.050011143,-0.044167116,0.023892896,0.031404607,0.07879516,0.018321909,-0.049312033,-0.060981974,0.07446088,-0.051687278,0.04847504,0.044179715,0.046567887,0.054041486,0.06291368,0.05794911,-0.055387538,0.021661624,-0.01676554,-0.03127897,-0.034537595,-0.0330588,-0.053068645,-0.049577612,0.02412887,-0.061295606,-0.05201271,-0.08346062,0.052190505,0.04604452,0.052808646,-0.049522404,0.04617122,0.05488641,-0.06469804,0.02367185,0.05163762,-0.0060020126,0.06299547,-0.044726256,-0.06257047,-0.026198672,0.07322484,-0.019181728,-0.051773764,-0.0581052,0.063426524,-0.030099865
TMEM206,0.011448925,0.062097188,-0.06837877,-0.072725475,-0.034938112,0.038047682,0.05431091,0.05045969,0.013033822,-0.0026027337,-0.0593572,0.084275946,-0.045926534,0.03858926,-0.06321982,0.04390113,-0.052044936,-0.040679596,0.014312664,0.013039261,0.042026307,0.002875384,-0.054995604,-0.068273574,0.052669242,-0.055188328,0.05160378,0.057038397,0.037349764,0.055531766,0.03423749,0.04130936,-0.061756577,0.038859494,-0.018515505,-0.026890118,-0.05098292,-0.049686342,-0.041967742,-0.043603968,0.03938087,-0.037608318,-0.044220377,-0.062033605,0.06886847,0.06563449,0.048778113,-0.03739326,0.045728676,0.06052293,-0.041047826,0.024103038,0.012706187,-0.053889226,0.038552202,-0.050570596,-0.058384426,-0.049278982,0.06997666,-0.0024835449,-0.06294648,-0.039299674,0.058915302,-0.008640991
ITGAM,-0.12113297,-0.29853472,0.3178046,0.26515955,0.3371268,-0.36963487,-0.34077573,-0.28573933,0.09740399,-0.005166553,0.2654515,-0.29297757,0.26001543,-0.20495073,0.24138752,-0.23983178,0.31823686,0.17729804,0.054774664,-0.24427654,-0.4109644,-0.07426709,0.3275462,0.2978743,-0.30865684,0.37568378,-0.36813134,-0.33427086,-0.32376468,-0.32625237,-0.27154917,-0.27960235,0.3398659,-0.3146535,0.2356483,0.21153119,0.3469475,0.25998414,0.22005102,0.3632303,-0.3557928,0.36314332,0.28822884,0.32568875,-0.34533593,-0.32955635,-0.3453265,0.30621013,-0.30139485,-0.27315736,0.23728822,-0.19292882,-0.238148,0.15588616,-0.24517527,0.27093047,0.3218856,0.30233994,-0.3712245,0.18249632,0.27392182,0.36098236,-0.33157066,0.14867695
RAB38,0.07403059,0.13443723,-0.16966268,-0.1308462,-0.2347986,0.16678375,0.15836978,0.17425552,-0.05297461,0.035921186,-0.14935996,0.1530984,-0.14108732,0.12452285,-0.15799169,0.16552925,-0.16495208,-0.12296933,0.046106704,0.12502629,0.19839883,0.046185095,-0.15772814,-0.18442659,0.1818526,-0.16622853,0.20115326,0.1621679,0.18886024,0.24171184,0.11697353,0.12972751,-0.23220336,0.19472963,-0.0740968,-0.14926685,-0.15723725,-0.15975349,-0.09441547,-0.18006365,0.20011532,-0.19390582,-0.1569525,-0.19351342,0.20924002,0.17026223,0.15655306,-0.15173149,0.20704776,0.1582069,-0.14564891,0.072248094,0.15346129,-0.08072284,0.09652567,-0.18996419,-0.18570396,-0.13680959,0.23788054,-0.061301067,-0.11669005,-0.17232963,0.1426531,-0.038180068
RBPMS,0.014806217,0.003192734,-0.038745735,-0.035643857,-0.060237423,0.041250076,0.037236057,0.04367507,-0.016311407,0.01794066,-0.033252273,0.06989615,-0.03821011,0.025508296,-0.045356467,0.037867427,-0.06625246,-0.034731194,0.029709078,0.053293295,0.038952693,0.01193656,-0.05674514,-0.05074115,0.06795113,-0.040447146,0.03873376,0.029145187,0.029789321,0.052346777,0.061790526,0.055455677,-0.056957666,0.061612695,-0.028321803,-0.022749621,-0.042253044,-0.05550726,-0.03753201,-0.05367929,0.039800413,-0.033321816,-0.05190371,-0.059914477,0.040413067,0.047712997,0.053208698,-0.0300726,0.033909597,0.03605267,-0.061260536,0.046390258,0.04229651,-0.030280944,0.074255385,-0.06727861,-0.057808965,-0.029736938,0.07549054,-0.027045863,-0.056909926,-0.055623554,0.04530215,-0.022324797
ARHGAP18,0.053116865,0.1456541,-0.14720961,-0.13827586,-0.16864067,0.15025084,0.16757518,0.1544486,-0.045508586,0.020958245,-0.15008636,0.16524073,-0.14611837,0.11883025,-0.12988928,0.11142664,-0.16100827,-0.10616404,0.018471058,0.107951105,0.19773924,0.015753135,-0.15126485,-0.17179206,0.17038415,-0.15999535,0.17244177,0.14383154,0.16302183,0.18222527,0.11742955,0.14068937,-0.20419917,0.16994032,-0.08801156,-0.11741096,-0.1599116,-0.14195217,-0.11291394,-0.16774562,0.16798356,-0.15163232,-0.1360986,-0.1752135,0.164791,0.16387543,0.1550878,-0.14656685,0.14895728,0.13954689,-0.13682908,0.08500712,0.13401766,-0.0993837,0.10752029,-0.16856153,-0.1660308,-0.13659216,0.19830334,-0.062895015,-0.12499166,-0.15328474,0.14515738,-0.03376668
GOLM1,0.052842624,0.1691817,-0.18402982,-0.17093137,-0.19185351,0.17339303,0.17158687,0.15666386,-0.05531569,-7.3097646e-05,-0.16862452,0.18454993,-0.15613934,0.1323814,-0.14396861,0.15185645,-0.15602681,-0.11521122,0.010934245,0.12967129,0.22614783,0.020123068,-0.16315657,-0.20619377,0.1933418,-0.17820656,0.20056982,0.15633492,0.18353277,0.21221878,0.12759158,0.1515668,-0.22188045,0.17636383,-0.09535566,-0.14472544,-0.1747573,-0.1552075,-0.11855331,-0.1876599,0.18832049,-0.19365244,-0.14813662,-0.22697736,0.19166157,0.17486544,0.16884172,-0.17659013,0.16699906,0.15175259,-0.16201505,0.083791055,0.15969834,-0.09074587,0.11706051,-0.19113216,-0.18359742,-0.14089581,0.22773056,-0.06374065,-0.12830086,-0.18204571,0.15733118,-0.041934725
CCT2,0.075637564,0.1292013,-0.16503881,-0.12669067,-0.21585993,0.15697037,0.17995143,0.17101234,-0.051075608,0.05127106,-0.15699887,0.16289678,-0.13980418,0.1296814,-0.1475045,0.14433864,-0.18001771,-0.11386241,0.03383711,0.14040664,0.2009129,0.02421188,-0.1681706,-0.18888414,0.18699473,-0.15936139,0.18601514,0.15562104,0.18967116,0.22948699,0.1169234,0.13540225,-0.2412659,0.22077554,-0.09065382,-0.14479414,-0.16989692,-0.17529167,-0.09682056,-0.18276677,0.21355307,-0.17462677,-0.14775202,-0.18070635,0.19556147,0.17154169,0.16786328,-0.15342444,0.16918331,0.14187723,-0.1404324,0.096216746,0.15543173,-0.11235894,0.11139218,-0.2141721,-0.18207666,-0.15197894,0.23075792,-0.060255297,-0.12609889,-0.16741948,0.1400309,-0.03550944
GPX1,-0.00027386658,-0.07114476,0.05236666,0.067464955,0.033951905,-0.097345814,-0.021866463,9.613484e-05,0.04401963,0.034389183,0.012041192,-0.03416157,0.04144503,-0.025445672,0.0006844989,-0.031050347,-0.03433436,0.022756685,0.0126547385,-0.020694556,-0.10363477,-0.013604268,0.020475626,0.037261914,-0.03997144,0.06055354,-0.048878644,-0.027606834,-0.055254266,-0.05678486,-0.042102978,-0.04035166,0.011570129,0.00021743774,0.051687017,0.047664676,0.036138717,-0.026876055,0.026598692,0.050939534,-0.016213153,0.088809855,0.042020757,0.07627557,-0.035198662,0.0066172294,-0.04547882,0.07930991,-0.025299326,-0.011791855,0.03099918,0.016223822,-0.03293785,-0.024360698,-0.010913327,0.018247798,0.020423532,0.0152231995,-0.029347803,0.028299289,0.0016128588,0.036361683,-0.061070703,0.05165031
PBX1,1.1516542,-0.3442861,0.6785131,1.3615601,0.29096168,0.00718699,-0.4926937,-0.9996627,-1.0617619,1.0910711,1.111471,-0.302249,0.74740946,0.17387496,0.59189755,-0.6365076,1.0663403,0.7934896,0.59775513,-0.088909045,-0.05095911,-1.2242161,0.2814744,-0.19996959,-0.35137555,0.73953,-0.86177623,-1.0778309,0.006458923,-0.5758329,0.50359404,-0.610932,-0.9837058,-0.021263838,-0.12849471,-0.5774372,0.33060032,0.7204397,0.9098748,0.16102205,0.06865112,0.31880468,0.5703605,0.69536996,-1.0875723,-0.74812675,-0.9303048,0.4647768,-1.484567,-1.2053258,0.72672653,-0.49977624,-0.55883455,1.4845973,-0.4111559,0.16951999,0.75130844,1.1486791,-0.47888795,0.5986803,0.8146811,0.44510454,-0.71318305,0.4253897
TGM2,-0.031358577,0.011908453,-0.013147084,-0.025050942,-0.022693262,-0.02232762,-0.028711194,0.026816867,0.02830904,-0.027293436,-0.016359922,0.004590288,-0.0038475618,-0.0053076036,-0.0147137325,0.024196293,-0.034341276,-0.02606296,0.021431223,-0.00883539,-0.0056881085,0.027179262,-0.01169271,-0.0046047904,0.010562465,0.008055162,0.008049518,0.021749798,0.0033149142,0.010383051,-0.018813163,-0.015832976,0.007310868,-0.04871635,0.043346927,0.022563342,0.027155833,0.0128184715,-0.009620745,0.022894274,-0.0132717565,-0.014045796,-0.012664307,-0.026519416,0.013421249,0.019510329,-0.01092454,0.022329606,0.044413187,0.02228981,-0.018834965,-0.005047433,0.015600868,0.008033264,0.012213752,0.008240618,-0.006339565,0.002176905,0.011150185,0.00025849603,-0.02239324,-0.003370177,0.0043907245,0.003136789
S100A6,-0.041834623,-0.06974463,0.05074781,0.017867297,0.053525627,-0.048375715,-0.06998564,-0.04413738,0.02006939,-0.010193367,0.053780526,-0.02854399,0.032376207,-0.047037322,0.01583295,-0.035580352,0.04000265,0.023978699,0.026948385,-0.04510492,-0.085493796,0.001898203,0.056897327,0.046954993,-0.03480628,0.061904594,-0.07507522,-0.06412549,-0.08337845,-0.07923076,-0.018890679,-0.020562336,0.08389946,-0.073261775,0.06076722,0.057337075,0.073936045,0.03418385,0.019018352,0.077105924,-0.08695115,0.07991168,0.043889172,0.04055248,-0.075852215,-0.044768788,-0.055067465,0.046501726,-0.047924846,-0.023406893,0.012101043,-0.022344412,-0.029164169,0.02319643,-0.0080522895,0.058329064,0.041174643,0.053881466,-0.055262107,0.03586694,0.021123623,0.050091825,-0.04396162,0.0051974393
NUCB2,-0.019582601,0.06744972,-0.063399844,-0.08761802,-0.037896335,0.05590958,0.044807263,0.056263458,0.012233973,-0.029097464,-0.07047911,0.081011325,-0.065344855,0.03965599,-0.057090893,0.04757533,-0.065165386,-0.04396412,0.006180318,0.018449701,0.06977314,0.01661601,-0.06107687,-0.06137076,0.071600944,-0.053673364,0.05453813,0.05621653,0.035436288,0.05260103,0.038063664,0.05969342,-0.043849852,0.025490895,-0.019973002,-0.017723415,-0.048755508,-0.04003323,-0.061459154,-0.043534175,0.023874998,-0.041602954,-0.05380761,-0.08723569,0.055556215,0.054469377,0.057778526,-0.055851944,0.043901138,0.061760567,-0.064713836,0.032232888,0.044620402,-0.03893063,0.05746303,-0.04583812,-0.06320245,-0.054485083,0.0652744,-0.024219893,-0.064177394,-0.053828545,0.0658391,-0.02292484
PPIC,0.0020961557,0.056445472,-0.066068284,-0.07753026,-0.105466336,0.076200664,0.053043768,0.072042845,-0.02837637,-0.011856139,-0.07572584,0.087165326,-0.07093827,0.05914154,-0.066173,0.060471464,-0.090014294,-0.053884584,0.010665411,0.073339246,0.09949543,0.019678887,-0.08671692,-0.08294833,0.096438535,-0.07964095,0.079595305,0.06586902,0.08021975,0.097988084,0.066106595,0.06899379,-0.0910964,0.06263888,-0.0402418,-0.044276346,-0.06737538,-0.06887464,-0.06556241,-0.076844975,0.050416283,-0.082970016,-0.07151193,-0.102039024,0.07825957,0.070102505,0.073561795,-0.06998419,0.07828576,0.075567424,-0.09239576,0.049563967,0.07301285,-0.031549092,0.073679,-0.07854356,-0.09080913,-0.053242534,0.10608187,-0.043030463,-0.06560883,-0.078063995,0.064795054,-0.041021258
SCRN1,0.0023838077,0.041770607,-0.041419975,-0.06959314,-0.04355508,0.06920335,0.032434188,0.02577129,-0.030742802,-0.021346811,-0.033787258,0.089853235,-0.05901666,0.035603173,-0.035237446,0.03005563,-0.029523969,-0.024886563,0.015460754,0.044329606,0.08085914,0.0021440089,-0.05870321,-0.05687937,0.08047098,-0.04356633,0.035558216,0.03241001,0.037860107,0.04610398,0.06839243,0.065694615,-0.04891732,0.01918909,-0.036415298,-0.03152783,-0.036165122,-0.026841683,-0.04860299,-0.044751648,-0.0029466376,-0.060769163,-0.055395067,-0.07560486,0.031266935,0.017472789,0.0578548,-0.05716069,0.009486435,0.038660534,-0.065485165,0.030072063,0.03549999,0.01139172,0.066266716,-0.043674964,-0.04579564,-0.010616375,0.06615941,-0.027926879,-0.044057354,-0.049090058,0.057557464,-0.038969126
ADAM17,-0.0923401,-0.30928996,0.35942844,0.3233689,0.37364763,-0.39904797,-0.36953,-0.30736288,0.104025505,0.029776812,0.31601387,-0.33574384,0.3077941,-0.2165684,0.2677247,-0.26871237,0.36956567,0.21165794,0.079582,-0.29459527,-0.46697155,-0.098407835,0.34819272,0.33207342,-0.36760235,0.40516466,-0.39636004,-0.3460556,-0.3558047,-0.37673646,-0.30898333,-0.32960898,0.34763646,-0.34966516,0.28051126,0.21713698,0.40408868,0.2925866,0.28051838,0.4025019,-0.37988815,0.40225384,0.3349788,0.40761936,-0.3856407,-0.34384847,-0.40574062,0.36996132,-0.37053227,-0.29515836,0.28384796,-0.23222506,-0.313288,0.19577177,-0.29018232,0.31283113,0.3803601,0.33317995,-0.40223923,0.23725252,0.302014,0.41521728,-0.36818358,0.18050857
SLC6A15,-0.008603556,0.03603947,-0.041933447,-0.068953775,-0.053572044,0.06254997,0.02331794,0.033403587,-0.024707243,-0.022066792,-0.031255014,0.08068514,-0.052014537,0.026538976,-0.044357173,0.03705721,-0.04392457,-0.034182373,0.018889086,0.032859765,0.072104394,0.012438998,-0.047127146,-0.05357067,0.0725844,-0.0419024,0.03669733,0.03447494,0.03567123,0.047425818,0.058514155,0.0557582,-0.03943639,0.015837923,-0.0201754,-0.026147645,-0.028669197,-0.034532383,-0.04537539,-0.04120266,0.0071460903,-0.057554662,-0.055021167,-0.073945604,0.03809391,0.026022598,0.053406842,-0.05176009,0.031987533,0.050478674,-0.06282961,0.024598561,0.043589495,-0.00089393184,0.06710054,-0.03984541,-0.050305795,-0.015987093,0.062759385,-0.027373945,-0.04677675,-0.053140864,0.057368256,-0.036890402
