,0,1,2,3,4,5,6,7,8,9,10,11,12,13,14,15,16,17,18,19,20,21,22,23,24,25,26,27,28,29,30,31,32,33,34,35,36,37,38,39,40,41,42,43,44,45,46,47,48,49,50,51,52,53,54,55,56,57,58,59,60,61,62,63
EGR1,0.06826242,0.050175086,0.07329808,-0.058325034,0.016039506,-0.0288819,0.014454383,-0.052611593,-0.048844334,-0.04679642,-0.055284873,-0.05262372,-0.03916476,-0.029279066,0.03551572,-0.052410763,0.0484741,0.04277772,0.05374901,0.05328253,-0.023686387,0.041524142,-0.046428353,0.035953432,-0.048179194,-0.054803357,0.04032743,-0.050236005,0.05421954,-0.044902984,-0.061621115,0.035187673,0.044244308,-0.06573698,0.066089176,0.05629024,-0.028996332,-0.052968964,0.005127825,-0.0405994,-0.06927003,0.039288968,0.037049256,-0.04076666,-0.03496487,-0.05350904,0.045847118,-0.06301355,-0.039542116,0.036318913,0.057175107,0.060525283,0.04576302,-0.052000463,0.02789548,0.06929188,0.065667324,0.04894066,-0.03461628,-0.043985136,-0.061958663,-0.060953006,-0.04963783,-0.037601568
PPIL1,-0.15756749,-0.15308511,-0.19319044,0.15401718,-0.06226077,0.11402222,-0.07549194,0.15198228,0.13396297,0.14588991,0.12838936,0.15730059,0.13671294,0.06651257,-0.15630698,0.14505753,-0.16118957,-0.13804078,-0.13596839,-0.11190855,0.084918246,-0.14884472,0.08303927,-0.09831252,0.13236153,0.1837125,-0.12423037,0.11847794,-0.15375598,0.175222,0.1797419,-0.13040864,-0.12498537,0.120204955,-0.17650607,-0.16711284,0.0815863,0.21282464,-0.028429762,0.08049711,0.1539821,-0.12085944,-0.13145918,0.12666783,0.15508227,0.16048831,-0.1445477,0.15763305,0.14135146,-0.114178084,-0.12616947,-0.16908526,-0.15253116,0.09783443,-0.14003706,-0.16431928,-0.18329218,-0.13605604,0.108119845,0.1051171,0.11654203,0.16460086,0.1494243,0.119963825
CXCR4,0.17899078,0.14304759,0.17354377,-0.14581215,0.060344428,-0.13234973,0.0794248,-0.19224139,-0.17055961,-0.16540879,-0.17053102,-0.17507029,-0.15609764,-0.07798035,0.15015015,-0.17414676,0.15561554,0.16392198,0.17815429,0.12633285,-0.11120424,0.14353076,-0.11372124,0.09688165,-0.152805,-0.18246765,0.1359457,-0.16058052,0.18393862,-0.17149015,-0.22117434,0.14578584,0.14171878,-0.13602482,0.141823,0.16746767,-0.09280263,-0.20448753,0.00018796697,-0.10505395,-0.16221316,0.106313795,0.11720357,-0.14369527,-0.13751583,-0.18173388,0.14929104,-0.16871335,-0.16190103,0.09892312,0.15306738,0.17015187,0.17296262,-0.13451329,0.14128518,0.15727559,0.17697243,0.14258428,-0.12788977,-0.09969309,-0.15124074,-0.15249091,-0.15086427,-0.14324373
ZSWIM8,0.042202726,0.01957868,0.032078598,-0.020977005,0.0038064122,0.0032994524,-0.0010338202,-0.01597838,-0.025117904,-0.00711431,-0.032438923,-0.018002955,-0.016794378,-0.028178578,0.010108009,-0.029796155,0.024203163,0.01992964,0.030058287,0.03312899,-0.005039215,0.02481997,-0.03584298,0.012722373,-0.03455077,-0.022086807,0.013213273,-0.016460346,0.021238752,-0.019699935,-0.028009767,0.007985942,0.02416258,-0.037136897,0.03566545,0.01787329,0.0019293986,-0.012581572,0.004292149,-0.029570147,-0.032646038,0.013073235,0.010720931,-0.019234557,-0.010234326,-0.022478249,0.018140428,-0.029464453,-0.01325549,0.008449689,0.029443946,0.022696733,0.010178812,-0.035303712,0.011254231,0.0403573,0.039901786,0.020252543,-0.013216067,-0.020101301,-0.041684017,-0.023271976,-0.023693299,-0.024085846
ASXL1,-0.058674425,-0.06799395,-0.083284855,0.0712484,-0.029715199,0.07037624,-0.03845323,0.060675878,0.0661809,0.08472866,0.060919933,0.077833354,0.059305355,0.018911589,-0.0742874,0.056243874,-0.07281828,-0.06583398,-0.05386503,-0.042458758,0.050571516,-0.060483165,0.024211034,-0.046884127,0.045076985,0.08171347,-0.059768517,0.056669828,-0.06993878,0.079539984,0.08951001,-0.06744589,-0.052721076,0.051973455,-0.06593523,-0.0850614,0.051410433,0.111035064,-0.013504911,0.02330006,0.070869714,-0.054155648,-0.062010944,0.059904706,0.07491505,0.0731182,-0.07638029,0.073463455,0.06338085,-0.050081335,-0.0543733,-0.083466396,-0.0755942,0.035036795,-0.05777704,-0.061103534,-0.06962979,-0.06586557,0.048454758,0.042548425,0.045983367,0.079623975,0.06691514,0.047552384
GLUD1,-0.013013413,-0.033193186,-0.028452205,0.02793125,-0.01757501,0.029803813,-0.016904913,0.024701484,0.02198968,0.026879845,0.0150934085,0.036241718,0.024638258,-0.0006648246,-0.03883928,0.017755004,-0.02248325,-0.02301684,-0.02451919,-0.009529619,0.027255667,-0.03070328,0.0058337376,-0.01808285,0.020374805,0.040585276,-0.0180492,0.021344282,-0.024824735,0.029552631,0.024243107,-0.035649553,-0.023982741,0.014472425,-0.029881833,-0.021569684,0.015850283,0.04520662,0.003970716,0.0029545948,0.015715014,-0.024994396,-0.02237413,0.030249331,0.036184505,0.027620034,-0.030294642,0.03147934,0.035374347,-0.02786465,-0.013539422,-0.03452859,-0.03351323,0.011088736,-0.02391972,-0.018031988,-0.029186832,-0.02179325,0.023605872,0.0041119307,0.012010656,0.029375726,0.025200762,0.021687683
PIM2,0.031300835,0.018302388,0.030576792,-0.025030427,-0.0019639432,-0.0140858125,0.016657565,-0.021011649,-0.019116715,-0.010155447,-0.025792059,-0.017454708,-0.016334826,-0.0138614755,0.0055227093,-0.01843959,0.020697318,0.0112854615,0.020433992,0.0154797025,-0.004307367,0.007003911,-0.027385224,0.020538883,-0.007680787,-0.009917945,0.021446478,-0.026248008,0.025761884,-0.0045877956,-0.021364598,0.0021174587,0.011303823,-0.029171465,0.021937562,0.030866414,-0.022955123,-0.011881217,0.0034657381,-0.027294237,-0.04335516,0.016458139,0.014333963,-0.0006064526,-0.008632764,-0.027787955,0.005646862,-0.023757339,-0.01067842,0.01327204,0.022327052,0.03286673,0.015205387,-0.018535785,0.00817926,0.03491677,0.029266352,0.019511575,-0.021885987,-0.029336661,-0.028461348,-0.026462108,-0.013051562,-0.0150017515
CHAF1A,0.020035613,-0.008596871,-0.0070647933,-0.00011310354,-0.0009317845,0.025424752,-0.020629413,0.015117742,-0.0054884106,0.021965848,-0.014568154,0.014082499,0.0013341717,-0.014744582,-0.023890894,-0.004585512,-0.009991188,-0.007154705,0.0141750015,0.016090851,-0.0015390366,0.009417683,-0.025913551,-0.010858573,-0.01759591,0.00405588,-0.014663372,0.011286009,-0.0037720539,0.013038807,0.0039079706,-0.0075900815,0.005876884,-0.024084458,0.010427828,-0.020141907,0.023007851,0.027529586,-0.005764276,-0.01949627,-0.00097538903,-0.009407471,-0.008829646,-0.0038108001,0.021234848,-0.00077186525,-0.0065324083,-0.0076121837,0.0008705966,-0.011155296,0.010877069,-0.0065648407,-0.014283731,-0.022710357,-0.013363457,0.0069676675,0.018491395,-0.009015078,5.343929e-05,0.0017070472,-0.020429928,2.4770387e-05,0.003936706,-0.012434315
CD37,0.19046642,0.15040283,0.18006243,-0.16743594,0.06544258,-0.15373892,0.09396094,-0.2042465,-0.17618802,-0.17976567,-0.18992049,-0.19131896,-0.15483291,-0.08630257,0.16633606,-0.1890843,0.16736753,0.1766522,0.19151781,0.14857091,-0.12921588,0.1633662,-0.12324348,0.104066074,-0.17445625,-0.19413616,0.14540628,-0.17559305,0.19458628,-0.17717312,-0.2315486,0.15974502,0.14714722,-0.14539497,0.16153672,0.17636703,-0.106519684,-0.20919964,-0.0076133795,-0.10933531,-0.17566563,0.12871866,0.111199684,-0.15414011,-0.14125575,-0.19328701,0.17209426,-0.17786537,-0.18145156,0.10842614,0.16893692,0.17121121,0.17572609,-0.15830317,0.1564648,0.1652084,0.18730529,0.15021431,-0.14230625,-0.110115275,-0.16829364,-0.17042385,-0.16267085,-0.15509686
EHMT1,0.07074735,0.045189813,0.06206617,-0.048420172,0.017688535,-0.03013613,0.019526858,-0.046925552,-0.050547987,-0.043752797,-0.056329537,-0.048073523,-0.042722233,-0.03638406,0.033143856,-0.049432043,0.04666437,0.046737093,0.059277836,0.055827796,-0.026217103,0.043370605,-0.04784864,0.024506308,-0.047694575,-0.04649946,0.038843747,-0.04009076,0.048367284,-0.04993021,-0.068053976,0.03629454,0.049354885,-0.05938132,0.05642722,0.051791437,-0.028933175,-0.053347915,0.012248937,-0.04567395,-0.061671626,0.030863278,0.03420704,-0.039890077,-0.03622883,-0.057810977,0.048915856,-0.055922747,-0.036063418,0.02727633,0.052092887,0.057829052,0.04589777,-0.051640514,0.029437508,0.059578784,0.066084355,0.043823257,-0.0327243,-0.041019697,-0.062880725,-0.050014153,-0.04573784,-0.04086473
TIMM21,-0.06360838,-0.062565096,-0.07563597,0.052791506,-0.03820155,0.047198772,-0.026343293,0.05158409,0.05939628,0.061041318,0.04971099,0.061007686,0.063456826,0.030955374,-0.06898156,0.06074795,-0.06376298,-0.05907735,-0.05703581,-0.048976094,0.042490676,-0.07046703,0.040113673,-0.026510082,0.06850304,0.083636925,-0.03542641,0.03938478,-0.05389657,0.07653619,0.07916014,-0.069392055,-0.055324696,0.045802236,-0.07819026,-0.0590366,0.0284422,0.0900045,-0.005505372,0.02644407,0.045840036,-0.046496183,-0.047230914,0.07100933,0.07402083,0.07021914,-0.06805587,0.061388966,0.06247839,-0.049496427,-0.051867604,-0.07389441,-0.0663891,0.047710367,-0.054951128,-0.054836404,-0.07828079,-0.04798405,0.041769188,0.022123203,0.045433424,0.057410784,0.06261565,0.061072163
AATF,-0.02556805,-0.054597877,-0.06597458,0.049992517,-0.009976767,0.06731534,-0.049579524,0.05678467,0.031188264,0.061675128,0.026909806,0.05811926,0.032761507,4.667975e-05,-0.07003992,0.03259065,-0.0579452,-0.044215936,-0.020077765,-0.010063188,0.020312928,-0.025335249,0.00082921237,-0.04487127,0.011588354,0.04946395,-0.056516428,0.04660255,-0.055605397,0.06527667,0.05626402,-0.039147086,-0.024312288,0.016912585,-0.03478015,-0.07282691,0.055348124,0.0853052,-0.01676999,0.009708524,0.05655914,-0.048287235,-0.048714887,0.025725763,0.0625844,0.046898693,-0.041200846,0.04095613,0.03966629,-0.04049997,-0.03020645,-0.06301469,-0.05571928,0.008843474,-0.049700815,-0.0447069,-0.033788934,-0.05172941,0.033668,0.038144775,0.0119512975,0.049958996,0.044222355,0.018888762
ENO2,0.03860537,0.01882983,0.033860277,-0.018544108,-0.002891019,-0.00026969984,0.0069727525,-0.016513268,-0.01651746,5.738437e-05,-0.0334958,-0.013897996,-0.013398005,-0.019041067,0.0031889603,-0.01916534,0.019313753,0.012062269,0.023406222,0.021691777,-0.0006551631,0.02131033,-0.029955707,0.015353199,-0.01660683,-0.009888105,0.018548168,-0.020006025,0.024539243,-0.010937955,-0.018809222,0.0017049871,0.014393847,-0.030527817,0.023506649,0.01609337,-0.005177133,-0.0059596673,0.0015994571,-0.030854777,-0.03533295,0.013422114,0.008933626,-0.0069839633,-0.005547408,-0.021672077,0.001236394,-0.0224109,-0.006679493,0.009665504,0.023787925,0.024252042,0.015044171,-0.02497819,0.015252502,0.037479714,0.03667368,0.01866894,-0.016542256,-0.017672583,-0.038273573,-0.02666534,-0.013273815,-0.019099854
EXOSC8,-0.06196486,-0.044289462,-0.057148255,0.049470037,-0.039296184,0.029104553,-0.014162853,0.031932544,0.05244597,0.04850678,0.04353919,0.048544772,0.051702254,0.029152337,-0.05065604,0.059705094,-0.046150655,-0.05189351,-0.05377479,-0.049196184,0.04168175,-0.06660881,0.032591097,-0.012875102,0.069501504,0.0739167,-0.018252034,0.024272636,-0.034537196,0.0640285,0.062547624,-0.06351489,-0.04924393,0.046724714,-0.07357806,-0.037330333,0.014459144,0.06886996,0.0011234544,0.016391456,0.02788819,-0.037957948,-0.037001982,0.06916713,0.053448815,0.057043396,-0.0637641,0.049306437,0.056585927,-0.041425474,-0.04323113,-0.05260823,-0.048057724,0.045182817,-0.040686898,-0.042444456,-0.065421104,-0.03870536,0.029432919,0.013003513,0.042061232,0.049181007,0.05742971,0.055206455
LAMA1,0.18403457,0.1590397,0.21772026,-0.19544561,0.037652515,-0.18200126,0.13089275,-0.20104845,-0.1633954,-0.19065028,-0.19007847,-0.21829885,-0.1412164,-0.073262066,0.18698746,-0.18069252,0.18327937,0.16852662,0.17896359,0.1389417,-0.10662691,0.14833988,-0.12332623,0.13479027,-0.14406407,-0.18944095,0.17533338,-0.19164723,0.21576773,-0.17671321,-0.22350131,0.15455653,0.12890947,-0.1523374,0.18902996,0.21111126,-0.1489127,-0.22641921,0.009458978,-0.10364837,-0.22331016,0.17816533,0.11371014,-0.13469753,-0.16567312,-0.18899153,0.16525406,-0.18674056,-0.18043485,0.13247286,0.17887619,0.19871433,0.20126306,-0.15164766,0.17051665,0.19286615,0.1849633,0.17889962,-0.15026054,-0.12839158,-0.1691123,-0.190483,-0.16186282,-0.1381319
CCNB2,0.015420028,0.006725192,0.026745219,-0.0011674073,-0.019675747,-0.010062039,0.01887064,-0.006383214,0.0017674565,0.0042978413,-0.005173981,-0.0033238977,0.0025760438,-0.0055457857,-0.0093874205,0.0014562774,0.014690246,-0.015838258,-0.0023498088,-0.008368583,0.018155113,-0.003950298,-0.010895357,0.009700984,0.019176308,0.019405555,0.021524817,-0.018694315,0.004617,0.00016961247,-5.18905e-05,-0.024249231,-0.008362886,-0.0060199536,-0.0038331745,0.01766096,-0.025374467,0.0037247315,0.0045156777,-0.017816033,-0.035889506,-0.00042052846,0.00201945,0.025289394,-0.0029467233,-0.007195158,-0.02004778,0.00028216094,0.016521495,0.0031256974,0.002790494,0.01595059,0.009715471,0.007025689,0.006585865,0.02013367,0.0069186557,0.014727835,-0.007621914,-0.01728978,-0.014708854,-0.008418837,0.0082935225,0.009601537
SPP1,0.11237637,0.09870744,0.14083344,-0.10016911,0.035320297,-0.08398192,0.060193628,-0.12510602,-0.098817915,-0.109432615,-0.097271085,-0.116500564,-0.09154885,-0.045323186,0.093997695,-0.10192486,0.10430917,0.096319325,0.094012134,0.07158942,-0.04780031,0.05946669,-0.074705355,0.06727266,-0.07762769,-0.10584824,0.09743969,-0.10916169,0.11294836,-0.10347575,-0.13012083,0.07873212,0.080688,-0.0903348,0.10535572,0.12730557,-0.07941924,-0.12974669,0.013355393,-0.07100064,-0.13466403,0.0832951,0.08268113,-0.072445706,-0.09627882,-0.122935824,0.08661943,-0.1087427,-0.07503843,0.07562235,0.09661775,0.13067219,0.09810892,-0.07090017,0.07896526,0.11579333,0.10424356,0.09274466,-0.07648902,-0.081787005,-0.08989507,-0.1034857,-0.099670105,-0.07433614
CFAP97,0.07994945,0.058659844,0.08010216,-0.06186722,0.018988758,-0.03419882,0.026794255,-0.06472961,-0.061681338,-0.055019043,-0.06285122,-0.062409114,-0.052111804,-0.032412894,0.04086698,-0.0650221,0.057859343,0.053507682,0.06056746,0.053922497,-0.027169466,0.043376505,-0.055589497,0.039673828,-0.051809393,-0.0630022,0.049881347,-0.059998486,0.06546958,-0.056399006,-0.07712129,0.0463998,0.05091157,-0.06739636,0.07091921,0.07116521,-0.037521202,-0.06719801,0.005002197,-0.04974743,-0.07858334,0.043398242,0.04871673,-0.043641534,-0.044339646,-0.07324918,0.05280748,-0.066266134,-0.04067766,0.0405792,0.063960716,0.07117571,0.055600617,-0.051142465,0.040454153,0.07317524,0.07147199,0.05855023,-0.04244922,-0.04959327,-0.067365594,-0.06367001,-0.06205132,-0.05187218
RHNO1,0.21118154,0.16762033,0.21921997,-0.20243241,0.060134366,-0.19716272,0.124042615,-0.20820932,-0.18336579,-0.21473703,-0.20119268,-0.20875534,-0.15782885,-0.084238425,0.1900998,-0.18822141,0.18675824,0.1732237,0.18644635,0.15764666,-0.13495606,0.17829376,-0.13434127,0.120931126,-0.17021558,-0.20923837,0.17497465,-0.18463406,0.21493644,-0.19338802,-0.2480385,0.17448379,0.15832551,-0.17409937,0.19065222,0.20174257,-0.14301302,-0.23106337,0.0018012412,-0.1086256,-0.21652433,0.16869226,0.13915148,-0.16005605,-0.17377011,-0.21058398,0.18575442,-0.19526915,-0.1945517,0.13642697,0.19531696,0.19963358,0.20782083,-0.16715175,0.17396271,0.18583623,0.20481817,0.1840664,-0.14803652,-0.12247389,-0.19185562,-0.19321215,-0.18131109,-0.16364737
CSRP2,0.07013024,0.062034428,0.08749424,-0.05382142,0.018884845,-0.038032897,0.033620954,-0.056503184,-0.06181761,-0.050231643,-0.058288906,-0.058118075,-0.04387848,-0.031264722,0.03744731,-0.053317152,0.057166453,0.049309272,0.056372665,0.04778631,-0.02122768,0.039134473,-0.055364825,0.037596,-0.0472861,-0.060704827,0.047893506,-0.060648583,0.06303676,-0.052936446,-0.07138394,0.038187843,0.044930298,-0.074158385,0.068891905,0.07049546,-0.0434698,-0.06230767,0.012163464,-0.051455453,-0.084025346,0.044699986,0.04024101,-0.041938737,-0.04602978,-0.06927044,0.05422827,-0.061928988,-0.031399935,0.04486929,0.060428616,0.07314603,0.047901142,-0.05183871,0.042596538,0.069553554,0.066367075,0.05324561,-0.04347925,-0.046616245,-0.06713684,-0.06589295,-0.057800286,-0.05255048
PAPOLA,-0.027821805,-0.032454222,-0.0365134,0.04118252,-0.020441275,0.028116446,-0.022155613,0.032637235,0.02550605,0.037077896,0.023601256,0.033175454,0.028015578,0.0039575286,-0.04725559,0.036020264,-0.037268307,-0.02566446,-0.021290407,-0.01149413,0.022976967,-0.042448815,0.01182466,-0.019375578,0.029665243,0.044011783,-0.02283152,0.025642332,-0.032674246,0.041202344,0.03174685,-0.042177666,-0.023146909,0.006290814,-0.04111275,-0.03649233,0.013546277,0.04919523,0.00038438663,0.005387962,0.02172516,-0.028438054,-0.031859126,0.034479626,0.046005033,0.036961958,-0.030223504,0.028614685,0.03967665,-0.026177675,-0.017139249,-0.03569082,-0.03369394,0.014570087,-0.03282334,-0.027131371,-0.03728953,-0.02401772,0.020630453,0.013904139,0.011161208,0.031074544,0.029451557,0.026206223
PLTP,0.12189945,0.10045721,0.13528256,-0.10465945,0.02476646,-0.09566375,0.06653458,-0.12666383,-0.101511076,-0.108368255,-0.11542344,-0.13126922,-0.09141078,-0.060339764,0.10732619,-0.1160358,0.11658323,0.10306166,0.11173681,0.08884116,-0.05792412,0.09106973,-0.075415954,0.077545784,-0.093815416,-0.11638856,0.10581161,-0.1108294,0.12798017,-0.116259515,-0.14181244,0.085715994,0.08182815,-0.09253782,0.11352664,0.12397204,-0.08016197,-0.1366484,0.007550534,-0.070973635,-0.13668008,0.088468306,0.08107922,-0.08050273,-0.100988254,-0.1161242,0.09469206,-0.11210643,-0.10133899,0.06786847,0.101663984,0.12118472,0.119298965,-0.09002356,0.10095067,0.12555805,0.12290005,0.106975734,-0.09040327,-0.08115097,-0.10305383,-0.10711353,-0.10030369,-0.084669665
CALML4,0.09953408,0.06983705,0.09387307,-0.0802259,0.032559127,-0.052523628,0.027406678,-0.080627516,-0.09053719,-0.08057072,-0.08959001,-0.084886655,-0.06823613,-0.043230526,0.06416495,-0.09582372,0.082780644,0.07862564,0.085186854,0.080962904,-0.050914913,0.071454346,-0.06966579,0.044461112,-0.0921869,-0.09807719,0.05886251,-0.06521394,0.09281648,-0.0745748,-0.11280707,0.07499693,0.07180594,-0.09045116,0.08929881,0.077876404,-0.03221608,-0.08483738,-0.00045868382,-0.059197124,-0.085349195,0.06955163,0.055663325,-0.07992138,-0.056732606,-0.087839425,0.07866285,-0.09232204,-0.085443564,0.048062213,0.08553457,0.08313581,0.07079193,-0.09110663,0.06796658,0.088059336,0.09845207,0.07056237,-0.05660804,-0.05645456,-0.091425434,-0.08397056,-0.083262384,-0.07682748
PUS7L,-0.004355877,-0.012502542,-0.0041859783,0.013690571,-0.014696106,0.010863349,0.0027327612,0.003096681,0.0070086867,0.015892584,0.0030396804,0.015178256,0.014457424,0.00055673346,-0.018381258,0.0051324386,-0.0060625486,-0.015567027,-0.010585189,-0.009709151,0.018822338,-0.01778049,-0.0016885549,0.0004820451,0.011249755,0.024223618,0.001198627,0.0023271367,-0.0014021248,0.017021345,0.010036541,-0.023701344,-0.012246896,0.0017160615,-0.016012043,4.9542636e-05,0.0046608783,0.024951681,0.0059562586,-0.011268426,-0.009260435,-0.008209127,-0.006345384,0.023631433,0.018251345,0.009798814,-0.021727365,0.016292185,0.019597486,-0.014266528,-0.0044655055,-0.011298001,-0.016816553,0.0004765466,-0.005199835,0.004933376,-0.012582895,-0.00527962,0.005552344,-0.013274871,0.00011156872,0.008286392,0.014841272,0.0085036345
METTL18,-0.012073476,-0.031374753,-0.026769735,0.020039285,-0.012758151,0.037361946,-0.021719344,0.031391557,0.021032885,0.037798423,0.009758748,0.03639809,0.020657543,0.0004898682,-0.041712552,0.021485342,-0.028505271,-0.027221123,-0.02184125,-0.009070808,0.017373007,-0.016186431,0.0014371052,-0.021760374,0.025535285,0.03915795,-0.02587101,0.03149919,-0.02669803,0.0344682,0.034976874,-0.025298126,-0.019091427,0.011258269,-0.026364854,-0.03448798,0.017577056,0.055433262,-0.0028832145,0.00037459284,0.01825742,-0.022587586,-0.023729187,0.027383622,0.03714191,0.02141237,-0.032558654,0.019295057,0.02545077,-0.025383353,-0.013040826,-0.02948127,-0.035947707,0.012421966,-0.026149604,-0.017748546,-0.012856132,-0.022655,0.019536484,0.016030654,0.006303929,0.023134017,0.024075627,0.01964264
TCEA1,0.06197217,0.03841029,0.061800104,-0.032729458,0.019626215,-0.018368736,0.015286028,-0.039864276,-0.05271651,-0.032454528,-0.04313555,-0.04281425,-0.03508836,-0.032823704,0.022601835,-0.045011256,0.03902537,0.042550456,0.05498229,0.053576313,-0.020099446,0.031638816,-0.04616989,0.01944507,-0.046099227,-0.045286447,0.026988406,-0.03212671,0.03690731,-0.04438511,-0.06130086,0.03587042,0.040152166,-0.060607627,0.051759727,0.04483977,-0.025288336,-0.041765347,0.011089724,-0.040767714,-0.0586221,0.025883995,0.024628937,-0.04077451,-0.030713562,-0.048637412,0.047964193,-0.048884094,-0.022751069,0.025982693,0.049863596,0.04985936,0.03507648,-0.04863217,0.026117042,0.049411066,0.06003073,0.0399526,-0.0260433,-0.036053576,-0.057112657,-0.044732958,-0.046609923,-0.037985556
PTTG1,0.09217277,0.06730187,0.10369195,-0.07065931,0.019411013,-0.06436452,0.05731765,-0.0810678,-0.07847425,-0.0820357,-0.079137616,-0.09039931,-0.066134274,-0.045969315,0.06261572,-0.085220724,0.086645246,0.06924673,0.07723169,0.057592027,-0.033094972,0.06484613,-0.056097798,0.044405624,-0.06289938,-0.071067974,0.06516038,-0.085334376,0.07818662,-0.08359845,-0.10469704,0.059031706,0.06303798,-0.075047806,0.0741164,0.099061385,-0.07182605,-0.099389344,0.0094511695,-0.056685008,-0.10164301,0.05258847,0.052896142,-0.050418068,-0.07142483,-0.095424555,0.07369269,-0.07168877,-0.049757488,0.053924993,0.0709757,0.09268536,0.087392405,-0.05287389,0.060969062,0.08620761,0.08619487,0.07726737,-0.05714435,-0.0592668,-0.08645116,-0.073943466,-0.07178194,-0.057505473
NFYB,0.021137431,0.01437816,0.01431638,-0.018128622,-0.0009153411,-0.0026299134,0.0034161285,-0.017841225,-0.015610151,-0.0046988316,-0.022878915,-0.010915846,-0.012502184,-0.011031432,-0.0019645486,-0.011738251,0.010257661,0.011221126,0.018645823,0.012570709,0.005580105,0.0015570298,-0.021883368,0.0073439404,-0.014931856,-0.012232289,0.017605415,-0.018587071,0.023382239,-0.0027875416,-0.024655908,0.0016930327,0.016132414,-0.023980277,0.011735302,0.013886467,-0.0005897023,-0.007196404,-0.00035250932,-0.028567728,-0.028097272,0.012596882,0.0073994994,-0.000279441,0.0023732148,-0.016199373,0.0010669455,-0.020219505,-0.0052402215,0.0078072622,0.01970157,0.02063734,0.0047330707,-0.017481435,0.011012748,0.023853835,0.013842436,0.012477895,-0.01695402,-0.018003479,-0.02450537,-0.019276595,-0.011045791,-0.010974541
TMEM150C,0.14117353,0.121113956,0.16866367,-0.15310545,0.018674932,-0.13481158,0.09153257,-0.15401457,-0.117966436,-0.1360184,-0.14658907,-0.16269484,-0.10247426,-0.06485799,0.14402673,-0.1362488,0.14469817,0.1266537,0.13060696,0.10861487,-0.070315346,0.11002047,-0.09277561,0.10635326,-0.109428525,-0.14660366,0.1385016,-0.14441949,0.16737665,-0.13212326,-0.16803163,0.099965826,0.09217402,-0.11541258,0.1439708,0.15306117,-0.102241635,-0.1683492,0.013291355,-0.08634041,-0.17456172,0.13885519,0.08295252,-0.094674066,-0.12303229,-0.13905126,0.112603374,-0.14671564,-0.13859716,0.097365856,0.12828468,0.15466575,0.14481975,-0.12253645,0.13276513,0.15869065,0.14655474,0.13950525,-0.11214344,-0.10137451,-0.13299754,-0.14131342,-0.11354443,-0.10072011
SRSF3,-0.10362608,-0.09619062,-0.11870633,0.0950076,-0.049595095,0.062300637,-0.04196605,0.09068099,0.08076091,0.08521558,0.076996855,0.09925834,0.085090645,0.045000352,-0.109363385,0.102008335,-0.09986484,-0.07825398,-0.08441208,-0.072123036,0.057570938,-0.10370138,0.05410689,-0.05367396,0.099600434,0.1216286,-0.06273864,0.07129753,-0.0864633,0.109523356,0.10263451,-0.09074204,-0.080625534,0.06969651,-0.123725995,-0.091725186,0.037775677,0.12553659,-0.00812966,0.04417385,0.07711716,-0.07962746,-0.07563293,0.09788738,0.09961237,0.09466015,-0.08908774,0.09642805,0.09906369,-0.06784017,-0.073828205,-0.10092236,-0.09230867,0.0752716,-0.085489646,-0.10290775,-0.12134288,-0.0807997,0.063061535,0.0516254,0.0711992,0.09140051,0.09146032,0.082650706
SEC22C,-0.14525305,-0.13777578,-0.1762653,0.14259763,-0.06212222,0.10829648,-0.06711122,0.12796654,0.1302164,0.1404008,0.12948805,0.14227775,0.13434531,0.06820536,-0.14412464,0.13590331,-0.14903636,-0.13878505,-0.118612826,-0.110880725,0.08522505,-0.13799365,0.08695947,-0.08734716,0.119432226,0.16983768,-0.11374946,0.10352759,-0.13871035,0.1603992,0.16744643,-0.123944625,-0.116476625,0.11691394,-0.16343765,-0.15127158,0.07355584,0.19472167,-0.030528765,0.069810085,0.14306147,-0.10904821,-0.11697109,0.12001596,0.13778368,0.1532587,-0.1377961,0.1494909,0.12495927,-0.10427879,-0.114896014,-0.16561732,-0.13575053,0.09651119,-0.117593184,-0.15283224,-0.17043555,-0.1283952,0.10036172,0.089500576,0.11437194,0.15399814,0.14888048,0.115541115
PLG,0.102906786,0.07986818,0.1070077,-0.0905457,0.020238087,-0.06864981,0.037159234,-0.095430106,-0.0834711,-0.08533009,-0.1014088,-0.092603564,-0.062301382,-0.03857074,0.069991305,-0.097564176,0.092983946,0.072476216,0.08412342,0.07488398,-0.041623175,0.07806347,-0.07599632,0.05694908,-0.09368597,-0.10504319,0.07203475,-0.08453214,0.106567726,-0.07764606,-0.10911236,0.065245405,0.063787505,-0.09092451,0.09739658,0.08400808,-0.043781828,-0.095490664,0.00011237338,-0.063782476,-0.103612036,0.07984282,0.058138408,-0.069152445,-0.06556964,-0.09540498,0.07637944,-0.090535715,-0.09252479,0.057621688,0.0829007,0.09114568,0.08045183,-0.08944243,0.07952103,0.10598099,0.102881454,0.08767292,-0.0677234,-0.068488866,-0.0972244,-0.09140029,-0.08244328,-0.08047922
IL32,0.010455828,-0.018743943,-0.0065431558,0.011777088,-0.006202355,0.021589898,-0.008642517,0.01200255,0.0035651922,0.020277688,-0.0052116066,0.015092347,0.01513026,-0.0082618855,-0.019231454,-0.0029346794,-0.006303558,0.00155924,-0.0001597926,0.008728186,0.017723514,-0.01103586,-0.009684816,-0.0048205703,-0.007076811,0.018647544,-0.011902964,0.012264285,-0.0043220334,0.01680481,0.0054078326,-0.015544705,-0.003577225,-0.008399297,-0.0043235566,-0.0096225925,0.012431357,0.028531738,-0.0027256347,-0.009374954,0.000440415,-0.0028778696,-0.01159177,0.0090090465,0.022226185,0.008221375,-0.016653035,0.008171927,0.020819299,-0.010049306,0.009264335,-0.007801071,-0.022197857,-0.012284424,-0.013717481,0.0031989254,-0.0058715646,-0.006731621,0.014608223,0.0010193586,-0.013613898,0.0074990653,0.005192032,0.0053823106
ZNF93,0.21248595,0.18228295,0.2300681,-0.20719054,0.057693556,-0.2113733,0.1250814,-0.22204866,-0.18700226,-0.22687551,-0.20469573,-0.22356227,-0.15381871,-0.07413286,0.19094133,-0.19511954,0.19641346,0.17327823,0.19113265,0.16596638,-0.13727559,0.17591691,-0.13390303,0.12592775,-0.17539841,-0.22418578,0.18831,-0.20200655,0.22574812,-0.1940618,-0.24986428,0.17884262,0.15802434,-0.18717442,0.1993937,0.20445888,-0.15940684,-0.2420373,-0.0017010309,-0.10878517,-0.22913755,0.18343376,0.14049566,-0.16207194,-0.17895864,-0.21562189,0.20035732,-0.20083188,-0.2018561,0.14027853,0.19516839,0.1969005,0.2146837,-0.17418382,0.18324469,0.1938382,0.20303439,0.19237144,-0.15453483,-0.12952039,-0.1958925,-0.20423843,-0.1896294,-0.1600789
SS18,0.015373572,0.0043918975,0.013703685,-0.0026169643,-0.0036367327,0.0075245537,0.0027777776,-0.00091088936,-0.0109805465,0.0070626363,-0.010504991,-0.0007747933,-0.0015983786,-0.01090947,-0.010627814,-0.006718006,0.002102103,0.0037578933,0.010333337,0.009634141,0.009415865,-0.0051203594,-0.020499907,0.0012664758,-0.009443989,0.0010779649,-0.0012165029,-0.00952141,0.008279005,0.00261214,-0.008049432,-0.0036194585,0.0030282103,-0.02752236,0.009717624,0.011392407,-0.002233468,0.009331435,0.00035556778,-0.01753135,-0.020331126,0.0016521858,-0.0012252703,-0.0017500701,0.006599728,-0.008954573,0.0016599968,-0.009185977,0.007746409,0.0010099411,0.019706324,0.0051737726,-0.006330289,-0.01453539,-0.0021858406,0.016369365,0.010268359,0.008157771,-0.005684644,-0.00855539,-0.018567737,-0.0074121784,-0.008442661,-0.0108111985
SSRP1,-0.025458116,-0.040240005,-0.040866204,0.03775338,-0.017197847,0.03325163,-0.027681217,0.038603056,0.026516065,0.042286314,0.019213848,0.039990373,0.035851408,0.006533783,-0.046794634,0.033579215,-0.040180095,-0.03779646,-0.028767675,-0.019671887,0.02046765,-0.031904824,0.010264233,-0.01958219,0.029415075,0.050178047,-0.031147748,0.031576376,-0.038241953,0.04903657,0.046386667,-0.043957595,-0.028357016,0.017709112,-0.040401544,-0.04250284,0.022937845,0.061400905,-0.003311064,0.00305859,0.02196287,-0.03605276,-0.029343478,0.03637352,0.043274634,0.035963424,-0.039177254,0.03427471,0.038799636,-0.034738712,-0.02516815,-0.041284114,-0.042490106,0.015218079,-0.03515855,-0.026886072,-0.030697389,-0.030280162,0.026007678,0.016382515,0.016739149,0.034203112,0.038699992,0.027407482
MXD1,-0.08239441,-0.10240796,-0.12650697,0.09529179,-0.028701097,0.09552503,-0.06104488,0.097857684,0.07143624,0.107061595,0.0732679,0.110358305,0.07132819,0.023606855,-0.104797326,0.066315494,-0.10431488,-0.07963603,-0.07262753,-0.05096037,0.045162816,-0.074303165,0.024955615,-0.0803229,0.05179579,0.10382734,-0.097120196,0.08606739,-0.094438925,0.11449167,0.11313313,-0.06750104,-0.060981657,0.057530068,-0.08930763,-0.114625365,0.081159115,0.1492525,-0.03008508,0.037690856,0.113022834,-0.07815333,-0.08634715,0.06576668,0.10832116,0.09035046,-0.085086145,0.091735974,0.08646358,-0.074024454,-0.06575829,-0.11262007,-0.10404982,0.039985947,-0.089012474,-0.09863198,-0.09543453,-0.09613257,0.06855294,0.07630794,0.058023922,0.10555082,0.08366534,0.052828155
IFITM3,0.1705278,0.14069277,0.18175684,-0.13776788,0.056810454,-0.12329776,0.08517598,-0.14868385,-0.15097253,-0.15321404,-0.14650622,-0.15794274,-0.12924935,-0.069502644,0.12559187,-0.14061348,0.1416031,0.13963597,0.14654246,0.11946658,-0.0930195,0.1123407,-0.105566435,0.08299946,-0.12516414,-0.15777217,0.12008664,-0.14347826,0.14431895,-0.14541918,-0.18360679,0.13138331,0.11762877,-0.135369,0.14558583,0.15911317,-0.10585533,-0.17711699,0.011902165,-0.09108858,-0.17493673,0.10490067,0.105604,-0.12360203,-0.13295215,-0.17497054,0.14066303,-0.14226674,-0.1192809,0.10779554,0.13343507,0.1646248,0.14415996,-0.116413474,0.12164518,0.14157416,0.16630995,0.13398145,-0.112393975,-0.09707806,-0.14566953,-0.15469016,-0.14271522,-0.123903766
EMC2,0.14730023,0.12354034,0.1640824,-0.125207,0.047923625,-0.094229184,0.0719191,-0.1341476,-0.13744612,-0.12509874,-0.12368675,-0.1405657,-0.10902928,-0.05973401,0.10243777,-0.1286557,0.12646934,0.12782636,0.12638184,0.103662394,-0.0693557,0.09662041,-0.09538144,0.07090289,-0.111122295,-0.13893905,0.107043415,-0.12302999,0.12989764,-0.1336508,-0.16836646,0.11157024,0.103229284,-0.12647453,0.13319393,0.13824041,-0.086581096,-0.15153734,0.014259424,-0.08733234,-0.15094593,0.09446042,0.09042262,-0.11214544,-0.107477844,-0.15216409,0.122602575,-0.13516854,-0.09561573,0.09349713,0.12508881,0.14593889,0.11948712,-0.10387416,0.10787323,0.12165135,0.13886273,0.11581805,-0.08655283,-0.090651646,-0.12379363,-0.13729604,-0.12650962,-0.10549778
WIPI1,0.16207968,0.14340124,0.18967392,-0.15943377,0.03537532,-0.1427151,0.0856362,-0.17099866,-0.14505482,-0.16541004,-0.15059316,-0.18095958,-0.12264237,-0.05855594,0.15049574,-0.15729026,0.16095282,0.14392984,0.14984553,0.12180451,-0.08997333,0.12021153,-0.1089973,0.110634044,-0.12694308,-0.1759799,0.14639187,-0.15859519,0.18118106,-0.15669943,-0.19418074,0.13441241,0.11555116,-0.14086129,0.16676039,0.1711079,-0.11443326,-0.1935024,0.017449956,-0.09226156,-0.18646343,0.14298247,0.10962062,-0.12267178,-0.13867451,-0.16178866,0.14413226,-0.16926895,-0.14888394,0.11025804,0.15114757,0.17031844,0.16259786,-0.13084093,0.13791409,0.16380307,0.1620785,0.14751844,-0.116718605,-0.109472685,-0.14438945,-0.16299802,-0.14742792,-0.11746481
CLDN4,0.037193943,0.015458968,0.032083105,-0.019886326,0.004245177,0.0033068322,0.0010311231,-0.014573708,-0.021730334,-0.0066766962,-0.030350659,-0.014812099,-0.01647569,-0.025866898,0.0051487833,-0.027938098,0.020392362,0.021656888,0.028446328,0.029588426,0.0035949498,0.021690562,-0.034158316,0.010231994,-0.031388134,-0.018271923,0.011174811,-0.01616738,0.020717748,-0.016940147,-0.02900205,0.0095571205,0.01907159,-0.03571345,0.033089336,0.018741053,-0.00014149025,-0.009580344,0.004896395,-0.030883722,-0.030172642,0.013400975,0.0075955912,-0.014553387,-0.005774997,-0.023948029,0.013132773,-0.024862275,-0.009341686,0.011806905,0.030190444,0.022368036,0.009245114,-0.031036194,0.012074457,0.03838648,0.035892878,0.02068895,-0.012793429,-0.020497609,-0.037293144,-0.021743368,-0.022615181,-0.021800566
CDH2,0.08867462,0.0586607,0.08518472,-0.066340566,0.018456452,-0.03473323,0.03736785,-0.06710556,-0.075399846,-0.052691348,-0.08182597,-0.06864992,-0.06278804,-0.048125237,0.049156137,-0.072477944,0.06984131,0.071151935,0.07351965,0.06938048,-0.028387226,0.06780565,-0.06700127,0.02924433,-0.07153249,-0.06679721,0.05210476,-0.055270314,0.06578636,-0.07705891,-0.09313181,0.053971674,0.058072876,-0.07016154,0.07283242,0.0648284,-0.032775044,-0.06971125,0.009645496,-0.05764258,-0.08308326,0.04018588,0.03420435,-0.05685835,-0.05260582,-0.08298273,0.0653453,-0.07073554,-0.049202964,0.0448775,0.06470232,0.07688178,0.058430355,-0.0649465,0.050552156,0.07743862,0.08629948,0.059190236,-0.05150161,-0.048158158,-0.082557075,-0.06679202,-0.06479373,-0.06365818
HCFC1,0.04809489,0.01975979,0.03658594,-0.027648378,0.008711159,-0.0072111282,-0.0004984215,-0.024034504,-0.026417673,-0.017359499,-0.038136646,-0.019347701,-0.02395654,-0.026863715,0.0106928125,-0.028980155,0.025720552,0.02033533,0.036848098,0.035871826,-0.015129149,0.034864865,-0.03455949,0.014797609,-0.025700513,-0.025528513,0.02109779,-0.019355737,0.023702815,-0.022766177,-0.028406592,0.014403861,0.027210545,-0.03224381,0.037345096,0.019776793,-0.00864606,-0.014997907,0.00857858,-0.029907726,-0.036589306,0.011679891,0.017605804,-0.018278839,-0.0128586255,-0.031377237,0.017751008,-0.033089846,-0.020548774,0.011766434,0.029952358,0.026974216,0.022714049,-0.03304643,0.014712226,0.043187916,0.046704866,0.02002616,-0.018052168,-0.024726246,-0.04115425,-0.028517598,-0.023607412,-0.020554025
RRM2,-0.04875527,-0.050667435,-0.059251282,0.049669556,-0.040860385,0.035373002,-0.0138267875,0.040267203,0.057022803,0.06072835,0.046522878,0.058522023,0.05665952,0.033980913,-0.05937802,0.060996234,-0.05168068,-0.063688934,-0.05148509,-0.0555012,0.04355331,-0.064606875,0.031903476,-0.020880833,0.060601037,0.07904672,-0.027364198,0.030695658,-0.041727617,0.06938708,0.071771175,-0.07117306,-0.050910752,0.041614152,-0.07446093,-0.04899996,0.019138,0.08224976,-0.0069301166,0.013698146,0.032678355,-0.042317685,-0.037084244,0.066538274,0.057978943,0.059055187,-0.075348794,0.05618732,0.056554303,-0.04182695,-0.048413545,-0.061642326,-0.05547787,0.04382331,-0.04376763,-0.04990795,-0.06278415,-0.045025073,0.035047244,0.016785309,0.04669881,0.048677772,0.0660302,0.05223149
LAMC1,0.015719622,-0.0039991736,0.006776858,-0.00014757738,-0.0013517439,0.014528714,-0.0054012015,0.007969204,-0.0062925853,0.0134447515,-0.005579278,0.0044536516,0.003617093,-0.013952805,-0.011786178,-0.002450753,-0.0041354634,0.007827073,0.012363333,0.016362589,0.0059532523,-0.005815506,-0.01798267,-0.0066978224,-0.0061652996,0.0057950765,-0.0035933228,0.0044532456,-0.0016357005,0.00085075386,-0.003428651,-0.0018722042,0.008990083,-0.022466695,0.00462799,-0.0020614974,0.0048290677,0.014166161,0.0016463175,-0.014996272,-0.009506229,0.0016263127,-0.0068378,-0.0024851025,0.011567617,-0.0039331894,0.0020519197,-0.008153334,0.0070062336,-0.0034684837,0.016825112,0.0053734183,-0.011873242,-0.014819663,-0.008472766,0.009626098,0.011442785,-0.0018046014,0.0012380928,0.0003087595,-0.016495079,-0.0024292162,-0.0061427,-0.0015204176
DCAF13,-0.03480334,-0.030471332,-0.038185358,0.031579856,-0.023865655,0.01834745,-0.009928443,0.027542818,0.028180987,0.029106904,0.024306051,0.035689093,0.025119,0.009174891,-0.043197002,0.033615552,-0.026374457,-0.033721525,-0.03662484,-0.029300934,0.02443388,-0.041845553,0.0064143166,-0.012532212,0.04346467,0.0522887,-0.016493611,0.015671592,-0.024574965,0.044824086,0.0369488,-0.041732665,-0.027426196,0.025661612,-0.048310004,-0.020246271,0.006470222,0.046541087,0.0044674426,0.0026687756,0.012685794,-0.02891941,-0.026058555,0.046083737,0.036507472,0.032850318,-0.037312202,0.033645473,0.042814236,-0.029813185,-0.028834186,-0.028115675,-0.030661931,0.023974821,-0.031778764,-0.023901965,-0.034650546,-0.024275469,0.016503636,0.0065243766,0.020423636,0.025221733,0.034501433,0.03078847
AFF4,-0.052348454,-0.06802134,-0.07394692,0.060399275,-0.025230154,0.062464885,-0.03364761,0.06128064,0.04859957,0.066873685,0.03929273,0.06643272,0.050120644,0.015777858,-0.070165396,0.045931756,-0.067137286,-0.054674882,-0.050292693,-0.03594801,0.03522812,-0.050941892,0.012995161,-0.042326786,0.039242987,0.06982038,-0.052766148,0.050327983,-0.05837503,0.07625614,0.07294552,-0.05563743,-0.042971145,0.038107254,-0.06438208,-0.07364906,0.047659677,0.09849182,-0.018994696,0.018248402,0.05895829,-0.051129952,-0.055058982,0.05063699,0.072771065,0.06363077,-0.0637186,0.05806285,0.05966243,-0.048846938,-0.039805725,-0.06913392,-0.068077676,0.02649226,-0.05618167,-0.054322023,-0.068391174,-0.05814033,0.038833525,0.043331087,0.0342658,0.060950466,0.051942244,0.035784926
DDAH1,0.12035672,0.095413655,0.12704962,-0.10554342,0.04782015,-0.07558704,0.035876866,-0.10719736,-0.11003474,-0.10675513,-0.10273063,-0.111525714,-0.09393018,-0.05110018,0.08089962,-0.10916426,0.09357916,0.09979902,0.10295451,0.08865878,-0.06635335,0.07717833,-0.07694849,0.058014393,-0.091615155,-0.116447434,0.08184829,-0.095526055,0.10383092,-0.09760882,-0.13146046,0.09533921,0.088443846,-0.10240583,0.11528259,0.10783422,-0.059315693,-0.12157047,0.007272411,-0.071705036,-0.11786273,0.078792825,0.07832933,-0.09465265,-0.08015235,-0.11787682,0.09390398,-0.11705558,-0.08759407,0.07111028,0.10620277,0.1226006,0.09277588,-0.091793835,0.07576159,0.10971366,0.116460055,0.08914065,-0.072523676,-0.07077123,-0.10334026,-0.1119353,-0.10363558,-0.08071281
HOOK2,-5.3901225e-05,-0.011702698,-0.00369256,0.0064990493,-0.007050395,0.017584339,-0.0042026863,0.0010634772,0.001867801,0.006664701,0.0019080937,0.009395719,0.0065292325,-0.0026544407,-0.019628983,0.0013270266,-0.006958846,-0.0007452136,-0.004856743,-0.0013454631,0.01851443,-0.017416876,-0.004133083,-0.0035082623,-0.0013875403,0.01144743,-0.002495763,0.0035310052,-0.00029554963,0.0116273835,0.00071118306,-0.012897842,-0.0017355382,-0.008660674,-0.011044505,-0.0048772283,0.00839268,0.022954576,0.0022701807,-0.008641213,-0.0044788234,-0.004578567,-0.005583793,0.011193696,0.018836023,0.0065434854,-0.015148319,0.0050685965,0.015197318,-0.0065844394,0.0037683174,-0.010152619,-0.018679813,-0.001656808,-0.007603682,-0.0018023737,-0.009518801,-0.0071467645,0.0059989877,-0.0038740188,-0.0013683438,0.0039551137,0.0015355228,0.0069049466
HACL1,-0.056068327,-0.06157893,-0.060113914,0.05948412,-0.029205889,0.038853247,-0.03194698,0.048967306,0.052650318,0.06052476,0.041020595,0.06184011,0.053906314,0.01988697,-0.0543115,0.052329652,-0.05501745,-0.055387784,-0.05946745,-0.044759274,0.03623811,-0.061056834,0.024734914,-0.027986713,0.05354898,0.07660259,-0.044124685,0.042173866,-0.051097468,0.07106812,0.075389326,-0.062408097,-0.05165133,0.03949727,-0.0657138,-0.05307876,0.032189507,0.09043571,-0.0005404465,0.020926319,0.04045282,-0.041862868,-0.04635828,0.053310413,0.059387513,0.06158898,-0.060163766,0.062467657,0.057952084,-0.05058243,-0.04263568,-0.062127452,-0.0601873,0.030605003,-0.05282241,-0.045706604,-0.055937417,-0.04436282,0.045894068,0.027511746,0.042531706,0.056953043,0.059022203,0.05043928
ISY1,0.019987892,-0.00025843084,0.012058701,-0.009711601,-0.00934127,0.007492466,0.00086571276,-0.0036539491,0.00064089894,0.0075499676,-0.00919234,0.0044253655,0.0019003991,-0.007778829,-0.009393595,-0.0071851127,0.008214105,-0.0063305134,0.0035882667,0.00057498924,0.012681313,0.0020156428,-0.015146941,0.008883771,0.0033210479,0.007858247,0.011157051,-0.011858735,0.010220002,0.008087866,0.00017067324,-0.01002365,-0.003036458,-0.0071463864,0.0055288025,0.007915724,-0.0003667511,0.0122855455,0.0030435175,-0.013707638,-0.020951271,0.004324793,0.0011983514,0.010949206,0.008151904,-0.0055060033,-0.015412301,-0.0038867854,0.0065646823,0.0007818043,0.008632749,0.0063987672,-0.0015421472,-0.0045439303,0.0019146813,0.018346522,0.015495907,0.0072184354,-0.00070435554,-0.014242411,-0.018654432,-0.0060267057,0.004150063,0.004381312
FOXA1,-0.08220632,-0.07638491,-0.13165773,0.062897846,-0.022525933,0.09849991,-0.05549682,0.10284111,0.046286136,0.07086196,0.034467988,0.09950445,0.042992875,0.021648396,-0.11549456,0.04089433,-0.10313745,-0.065340884,-0.0626266,-0.03869378,0.043584466,-0.04736301,0.015244186,-0.07258729,0.05215611,0.067480676,-0.0945677,0.091946185,-0.07926124,0.099285215,0.0955746,-0.026241254,-0.04040052,0.042863064,-0.05621276,-0.09547602,0.07744302,0.12557565,-0.028482612,0.019409955,0.119202465,-0.04861702,-0.072803244,0.05894548,0.1256534,0.06799931,-0.06203192,0.06973037,0.066525124,-0.06646619,-0.033002637,-0.086543754,-0.08408032,0.048553534,-0.05445582,-0.09527898,-0.08177553,-0.086020865,0.057060618,0.0666779,0.039609894,0.077443846,0.04214421,0.020276684
GSN,-0.051386572,-0.06503935,-0.06260071,0.06138796,-0.0326513,0.051469587,-0.02347625,0.055705268,0.053749055,0.06923386,0.04589328,0.064231,0.05731567,0.020112744,-0.064243555,0.056817167,-0.060285565,-0.043908965,-0.050854564,-0.03975863,0.043952197,-0.06580803,0.033250973,-0.035302438,0.05707513,0.08030791,-0.042855747,0.050232235,-0.05553539,0.0628244,0.07112046,-0.062550776,-0.048597198,0.036565207,-0.06978492,-0.055563595,0.028112974,0.090030715,-0.0041772164,0.0241502,0.04828864,-0.04148106,-0.04895724,0.060235884,0.067426324,0.061249785,-0.0627246,0.061955716,0.06330371,-0.047324095,-0.036498785,-0.06321239,-0.06789388,0.040111825,-0.052999478,-0.054442953,-0.071732886,-0.050315797,0.044651624,0.03435991,0.04107634,0.058613278,0.0548117,0.0513399
ARG2,0.049007338,0.030660048,0.043947887,-0.03405585,0.011451431,-0.018504169,0.008886654,-0.0322487,-0.037553094,-0.023257554,-0.04456806,-0.030651838,-0.027020535,-0.02379576,0.020178922,-0.037178483,0.03162904,0.027677614,0.043684814,0.033346713,-0.019652352,0.027348459,-0.039925635,0.022245929,-0.034947366,-0.033360228,0.024484113,-0.03093949,0.04055167,-0.023275409,-0.04317151,0.022726718,0.03048895,-0.048429564,0.042732514,0.038093355,-0.012028601,-0.027792461,0.0028841272,-0.037750103,-0.049939748,0.025403988,0.024042495,-0.026803657,-0.022406545,-0.040210776,0.025970757,-0.044376105,-0.026874974,0.016635016,0.04185553,0.042290322,0.024392743,-0.0415766,0.019329328,0.049423907,0.048979975,0.023451349,-0.027860675,-0.031117752,-0.045297958,-0.038116977,-0.027981633,-0.0325493
ICA1,0.116733834,0.08979198,0.124685034,-0.09754422,0.035212904,-0.06708748,0.041459892,-0.10668178,-0.092122704,-0.09060272,-0.09847291,-0.10704327,-0.0836658,-0.050220855,0.08254667,-0.095799886,0.09262954,0.09408782,0.09530552,0.08523924,-0.05185169,0.0747897,-0.07073891,0.06039245,-0.08009425,-0.10037248,0.084038734,-0.08884482,0.10088022,-0.09713782,-0.11784047,0.07680963,0.079312444,-0.08920282,0.10722359,0.10193257,-0.058348004,-0.10959479,0.009876724,-0.06936315,-0.117024146,0.072451144,0.072281055,-0.08264722,-0.08141589,-0.104109496,0.084630646,-0.105714336,-0.079675704,0.064414084,0.09352967,0.113028035,0.08995983,-0.08637422,0.070959166,0.108435184,0.11045739,0.0874999,-0.062456965,-0.07062979,-0.09763755,-0.10132565,-0.09270539,-0.072974466
POLR2I,-0.045101896,-0.045729503,-0.054801434,0.047532924,-0.026129927,0.034953624,-0.023678899,0.047703665,0.0333471,0.04138197,0.028988905,0.050442375,0.040149897,0.016123425,-0.06486118,0.05177071,-0.050725043,-0.037058957,-0.038903378,-0.02695478,0.02861268,-0.052388128,0.018943697,-0.024081483,0.049362544,0.0613535,-0.031018883,0.03488637,-0.039526574,0.05712018,0.04585035,-0.046113867,-0.04045232,0.024687674,-0.06152842,-0.043276448,0.015981082,0.06824193,-0.004296247,0.01480823,0.028748792,-0.044217043,-0.036602065,0.04759897,0.055844072,0.044982992,-0.043664053,0.04401646,0.052046508,-0.036154047,-0.028905805,-0.04866992,-0.048045196,0.031253286,-0.043534067,-0.042669166,-0.05656382,-0.036587186,0.026622873,0.021298245,0.02504097,0.039872333,0.040243246,0.03390382
PLCD1,0.21327144,0.18582949,0.24903916,-0.21721436,0.044760734,-0.2180179,0.1434724,-0.23048456,-0.19563974,-0.2311539,-0.2077541,-0.24439052,-0.16994308,-0.074496046,0.21750191,-0.20307557,0.20888853,0.19225687,0.20111385,0.15864056,-0.13067238,0.15607923,-0.13578083,0.15322182,-0.15691285,-0.22367172,0.2032611,-0.21379209,0.24390174,-0.20665574,-0.2609817,0.1884082,0.15408254,-0.1715415,0.2117882,0.24889807,-0.16948065,-0.26548338,0.018308599,-0.10851882,-0.2562161,0.20147097,0.14600557,-0.16039774,-0.2035019,-0.21914098,0.19209334,-0.21499799,-0.20943001,0.15098426,0.20653181,0.23212661,0.23657621,-0.16865277,0.18962914,0.21031487,0.21275216,0.20177844,-0.16265142,-0.14335884,-0.18615179,-0.2164733,-0.19217142,-0.15411861
MYCBP,0.1680816,0.14468291,0.18258567,-0.16187267,0.041879103,-0.15115896,0.088447854,-0.16356027,-0.14709961,-0.16851825,-0.15617582,-0.17475542,-0.12383033,-0.06293409,0.1458438,-0.15234433,0.15376838,0.13917223,0.15105309,0.12458265,-0.10467282,0.12690216,-0.115259275,0.10251373,-0.13219082,-0.17445613,0.14367983,-0.1582893,0.17900375,-0.14247699,-0.1942794,0.13329487,0.1198844,-0.14505312,0.15926963,0.16195723,-0.10986313,-0.18892136,0.004517231,-0.09158798,-0.17932846,0.13886726,0.10742999,-0.12995277,-0.13321336,-0.16382067,0.14921492,-0.16420601,-0.15668073,0.109629214,0.15147609,0.1636736,0.16095065,-0.14353785,0.14268534,0.16276865,0.16724735,0.14499918,-0.12465459,-0.105137005,-0.14971901,-0.16468945,-0.14296235,-0.13093916
TFE3,0.07238006,0.047213905,0.062286843,-0.05479182,0.011881888,-0.034462124,0.0058711283,-0.053429842,-0.049719352,-0.043360047,-0.06350521,-0.052470002,-0.03923863,-0.032350577,0.03430157,-0.05792231,0.05089807,0.039705314,0.059194744,0.053524204,-0.031823255,0.052237824,-0.0559699,0.040732823,-0.056587677,-0.06012322,0.04497895,-0.045871273,0.059601195,-0.040605906,-0.059316315,0.029368829,0.04312961,-0.059338436,0.071004085,0.04428302,-0.01750699,-0.048259407,0.0029835291,-0.04263286,-0.064521685,0.043728996,0.03545008,-0.042605605,-0.033097807,-0.050009504,0.040449142,-0.061827898,-0.05506711,0.031084016,0.059156172,0.049690917,0.04683015,-0.06399119,0.041419823,0.07036558,0.07162343,0.044195935,-0.038831897,-0.043424323,-0.065035194,-0.054921977,-0.045459643,-0.04579124
FOXP1,-0.033850323,-0.049908463,-0.04927512,0.05068992,-0.022588339,0.046786748,-0.027287178,0.040324453,0.0431825,0.058590155,0.03870087,0.04970292,0.04324898,0.0064651603,-0.058001023,0.038725525,-0.04659918,-0.042128872,-0.029374622,-0.026252126,0.034305766,-0.041699015,0.013513386,-0.026867531,0.031783912,0.059431337,-0.03713196,0.035513375,-0.046248198,0.054168627,0.05905179,-0.0550227,-0.033844065,0.024943974,-0.043524,-0.051630605,0.027702902,0.07650895,-0.0056822337,0.01060798,0.036747266,-0.040327296,-0.041136704,0.0429533,0.053410076,0.051890574,-0.04740965,0.049355906,0.0443871,-0.03566965,-0.031244121,-0.053679615,-0.047082745,0.016950034,-0.04207296,-0.03475604,-0.043823726,-0.041812137,0.030912925,0.019317225,0.021864548,0.045351468,0.047516458,0.035931412
AAMP,-0.09293079,-0.09465134,-0.10943298,0.091071084,-0.04018659,0.067239255,-0.04336158,0.08395761,0.0789531,0.087658286,0.07136019,0.09779892,0.08475863,0.038396776,-0.101721056,0.084885664,-0.09470841,-0.07569512,-0.081821665,-0.061766274,0.051038034,-0.09337848,0.051926374,-0.048622347,0.08418363,0.11678305,-0.06679371,0.06638245,-0.08226192,0.11038171,0.10447158,-0.08410111,-0.07769705,0.06337228,-0.108318925,-0.09066087,0.0404356,0.12748285,-0.01298736,0.040180303,0.0745696,-0.07168833,-0.073267475,0.081535734,0.09527031,0.09246526,-0.08969095,0.094355576,0.090509504,-0.06897326,-0.06721753,-0.101831585,-0.094431594,0.054263763,-0.082393944,-0.088850096,-0.10940457,-0.07567103,0.06432316,0.049676195,0.063400336,0.08677338,0.09174586,0.07590324
ATP5SL,0.17666823,0.14575848,0.1903468,-0.15879653,0.050683826,-0.14006755,0.08494073,-0.16459171,-0.15120497,-0.1662358,-0.1565806,-0.1759054,-0.12743592,-0.06848484,0.1449416,-0.15255167,0.15477523,0.14697388,0.15247764,0.13030943,-0.10081674,0.12259917,-0.10982585,0.098811716,-0.12812941,-0.17116402,0.1393538,-0.15186776,0.16844617,-0.14993592,-0.19288123,0.13440864,0.123962566,-0.13980235,0.16015017,0.16584681,-0.10950756,-0.1865494,0.010363702,-0.0927051,-0.1802044,0.13223913,0.11208739,-0.13146299,-0.13587028,-0.17265992,0.14891276,-0.16153656,-0.1484938,0.11263466,0.15256658,0.17083727,0.15610878,-0.13427512,0.13823496,0.15578839,0.16871774,0.1421035,-0.115335375,-0.10520344,-0.1505098,-0.16329017,-0.14809959,-0.1276071
MEST,0.0011472767,0.000897903,0.0018488802,-0.0012437925,-0.010354854,-0.0033965595,0.0041433796,-0.007851578,0.0018108264,0.0037352666,0.0012923256,0.0029318184,0.004243292,-0.0012827404,-0.015453832,0.006203968,-0.0054287687,-0.005531229,0.0019156337,-0.0030561956,0.016380325,-0.020564485,-0.00566335,0.007436577,0.008534998,0.011051647,0.008783512,-0.010741677,0.008422628,0.010176158,-0.0026305756,-0.016695421,-0.005553726,-0.013621107,-0.0075752693,0.0069072396,-0.0071234815,0.0072655976,0.008126155,-0.019897185,-0.022761885,0.0013853079,-0.0006896332,0.017776184,0.014410533,-0.0009322446,-0.014532112,0.0009822436,0.008848919,5.362928e-05,0.0063032005,0.0035571456,-0.0054947827,-0.003316313,-0.002896885,0.010941897,-0.0042750514,0.0049451683,-0.00670832,-0.019424308,-0.0030272454,-0.0039845547,0.0073949797,0.007059641
CDK4,-0.074422054,-0.07055767,-0.08969706,0.07328074,-0.04231519,0.04766555,-0.033174947,0.062187415,0.06475641,0.0707427,0.061517112,0.07644734,0.06945615,0.036689267,-0.07582131,0.07776054,-0.07241053,-0.069848254,-0.061102137,-0.06398435,0.047296017,-0.08260836,0.04190831,-0.04082819,0.07080534,0.09148518,-0.045691527,0.049190145,-0.06260508,0.08549552,0.082421795,-0.07890381,-0.058394067,0.052357316,-0.096783444,-0.07087755,0.03832644,0.10123401,-0.0066260695,0.029337995,0.05871213,-0.06374431,-0.052257854,0.074254915,0.07445374,0.07707333,-0.07765661,0.071189255,0.07285207,-0.056618202,-0.060293064,-0.08237508,-0.07355142,0.05382806,-0.061741408,-0.072647184,-0.08561404,-0.063044146,0.04993723,0.03286758,0.056507528,0.07430448,0.07826077,0.06529997
ACAD11,0.05505664,0.031988814,0.06414813,-0.050003562,0.015367627,-0.015741,0.015671995,-0.051972315,-0.037696004,-0.035999887,-0.049180306,-0.047005884,-0.030615358,-0.034393102,0.03591016,-0.054702155,0.04578756,0.038852718,0.04420992,0.043770924,-0.00488019,0.04017891,-0.03998731,0.025293883,-0.03978867,-0.04457982,0.038449638,-0.044308893,0.0440146,-0.045667436,-0.05578988,0.029544737,0.0344872,-0.039210767,0.05712638,0.047385342,-0.022897905,-0.04306507,0.013830576,-0.045625903,-0.061459705,0.041207463,0.019415505,-0.023966696,-0.034460206,-0.048300598,0.03359691,-0.046539694,-0.03694305,0.027602114,0.043385606,0.052725837,0.028338369,-0.042068176,0.037284467,0.06418663,0.050520718,0.04191503,-0.029938687,-0.03864903,-0.049437344,-0.041677717,-0.041552752,-0.027684346
UTP18,-0.0040761176,-0.017976463,-0.008642323,0.018468669,-0.017231785,0.017371394,-0.0062326565,0.016533308,0.0133962035,0.02896842,0.009061314,0.025075182,0.014875038,0.0017101467,-0.03238236,0.013569454,-0.012899406,-0.018523205,-0.012503438,-0.013122266,0.021609876,-0.023005154,-0.0061725527,-0.013672881,0.012984786,0.029282182,-0.010443386,0.008464232,-0.011455391,0.021273535,0.017345343,-0.025664322,-0.016715057,-0.005380897,-0.019553788,-0.014219504,0.0081200525,0.036305644,0.00048455223,-0.006018661,-0.0010778084,-0.013531544,-0.016185991,0.018917205,0.024486266,0.013005206,-0.026807006,0.01441896,0.025343228,-0.014394976,-0.005337525,-0.016798355,-0.022074595,0.005086571,-0.01598347,-0.007359065,-0.009949467,-0.009784665,0.0123847835,0.0025322363,0.0031701028,0.013281846,0.018747529,0.011049762
ZNF239,0.17186588,0.14543495,0.17741661,-0.16322862,0.04956363,-0.14906302,0.081553146,-0.1750918,-0.15368767,-0.16974506,-0.1688724,-0.177275,-0.12529264,-0.062339284,0.14572278,-0.16431238,0.15748808,0.14868435,0.1528983,0.13449645,-0.10714592,0.12876612,-0.10799508,0.09658943,-0.14754461,-0.17889285,0.13831966,-0.15848832,0.17802374,-0.1489578,-0.20011635,0.13857438,0.1316478,-0.14650078,0.15627006,0.16071129,-0.10576688,-0.19187725,-0.005887706,-0.09274379,-0.1741162,0.13823234,0.106443785,-0.13649207,-0.13370582,-0.17226611,0.15358832,-0.16595729,-0.1657022,0.10791159,0.15793058,0.16362967,0.1615079,-0.14530164,0.14018191,0.15984452,0.16551848,0.14870964,-0.11966325,-0.10365561,-0.15926431,-0.1599941,-0.14980821,-0.12863803
HESX1,0.22873029,0.18805546,0.23052965,-0.2157327,0.080961585,-0.21170452,0.12208384,-0.23677972,-0.21222125,-0.24368015,-0.21854961,-0.23123455,-0.17999817,-0.08751933,0.19901508,-0.21775495,0.20246625,0.18799615,0.20906655,0.17397143,-0.17205791,0.1875191,-0.15081845,0.12475634,-0.20324118,-0.243834,0.17982997,-0.21410829,0.23817083,-0.20670293,-0.27253425,0.2050517,0.17413549,-0.19456954,0.20169723,0.2174718,-0.15830554,-0.25511432,-0.007295277,-0.123704106,-0.22400987,0.18248586,0.14794517,-0.19505905,-0.1809041,-0.23821767,0.22513789,-0.21396284,-0.22846189,0.14041281,0.20655034,0.19797285,0.21186547,-0.18974876,0.19409664,0.19472909,0.21855213,0.19636129,-0.16815884,-0.13392651,-0.20078267,-0.21804224,-0.21223097,-0.19118051
AES,0.1953388,0.15913416,0.20317435,-0.18634717,0.05031489,-0.18384707,0.105831385,-0.20283817,-0.16640925,-0.19661146,-0.18335721,-0.19632241,-0.14293708,-0.08117826,0.17277572,-0.17836964,0.17832023,0.15955016,0.1751521,0.14793617,-0.12893347,0.15831544,-0.123396866,0.12128335,-0.15640666,-0.19779374,0.17052105,-0.18218088,0.20348749,-0.16959907,-0.22691496,0.14898665,0.13961852,-0.15874477,0.17583749,0.18275768,-0.13087492,-0.21460849,-0.0014617518,-0.0994522,-0.20076646,0.1599801,0.12288348,-0.14717501,-0.15865542,-0.19053803,0.16876587,-0.17830908,-0.19064838,0.12125167,0.1771465,0.17602797,0.18905507,-0.1637876,0.16943623,0.18075356,0.1930265,0.16913201,-0.14373642,-0.119229585,-0.17182858,-0.1778677,-0.16097929,-0.14495379
PLA2G16,0.17425296,0.1555965,0.20796858,-0.16793896,0.06984311,-0.13196138,0.085117884,-0.1825546,-0.17055444,-0.1772578,-0.16142058,-0.19606435,-0.14120112,-0.06646572,0.15356737,-0.16597877,0.15304726,0.16238725,0.16299114,0.14135863,-0.10584918,0.11400387,-0.106355295,0.090736195,-0.13587654,-0.1876982,0.1367823,-0.15917376,0.17338224,-0.16424559,-0.20615062,0.1669022,0.13237335,-0.1551118,0.16984397,0.18216956,-0.12070049,-0.2002404,0.011792902,-0.09848878,-0.19025259,0.14454217,0.11662953,-0.15011424,-0.14826709,-0.18377934,0.17221281,-0.1815088,-0.15289378,0.11467153,0.16151524,0.18401693,0.1543217,-0.12999833,0.13397278,0.15784831,0.16917437,0.15637062,-0.11135551,-0.108487055,-0.14880985,-0.17845555,-0.17468984,-0.123943865
POLR1D,0.0032873899,-0.009667978,-0.0053126663,0.014163105,-0.010794617,0.010751303,-0.0117152035,0.0140251145,0.0014083236,0.012109166,0.0023087189,0.0133987665,0.009078829,-0.013068182,-0.026317377,0.0124420095,-0.007295359,-0.011809488,0.0011349395,0.0094956085,0.012189001,-0.010501556,-0.008981921,-0.007707745,0.009753678,0.019416645,-0.0064422414,0.010907222,-0.01377058,0.010092773,0.005491755,-0.023582593,-0.0052471925,-0.009339547,-0.010449958,-0.011691075,-0.0024023987,0.01857644,0.0096546225,-0.008930117,-0.004333202,-0.015548351,-0.012044199,0.01639119,0.020568494,0.010067269,-0.0021074116,0.0053619742,0.020006359,-0.011648357,-0.0036815815,-0.008645941,-0.008136825,-0.0035954267,-0.016036358,0.0014763735,0.0017504322,-0.0016053915,0.0073752105,-0.0071633533,-0.01428581,0.0094986465,0.007228745,0.009078447
KIZ,-0.16635053,-0.1588237,-0.20834768,0.16677989,-0.06241276,0.13164058,-0.07064701,0.1506729,0.14582178,0.15991637,0.14864483,0.17769003,0.14546959,0.075971805,-0.1640926,0.14626339,-0.17166805,-0.15217821,-0.147848,-0.12890641,0.093733676,-0.16140023,0.101180196,-0.104453884,0.14169812,0.1973234,-0.122382715,0.1232816,-0.167194,0.19058831,0.1977743,-0.13482954,-0.1255325,0.14825684,-0.19145466,-0.17824973,0.08627319,0.22303848,-0.025611581,0.08105972,0.17211099,-0.1270691,-0.13733217,0.14081512,0.16363005,0.16855754,-0.16502796,0.18029289,0.15426967,-0.114068925,-0.14426418,-0.18937051,-0.17165634,0.11496318,-0.1318539,-0.17689003,-0.20629206,-0.15285438,0.11755718,0.107351676,0.13011129,0.178435,0.16468044,0.13406318
PRAP1,0.014648178,-0.014182474,-0.00044919923,0.010629677,-0.0062883496,0.016741592,-0.01545006,0.009339087,0.006672263,0.017953752,-0.0035273805,0.014778327,0.006826017,-0.010077283,-0.018136794,-0.00097492523,-0.007087823,-0.007999608,0.0041592345,0.0022326987,0.010104455,-0.008130521,-0.016667731,-0.007024545,-0.0061969645,0.016016137,-0.0054109534,0.0053218044,-0.0071005374,0.015487213,0.006049272,-0.018209249,-0.0009079091,-0.010078078,-0.003399941,-0.013434783,0.01527914,0.026739351,-0.0020473525,-0.010380618,0.0013000183,-0.008414756,-0.01231489,0.0030335286,0.02062688,0.012554163,-0.019176804,0.0021060035,0.013724724,-0.008114569,0.0063658357,-0.0067751408,-0.015065005,-0.011090849,-0.012443799,0.007450752,0.0029051292,-0.0056286817,0.0090552755,0.00043013692,-0.014509397,0.0070856977,0.007919794,0.0027768705
DECR1,-0.023223411,-0.03740663,-0.03871189,0.03159679,-0.018416684,0.029722046,-0.017748863,0.033114757,0.027810305,0.034492027,0.022250079,0.03616438,0.034486283,0.007391938,-0.047815125,0.028542632,-0.036049742,-0.021335177,-0.024106652,-0.013375366,0.02842033,-0.04229579,0.00943853,-0.019182436,0.029193703,0.04502777,-0.02075811,0.022461388,-0.031103916,0.04124222,0.033241637,-0.040106263,-0.026421055,0.008245138,-0.040686097,-0.034873966,0.015510384,0.053430267,9.860843e-06,0.0069569573,0.017752495,-0.029707689,-0.029460803,0.03406371,0.048249006,0.034435593,-0.033743843,0.030831087,0.041129578,-0.024730742,-0.01977596,-0.03779298,-0.04153105,0.011918865,-0.037187085,-0.025685277,-0.041961443,-0.026176542,0.021843594,0.010332927,0.013630565,0.029056745,0.028700856,0.03082643
NARS2,0.046024293,0.02253364,0.05024406,-0.02007436,-0.0028066784,-0.015730117,0.009573013,-0.032539736,-0.019073673,-0.009968754,-0.027933512,-0.029010028,-0.01786401,-0.026970254,0.019316904,-0.033340514,0.030498073,0.013191924,0.030435774,0.023385994,0.0010428578,0.022988006,-0.03378026,0.02504236,-0.026739683,-0.019310549,0.026497357,-0.0340283,0.025084563,-0.023843974,-0.02618481,-0.00072717667,0.0150338635,-0.031579345,0.03974188,0.029396858,-0.014297936,-0.021940462,0.009635042,-0.035340272,-0.049370993,0.018914998,0.015352614,-0.011942528,-0.022148829,-0.025129661,0.007905655,-0.025439322,-0.014826937,0.015814304,0.02831797,0.02826678,0.027491,-0.030278971,0.020538818,0.05415428,0.047138695,0.034750596,-0.02000634,-0.03310594,-0.039733686,-0.024296166,-0.015760472,-0.015797976
FBL,0.01610478,0.0183876,0.037383582,-0.0048643537,-0.027771898,-0.038447205,0.023954459,-0.041536726,0.016532749,-0.004541062,-0.0009885132,-0.023514163,0.008491594,0.002258176,0.021572862,0.002243409,0.02531274,-0.010245164,-0.0010260493,-0.013612099,0.027170638,-0.018818699,0.004139155,0.043892592,0.024204645,0.014280643,0.048916917,-0.038990755,0.021651823,-0.010144576,0.0033355309,-0.04019762,-0.01486247,0.0071870284,0.0005860583,0.027932782,-0.034963455,-0.014925934,0.027801272,-0.022732995,-0.05803154,0.019878816,0.011645101,0.03350286,-0.012124192,-0.004105808,-0.03185351,-0.0007878393,0.007575172,0.0077321976,-0.0015541762,0.022140577,0.023585316,0.0019095242,0.017899506,0.035652403,0.010603723,0.029072614,-0.00896645,-0.041754954,-0.0062968135,-0.009984814,0.016173838,0.027941894
CPSF6,0.014331498,-0.010649521,0.0011638962,0.0039607175,-0.0071680993,0.009432349,-0.0075276718,0.006829519,0.00047811866,0.0143764485,-0.0015705749,0.013715249,0.007437596,-0.005787434,-0.019011106,-0.0005675871,-0.004824754,-0.010170575,-0.00061418116,0.0039330497,0.009705359,-0.009829566,-0.011304259,-0.0041112006,-0.0027210377,0.014770776,-0.0038628872,0.00047608465,-0.0047007166,0.014584861,0.008172415,-0.020318847,-0.0042572618,-0.015771689,-0.0012032089,-0.007929582,0.0016730838,0.022450298,0.0012290478,-0.014733631,-0.011328571,-0.0028183013,-0.006847851,0.0070520774,0.018242266,0.0043685995,-0.012377989,0.004226096,0.010896452,-0.0048922934,0.005498484,-0.006124094,-0.013517624,-0.0095950365,-0.009955517,0.007758256,0.0042828415,-0.000741384,0.0049152263,-0.009288475,-0.011690818,0.0005804561,0.007818382,0.0060258843
SIAE,0.04407057,0.01733923,0.038094927,-0.023760613,0.002366446,-0.006248977,0.0029200986,-0.025416888,-0.01745975,-0.007462736,-0.025922075,-0.02000096,-0.01876307,-0.027963093,0.012263611,-0.032796666,0.024997756,0.01963536,0.031192578,0.028337626,0.00094006583,0.021672696,-0.036492523,0.013974983,-0.029723065,-0.019653305,0.019465808,-0.02395957,0.022538856,-0.025003962,-0.031078601,0.005447924,0.020311937,-0.032010667,0.037129212,0.020187983,-0.0037770793,-0.016596913,0.011324484,-0.03711795,-0.037971873,0.016202625,0.010367326,-0.015393974,-0.0135717355,-0.024953958,0.007953912,-0.027733766,-0.015952388,0.013399467,0.028715186,0.026099712,0.017261032,-0.03642236,0.016410617,0.045389213,0.044572398,0.025534755,-0.016066577,-0.0279083,-0.038533665,-0.02274294,-0.017175877,-0.018094227
CDK1,0.00689462,0.006409861,0.031329606,-0.008539468,-0.016701248,-0.018385071,0.027127273,-0.023897763,-0.0037475377,-0.014736224,-0.005888678,-0.012775883,-0.00011910312,-0.0022182632,0.0067509934,-0.005796496,0.024367075,-0.007822549,0.0031464845,-0.0069827363,0.017227862,-0.009274945,-0.0028486773,0.017732043,0.020255812,0.014031284,0.030391518,-0.027149692,0.014288884,-0.0054785646,-0.01572845,-0.013591167,-0.0015834905,-0.0010796087,-0.0044957125,0.0379926,-0.034862906,-0.008564919,0.0116704665,-0.0146796,-0.043519907,0.007800895,0.006262742,0.027335634,-0.012958199,-0.015173804,-0.009323981,-0.0033576936,0.0056830947,0.0030032173,0.004511839,0.02234663,0.01400115,0.010473795,0.009514934,0.025013566,0.0012663777,0.016195012,-0.009993523,-0.033495516,-0.008070685,-0.0045078527,0.004712497,0.015455561
PREB,0.094073646,0.06628935,0.09271775,-0.06412396,0.024723537,-0.049250785,0.02545863,-0.0690012,-0.070009,-0.06275191,-0.06763765,-0.07500962,-0.049064443,-0.04225821,0.054486737,-0.06974566,0.06972419,0.059636574,0.07488507,0.06318062,-0.03433337,0.056404397,-0.05610206,0.042449996,-0.06466533,-0.073246375,0.057903465,-0.061061937,0.06668127,-0.07101525,-0.087450996,0.04793253,0.057945486,-0.07731125,0.08152316,0.067787945,-0.03995669,-0.074412376,0.012326706,-0.054211937,-0.08772824,0.050896958,0.0535561,-0.059270497,-0.058503237,-0.07448456,0.06571161,-0.075187676,-0.053247847,0.04204966,0.070821434,0.076090515,0.060190726,-0.06990047,0.054645784,0.079407565,0.08416391,0.06330099,-0.041303456,-0.05409606,-0.07982765,-0.06917711,-0.06471962,-0.054583363
NUPR1,0.06834584,0.045398444,0.06820947,-0.056823146,0.012531251,-0.033108704,0.012228414,-0.059108898,-0.048161186,-0.042958304,-0.06373581,-0.05823186,-0.039175704,-0.034606747,0.039513126,-0.06794168,0.05548613,0.04324727,0.05621173,0.050700225,-0.021773115,0.05006054,-0.058651537,0.038514234,-0.065223515,-0.063101575,0.04203335,-0.04970511,0.06424035,-0.044949237,-0.06369557,0.03324535,0.041237455,-0.06080156,0.07293607,0.0482978,-0.017981479,-0.050707087,0.0006797388,-0.049000558,-0.06649099,0.053525463,0.03244055,-0.039801482,-0.03611182,-0.054318875,0.040406317,-0.06022343,-0.058720257,0.032135382,0.058986448,0.05467949,0.044101957,-0.06289488,0.04474025,0.07725161,0.071051605,0.052077577,-0.041745022,-0.04532639,-0.06542481,-0.05522251,-0.05132352,-0.048005685
AHR,-0.008760246,-0.03236336,-0.029741023,0.0267501,-0.008677505,0.041916065,-0.025575355,0.027045157,0.01913289,0.043384086,0.013647601,0.03460776,0.022741007,-0.005143972,-0.042523675,0.011323327,-0.032348476,-0.027883317,-0.00993751,-0.006694561,0.018389316,-0.01466772,-0.007101722,-0.022960342,-0.00024508685,0.029697068,-0.03199044,0.023234162,-0.027372785,0.038038574,0.034858793,-0.030238511,-0.016925551,0.0022472497,-0.016354728,-0.03866962,0.035345253,0.057981186,-0.01063722,-0.005118124,0.025740985,-0.027799409,-0.027670085,0.01674584,0.04139046,0.029649308,-0.032940365,0.023360731,0.024436373,-0.023386173,-0.011632167,-0.037214473,-0.036406193,-0.0028852709,-0.028235182,-0.014189515,-0.016127978,-0.027911948,0.01725972,0.013384521,0.0032001585,0.028286027,0.027584951,0.008619152
TCFL5,-0.06044653,-0.08856611,-0.11215015,0.08202443,-0.014801644,0.09947454,-0.06428116,0.09051424,0.0520581,0.0949249,0.05792395,0.092178576,0.06026701,0.013442606,-0.09934164,0.051106147,-0.09553094,-0.072759554,-0.043084845,-0.030876165,0.029031511,-0.049896292,0.017695643,-0.07246054,0.03154083,0.09147937,-0.09145379,0.07487738,-0.086119354,0.10302587,0.09691726,-0.050874475,-0.04598836,0.041706875,-0.062399216,-0.10586946,0.07429935,0.12945873,-0.037352826,0.022321962,0.097402364,-0.07098005,-0.07850095,0.043294527,0.094490856,0.06966225,-0.0693262,0.075763814,0.059566006,-0.06946835,-0.048739396,-0.09530942,-0.0906032,0.029346801,-0.07843219,-0.08599301,-0.07420865,-0.087079294,0.053513106,0.07185504,0.03521876,0.08960058,0.07661047,0.040094864
SPINK1,0.060889624,0.03561087,0.05528785,-0.03488495,0.02514194,-0.020263836,0.011172,-0.03638705,-0.05544741,-0.045018665,-0.04747961,-0.043270342,-0.038933054,-0.034001812,0.026117645,-0.05232831,0.044934575,0.056931846,0.049719747,0.052173376,-0.013664089,0.022426791,-0.04738134,0.0174746,-0.053802803,-0.04734409,0.032652196,-0.031577688,0.04335916,-0.04219969,-0.07481319,0.040674556,0.048103165,-0.050745256,0.04818281,0.043962963,-0.021275379,-0.052308187,0.009719867,-0.03936153,-0.05454778,0.040099625,0.021797001,-0.039348874,-0.023959357,-0.050914407,0.04123175,-0.04767582,-0.020481775,0.032517463,0.05498551,0.0644436,0.027559113,-0.045794718,0.030283611,0.046909526,0.044286475,0.041366927,-0.024406143,-0.027673282,-0.060538813,-0.049379535,-0.053438924,-0.029985249
MPHOSPH9,-0.046638306,-0.04730697,-0.057604656,0.04914369,-0.038827285,0.031936496,-0.01649908,0.042119328,0.056273073,0.057986118,0.042512894,0.051703192,0.0569608,0.02478214,-0.057486594,0.053707242,-0.049701605,-0.05660142,-0.048087418,-0.05175869,0.042081084,-0.06229528,0.026075661,-0.015506022,0.056830075,0.07264468,-0.020460863,0.022449303,-0.041755944,0.06754118,0.06724297,-0.073255934,-0.04957969,0.040883765,-0.066650026,-0.049415637,0.022300746,0.07496769,-0.0046244077,0.015010856,0.033865135,-0.03983032,-0.037588563,0.06371052,0.06164345,0.060514472,-0.07446259,0.05041845,0.061008506,-0.04204054,-0.043219715,-0.058327246,-0.050862018,0.038186297,-0.041293707,-0.044287924,-0.061624352,-0.0382319,0.032556143,0.015878782,0.03361348,0.04888273,0.061193973,0.050908584
WDR43,-0.108677156,-0.1073212,-0.12757152,0.10040365,-0.039575808,0.06673492,-0.045745514,0.10332748,0.08380444,0.09438801,0.07883521,0.107882954,0.097312994,0.045228265,-0.11287544,0.10275658,-0.10811706,-0.08705479,-0.095571116,-0.0743165,0.051119972,-0.10262765,0.053495765,-0.057328336,0.096245095,0.12937024,-0.08492085,0.08002317,-0.09540215,0.12666032,0.11894731,-0.08669712,-0.08730912,0.069969,-0.12381582,-0.098985955,0.04056565,0.14773256,-0.018159047,0.0508017,0.085203394,-0.090803646,-0.07496299,0.08627969,0.10003604,0.10065424,-0.09407066,0.10588229,0.103785776,-0.08042292,-0.07901794,-0.11032999,-0.10545212,0.058732487,-0.10347435,-0.10300997,-0.118164405,-0.085385606,0.07008192,0.06342779,0.077440135,0.09720249,0.10317082,0.0813659
MGME1,-0.08072447,-0.0746281,-0.094706774,0.07041925,-0.04489441,0.05803635,-0.027618997,0.06744437,0.06804609,0.07906997,0.059529476,0.080963366,0.08140864,0.046580788,-0.082851626,0.07888237,-0.07775658,-0.06895539,-0.06568961,-0.066426165,0.047934406,-0.082519144,0.04891482,-0.03433326,0.07995422,0.10328891,-0.04355281,0.04817232,-0.059294477,0.09475376,0.08968861,-0.07369084,-0.06359609,0.057213306,-0.10119775,-0.06836346,0.037141424,0.10781083,-0.01286668,0.03223855,0.057732295,-0.060583577,-0.05785834,0.07866518,0.08313731,0.07761174,-0.08319345,0.07545692,0.075489864,-0.0605522,-0.061877593,-0.08544769,-0.08403283,0.06070272,-0.065514386,-0.079229236,-0.09729233,-0.070654094,0.049754675,0.03566569,0.05934736,0.071476825,0.085406005,0.07071682
DKC1,0.15124549,0.12939033,0.168822,-0.13037443,0.058936402,-0.10084295,0.065904275,-0.13823111,-0.13790935,-0.13658163,-0.13051265,-0.14193662,-0.12025048,-0.058184266,0.10738536,-0.12314144,0.124234006,0.13058552,0.12952933,0.11085176,-0.07789199,0.10384351,-0.0899352,0.069977716,-0.106638774,-0.14639725,0.10838531,-0.12037687,0.13116896,-0.13773225,-0.16720767,0.12757339,0.10752252,-0.124643594,0.1388146,0.14125614,-0.08588305,-0.15557094,0.019216869,-0.08485376,-0.1555268,0.095083505,0.10016992,-0.11563057,-0.11613481,-0.15606305,0.12874103,-0.13941096,-0.09983631,0.098560244,0.1257952,0.1514439,0.122886404,-0.10329254,0.101191595,0.12716505,0.14428928,0.11611538,-0.08913411,-0.08524711,-0.12894125,-0.14348532,-0.13341676,-0.10539779
MTFP1,0.10706431,0.089360684,0.114920035,-0.09073074,0.026467375,-0.060865708,0.043093655,-0.090695485,-0.085456565,-0.08103377,-0.09404078,-0.09072963,-0.07808243,-0.054141685,0.067057274,-0.08917733,0.0893614,0.07864203,0.08141939,0.07103416,-0.04423979,0.07564625,-0.065286756,0.05649709,-0.07450703,-0.091713175,0.078629166,-0.08011241,0.093474895,-0.09242651,-0.11185989,0.063725606,0.06949501,-0.08692983,0.1007357,0.09283535,-0.057871383,-0.10280174,0.014259081,-0.066601105,-0.1112203,0.06762927,0.066703625,-0.0634535,-0.07286446,-0.10419782,0.07099103,-0.08986585,-0.07119315,0.05769588,0.0838682,0.10010232,0.07841705,-0.07454012,0.07378211,0.09871705,0.099141486,0.08046526,-0.068690345,-0.062487263,-0.09096336,-0.09573708,-0.08006408,-0.07159329
HMGCL,-0.052673064,-0.06337367,-0.07499784,0.054397468,-0.026861444,0.061501674,-0.029193543,0.04881036,0.050798595,0.07035469,0.042406276,0.06556212,0.052279994,0.022643436,-0.05996805,0.045901418,-0.06430979,-0.047752842,-0.046237454,-0.04025601,0.0388505,-0.061601352,0.020823017,-0.03976532,0.04259031,0.06869664,-0.047787286,0.04097886,-0.048951127,0.07303485,0.0695169,-0.04995661,-0.041180402,0.037328906,-0.06812037,-0.059990887,0.05110578,0.09530923,-0.016801719,0.018719666,0.05542921,-0.041993786,-0.048049826,0.04933508,0.063258685,0.057728782,-0.06428144,0.05237273,0.055539913,-0.050402522,-0.036633097,-0.07186297,-0.073504694,0.031407528,-0.050392743,-0.05091496,-0.06567663,-0.053927273,0.04352982,0.03659933,0.042807125,0.061962448,0.05326519,0.042476125
HSPA14,0.13267861,0.106939375,0.15767887,-0.12486173,0.020245,-0.12646188,0.08132671,-0.14114441,-0.101463735,-0.1331603,-0.12238169,-0.14325178,-0.09680117,-0.055746123,0.124948435,-0.11653028,0.12739542,0.10696804,0.119363196,0.09269771,-0.06726073,0.100076035,-0.07923289,0.098244384,-0.084910065,-0.12291102,0.13523872,-0.13003114,0.14309604,-0.12255201,-0.14937258,0.08853996,0.08782199,-0.1039034,0.12947962,0.14220753,-0.105705336,-0.15740742,0.018544476,-0.06940918,-0.16239937,0.1110094,0.09063525,-0.072596535,-0.111787125,-0.13128115,0.10065175,-0.11857121,-0.114791274,0.08722076,0.113652006,0.14238685,0.14583607,-0.09580414,0.10848595,0.1401535,0.13079076,0.118853286,-0.097598135,-0.09419129,-0.11368433,-0.12392115,-0.10712802,-0.084793754
APOC4.APOC2,0.10690837,0.07504864,0.1046551,-0.08903158,0.04167626,-0.05868435,0.0401766,-0.08904702,-0.10603574,-0.095464535,-0.10731909,-0.100910544,-0.077181704,-0.0463847,0.07457869,-0.11041452,0.09359631,0.093954824,0.09186037,0.092998035,-0.050410755,0.07901886,-0.07336359,0.041138947,-0.1044838,-0.10989605,0.061760936,-0.07705797,0.09962501,-0.08670105,-0.13055275,0.093311295,0.0764963,-0.09516595,0.09384972,0.09078446,-0.046498895,-0.10079926,-0.00477843,-0.0664079,-0.09909414,0.07952962,0.05633492,-0.08510346,-0.065448835,-0.10588031,0.09494766,-0.10037558,-0.08530264,0.05557266,0.091381066,0.099839285,0.076248124,-0.0889195,0.08018825,0.09602469,0.10025971,0.08377999,-0.06608071,-0.059591196,-0.10030222,-0.094125055,-0.09988731,-0.08505403
ESCO2,-0.111750565,-0.12385942,-0.14591433,0.1122957,-0.04695419,0.09797505,-0.057840817,0.10945086,0.097631216,0.119606994,0.099431135,0.124667905,0.10326067,0.04782605,-0.11769679,0.09911787,-0.12513988,-0.11033121,-0.09986156,-0.08313703,0.056251347,-0.11212273,0.058120057,-0.07718178,0.08845943,0.14203012,-0.098155126,0.08972323,-0.11222677,0.1392707,0.14163747,-0.09396473,-0.09033529,0.087886214,-0.12996607,-0.12456955,0.06814164,0.17429519,-0.03166472,0.05386167,0.11627376,-0.088540085,-0.09823413,0.09141395,0.119606405,0.116602324,-0.110618636,0.11788303,0.09849612,-0.09355995,-0.086748704,-0.13628036,-0.1245957,0.069085054,-0.10286163,-0.12342818,-0.1348772,-0.111345395,0.084879845,0.07640228,0.09266113,0.12567283,0.11651743,0.08688715
THAP4,-0.11453378,-0.11194637,-0.14054573,0.108256206,-0.043781348,0.08075614,-0.04844659,0.10249497,0.08908637,0.109235354,0.08685642,0.10988591,0.106669486,0.05123432,-0.10971678,0.09846345,-0.11363214,-0.09269532,-0.09381752,-0.07886199,0.056207128,-0.110392004,0.06101273,-0.059915416,0.08872253,0.13208383,-0.090020016,0.083344564,-0.097202435,0.13436173,0.12596428,-0.09318143,-0.08636309,0.07514672,-0.12967163,-0.104194865,0.058685716,0.15862772,-0.025755152,0.0487772,0.09796712,-0.08785438,-0.0815922,0.09222285,0.11152768,0.10965786,-0.100182205,0.11489,0.09689783,-0.087115645,-0.08309385,-0.12171273,-0.11300254,0.061380684,-0.09810054,-0.112011686,-0.12875786,-0.1013331,0.07238752,0.06201461,0.08738163,0.10782514,0.110806085,0.08131995
HMGCR,-0.061517615,-0.0721081,-0.08286798,0.060357075,-0.03525731,0.052160576,-0.033570714,0.06635852,0.05900374,0.06360133,0.051558487,0.0734592,0.059689052,0.02662789,-0.084009975,0.061485015,-0.06789993,-0.060449835,-0.059980407,-0.05062627,0.043211218,-0.06917437,0.026697114,-0.042803533,0.062616795,0.08362187,-0.04806417,0.04685193,-0.060913406,0.080998495,0.0730999,-0.065272555,-0.055514093,0.04501508,-0.08305461,-0.06656651,0.034707714,0.10032126,-0.008706633,0.029348962,0.055398267,-0.059233315,-0.05296909,0.06554853,0.07763022,0.07139645,-0.06801538,0.06469322,0.070906274,-0.05216986,-0.052296266,-0.07633249,-0.069633946,0.0465191,-0.06444448,-0.066066206,-0.07864888,-0.05618161,0.045269947,0.031988643,0.046363957,0.06219475,0.063371345,0.05639487
NPPB,0.05868697,0.025018126,0.036877763,-0.034420382,0.0114506185,-0.010535223,0.00041574985,-0.030572822,-0.03305132,-0.016369697,-0.05461339,-0.024507917,-0.023507973,-0.025138238,0.017906487,-0.036738474,0.029899403,0.028381024,0.038102068,0.036329992,-0.011506006,0.035595283,-0.043116227,0.01759712,-0.051063657,-0.03809029,0.022712842,-0.02246409,0.037898727,-0.022469644,-0.03709282,0.014965694,0.028644603,-0.04114467,0.04119732,0.014202509,0.008101236,-0.017462455,0.002096001,-0.03520069,-0.037806876,0.02312778,0.01998958,-0.026158161,-0.006833151,-0.032583278,0.015174113,-0.034028098,-0.022071429,0.017683685,0.0346284,0.035931766,0.015842475,-0.046408795,0.023431197,0.049084436,0.046137817,0.025210975,-0.0240774,-0.02555804,-0.04701924,-0.03838677,-0.02556876,-0.034877136
BCKDK,0.01974532,2.2109598e-05,0.014680374,0.001984302,-0.0074056536,-0.0020395108,0.00013225526,0.0042067952,-0.0057479516,0.0056641772,-0.009783484,-0.002954077,0.0030992497,-0.016675426,-0.00813501,-0.0047533177,0.005855385,-0.0015874621,0.011516415,0.012910463,0.004261393,-0.0023252666,-0.015939206,0.0053735897,-0.0012358278,0.007917598,0.003563581,-0.0041694753,-0.002195347,-0.0011347402,-0.006692513,-0.013169311,-4.6040863e-05,-0.018127123,0.008468804,0.0060405936,-0.010324586,0.0028210133,0.006167989,-0.017363958,-0.023547843,0.0012668585,-0.0017889962,0.0054420126,0.0023573786,-0.005740788,-0.0008800812,-0.0051733702,0.0099381665,-0.0023231395,0.012407184,0.0093344,0.0039003901,-0.011713028,-0.0017303267,0.018242665,0.016934875,0.011788826,0.00091957673,-0.012166932,-0.023908054,-0.0033125784,0.0014406424,-0.00046551228
G6PC3,-0.073439285,-0.06651041,-0.082479596,0.067705095,-0.044139262,0.052818954,-0.023551978,0.061438646,0.073704824,0.08822769,0.06549313,0.07547416,0.07032482,0.03773982,-0.07300492,0.07823033,-0.07726227,-0.07511295,-0.07128106,-0.069949515,0.051126614,-0.08168116,0.043960057,-0.039445564,0.081744626,0.09941238,-0.048085827,0.05365586,-0.06423746,0.085419506,0.10131666,-0.074384764,-0.06374682,0.05923877,-0.09060583,-0.07437815,0.03657927,0.10941352,-0.009049609,0.028646082,0.058439117,-0.04979714,-0.0516197,0.08025286,0.07184652,0.07081825,-0.09156892,0.07695323,0.07206788,-0.054816887,-0.063319385,-0.07437361,-0.07912964,0.058462754,-0.05785079,-0.07269864,-0.07930812,-0.063323766,0.05316436,0.04311482,0.064088084,0.07387078,0.08198116,0.06763819
PEX19,0.04150159,0.017180897,0.03822493,-0.022706527,0.009730168,-0.0021723006,0.0035693124,-0.015382411,-0.029727511,-0.012759633,-0.026628662,-0.017830037,-0.02031709,-0.02783232,0.0055107176,-0.028280042,0.0179023,0.019128434,0.0291537,0.03338234,-0.006914854,0.018707931,-0.03321109,0.004896488,-0.028721973,-0.020598486,0.010633133,-0.01588671,0.017429281,-0.021773323,-0.030472783,0.01622903,0.025395684,-0.039887264,0.03326374,0.020677341,-0.011794634,-0.015346989,0.0075896755,-0.030123334,-0.033482358,0.01699774,0.009720273,-0.02188473,-0.010682926,-0.026072418,0.02297736,-0.02881217,-0.011942411,0.014443994,0.033559494,0.025758773,0.010858174,-0.028279644,0.010260649,0.035432007,0.037025698,0.024165945,-0.013492446,-0.018514745,-0.03914719,-0.024255645,-0.027208412,-0.018823147
CHEK1,0.01929136,-0.00095903873,0.014377367,0.0063158693,-0.0089858025,0.007215148,-0.00037219375,0.0021342896,0.00036209822,0.014956752,-0.0097272545,0.0074470565,0.0046557933,-0.01181384,-0.013108332,0.00059846044,0.001818195,-0.008887334,0.0028306544,0.0049064923,0.01392794,-0.0032000914,-0.019378766,-0.00026758388,-0.0010038912,0.013626803,-0.00017423928,-0.0010677911,-0.0011285618,0.004765775,0.005313552,-0.021789353,-0.0048102587,-0.017581169,0.0058818045,0.000640627,-0.0011617579,0.014752448,0.0067097247,-0.018321134,-0.016907427,-0.00065166224,-0.0025924742,0.008452218,0.008463539,-0.0023685377,-0.007987931,0.0013337806,0.015933823,-0.005324006,0.004461989,0.0031083971,-0.0055357153,-0.011059251,-0.004485765,0.015854962,0.014923254,0.007825894,0.0030426867,-0.011035405,-0.01909828,0.0010244623,0.0049649,-0.0026086792
DPP4,0.02224087,-0.006810855,0.005132165,0.00013898313,0.0020466968,0.01809029,-0.014011137,-0.00040938333,-0.004679613,0.009029962,-0.010913648,0.0064152107,0.00042574666,-0.015051076,-0.012460198,-0.01588857,0.0027766451,0.005312401,0.010904264,0.01400031,0.007911578,0.0022281334,-0.022147574,-0.0015818812,-0.020619148,0.00019621849,-0.0046652225,0.0025788136,0.0019864514,0.005812168,-0.0064680316,-0.0061364844,0.008514773,-0.017028498,0.010961828,-0.003747657,0.01612515,0.016312532,0.00071836635,-0.01585953,-0.0066993795,-0.00047728885,-0.0030028895,-0.004032371,0.012802206,1.1794269e-05,-0.0065777376,-0.005508255,0.00504259,-0.003166046,0.013983956,0.0006372705,-0.012043799,-0.021344468,-0.005313519,0.016406305,0.012548114,0.00074255094,0.005387742,-0.008080751,-0.022026777,-0.0017124945,-0.003686197,-0.0051513687
ATG5,-0.09667081,-0.09843372,-0.12480332,0.101038486,-0.05901847,0.07185238,-0.04235579,0.08957158,0.0964873,0.10397444,0.09211951,0.105963655,0.11190884,0.0562808,-0.10781092,0.1034734,-0.101552084,-0.09710611,-0.088302866,-0.08575564,0.071149014,-0.11491373,0.06559041,-0.046222985,0.095960096,0.13050106,-0.06126571,0.060851302,-0.09171062,0.118575305,0.11990605,-0.109247364,-0.09645976,0.08156307,-0.12745005,-0.09917642,0.04512647,0.13803622,-0.014651965,0.052005224,0.07982774,-0.08017246,-0.07707097,0.09850652,0.10256739,0.11077533,-0.110336505,0.109297745,0.09918421,-0.0779506,-0.08483821,-0.11830473,-0.10441226,0.075611286,-0.08769926,-0.10794556,-0.13060164,-0.082968086,0.076364845,0.049932986,0.078796044,0.10309576,0.11489863,0.093243614
TMEM69,-0.023182772,-0.045909718,-0.050714646,0.042486083,-0.014863208,0.036069397,-0.03524044,0.049140107,0.027814895,0.04143149,0.023353271,0.05180467,0.034018174,0.004869206,-0.057396412,0.036739238,-0.0406096,-0.037014574,-0.026441813,-0.019097263,0.020836506,-0.035960756,0.0045253932,-0.03169512,0.025960937,0.04827273,-0.036807336,0.035664592,-0.042027175,0.052313738,0.04161991,-0.044098265,-0.02701213,0.014984274,-0.045865297,-0.050695423,0.031196665,0.06540486,-0.0011312813,0.0104281455,0.034364153,-0.043079734,-0.032713242,0.030209664,0.05260292,0.04103449,-0.0356291,0.03801216,0.044300955,-0.037457213,-0.029247023,-0.042989615,-0.045972522,0.0111496,-0.045355428,-0.037301112,-0.03421157,-0.0366512,0.032501686,0.02121561,0.014288746,0.037645184,0.041258067,0.02664202
GPN3,-0.08071378,-0.07894187,-0.09913586,0.08284487,-0.05000396,0.0626306,-0.034777887,0.07065897,0.08072315,0.089065954,0.06779524,0.08691291,0.085112765,0.047198206,-0.08832505,0.0874067,-0.08667324,-0.074352734,-0.065470055,-0.06926213,0.059064284,-0.09165432,0.053761125,-0.040807523,0.07887566,0.107809916,-0.051229946,0.052960496,-0.071604855,0.09846042,0.099637836,-0.08841972,-0.070245445,0.0584566,-0.10617011,-0.08246069,0.044029865,0.11531846,-0.010943826,0.033909388,0.068129286,-0.06411805,-0.06643101,0.08233441,0.08785744,0.08966159,-0.09422163,0.08179619,0.08315077,-0.059881322,-0.067859255,-0.098166764,-0.08759056,0.06420926,-0.06960652,-0.084429726,-0.101919755,-0.07000657,0.05759817,0.04052274,0.061273694,0.08257731,0.091770604,0.07752804
ZNF253,0.022808049,-0.010526855,0.00075282156,0.0020199642,-0.006022826,0.016526263,-0.010735504,0.011558015,0.0007764101,0.020339571,-0.005501911,0.017828554,0.004663922,-0.010773286,-0.024695508,-0.00086881965,-0.00419097,-0.017730005,0.003341332,-0.0019949172,0.0073713064,0.0009953976,-0.021288052,-0.00932559,-0.0037433729,0.016080737,-0.009966652,0.0031359233,-0.0088595,0.016772602,0.009268361,-0.01760466,-0.0018762685,-0.0098178815,-0.0032717024,-0.010893274,0.009482592,0.02482111,-0.0012352839,-0.016493395,-0.005663108,-0.011326606,-0.0056912825,0.0074066375,0.013559397,0.0015406329,-0.015902616,0.0014609173,0.016106874,-0.008794788,-0.0010739565,-0.004771579,-0.01292344,-0.0088015795,-0.012468903,0.006726425,0.015864214,-0.0009789653,0.0075354166,-0.0057709813,-0.016048219,-0.0010570567,0.012542199,0.0018936284
AAAS,-0.04512575,-0.053957026,-0.06584722,0.043502048,-0.024492301,0.05076144,-0.025327995,0.046129446,0.0433515,0.053449128,0.031563394,0.05799512,0.0440147,0.021129906,-0.070391536,0.04707236,-0.05532389,-0.041320767,-0.04184319,-0.030877313,0.034269713,-0.05041422,0.022996463,-0.029034764,0.04450662,0.06598696,-0.036664303,0.03589457,-0.041424207,0.06783652,0.056393422,-0.04801452,-0.039126102,0.031039083,-0.06212174,-0.052338336,0.030440565,0.07874861,-0.009282902,0.013180792,0.040247973,-0.04218518,-0.040136606,0.05075979,0.06449047,0.050450288,-0.05721244,0.047432866,0.053030416,-0.04058978,-0.037601724,-0.059713293,-0.05933159,0.03341335,-0.04759138,-0.049994085,-0.061074544,-0.04638014,0.031075772,0.024090447,0.032138847,0.04270815,0.05076044,0.040100716
MCM2,-0.0067549325,-0.02142212,-0.016526982,0.0084837265,-0.015189413,0.031871106,-0.012655295,0.015152875,0.0074393004,0.025362229,4.2662024e-05,0.022026401,0.014982026,0.0003727395,-0.027297538,0.0042783003,-0.013934001,-0.015166074,-0.0077522695,-0.0059028873,0.012159757,-0.011631817,-0.0018380135,-0.007902026,0.0059965886,0.023675628,-0.015333476,0.009628985,-0.009413712,0.028211955,0.014882198,-0.016316198,-0.009209894,-0.0018178187,-0.015593923,-0.011731822,0.015875872,0.038828596,-0.008311596,-0.006044861,0.0055330507,-0.012864935,-0.01960767,0.018639768,0.025569038,0.0116802845,-0.023167133,0.0061983317,0.012039644,-0.019156855,-0.0011748374,-0.02242437,-0.024382712,0.005513333,-0.016661767,-0.006734375,-0.0092085,-0.015681328,0.009141192,-0.0003727153,0.0018928424,0.0151206795,0.017580135,0.010475688
GLI1,0.09603656,0.07269846,0.09629257,-0.08091506,0.008428767,-0.062046025,0.026424997,-0.090221934,-0.06985524,-0.06873544,-0.089268796,-0.08279597,-0.057752967,-0.036647595,0.064039014,-0.08508236,0.07911281,0.06039899,0.07801105,0.06793774,-0.04364863,0.06860322,-0.06986298,0.060235977,-0.07895009,-0.09073381,0.07341236,-0.073075026,0.09669233,-0.06781551,-0.09034694,0.049962383,0.05913643,-0.07999566,0.094326615,0.06999251,-0.036341783,-0.08259252,-0.00050096214,-0.05374925,-0.09372814,0.07061473,0.055986114,-0.058905873,-0.058934417,-0.07510791,0.05883898,-0.08551173,-0.08552746,0.04953751,0.08057701,0.07889186,0.07804863,-0.08349092,0.07062882,0.099471286,0.096154556,0.072472945,-0.061851896,-0.06423707,-0.08286643,-0.079735346,-0.06923012,-0.065834425
STAT2,-0.050198168,-0.06897031,-0.0757568,0.0593533,-0.025989816,0.06262883,-0.034071058,0.060204457,0.047373697,0.06985575,0.04120242,0.06731696,0.047046386,0.014478378,-0.07017447,0.046452075,-0.06910471,-0.043191876,-0.044476815,-0.032418735,0.0338518,-0.054913294,0.018754221,-0.042403527,0.041290823,0.07055995,-0.051008705,0.053574983,-0.05997312,0.07153867,0.06924723,-0.053143453,-0.038329374,0.035108753,-0.06334443,-0.06879538,0.047692906,0.09397665,-0.012450259,0.021032363,0.061103832,-0.04752901,-0.05594747,0.05122083,0.07369971,0.059110902,-0.06039034,0.055780336,0.058781564,-0.0459404,-0.032467827,-0.068677574,-0.06993595,0.030732386,-0.05595162,-0.057927024,-0.069595695,-0.059546717,0.042823326,0.04274202,0.034020677,0.062402345,0.050676547,0.039697915
HMGN3,-0.03598338,-0.04319909,-0.04428743,0.04591357,-0.023049336,0.03515365,-0.022802748,0.043856356,0.02972518,0.041371,0.024781138,0.044261433,0.035318866,0.007481536,-0.05343104,0.04202938,-0.04351238,-0.03354726,-0.033868887,-0.018754782,0.027562415,-0.04459338,0.017441697,-0.024706423,0.041632082,0.05821149,-0.030565511,0.036209892,-0.039401144,0.047756877,0.043719113,-0.044449132,-0.033091478,0.017965507,-0.051933058,-0.042005185,0.015818223,0.06128379,-0.0011223815,0.009839959,0.02628934,-0.035522047,-0.03654471,0.042623878,0.050046593,0.04154055,-0.037238993,0.039541204,0.047529697,-0.03419497,-0.024914857,-0.04436609,-0.045214258,0.023490451,-0.0385744,-0.032129902,-0.045954205,-0.02934577,0.027113814,0.020642981,0.01811044,0.038171634,0.033277974,0.032362603
SUB1,0.0017934144,-0.00044189766,0.002613429,0.010758556,-0.011925966,0.0044251364,-0.001198031,-0.00063893944,-0.005054135,0.0033226833,-0.0029779598,0.004069794,-0.0018372182,-0.008380881,-0.016616976,0.009030951,-0.005456252,7.849629e-05,0.0017904788,0.0073602255,0.012839062,-0.023245811,-0.011720777,-0.004283197,0.0073336177,0.009981398,0.0048934706,-0.0012274832,0.003278032,0.006781034,-0.009666961,-0.013673238,-0.000978861,-0.016050497,-0.015826344,0.0007574968,-0.0046785437,0.008346945,0.0062154606,-0.013146978,-0.009069089,-0.00465848,-0.0088608675,0.012138084,0.018181901,0.0027395207,-0.0036803856,-0.00440114,0.01746497,-0.004088264,0.008408925,0.0013535917,-0.0072062565,-0.0007265806,-0.00605098,0.0014728941,-0.0068379953,0.0037796553,-0.0017705597,-0.006475672,-0.009133495,0.0020899652,-0.0042864513,0.0011765957
ACTN1,0.061913483,0.042533934,0.06859176,-0.035121843,0.0060301274,-0.04144369,0.018124025,-0.05464835,-0.03696411,-0.03607586,-0.038405497,-0.049599174,-0.025127681,-0.028481623,0.032005236,-0.03360277,0.042053808,0.036488228,0.051870644,0.03967822,-0.008010395,0.022342049,-0.039710138,0.036300704,-0.03809847,-0.041963078,0.04766804,-0.04797051,0.041701805,-0.045537468,-0.054567367,0.006264411,0.03070103,-0.054224156,0.050809503,0.04400079,-0.033442736,-0.052440614,0.021022808,-0.045068048,-0.072997466,0.029369377,0.029831722,-0.023394687,-0.033080596,-0.04276169,0.03336689,-0.043196067,-0.019680098,0.035188645,0.041488282,0.058360472,0.047254954,-0.048145678,0.029254993,0.05780285,0.05808214,0.046303295,-0.026595354,-0.0512995,-0.052600328,-0.047349423,-0.03241311,-0.025384933
DSCR3,0.2127698,0.19068325,0.24360685,-0.21285836,0.059850574,-0.2147412,0.12478066,-0.23361059,-0.1963828,-0.23711208,-0.20445472,-0.24278107,-0.16946758,-0.077396944,0.2016331,-0.2064611,0.20904386,0.18975598,0.20419352,0.16589272,-0.14429142,0.1767478,-0.14266396,0.14288098,-0.17747591,-0.23570575,0.19494131,-0.20949481,0.23963605,-0.20727214,-0.2659912,0.18913811,0.16806182,-0.19525923,0.21532845,0.23037232,-0.16501129,-0.26029116,0.0050635412,-0.112315215,-0.23616648,0.19078287,0.1484052,-0.17281179,-0.18456592,-0.22261284,0.21316388,-0.21528833,-0.21379125,0.15264998,0.21092537,0.2148223,0.23372991,-0.18265034,0.18507047,0.20045623,0.21515381,0.19242407,-0.15774189,-0.13832892,-0.1960633,-0.21497089,-0.20697594,-0.17141397
HNRNPH3,-0.16169383,-0.1596288,-0.19194205,0.16012971,-0.07149644,0.119733326,-0.07454301,0.14402552,0.1470076,0.15539244,0.14583027,0.15992397,0.14559932,0.07768903,-0.15821555,0.14986457,-0.16077453,-0.14294785,-0.14341985,-0.12419026,0.091432095,-0.15597524,0.10018925,-0.09126548,0.14651099,0.20019831,-0.11452396,0.11625776,-0.16203766,0.17786886,0.19118714,-0.14179157,-0.1327211,0.13996135,-0.18295431,-0.16572793,0.07525462,0.21284398,-0.026355645,0.085405864,0.15263459,-0.11826261,-0.13354792,0.14130977,0.14904852,0.1644301,-0.15386744,0.16789617,0.14768073,-0.11172837,-0.12859711,-0.17933483,-0.15426984,0.11532522,-0.13553981,-0.17477706,-0.19505851,-0.1442938,0.1159758,0.1027738,0.12325765,0.16868165,0.1654356,0.14083347
NNAT,0.1974183,0.16871387,0.21903123,-0.17981297,0.057906717,-0.18680069,0.1133137,-0.19754964,-0.1749887,-0.20681053,-0.17864034,-0.20960203,-0.16021425,-0.08490941,0.1819439,-0.18044363,0.18185152,0.17853709,0.18082568,0.1440394,-0.13344724,0.13688737,-0.1278798,0.12127729,-0.14756468,-0.19732,0.17109972,-0.1878247,0.20446679,-0.1760826,-0.23413596,0.15991865,0.1492069,-0.1635602,0.18034059,0.20635743,-0.14930485,-0.2373026,0.016524654,-0.102715954,-0.21458441,0.15676641,0.13399035,-0.15247011,-0.1690819,-0.20688888,0.18117175,-0.18238746,-0.18475333,0.13247752,0.1758084,0.20643596,0.19845477,-0.1565769,0.15923287,0.18137029,0.19874781,0.17064546,-0.1449778,-0.12434902,-0.17191131,-0.18962634,-0.1740437,-0.15074593
SEPT10,-0.008233704,-0.0122659765,-0.0160774,0.005880693,-0.003622055,0.018490173,-0.01148811,0.008588705,1.2695789e-05,0.010928452,0.0033015534,0.0152885765,0.007546598,-0.0012177397,-0.023435637,0.002265066,-0.011142053,-0.008674476,-0.0008581802,-0.007493846,0.012534607,-0.016644709,-0.0034829453,-0.009704918,0.0025668107,0.013319142,-0.013711793,0.001540117,-0.0027376115,0.023695499,-0.00019129645,-0.009074375,0.0015454032,-0.01236788,-0.016579662,-0.004406508,0.01207196,0.02299413,-0.0074066482,-0.010408837,0.0021758638,-0.00921608,-0.011023562,0.014191974,0.021999672,0.008331602,-0.011857517,-0.0017960817,0.012542621,-0.013267748,0.0028830003,-0.012145676,-0.021417998,0.0004329756,-0.016991284,-0.0024801232,-0.013267423,-0.008849109,0.0030577332,-0.0020343065,-0.0049511716,0.008839009,0.008980643,0.009448186
SIL1,0.001593641,-0.01799332,-0.003896717,0.01677512,-0.011435308,0.01973591,-0.010498069,0.008770332,0.01930134,0.03229945,0.0028863624,0.017040908,0.016586754,-0.00717484,-0.017966453,0.0104058515,-0.01504244,-0.012615032,-0.0061923116,-0.0017860709,0.022210611,-0.016125612,-0.0004781261,-0.008002989,0.010034222,0.028760374,-0.00760711,0.013007298,-0.015285671,0.014938148,0.02276489,-0.031760182,-0.014746053,0.00027019344,-0.0053480794,-0.018732272,0.010845169,0.032495964,0.00441581,-0.011506844,0.00046594068,-0.0066474946,-0.014038384,0.020871148,0.02179462,0.01382775,-0.03009452,0.01254477,0.019924363,-0.015289426,-0.0028370656,-0.0145658925,-0.02370334,-0.00039629638,-0.011781064,0.004651144,-0.005725667,-0.0063349847,0.011628151,0.00048662722,-0.0010211281,0.016698655,0.01858377,0.013605535
ZNF260,0.012571267,0.002365172,0.0168184,0.00074826553,-0.0211159,-0.008966137,0.00513722,-0.021040073,0.014386117,0.012941744,-0.002623424,-0.0050991457,0.010103814,-0.00257794,-0.0035874322,0.000981262,0.008708607,-0.013583318,-0.0027063787,-0.010352571,0.026659325,-0.012351155,-0.0026222467,0.019883934,0.009776425,0.014154978,0.023164269,-0.016729955,0.0069487784,0.0033713058,0.0093999915,-0.036782797,-0.01264352,0.0033293553,-0.0009933838,0.004741978,-0.005286783,0.008739054,0.013426844,-0.019835524,-0.031741604,0.004475278,0.00095198303,0.028627887,0.005986031,0.004335629,-0.03299401,0.005018726,0.012489716,-0.0027025416,-0.00532265,0.0035995618,0.0032073501,0.0009976327,0.008939869,0.019616704,0.005956526,0.010198994,-0.0008139163,-0.02579299,-0.004151292,0.00025459751,0.018212482,0.016648779
CYB5B,-0.041813027,-0.04520204,-0.05388145,0.04150276,-0.029148672,0.037518956,-0.014984496,0.03954413,0.04032497,0.04728939,0.028970197,0.047604673,0.04591897,0.020842757,-0.05786403,0.04637801,-0.046917386,-0.04150002,-0.03960889,-0.03650432,0.039418176,-0.054002456,0.024082184,-0.021777399,0.047459368,0.065974824,-0.023776032,0.02798457,-0.034077086,0.057772048,0.051241376,-0.05189698,-0.042342886,0.028506886,-0.06061713,-0.040269513,0.022792649,0.06899368,-0.0067513324,0.011700876,0.028189953,-0.0353848,-0.032746427,0.05441395,0.0564327,0.04683993,-0.055713594,0.046176776,0.05306231,-0.03731463,-0.03306201,-0.05099836,-0.052493196,0.03472773,-0.035789922,-0.040176656,-0.05971768,-0.035782237,0.027090613,0.01616098,0.030049771,0.04013432,0.045696832,0.038700808
SUCLA2,-0.08879057,-0.09049223,-0.10511036,0.08571713,-0.03644629,0.06726942,-0.03773412,0.08176282,0.06996149,0.08873244,0.06562706,0.090053774,0.080517225,0.037117638,-0.09180593,0.07470653,-0.0859678,-0.0664248,-0.07827586,-0.058362857,0.046355717,-0.089549236,0.044932917,-0.047933772,0.07426578,0.10761109,-0.067648456,0.06188607,-0.074113056,0.10633741,0.0979205,-0.07164061,-0.07055825,0.05717594,-0.10252436,-0.07827763,0.043889534,0.12839615,-0.013514582,0.03843443,0.07416281,-0.06715197,-0.067582086,0.07172836,0.091274396,0.08386183,-0.08169344,0.0891083,0.081909575,-0.069908045,-0.059517384,-0.09391013,-0.091563016,0.04880859,-0.07771605,-0.08643682,-0.09830663,-0.077503905,0.0570005,0.049340993,0.0652473,0.0822282,0.08543696,0.06573819
PAWR,0.0551721,0.03194841,0.050323013,-0.034215912,0.011464849,-0.014527399,0.0041554347,-0.028219888,-0.04089699,-0.026397698,-0.04285195,-0.033398643,-0.029136876,-0.03313697,0.0195634,-0.038716763,0.033569027,0.032763723,0.04471276,0.043297768,-0.015504546,0.027376115,-0.047052078,0.017808177,-0.042450618,-0.038240865,0.024322841,-0.029591411,0.03458297,-0.028806288,-0.048474304,0.023331765,0.03538541,-0.052538663,0.045945447,0.03278013,-0.013156155,-0.029835507,0.0038369633,-0.034599196,-0.0464541,0.023992091,0.02028139,-0.032851785,-0.020767543,-0.039632,0.0339911,-0.046398103,-0.02359866,0.021410875,0.042773843,0.044764735,0.025874969,-0.042041905,0.020177582,0.050252043,0.055459388,0.03317503,-0.022469426,-0.028482616,-0.052453175,-0.03589368,-0.039645553,-0.03447798
LRR1,-0.0049180007,-0.019481419,-0.02929015,0.011401866,-0.0045220554,0.027107514,-0.020718671,0.030576527,-0.0038137138,0.018148934,-0.008165069,0.024877321,0.010884281,-0.006527843,-0.034831755,0.011177303,-0.020336146,-0.009647255,0.0024053752,0.008472266,0.0001783222,-0.0037127882,-0.014167443,-0.012259647,0.0030381791,0.014880255,-0.024017632,0.022149675,-0.011637446,0.031616442,0.009564362,-0.0102980025,0.00038116053,-0.010787129,-0.015456085,-0.022999939,0.020425927,0.036822677,-0.0072171167,-0.005151756,0.011471447,-0.025906611,-0.014973208,0.009360103,0.033728626,0.005818179,-0.007936329,0.0017489046,0.015346975,-0.019140687,-0.000534337,-0.015201762,-0.022850102,-0.005777579,-0.025500532,-0.009838473,-0.0020935156,-0.021741431,0.0059654787,0.0065171197,-0.009512935,0.012032058,0.008437745,-0.002918806
LITAF,0.074514575,0.055738762,0.079788044,-0.055372994,0.024940893,-0.03560348,0.026825864,-0.060608815,-0.06662327,-0.056792013,-0.060907073,-0.057943024,-0.05854903,-0.03668551,0.040508725,-0.06090188,0.053959567,0.059536595,0.067802124,0.0565098,-0.032026842,0.03965386,-0.052400008,0.033011638,-0.05055742,-0.060432255,0.04726574,-0.055260334,0.06324212,-0.05551171,-0.08240031,0.053994123,0.054306682,-0.06960397,0.06746248,0.072043434,-0.04016634,-0.07081637,0.010847297,-0.048034728,-0.075355604,0.040375765,0.044032626,-0.051230453,-0.047690053,-0.074449874,0.054953657,-0.06834552,-0.04132519,0.038325883,0.066737995,0.07563181,0.052539382,-0.05007893,0.038245585,0.06693733,0.06877546,0.050351366,-0.043816835,-0.043557018,-0.06358941,-0.06239984,-0.060247935,-0.05131428
ACADSB,-0.14354502,-0.1487731,-0.18645473,0.14094794,-0.051779658,0.11478942,-0.07104919,0.13866721,0.11351094,0.13513473,0.11345235,0.153157,0.120192915,0.061747596,-0.14621654,0.12180189,-0.14919008,-0.11916355,-0.11580272,-0.093626544,0.07034336,-0.13171849,0.07282862,-0.098078646,0.10664044,0.16583155,-0.122061774,0.11244586,-0.1395291,0.16727854,0.15921727,-0.10841949,-0.1073668,0.10325773,-0.16172576,-0.1479808,0.08981654,0.20419896,-0.03704087,0.072562285,0.15418395,-0.11796602,-0.12010242,0.10882534,0.14961565,0.141905,-0.13298807,0.14117229,0.13074231,-0.10620833,-0.10753007,-0.16527322,-0.148014,0.09093093,-0.13132958,-0.15183519,-0.16969036,-0.13463351,0.09722778,0.09647304,0.11067711,0.15562853,0.13446365,0.10286807
CKS1B,0.1402327,0.108104795,0.15119869,-0.108505026,0.022626571,-0.10580005,0.07129981,-0.12192252,-0.10221541,-0.11017645,-0.11437833,-0.122714475,-0.08866586,-0.056272626,0.1016222,-0.10806089,0.11488509,0.0950064,0.11335764,0.086693764,-0.059158646,0.09515551,-0.08667384,0.077439345,-0.09258564,-0.11821112,0.11164941,-0.12084919,0.1247691,-0.11672528,-0.13582976,0.08233608,0.081100464,-0.1051313,0.12024028,0.120245084,-0.085246705,-0.13378254,0.013576936,-0.07923184,-0.14898974,0.08569165,0.08566836,-0.08016433,-0.10267195,-0.12637708,0.09374552,-0.10502671,-0.08838351,0.082446724,0.099256076,0.12746184,0.12095401,-0.09468598,0.10304329,0.1292932,0.13221492,0.112950146,-0.08953956,-0.086648256,-0.118244275,-0.1192575,-0.10045973,-0.09095851
ECHDC1,-0.084586054,-0.09373015,-0.11511469,0.07805264,-0.036670234,0.07657926,-0.047126837,0.09064408,0.06696145,0.08050878,0.059235744,0.096204795,0.07400076,0.03671416,-0.103910215,0.07993744,-0.0940918,-0.07481563,-0.073327824,-0.056788273,0.046140637,-0.079886615,0.036957204,-0.059018582,0.07003929,0.101254895,-0.06600402,0.068368,-0.07999268,0.1079296,0.094227776,-0.07423389,-0.065679364,0.0564147,-0.1040415,-0.09955302,0.0562173,0.12805924,-0.019742537,0.037558846,0.08418152,-0.07595139,-0.070931196,0.07511544,0.10236042,0.08540035,-0.081621364,0.08021199,0.08216145,-0.06797481,-0.065659985,-0.099186346,-0.09278628,0.055873156,-0.08342992,-0.09727664,-0.104375124,-0.08451717,0.054927807,0.053825796,0.05966971,0.08570727,0.07995772,0.06181269
HERPUD1,-0.11434981,-0.1174932,-0.1354214,0.1103552,-0.05254984,0.09016466,-0.042216994,0.096083924,0.09463611,0.10670911,0.09235544,0.11467994,0.09971615,0.05615993,-0.11585304,0.10106071,-0.11194503,-0.08924961,-0.10154645,-0.08189986,0.06834093,-0.116164014,0.07177693,-0.06516157,0.09805706,0.13365045,-0.08118333,0.084033355,-0.102635786,0.12421453,0.12501323,-0.099491045,-0.09066823,0.08710373,-0.13605654,-0.10346039,0.05470643,0.15749907,-0.0173943,0.0564894,0.10371821,-0.08757245,-0.08527093,0.10379712,0.11421223,0.1159923,-0.10979201,0.1188606,0.10498411,-0.08083861,-0.083368555,-0.1304738,-0.11650634,0.083741374,-0.09216444,-0.11808932,-0.14547762,-0.10175975,0.07552329,0.06200388,0.09393512,0.111963354,0.104958765,0.09018502
VPS26A,-0.042433597,-0.034864753,-0.044877734,0.04208125,-0.028014742,0.021996975,-0.020420142,0.027495291,0.035279304,0.03768021,0.04106301,0.038272046,0.042426202,0.018466637,-0.055805672,0.04679197,-0.040636037,-0.035983052,-0.026197404,-0.036710255,0.03705796,-0.05926575,0.02467607,-0.013772756,0.041860458,0.051348075,-0.016481418,0.018278878,-0.03082518,0.04740957,0.038030095,-0.05506119,-0.036515824,0.014350543,-0.05649901,-0.033799816,0.013174634,0.05469972,0.0033568032,0.013333626,0.020863723,-0.036603786,-0.03176754,0.047758535,0.053557463,0.04706464,-0.04475897,0.037287336,0.04349806,-0.029494114,-0.027498405,-0.044021413,-0.03825281,0.029807925,-0.035946574,-0.040069442,-0.053623583,-0.031085424,0.024206247,0.005389422,0.029017396,0.038618,0.045675665,0.041525293
