,0,1,2,3,4,5,6,7,8,9,10,11,12,13,14,15,16,17,18,19,20,21,22,23,24,25,26,27,28,29,30,31,32,33,34,35,36,37,38,39,40,41,42,43,44,45,46,47,48,49,50,51,52,53,54,55,56,57,58,59,60,61,62,63
TFAP4,-0.015170172,-0.012498271,-0.12865281,-0.007333398,-0.0054491386,-0.0013937205,-0.048236135,-0.011252813,0.013185918,0.050401296,0.038981248,0.016598405,0.0920361,-0.017361093,-0.090897016,-0.04356563,0.16535565,0.033973254,0.027710889,0.034818303,-0.0025429484,-0.113017835,-0.08405158,0.03394714,0.05731494,-0.00036475994,0.047925737,-0.048442274,-0.0677639,-0.017760124,0.026951484,0.009557281,-0.056660812,-0.0660013,0.038010836,-0.15923057,0.12950622,-0.05999838,0.03284893,0.006209664,0.02150555,0.0117026195,0.017553497,0.05546668,0.019282242,0.035572704,0.00885652,-0.013535326,0.008398065,-0.04444685,0.023919305,0.045865677,0.050301008,0.023918625,-0.04074327,0.020516464,0.04042108,-0.024109956,-0.06095351,0.019578893,-0.04482523,-0.03262218,0.08743961,-0.030665925
SERPINB6C,0.015684202,-0.024608832,-0.01715986,-0.020168275,-0.010963887,-0.016068835,-0.0599137,0.033248503,0.046709903,0.02625763,-0.002532132,-0.0010279287,0.022365201,0.028170867,-0.015062988,-0.008370563,0.07594807,0.016665012,0.023653504,-0.018553622,0.014406331,-0.03691058,-0.023110807,-0.004484538,-0.0053178817,-0.013494501,-0.013719391,-0.019279815,0.011790402,0.00083576515,-0.017918095,0.021668024,0.019045334,-0.012816988,-0.031612065,-0.044590957,0.0174951,0.008839913,0.01895951,-0.01760685,0.007999562,-0.004208602,-0.005736623,-0.004597828,3.7642196e-05,0.011303488,0.009374716,0.0046025836,0.0004928373,-0.045523413,0.010597363,-0.013250845,-0.021448929,0.036052454,-0.012294441,-0.004743081,-0.011196412,-0.018668074,0.012736778,0.029363254,-0.00510798,-0.038457386,0.003907703,-0.013037473
TSPAN4,0.069290936,-0.09186962,-0.00796816,-0.086461544,-0.098229714,-0.07846317,-0.09014112,0.11698589,0.10527271,0.086354956,-0.07270271,0.071968764,0.07955989,0.07426845,-0.02503685,0.08422132,0.13573322,0.09954597,0.091071635,-0.09536913,0.08221043,-0.116076104,-0.09692675,-0.03407119,-0.06612921,-0.09264846,-0.084519714,0.06050813,0.020821314,0.069293365,-0.10710322,0.0952888,0.0846084,-0.08312646,-0.084551245,-0.103930324,0.0065791877,0.014497798,0.09934111,0.01786068,-0.05614402,0.079097286,0.07522377,-0.08025998,0.062094927,0.09071506,0.09865458,0.09337691,-0.080134325,-0.05151293,0.06396698,-0.074106455,-0.05866105,0.09495059,0.06626697,-0.053135227,-0.07239777,-0.07899873,0.07316809,0.1135607,-0.06730032,-0.11204571,-0.043537002,-0.10280584
HTT,-0.12411669,0.12386994,-0.0783696,0.1119538,0.13519752,0.09033962,0.009821303,-0.14507319,-0.10311882,-0.0789277,0.1449138,-0.09312808,-0.05418031,-0.067032896,-0.005309835,-0.15504377,-0.009975016,-0.12290549,-0.07670385,0.13912445,-0.12486552,0.062059127,0.06680934,0.017844394,0.13783798,0.10768569,0.12547526,-0.14554547,-0.051554583,-0.089219555,0.16425622,-0.1103646,-0.13875708,0.09041752,0.0739983,0.004425125,0.081962675,-0.031941626,-0.09711522,-0.045145214,0.08649727,-0.11763857,-0.11756228,0.14836827,-0.084931724,-0.12285255,-0.13225935,-0.14382581,0.1192392,-0.020042956,-0.100603074,0.14932583,0.06842651,-0.110477425,-0.1336703,0.10171954,0.16488364,0.11766082,-0.15724993,-0.10735341,0.06491225,0.10139326,0.18658116,0.12098184
TCEA3,-0.0714328,0.10893147,0.13800697,0.06521874,0.1318824,0.04009939,0.058708422,-0.11293435,-0.0887769,-0.068282664,0.05304252,-0.050338954,-0.14940864,-0.0747127,0.08808063,-0.052543674,-0.116772175,-0.10605301,-0.10300429,0.08790335,-0.11715208,0.1280652,0.10955018,-0.023950782,0.058958404,0.07769547,0.010609586,-0.053094063,0.051096343,-0.073314324,0.10710103,-0.064462915,-0.06463775,0.18626806,0.059407204,0.16477354,-0.055682197,0.01776389,-0.09485614,-0.059943788,0.024009861,-0.080126986,-0.040634148,0.027587324,-0.06339113,-0.104765624,-0.017217048,-0.13493675,0.08477243,0.09492648,-0.07911898,0.01828675,0.035301633,-0.092447214,-0.03226942,0.030944455,0.021121975,0.12598534,-0.09730923,-0.109866135,0.08360779,0.08062985,0.059001412,0.116206616
SH3PXD2B,0.043686323,-0.05102131,-0.027348518,-0.054025073,-0.050301626,-0.04238504,-0.07968076,0.0741951,0.08082175,0.059458006,-0.03800691,0.03113543,0.053614747,0.048505038,-0.024688192,0.020725243,0.12019168,0.051203474,0.057357933,-0.060807534,0.040578313,-0.080438055,-0.06286913,-0.015845813,-0.03402614,-0.049551785,-0.046476442,0.014139198,0.009965877,0.03216959,-0.06072637,0.058624633,0.04667322,-0.051655494,-0.055578113,-0.08188413,0.015997082,0.014575224,0.052848198,-0.0058940873,-0.014447875,0.033632576,0.029355463,-0.038386248,0.032509215,0.055730484,0.04866864,0.049360998,-0.034884803,-0.05831638,0.035382666,-0.03848301,-0.043301508,0.06257856,0.024856431,-0.021608168,-0.040241998,-0.047562823,0.03914125,0.06978958,-0.032683436,-0.06662938,-0.01764891,-0.04878737
MCFD2,0.0053399727,-0.012952611,-0.0037844228,-0.0060932785,0.008825541,-0.009545915,-0.037198715,0.013751145,0.025017738,0.0116614215,0.0077488273,-0.0031596124,0.009283658,0.009748835,-0.012749523,-0.009309012,0.040645853,0.005240619,0.010504838,-0.0006552227,0.0064167473,-0.019004887,-0.0005518049,-0.0026194379,0.0059058443,0.0025600214,-0.00082947686,-0.028345611,0.011399938,-0.01019403,0.0007381253,0.0060020015,0.010845419,0.0077332407,-0.018330116,-0.020861965,0.015040624,0.005906943,0.005006157,-0.011944769,0.011185333,-0.018685497,-0.0133670345,-0.0019000992,-0.0111094285,-0.007190169,0.00200128,-0.019370146,0.010316338,-0.024536144,-0.0013368465,-0.0034031486,-0.0016928539,0.027330782,-0.019839555,-0.0008791904,0.0039435774,-0.00016994774,0.0016693231,0.0112289395,0.00070921704,-0.025733065,0.0055377744,-0.0040738466
PDLIM1,-9.335205e-05,-0.01755621,-0.013958319,-0.0012969822,0.007398121,-0.013554458,-0.01844392,0.012606576,0.015125588,0.020714667,0.011494849,0.0041478034,0.012559731,-0.008933629,-0.025312543,-0.0024935342,0.031636506,-0.0008762218,0.014422562,-0.006118361,0.011813362,-0.019342976,-0.0016360246,0.011251792,0.028522857,-0.0021167565,-0.0038977228,-0.034778006,-0.0074873082,-0.01667409,0.0018570907,0.0032487698,0.00718341,0.0015033819,0.0025341716,-0.025617331,0.0325688,-0.0092332475,0.008844545,-0.0038615018,-0.0025693104,-0.016369224,-0.015130352,-0.0015161633,-0.005410131,-0.0003033029,0.0022360454,-0.021974882,0.010981003,-0.005502321,-0.0010304414,0.010701437,0.02125322,0.023005709,-0.023544885,-0.005788272,-0.0011301227,-0.002192784,0.0009062756,0.011946825,-0.010629561,-0.025140204,0.0018132366,-0.008596566
ME1,-0.019415215,0.038139913,0.007082143,0.041083656,0.061823666,0.023215003,-0.022151388,-0.03082674,-0.014265746,-0.028446762,0.038487393,-0.05457793,-0.037661314,-0.013160262,0.0146367885,-0.06047982,-0.008654758,-0.048152126,-0.023226531,0.03358121,-0.043990314,0.038970485,0.052136097,-0.0020605735,0.03028801,0.04073202,0.022943381,-0.0776221,0.024973195,-0.040257175,0.05472243,-0.025980711,-0.017437413,0.06391972,0.0025646966,0.030434778,0.006164401,0.016753826,-0.042912353,-0.032927383,0.051802307,-0.068475604,-0.06377919,0.035295084,-0.05307298,-0.055914495,-0.040846568,-0.07029108,0.04682844,-0.017186232,-0.047226343,0.014929801,0.0032752082,-0.019641407,-0.057298534,0.026359487,0.037033837,0.03695847,-0.027162973,-0.038598098,0.042164244,0.018840268,0.03345297,0.054477837
SRRT,-0.19570059,0.22895558,0.23695752,0.22682482,0.3033277,0.12868902,0.121633194,-0.25059518,-0.27114457,-0.2818231,0.20330657,-0.23341322,-0.32684812,-0.15037513,0.15623552,-0.19909228,-0.2844709,-0.30277666,-0.23764092,0.22260624,-0.28794995,0.30890432,0.3000574,-0.05795313,0.16083989,0.2270185,0.12283249,-0.20444776,0.10232981,-0.19621105,0.29329002,-0.23209305,-0.14505844,0.37656865,0.11012633,0.32315907,-0.09681532,0.06278473,-0.22328278,-0.12481742,0.18647778,-0.2843719,-0.21641989,0.13639182,-0.26739636,-0.33436024,-0.2404938,-0.31773442,0.2184463,0.07534465,-0.23304547,0.1311144,0.03587707,-0.23332107,-0.20720664,0.12916547,0.2069841,0.22568211,-0.18118124,-0.30840814,0.23910566,0.21568635,0.17003432,0.26864776
ERLIN1,-0.027702287,0.034631684,0.027533542,0.03911084,0.066542506,0.031955384,-0.019930795,-0.039829917,-0.019082226,-0.04486067,0.053643268,-0.056541197,-0.050752766,-0.011506143,0.018897466,-0.062173925,-0.015011877,-0.05436127,-0.041564032,0.054852445,-0.04727544,0.045242842,0.059712175,-0.011665877,0.0346644,0.05861988,0.03225966,-0.074043095,0.033198908,-0.057092942,0.06284774,-0.035817347,-0.02549259,0.088397816,4.3723732e-05,0.04281929,-0.004932006,0.019639373,-0.04837067,-0.03437737,0.06517553,-0.08201094,-0.06176541,0.03470406,-0.07267435,-0.077845044,-0.0549795,-0.080983534,0.05448141,-0.025329024,-0.05115546,0.013079822,-0.00041751564,-0.023109846,-0.06732828,0.022472642,0.053389724,0.035717934,-0.037564274,-0.053550176,0.06388956,0.011835247,0.040176217,0.05463085
CNDP2,0.024725776,-0.032532614,0.00010122266,-0.027402937,-0.01707372,-0.03229634,-0.043226294,0.041461088,0.038178355,0.035129186,-0.018079776,0.01711811,0.0262006,0.017018905,-0.019657947,0.017141372,0.053186916,0.027193248,0.033335086,-0.029563993,0.029447827,-0.036976404,-0.019081827,-0.0068649612,-0.0038625337,-0.02299239,-0.026750378,-0.0077380575,0.01070416,0.0047740154,-0.03233121,0.029615011,0.033017986,-0.01375512,-0.029943686,-0.037817203,0.015442732,0.0031717308,0.029458724,-9.217486e-05,-0.011359081,0.0059307516,0.00945824,-0.028305728,0.0068939347,0.018528374,0.02991583,0.0062228017,-0.010307411,-0.022215802,0.015519202,-0.01391005,-0.0058623627,0.04335118,0.0031120293,-0.020993527,-0.020182692,-0.020124957,0.025932085,0.036657333,-0.01806457,-0.049786963,-0.016909106,-0.030110022
SCMH1,-0.10073045,0.08157396,-0.19924633,0.074029945,0.077528566,0.09894658,-0.057491235,-0.08578013,-0.02406647,-0.013877109,0.14666623,-0.06711622,0.023864206,0.006782476,-0.036906585,-0.13244855,0.09314943,-0.045473877,-0.010764305,0.12007025,-0.0570819,-0.017550329,-0.007458482,0.03078622,0.107892476,0.08465326,0.130294,-0.13029069,-0.072215214,-0.07686348,0.11262474,-0.07869868,-0.13291046,-0.010261714,0.031324886,-0.1117612,0.12510675,-0.04165233,-0.06511858,-0.029154401,0.07506302,-0.052878734,-0.07223404,0.15396287,-0.034530733,-0.044474922,-0.09527494,-0.07105125,0.08600148,-0.1059625,-0.04970419,0.13916987,0.037266515,-0.076966085,-0.104111455,0.09188643,0.15969576,0.04773712,-0.1299686,-0.06871038,0.023967076,0.06585386,0.17372906,0.06437388
KRT17,0.04927044,-0.074497625,-0.007434522,-0.064982526,-0.06893253,-0.04504378,-0.10477279,0.08823483,0.0975382,0.056647357,-0.037709747,0.04119795,0.05806991,0.07590593,-0.012715079,0.04118585,0.15278564,0.07219617,0.06836361,-0.062711105,0.057366587,-0.10087442,-0.07748523,-0.035464954,-0.05362664,-0.07604805,-0.05288318,0.03673586,0.033125643,0.04586446,-0.0771271,0.071573354,0.053011775,-0.06279528,-0.07480106,-0.08852787,0.008399378,0.023148295,0.070393234,-0.003697116,-0.023273394,0.06214331,0.053047244,-0.04463629,0.04578437,0.06691238,0.062091656,0.06882062,-0.05932448,-0.07051533,0.04608609,-0.062487483,-0.056435138,0.0814707,0.036475193,-0.038751163,-0.044834614,-0.0664521,0.05015976,0.07894179,-0.044043627,-0.09797286,-0.008702591,-0.06639718
SLC25A4,0.008712895,-0.022846583,-0.021784578,-0.01029481,-0.009000391,-0.022738729,-0.022211779,0.021619521,0.025297262,0.030379582,0.0003016889,0.010930704,0.027702104,-0.007613955,-0.033778667,0.008670121,0.04487343,0.01586108,0.027135339,-0.021163035,0.02201251,-0.032852165,-0.01597483,0.014197549,0.016939245,-0.012179924,-0.012744553,-0.021837842,-0.010255497,-0.008468855,-0.008605614,0.015738007,0.016002715,-0.012107711,-0.007445083,-0.040473748,0.033739805,-0.01189585,0.0215213,0.009289477,-0.008785263,-0.0034020767,0.0031867214,-0.008885279,0.0058093425,0.011857628,0.016207118,-0.008257227,0.0019104443,-0.0063102692,0.0069547333,0.004355499,0.016187273,0.03324858,-0.011341032,-0.008430976,-0.006335791,-0.01103843,0.007755289,0.0258949,-0.022527996,-0.031087581,-0.008138593,-0.023375466
JMJD1C,0.035976347,-0.05318398,0.01212024,-0.046539366,-0.036090825,-0.034301408,-0.076026365,0.067545906,0.07079108,0.031675402,-0.029933881,0.027208013,0.028810728,0.059531696,-0.0020294115,0.03266511,0.09186334,0.044864684,0.0387426,-0.035150908,0.036653426,-0.060919113,-0.0471599,-0.032289546,-0.0430538,-0.03974971,-0.0404159,0.018204156,0.034776,0.027736168,-0.053096198,0.049690954,0.04965303,-0.023473464,-0.06451196,-0.047329977,-0.0076588034,0.028535407,0.04263632,-0.011154864,-0.017514221,0.024001077,0.027912479,-0.040465944,0.016480224,0.03137952,0.036195263,0.038246013,-0.031079894,-0.057364814,0.029417736,-0.05268964,-0.046957683,0.060966566,0.01778895,-0.026954988,-0.03103749,-0.036735132,0.03828162,0.05565528,-0.0140081085,-0.0760351,-0.013683468,-0.045808677
GJA1,-0.039508417,0.022164866,0.0044118585,0.038960703,0.06208673,0.022083677,0.017357871,-0.044794217,-0.031672083,-0.026087828,0.05584516,-0.02586903,-0.027794309,-0.04890775,-0.01692947,-0.035950206,-0.026902042,-0.04686156,-0.030202195,0.04925522,-0.027668705,0.031334836,0.04427714,0.027625345,0.060186923,0.05150801,0.034776572,-0.071825996,-0.006945789,-0.056173652,0.06308373,-0.040718973,-0.022787038,0.056917746,0.03730736,0.02805016,0.028145082,-0.013856461,-0.04104687,-0.012248848,0.026059456,-0.06853283,-0.047739856,0.03223308,-0.041720025,-0.055869926,-0.046583865,-0.08174867,0.052726626,0.018350542,-0.037996914,0.03593225,0.05090847,-0.007115029,-0.066436805,0.01807515,0.041721355,0.041906938,-0.035440218,-0.04125049,0.02457577,0.017405793,0.025143545,0.031531185
NUTF2-PS2,0.10757953,-0.15024477,0.021277022,-0.13925503,-0.16220695,-0.11832459,-0.12643895,0.183132,0.16139817,0.12762418,-0.12564024,0.14142299,0.120019004,0.14651553,-0.009021059,0.1534796,0.19230038,0.16629705,0.13840544,-0.1430655,0.1362982,-0.17506942,-0.16036701,-0.07688117,-0.14410563,-0.14608431,-0.13643047,0.13723232,0.046764333,0.13678569,-0.18172559,0.1479944,0.15498447,-0.1445288,-0.14611061,-0.13392384,-0.030480508,0.044785377,0.15785448,0.01686019,-0.12037619,0.1519255,0.13688715,-0.1411377,0.12221071,0.15262939,0.1559759,0.17373864,-0.1490234,-0.077971414,0.11296348,-0.15458226,-0.11026722,0.15837136,0.12499362,-0.08429201,-0.12896428,-0.11617627,0.12033512,0.18554658,-0.11204615,-0.16955233,-0.07883316,-0.17025752
DDX21,-0.080061555,0.06753105,0.037983123,0.090965115,0.13140559,0.0773636,0.016876154,-0.09331146,-0.07085185,-0.09541002,0.112831265,-0.10105329,-0.10042776,-0.050111625,0.020460095,-0.10742018,-0.08205582,-0.114130065,-0.09654651,0.1211606,-0.09103672,0.10088953,0.111700386,0.002498746,0.0895507,0.12124912,0.08663377,-0.11906028,0.030992001,-0.11653726,0.12697428,-0.10083453,-0.07038413,0.14317998,0.04654637,0.09132729,-0.0055056894,0.010342326,-0.09954737,-0.048012946,0.0930857,-0.13596529,-0.11686669,0.08598566,-0.121740125,-0.13789585,-0.12815313,-0.14807676,0.105888285,-0.012418069,-0.091864526,0.056286775,0.04061155,-0.06916041,-0.12119857,0.05007912,0.10519186,0.07510693,-0.08756709,-0.119262375,0.10252339,0.059129305,0.07702665,0.10818672
SIX5,-0.012350127,-0.008853646,-0.18937613,-0.03878807,-0.021710485,-0.027880095,-0.006916143,-0.028281376,0.00628414,0.12394202,0.032000605,0.08045217,0.16529624,-0.04738635,-0.17834848,-0.016961288,0.23711155,0.074767075,0.06339583,0.010292146,0.028332273,-0.18933457,-0.16893514,0.07243484,0.077766635,-0.022134403,0.05778416,-0.020783674,-0.17694761,0.014881734,0.004163608,0.01550445,-0.08196145,-0.14101675,0.08441502,-0.24285834,0.21564567,-0.1233964,0.070258036,0.03928598,-0.034771547,0.07545309,0.06253904,0.06278443,0.08381133,0.09595867,0.076794475,-0.016627284,-0.013838241,0.010513425,0.050328806,0.09031828,0.12995249,0.080016,-0.0039419755,0.016913923,0.037802365,-0.02281734,-0.08649911,0.061702974,-0.13330652,-0.045743197,0.09815206,-0.061195698
HOOK1,0.010526996,-0.020279167,0.013822268,-0.010769542,0.0065317526,0.0020998195,-0.06956157,0.024731286,0.03815822,-0.00044706836,0.017109234,-0.01973198,-0.009473821,0.040407456,0.0044014975,-0.02017292,0.060476705,-0.002364181,2.4549663e-05,0.002703946,-0.0033429507,-0.018788578,-0.00036518648,-0.03305878,-0.009416617,0.004048923,0.00018578395,-0.022335842,0.039169494,-0.013556734,-0.0053983033,0.0050569996,0.008893352,0.022079913,-0.03890444,-0.018710487,-0.0076740393,0.02544928,0.0041237175,-0.034109443,0.030640833,-0.020375598,-0.020739429,0.003206566,-0.027223391,-0.01687736,-0.013100833,-0.009910541,0.005816251,-0.06500352,-0.0021161065,-0.02096693,-0.036087416,0.022342559,-0.020330355,-9.560259e-05,0.008594412,-0.017664403,-0.0011578053,0.0025055185,0.0254556,-0.038037255,0.023857664,0.0058990386
TBX18,-0.010687143,-0.019934606,-0.15740593,-0.023026286,-0.025073089,-0.009917937,-0.07508144,0.012826018,0.033526853,0.069893,0.036317546,0.025385564,0.11697774,0.003326906,-0.11467352,-0.026827298,0.22032243,0.059918903,0.058348265,0.036368515,0.018797368,-0.15258273,-0.10975456,0.037585717,0.047244772,-0.0064852014,0.054478493,-0.03802637,-0.08855151,0.00032075495,-0.0012147203,0.018552281,-0.05860481,-0.10340955,0.021811252,-0.21108691,0.14558877,-0.065196365,0.047482625,0.007133249,0.014774479,0.041067615,0.02632076,0.058745816,0.035729773,0.05280374,0.041582588,-0.006002337,0.00021572225,-0.060038205,0.046001226,0.06778015,0.047175117,0.048622176,-0.030816741,0.012564674,0.042376745,-0.04089617,-0.052329946,0.03673808,-0.05950934,-0.05051445,0.0958115,-0.047074724
CALM1,-0.025968693,0.013547892,0.0042478265,0.039380513,0.049172178,-0.011944246,0.061628796,-0.03471376,-0.042006858,0.0017153621,0.032802936,0.0035306048,-0.013003815,-0.079396926,-0.033169925,-0.0066132993,-0.06884143,-0.03834181,-0.004735131,0.022794139,-0.00052473135,0.02808088,0.044756737,0.037298784,0.06890557,0.031129284,0.010864299,-0.06168902,-0.03030369,-0.041707642,0.053462334,-0.03164667,-0.010443855,0.05291991,0.053629912,0.019743772,0.04171209,-0.034343466,-0.015984595,0.021561526,-0.0053927004,-0.05521785,-0.04297015,0.008872457,-0.031724162,-0.036041003,-0.013376635,-0.07769058,0.041197788,0.067037165,-0.033562984,0.043205224,0.08447253,-0.0069259405,-0.04825992,0.008712491,0.024403755,0.04303135,-0.02502605,-0.0223464,-0.011463467,0.014391936,-0.0030685477,0.011266265
RNPEP,0.050563574,-0.06695385,-0.019778244,-0.06037298,-0.063043706,-0.054841943,-0.069117606,0.08164685,0.07722564,0.07066855,-0.046435885,0.047592796,0.06299941,0.0431514,-0.032540202,0.045670822,0.10622799,0.06719138,0.06787144,-0.06728937,0.060697533,-0.08421688,-0.06380744,-0.012717664,-0.031731393,-0.061051257,-0.053341057,0.028418452,0.004952593,0.036715638,-0.073469594,0.06301742,0.056579094,-0.061616726,-0.05453179,-0.08583933,0.022230223,0.004344862,0.06843803,0.01045363,-0.033340387,0.048114985,0.037274476,-0.05149854,0.039813496,0.06315003,0.06425851,0.0537171,-0.04343529,-0.042371176,0.045734033,-0.035967015,-0.02825756,0.072422944,0.03505762,-0.034908514,-0.0491473,-0.05522886,0.048584536,0.08203153,-0.04904153,-0.079239875,-0.031695254,-0.06613362
CREBZF,0.020921089,-0.036263276,0.010093867,-0.030051792,-0.01929412,-0.02721513,-0.05044546,0.04114236,0.04330568,0.026022758,-0.014044699,0.018996624,0.019377746,0.029664187,-0.008983806,0.021785244,0.057571433,0.02971021,0.027915057,-0.020519093,0.028527249,-0.03948749,-0.025571372,-0.014530033,-0.015876964,-0.019474572,-0.024943786,-0.0017071497,0.022397123,0.008256186,-0.030397922,0.029086769,0.035451733,-0.00871047,-0.03939828,-0.031614255,0.003423904,0.013077639,0.0275613,-0.0042075887,-0.011276498,0.005095586,0.015638005,-0.028929703,0.0075060036,0.013530485,0.026566058,0.009282393,-0.014295274,-0.030070253,0.015980158,-0.028684178,-0.017933756,0.04695937,0.0023618713,-0.020296218,-0.015594685,-0.019959267,0.022919847,0.03566339,-0.013748709,-0.05468581,-0.0113145895,-0.03418759
PFAS,-0.056686938,0.02903444,0.01148359,0.058537424,0.08693546,0.049655803,0.0052786097,-0.051783994,-0.03344053,-0.05648873,0.08190884,-0.056089208,-0.055922367,-0.037188694,-0.004950471,-0.06397376,-0.037055165,-0.07114437,-0.058565143,0.08725691,-0.050937682,0.046517555,0.055008583,0.013716616,0.070777036,0.08118116,0.06275137,-0.0875047,0.012653183,-0.0813497,0.085417874,-0.06866117,-0.047789324,0.084738165,0.038403243,0.041058734,0.018967729,-0.0016418211,-0.061643396,-0.026203029,0.051182836,-0.092920475,-0.07717532,0.062008902,-0.0811899,-0.08266775,-0.08758135,-0.098148674,0.06965568,-0.011307403,-0.055369835,0.036624715,0.041278906,-0.03268016,-0.093657635,0.031805754,0.07066275,0.049689516,-0.06290093,-0.07214567,0.05620526,0.024703965,0.05298042,0.059659366
POLR1C,-0.15357357,0.20024155,0.23783056,0.18550563,0.25215176,0.094820015,0.11965496,-0.2065134,-0.2347158,-0.23471418,0.15083933,-0.18321991,-0.28867444,-0.13566129,0.15009508,-0.15309918,-0.25916252,-0.26924276,-0.20603074,0.16825634,-0.2506964,0.26816317,0.25950602,-0.06526004,0.1292688,0.16744515,0.07494244,-0.15583041,0.09217006,-0.15273781,0.23737326,-0.17896137,-0.113582805,0.33792135,0.08964321,0.30437148,-0.1048478,0.06931771,-0.18085189,-0.11417528,0.13849485,-0.23316558,-0.17425911,0.092098475,-0.21941414,-0.27929717,-0.18541206,-0.27050608,0.17475602,0.087304115,-0.2060657,0.102743365,0.032907106,-0.19629657,-0.1544362,0.099300906,0.15870318,0.20810401,-0.14900503,-0.25173524,0.20137209,0.17972866,0.14184895,0.2369352
KAT2B,-0.15455699,0.14446737,0.054465182,0.13741708,0.17665966,0.10196524,0.0366882,-0.16516018,-0.14980958,-0.14564222,0.14805834,-0.124188825,-0.15086581,-0.09248659,0.052186128,-0.15872319,-0.05728413,-0.1676055,-0.123457864,0.16614422,-0.18170677,0.12017983,0.12618187,-0.0075424574,0.15264398,0.12949474,0.11545628,-0.14653672,0.014422853,-0.11776543,0.18216366,-0.1391841,-0.12630235,0.17438363,0.096818075,0.105673894,0.02867432,0.010032099,-0.1351375,-0.07674562,0.10503152,-0.15166077,-0.12335102,0.1222007,-0.1291556,-0.17314124,-0.13594745,-0.193212,0.1390548,0.0038430914,-0.12406485,0.12586156,0.047138438,-0.13633871,-0.15080422,0.08384417,0.15256177,0.12346515,-0.1634453,-0.17851025,0.11966118,0.11667227,0.17577869,0.13798632
EIF2S2,0.030629355,-0.06012736,-0.007166571,-0.03374587,-0.037830956,-0.04524236,-0.027309213,0.066446096,0.053747036,0.04144757,-0.019395942,0.046526976,0.039808284,0.028834937,-0.03765277,0.048239626,0.06189323,0.034930877,0.049885344,-0.025842903,0.0480275,-0.06594012,-0.055128302,-0.0023515858,-0.0146148745,-0.03531307,-0.034714345,0.0112328045,-0.00047721528,0.025099318,-0.034955837,0.034924984,0.042492133,-0.028227143,-0.027992006,-0.061217904,0.019576915,0.0039250925,0.050274562,0.020356048,-0.031495742,0.022867255,0.019324947,-0.038269483,0.013827292,0.038717747,0.037782747,0.032177214,-0.02478976,-0.025622081,0.031402394,-0.029786648,-0.0028102025,0.059660994,0.0077355076,-0.02525252,-0.021969724,-0.027164984,0.02766562,0.055574745,-0.040103044,-0.06262627,-0.017308708,-0.061904583
GM12112,-0.026098676,0.0031191413,0.009288062,0.025289245,0.043999523,0.023343928,-0.024668708,-0.013891339,0.00024135411,-0.025894001,0.049711484,-0.02799273,-0.025152644,-0.006869074,-0.007187549,-0.03565503,0.0106561035,-0.032953724,-0.024070378,0.041392516,-0.022131654,0.010101335,0.02322141,0.0019132644,0.03229405,0.038556196,0.027230252,-0.051855788,0.018757869,-0.042444844,0.04244922,-0.025041096,-0.013998985,0.04736878,0.0009417571,0.010327531,0.010711697,0.0063343495,-0.026342519,-0.019990746,0.028216768,-0.055942938,-0.04398539,0.03013356,-0.043003168,-0.04631744,-0.050226968,-0.05452887,0.035994854,-0.028572261,-0.028592061,0.011079174,0.011347577,0.0016689375,-0.057313934,0.011835035,0.03682104,0.019722536,-0.026497368,-0.027924687,0.032772757,-0.009561952,0.034475695,0.025118588
ARHGAP29,0.020025417,-0.028119352,-0.027530748,-0.028731883,-0.020280335,-0.031304084,-0.028710365,0.04071589,0.04017098,0.050380427,-0.022565782,0.02469215,0.042205792,0.00013785623,-0.038196817,0.015219443,0.056457374,0.028189026,0.04581106,-0.044272106,0.03333579,-0.046804376,-0.027345814,0.004637938,0.011099778,-0.031791747,-0.025164343,-0.009473858,-0.012644403,0.0034270883,-0.026457405,0.02955496,0.027461376,-0.031234846,-0.014976287,-0.054731257,0.039691757,-0.004439961,0.03111771,0.014594473,-0.014191791,0.013466224,0.010555711,-0.025743593,0.017397003,0.035567068,0.04065678,0.0066195712,-0.015327411,-0.01238288,0.009903494,0.0017157514,0.008749433,0.04046647,0.008891704,-0.016424779,-0.016670888,-0.02294724,0.023069423,0.040871803,-0.036127564,-0.037095606,-0.019501697,-0.031004881
MIR297B,0.12201152,-0.15931745,0.010788455,-0.15029159,-0.18684201,-0.11821962,-0.14132816,0.2079086,0.1818364,0.128636,-0.13629867,0.14238426,0.1366712,0.15508406,-0.016435452,0.14187007,0.23811491,0.1811687,0.15837914,-0.1593338,0.15041827,-0.19619715,-0.1626296,-0.07423353,-0.1405729,-0.16759115,-0.1559489,0.1447063,0.03445009,0.13635646,-0.20003295,0.1594272,0.15698898,-0.14683974,-0.15631185,-0.1488584,-0.016057119,0.045917857,0.16567928,0.016113237,-0.11590383,0.17204982,0.1526023,-0.14295381,0.12232323,0.16653472,0.16348435,0.19504538,-0.1508569,-0.08945168,0.12090132,-0.1504255,-0.11672203,0.1606611,0.12304315,-0.094842836,-0.1391005,-0.13427845,0.12959343,0.18652695,-0.11202344,-0.18526557,-0.09436506,-0.16711809
GLUL,-0.031102136,0.0022081165,-0.011283486,0.034423053,0.038363874,-0.0062439777,0.047588356,-0.026656762,-0.028359778,0.0020570569,0.038019884,0.0038458854,-0.010540102,-0.065147996,-0.03623245,-0.006511189,-0.041824445,-0.036508076,-0.005918026,0.020100307,0.00067785196,0.014102814,0.028118419,0.040162176,0.06830429,0.027833203,0.011202686,-0.05948318,-0.03441161,-0.03792257,0.047439642,-0.029915467,-0.0136353895,0.03950631,0.05103782,0.008158574,0.048011027,-0.031210866,-0.014651515,0.0130032785,-0.006137356,-0.047574233,-0.044580624,0.013948552,-0.024820423,-0.02961811,-0.022056913,-0.06419624,0.037240297,0.049973644,-0.02567288,0.040362734,0.07316708,-0.003976807,-0.05359733,0.0066668023,0.018597968,0.033449277,-0.027562011,-0.015534554,-0.010463346,0.009563826,0.0064480044,0.009860231
SMARCD1,-0.101513475,0.16941524,0.2330421,0.12465552,0.20651075,0.068554334,0.112017594,-0.17907244,-0.18502797,-0.17537312,0.08521001,-0.13747063,-0.2638886,-0.107506536,0.16752627,-0.118785135,-0.27160013,-0.21502233,-0.19981293,0.12554446,-0.20580755,0.25728127,0.23552331,-0.071771905,0.068848185,0.14114286,0.03307193,-0.104670525,0.096865036,-0.12570502,0.1755476,-0.13033265,-0.072926655,0.329852,0.05049365,0.3114705,-0.14215797,0.07388306,-0.16898078,-0.11132288,0.08495451,-0.18177213,-0.13645591,0.04324422,-0.18152605,-0.23167336,-0.11668104,-0.20745449,0.13493358,0.101073,-0.16757385,0.050367698,0.012765966,-0.17345881,-0.092736386,0.070306286,0.085117,0.20051536,-0.1257567,-0.19556555,0.18215649,0.15421039,0.08256793,0.22112529
LRRC8D,0.11332069,-0.16135783,0.014502148,-0.14947428,-0.16639894,-0.1176073,-0.1448141,0.19003765,0.17795783,0.1331431,-0.13328743,0.14572626,0.12575722,0.15943924,-0.01209382,0.15565464,0.22085407,0.17612718,0.1458607,-0.1461563,0.1421553,-0.19354744,-0.17696421,-0.082752585,-0.15528059,-0.15655574,-0.13760866,0.14551558,0.049619205,0.1458633,-0.18726993,0.15386331,0.1546449,-0.15945381,-0.15341279,-0.14971991,-0.026191132,0.05032998,0.16447939,0.016355354,-0.12240138,0.16444562,0.1509121,-0.14284614,0.1341813,0.1638208,0.16271462,0.18606992,-0.15840214,-0.088390574,0.122627705,-0.1646533,-0.11902089,0.16750774,0.13051277,-0.083476745,-0.13179734,-0.12868044,0.122095525,0.18923613,-0.12226452,-0.17695308,-0.07501164,-0.17321715
OBSL1,0.008534923,-0.007509522,-0.0159752,-0.0075104684,0.0042718574,-0.007559739,-0.039883155,0.017562032,0.032685734,0.0167748,0.002810197,-0.009240288,0.012869775,0.013667328,-0.013024561,-0.020358779,0.049951874,0.00033843517,0.013270427,-0.011612419,0.004023062,-0.019601895,-0.0070653185,-0.0015353002,0.0071947053,0.0003161747,-0.004805278,-0.032877244,0.0063897967,-0.0107328035,-0.0018726289,0.008580595,0.012695104,0.0035398602,-0.018803041,-0.027055874,0.017983176,0.010781933,0.0038698837,-0.017095836,0.015578765,-0.019575955,-0.017803911,0.0013366863,-0.011596996,-0.0017069783,-0.00042323675,-0.013006674,0.012072498,-0.034123786,-0.002999153,-0.0029993253,-0.008444019,0.023161948,-0.021084689,0.0047624414,-0.0007962473,-0.0026819073,0.0028305463,0.014356112,0.0018553585,-0.020039842,0.0041695535,0.0022614799
PHF2,-0.028076477,0.002587434,-0.22825794,-0.008306973,-0.0057147145,0.023758985,-0.06783736,-0.004480809,0.046984497,0.107139826,0.08041562,0.046313204,0.12523611,-0.0021515135,-0.12138791,-0.042633943,0.1865629,0.03621433,0.073128894,0.026593283,0.015610706,-0.12742579,-0.116346434,0.05899438,0.0692205,-0.0043394845,0.053762224,-0.055437308,-0.11687784,0.0020342916,0.025381364,-0.0016797483,-0.09027009,-0.113063164,0.024790036,-0.21892281,0.15808293,-0.08712968,0.036864348,0.015196018,-0.0017114282,0.03736355,0.0143308155,0.09547627,0.07274635,0.07591868,0.013181517,-0.0033946126,0.014449718,-0.064742684,0.03829017,0.086704105,0.055344142,0.01729703,-0.015245892,0.04026517,0.06519389,-0.0027505904,-0.09008816,0.04580138,-0.077665165,-0.009249195,0.11920199,-0.0311643
CRAMP1L,0.087709494,-0.108364284,0.015656814,-0.10617647,-0.10889471,-0.079655826,-0.12826928,0.13660297,0.13660708,0.0832521,-0.08886412,0.08454261,0.07711929,0.11759227,0.0020776764,0.0919417,0.17456546,0.118598476,0.09802258,-0.10585186,0.08983427,-0.13203141,-0.11186707,-0.06847593,-0.11490953,-0.11216209,-0.10267466,0.08959344,0.05139763,0.09360142,-0.1347776,0.1079188,0.10432096,-0.09073932,-0.12704508,-0.10227143,-0.025096126,0.044638213,0.11242059,-0.0051321313,-0.05858896,0.10357891,0.09086479,-0.09509391,0.07618758,0.10362092,0.107261926,0.11998625,-0.095039174,-0.084382445,0.077589266,-0.11737718,-0.10417484,0.118604146,0.08773723,-0.051814444,-0.089162886,-0.09112232,0.08651315,0.13287294,-0.06566724,-0.13256258,-0.048808165,-0.11017387
SSR3,-0.01003547,0.005563264,0.005948635,0.016843379,0.035475805,-0.0043431856,0.004114233,-0.01485078,-0.010520622,-0.00046575814,0.020582858,-0.0090286145,-0.006090272,-0.03274764,-0.018616416,-0.0152492225,-0.011394396,-0.01848078,-0.004809577,0.017044578,-0.0037184022,0.010795093,0.030491762,0.012607707,0.038683325,0.023234177,0.013631079,-0.047864698,-0.0033286475,-0.033981077,0.026832305,-0.01704003,-0.0028359294,0.034795906,0.014795417,0.005108785,0.025468249,-0.010727432,-0.011666104,-0.0010222122,0.0112014115,-0.041933484,-0.027848486,0.0054990053,-0.027564187,-0.028071493,-0.010758365,-0.053924922,0.030673759,0.01676429,-0.02016012,0.021375366,0.039667286,0.008850504,-0.03521005,0.0060743243,0.019427512,0.022617914,-0.012897018,-0.012978319,0.0040635653,-0.0055045635,0.0008098297,0.009912154
GM15181,0.057462014,-0.06776355,-0.026194118,-0.07083706,-0.07427586,-0.05913367,-0.09583391,0.097792506,0.09753426,0.073918864,-0.05494026,0.050375894,0.069199845,0.06666302,-0.025747381,0.04059504,0.14253601,0.07502105,0.07415308,-0.08044671,0.059743553,-0.104163356,-0.08606614,-0.022232868,-0.054711763,-0.06959533,-0.064979024,0.036206406,0.015148401,0.05307107,-0.08826663,0.07752894,0.06543684,-0.07326383,-0.07327166,-0.09757867,0.011373832,0.01721583,0.07217398,-0.00417557,-0.03252539,0.056393832,0.04774819,-0.056809198,0.051102415,0.07784539,0.06627995,0.07454768,-0.05381935,-0.06590161,0.051855233,-0.055562325,-0.057897273,0.0843697,0.04166557,-0.032877773,-0.059735455,-0.06462309,0.056896213,0.09196856,-0.047131393,-0.08722487,-0.027890734,-0.07250199
GCNT1,0.020348374,-0.017178645,-0.0043145837,-0.0174153,-0.0058210343,-0.015491445,-0.053769287,0.030512393,0.03874413,0.020957958,-0.0050103087,-0.0016691163,0.0159163,0.023451174,-0.009622939,-0.007984471,0.057695355,0.015194509,0.021835174,-0.017515277,0.011711472,-0.026079142,-0.008277331,-0.011325326,-0.005720224,-0.010592697,-0.013007369,-0.019419178,0.016953275,-0.00030146912,-0.015912924,0.019425344,0.020068834,-0.0018121377,-0.031943724,-0.030899774,0.011217899,0.01381861,0.014850851,-0.0148137845,0.012983374,-0.009497866,-0.00972382,-0.0111769885,-0.0074056033,0.004823819,0.012821636,-0.002617476,0.000489993,-0.03970297,0.0044038035,-0.011958318,-0.018937387,0.030536667,-0.008182064,-0.005402026,-0.0067030303,-0.014075177,0.013049946,0.02288074,0.00018919632,-0.03586324,-0.0011598803,-0.008990826
HEXIM1,0.10255526,-0.1359017,0.015674211,-0.13052589,-0.14059404,-0.100727975,-0.13543722,0.16976205,0.15746883,0.10869789,-0.115989015,0.116652764,0.10466568,0.13239758,-0.007901058,0.12409909,0.20292623,0.15029192,0.12395057,-0.13007514,0.11492938,-0.1641765,-0.14170805,-0.069185436,-0.12738071,-0.14147504,-0.12490013,0.11783822,0.04725919,0.11338021,-0.16687468,0.1342698,0.12898527,-0.12659517,-0.13974804,-0.12689531,-0.021337636,0.043833863,0.13922407,0.0086006075,-0.0946931,0.13937007,0.123596475,-0.119933836,0.1042542,0.13808662,0.1385386,0.15480854,-0.1264777,-0.08315419,0.09883973,-0.13524516,-0.10661036,0.14678037,0.110442735,-0.07618188,-0.11206764,-0.11281845,0.111985445,0.16286206,-0.091370165,-0.1636975,-0.06988467,-0.14714994
PPIB,-0.009034753,-0.0013035526,-0.0016573081,0.015450031,0.026756063,-0.014563214,0.01708436,-0.0055115893,-0.014109112,0.01576152,0.017273087,0.0056926366,0.002782829,-0.040262446,-0.030777976,-0.0034116954,-0.01862108,-0.014219917,0.010562103,0.0050881803,0.008286448,0.0024531242,0.023640843,0.021286823,0.047709458,0.0115926955,0.0014967434,-0.046709668,-0.015923407,-0.02925589,0.023393154,-0.010960862,0.0014146753,0.025232427,0.022477096,-0.0051202932,0.035450947,-0.021464307,-0.0014950149,0.011025228,-0.002672471,-0.033297006,-0.02537378,-0.0006214604,-0.016999781,-0.015787758,0.0008873176,-0.048924353,0.023613837,0.028865859,-0.016988244,0.0279567,0.052132748,0.009788074,-0.030962303,-0.0027732407,0.010736819,0.017676119,-0.0069159307,-0.0033731684,-0.013107587,-0.008666068,-0.003942009,-0.0014765025
GM26825,-0.10638505,0.073732674,0.045337413,0.11247233,0.15477017,0.06599688,0.10524858,-0.12098372,-0.11160354,-0.09773412,0.115004614,-0.05689407,-0.10017814,-0.13097945,-0.008483395,-0.06778103,-0.15720868,-0.12430396,-0.1004578,0.14452392,-0.0814088,0.11400022,0.1111144,0.053970017,0.12282819,0.13818218,0.08846411,-0.12363039,-0.011629108,-0.11607781,0.15701404,-0.12179533,-0.07463013,0.15516001,0.11164607,0.12024923,0.031379975,-0.026081866,-0.11381972,-0.014091797,0.050030358,-0.14880654,-0.12077077,0.08100949,-0.11498167,-0.13253501,-0.11714186,-0.18124463,0.11295518,0.08483338,-0.09886877,0.07779101,0.11771562,-0.0629966,-0.13580203,0.053537767,0.0973583,0.119319946,-0.1038703,-0.12965527,0.070730254,0.0785984,0.051535767,0.09308951
GGTA1,0.05109828,-0.0710115,-0.022495136,-0.06718592,-0.07115174,-0.05957157,-0.07267219,0.08909337,0.08372156,0.07627754,-0.051707678,0.05735655,0.068363756,0.049470805,-0.03195361,0.052817687,0.11783849,0.0734515,0.077041164,-0.076774314,0.065488495,-0.09509855,-0.07571533,-0.016249456,-0.03667898,-0.07089355,-0.062175814,0.03386979,0.0060482137,0.04693478,-0.07915588,0.071849026,0.06507879,-0.072459824,-0.059335545,-0.093571335,0.019707546,0.006033685,0.07422355,0.011961151,-0.041858688,0.056442052,0.050517064,-0.05808165,0.0527744,0.07267545,0.0732283,0.06514069,-0.053944416,-0.044432517,0.04858046,-0.045183696,-0.03438536,0.077977315,0.043105878,-0.03907882,-0.055508614,-0.061147716,0.05425368,0.08961159,-0.057989556,-0.08248766,-0.032524712,-0.076666154
HNRNPK,-0.15117307,0.16688952,0.37938097,0.21575525,0.29275173,0.06687995,0.23242715,-0.22121626,-0.2580381,-0.30167362,0.15075582,-0.18638775,-0.37400717,-0.22031449,0.14419597,-0.10189614,-0.3973981,-0.30747008,-0.23341526,0.15908608,-0.27016342,0.35054538,0.32648638,-0.011326443,0.15335363,0.1684474,0.034724932,-0.10565722,0.11808054,-0.17630349,0.26969263,-0.2132069,-0.100737184,0.40808243,0.16357957,0.404737,-0.14325708,0.016634919,-0.16441688,-0.0851557,0.13529736,-0.27271107,-0.19548449,0.05386123,-0.26802522,-0.28936014,-0.21364613,-0.29280958,0.19573787,0.21485382,-0.21420835,0.054594398,0.06308251,-0.21357259,-0.16096365,0.09172957,0.14359942,0.24688596,-0.12704921,-0.2901469,0.20993076,0.2099936,0.07268697,0.27467358
SMS-PS,-0.015492387,-0.001234239,0.011171547,0.019864485,0.037341982,0.02118297,-0.046265423,-0.010546759,0.014142729,-0.022882095,0.044720326,-0.044201024,-0.028487895,0.015835287,0.0010508373,-0.044768088,0.032299563,-0.03588392,-0.020145047,0.030045811,-0.02809791,0.008174989,0.023073953,-0.015654337,0.02033139,0.029026723,0.028867532,-0.047794923,0.03224057,-0.0428664,0.038803175,-0.020393908,-0.014326308,0.05002502,-0.015054349,0.0018430594,-0.0013607396,0.018092882,-0.017848134,-0.027825527,0.04986753,-0.04724983,-0.04559169,0.028568983,-0.04901251,-0.04617219,-0.04353882,-0.04504294,0.033761036,-0.046332598,-0.026803773,-0.0011627646,-0.009383611,-0.003984086,-0.04710526,0.010521182,0.03946721,0.005974695,-0.02298076,-0.02560807,0.037952654,-0.010260563,0.04354046,0.033498105
TXNDC12,-0.002629593,0.010748059,-0.0041332496,0.011942033,0.028031036,0.0038333312,-0.023388948,-0.0047766864,0.0075270683,-0.00074505806,0.017822467,-0.021621745,-0.0054497663,-0.0067777885,-0.007597007,-0.03252545,0.01418772,-0.016738772,-0.0016669147,0.008860942,-0.010338223,0.0074442755,0.02411883,0.0012568794,0.023417152,0.018596927,0.010241501,-0.049401514,0.007958535,-0.025097664,0.021862753,-0.010580152,-0.0013982244,0.028901126,-0.0033429805,-0.0012437981,0.017370641,0.0075680353,-0.015338566,-0.018344017,0.027842242,-0.039473265,-0.037865836,0.012169853,-0.028755667,-0.02508061,-0.01343919,-0.042052783,0.027954064,-0.015915811,-0.02050377,0.012518236,0.007923387,0.005833961,-0.034389943,0.010569387,0.016433325,0.014799368,-0.010562286,-0.009342261,0.014637724,-0.003937576,0.010739461,0.020598238
GHR,0.0007047653,0.02253759,0.0038953857,0.027455337,0.036793694,0.017432459,-0.052747946,-0.0072768033,0.010202788,-0.018196885,0.034191754,-0.05385647,-0.027486216,0.0147014465,0.010899637,-0.057486366,0.03345637,-0.037672143,-0.010701202,0.0138429515,-0.03733729,0.012081748,0.030225148,-0.016178232,0.0042394847,0.024609542,0.009706784,-0.061901797,0.033330902,-0.027776962,0.04155948,-0.006947629,-0.00894421,0.05407267,-0.025704985,0.008014964,-0.0045024194,0.03126907,-0.023957938,-0.032252364,0.0607048,-0.05818958,-0.052211497,0.026813932,-0.048977077,-0.04578938,-0.036864955,-0.048106417,0.034754142,-0.048828676,-0.03331046,-0.00040678214,-0.026839998,-0.011329599,-0.0492751,0.021691656,0.03408998,0.011829913,-0.017042633,-0.022105463,0.04058072,0.0033923164,0.039761405,0.04342503
PCBP2,-0.11512698,0.14547248,0.16636404,0.14626825,0.22431752,0.04660953,0.12028139,-0.19163966,-0.21422549,-0.1516538,0.13618287,-0.12642209,-0.17688884,-0.15864307,0.06682453,-0.15422472,-0.17492917,-0.19854355,-0.1682732,0.16598436,-0.17671941,0.19928218,0.18847477,-0.0067798533,0.14209306,0.1507135,0.058709044,-0.1492945,0.0418484,-0.11883372,0.24463609,-0.14168994,-0.122543976,0.2669592,0.11715472,0.21218883,0.00509427,-0.0029719137,-0.1233602,-0.06099692,0.1163983,-0.22089039,-0.13676287,0.10426201,-0.19480644,-0.2157903,-0.1564138,-0.25898504,0.15011133,0.12626086,-0.16458555,0.10328294,0.10249256,-0.12918374,-0.15949476,0.0852467,0.13694778,0.1631145,-0.15100001,-0.21226528,0.14454545,0.14067948,0.12442836,0.16846843
PTPN3,0.02711856,-0.034303714,-0.005823888,-0.032077186,-0.020195108,-0.030276496,-0.062022433,0.048033148,0.05301886,0.037925918,-0.018412655,0.013238361,0.027414355,0.035172313,-0.01461596,0.010073863,0.07584605,0.0304005,0.03442988,-0.032028683,0.027774649,-0.0429414,-0.02586944,-0.013960373,-0.013447806,-0.026004324,-0.028007688,-0.0053534834,0.016635187,0.011265721,-0.036600806,0.034045506,0.033424858,-0.020155258,-0.040878188,-0.04752875,0.011849807,0.010337297,0.031709157,-0.011497427,-0.0054925606,0.008714605,0.0078949,-0.024548091,0.0087610725,0.02221651,0.028704694,0.01391465,-0.011419384,-0.041009046,0.019308068,-0.021787914,-0.023169093,0.04522673,0.0054787546,-0.01837435,-0.024300959,-0.026384823,0.028909853,0.042431712,-0.012995999,-0.05244829,-0.010392569,-0.02675596
RBM38,0.002166234,-0.01436167,0.008702319,-0.0006155409,0.018308356,-0.0022719242,-0.041468695,0.01909341,0.025733452,0.0006118603,0.01536274,-0.009441083,-0.0046110693,0.016911639,-0.004082851,-0.009497192,0.04315687,-0.003907375,0.0009633973,0.008591656,-0.0029497258,-0.015634662,0.00030975416,-0.010102678,0.0038729347,0.006452089,-0.002195321,-0.03163313,0.022470511,-0.017839093,0.0067662857,0.0063485876,0.008812539,0.021588426,-0.02295458,-0.012352333,0.005186026,0.01532257,-0.0025796704,-0.018179415,0.0128033385,-0.02424307,-0.017026946,0.003670089,-0.021910116,-0.015235058,-0.013205839,-0.020748805,0.011922192,-0.036738303,-0.007457163,-0.010680476,-0.009617418,0.023630437,-0.0268884,-0.004742565,0.007839587,-0.00016076863,0.0049181003,0.006507758,0.01789131,-0.03349205,0.012154985,0.00051252125
CREB3,-0.069441125,0.06508309,-0.11648926,0.07770877,0.07682985,0.052116178,0.027711742,-0.086703256,-0.0376513,-0.022971626,0.11471659,-0.037461296,0.007809028,-0.056534722,-0.049164645,-0.07551521,-0.0008028224,-0.07823217,-0.02554963,0.06397185,-0.05523731,0.017665317,-0.007849231,0.042119604,0.09921593,0.04974938,0.07859206,-0.09628466,-0.08247761,-0.04211103,0.08582363,-0.07407491,-0.10582334,0.010219928,0.069026664,-0.04973358,0.08371939,-0.06537938,-0.030876916,-0.015350351,0.024740938,-0.056552045,-0.08354996,0.11741465,-0.027527804,-0.03609309,-0.1071696,-0.06237773,0.069815375,0.00919956,-0.055172976,0.10882808,0.081263416,-0.061486147,-0.07391259,0.090101786,0.11564717,0.10256332,-0.11131178,-0.02429485,-0.008782748,0.06438727,0.12858292,0.07583703
PRDX4,0.039882563,-0.06854729,-0.036678087,-0.0554431,-0.06678042,-0.06560547,-0.051564723,0.08014991,0.07005708,0.08270064,-0.045756847,0.056836627,0.07437962,0.035301775,-0.04605297,0.056825183,0.10133441,0.06790681,0.0795501,-0.069454014,0.06827361,-0.0939942,-0.074113384,0.0012823083,-0.013462532,-0.06478488,-0.05834374,0.022062078,-0.011997201,0.042192105,-0.069431625,0.06854138,0.05763048,-0.072437495,-0.040372916,-0.100210875,0.03784055,-0.013330404,0.07413198,0.027001344,-0.04802879,0.053333722,0.044813868,-0.051546555,0.04835105,0.06997583,0.07240191,0.056563452,-0.045263402,-0.024700172,0.046137832,-0.027348826,-0.008441873,0.07000078,0.030254737,-0.040367454,-0.049864825,-0.053677652,0.04983357,0.0861161,-0.065878436,-0.07392956,-0.02922805,-0.07789523
SKIL,-0.10495308,0.123901606,-0.08381796,0.111489944,0.1097378,0.1252211,-0.020675678,-0.11326069,-0.04923185,-0.09249099,0.1438054,-0.12614381,-0.089220285,0.018178416,0.06537881,-0.12149282,-0.04439061,-0.10628335,-0.070689395,0.13156123,-0.09772745,0.09723206,0.077809736,-0.016657576,0.09096832,0.14030908,0.12007445,-0.14117472,0.0070856176,-0.11811973,0.13082206,-0.112303466,-0.11215347,0.10115516,0.021922084,0.027799608,0.02038813,0.012204852,-0.117883265,-0.052237935,0.09627293,-0.08502716,-0.08563389,0.13304298,-0.094714284,-0.11558062,-0.13254073,-0.09130714,0.11201671,-0.07915653,-0.08834399,0.08765226,0.006471373,-0.13810936,-0.10663771,0.1032556,0.1414658,0.088419855,-0.12298651,-0.12479482,0.09213759,0.11616377,0.1358027,0.13067818
MIR466B-4,0.119322464,-0.15853055,0.008548423,-0.1434778,-0.20849432,-0.118130386,-0.12582147,0.22651316,0.18826048,0.134228,-0.13712181,0.1509768,0.15349928,0.16133289,-0.029743142,0.15162282,0.25087756,0.18090183,0.17803359,-0.16600244,0.1656645,-0.21447037,-0.17219351,-0.069304496,-0.13534099,-0.17425561,-0.16731727,0.14735265,0.016197916,0.14863841,-0.19997305,0.16943428,0.17059773,-0.14234272,-0.15368818,-0.14420263,-0.0015419768,0.047035884,0.16646549,0.030890025,-0.12584507,0.1770355,0.1634202,-0.15152705,0.12609915,0.17429653,0.16845965,0.21172558,-0.15931022,-0.0843401,0.122064725,-0.14522229,-0.10754938,0.16176409,0.106836535,-0.1069347,-0.14457384,-0.13918868,0.14163095,0.18466204,-0.1198881,-0.185446,-0.10037039,-0.17096765
ZFPM1,-0.1440925,0.20968758,0.117506444,0.17764458,0.22468367,0.12353643,0.082847245,-0.2202782,-0.20074119,-0.21100587,0.16228515,-0.20340723,-0.24252623,-0.086472735,0.15322718,-0.19133249,-0.2544902,-0.25583577,-0.20289277,0.1643505,-0.22628617,0.26935792,0.25213054,-0.07719052,0.11079145,0.18952435,0.11701152,-0.18541288,0.057245113,-0.15744533,0.22943121,-0.18205589,-0.12909824,0.3129187,0.051263347,0.26296425,-0.09156485,0.07570247,-0.20304024,-0.12286198,0.1549504,-0.22819309,-0.2076171,0.12747347,-0.22262625,-0.27704757,-0.2157649,-0.22605222,0.17242073,0.021968901,-0.21163066,0.12718505,0.014751844,-0.21523958,-0.16518846,0.13483667,0.18712384,0.21180725,-0.15929045,-0.22598487,0.21090798,0.19300836,0.16378643,0.2643315
GM25926,0.049156487,-0.048265528,0.009071482,-0.05348699,-0.045377553,-0.037181556,-0.08878588,0.07388416,0.079368204,0.040487614,-0.03648379,0.02482708,0.035974976,0.0675007,0.002255708,0.025945134,0.10591613,0.049401656,0.04802979,-0.04955831,0.035036393,-0.06255403,-0.046234,-0.04194474,-0.052459627,-0.048151262,-0.04829539,0.019076739,0.038434412,0.036651682,-0.057781957,0.059810814,0.05253946,-0.027814291,-0.073844776,-0.053617306,-0.010298686,0.034417566,0.048804265,-0.014625192,-0.0032672212,0.027147338,0.028626766,-0.04491323,0.019513575,0.036265824,0.047376137,0.048113048,-0.03701722,-0.06751982,0.028728928,-0.05684556,-0.06280838,0.059491616,0.026768684,-0.025042405,-0.035709314,-0.04332247,0.042482182,0.061896704,-0.012893204,-0.076295316,-0.01360105,-0.046565775
GGA2,-0.0002005063,-0.0109284,9.492412e-05,0.0015164316,0.015052721,-0.016914625,-0.008149087,0.010014616,0.0041699335,0.020674635,0.0066685714,0.0044981055,0.006853249,-0.014302332,-0.022539705,0.0012162775,0.012512922,-0.0042741,0.013524409,-0.008592881,0.010696899,-0.0086182,0.009690616,0.010749128,0.029838383,4.005991e-05,-0.011213385,-0.037588965,-0.0034296662,-0.017271094,0.0026350245,0.0032194182,0.012178827,0.011604354,0.0028817225,-0.010372546,0.026612777,-0.009877885,0.0032144971,-0.00021606684,-0.004199527,-0.021237,-0.01562215,-0.008334257,-0.007693013,-0.005680305,0.0049396823,-0.030048454,0.013337391,0.0058329552,-0.007150665,0.012368835,0.027074657,0.019925851,-0.02330932,-0.010983709,-0.004564151,0.004890144,0.005649604,0.007583117,-0.008760538,-0.02056954,-0.0053618774,-0.0064026485
PHGDH,0.041770995,-0.0649223,0.0024543256,-0.05156423,-0.047428615,-0.04693308,-0.062487204,0.07572543,0.070473276,0.045179192,-0.034702238,0.04211583,0.04149923,0.046987332,-0.021091156,0.047265723,0.091275446,0.05214753,0.05122264,-0.042812772,0.048993915,-0.07238073,-0.057328116,-0.020904291,-0.036105447,-0.047810502,-0.04380564,0.02438417,0.018601414,0.031512324,-0.058414686,0.051494166,0.050921686,-0.037786834,-0.05360666,-0.0641701,0.006688471,0.015745156,0.058261286,0.006164901,-0.029116444,0.03488797,0.033008408,-0.048510846,0.023767767,0.045388427,0.048542824,0.04457837,-0.03616234,-0.042787135,0.038105104,-0.046905346,-0.031265818,0.068790205,0.0248685,-0.031232225,-0.03344576,-0.041859746,0.039774425,0.06723091,-0.03303199,-0.08164052,-0.022165691,-0.063340634
PCBD1,0.008205187,-0.0039604045,-0.11045188,-0.017699424,0.0077211335,-0.015581217,0.02481822,-0.016017996,0.04706044,0.09256905,0.0137254335,0.08438596,0.08070806,-0.02375791,-0.10228341,0.02678603,0.041152906,0.016446069,0.03716619,-0.032114558,0.01886222,-0.05500391,-0.11487414,0.047743015,0.040269114,-0.030297345,-0.0015285611,0.012887593,-0.10540773,0.040601056,-0.030600538,0.002990812,-0.045855846,-0.057685845,0.047676116,-0.08845736,0.083896615,-0.0959261,0.03942834,0.009291805,-0.07042477,0.055340827,0.0055903457,0.02805692,0.07810017,0.086902685,0.023783246,0.029976122,0.0008072946,0.04695995,0.037476126,0.026105065,0.08324712,0.034176193,0.042601038,0.020639317,-0.01636268,0.05738002,-0.057624657,0.07170119,-0.0853762,-0.0010662302,0.059053984,0.004905026
MDM2,-0.107545376,0.07334378,-0.1307674,0.093164064,0.10517985,0.04950767,0.033127658,-0.13394003,-0.082505554,-0.03364853,0.13891405,-0.033174947,0.03233402,-0.11578309,-0.09240242,-0.11386195,0.050964992,-0.069602475,-0.022492204,0.108568266,-0.07241543,-0.014198689,-0.0053846426,0.078543365,0.15837115,0.053702243,0.11418617,-0.114926025,-0.113660455,-0.049315676,0.15328214,-0.08348365,-0.1400884,-0.0062509775,0.12257309,-0.092189744,0.15970162,-0.10210845,-0.018103376,0.0031529963,0.043022178,-0.08196662,-0.089450106,0.15261498,-0.03940329,-0.05658902,-0.09928127,-0.13081387,0.09207672,0.030167185,-0.064369395,0.14614062,0.1292851,-0.053039975,-0.11009849,0.090111345,0.15502378,0.08333601,-0.15323727,-0.060638882,-0.010642011,0.058470406,0.17956173,0.06426963
BSG,-0.05798085,0.035180435,0.012263329,0.064221285,0.08452153,0.020495757,0.07162284,-0.06588681,-0.06774786,-0.026902802,0.06500669,-0.019054707,-0.041567042,-0.095200144,-0.022593036,-0.02948808,-0.09464887,-0.06957205,-0.037957743,0.054419477,-0.028333982,0.05783906,0.07105107,0.04607382,0.08900217,0.061267108,0.03176904,-0.08586313,-0.024069682,-0.06883355,0.08688741,-0.05997578,-0.032240357,0.07979266,0.07192552,0.05926373,0.040359918,-0.030941535,-0.05266845,0.003404785,0.009691887,-0.082938135,-0.06678318,0.03562522,-0.04816611,-0.066758655,-0.051603954,-0.11247773,0.06242013,0.0722367,-0.05909605,0.057193533,0.09430521,-0.0261411,-0.078827254,0.021028072,0.045846697,0.066824816,-0.047558438,-0.057661057,0.014021665,0.039401203,0.015515957,0.04111463
GTF2I,-0.12815168,0.10560784,-0.088531375,0.10794882,0.11559215,0.09829665,-0.015976127,-0.11556089,-0.07580337,-0.08510871,0.1487047,-0.08520385,-0.04742173,-0.03582818,-0.016680516,-0.13275951,0.048593856,-0.09531449,-0.04652894,0.13905478,-0.11224069,0.027669309,0.03150198,0.025211181,0.14082137,0.09515823,0.1270352,-0.13084336,-0.048250094,-0.08183019,0.13466713,-0.109186605,-0.12815931,0.048618305,0.07543494,-0.030614944,0.10391475,-0.03296561,-0.08110511,-0.04220771,0.08006707,-0.0879642,-0.089316025,0.13677889,-0.06114831,-0.090693325,-0.12344973,-0.121234484,0.11250322,-0.051532634,-0.06599562,0.14149699,0.048350483,-0.09327123,-0.13111931,0.09147637,0.16084352,0.07574321,-0.14470287,-0.11151279,0.045717113,0.08459235,0.18649346,0.087714694
MIR6357,0.06778529,-0.096071616,0.023392607,-0.09379454,-0.09066298,-0.06590136,-0.11234178,0.11823327,0.11919351,0.07061736,-0.07273735,0.0783537,0.06418674,0.1124103,0.009282462,0.08190577,0.15040042,0.100808874,0.08392955,-0.085855186,0.08060399,-0.113141365,-0.09753603,-0.065819785,-0.10213159,-0.0949364,-0.086555704,0.078254715,0.049853574,0.08374822,-0.110055104,0.09642043,0.10139936,-0.07925209,-0.11589422,-0.0819602,-0.028903138,0.04919171,0.09341806,-0.0076643527,-0.061929576,0.08736129,0.08249606,-0.086799175,0.07126944,0.08417063,0.0892337,0.10498226,-0.08661321,-0.08031257,0.06470479,-0.10793634,-0.09168601,0.109359495,0.06949861,-0.04953097,-0.07156809,-0.078399085,0.07670289,0.11431307,-0.055559162,-0.1206902,-0.038497183,-0.10102412
GM25787,0.066043906,-0.093599975,-0.015669584,-0.08169198,-0.09678069,-0.08174348,-0.0811967,0.11183208,0.09872165,0.08764598,-0.06724836,0.07256015,0.08147064,0.0672358,-0.030599155,0.083226904,0.13193415,0.09483549,0.092486456,-0.088499084,0.083879955,-0.11452987,-0.094653964,-0.025743779,-0.05526632,-0.086807765,-0.08246894,0.053783413,0.011534647,0.066479206,-0.103953436,0.09229562,0.08034465,-0.083109014,-0.07654073,-0.109291896,0.012444417,0.005731132,0.10110511,0.021418829,-0.058992244,0.07774466,0.072218955,-0.07725297,0.059454203,0.087942034,0.094865814,0.090283565,-0.074011244,-0.04560909,0.06723807,-0.06623686,-0.0481145,0.09198251,0.05778809,-0.05346097,-0.06674455,-0.07424466,0.06943214,0.11464381,-0.06819241,-0.11002719,-0.041948184,-0.10529552
SURF4,-0.05437868,0.051945917,0.02497733,0.06899319,0.10280919,0.024223052,0.075114824,-0.07918665,-0.0764676,-0.03377813,0.057181712,-0.027918924,-0.047706965,-0.09890702,-0.010632202,-0.041920613,-0.1162781,-0.07087549,-0.04450012,0.061185252,-0.03574416,0.079201005,0.09658891,0.033927366,0.08599048,0.06782605,0.040254224,-0.08946353,-0.015264705,-0.07216601,0.092608236,-0.06711826,-0.031005304,0.09279114,0.070389874,0.07607585,0.031956233,-0.024863698,-0.06549965,-0.0020236224,0.018014628,-0.09100833,-0.072484896,0.036391705,-0.058400393,-0.07743274,-0.048384514,-0.12620625,0.06965551,0.07808067,-0.06913753,0.059198596,0.09648018,-0.031794287,-0.07313041,0.028455064,0.04900017,0.07901437,-0.047351692,-0.06848158,0.023524709,0.05162216,0.009978663,0.05852666
GM44330,0.06922597,-0.111263454,0.0022249809,-0.098771065,-0.10282936,-0.073451675,-0.12126452,0.12785572,0.12918532,0.08333525,-0.07591614,0.08682914,0.085311145,0.10680085,-0.00944984,0.08373721,0.1801414,0.113254964,0.098642096,-0.09540297,0.089531586,-0.13785845,-0.115771174,-0.050363984,-0.09622862,-0.11050629,-0.09516211,0.083610624,0.039937552,0.08972938,-0.11969503,0.102780335,0.09586866,-0.100174315,-0.10709801,-0.10786604,-0.01044037,0.034162063,0.10538544,-0.00022840127,-0.06922882,0.10570559,0.09211367,-0.07914582,0.082175106,0.10580444,0.09587939,0.11670917,-0.09729902,-0.07888982,0.07550807,-0.10230562,-0.08255187,0.115567476,0.071205385,-0.056198582,-0.07828133,-0.090871885,0.079702616,0.123887315,-0.07341428,-0.12791759,-0.037209146,-0.10550614
ICAM1,-0.04599876,0.046701394,0.03453886,0.061145067,0.09009546,0.05663354,-0.031948306,-0.05757632,-0.035819158,-0.06665972,0.08647555,-0.09492066,-0.083612844,-0.0019715782,0.030841313,-0.09165117,-0.024511784,-0.08817376,-0.06505883,0.07254548,-0.07595156,0.07092728,0.0789966,-0.022513695,0.045867197,0.08144821,0.046175245,-0.0955137,0.050249606,-0.07616567,0.084360816,-0.062000677,-0.043382067,0.118325114,0.007517053,0.06390229,-0.016243432,0.028596055,-0.07424149,-0.06466097,0.09506605,-0.10294715,-0.09772397,0.062458575,-0.097037,-0.10771939,-0.09778857,-0.104522154,0.077742,-0.049174875,-0.06385584,0.024802247,-0.012253135,-0.048062347,-0.09368151,0.037323844,0.0732099,0.03496068,-0.05646478,-0.08074001,0.091597885,0.034725852,0.0758294,0.089537464
RPL15-PS3,0.049887422,-0.083491325,-0.008755525,-0.06348616,-0.075361684,-0.060951903,-0.059693776,0.09506133,0.08583749,0.0616575,-0.045592494,0.06680147,0.06327699,0.061196066,-0.029848762,0.07086624,0.10157874,0.071220756,0.07274097,-0.054499056,0.072930075,-0.09499676,-0.085377604,-0.020044066,-0.04728426,-0.062439308,-0.05822626,0.04370035,0.009818232,0.05201942,-0.07346009,0.062687054,0.06823132,-0.059722997,-0.060138054,-0.084512465,0.008900306,0.015312564,0.078889854,0.018616196,-0.049035735,0.056991644,0.04933187,-0.060856134,0.042620406,0.06771193,0.06491971,0.06909345,-0.05520191,-0.043822195,0.05489845,-0.058428958,-0.0343364,0.082235344,0.036473505,-0.036422588,-0.046609353,-0.05272989,0.04624638,0.08908092,-0.05862325,-0.09046144,-0.030423816,-0.08800505
SNX2,0.016234271,-0.02137157,0.0010719476,-0.010864466,-0.0018335357,-0.033829477,-0.011382852,0.024639376,0.013817973,0.035532232,-0.0111486,0.015129441,0.019926962,-0.013434919,-0.028639331,0.0147174895,0.016815834,0.013396386,0.029999014,-0.0239963,0.025820455,-0.020008577,0.00010807812,0.00707978,0.019463204,-0.01303266,-0.019181114,-0.021095073,-0.0048473254,-0.0073047094,-0.015045702,0.01634651,0.022988023,-0.0012348145,-0.0060597733,-0.028190155,0.02710202,-0.012377527,0.023015656,0.012005325,-0.011334814,-0.005670186,-0.0056883134,-0.023821563,-0.002555389,0.009461273,0.026886798,-0.014772838,0.0019842293,0.008300617,0.002880454,0.006604152,0.024401672,0.030565009,-0.0056678616,-0.017498598,-0.012571299,-0.007018894,0.016773414,0.025321912,-0.022202525,-0.03394015,-0.019197524,-0.022466678
ATG16L2,0.070966445,-0.09480144,-0.023415156,-0.09306939,-0.10314834,-0.07849136,-0.09951268,0.12508704,0.1152276,0.09535056,-0.076924965,0.078483626,0.0884438,0.07918536,-0.030678503,0.076557174,0.16247523,0.10082269,0.09832938,-0.10548745,0.0831594,-0.13045421,-0.10833591,-0.03082085,-0.06694811,-0.098289765,-0.086729646,0.063912496,0.013056412,0.07207069,-0.11706722,0.09943696,0.08653034,-0.09857426,-0.087637596,-0.11770201,0.012048506,0.016423684,0.09794001,0.010758828,-0.059030242,0.087500215,0.07900828,-0.08205666,0.07394503,0.105223514,0.09762314,0.102912806,-0.081863634,-0.062360372,0.0690606,-0.074799515,-0.062295474,0.10061665,0.06746164,-0.05460634,-0.07791501,-0.08385347,0.075166315,0.120534964,-0.07032041,-0.10930073,-0.04685109,-0.10427038
TTC7,0.08367718,-0.112158656,-0.017530456,-0.10710062,-0.119479075,-0.089089915,-0.10360016,0.13721865,0.12701151,0.10627881,-0.09071289,0.09352376,0.09801459,0.09274731,-0.029361494,0.09440072,0.16841483,0.12070817,0.108426586,-0.11540593,0.09981668,-0.1426701,-0.122164875,-0.03809346,-0.08242557,-0.111995526,-0.098441936,0.0808392,0.015272003,0.086223096,-0.13392578,0.11051908,0.10154064,-0.10917676,-0.09749446,-0.12592778,0.0079198135,0.019476935,0.11259566,0.014867336,-0.0688538,0.10198222,0.088609844,-0.0967809,0.082717046,0.116987675,0.113231435,0.1179547,-0.09575718,-0.06726803,0.0821318,-0.08875326,-0.071123436,0.114312395,0.08037604,-0.0640266,-0.09132568,-0.09333756,0.085721195,0.13873005,-0.08170584,-0.123853445,-0.053781755,-0.11723101
RBBP7,-0.19901565,0.19828513,0.101592705,0.22496879,0.26898068,0.13467756,0.13399878,-0.26617318,-0.22501387,-0.2565445,0.21488547,-0.21157028,-0.24494803,-0.16029893,0.08779183,-0.20604041,-0.26364443,-0.25761193,-0.18276297,0.21823469,-0.23357256,0.28105623,0.25817257,0.027511798,0.194606,0.19885004,0.15345618,-0.19730137,0.0187819,-0.18712713,0.29713228,-0.23487161,-0.16422804,0.29293624,0.14381395,0.23313387,-0.0045418376,0.0042927004,-0.19241102,-0.06451844,0.17737758,-0.26094782,-0.22823927,0.17838246,-0.23960376,-0.27823588,-0.25727442,-0.27713427,0.21434526,0.06856242,-0.2079236,0.1607706,0.078346185,-0.21674493,-0.22631773,0.16147545,0.23695901,0.21632355,-0.19561508,-0.2716165,0.18919642,0.2208432,0.16990018,0.26090243
CTBP2,-0.09523088,0.06626825,0.034019075,0.09737965,0.14128704,0.08802133,0.019278921,-0.10179788,-0.068713814,-0.09357333,0.12593073,-0.10024922,-0.10577284,-0.056323282,0.0171442,-0.10948314,-0.07407653,-0.11809032,-0.0995481,0.13038495,-0.094248086,0.099339925,0.10202859,0.011213714,0.10062138,0.12744482,0.094596356,-0.12337415,0.028589826,-0.123234406,0.1419915,-0.107364014,-0.078978285,0.13984647,0.05849456,0.089352734,0.006075534,0.0008342378,-0.10525513,-0.05035453,0.08500253,-0.1367426,-0.117707774,0.1013096,-0.1165298,-0.13840376,-0.13778381,-0.15391743,0.111453295,-0.008577473,-0.09238443,0.05753748,0.047602333,-0.07674899,-0.12993279,0.048008848,0.10371134,0.07825814,-0.09641366,-0.119869,0.0976693,0.062359937,0.08859123,0.1145006
HCFC1,-0.14363638,0.19798622,0.26355094,0.18113291,0.24772009,0.10429961,0.115327574,-0.19818997,-0.21443294,-0.24889594,0.1431965,-0.19922143,-0.31256342,-0.09814385,0.19670138,-0.13293868,-0.29795644,-0.26389018,-0.2169566,0.15499723,-0.23817457,0.2971611,0.2785177,-0.101594836,0.090904154,0.17271256,0.06712225,-0.15431777,0.13286021,-0.16682877,0.21207592,-0.18778545,-0.08705528,0.358675,0.05664955,0.3420199,-0.1634484,0.10631625,-0.18701163,-0.1263564,0.14612636,-0.22492616,-0.15223089,0.06795035,-0.22571519,-0.28301033,-0.18174575,-0.25007752,0.16726984,0.06984815,-0.20174308,0.062058076,0.0005389005,-0.20796797,-0.12908688,0.097413205,0.14251548,0.20017213,-0.12524317,-0.25730535,0.2155202,0.18400213,0.10185711,0.24392268
SIRT1,-0.118679196,0.15355141,0.10715683,0.1313658,0.16786402,0.10009385,0.05177427,-0.15004481,-0.13330086,-0.16045642,0.12228358,-0.13648088,-0.19454594,-0.05721295,0.117857136,-0.11958262,-0.15047926,-0.17332685,-0.13684933,0.13679707,-0.16947708,0.17732975,0.16233806,-0.044483583,0.098729424,0.1350435,0.07913844,-0.1238125,0.059604324,-0.12341216,0.15701956,-0.13116294,-0.093952015,0.2203919,0.05514337,0.18184924,-0.056468606,0.046910103,-0.14589003,-0.08623612,0.0965835,-0.14031479,-0.110127166,0.08474207,-0.14228714,-0.18144372,-0.13030411,-0.16541234,0.12998776,0.015722215,-0.13487747,0.0751026,0.012948133,-0.1560033,-0.11168244,0.08118754,0.12171742,0.14087838,-0.12647045,-0.18164125,0.14225374,0.13440505,0.12109089,0.16978595
HMGA1B,-0.024414033,-0.022395954,-0.027250811,0.020296201,0.039108247,0.026152484,-0.033105493,0.0049665906,0.035498463,-0.0033923835,0.053625893,-0.010944094,0.0037929453,-0.0029235054,-0.05389449,-0.02737496,0.081979506,-0.02126224,0.0063157566,0.034088526,-0.0069440994,-0.039397188,-0.014415693,0.014756551,0.05553741,0.014101898,0.05144221,-0.039948855,-0.009142026,-0.030614942,0.047523968,-0.014210008,-0.036831338,-0.0063666664,0.025833813,-0.050569974,0.06672059,-0.021156704,-0.0045857504,0.009038925,0.020648967,-0.022940796,-0.022979304,0.044957936,-0.02116772,-0.00072722416,-0.041299332,-0.022049516,0.017612372,-0.03109748,-0.006785568,0.00869986,0.043490484,0.012326952,-0.05312123,0.003025848,0.039037447,-0.0063007474,-0.03089708,-0.015948024,-0.0026702322,-0.020302318,0.056396436,0.010129372
KDM3A,-0.07867804,0.06251543,0.027748682,0.08323092,0.11833909,0.07476472,-0.0071672946,-0.08927946,-0.054740824,-0.085375115,0.10900456,-0.10080553,-0.0933492,-0.03432294,0.02121196,-0.10814215,-0.045112044,-0.103974715,-0.08348084,0.10903275,-0.0882685,0.08733476,0.09082912,0.00169985,0.08263933,0.1118781,0.07884051,-0.1133758,0.034470882,-0.10221635,0.1179306,-0.088096306,-0.064973086,0.12710942,0.04054424,0.07267183,0.0023454735,0.007969908,-0.09400329,-0.053898986,0.091573715,-0.12348342,-0.10367294,0.08697185,-0.10629184,-0.12664536,-0.12222773,-0.12995042,0.09945471,-0.025615111,-0.079089254,0.046886437,0.021184437,-0.06635413,-0.11920603,0.04776393,0.091548234,0.060398072,-0.08197527,-0.105436794,0.09354004,0.053316645,0.08362867,0.09993301
MEF2D,-0.12393941,0.11162691,-0.18119687,0.09707526,0.09677762,0.1150805,-0.046497006,-0.12210539,-0.05293823,-0.051289003,0.16234498,-0.093190126,-0.0035448298,-0.008682631,-0.020801418,-0.16987097,0.06770157,-0.08068031,-0.034926012,0.1426868,-0.085674904,0.014375817,0.025953386,0.028718524,0.1330426,0.10065747,0.15186691,-0.1524887,-0.07351496,-0.09005968,0.14230734,-0.10330345,-0.14877126,0.026077017,0.047990084,-0.07321131,0.1250216,-0.028695134,-0.094181344,-0.038038835,0.100568466,-0.08440733,-0.105901435,0.17210573,-0.062108196,-0.086390615,-0.12860996,-0.10194864,0.110310085,-0.10505573,-0.08201693,0.16208762,0.047549605,-0.09796796,-0.14010063,0.10525489,0.18630446,0.07161227,-0.15521416,-0.10047855,0.053727686,0.086444445,0.19960836,0.094266705
GFPT2,0.025901835,-0.05073157,-0.0062902616,-0.03553155,-0.034548864,-0.020021651,-0.086140156,0.059552114,0.071465075,0.030579891,-0.009173057,0.012813939,0.033836257,0.056050673,-0.011215366,0.015151054,0.119330436,0.03565906,0.043679904,-0.032089822,0.02969224,-0.06938454,-0.049048427,-0.027252387,-0.027598668,-0.044020593,-0.026197966,0.008685036,0.030797537,0.018751767,-0.03991375,0.043683186,0.0319691,-0.027963229,-0.053188868,-0.063731305,0.009170125,0.022445776,0.03897207,-0.010636978,-0.0009362176,0.028607607,0.023581777,-0.01659067,0.016940458,0.033086892,0.026745543,0.034378465,-0.030005323,-0.06682286,0.024150472,-0.04005324,-0.039749116,0.051727906,0.00755715,-0.022751879,-0.018340692,-0.044610508,0.026433438,0.045550458,-0.018783111,-0.06890209,0.010440532,-0.034941148
FNDC3B,0.018699512,-0.02179658,-0.022058915,-0.018432861,-0.014566995,-0.01933536,-0.05049856,0.033589732,0.041532636,0.030421745,-0.0048593786,0.0022285208,0.027026076,0.017033918,-0.020249158,-0.0030937567,0.0688205,0.017177269,0.030258324,-0.026869258,0.01608288,-0.038109645,-0.022816293,-0.00063193217,-0.002647087,-0.017249618,-0.018645238,-0.020771544,0.0058202185,0.0010897666,-0.016712058,0.024775155,0.020909835,-0.013863057,-0.028177949,-0.045572072,0.021250635,0.004916016,0.022103313,-0.0068287514,0.004617743,-0.0026141107,-0.0016938634,-0.007952362,0.003793763,0.015173285,0.015794875,0.0041199275,-0.0030630957,-0.03596131,0.007667288,-0.009455273,-0.014773637,0.033555664,-0.0070613585,-0.0047042794,-0.009137858,-0.017193913,0.013125771,0.030664,-0.0128816925,-0.03578921,-0.0009421818,-0.016864765
EHMT2,-0.1759959,0.17440566,-0.0022170087,0.19328505,0.21613145,0.12560329,0.0865454,-0.23294115,-0.17420241,-0.19983044,0.20311649,-0.17920685,-0.17230546,-0.117464945,0.05121339,-0.19606774,-0.16267736,-0.20633158,-0.13443252,0.19229564,-0.18198729,0.200556,0.18161863,0.037367105,0.18046606,0.161327,0.15917537,-0.18811058,-0.025695294,-0.15132655,0.24677423,-0.20465346,-0.16942443,0.20464778,0.121371195,0.13229312,0.047708146,-0.012326678,-0.16303854,-0.05446337,0.15206397,-0.20571615,-0.20512635,0.18835944,-0.18689309,-0.22125259,-0.22930449,-0.22199674,0.18893711,0.017171241,-0.17340516,0.17181669,0.068860956,-0.17845163,-0.20654124,0.15264268,0.2260679,0.18121402,-0.18574066,-0.2161777,0.14526632,0.18658403,0.1902012,0.21566871
KIT,-0.04747224,0.043537647,0.0028484045,0.05326827,0.07378459,0.038240373,-0.0037465394,-0.05272311,-0.02667395,-0.040055487,0.06462978,-0.059512936,-0.046763226,-0.031481132,0.007632941,-0.069729835,-0.009857044,-0.066866875,-0.04499576,0.05662358,-0.053887963,0.046424694,0.049785513,0.01855117,0.05462291,0.06971903,0.040067945,-0.09141758,0.009831175,-0.06686963,0.07922416,-0.046874717,-0.03470136,0.0729328,0.024400396,0.03670959,0.015563383,0.0034161247,-0.053881552,-0.038138263,0.047862798,-0.08192423,-0.0647292,0.056885064,-0.057140827,-0.07438935,-0.07113607,-0.09001843,0.067742206,-0.006362006,-0.04960968,0.027764207,0.020713165,-0.028717019,-0.08329995,0.0340857,0.047402594,0.049340174,-0.049330216,-0.04931526,0.04845626,0.030178495,0.04167174,0.060440417
GM23302,0.10487307,-0.15385242,0.023940425,-0.1477215,-0.1576045,-0.10649323,-0.15243392,0.18302107,0.17853385,0.12210554,-0.12570968,0.14164439,0.11733727,0.15902063,0.002710797,0.14370267,0.22397265,0.17300268,0.1411385,-0.14236528,0.13611929,-0.18669271,-0.16510002,-0.08759798,-0.15744784,-0.16032991,-0.13903502,0.14516602,0.06022877,0.14073516,-0.18508548,0.14628386,0.15009655,-0.15105408,-0.16253816,-0.13841866,-0.037841834,0.058778133,0.15708046,0.005050868,-0.11617183,0.16565526,0.14860046,-0.13253124,0.13411246,0.15623938,0.15615831,0.17838286,-0.1515727,-0.09249922,0.11130063,-0.16430113,-0.12465398,0.16582352,0.1302957,-0.078952745,-0.12639754,-0.12638995,0.118586004,0.1823813,-0.116067484,-0.17606518,-0.072843745,-0.16418186
GM22626,0.11710199,-0.15019433,0.0068842815,-0.13911971,-0.1865386,-0.110491574,-0.13168564,0.2115395,0.17927061,0.12303066,-0.12822078,0.13371707,0.13880265,0.14922367,-0.023618422,0.13781093,0.23693445,0.16946326,0.1599476,-0.15465128,0.1480155,-0.19719337,-0.1580459,-0.0684396,-0.12777334,-0.16320872,-0.14998788,0.13492604,0.024855867,0.12952144,-0.18904153,0.15656762,0.15106891,-0.13557059,-0.14804491,-0.1429794,-0.004259861,0.043429118,0.1599657,0.02324383,-0.10626673,0.16228576,0.1449407,-0.1360354,0.110704705,0.16227101,0.1549477,0.19079755,-0.14641598,-0.08670248,0.11358066,-0.13500637,-0.10638368,0.15173104,0.10761382,-0.094668835,-0.13019386,-0.12919688,0.13115744,0.17673224,-0.10692124,-0.1796011,-0.09189136,-0.15609135
GM26448,0.09891699,-0.13145633,0.0033690752,-0.11333501,-0.14497319,-0.10839169,-0.10197542,0.16618502,0.13785459,0.11833754,-0.106341094,0.111769356,0.11334966,0.11417883,-0.02611103,0.124222204,0.1689692,0.13844128,0.123234674,-0.12565082,0.12177609,-0.15662974,-0.13325574,-0.05100886,-0.09967219,-0.12938589,-0.11919938,0.10119808,0.0250808,0.10695502,-0.15906543,0.12981445,0.12667514,-0.11540548,-0.110298716,-0.12255917,-0.0012587169,0.023279306,0.13488306,0.023803309,-0.09198525,0.118861094,0.10073657,-0.11724913,0.08536286,0.1340459,0.13497247,0.14651062,-0.119688846,-0.06661126,0.09630175,-0.109530345,-0.07942179,0.13046092,0.09219348,-0.08136866,-0.10996945,-0.100942574,0.109959796,0.15945518,-0.09189275,-0.15090585,-0.069534324,-0.14321145
GLDC,0.121328525,-0.16320293,0.007274746,-0.14912322,-0.17492867,-0.12071332,-0.14233673,0.20639873,0.18622333,0.13793367,-0.13384373,0.14880884,0.13816543,0.15812285,-0.02252531,0.15240188,0.23624763,0.18205209,0.15987767,-0.15433726,0.14609267,-0.20219594,-0.17436123,-0.07244338,-0.14498821,-0.16621773,-0.1455627,0.146817,0.036903903,0.1436827,-0.19211853,0.16008759,0.15080927,-0.16267398,-0.15277754,-0.15628193,-0.01296265,0.042862218,0.16738555,0.025033526,-0.12396499,0.17511211,0.15177505,-0.13762563,0.1309754,0.17753695,0.16720921,0.19521067,-0.16092803,-0.08694121,0.12474996,-0.1554959,-0.10968128,0.17037988,0.12665018,-0.09198624,-0.13235657,-0.12949775,0.13099019,0.19083485,-0.12176989,-0.18106902,-0.08616656,-0.17358078
KCNG1,0.09909961,-0.12197043,0.00041528326,-0.118254505,-0.14207882,-0.101010226,-0.13124718,0.16527285,0.14877729,0.10343696,-0.10828745,0.10465581,0.103412256,0.114533834,-0.017230384,0.11250438,0.19988546,0.14032614,0.12325643,-0.13676147,0.10801187,-0.16668658,-0.13619475,-0.058719154,-0.11785989,-0.13296078,-0.11727221,0.10826273,0.03503952,0.10554789,-0.15546212,0.13069466,0.119922236,-0.12142406,-0.12771055,-0.13062137,-0.011240467,0.03813411,0.13630228,0.016349684,-0.0878362,0.12496658,0.121056035,-0.11373461,0.098431244,0.1341033,0.12956059,0.1472934,-0.12411388,-0.07893916,0.09226842,-0.12310785,-0.099396825,0.13097695,0.10118013,-0.06602842,-0.10406926,-0.10968448,0.099867165,0.15198418,-0.09014772,-0.14984003,-0.06494244,-0.13916492
DNMT1,-0.15978526,0.21176028,0.22270018,0.198329,0.25434667,0.124618284,0.10911337,-0.21847928,-0.22991021,-0.25813544,0.16353837,-0.21919739,-0.31076184,-0.10572777,0.18218288,-0.17010286,-0.2854837,-0.27859777,-0.22412291,0.17701009,-0.2598686,0.29735202,0.2856008,-0.08592552,0.12398469,0.18886213,0.09769881,-0.17278479,0.10907969,-0.17958607,0.23610458,-0.20215859,-0.11781165,0.35631925,0.07295957,0.32278493,-0.12426575,0.090529755,-0.21317886,-0.13128,0.16209957,-0.23916954,-0.18693858,0.10109934,-0.24741854,-0.29529142,-0.20794219,-0.25359318,0.18224263,0.04947651,-0.22460718,0.09928944,0.0058816746,-0.22557822,-0.16630316,0.11056777,0.18117945,0.20306714,-0.14955574,-0.27840322,0.23371454,0.20034972,0.14413565,0.25674576
KLF9,0.06366997,-0.09040287,0.00144808,-0.079045326,-0.08105072,-0.062952116,-0.09348145,0.10898586,0.1047411,0.06821497,-0.061640248,0.064599566,0.063878596,0.082270525,-0.01579465,0.07263829,0.13258742,0.08663294,0.074780986,-0.07587002,0.07264995,-0.106097214,-0.09065324,-0.0397675,-0.0725498,-0.08018115,-0.07225689,0.05537137,0.02977619,0.063804835,-0.09779599,0.08320734,0.07798339,-0.07141387,-0.08648485,-0.08745085,-0.0043140072,0.028523441,0.08523084,0.004276328,-0.049492642,0.06862652,0.06225578,-0.07239236,0.053430103,0.07692847,0.07625635,0.085948765,-0.06959858,-0.06547825,0.06201359,-0.07660569,-0.0638365,0.09434192,0.053002298,-0.04528745,-0.062680006,-0.06897943,0.065221936,0.10198918,-0.0515163,-0.10894802,-0.032267574,-0.089953944
TXNDC5,0.0070474,-0.011467932,-0.015181505,-0.0061533526,0.0052960366,-0.015484143,-0.021156497,0.016815078,0.019267954,0.026524913,0.0013832748,0.0035046246,0.018822853,-0.0074309995,-0.026494324,-0.0039731227,0.031439897,0.0058297403,0.022062417,-0.016074136,0.015902624,-0.01722624,0.00083205104,0.0071371235,0.021361656,-0.005343914,-0.007845908,-0.030628614,-0.0053250864,-0.012639713,-0.0029288195,0.008264959,0.013189506,-0.001298964,-0.0056849476,-0.026741711,0.030613847,-0.006135788,0.009090746,9.018555e-05,0.00091219693,-0.012239844,-0.012754563,-0.0064006224,-0.0028602332,0.0045463005,0.011926321,-0.020194063,0.008971915,-0.00677754,-0.0034364797,0.0100149745,0.01539015,0.024659693,-0.013502061,-0.0058839233,-0.0033466928,-0.0032052062,0.007148631,0.015799865,-0.013303805,-0.022187069,-0.007325474,-0.00766285
ZFP592,0.032665357,-0.04274809,0.007627814,-0.040544264,-0.03142786,-0.03217044,-0.071211524,0.05494652,0.062204413,0.032429975,-0.02478461,0.022984343,0.02837662,0.04966344,-0.001281321,0.023358062,0.081799015,0.040752843,0.039380666,-0.034454137,0.03330817,-0.052174926,-0.03604972,-0.02658924,-0.037184257,-0.03340593,-0.03856614,0.008990418,0.032054383,0.025955033,-0.044028193,0.04587555,0.04586215,-0.02197925,-0.059950992,-0.042411044,-0.0055223615,0.023462836,0.038438674,-0.009435425,-0.011172511,0.016045555,0.0225189,-0.035705127,0.01784798,0.023608271,0.035968635,0.028624993,-0.026678098,-0.04804974,0.02378422,-0.04421287,-0.04068784,0.055504985,0.014053289,-0.021100845,-0.02537421,-0.02870819,0.033591904,0.05125364,-0.016049024,-0.06425081,-0.012786202,-0.039878134
CNOT7,-0.07977708,0.08015098,-0.113031104,0.082697384,0.07210252,0.090479575,-0.018461023,-0.06330207,-0.009389117,-0.0478344,0.12039462,-0.07515286,-0.025389083,0.024376044,0.01294671,-0.0716556,-0.0017529726,-0.06673446,-0.016390793,0.09027915,-0.051115826,0.04359322,0.020107804,0.009139296,0.075698905,0.084301315,0.08320218,-0.105168864,-0.02667202,-0.07317359,0.08661201,-0.0791056,-0.09350878,0.032605544,0.024235679,-0.030871889,0.046133127,-0.016029706,-0.058226418,-0.02447157,0.05756449,-0.04472017,-0.04686337,0.10967623,-0.048683044,-0.046837047,-0.10012096,-0.039094023,0.08151803,-0.064903915,-0.047639508,0.077657096,0.019157238,-0.09507286,-0.07557679,0.089578554,0.11984922,0.06459445,-0.08639076,-0.07192296,0.035039235,0.08549341,0.11251366,0.08705047
AIP,0.07968031,-0.11910242,0.001954087,-0.10705611,-0.11888181,-0.086539075,-0.107174374,0.13947248,0.13130909,0.09648046,-0.08770633,0.10462932,0.09129229,0.11016477,-0.013190575,0.10971786,0.1608262,0.123919904,0.106701195,-0.10510495,0.1037388,-0.13965073,-0.12741794,-0.055044603,-0.10486232,-0.11047328,-0.10403673,0.09128499,0.034580804,0.09983295,-0.12979794,0.11234641,0.11356576,-0.10742397,-0.114120126,-0.113796815,-0.015580524,0.03551009,0.119537115,0.012851201,-0.08506244,0.10904874,0.099248186,-0.1012928,0.09146315,0.111481614,0.11044292,0.12629794,-0.106355436,-0.070846535,0.08679086,-0.11156863,-0.08466855,0.12349475,0.085298866,-0.059786994,-0.088533714,-0.09209796,0.08785619,0.14261693,-0.08543222,-0.13495661,-0.04959867,-0.12902264
FAM129B,-0.053574443,0.0468268,0.012660605,0.06389313,0.092864886,0.028192334,0.057864048,-0.07003355,-0.06516467,-0.030675884,0.060776863,-0.031085474,-0.042487375,-0.08208079,-0.012803793,-0.04398872,-0.09208432,-0.066077575,-0.039282814,0.05712973,-0.03421673,0.0676145,0.08254365,0.033562023,0.0818798,0.06452106,0.03797062,-0.09054516,-0.014001619,-0.069062054,0.089353405,-0.06122887,-0.03147537,0.08315362,0.06084556,0.0643306,0.03205966,-0.02096373,-0.062486414,-0.0062483475,0.022859,-0.08558619,-0.069118395,0.041520603,-0.05213251,-0.072595775,-0.051845074,-0.11631278,0.0648362,0.058615804,-0.06429973,0.056805998,0.08329683,-0.02987983,-0.07457995,0.02624185,0.0480725,0.07107907,-0.046655443,-0.062090404,0.023399252,0.046813764,0.019810412,0.05722222
HSPA8,-0.10638173,0.06740644,0.04037468,0.11449856,0.14648217,0.051011086,0.13810247,-0.11568405,-0.12037192,-0.08962677,0.11341749,-0.03609775,-0.088852614,-0.14914297,-0.026792586,-0.05066474,-0.17977396,-0.12358856,-0.083294004,0.13881615,-0.06817339,0.10736089,0.101145625,0.07553981,0.13159215,0.12563287,0.07975945,-0.11776981,-0.02984932,-0.109272644,0.1638194,-0.11705059,-0.06715684,0.15049112,0.1301754,0.11174603,0.04270965,-0.03961523,-0.10345942,0.0056446493,0.030273829,-0.14670095,-0.12052728,0.07363129,-0.10674231,-0.120217025,-0.10660508,-0.17981921,0.11095176,0.10783459,-0.097189575,0.08306846,0.14134312,-0.059878476,-0.13141981,0.04962172,0.091790736,0.12512095,-0.09780419,-0.12033374,0.04857948,0.080003016,0.041222658,0.07821433
NFIA,0.07875882,-0.10182266,0.012130472,-0.10093124,-0.10593077,-0.07429613,-0.12823527,0.1300588,0.13440469,0.083049476,-0.08147563,0.0835234,0.076213,0.11909392,0.003426507,0.08407344,0.17302564,0.11397898,0.09835449,-0.10074949,0.08628508,-0.1315458,-0.11276245,-0.06580803,-0.117325574,-0.10441393,-0.09830373,0.08650142,0.04988331,0.09527697,-0.12272134,0.106231146,0.105617955,-0.09153161,-0.1267914,-0.101195075,-0.02977154,0.051441606,0.10755782,-0.005527556,-0.060442097,0.09826572,0.089104235,-0.08976421,0.08080843,0.09798233,0.10081309,0.11624039,-0.09615608,-0.087139025,0.07350019,-0.11597711,-0.10400493,0.11536169,0.07914409,-0.04574134,-0.081632316,-0.0876169,0.0809453,0.1279327,-0.06827241,-0.12431043,-0.040698428,-0.10569517
PEG10,0.119660094,-0.15154405,0.023315359,-0.14525199,-0.16770539,-0.11957727,-0.13832796,0.19344243,0.16884801,0.12309834,-0.13686769,0.13670424,0.1215011,0.14688243,-0.003187701,0.13959451,0.21562603,0.17495354,0.14223683,-0.15046805,0.13607661,-0.18092632,-0.1505023,-0.08038679,-0.14247692,-0.16043845,-0.14855087,0.13928933,0.047615997,0.12914184,-0.19639409,0.1531825,0.15090051,-0.13864177,-0.15660185,-0.13533433,-0.028952174,0.04639819,0.15953454,0.011417557,-0.11179984,0.16220474,0.14071673,-0.14061633,0.11264911,0.15778294,0.16054122,0.17980506,-0.14934076,-0.08444663,0.111036524,-0.15106028,-0.118520245,0.15827382,0.12692925,-0.09064159,-0.13035733,-0.12440309,0.12984928,0.185209,-0.10229461,-0.18181777,-0.09143582,-0.16415624
CACHD1,0.024443071,-0.017585449,-0.0060287574,-0.017184366,-0.008969165,-0.013966199,-0.07057921,0.034617994,0.05016736,0.01729646,-0.0048776157,-0.009078926,0.015272971,0.038437396,-0.0008494742,-0.01423835,0.075197786,0.011972055,0.023107644,-0.018508881,0.003193669,-0.03284458,-0.01634312,-0.021162197,-0.019716557,-0.012698205,-0.016054783,-0.019543435,0.026861612,0.005919084,-0.013858825,0.026670083,0.021733519,0.0006987415,-0.046050496,-0.03740579,0.0011143424,0.024419453,0.018464057,-0.019762311,0.023030005,-0.011072345,-0.008471016,-0.007222615,-0.0106522925,0.0039127497,0.009069429,0.0063420557,-0.0027912613,-0.05900619,0.0039999373,-0.024709815,-0.03745764,0.027598359,-0.009941362,0.0007539601,-0.004124943,-0.016986992,0.012410533,0.024993703,0.0065332577,-0.03729656,0.009379897,-0.0063017053
UBQLN2,-0.02012162,0.03233528,-0.0017229421,0.03536272,0.055203646,0.021434262,-0.016396515,-0.028706655,-0.009628497,-0.02159875,0.03614756,-0.045779414,-0.028201764,-0.0130711645,0.0065694414,-0.05696883,-0.004393339,-0.04440183,-0.021151468,0.031555783,-0.037057117,0.03255416,0.04381539,0.0027836785,0.035008475,0.040896267,0.023746546,-0.07463628,0.013985403,-0.04152428,0.052308597,-0.027208343,-0.01613643,0.055760838,0.0064919796,0.02127522,0.012110134,0.012818661,-0.03925958,-0.029439362,0.046062104,-0.06349336,-0.057563372,0.034241058,-0.047428854,-0.05051283,-0.03942904,-0.06590422,0.046940103,-0.015502684,-0.04030816,0.017785022,0.010297082,-0.01645127,-0.057626434,0.026052589,0.034151386,0.03607849,-0.028641373,-0.032005705,0.035199936,0.019230805,0.028679963,0.0479158
GLIPR1,-0.0018684715,0.009379591,0.013050343,0.014387086,0.031312704,0.0076317415,-0.04049805,-0.0062990934,0.010663673,-0.016038466,0.021813791,-0.035416245,-0.021020152,0.007663531,0.009980153,-0.03338042,0.022594314,-0.021179084,-0.011865348,0.018748019,-0.02016179,0.008763419,0.023669373,-0.011531163,0.0077019446,0.023136815,0.010135327,-0.04978334,0.030735115,-0.02715296,0.022350311,-0.0064116567,-0.0012407936,0.042751167,-0.018111605,0.008524435,-0.00093316287,0.018933278,-0.0169289,-0.023866815,0.038368754,-0.046619195,-0.031216735,0.012104422,-0.037776873,-0.037725236,-0.021799475,-0.03951618,0.026907487,-0.030765027,-0.022947695,-0.006435061,-0.010473102,0.0033736192,-0.03890054,0.011653474,0.022426408,0.013962325,-0.0114702545,-0.015953563,0.030484948,-0.011467982,0.018871862,0.021717919
MAPKAPK2,-0.056638345,0.080745846,0.020357657,0.088426806,0.11348969,0.06485296,0.0017551854,-0.09096235,-0.057365045,-0.07961048,0.08769788,-0.1046528,-0.08768168,-0.03619113,0.033657573,-0.11527293,-0.06534231,-0.10431235,-0.07515427,0.09169638,-0.09244186,0.097680956,0.10206744,0.0018886961,0.060828596,0.10259703,0.06708686,-0.12241621,0.030539623,-0.087251835,0.121288024,-0.07910007,-0.055858564,0.13147897,0.029797764,0.083773874,-0.007690818,0.026211325,-0.09409186,-0.055868305,0.09983379,-0.1253473,-0.11611948,0.0813524,-0.10767253,-0.12242986,-0.10171896,-0.13177972,0.09628766,-0.014672041,-0.08531633,0.039915744,0.014648877,-0.06657303,-0.1107687,0.058187526,0.0856459,0.07406749,-0.0763779,-0.097614296,0.090888515,0.06854346,0.07142441,0.11399276
FHOD1,0.057767767,-0.0638635,0.019883525,-0.068172336,-0.057818037,-0.054777868,-0.080523394,0.08417898,0.081818305,0.052807827,-0.054777425,0.044389747,0.042667735,0.06258341,-0.0014887825,0.049685583,0.100252055,0.06979072,0.05930504,-0.059557535,0.05479479,-0.06943456,-0.054273326,-0.03938548,-0.054518443,-0.059909254,-0.060147256,0.03655756,0.037572026,0.039993625,-0.07369059,0.068718605,0.06787686,-0.03589835,-0.07567399,-0.061248064,-0.010440158,0.025604475,0.063573375,-0.0011822805,-0.02653315,0.042779565,0.04864302,-0.06392146,0.030496677,0.051770438,0.0712816,0.055317186,-0.048766747,-0.048390865,0.04116897,-0.06554301,-0.05431457,0.075558014,0.0460082,-0.03905649,-0.04867449,-0.051239934,0.056842554,0.076534614,-0.030376647,-0.09514853,-0.036373153,-0.06660264
ZFP42,-0.08153759,0.060355145,0.10011719,0.045354895,0.09363839,0.023310274,0.037423402,-0.07970552,-0.059530184,-0.036037035,0.05669425,-0.0064162137,-0.08685283,-0.08316841,0.022153998,-0.0265437,0.0073455498,-0.07145644,-0.052746087,0.06963219,-0.081870705,0.03203448,0.03281433,0.0044342913,0.08091838,0.026672302,0.008137632,-0.03484524,0.01320244,-0.034729302,0.07851159,-0.047977798,-0.061713304,0.098031715,0.08915113,0.07645276,0.015689585,-0.009314729,-0.03705463,-0.042541873,0.0069009997,-0.05163474,-0.005276803,0.019397661,-0.009202121,-0.043177404,0.011902966,-0.11688738,0.056669407,0.084752455,-0.03497487,0.031010933,0.055843167,-0.044429965,-0.028244697,0.011648461,0.020050209,0.07369743,-0.091612786,-0.08090112,0.022219699,0.031571545,0.075381175,0.050101798
MPP1,0.019062765,-0.033958394,0.0004840484,-0.024475668,-0.014904566,-0.02736944,-0.037209142,0.035057206,0.03744846,0.029098075,-0.010809805,0.019607639,0.02400653,0.015855359,-0.020334326,0.016749658,0.052476518,0.023088232,0.027004149,-0.019185593,0.027784728,-0.038951762,-0.01915541,-0.0063220076,-0.002752021,-0.016547108,-0.017829675,-0.007686544,0.0062789414,0.0037996136,-0.023875779,0.021245353,0.026920985,-0.010348193,-0.025530988,-0.0366176,0.015497959,0.0035953708,0.027323222,-4.544854e-05,-0.008911379,0.0027622804,0.0074895434,-0.024209809,0.004686674,0.0124913985,0.023813559,0.003643921,-0.0061703045,-0.020410266,0.015057679,-0.013897292,-0.0014603809,0.04403986,-0.0025947131,-0.01646135,-0.013179958,-0.016236208,0.017806673,0.033663094,-0.017924573,-0.045973472,-0.01110407,-0.030517722
ST5,0.003145136,-0.00032831077,-0.013254591,0.0020612255,0.012917265,-0.0004241243,-0.042083483,0.0105476305,0.021583065,0.009757798,0.014435109,-0.018467281,0.0021703541,0.0114491,-0.007552795,-0.028039686,0.041773885,-0.008702613,0.00891681,-0.0032415837,-0.004593814,-0.008410482,0.004200576,0.0015553199,0.011431895,0.006207509,-0.0042504184,-0.043687753,0.011728119,-0.015799657,0.008618608,0.0038980693,0.00720302,0.01375762,-0.016387092,-0.015988909,0.015535998,0.010139782,-0.0060303546,-0.021393288,0.023859888,-0.02956368,-0.027445314,0.009600826,-0.016320424,-0.012720241,-0.01148022,-0.022259567,0.017719163,-0.035012018,-0.01214559,0.001475825,-0.008584417,0.01281482,-0.031085066,0.0059040426,0.005815845,0.0034175366,-0.001991799,0.004841365,0.009645272,-0.013289254,0.012085933,0.011872752
BIN1,-0.03114383,-0.0027111955,-0.2653523,-0.014722481,-0.0019479394,0.010377981,-0.04325212,-0.008979335,0.047096554,0.1443911,0.08120529,0.08656672,0.174564,-0.023943117,-0.18409684,-0.021150935,0.19934203,0.05625812,0.092971146,0.034992334,0.02480031,-0.16751702,-0.16850525,0.096059695,0.08951978,-0.009407699,0.06301351,-0.04333186,-0.171142,0.014711339,0.025607333,-0.000505019,-0.114311546,-0.15182567,0.061071627,-0.26052332,0.21117938,-0.1439962,0.050318655,0.043746218,-0.030502401,0.06492023,0.028691512,0.10815142,0.106314644,0.11627246,0.030227056,0.0025256905,0.01538263,-0.031059645,0.065935686,0.11113584,0.10567839,0.03864974,-0.016133554,0.034312196,0.06602685,0.015032385,-0.104500726,0.07043329,-0.12569411,-0.011314884,0.13945943,-0.05053999
SUZ12,-0.17626938,0.19800216,0.1981843,0.19486368,0.2493994,0.12679741,0.09751242,-0.20842731,-0.20792107,-0.24835639,0.17515042,-0.20645322,-0.28678477,-0.103645794,0.14678743,-0.16388908,-0.22772759,-0.25352016,-0.19875605,0.1902762,-0.24424954,0.2610392,0.25101146,-0.059186872,0.14591497,0.18809038,0.10947043,-0.17370062,0.09632941,-0.17901967,0.23439437,-0.20402761,-0.127671,0.3164791,0.097017914,0.27298012,-0.084514394,0.06573157,-0.19707213,-0.11187723,0.16113317,-0.22671531,-0.16277252,0.11083232,-0.22234125,-0.27007318,-0.19895107,-0.25089967,0.18371697,0.044762738,-0.19636993,0.0989171,0.019631974,-0.20850343,-0.17251912,0.10660504,0.17669551,0.18005708,-0.15240397,-0.27400854,0.2073127,0.18459305,0.14414948,0.22619289
HDGF,0.005299397,-0.030215327,-0.008733704,-0.0036120117,-0.006366104,-0.033591397,0.009500235,0.024409138,0.012711242,0.024691928,0.0063286107,0.02594917,0.017523706,-0.019199893,-0.039071247,0.024904609,0.007395886,0.0034385994,0.028846916,-0.0033989027,0.027139075,-0.027898686,-0.016782034,0.019664312,0.026646227,-0.0048294365,-0.01280174,-0.022687573,-0.016143974,-0.005027674,0.0017595217,0.006363623,0.016029423,0.007962242,0.0092589315,-0.03495158,0.032254435,-0.016954206,0.023972537,0.023502558,-0.016335942,-0.0115566775,-0.010316197,-0.016305834,-0.009940375,0.006538314,0.017927356,-0.014495775,0.0045648385,0.011219852,0.003927484,0.005814029,0.033186704,0.027592212,-0.018295765,-0.013431685,0.0011494718,0.0010308623,0.0027020685,0.022853594,-0.026335184,-0.032436766,-0.007396091,-0.03430346
DNAJC2,-0.04077816,0.07366939,0.24584596,0.049159214,0.14777842,-0.03863518,0.17175221,-0.11870989,-0.13690881,-0.064902514,-0.011336366,0.013960732,-0.13827352,-0.17465906,0.012049213,-0.014248431,-0.18450385,-0.14500925,-0.111427024,0.02319729,-0.14155489,0.13712364,0.10326353,0.011780333,0.07441888,-0.00022699125,-0.060745142,0.012024544,0.0036794357,-0.009147976,0.10087172,-0.038585447,-0.026488129,0.21680543,0.10532035,0.2302268,-0.051197007,-0.035668366,-0.050573137,-0.0320053,-0.03855995,-0.09511575,-0.05660741,-0.038967542,-0.059607558,-0.085155234,-0.0024575181,-0.13747896,0.07506039,0.22487462,-0.07711968,0.020375265,0.09662504,-0.04211563,-0.022520121,-0.0040018917,-0.009937614,0.17232412,-0.0724961,-0.075252585,0.046803627,0.073185585,0.036662865,0.11285557
GM25057,0.07707817,-0.09338702,0.003514859,-0.096879795,-0.09580386,-0.07681997,-0.1065648,0.121093325,0.11400899,0.08651203,-0.07961272,0.070028774,0.07619347,0.08997639,-0.014141016,0.07977368,0.14503068,0.104088396,0.089954674,-0.095824435,0.08262276,-0.11321675,-0.09681049,-0.047258187,-0.08239317,-0.09304898,-0.08666539,0.06563392,0.03482171,0.073259115,-0.11344038,0.09765302,0.09100795,-0.081280865,-0.0983985,-0.101187184,-0.006612155,0.026373249,0.098995686,0.0052981675,-0.049901173,0.07927048,0.07448554,-0.08355713,0.062863216,0.09008359,0.101743564,0.09597212,-0.0810355,-0.0654875,0.06539199,-0.08450385,-0.07407982,0.09972727,0.07413301,-0.05189364,-0.07705416,-0.07967524,0.07833022,0.11598412,-0.062288348,-0.117891066,-0.04490779,-0.09650846
FBXO5,-0.06803033,0.047253516,0.014693254,0.07377472,0.104171455,0.065487705,-0.005341932,-0.075130925,-0.04181456,-0.071464375,0.098526716,-0.08794145,-0.07191655,-0.035939716,0.011522271,-0.09497645,-0.033453785,-0.089481264,-0.07209717,0.09677282,-0.07220362,0.06871964,0.07662609,0.0083472915,0.07843368,0.09657648,0.0744241,-0.10417496,0.02368335,-0.09667976,0.10762014,-0.07651432,-0.059917826,0.1045534,0.037837423,0.050217904,0.011767077,8.884817e-05,-0.075023666,-0.041179698,0.076046295,-0.11127419,-0.090080634,0.08239691,-0.09614991,-0.10738176,-0.108067885,-0.113272406,0.08623448,-0.02283357,-0.071113825,0.044023193,0.029176965,-0.056737445,-0.10824736,0.044485785,0.08488043,0.053906687,-0.07154013,-0.088546135,0.07622826,0.041357554,0.07122545,0.08417962
ELP2,0.02172574,-0.04194154,0.007821879,-0.030325782,-0.0178295,-0.023707528,-0.05589048,0.04764972,0.05175073,0.020165686,-0.012907931,0.018240327,0.018956114,0.036643527,-0.011115439,0.020897925,0.06980817,0.027816407,0.024670947,-0.015605507,0.02586125,-0.0459427,-0.032481894,-0.017236188,-0.020084217,-0.020440275,-0.02165678,0.0019636042,0.023044627,0.0101372935,-0.030933134,0.029213086,0.032704487,-0.008847967,-0.040998302,-0.037086915,0.00409072,0.017897855,0.027799366,-0.0071197674,-0.008110218,0.0059195682,0.0109976195,-0.026229084,0.0021098144,0.016184952,0.019325163,0.014932686,-0.014026018,-0.04189848,0.01761619,-0.03320828,-0.024008479,0.04951621,4.7788024e-05,-0.01702554,-0.015112171,-0.022408187,0.021070804,0.03611,-0.007706072,-0.0591529,-0.005970128,-0.033609945
CARHSP1,0.02190023,-0.028904311,-0.016602024,-0.027169466,-0.01740855,-0.026665948,-0.053986754,0.041638248,0.046416253,0.038094092,-0.014435818,0.013661714,0.030609664,0.025394214,-0.01992622,0.0051846504,0.07105745,0.02677387,0.03778712,-0.030732349,0.02507789,-0.04172658,-0.025543425,-0.0064669065,-0.0040681437,-0.02513356,-0.024840137,-0.012573866,0.009988003,0.009085145,-0.026562225,0.031787086,0.030571738,-0.022500567,-0.031930257,-0.050098047,0.019430391,0.0037850924,0.027571972,-0.0068160743,-0.0033669025,0.005996749,0.0057453625,-0.01969847,0.012591971,0.023135304,0.028123954,0.010054953,-0.009407381,-0.033128336,0.014191728,-0.015101494,-0.014888734,0.041790057,0.002930697,-0.013250895,-0.018973572,-0.022784844,0.024005052,0.037316084,-0.019827511,-0.04278593,-0.00757166,-0.025544005
ZFP989,0.10442481,-0.13133822,0.014585777,-0.12220159,-0.14055209,-0.10658771,-0.11476079,0.16996661,0.14374924,0.11467725,-0.11237267,0.112994425,0.106372,0.124983095,-0.01658123,0.12565139,0.17921141,0.1402742,0.12260908,-0.12730922,0.1169793,-0.1562897,-0.1334578,-0.063968,-0.113566354,-0.13252221,-0.11851248,0.10831796,0.036676675,0.108697295,-0.16176277,0.13227639,0.12803271,-0.11888159,-0.12354934,-0.122051135,-0.013067903,0.03579772,0.13570021,0.015774846,-0.089387976,0.1257789,0.110046655,-0.12266739,0.08934346,0.13421766,0.13877246,0.14939605,-0.12458677,-0.0741259,0.094517484,-0.123094395,-0.09358552,0.13793468,0.10376044,-0.0815353,-0.110502735,-0.10400103,0.11238818,0.16084808,-0.08672546,-0.15493718,-0.071298815,-0.14510566
HIST1H2AF,-0.18186815,0.20953807,0.11744658,0.22551149,0.29495478,0.18857467,0.06941909,-0.2597393,-0.22814323,-0.23880574,0.2438246,-0.2598136,-0.27360913,-0.10551299,0.09845989,-0.25814676,-0.2761372,-0.28579044,-0.24564375,0.26450542,-0.24027191,0.30051267,0.29384157,-0.017783541,0.17295426,0.3018571,0.1872577,-0.25649115,0.0856743,-0.2427164,0.2997398,-0.25528306,-0.16422993,0.36544135,0.115411,0.28196058,-0.06175736,0.03811008,-0.26677027,-0.1375503,0.23950687,-0.3042531,-0.276474,0.2001197,-0.281306,-0.3371117,-0.29322055,-0.33857843,0.23516713,0.0051602647,-0.21666075,0.12990512,0.052103184,-0.21128258,-0.26240197,0.13337286,0.2272268,0.1812596,-0.20454322,-0.30843258,0.2502769,0.21252665,0.18375336,0.28844327
MIR3535,0.09118518,-0.12034725,0.009774602,-0.11213598,-0.12873717,-0.09588689,-0.09902626,0.15026882,0.13009664,0.104157075,-0.09751557,0.10426969,0.09723605,0.10632261,-0.020070903,0.11396091,0.15580963,0.1257686,0.11125369,-0.11263271,0.1066426,-0.13849267,-0.12486927,-0.050143186,-0.09593773,-0.11895298,-0.10994719,0.09331128,0.029959317,0.09791842,-0.14275987,0.11805641,0.116352975,-0.10307632,-0.10698649,-0.111864224,-0.008521075,0.029764976,0.1218618,0.01724486,-0.07853303,0.10908477,0.096653566,-0.11070386,0.08172287,0.11679365,0.124107435,0.13046771,-0.10470656,-0.06480128,0.087558925,-0.10563915,-0.08190754,0.12489584,0.08723618,-0.073870346,-0.10016633,-0.093967244,0.0983036,0.14667192,-0.08272226,-0.1385239,-0.063016765,-0.13575701
GM42429,0.10198914,-0.13895208,-0.00067780446,-0.12615487,-0.14396,-0.101212785,-0.13390373,0.1734192,0.15959972,0.11026244,-0.10752036,0.11150203,0.11293377,0.11924844,-0.025470726,0.11592613,0.21910241,0.14402604,0.1337321,-0.13215649,0.11547187,-0.173201,-0.14116094,-0.052575927,-0.107871465,-0.1482331,-0.121424735,0.10923126,0.03224706,0.1096627,-0.16254508,0.13023792,0.110618114,-0.13296106,-0.12442793,-0.13867731,0.0015391111,0.031149644,0.14087425,0.019255571,-0.090878494,0.1427645,0.122823864,-0.105993666,0.10273413,0.14644577,0.13899149,0.15813501,-0.12631306,-0.07471777,0.098665506,-0.11694987,-0.085670695,0.14047515,0.09956687,-0.07713972,-0.10312824,-0.114770316,0.109199554,0.15345907,-0.09862873,-0.16033411,-0.066155255,-0.1424554
GM24494,0.098902956,-0.13158439,-0.0003140876,-0.11226952,-0.14230826,-0.10608919,-0.093571946,0.16387853,0.13161239,0.11744061,-0.098257616,0.109317906,0.11236285,0.10797059,-0.030357786,0.12344919,0.16108079,0.13371143,0.12191205,-0.11965403,0.11968862,-0.15271842,-0.13158023,-0.0456157,-0.0945456,-0.12596828,-0.116335094,0.096918315,0.019708138,0.10025741,-0.1512478,0.12557417,0.11988978,-0.11472333,-0.10176787,-0.12435013,0.0004632771,0.022517007,0.13396154,0.025465623,-0.08990475,0.118459806,0.09753227,-0.11168245,0.08245511,0.13123013,0.1324879,0.14138092,-0.115089394,-0.065972,0.09484871,-0.10538397,-0.07437569,0.1274805,0.0900756,-0.08034628,-0.10187957,-0.09857719,0.10322654,0.1576683,-0.092433706,-0.1466656,-0.068122454,-0.14296646
DCXR,0.077779755,-0.1006771,-0.026304241,-0.09779839,-0.11779462,-0.08441035,-0.11166112,0.14022964,0.12848186,0.1015473,-0.080458954,0.08056145,0.09818761,0.0891964,-0.035689197,0.08641231,0.18301997,0.11170855,0.109244764,-0.11704776,0.091866374,-0.14785402,-0.12127687,-0.03379145,-0.076993145,-0.10686379,-0.09089659,0.07358052,0.01326278,0.07805537,-0.123545416,0.11091553,0.0911126,-0.11174131,-0.09535608,-0.13232791,0.012302655,0.017361213,0.11302769,0.017800324,-0.06654418,0.098079756,0.09751293,-0.08521574,0.08261947,0.11669159,0.10520454,0.118556954,-0.094706975,-0.068165556,0.07833822,-0.08390573,-0.068597585,0.106655784,0.075272135,-0.055282455,-0.083308816,-0.09499809,0.08064672,0.1281625,-0.080502376,-0.12014305,-0.04899632,-0.114692055
GM21962,0.02182588,-0.045058254,-0.0013914099,-0.01944684,-0.0116172545,-0.027994443,-0.03544456,0.051480144,0.045839876,0.024950873,-0.009253823,0.021154707,0.02276706,0.025404641,-0.030154206,0.024834901,0.061382554,0.019472964,0.031615037,-0.011452885,0.025964383,-0.048981145,-0.038037945,-0.0049336813,-0.0045880713,-0.021371469,-0.017993245,-0.0067921747,0.008872751,0.005669046,-0.018881466,0.02205646,0.025999893,-0.011212081,-0.023368288,-0.046752624,0.020107403,0.00539393,0.03131184,0.008143712,-0.012149148,0.0021829642,0.0065340213,-0.021602884,-0.0035027117,0.022293054,0.015761454,0.014548136,-0.009024626,-0.030480813,0.017578516,-0.023148483,-0.00068759173,0.045330092,-0.0066340417,-0.013515279,-0.008068185,-0.018921535,0.018999826,0.031410046,-0.018775884,-0.053488623,-0.0063135885,-0.03638234
DDB1,-0.18299183,0.16616921,0.07600446,0.19628182,0.2340042,0.12599817,0.11456088,-0.22397941,-0.1681285,-0.2242794,0.19398293,-0.18191005,-0.20726211,-0.1260426,0.059370328,-0.17654347,-0.19061297,-0.21744668,-0.14880078,0.20010516,-0.19559416,0.22677848,0.20098016,0.03063843,0.18207386,0.16859275,0.14900154,-0.17112115,0.010415405,-0.15702109,0.26291904,-0.21009143,-0.14818425,0.23420313,0.13685429,0.17869675,0.022880752,0.0009033792,-0.15346536,-0.03932045,0.16042629,-0.21703549,-0.18283607,0.15906215,-0.1964132,-0.22569409,-0.22278039,-0.23974647,0.1893849,0.05471614,-0.1626332,0.13346826,0.08130739,-0.18365523,-0.20351613,0.14099124,0.21202013,0.17640643,-0.18174604,-0.23683989,0.14745724,0.1888926,0.1561364,0.21789363
HSPB1,-0.13413733,0.14051491,0.2598432,0.14003009,0.21157485,0.04923781,0.12931341,-0.15010126,-0.18997698,-0.1899769,0.10281041,-0.102944195,-0.24825661,-0.14761724,0.09174459,-0.08923851,-0.17635229,-0.21103401,-0.1580199,0.1360285,-0.20363209,0.19040254,0.18497026,-0.021763973,0.12655452,0.1095539,0.028238323,-0.08945218,0.06737966,-0.1021561,0.17239392,-0.13998379,-0.080508515,0.2761499,0.11895256,0.25841567,-0.065982714,0.030339982,-0.1185289,-0.07795937,0.073030755,-0.16858837,-0.10806447,0.039741017,-0.14952534,-0.18965003,-0.11247754,-0.23545086,0.13293464,0.12764573,-0.12959813,0.0731562,0.052554138,-0.12622747,-0.11662688,0.053329963,0.089472815,0.17023134,-0.12693185,-0.20241606,0.13043483,0.124881394,0.10221468,0.16668732
VSIR,0.061012138,-0.07225014,-0.015308621,-0.07378022,-0.082289755,-0.06637293,-0.09578069,0.10988304,0.1010232,0.07512422,-0.061416578,0.057039,0.07320851,0.06810178,-0.028465994,0.06263296,0.14641537,0.081809476,0.08461881,-0.09155367,0.06319237,-0.10995429,-0.08731127,-0.030835625,-0.059945144,-0.07913039,-0.073107466,0.04726469,0.01933034,0.05742831,-0.09038576,0.085894085,0.072971135,-0.07522722,-0.081020705,-0.09956068,0.009257986,0.016711075,0.085723445,0.008998431,-0.0405493,0.06436604,0.066722706,-0.066272564,0.058035284,0.082448445,0.07862604,0.0804906,-0.065750234,-0.058015294,0.052915726,-0.06289429,-0.057536498,0.08390384,0.055367853,-0.039364386,-0.058748305,-0.06842955,0.06481301,0.09831622,-0.05701192,-0.09684788,-0.033844292,-0.08582866
MSC,0.1223411,-0.1582854,0.012843636,-0.15208444,-0.17200011,-0.119500995,-0.14766951,0.20161563,0.1792821,0.12767208,-0.13628282,0.14002396,0.13079275,0.14868551,-0.014512382,0.14004876,0.23690894,0.17950186,0.15094967,-0.15303324,0.14016668,-0.19499895,-0.16166297,-0.07527813,-0.1429958,-0.1679076,-0.15037243,0.14202061,0.042199768,0.13388838,-0.19896132,0.15378007,0.14445265,-0.14978829,-0.1549928,-0.1510063,-0.019510925,0.04462659,0.16430849,0.014336292,-0.11165445,0.16986915,0.14964135,-0.13659495,0.12106474,0.16740988,0.1630502,0.18633349,-0.15105121,-0.08757141,0.118686736,-0.1478421,-0.11613606,0.16438377,0.12633064,-0.088391855,-0.13162626,-0.12976164,0.12888351,0.18550247,-0.110358655,-0.18318266,-0.09036529,-0.16579157
PURA,0.0069595724,-0.025703546,-0.06144453,-0.056498796,-0.0297799,-0.04061472,-0.018185727,-0.004568532,0.014808267,0.10225609,-0.0065484103,0.067706265,0.08566229,-0.036347497,-0.07198464,-0.0040037073,0.15501636,0.0418251,0.038352814,-0.05708414,0.017641522,-0.11055667,-0.085260734,0.016063161,0.0179664,-0.070647776,-0.03764981,0.020887773,-0.07490343,0.036192354,-0.019006439,0.052349914,-0.011426907,-0.06566306,0.025889171,-0.103927836,0.08888014,-0.04705082,0.07087254,-0.0100537855,-0.046775527,0.037112854,0.06780906,-0.019674085,0.06782745,0.07877789,0.0951754,0.016728515,-0.035524994,0.021525204,0.018807553,0.014029657,0.052514724,0.062153477,0.048097458,0.0032793223,-0.00501908,-0.04279257,-0.023693737,0.037081975,-0.07251701,-0.049566932,0.02291083,-0.038353298
ATF5,-0.00023693219,-0.024082314,-0.26518807,-0.028144006,-0.026154205,0.015627392,-0.067671105,0.05546405,0.1105955,0.16737771,0.06718153,0.08554791,0.14544328,0.035075888,-0.16878143,0.016668335,0.21119842,0.07869354,0.13208166,0.025612094,0.049763262,-0.16168453,-0.17640007,0.09542388,0.061182767,-0.014183372,0.011358973,-0.02541252,-0.13381787,0.029312816,-0.008256119,0.020879991,-0.10905753,-0.15824729,0.030041972,-0.2782979,0.19069362,-0.1267702,0.047912147,0.040741608,-0.03645347,0.09557448,0.063759744,0.08988348,0.105649665,0.14024343,0.06736435,0.04774185,0.011785295,-0.04516809,0.08713883,0.05440729,0.062136345,0.033979375,0.0056694224,0.009117631,0.03858505,-0.023656297,-0.06637357,0.0683219,-0.11532335,-0.0040061697,0.09585971,-0.0628941
SERBP1,-0.050818697,0.015643952,0.003160364,0.055453494,0.071522206,0.020925857,0.051528417,-0.03976342,-0.0434694,-0.038949974,0.06782396,-0.019141223,-0.033697475,-0.06336006,-0.03630308,-0.023155015,-0.057256848,-0.061658792,-0.031109352,0.07494937,-0.028216412,0.029356526,0.03259715,0.045133047,0.07588167,0.0632249,0.04648145,-0.075798,-0.019231666,-0.06253225,0.083516486,-0.056352668,-0.032742266,0.06883937,0.061951168,0.02535752,0.040888175,-0.021366775,-0.043668393,0.007201366,0.017673898,-0.079541266,-0.06613566,0.04034634,-0.061608315,-0.05751496,-0.059576634,-0.09004159,0.06147872,0.032083616,-0.04301266,0.042787142,0.07780292,-0.014272347,-0.08200984,0.023790114,0.056486856,0.055238515,-0.04981341,-0.052267455,0.018620666,0.021799363,0.029740524,0.027281517
