,0,1,2,3,4,5,6,7,8,9,10,11,12,13,14,15,16,17,18,19,20,21,22,23,24,25,26,27,28,29,30,31,32,33,34,35,36,37,38,39,40,41,42,43,44,45,46,47,48,49,50,51,52,53,54,55,56,57,58,59,60,61,62,63
KRT8,0.019300476,-0.02159047,0.0108293705,0.026943143,0.03687644,-0.026868043,-0.0338251,-0.021225067,-0.03274462,0.021509511,-0.020179577,-0.017341599,0.029206764,-0.014328618,0.02639214,0.030857429,-0.01032985,-0.016793424,0.008663712,0.023385776,0.02367843,-0.029301606,-0.028732719,0.032689195,0.040942304,-0.031964093,-0.028835341,-0.023438506,0.02476903,-0.024697177,0.024347879,0.030002866,0.028884241,0.03193938,0.024911901,0.029027408,0.031850267,-0.024566488,0.027371269,0.010172479,0.018608075,-0.022746012,0.023544898,-0.034515813,-0.01377208,-0.020475568,-0.026481867,-0.02370589,-0.023195911,0.020502856,0.01880104,0.024080344,-0.015285373,0.037926413,0.012503546,0.025215648,0.02237432,0.025122676,-0.027262837,-0.01759877,0.027408116,0.0225171,0.029731471,0.021572575
APPBP2,0.038699508,-0.049253892,0.02967354,0.037850764,0.06289619,-0.054749437,-0.06597173,-0.034954615,-0.06385699,0.0461464,-0.04708336,-0.044434972,0.061991528,-0.04797544,0.05896157,0.0584191,-0.018314157,-0.044636786,0.014811905,0.051543593,0.033953287,-0.046218324,-0.06051738,0.054446395,0.06515081,-0.06467741,-0.037258156,-0.05426039,0.043566782,-0.043798976,0.03822691,0.05784502,0.04621457,0.06439456,0.053860582,0.050858494,0.049365148,-0.05468277,0.045585647,0.026700787,0.03539264,-0.04965499,0.058413006,-0.06997829,-0.03590565,-0.05011674,-0.029956758,-0.06873734,-0.037103567,0.057364494,0.04571423,0.052860588,-0.043741938,0.064279504,0.033380467,0.045227412,0.05584846,0.045245726,-0.058170762,-0.040023427,0.047297534,0.04577566,0.059542593,0.043283768
GM24455,-0.08414349,0.075167194,-0.077504374,-0.07019544,-0.08968054,0.0958065,0.116276085,0.034091882,0.12152484,-0.07029163,0.07937962,0.090086445,-0.09697973,0.10843899,-0.10801867,-0.09187726,-0.0017310232,0.1014677,-0.033665657,-0.09523149,-0.06447324,0.08264621,0.09278186,-0.06480561,-0.103142425,0.091945246,0.064301506,0.09024787,-0.075104155,0.0745659,-0.09246393,-0.10422464,-0.058317322,-0.111791685,-0.12112171,-0.096249975,-0.059856102,0.11282701,-0.0739658,-0.067733295,-0.076451845,0.085522726,-0.07655133,0.09121673,0.10428314,0.110232905,0.04365459,0.12822367,0.093716376,-0.08973102,-0.10702728,-0.08837173,0.059826232,-0.0935099,-0.076079205,-0.060223483,-0.117796734,-0.08182645,0.108069256,0.072008334,-0.05636618,-0.06306427,-0.10583842,-0.10949453
GM26280,-0.08217333,0.07413766,-0.0682068,-0.076887295,-0.08880091,0.09003734,0.120157346,0.035841525,0.12612464,-0.06715946,0.077797726,0.085609436,-0.0972173,0.10856424,-0.11427919,-0.08734659,-0.0015078336,0.10169704,-0.027704462,-0.095416576,-0.072608575,0.08021685,0.08950435,-0.070270404,-0.10839768,0.09165943,0.07189162,0.08443902,-0.06970271,0.072038785,-0.091807485,-0.10689774,-0.060459692,-0.11074734,-0.12067441,-0.09569774,-0.05674883,0.11625626,-0.06977174,-0.06355691,-0.06910635,0.08659278,-0.075168274,0.08748154,0.107708536,0.10529548,0.05366911,0.1257439,0.096055284,-0.084801555,-0.10674673,-0.08590581,0.05692701,-0.09051691,-0.07858005,-0.06049212,-0.11743045,-0.078909874,0.10506593,0.070289314,-0.061372917,-0.061090454,-0.10545177,-0.10789844
SOX2,0.04232774,-0.08118357,0.041630402,0.059952285,0.05278116,-0.08061968,-0.0788036,-0.051490158,-0.0890768,0.029476956,-0.043525573,-0.06934989,0.02586195,-0.009769967,0.0984727,0.05538112,0.0050033927,-0.08199332,-0.003527511,0.033819057,0.08606387,-0.06998068,-0.08243666,0.020746443,0.07990219,-0.047950957,-0.026798353,-0.035730217,0.055285078,-0.036723666,0.09806851,0.011315202,0.04229978,0.03794044,0.07564236,0.06732231,0.103936054,-0.078308925,0.068951726,0.049564064,0.028162764,-0.05815568,0.058547635,-0.06773048,-0.049447812,-0.0849738,-0.053517625,-0.07541847,-0.06344113,0.07670437,0.065381914,0.04920027,-0.06438601,0.066575244,0.060381826,0.052088074,0.041531146,0.11473198,-0.04552109,-0.045546126,0.029461043,0.039422877,0.054133523,0.041080583
GM37746,-0.08726412,0.07699345,-0.08099018,-0.07330419,-0.09007545,0.09798699,0.11960633,0.03688343,0.124487355,-0.072128184,0.08209638,0.08957645,-0.09897634,0.109680526,-0.112213336,-0.09346587,-0.0017667189,0.10409708,-0.035264306,-0.099132374,-0.06745085,0.08401162,0.09590889,-0.067674406,-0.106274396,0.09433906,0.06720784,0.09241834,-0.07703971,0.07701217,-0.09422639,-0.10518485,-0.05958866,-0.11411366,-0.12555468,-0.0988869,-0.060699508,0.11499252,-0.077446416,-0.069028564,-0.07917573,0.0878893,-0.079681896,0.09379344,0.10669091,0.11222108,0.04507511,0.13139862,0.09698985,-0.092422426,-0.10987595,-0.09026501,0.061014056,-0.09566733,-0.07781064,-0.062061675,-0.11914787,-0.08329031,0.11014463,0.07631481,-0.057299968,-0.06314703,-0.108292446,-0.11219524
LEFTY2,-0.004657991,0.002368372,-0.0003017187,-0.003424015,-0.0051353313,0.012702955,0.00989132,-0.011615928,0.016344547,0.00023851916,0.011611719,0.012567915,-0.0066861967,0.023938902,-0.015525196,-0.005660683,0.009629011,0.005422104,-0.010902971,-0.0072233137,0.015240215,-0.016198117,-0.00510359,-0.007521618,-0.009056121,0.00622952,0.005376637,0.00883504,-0.0015431968,0.0023405626,-0.008099409,-0.021034274,-0.0035229065,-0.014548449,-0.009474745,-0.012151321,0.028340511,0.013181923,0.002691701,-0.0035911128,0.007770203,0.0040768236,-0.0013693497,-0.006493844,0.0067528617,0.007070774,-0.0031028688,0.01031417,0.00961731,-0.00039293244,-0.007090293,-0.0069622807,-0.0022888407,-0.010746952,-0.023223627,0.016892865,-0.009232924,0.010116994,0.0048093423,0.006469704,0.0048251003,-0.0041652396,-0.0018364415,-0.004544734
SSBP4,0.047177114,-0.047817554,0.033544637,0.029475916,0.06361682,-0.058250852,-0.06380749,-0.048409894,-0.06461537,0.052080415,-0.044298027,-0.052115288,0.05668474,-0.049969148,0.047476888,0.053939283,-0.012956552,-0.04797233,0.020662958,0.05351954,0.03299681,-0.059697863,-0.0705904,0.034364086,0.057799634,-0.06316109,-0.030172244,-0.05274612,0.053510502,-0.045354635,0.03812909,0.044511516,0.035855282,0.060698625,0.062398866,0.053842053,0.067768335,-0.051617198,0.053169698,0.038542584,0.05142942,-0.05473432,0.058094792,-0.06807252,-0.043213166,-0.0557039,-0.013165176,-0.061534278,-0.032609474,0.055719264,0.04547742,0.058952186,-0.044433873,0.0597081,0.016717147,0.057118356,0.06519757,0.060517732,-0.06287351,-0.040911052,0.033851363,0.04505548,0.05583803,0.046765134
APBB1,0.054439478,-0.057329867,0.040744178,0.04059669,0.07238789,-0.06458465,-0.07626113,-0.0523048,-0.07569554,0.05921513,-0.053143967,-0.056495585,0.07022232,-0.05911581,0.063605905,0.06617254,-0.015306547,-0.059266374,0.02199214,0.063663825,0.044408657,-0.06467031,-0.0810855,0.05266233,0.06996651,-0.07533832,-0.042773403,-0.065591976,0.055621356,-0.049956493,0.0449064,0.057908073,0.046717294,0.07514125,0.07266658,0.06252869,0.067309074,-0.065036006,0.05749707,0.04207518,0.0537265,-0.061758425,0.069723055,-0.08074315,-0.052504577,-0.06679422,-0.02456908,-0.076258674,-0.04234429,0.06899788,0.05599758,0.06802321,-0.051468186,0.0701724,0.029901642,0.05956581,0.07531577,0.0677952,-0.07133889,-0.051244188,0.04744817,0.053243894,0.068095714,0.05268766
SEMA4C,0.024963833,-0.025201466,0.017351221,0.027668875,0.040305972,-0.031284846,-0.036275595,-0.030269898,-0.037119236,0.027639795,-0.02723803,-0.025191166,0.032424036,-0.019936945,0.029101845,0.030607857,-0.007974591,-0.024930263,0.01152776,0.029457407,0.028238624,-0.04117384,-0.037411533,0.02954882,0.038812403,-0.038560532,-0.027566954,-0.029328804,0.03122719,-0.02549889,0.02446286,0.02618277,0.027977293,0.035617005,0.032091454,0.03309208,0.044321887,-0.02577527,0.030985704,0.014449514,0.025986789,-0.030255303,0.030785311,-0.041749716,-0.021903554,-0.027364856,-0.023198284,-0.03024558,-0.022148672,0.02824671,0.021628251,0.033430904,-0.01922112,0.039435662,0.009283442,0.03497843,0.029871054,0.03536419,-0.03300153,-0.025176086,0.023619961,0.024666097,0.033898253,0.025236014
QDPR,0.011078622,-0.016194185,0.003733553,0.027402338,0.022098102,-0.014110509,-0.031048896,-0.020108042,-0.026984178,0.024889953,-0.012737118,-0.008183584,0.023168016,-0.018611135,0.017070908,0.021271668,-0.009960648,-0.0133288745,-0.0052476227,0.018719872,0.026553772,-0.026119404,-0.022888284,0.029576045,0.035149667,-0.027372349,-0.021835715,-0.019442033,0.01614026,-0.020671606,0.008182071,0.027533015,0.020853665,0.020720948,0.02069773,0.01651049,0.037370875,-0.019462133,0.021388846,0.001460731,0.014248569,-0.017986078,0.023662964,-0.028138306,-0.012636552,-0.011921737,-0.0247588,-0.022440022,-0.014882561,0.017143758,0.009780111,0.026940487,-0.009830814,0.028103583,0.007095292,0.031028662,0.018886019,0.015904069,-0.027088039,-0.01535026,0.028472902,0.019096546,0.028024022,0.022346545
CITED1,0.017551444,-0.014089882,0.012467083,0.016322877,0.026558511,-0.016383264,-0.02106241,-0.023728862,-0.019108078,0.018557984,-0.012556378,-0.010476038,0.01686469,-0.008164985,0.011364676,0.015545826,-0.006158393,-0.013193401,0.008069288,0.016769005,0.020327635,-0.033593535,-0.026592085,0.015200425,0.020791959,-0.024163295,-0.015048839,-0.01874018,0.022769473,-0.018302538,0.0120516345,0.011198643,0.018326264,0.018815238,0.017153442,0.019109674,0.03808611,-0.006434053,0.022949087,0.0085727945,0.019230586,-0.020171192,0.017898193,-0.02535341,-0.010027183,-0.011818672,-0.014284916,-0.012708073,-0.011992235,0.01469893,0.0094803665,0.023178851,-0.009658936,0.025266822,-0.0050283186,0.028298821,0.014356233,0.025964335,-0.021255821,-0.01485331,0.013741806,0.015550012,0.019805577,0.014405866
SMAD4,0.03098417,-0.03521323,0.0203835,0.036521655,0.04510579,-0.03642437,-0.056634095,-0.02992058,-0.04956183,0.04305958,-0.029381767,-0.02657593,0.047479216,-0.03670457,0.042466067,0.04490293,-0.015322298,-0.03283073,0.0057218187,0.03787113,0.035465047,-0.04126063,-0.047494017,0.05162559,0.05677147,-0.050187834,-0.036293626,-0.04326718,0.032924514,-0.034384456,0.025336448,0.05056808,0.03630302,0.04876562,0.043578528,0.037460484,0.043044947,-0.043867692,0.036780037,0.019677266,0.03188848,-0.036583472,0.04686305,-0.054457035,-0.030375833,-0.035867795,-0.030671142,-0.048958246,-0.03212079,0.04032699,0.035397723,0.046294533,-0.028797874,0.04977344,0.025547344,0.04053432,0.04405092,0.034280036,-0.047948353,-0.029980626,0.043157376,0.037232555,0.0495754,0.03703709
IFITM1,-0.0034513958,-0.002181828,-0.0013941266,0.0031550415,-0.0034402125,0.016404888,0.0022527128,-0.010683656,0.010018587,0.001186775,0.011560362,0.012305029,-0.0029861191,0.018144805,-0.005938722,-0.0018772334,0.01031062,-0.0022295434,-0.014588669,-0.004496781,0.027982831,-0.019680265,-0.0041792523,0.0002555065,-0.00012793764,-0.0016563646,-0.0014595389,0.004973173,-0.0028764447,0.0024979264,-0.008926639,-0.014345638,0.0004366897,-0.0119446535,-0.0038982518,-0.010407301,0.033042442,0.006881585,0.004177261,-0.005795911,0.007538382,0.003015034,-0.0003082566,-0.008241415,0.0006730519,0.007229449,-0.011260048,0.0022904538,0.0057560205,0.00020039082,-0.002355677,-0.0072454493,-0.0052657314,-0.009172227,-0.01742151,0.02073446,-0.003743971,0.009260826,0.003002569,0.0052700825,0.011469778,-0.0010481216,0.004730914,0.0041068974
ELL2,0.070187554,-0.10461035,0.05309155,0.052590366,0.09253008,-0.116317056,-0.110796615,-0.07491203,-0.119785324,0.05997379,-0.080697626,-0.101820126,0.08129026,-0.07140289,0.10962877,0.08048999,-0.013795689,-0.09247037,0.023299659,0.07912852,0.06611699,-0.084174834,-0.112367414,0.036345106,0.103700556,-0.09251431,-0.04745885,-0.05742393,0.08186435,-0.05889193,0.10310034,0.048120994,0.05305875,0.08772503,0.10260625,0.09791573,0.11432758,-0.10171031,0.08741368,0.07470157,0.06470939,-0.081265174,0.09008465,-0.10758942,-0.06837825,-0.10123537,-0.032778308,-0.10298379,-0.061970714,0.10772854,0.078664616,0.066757984,-0.08590192,0.09684448,0.072392344,0.07176523,0.08603142,0.1278998,-0.0910537,-0.06557974,0.046784997,0.06966708,0.07114217,0.071477525
GM45236,-0.054509543,0.050009552,-0.05486381,-0.04287863,-0.05631214,0.06680911,0.07647912,0.022125326,0.07898704,-0.043638743,0.057450157,0.06548381,-0.06464827,0.072260804,-0.07348617,-0.06125582,-0.0037474483,0.070188485,-0.022024587,-0.06510976,-0.03837992,0.049308438,0.06145724,-0.04126355,-0.06687316,0.06317928,0.04104875,0.0586399,-0.0499389,0.048646376,-0.06451452,-0.06913333,-0.035550866,-0.07610437,-0.084226556,-0.06562957,-0.032583117,0.080296494,-0.047116205,-0.048918404,-0.052639015,0.058039427,-0.05186733,0.062048286,0.072814204,0.07686667,0.021595724,0.08939667,0.06016986,-0.063658595,-0.073723756,-0.055067807,0.04403598,-0.058575545,-0.05833466,-0.035937004,-0.08157433,-0.052343115,0.073811784,0.05000724,-0.033683535,-0.042275585,-0.07045922,-0.07006306
ELP2,0.035216138,-0.037984367,0.023240343,0.036557447,0.048160046,-0.040991984,-0.05795829,-0.037671164,-0.05363933,0.046364956,-0.03271152,-0.03190979,0.049228523,-0.039888598,0.042615153,0.045935392,-0.013356149,-0.03810083,0.008342581,0.04228425,0.037110277,-0.04906038,-0.054156903,0.04629558,0.056200135,-0.05234234,-0.036371946,-0.045985464,0.03748961,-0.035489373,0.026850529,0.046494406,0.033315986,0.050328206,0.049316727,0.04091078,0.052264087,-0.04615569,0.040528897,0.024572685,0.036713578,-0.041269142,0.04978433,-0.056503065,-0.03597801,-0.04056797,-0.026478201,-0.05184099,-0.032943677,0.043254457,0.038037144,0.05147165,-0.030029397,0.050053626,0.02229083,0.047570296,0.050154082,0.04171206,-0.051995505,-0.034140877,0.04013321,0.037582636,0.051631507,0.038727835
MAPK3,0.0011703894,-0.004418567,-0.006185394,0.020590935,0.011477366,0.002509947,-0.014891807,-0.009811427,-0.010425054,0.011443768,0.003541246,0.0053982735,0.0055713793,5.0012488e-05,0.0044390745,0.008880317,-0.007708013,0.002394097,-0.0055343434,0.0028495807,0.020594276,-0.017275285,-0.005041316,0.023796547,0.021822277,-0.008337788,-0.01679562,-0.0058191977,0.0046625594,-0.0076756068,0.0010056682,0.017085945,0.013565067,0.0027378313,0.0012644939,0.0046033915,0.022229277,-0.0016836692,0.010032013,-0.009697497,0.0034242123,-0.0017421693,0.005458452,-0.012925226,-0.00013865344,0.0042737145,-0.02487465,0.0010098368,-0.00839572,-0.0019189082,-0.0026426408,0.01332937,0.0048043802,0.013601486,0.0015309602,0.0153827965,0.00030156062,0.0020324439,-0.008703843,0.000874877,0.018190086,0.008764135,0.012370203,0.008824283
CSRP2,0.06839026,-0.09450975,0.06184552,0.06542747,0.10138467,-0.09260889,-0.122789085,-0.05325899,-0.11116615,0.07677232,-0.08588365,-0.086698584,0.11262102,-0.099070475,0.11386134,0.104914576,-0.027745657,-0.09124466,0.01732169,0.094661415,0.06709053,-0.06028568,-0.10751585,0.10548216,0.11591211,-0.11409252,-0.062426135,-0.107336655,0.06813667,-0.07196336,0.066433005,0.11572704,0.079414845,0.12210105,0.10584286,0.085355215,0.062227357,-0.1101196,0.07249053,0.04571695,0.05946339,-0.08413957,0.102795765,-0.117383465,-0.06855062,-0.100230396,-0.049668804,-0.13530868,-0.069513395,0.11537509,0.09077199,0.08851581,-0.087706074,0.112923846,0.07397707,0.0656256,0.10880965,0.073619515,-0.10361011,-0.076830626,0.0947198,0.084980205,0.109202266,0.08147206
CCND1,-0.0011124089,0.0016996823,0.005506724,-0.008851428,0.002768986,0.0044144224,0.0066217147,-0.013810288,0.010416415,0.003593008,0.0064340457,0.00470677,-0.0037374357,0.019418651,-0.016962018,-0.0029737726,0.0051145256,0.0029885136,-0.005856719,-0.00366918,0.0069578215,-0.01781357,-0.009498317,-0.012024097,-0.009055205,0.0020082593,0.011691991,0.0068408903,0.0055832127,-0.0038028657,-0.003179755,-0.01966988,-0.0029194169,-0.010245018,-0.0066832174,-0.007320514,0.033253625,0.009812241,0.006900355,0.0026706532,0.012867995,-0.0012595728,0.0010623783,-0.011071689,0.0061247796,0.0025322754,0.006044112,0.0065877587,0.012357824,0.0047402494,-0.0060300305,-0.0016389303,-0.0074560083,-0.0050882213,-0.023718547,0.018878706,-0.0014478711,0.013516225,-0.0014846772,0.004571814,0.0025079064,0.00013767183,0.00051639974,-9.888783e-06
ANKRD6,0.051040955,-0.04268405,0.039857946,0.014112819,0.06683946,-0.07314903,-0.06313121,-0.051396683,-0.057734743,0.04538703,-0.04126646,-0.06089159,0.049438667,-0.04409698,0.03620904,0.04928849,-0.010826215,-0.04274048,0.03567275,0.05008223,0.018598638,-0.0619646,-0.075972356,0.014264222,0.05026638,-0.059554935,-0.010838896,-0.044986162,0.06472755,-0.04861567,0.046991087,0.031048864,0.025487918,0.059916925,0.06314944,0.061750576,0.078509405,-0.04094553,0.06138514,0.04973612,0.062030807,-0.06297092,0.056834042,-0.066873625,-0.039999582,-0.06254732,0.0031930804,-0.054742675,-0.026353728,0.054394238,0.044952795,0.0579995,-0.052663423,0.057810273,0.0021159612,0.05967852,0.0635888,0.07008087,-0.05998865,-0.03886242,0.02165633,0.04860898,0.053530116,0.04883028
SIRT1,0.03337209,-0.039324325,0.023813814,0.029921334,0.0513097,-0.042894073,-0.052560173,-0.038506784,-0.05576148,0.04269339,-0.036950916,-0.036574744,0.047188226,-0.038719673,0.038817614,0.04601278,-0.011014469,-0.03809818,0.007037189,0.04326859,0.029119298,-0.046985183,-0.053888895,0.033770945,0.052288964,-0.053830493,-0.030064248,-0.039900083,0.038137026,-0.03689432,0.026086532,0.039583907,0.03293373,0.04775874,0.04893695,0.040409002,0.058934998,-0.04634933,0.042147834,0.025359906,0.035477433,-0.041779205,0.046427406,-0.054960854,-0.031372257,-0.041413844,-0.016274862,-0.053321507,-0.025714848,0.04492006,0.03214866,0.04690655,-0.03354612,0.05087013,0.015452776,0.047628712,0.051696014,0.045543812,-0.05116771,-0.033651117,0.035813443,0.03790637,0.04724193,0.040385082
CRTAP,0.014808163,-0.021587025,0.0074350536,0.02718265,0.032463983,-0.02256635,-0.036323514,-0.017938867,-0.030277831,0.023579614,-0.016007159,-0.015308004,0.029457621,-0.018925,0.024898067,0.029287737,-0.012446724,-0.01446254,0.003558686,0.020559883,0.02221258,-0.026474878,-0.025572633,0.037470136,0.04062564,-0.028426856,-0.025527157,-0.023574922,0.02157009,-0.024423838,0.019345619,0.03471513,0.02769979,0.028883275,0.020980101,0.02572761,0.028349936,-0.024816783,0.024052812,0.0065508783,0.016093403,-0.019298665,0.024445534,-0.03510721,-0.0127741005,-0.016974619,-0.026634648,-0.025629442,-0.021357019,0.018252745,0.017441386,0.02625523,-0.01596225,0.03607046,0.016582217,0.024932586,0.02139169,0.018351674,-0.028692823,-0.015147515,0.03150908,0.022581033,0.030343954,0.021471683
CACHD1,0.03403972,-0.0329995,0.025579266,0.02720311,0.049561374,-0.04163278,-0.04486937,-0.037259452,-0.046689786,0.0363909,-0.034371883,-0.034309205,0.04054235,-0.030387573,0.03459199,0.036796052,-0.008805692,-0.03397727,0.016478563,0.038080253,0.02996809,-0.04923141,-0.050195124,0.029038947,0.043420862,-0.04701899,-0.026758477,-0.03788011,0.039630827,-0.0331973,0.03048683,0.029623428,0.029484112,0.04413877,0.041558713,0.039669644,0.0545393,-0.031360008,0.039869014,0.024505727,0.036247764,-0.041404404,0.042307694,-0.053075865,-0.030337108,-0.037149273,-0.01773411,-0.04183796,-0.025183473,0.038694747,0.030363737,0.0428794,-0.028126005,0.045749787,0.011118177,0.0451807,0.041883998,0.045753904,-0.04528513,-0.031954013,0.024954554,0.03139823,0.041946594,0.03205279
CENPV,0.033884548,-0.037437886,0.026971728,0.029696371,0.05010303,-0.045438454,-0.054782383,-0.04022986,-0.054932863,0.043580793,-0.03877121,-0.03795895,0.04681249,-0.038194153,0.041610464,0.044295993,-0.011026502,-0.040228993,0.009977257,0.04342454,0.03126961,-0.047783345,-0.05446632,0.03181244,0.05296001,-0.056106143,-0.028817356,-0.04010265,0.03987055,-0.03783422,0.028313786,0.03726984,0.032605123,0.04699644,0.052934095,0.04277441,0.062445763,-0.043987833,0.042903032,0.02522885,0.037132252,-0.04397484,0.048353992,-0.056833863,-0.03294971,-0.044177607,-0.017865442,-0.053015247,-0.026320685,0.046607368,0.031975552,0.050100174,-0.032908406,0.05156774,0.01350623,0.050573353,0.050488424,0.046609815,-0.05191731,-0.03622308,0.034273185,0.03712693,0.04688045,0.04012347
UBE2S,-0.0047897063,2.4236739e-05,-0.0112398565,0.021577168,0.0038783997,0.00833615,-0.016179666,-0.0036672466,-0.005292887,0.008506924,0.010074031,0.0126944035,0.00092584826,0.00034218328,-9.184331e-05,0.0044662766,-0.008082911,0.008288672,-0.009779405,-0.0009875521,0.023535743,-0.009315395,0.00021302886,0.027573254,0.0238062,-0.0043409355,-0.014307216,-0.0023335405,-0.0019660955,-0.006738879,-0.0016100407,0.019055983,0.010043688,-0.00020454824,-0.0017557759,-0.0004506465,0.018218152,0.00031866506,0.008592039,-0.014746271,-0.0012508929,0.0021682754,0.0038482621,-0.0074408054,0.004689835,0.0066868793,-0.029944822,0.003522668,-0.007227514,-0.006835956,-0.00585586,0.011612106,0.0076285824,0.010783408,0.0012992136,0.014304377,-0.0039086035,-0.0045870245,-0.0051000677,0.0037035309,0.023291115,0.00773591,0.012194198,0.007350099
VSIR,0.046328336,-0.053930804,0.034825988,0.03626563,0.068557136,-0.059314422,-0.064724624,-0.044862974,-0.07044896,0.050792493,-0.0547517,-0.052874524,0.064710386,-0.051871136,0.060324118,0.06167502,-0.014744654,-0.05264824,0.020637348,0.058050558,0.0358952,-0.056802303,-0.0674059,0.04832798,0.06595181,-0.07065024,-0.04162717,-0.057652224,0.05038232,-0.043760166,0.040517025,0.052954495,0.046297863,0.068814114,0.06293864,0.056193873,0.06200427,-0.058018178,0.051551454,0.033510745,0.046218604,-0.054673895,0.0630666,-0.07531409,-0.044044532,-0.058618017,-0.024049707,-0.07120104,-0.03682788,0.06306589,0.048245274,0.056494802,-0.04771192,0.066666946,0.028522786,0.052822605,0.06550247,0.059786506,-0.062916316,-0.044716213,0.04135489,0.049230628,0.06215551,0.050107237
SP8,0.011902962,-0.005735941,0.0085589215,-0.007255804,0.016797777,-0.015040749,-0.004918812,-0.02291228,-0.0009909682,0.011923265,-0.0045451336,-0.010140538,0.0037142104,0.0046451883,-0.0091975,0.007525433,-0.0062325634,0.0010853503,0.012146093,0.00762802,-0.004157059,-0.021367583,-0.021219175,-0.0070082955,-0.00076015666,-0.010238934,0.008350033,-0.006291818,0.020842671,-0.012826681,0.0026311278,-0.010998987,0.0018518232,0.0069915876,0.005621204,0.010268131,0.03391827,0.008124452,0.019700292,0.010950491,0.01755885,-0.015685264,0.0143837035,-0.01722632,0.0026615541,-0.008411681,0.011421848,0.001513008,0.0064179003,0.010829624,-0.0015049148,0.014538008,-0.011804387,0.012804236,-0.023009948,0.02346057,0.0021829477,0.023159876,-0.0091269165,-0.009183042,-0.002439566,0.012479458,0.0066140853,0.0031316476
TMSB4X,0.010264389,-0.011334814,0.0030889064,0.02146177,0.021578465,-0.010589564,-0.0215078,-0.022296518,-0.020354832,0.018517304,-0.0048309676,-0.007099174,0.013644658,-0.007710405,0.011414107,0.01738568,-0.0047500134,-0.009811124,-0.0007444918,0.011855716,0.025621422,-0.0287375,-0.020109754,0.02095468,0.025709366,-0.019034036,-0.019796476,-0.014698807,0.015882742,-0.015238266,0.00791119,0.01619131,0.014217336,0.014377218,0.017146975,0.014267143,0.036447052,-0.010364832,0.018513802,0.004390821,0.014317527,-0.013430238,0.017222382,-0.02219702,-0.009111831,-0.009397609,-0.020881467,-0.00932374,-0.012497995,0.010534126,0.0061109494,0.023842532,-0.005554255,0.022453282,-0.0011873133,0.026653338,0.013831943,0.01972003,-0.018489812,-0.012997087,0.018834554,0.016082818,0.02048995,0.015608998
ISYNA1,0.025166027,-0.03637951,0.01690165,0.03455552,0.041872624,-0.034051463,-0.053189244,-0.025744347,-0.04911349,0.04091958,-0.029745398,-0.026012834,0.044566076,-0.037262913,0.039052173,0.044081837,-0.015263032,-0.030647276,0.00026697665,0.036420196,0.030030586,-0.035362206,-0.043349132,0.0470058,0.055172436,-0.04794189,-0.031732768,-0.038168285,0.02950314,-0.033702023,0.021384642,0.04888108,0.03440783,0.04510052,0.041061275,0.032205008,0.04394646,-0.042012967,0.03587648,0.01409287,0.026944684,-0.03467305,0.04519058,-0.05100092,-0.026308006,-0.032207288,-0.027262866,-0.051574256,-0.029508013,0.039319307,0.0313252,0.043403655,-0.027916769,0.04902951,0.025027972,0.04076148,0.041905522,0.028835803,-0.046629675,-0.027469203,0.041940894,0.037015703,0.047485244,0.038148567
KLF10,0.050882995,-0.04787168,0.038735934,0.02787676,0.06750737,-0.0686055,-0.06836642,-0.052873027,-0.0695471,0.053151056,-0.04955201,-0.05870972,0.059076227,-0.05120067,0.050491154,0.056640413,-0.013988644,-0.05009961,0.025860261,0.05718728,0.030495897,-0.06395173,-0.07698706,0.026042383,0.063491344,-0.06879861,-0.026069887,-0.051307652,0.059291456,-0.048259296,0.04144761,0.04300559,0.033597246,0.06230585,0.070143536,0.06088745,0.08012548,-0.055126496,0.060137957,0.045582406,0.05880998,-0.061573714,0.063134044,-0.07554337,-0.043903433,-0.061870687,-0.0069634765,-0.06676237,-0.032521103,0.066225,0.048087224,0.062817425,-0.04961604,0.06385742,0.014171001,0.06290786,0.07002779,0.067350104,-0.065305285,-0.045230646,0.032380022,0.048341878,0.055873763,0.05190038
HSP90AA1,-0.03420139,0.015837584,-0.03514566,0.018496405,-0.021802649,0.031560384,-0.020015206,0.03568776,0.017986365,-0.0065690298,0.036568742,0.03608934,-0.016589735,0.0011400986,-0.017193623,-0.007209517,-0.012707844,0.031522326,-0.02950386,-0.02220006,0.012626477,0.030728407,0.034953438,0.04863998,0.03188076,0.01961638,-0.009066336,0.018992746,-0.030078579,0.00012882054,-0.012167962,0.034920227,0.008320514,-0.016338944,-0.024407161,-0.020489028,-0.02091308,0.007474308,-0.0038095638,-0.041150402,-0.029193558,0.029055431,-0.013399221,0.017415822,0.025014456,0.027511941,-0.041608006,0.009221856,-0.0076651312,-0.036221553,-0.014918374,-0.004183227,0.019529931,0.0036945567,0.017633643,-0.004338108,-0.0243649,-0.049352944,0.008278418,0.027227165,0.046308596,0.0069220588,0.003837388,0.0017146468
GNAS,0.007844012,-0.020730935,0.0013817586,0.028912272,0.027303781,-0.016877854,-0.037595198,-0.004683569,-0.026388703,0.01777463,-0.011335161,-0.009386815,0.027276665,-0.019570297,0.025482625,0.027347699,-0.013403237,-0.009809295,-0.0031837672,0.016162755,0.021377139,-0.014244379,-0.01695477,0.04543492,0.044118796,-0.023928769,-0.030248657,-0.017338235,0.0142431585,-0.022585407,0.018857975,0.04192031,0.03358297,0.028197262,0.016299335,0.022511993,0.012724791,-0.025161264,0.019354023,-0.0031008944,0.006631121,-0.010808252,0.018657655,-0.029427215,-0.0074067693,-0.010075195,-0.03260219,-0.024907136,-0.026152957,0.011838365,0.015986634,0.01813407,-0.01192813,0.038197823,0.023959484,0.016298532,0.014332671,0.007978454,-0.023496475,-0.011330381,0.04054234,0.023120575,0.02753241,0.020605583
AP1AR,0.016488548,-0.019792289,0.00655438,0.02892388,0.02786547,-0.017949743,-0.038723435,-0.019007862,-0.028927656,0.027179409,-0.010332663,-0.0073200315,0.028451648,-0.017594388,0.023467831,0.028508909,-0.011066772,-0.01423168,-0.00045399368,0.019325944,0.026902027,-0.028630082,-0.02505698,0.043299552,0.042742364,-0.029066194,-0.029927514,-0.024153344,0.018200297,-0.022529643,0.0145849995,0.03551394,0.025890267,0.027491469,0.022897441,0.023322225,0.029118046,-0.025652694,0.022954952,0.008357331,0.017837062,-0.018273674,0.027002798,-0.033037543,-0.015984328,-0.016627211,-0.02966611,-0.023014307,-0.022545401,0.016317785,0.017882885,0.028967893,-0.013649996,0.033144932,0.016607579,0.025915645,0.021544667,0.019249395,-0.029009745,-0.014976915,0.03394593,0.024793489,0.03213728,0.023033328
GM2399,-0.030341677,0.032091673,-0.037414506,-0.014875164,-0.036340464,0.050107412,0.042236064,0.013853788,0.045001894,-0.025820604,0.046851445,0.050311103,-0.042250283,0.04831447,-0.04269068,-0.039333053,-0.0037652478,0.045267597,-0.01641573,-0.045909524,-0.0069379434,0.027118023,0.03636472,-0.017431423,-0.035874743,0.03934267,0.014507204,0.033196494,-0.034609042,0.03364948,-0.041285783,-0.035910673,-0.013973448,-0.049668945,-0.051786534,-0.039426185,-0.01612056,0.053372055,-0.029482521,-0.039476525,-0.04089828,0.039668337,-0.039703384,0.045087248,0.048575196,0.054343224,-0.0065177456,0.06518783,0.028344225,-0.04559533,-0.046007454,-0.034787282,0.039298087,-0.035143804,-0.038726833,-0.022068776,-0.05297259,-0.034440473,0.05186101,0.036002643,-0.009503607,-0.026862405,-0.043762505,-0.040939376
AQP3,0.06753176,-0.053957775,0.069182776,-0.0027907975,0.08995961,-0.11633083,-0.0854772,-0.07624817,-0.07977256,0.051387534,-0.06361934,-0.10275351,0.05649795,-0.040370274,0.047688156,0.06360432,-0.009397447,-0.064606614,0.06517542,0.060784683,0.005086109,-0.073665254,-0.11037888,-0.006394323,0.06412982,-0.07298662,0.0096609,-0.052541215,0.09305703,-0.069440834,0.07389626,0.017283458,0.023734212,0.07044594,0.09441814,0.09763178,0.11683487,-0.05666115,0.08728273,0.0822263,0.089833945,-0.09768477,0.07179193,-0.09127492,-0.050408117,-0.105919845,0.029034786,-0.073694825,-0.025082681,0.08838503,0.05459527,0.0750566,-0.08664335,0.07544754,-0.007318668,0.07600152,0.08953056,0.110298604,-0.077466145,-0.04418697,0.013267878,0.071151584,0.06619844,0.06356246
DKK1,0.029977761,-0.028089618,0.021966279,0.026650976,0.046122294,-0.03606817,-0.03997602,-0.03440273,-0.042141158,0.032225635,-0.027407492,-0.0276073,0.035200223,-0.022597414,0.030566063,0.03481903,-0.008326929,-0.028059354,0.014555927,0.032892838,0.027820691,-0.046503738,-0.0443054,0.026677568,0.040148504,-0.04157566,-0.026546419,-0.032489497,0.034124985,-0.02893832,0.026634544,0.026590342,0.025727917,0.037730496,0.036212113,0.03576724,0.051135235,-0.026891882,0.03564393,0.022020392,0.031536594,-0.036545813,0.036829054,-0.04682425,-0.025916187,-0.03125719,-0.018808186,-0.034343265,-0.023455437,0.03308936,0.026333867,0.039067924,-0.022449315,0.040453047,0.008193474,0.040106032,0.03624414,0.04061343,-0.039312396,-0.02707522,0.0231176,0.02759698,0.036633182,0.02795719
FOXP1,0.040928558,-0.033693023,0.03967341,0.006078411,0.056107357,-0.062057123,-0.048598573,-0.046110176,-0.044706672,0.035360005,-0.030659676,-0.05785708,0.032204013,-0.021356279,0.025228754,0.037184916,-0.0018698946,-0.035950363,0.034857474,0.037334405,0.015577011,-0.057682052,-0.067703806,-0.0006265752,0.037403304,-0.043533538,0.001233086,-0.030357387,0.056018624,-0.043666475,0.043087743,0.007819653,0.015392974,0.04385755,0.054381464,0.052335747,0.07875988,-0.027892338,0.054631956,0.046542957,0.056521207,-0.056821547,0.04734177,-0.059685104,-0.03073605,-0.059659883,0.009176623,-0.04316285,-0.017774735,0.048641674,0.035635248,0.047771834,-0.047920298,0.043883722,-0.01179513,0.056429606,0.052439753,0.07022165,-0.046937812,-0.030252088,0.011710074,0.039594874,0.043847818,0.04008667
MATR3,0.014991026,-0.013112241,0.0061954632,0.0031455792,0.022086542,-0.016267037,-0.015994752,-0.02511477,-0.014595395,0.019773878,-0.008345265,-0.012094576,0.012866545,-0.009183856,0.0032444987,0.014778569,-0.008695934,-0.0073043797,0.006370794,0.013396526,0.009270713,-0.027791448,-0.024957156,0.0022295155,0.011914976,-0.019374523,-0.0058361962,-0.011930533,0.023196679,-0.016435344,0.0033578537,0.0049128793,0.008152582,0.013479568,0.015467202,0.012423364,0.03967844,-0.004240917,0.022150658,0.012542114,0.021483056,-0.019172832,0.020184305,-0.02356873,-0.0073041003,-0.009650424,0.0009772293,-0.00857811,-0.0030334853,0.013746735,0.008357348,0.020488162,-0.012029901,0.019423839,-0.013688013,0.030650213,0.016894534,0.023437463,-0.018461153,-0.011457328,0.00904648,0.017590266,0.014824066,0.014284845
CST3,0.030722938,-0.045307077,0.02450487,0.039851446,0.05675621,-0.049668647,-0.06570229,-0.023648592,-0.056428306,0.037709348,-0.040843766,-0.038478434,0.058566608,-0.04497043,0.057990685,0.053199485,-0.018332932,-0.03911359,0.010204092,0.04708559,0.032221697,-0.03401734,-0.051282987,0.061494302,0.06884874,-0.057137832,-0.04094491,-0.04731289,0.036654506,-0.042005382,0.041044526,0.06241485,0.04978962,0.061891925,0.047866393,0.049506687,0.033412296,-0.054077588,0.039866917,0.018393539,0.026173122,-0.03947016,0.049924936,-0.06284042,-0.028553857,-0.04377578,-0.035832174,-0.06387578,-0.039480206,0.048424616,0.041548237,0.042549312,-0.03830643,0.06479917,0.038111646,0.03563186,0.046646237,0.03448964,-0.052257884,-0.03537163,0.054592863,0.0417691,0.05474278,0.038721655
FOXD3,0.0321531,-0.021478418,0.029438488,-0.00524674,0.04291689,-0.052701652,-0.030612491,-0.037952885,-0.024319477,0.023581842,-0.022976022,-0.04476358,0.019619983,-0.009492502,0.0055403225,0.025093153,-0.002777353,-0.018610882,0.03187921,0.02549663,-0.0013794936,-0.042785183,-0.053337708,-0.009461183,0.01806024,-0.0286896,0.013424534,-0.018859502,0.047472265,-0.03457418,0.030830659,-0.003697101,0.0067120604,0.030538049,0.034096688,0.039575476,0.063210875,-0.01073876,0.042135246,0.03805904,0.046345267,-0.043255508,0.035236653,-0.0436014,-0.015408909,-0.043196406,0.018123765,-0.023653999,-0.0045338757,0.032017887,0.020957744,0.036263496,-0.040739626,0.031695828,-0.019435734,0.04254552,0.03498064,0.055129364,-0.03341702,-0.021631252,0.00077675283,0.029913254,0.030567605,0.02395048
GATA6,0.03854844,-0.04971654,0.029897146,0.039665814,0.06364848,-0.055394255,-0.06853908,-0.031964183,-0.06420047,0.044084974,-0.0465461,-0.042693578,0.063053,-0.047538836,0.06130985,0.058353588,-0.017429855,-0.044882476,0.013300175,0.052259155,0.034510247,-0.043442555,-0.059654504,0.05848783,0.06951734,-0.06480116,-0.042228185,-0.05192269,0.041848313,-0.04433548,0.04220613,0.06100567,0.049860124,0.06603257,0.054783415,0.052546654,0.04455045,-0.05678165,0.04517796,0.025919601,0.034140974,-0.048262842,0.057597052,-0.06956895,-0.035734974,-0.049591973,-0.032904707,-0.06861423,-0.04066922,0.056908652,0.046761498,0.04919291,-0.042345487,0.06638443,0.03665224,0.042611577,0.054788616,0.04454812,-0.057948932,-0.039747927,0.051123206,0.046811134,0.059788246,0.043640774
CTDSPL,0.01592686,-0.013761219,0.010906607,0.020666592,0.02777075,-0.017324539,-0.02289611,-0.023283564,-0.022305962,0.018870197,-0.01172955,-0.009653628,0.017340949,-0.006653,0.013568528,0.016874008,-0.005921282,-0.01250937,0.006545406,0.016425831,0.022750966,-0.03412275,-0.02629275,0.017693568,0.023814742,-0.024957381,-0.018079147,-0.017342612,0.020423379,-0.016302746,0.015180994,0.012974476,0.019609544,0.019098546,0.017474048,0.01970336,0.038325027,-0.009318059,0.022430148,0.0071514472,0.016194,-0.019218165,0.017122382,-0.02604815,-0.010970918,-0.011731112,-0.019940168,-0.013203586,-0.013526555,0.014928279,0.009235805,0.024634311,-0.0062230155,0.025740098,0.00011172891,0.026771154,0.014002785,0.025054,-0.021179326,-0.014384877,0.015644077,0.014523631,0.020061795,0.013946725
MANBA,0.038434617,-0.038785294,0.028916351,0.028946023,0.05403999,-0.04961282,-0.05435436,-0.04378237,-0.05744107,0.045185566,-0.036124792,-0.041312784,0.04662095,-0.039116707,0.038125634,0.045527756,-0.010606714,-0.040115595,0.0128670335,0.044798054,0.03084185,-0.05460678,-0.06158311,0.02637231,0.05229623,-0.0560028,-0.027081452,-0.041265372,0.044922605,-0.038756464,0.03183786,0.036214285,0.030525004,0.050000127,0.055009075,0.045589104,0.06772079,-0.04509841,0.046756066,0.033416547,0.04370136,-0.04598819,0.049309634,-0.059459843,-0.03381861,-0.046093747,-0.012494326,-0.052116405,-0.024778116,0.04917012,0.03512069,0.051463548,-0.035212412,0.05161398,0.01099002,0.052591372,0.05602823,0.053536624,-0.05386709,-0.036284253,0.030267289,0.037337396,0.046546426,0.041902177
NR1D2,0.046253167,-0.0435128,0.03295488,0.021185976,0.061689444,-0.060556255,-0.060719594,-0.04658715,-0.058871668,0.047914494,-0.040262587,-0.05197871,0.051886983,-0.047057737,0.04133573,0.04926795,-0.012280561,-0.042782754,0.024139456,0.050607547,0.026383482,-0.05925571,-0.06787727,0.021911737,0.05275914,-0.06049167,-0.021231793,-0.04494192,0.05642237,-0.04443211,0.037182502,0.037712403,0.029840847,0.056934144,0.060704134,0.054381855,0.07238612,-0.045632266,0.055491425,0.040663883,0.054540664,-0.05535968,0.054985434,-0.064944394,-0.040662557,-0.053580403,-0.0053890347,-0.05695543,-0.02785917,0.055053845,0.042787537,0.055212215,-0.044817857,0.05647141,0.0070562027,0.05808317,0.061953556,0.06196886,-0.05810008,-0.03854252,0.027650837,0.044306025,0.05038208,0.048018053
RAD51,0.054425023,-0.06095109,0.041252024,0.046921235,0.07093077,-0.06408799,-0.0839149,-0.050181165,-0.07981102,0.06439028,-0.051969934,-0.056911733,0.07463251,-0.06473676,0.06746285,0.070572704,-0.016650349,-0.06102164,0.014955167,0.06548256,0.04993029,-0.06279637,-0.08541881,0.06127819,0.07738802,-0.07853263,-0.045703843,-0.07023208,0.053406436,-0.050867748,0.043057203,0.06805417,0.049386792,0.07885945,0.07707086,0.060354687,0.06543382,-0.0721718,0.058056537,0.03958907,0.053328443,-0.06199577,0.074181765,-0.08359583,-0.05395911,-0.06789226,-0.02982232,-0.08452624,-0.046222266,0.07403542,0.060153954,0.071514525,-0.052684,0.074183926,0.03624888,0.061958358,0.079510614,0.064991325,-0.07488936,-0.05312715,0.056193575,0.05628058,0.07352899,0.05637166
GRB10,-0.0016163923,-0.0022216216,-0.008425321,0.01402064,0.005199965,0.005150294,-0.011381168,-0.010023996,-0.006593425,0.009883765,0.0039469786,0.011995569,0.0023056548,-0.0036608377,-0.0040874053,0.0035791807,-0.011451252,0.0033414606,-0.0083722845,0.0027092937,0.018936202,-0.0123759825,-0.0031774081,0.013274018,0.015652668,-0.0076228976,-0.008565307,-0.0028037168,0.0032364726,-0.008046322,-0.0044622906,0.013246292,0.007898074,-0.0010200385,0.000934314,-0.0026107263,0.02629324,0.0041501652,0.0113278255,-0.010009475,0.001376152,-0.0041531622,0.0052252896,-0.0062464774,0.00016893633,0.009871809,-0.021011844,0.002566412,-0.002455119,-0.0012257248,-0.0041325,0.0114734955,0.0033486262,0.0074722134,-0.0042965002,0.019527048,-0.0022723905,-0.0027815998,-0.009947371,0.0035134573,0.018458486,0.0077429805,0.011070877,0.008123001
BUB1B,-0.0028178915,0.0031440966,-0.010355778,0.01200236,0.0030530505,0.010191776,-0.007830244,-0.012284167,-0.002649853,0.007080107,0.011036884,0.013623029,-0.0015072422,0.004005931,-0.005295489,0.00052531064,-0.00661096,0.0064205695,-0.006841734,-0.0025875252,0.021787845,-0.012458066,-0.0016375687,0.011807334,0.01224863,-0.0036127828,-0.009182252,-0.00034384057,-0.00033830758,-0.0030574352,-0.0056538694,0.0057636686,0.0034377724,-0.0044764243,-0.0015135203,-0.0044908207,0.025358729,0.0068677943,0.007822778,-0.008778904,0.0003587082,0.00081285834,0.00022661686,-0.0032865852,0.004907811,0.009086089,-0.020967878,0.010547277,0.0003970042,-0.0054586194,-0.009471031,0.008897636,0.008784547,0.004277069,-0.0108653605,0.01722636,-0.004835083,0.00035148114,-0.0023906007,0.0041025095,0.01573085,0.0033301562,0.0071147196,0.0038334187
AGPAT4,0.027093276,-0.032210443,0.019087952,0.028764572,0.04789634,-0.03928314,-0.04405966,-0.031601354,-0.04472318,0.032068305,-0.032444306,-0.030524164,0.042107485,-0.027617343,0.0376831,0.039679024,-0.013420902,-0.027982602,0.014242921,0.034550413,0.02546943,-0.04127658,-0.043593325,0.03507189,0.045867294,-0.044713587,-0.028313562,-0.036346424,0.03426013,-0.031178791,0.027124673,0.03512324,0.0322096,0.042206656,0.035133347,0.03853686,0.045332246,-0.034187324,0.034530688,0.018834598,0.027686605,-0.035672825,0.03841661,-0.05124609,-0.023787228,-0.032949015,-0.022826687,-0.040996067,-0.024548087,0.03595914,0.02726839,0.037907325,-0.02717506,0.0460535,0.016968925,0.03650612,0.03617697,0.03642071,-0.04005223,-0.02681404,0.030876739,0.03031795,0.039103094,0.028190833
ECD,0.031090915,-0.030161686,0.019501977,0.030525718,0.043495964,-0.03425263,-0.04680489,-0.036390193,-0.045201596,0.039353296,-0.026036188,-0.02633527,0.03853528,-0.030769873,0.03236901,0.036579054,-0.010401044,-0.030732142,0.008748699,0.034898095,0.032611556,-0.046930548,-0.04711713,0.033148285,0.04456908,-0.043329358,-0.029429495,-0.037179936,0.033971526,-0.030521818,0.021962691,0.033982,0.026045136,0.03936508,0.040552408,0.033563495,0.05194866,-0.033399306,0.035864864,0.021134846,0.03308136,-0.03584545,0.041025877,-0.04647281,-0.02987664,-0.032159746,-0.02078332,-0.03837731,-0.025790218,0.034065958,0.029254006,0.044187367,-0.022621445,0.041202188,0.0114165135,0.044278022,0.04105972,0.038685206,-0.04363403,-0.028715637,0.029799404,0.030179556,0.041841466,0.031866286
CRAMP1L,0.05486297,-0.048330553,0.03984248,0.024868209,0.07006113,-0.07012314,-0.071069956,-0.05472986,-0.06566574,0.054088347,-0.04528524,-0.059377886,0.05848658,-0.053363897,0.04759939,0.05402018,-0.0128841065,-0.050210632,0.031972736,0.05825042,0.030068383,-0.067895405,-0.07993925,0.028303634,0.059729118,-0.066965654,-0.025674284,-0.05424038,0.0638366,-0.05042927,0.04627446,0.044009816,0.03227463,0.067453206,0.06853044,0.06393305,0.07733388,-0.0512226,0.062513724,0.047772445,0.06348987,-0.06432015,0.062655665,-0.07169671,-0.047573082,-0.06439232,-0.007919341,-0.062650695,-0.03441665,0.05993899,0.051049188,0.06428553,-0.051081773,0.06323926,0.012191106,0.06310564,0.068464555,0.07001224,-0.067412294,-0.044698823,0.030170962,0.04972375,0.059161317,0.053262234
TCEA1,0.017412335,-0.021653999,0.007865414,0.027405214,0.030725427,-0.019251563,-0.033614863,-0.025492262,-0.032855548,0.028816434,-0.015956484,-0.0128669515,0.027365645,-0.02056472,0.021494556,0.027362451,-0.009950466,-0.017566511,7.05719e-05,0.022921035,0.02664823,-0.033861686,-0.029755883,0.029551562,0.035213415,-0.03160905,-0.024981253,-0.024667442,0.021284565,-0.021768391,0.010780819,0.028664548,0.02139641,0.025822725,0.02493165,0.021068819,0.041233458,-0.023297807,0.024996812,0.0077710226,0.019704338,-0.022218399,0.027320264,-0.03315107,-0.017982578,-0.016768444,-0.021967702,-0.02566699,-0.01756281,0.020875033,0.015402017,0.03166142,-0.01288807,0.03148756,0.0079696365,0.033189524,0.02566259,0.023518443,-0.030717213,-0.017625142,0.026521225,0.021902885,0.030764554,0.024101254
SNHG12,-0.1649914,0.14466208,-0.15945219,-0.119358,-0.18042658,0.1982444,0.20573814,0.09016032,0.21522796,-0.14454222,0.159803,0.1680254,-0.1874568,0.18877812,-0.18481775,-0.1769121,0.00069384277,0.18139085,-0.08052891,-0.18354654,-0.10445948,0.18012112,0.19656059,-0.10408251,-0.1795037,0.17271717,0.1030911,0.18102255,-0.15864305,0.15161407,-0.18085462,-0.17109065,-0.10356848,-0.207713,-0.220487,-0.18037271,-0.14427902,0.19921406,-0.16092524,-0.14180449,-0.16452512,0.16866826,-0.15264243,0.19124024,0.18452248,0.2120038,0.06712432,0.23231235,0.16789597,-0.18479168,-0.18944888,-0.17744899,0.121640995,-0.18489376,-0.11680186,-0.12501696,-0.20873709,-0.17466128,0.21099193,0.14177208,-0.090644285,-0.12394328,-0.19477808,-0.20507604
GM9531,-0.06921742,0.067,-0.08051902,-0.035680227,-0.07679406,0.09853583,0.07318245,0.03543613,0.08468045,-0.05864305,0.08226952,0.08899085,-0.08404251,0.07906867,-0.08039712,-0.08062013,-0.0038355365,0.080350526,-0.044689685,-0.08115615,-0.02224435,0.070818804,0.08770478,-0.034160387,-0.061279815,0.07529953,0.030510832,0.07831128,-0.07434581,0.06901623,-0.081796035,-0.059896167,-0.041096274,-0.0926159,-0.09317632,-0.08050522,-0.047930934,0.08678917,-0.070388734,-0.07137942,-0.08109898,0.070307404,-0.06895721,0.09073131,0.075711966,0.10177596,-0.00051671267,0.108949065,0.058111437,-0.092775896,-0.08046283,-0.06863742,0.066634744,-0.08054817,-0.052159287,-0.04085753,-0.089615814,-0.082966775,0.0904208,0.07127914,-0.017047945,-0.052579366,-0.07200593,-0.0796921
RIF1,0.044594258,-0.051348414,0.034870267,0.029987823,0.06122697,-0.055344358,-0.064422466,-0.04023658,-0.0683197,0.050878108,-0.04552316,-0.043295987,0.057228576,-0.042226564,0.0534648,0.05655425,-0.0139114335,-0.049228594,0.014490265,0.057280302,0.029803105,-0.052181177,-0.06340396,0.035848107,0.06607344,-0.068403676,-0.03343106,-0.045201246,0.0431795,-0.04384812,0.041119315,0.045250274,0.042411793,0.05952167,0.06325517,0.053522684,0.06592584,-0.057197876,0.051610146,0.032556467,0.03594718,-0.04824067,0.052874506,-0.06154132,-0.03548377,-0.055128545,-0.024177536,-0.06739901,-0.0321511,0.056944557,0.041082695,0.054500118,-0.038966965,0.06038912,0.02071045,0.051133383,0.060559805,0.055560064,-0.05998249,-0.03863651,0.039357945,0.041087,0.05307999,0.04821443
MCAM,0.0484078,-0.038931556,0.05185394,-0.0021197684,0.06542495,-0.0780757,-0.055536546,-0.05613347,-0.05496379,0.037484996,-0.041782632,-0.074176274,0.035723966,-0.019105554,0.029324993,0.042851396,-0.0028531328,-0.046205677,0.04456731,0.041499704,0.009082414,-0.06012951,-0.080629684,-0.00852425,0.042360157,-0.049467806,0.010789931,-0.035629842,0.06752111,-0.051521618,0.053151883,0.002528742,0.016432151,0.048218463,0.066281304,0.0654486,0.093141556,-0.03608436,0.06451254,0.058336444,0.065701105,-0.07003944,0.051359072,-0.06843893,-0.033181064,-0.07572986,0.021657705,-0.050903652,-0.0153203495,0.06349565,0.036308363,0.0528907,-0.061378922,0.051773354,-0.015268143,0.06250864,0.06257537,0.086394295,-0.052826118,-0.033303853,0.007565569,0.04890007,0.049903173,0.045510184
ZFP296,0.05636166,-0.05089157,0.04867672,0.013339136,0.076248765,-0.08581918,-0.07285255,-0.05972073,-0.070800625,0.05096238,-0.052661385,-0.0753936,0.05641405,-0.04759184,0.0476486,0.057186697,-0.013276655,-0.052630365,0.040788826,0.058204077,0.01745399,-0.06695034,-0.087099455,0.012231667,0.060617115,-0.06872042,-0.00965523,-0.05059613,0.073409915,-0.056064438,0.053114958,0.032472,0.028584866,0.0659997,0.07581024,0.073463246,0.09143833,-0.053500094,0.069543496,0.059069283,0.07018152,-0.07346983,0.0652865,-0.078972414,-0.04447046,-0.07733625,0.008367296,-0.06798744,-0.027685184,0.07105341,0.050191678,0.06520815,-0.06472297,0.066524565,0.004554365,0.06610626,0.075807646,0.082551755,-0.06805153,-0.043483157,0.02387026,0.05569422,0.059254702,0.056221582
SSR3,0.03429631,-0.045809343,0.025279313,0.041122127,0.054664433,-0.046437137,-0.0687226,-0.026524901,-0.058332145,0.04538068,-0.037047736,-0.034568097,0.05816923,-0.04611788,0.057053782,0.055003956,-0.017278746,-0.04140926,0.0055565033,0.04642298,0.03763713,-0.039169975,-0.052644134,0.0656579,0.069517136,-0.05968791,-0.043336987,-0.050201353,0.036004882,-0.040645868,0.03658884,0.06404448,0.048088767,0.06200807,0.051953897,0.046471678,0.0381307,-0.055114,0.039963946,0.021781795,0.030710606,-0.04118783,0.0557696,-0.063541606,-0.03440477,-0.045107782,-0.037679754,-0.06430447,-0.040364,0.050155234,0.045061372,0.049745426,-0.038478076,0.061953537,0.038407,0.039474487,0.05117562,0.03770246,-0.055546362,-0.03634905,0.054776628,0.04594987,0.05930325,0.043356434
SLC16A6,0.050836526,-0.05672406,0.037371367,0.0405433,0.07002349,-0.060663983,-0.07437909,-0.04785098,-0.07373904,0.05766461,-0.05097969,-0.051898673,0.06911949,-0.057272535,0.06302726,0.065531865,-0.017375417,-0.055568203,0.0185985,0.06103971,0.041660123,-0.06028707,-0.076577194,0.054246496,0.068451755,-0.07329288,-0.042280503,-0.06375402,0.052169636,-0.047860302,0.040905997,0.06005261,0.048018895,0.072853595,0.06794862,0.058477037,0.062348947,-0.064109094,0.053962898,0.03746777,0.048906505,-0.057642285,0.0664442,-0.077503145,-0.048959866,-0.061597444,-0.02679015,-0.07508205,-0.040961284,0.06588316,0.053859375,0.06462954,-0.04955958,0.068277106,0.031151455,0.05500669,0.0711354,0.06124518,-0.06752076,-0.047111716,0.04823244,0.05122202,0.06646009,0.051102526
EZH1,0.025187291,-0.022845747,0.014853358,0.027121913,0.03769795,-0.02679723,-0.036684144,-0.031087741,-0.036498047,0.0313453,-0.018745687,-0.018779874,0.029953431,-0.02111686,0.025054388,0.029538207,-0.009271953,-0.023226483,0.007724028,0.027071053,0.02882383,-0.042819984,-0.038416352,0.026830297,0.03706969,-0.034784216,-0.02708447,-0.029050056,0.028260194,-0.024637207,0.017810293,0.026832134,0.022963323,0.03015412,0.031222094,0.028506506,0.046538886,-0.024568869,0.03019382,0.015911303,0.027193405,-0.028487865,0.031253874,-0.038060002,-0.022691512,-0.022557177,-0.020022899,-0.027252167,-0.021716435,0.025818117,0.021505924,0.03650041,-0.015173674,0.0341474,0.006516408,0.037591826,0.030893784,0.032564517,-0.035077985,-0.02253643,0.024396464,0.024572546,0.032259364,0.025371972
CCNG1,0.03668738,-0.046258107,0.027542152,0.035751116,0.061016597,-0.05236832,-0.06100794,-0.034492616,-0.060005147,0.04258556,-0.0446197,-0.04138404,0.05828283,-0.04270735,0.05544346,0.05477004,-0.017352708,-0.041184872,0.015064521,0.048141398,0.031923138,-0.045208078,-0.057300374,0.050577443,0.060807187,-0.060565792,-0.036317617,-0.050878752,0.041899614,-0.041058045,0.037175246,0.05336146,0.044506848,0.060643967,0.049511857,0.048487477,0.047680095,-0.05138182,0.042922013,0.026215069,0.03355121,-0.046025142,0.05322647,-0.06583832,-0.033051237,-0.04656558,-0.028595023,-0.06226772,-0.034077946,0.052781634,0.04203061,0.048345193,-0.040638722,0.06070644,0.030186374,0.041196898,0.051490482,0.043964677,-0.05381597,-0.03704202,0.044380598,0.04209967,0.05509298,0.039635412
FZR1,0.019096907,-0.020396521,0.008205228,0.029966291,0.02893084,-0.018652026,-0.03657258,-0.026017698,-0.031655073,0.029531073,-0.015682504,-0.011212122,0.028139269,-0.020072307,0.02275464,0.025891952,-0.010064948,-0.017824607,0.00057610124,0.022874853,0.0308109,-0.034869734,-0.030382074,0.03566983,0.037417263,-0.031556517,-0.026668526,-0.026106223,0.020542476,-0.02137829,0.012672119,0.030952854,0.022002853,0.026805613,0.02482598,0.021490991,0.039816484,-0.023461109,0.025379825,0.008674718,0.020943005,-0.022265635,0.028091867,-0.03470789,-0.019679477,-0.017621577,-0.025426216,-0.024283975,-0.019600775,0.021314489,0.016444469,0.033580855,-0.011880819,0.03161742,0.011740122,0.032115556,0.025342014,0.022627153,-0.030230975,-0.018573381,0.02979279,0.022367155,0.031983126,0.023569942
IMPDH1,0.0414315,-0.05236214,0.032042585,0.043092992,0.06279088,-0.054958656,-0.07483958,-0.033393722,-0.06736997,0.050839365,-0.04468058,-0.04354541,0.06554242,-0.052648712,0.06482926,0.062669605,-0.017372001,-0.049522124,0.008874025,0.053168833,0.04130932,-0.04528972,-0.062682375,0.066729605,0.07435764,-0.068998,-0.045396164,-0.05793753,0.04261098,-0.045149904,0.03992784,0.06706427,0.050794307,0.07006632,0.06112899,0.052719176,0.046098,-0.06114591,0.04613412,0.02811531,0.03742588,-0.050512437,0.06437795,-0.0724466,-0.04021792,-0.053974524,-0.035648584,-0.07426122,-0.044318307,0.061015982,0.05161097,0.057012737,-0.04566014,0.06922479,0.04063173,0.045632716,0.060926083,0.047254037,-0.062391605,-0.04429311,0.05688723,0.05295387,0.065768555,0.04904317
SLC25A4,0.04553151,-0.05615574,0.03584612,0.04421046,0.069198646,-0.06263903,-0.07866983,-0.038262695,-0.07184309,0.054226518,-0.052988127,-0.050280605,0.071611464,-0.05722976,0.0701704,0.065787874,-0.02059478,-0.053965405,0.015916325,0.060338676,0.04157809,-0.050191876,-0.07001242,0.06658907,0.07636592,-0.07435127,-0.04394699,-0.06492415,0.048859496,-0.04989452,0.04621037,0.07025017,0.053338077,0.07643421,0.06495628,0.058438793,0.05096087,-0.06540896,0.05113118,0.03224004,0.040674716,-0.056157343,0.06780134,-0.078838386,-0.043332584,-0.060279682,-0.036339045,-0.08047806,-0.04423714,0.06678273,0.056277998,0.061554357,-0.05033169,0.0725572,0.04148593,0.04950831,0.06594081,0.049898535,-0.0674776,-0.046913188,0.057293274,0.0521348,0.07002029,0.04969224
TRIM28,0.03259965,-0.11155954,0.0040182285,0.11982672,0.023139741,-0.010913713,-0.122332916,0.019972928,-0.093609124,0.07172064,-0.04548066,0.03893307,0.06854607,-0.07588957,0.12965293,0.06619687,-0.033977278,-0.06230586,-0.067640886,0.08243354,0.11544565,-0.0059938906,-0.009435052,0.1495652,0.12158564,-0.10284699,-0.15461718,-0.040509705,-0.0026923334,-0.023728382,0.060780622,0.14121178,0.12402317,0.105176,0.08628003,0.0367556,-0.015257448,-0.11139619,0.02508964,-0.045263693,-0.028374188,0.009363152,0.03378983,-0.019359276,-0.062396027,-0.0095299,-0.16523173,-0.10522643,-0.111530885,0.024438389,0.07180162,0.020976089,0.02503565,0.07592315,0.12561956,0.00537093,0.030788746,0.0058507174,-0.06029523,-0.0461333,0.13781169,0.019574601,0.079625204,0.091043
MTHFD2,0.041829787,-0.043578826,0.029540725,0.03497282,0.056261092,-0.050060585,-0.062460795,-0.043505758,-0.06083024,0.049752824,-0.03959961,-0.04225214,0.054292616,-0.045286838,0.046228573,0.0511671,-0.01191223,-0.04451312,0.013066959,0.049940586,0.03630756,-0.053721663,-0.063629515,0.04254439,0.059811607,-0.05949996,-0.034062803,-0.050020736,0.044313107,-0.04145985,0.033298932,0.047060497,0.035422325,0.05691656,0.05766967,0.047149964,0.06057723,-0.051053517,0.048045285,0.031692833,0.043176405,-0.049274184,0.055620447,-0.06288322,-0.039627902,-0.049924653,-0.021065935,-0.059586927,-0.033845942,0.051614486,0.04254742,0.055746023,-0.037147693,0.056115605,0.020884316,0.0539624,0.059613865,0.051551286,-0.05829303,-0.039469745,0.03947835,0.042339683,0.056139503,0.04350631
HIST1H1B,0.041376233,-0.04570642,0.02937667,0.03807011,0.056805663,-0.049913324,-0.06513438,-0.041959994,-0.06355845,0.048822306,-0.04318057,-0.04152383,0.05743376,-0.046739522,0.04754086,0.053466126,-0.012104765,-0.044036195,0.009238943,0.050986722,0.037799694,-0.051365625,-0.06479046,0.044301983,0.060675535,-0.062894665,-0.034737356,-0.04938451,0.041945603,-0.042196035,0.031253457,0.050449237,0.03755968,0.058408868,0.05763667,0.046450336,0.06095667,-0.054448128,0.048866767,0.029294305,0.04135711,-0.049921818,0.05582068,-0.06467424,-0.039174035,-0.0492985,-0.020510562,-0.06377147,-0.034124438,0.055350296,0.0407207,0.054933973,-0.03803441,0.060151625,0.02407157,0.05257086,0.060399782,0.05102971,-0.0580855,-0.042073417,0.045476723,0.044047255,0.05617482,0.0451316
ZFP275,0.0071925223,-0.0035635382,0.0025843903,-0.009288706,0.012930796,-0.012790823,-0.0003191866,-0.019702246,0.0041016266,0.010054083,-0.0012375452,-0.007338036,-0.00014038663,0.0058014267,-0.011162025,0.005493406,-0.0073212273,0.004916545,0.010337852,0.004357571,-0.0074769855,-0.017719071,-0.016810592,-0.00730082,-0.004094977,-0.007819638,0.0087143555,-0.0038585924,0.018039402,-0.009508185,-0.0024527833,-0.011026811,-7.2821975e-05,0.0027530007,0.00041520037,0.005950082,0.029715694,0.0100126015,0.016523669,0.008151315,0.014690954,-0.010888562,0.012249742,-0.013659701,0.005735589,-0.0049569067,0.012529947,0.0045133308,0.009254698,0.004610587,-0.0040467577,0.012584256,-0.009257562,0.009457592,-0.023354098,0.019432765,-0.00064775,0.018435657,-0.0052097067,-0.0056537613,-0.0031340905,0.012017839,0.0034195296,-0.0010395767
TAF1,-0.020964526,0.022005077,-0.026682705,-0.014477938,-0.018562317,0.030389378,0.02501909,-0.003227815,0.031870887,-0.013245327,0.028018486,0.03164518,-0.025012039,0.032522537,-0.032910876,-0.02565103,-0.005193658,0.030886859,-0.009613499,-0.025740486,-0.004894674,0.008542474,0.02180936,-0.01465128,-0.021316875,0.02283486,0.010479733,0.022218365,-0.018236049,0.018876813,-0.026765767,-0.02616534,-0.016513381,-0.033366166,-0.03354743,-0.026504597,0.0057423115,0.036533326,-0.014222071,-0.020038702,-0.016853966,0.017891735,-0.016721077,0.021451816,0.029182354,0.0340176,-0.0010336861,0.044385884,0.023298435,-0.027496893,-0.031968184,-0.015856132,0.021600366,-0.021578114,-0.032739572,-0.00016662478,-0.031844407,-0.017262816,0.026431873,0.022561917,-0.0060192384,-0.012648575,-0.02295055,-0.025510862
CKB,-0.011628794,0.011780143,-0.016736692,0.008571785,-0.006585691,0.01966931,-0.0010553412,-0.004339613,0.007530734,-0.00056529976,0.017228123,0.024528712,-0.010751679,0.011238018,-0.01497015,-0.008589074,-0.009660214,0.015833057,-0.010530949,-0.010903902,0.018405564,-0.002483354,0.009415926,0.007978138,0.005465638,0.004546538,-0.0018372238,0.007988803,-0.009366081,0.0036654249,-0.010951716,0.0017826371,-3.451109e-05,-0.014666707,-0.011496095,-0.014234947,0.018909626,0.017016735,0.0022196174,-0.017891362,-0.009001814,0.0068099946,-0.0069439225,0.006262012,0.012527125,0.018707322,-0.022392213,0.019624136,0.006743256,-0.0133115575,-0.016847864,0.0014991704,0.014961556,-0.0047276467,-0.01307714,0.0117403045,-0.016641637,-0.011336297,0.0057404786,0.013223367,0.015905518,-0.0023567118,-0.00064602494,-0.0031546988
NOP56,-0.017705636,0.0077716075,-0.02121859,0.020857576,-0.0078604,0.01819384,-0.021231417,0.01478143,0.0050538443,0.0018361416,0.02233779,0.022908546,-0.0060857283,-0.0010414612,-0.0066671893,-0.0004170984,-0.010101482,0.017638376,-0.01860851,-0.0098415455,0.018529668,0.009362648,0.016323468,0.039744418,0.03185683,0.006003082,-0.013901837,0.007350553,-0.014389523,-0.0047752038,-0.0052084383,0.02808081,0.009610828,-0.007500915,-0.010528496,-0.0070285033,-0.0005122423,0.002154559,0.003707923,-0.027109966,-0.013109803,0.013009079,-0.0024260506,0.002633512,0.013223761,0.015054973,-0.035801068,0.0041344445,-0.010851342,-0.020379137,-0.007866978,0.0048078094,0.012533337,0.008679394,0.01108278,0.007584937,-0.012310573,-0.025661059,-0.00075903535,0.0139695965,0.03579922,0.009733986,0.010022052,0.0059323944
COPA,0.025414534,-0.038665537,0.017984178,0.03860386,0.045047987,-0.03756637,-0.06171131,-0.01929475,-0.048578873,0.0380302,-0.028756782,-0.026815921,0.050288018,-0.040634405,0.047991544,0.047266692,-0.016628716,-0.03266664,0.0017761141,0.038390763,0.033591285,-0.030675098,-0.042137705,0.06273061,0.064228,-0.04951342,-0.039148018,-0.041363176,0.02911884,-0.03659539,0.030853339,0.0598807,0.043515027,0.05248123,0.042079903,0.03965132,0.030861937,-0.048004523,0.03433204,0.013905972,0.02386298,-0.03158906,0.046306945,-0.053920526,-0.026229797,-0.035505854,-0.03712693,-0.054695595,-0.035969686,0.039588206,0.03602227,0.042021316,-0.031508725,0.05632292,0.035536762,0.03357389,0.041169286,0.027384698,-0.047975935,-0.029310603,0.052882172,0.040289897,0.050638746,0.037568696
SKIL,0.024203546,-0.024796426,0.013822917,0.0190485,0.035858028,-0.024734331,-0.034613572,-0.031445816,-0.03587741,0.031569444,-0.019123126,-0.020940017,0.028425239,-0.02460217,0.020595357,0.028633654,-0.008875769,-0.023661697,0.005181607,0.027036564,0.02565866,-0.0397242,-0.037217397,0.01795536,0.03181017,-0.035472855,-0.021415599,-0.026042446,0.030528866,-0.025241975,0.014247742,0.023346681,0.019808788,0.029563662,0.03327877,0.024275728,0.04989462,-0.023735253,0.031675078,0.016430438,0.029031886,-0.02822294,0.030408185,-0.036196124,-0.021760589,-0.022084849,-0.011442624,-0.028321706,-0.01560596,0.02622009,0.019453807,0.033697866,-0.01805573,0.033504266,-0.00061658025,0.040907446,0.033490006,0.033589978,-0.035031624,-0.022022668,0.022789346,0.024590917,0.030981157,0.028751977
RRBP1,0.015860032,-0.03147528,0.008819137,0.034316275,0.038438663,-0.027004866,-0.052209504,-0.007090889,-0.0389937,0.026600543,-0.01903325,-0.016450413,0.04076206,-0.03135707,0.03924249,0.04011611,-0.015618503,-0.021474602,-0.0033197477,0.028107462,0.025526114,-0.018105961,-0.027473304,0.058449116,0.05791588,-0.037885964,-0.0379453,-0.028745778,0.019332424,-0.02986025,0.025528118,0.055773735,0.042704895,0.041988295,0.028760368,0.031643324,0.015906762,-0.039722495,0.025480662,0.0034446865,0.012062091,-0.01939236,0.03262862,-0.040623404,-0.015724452,-0.021788372,-0.03616315,-0.042887524,-0.032685887,0.025890207,0.027167754,0.027130462,-0.022953413,0.04963788,0.03312063,0.021534849,0.027400218,0.016311046,-0.03638457,-0.019542422,0.050771546,0.03379018,0.04068545,0.030508712
PHB2,0.010874398,-0.025270179,0.0043655857,0.036472436,0.02485026,-0.018978242,-0.055459253,-0.004213862,-0.032314826,0.03293177,-0.01012307,-0.011136167,0.03602253,-0.033619095,0.031655595,0.03407374,-0.015104331,-0.018341916,-0.013313085,0.023957705,0.030225791,-0.014942885,-0.02395638,0.064848885,0.059829906,-0.033882093,-0.03261602,-0.027598295,0.013110989,-0.028882504,0.019036274,0.059660885,0.035918273,0.036120165,0.028130807,0.022656994,0.016819827,-0.037930556,0.024668237,-0.00048655272,0.011744119,-0.015781838,0.034688868,-0.03787908,-0.015607325,-0.020257492,-0.0393731,-0.043073118,-0.029513326,0.022876717,0.024650788,0.033156812,-0.019181952,0.044514183,0.034211222,0.02726268,0.02791017,0.005402744,-0.037621785,-0.015847024,0.05472584,0.033540074,0.04235508,0.031935725
IFITM3,-0.06206861,0.057181608,-0.06491827,-0.050671704,-0.07031058,0.08330679,0.08825275,0.02424144,0.09503873,-0.05240187,0.06529544,0.07513383,-0.07390406,0.08606132,-0.08142457,-0.072152324,-0.0018086061,0.07802852,-0.034379996,-0.07415245,-0.036629815,0.058618225,0.069366656,-0.04856505,-0.07606518,0.06851415,0.039559446,0.06982019,-0.06153979,0.061342135,-0.07474032,-0.07489428,-0.04358836,-0.08665091,-0.09027965,-0.0784357,-0.03930577,0.08426901,-0.059274763,-0.05557933,-0.057947487,0.064340696,-0.062390164,0.07169618,0.076064445,0.087292835,0.021305703,0.10361004,0.068661764,-0.07137926,-0.07996264,-0.07229741,0.052615993,-0.0762313,-0.06354501,-0.037772916,-0.0865078,-0.0620645,0.08290228,0.061376672,-0.031269614,-0.046005636,-0.07746671,-0.08154734
MRPS5,-0.0036727302,-0.0016930718,-0.009250894,0.016030807,0.0052204467,0.004808179,-0.012948014,-0.009814721,-0.007726608,0.010620361,0.004911896,0.010499418,0.0032608826,-0.004119675,-0.00082347356,0.005740583,-0.00978557,0.0022055078,-0.010551639,0.0027134754,0.019619785,-0.011792355,-0.0024209227,0.017063808,0.01945227,-0.0087789,-0.010672212,-0.0032053255,0.0024446948,-0.0082078315,-0.005109716,0.013257772,0.009261083,-0.000844121,0.0020187888,-0.0010648239,0.02687312,0.00042375177,0.009316001,-0.010597315,-0.00031736493,-0.001969181,0.005805455,-0.0068203583,0.0017551519,0.0072999094,-0.02279614,-0.0005970113,-0.0028221272,-0.0018431544,-0.0054164436,0.0132012,0.0027129725,0.009632017,-0.0036415085,0.018974215,-0.0012538082,-0.0021380186,-0.009364083,0.0011403449,0.020318445,0.0074975155,0.011712167,0.008291511
GM43558,-0.07865685,0.07160294,-0.09394418,-0.03771673,-0.10516359,0.13577616,0.07138425,0.05752109,0.093914226,-0.07432104,0.10333973,0.12470883,-0.10155103,0.08971537,-0.084725484,-0.0969765,-0.0023797974,0.087257996,-0.07833211,-0.09616934,0.0021614395,0.09988493,0.115531616,-0.03031883,-0.062891826,0.07829112,0.019510776,0.09808938,-0.10007006,0.08620763,-0.09569411,-0.04820777,-0.04091223,-0.10879116,-0.09978602,-0.10599799,-0.06408954,0.09056461,-0.0884662,-0.09666562,-0.10510961,0.08419107,-0.09586967,0.12432589,0.081015535,0.12690666,-0.030912511,0.119610935,0.060295828,-0.11963175,-0.081217386,-0.09955577,0.087752625,-0.10432239,-0.045025192,-0.043716587,-0.10130365,-0.11424211,0.10017313,0.091885895,0.009226028,-0.06019602,-0.070067905,-0.07930236
TMEM231,0.038323574,-0.039048307,0.028003283,0.03008112,0.05279056,-0.045310147,-0.05557274,-0.042105217,-0.054563288,0.045282178,-0.038477767,-0.038663544,0.047677588,-0.040477123,0.040600874,0.04447912,-0.011002369,-0.039430752,0.01379717,0.045198582,0.033112697,-0.05082022,-0.05860372,0.03304896,0.0513113,-0.054762397,-0.02855751,-0.043571506,0.04243479,-0.039680135,0.029503629,0.03874457,0.031390905,0.048607614,0.05231946,0.04268305,0.06132871,-0.04237535,0.045627322,0.02758257,0.04163455,-0.04708036,0.050204977,-0.058616593,-0.03610138,-0.044333167,-0.016148962,-0.05139423,-0.02885646,0.04521142,0.035811603,0.04958649,-0.033735372,0.050512586,0.011913251,0.052481353,0.052417822,0.048108466,-0.053418577,-0.03463255,0.033699125,0.037174065,0.04863924,0.039528668
ZFP990,-0.050957676,0.047769453,-0.055402048,-0.038367607,-0.054104824,0.07029329,0.064954355,0.017695196,0.07341957,-0.04113455,0.054073665,0.062223285,-0.05939941,0.06599781,-0.06790356,-0.058645956,-0.0021702796,0.062775254,-0.029776543,-0.05943782,-0.025752187,0.046471544,0.059465773,-0.036233738,-0.05643153,0.056214213,0.030493397,0.056599744,-0.049761657,0.048016332,-0.060987458,-0.055332948,-0.034701247,-0.070708215,-0.07294144,-0.063446306,-0.02646923,0.06879238,-0.047569215,-0.048617754,-0.04843828,0.050253905,-0.04892964,0.059629142,0.05907166,0.07254498,0.011563763,0.08467209,0.05131966,-0.061878216,-0.06418724,-0.054812767,0.04264646,-0.05936258,-0.05206653,-0.02446945,-0.06950024,-0.052066088,0.06406462,0.05216573,-0.019877736,-0.036068425,-0.057907853,-0.06146025
ZFP148,0.04424447,-0.041875824,0.03102149,0.030544575,0.057816062,-0.050432883,-0.05993947,-0.045549124,-0.058793906,0.049486935,-0.03787799,-0.043317176,0.051419936,-0.044132706,0.043494575,0.048877,-0.0110638365,-0.044343702,0.018437568,0.048315093,0.036076367,-0.057512745,-0.06454566,0.03614031,0.054492556,-0.05726249,-0.032335863,-0.049600814,0.047250293,-0.041267835,0.03463059,0.041675158,0.033636793,0.05525331,0.056912806,0.048536774,0.062304504,-0.045933083,0.048693493,0.034592763,0.046854485,-0.050092667,0.054343365,-0.062378943,-0.041503042,-0.04971342,-0.017212473,-0.054060496,-0.032191787,0.04916854,0.04227581,0.055921994,-0.03678747,0.05380941,0.01542278,0.054701895,0.058390446,0.05552107,-0.058208957,-0.03868657,0.033486404,0.04107017,0.052975167,0.04244724
MIR295,-0.06446788,0.0537226,-0.05038677,-0.056081105,-0.06528798,0.069105916,0.095763296,0.023048893,0.09770034,-0.049109206,0.0585821,0.06370363,-0.073448986,0.08452306,-0.09465599,-0.06705285,0.0016580075,0.07956524,-0.023346499,-0.07203802,-0.056341484,0.055317387,0.06233844,-0.05434677,-0.085145,0.0747091,0.0597706,0.064697206,-0.050249156,0.050131723,-0.067011826,-0.08841574,-0.046190742,-0.08243553,-0.09585923,-0.07354403,-0.036217503,0.087895475,-0.04908506,-0.04902398,-0.05004593,0.0651329,-0.056936823,0.06163858,0.08180815,0.076841936,0.04437133,0.09506641,0.075057544,-0.06288247,-0.084491104,-0.06537736,0.03819956,-0.06823766,-0.06879456,-0.041284718,-0.09284948,-0.050512612,0.077490985,0.05399373,-0.045362625,-0.047081262,-0.07885862,-0.08189607
PHF12,0.020546496,-0.021503387,0.0108116865,0.029145736,0.03198749,-0.022028152,-0.036734555,-0.029181033,-0.034292255,0.030076157,-0.017139364,-0.014933847,0.027633227,-0.021413058,0.023226991,0.027712796,-0.0094322935,-0.0204988,0.0025069527,0.024857959,0.028636418,-0.037058365,-0.032885168,0.030539121,0.038460076,-0.0325875,-0.027368188,-0.02613404,0.024075214,-0.02297642,0.013762474,0.028334422,0.020390198,0.027425777,0.02857405,0.0244588,0.043856595,-0.023968665,0.027735516,0.011066444,0.02360845,-0.02568651,0.02963458,-0.03574653,-0.020465774,-0.019701205,-0.021420002,-0.026363736,-0.021388624,0.022622043,0.018527815,0.035228163,-0.012594651,0.033072427,0.009304088,0.03601103,0.028108213,0.025755048,-0.03301412,-0.020734433,0.027186109,0.024042154,0.03265794,0.025422502
MT-TF,-0.074564174,0.071978495,-0.08342278,-0.040797003,-0.08122574,0.10536821,0.08196817,0.039664485,0.091220625,-0.06299678,0.087280154,0.092224166,-0.088794306,0.086049035,-0.08820821,-0.086820684,-0.0023173913,0.0860438,-0.04505495,-0.08796131,-0.027688967,0.074953556,0.09203104,-0.03905739,-0.07016204,0.08244608,0.03643222,0.08387637,-0.07963794,0.07324283,-0.08706593,-0.0656579,-0.04411376,-0.09890893,-0.10330679,-0.085950345,-0.053284213,0.09477425,-0.07710011,-0.07529116,-0.085053794,0.076950535,-0.07478758,0.0950173,0.08342518,0.10761517,0.004680477,0.1171788,0.06397907,-0.0984322,-0.08553189,-0.07506182,0.06972642,-0.0863457,-0.056596115,-0.04604111,-0.09516595,-0.0880342,0.09758411,0.07723218,-0.02259339,-0.057446577,-0.08184211,-0.08710214
HSP25-PS1,-0.09302705,0.08150378,-0.07951704,-0.07750462,-0.09925227,0.10440225,0.13043588,0.038550824,0.13722934,-0.07650293,0.086808085,0.09491424,-0.10569776,0.118996836,-0.12035617,-0.098509155,-0.00092563033,0.110993505,-0.03595385,-0.106039174,-0.07209894,0.091068484,0.10048097,-0.072771996,-0.115770474,0.09960213,0.07253495,0.09512445,-0.08156984,0.08100024,-0.10046253,-0.1161069,-0.06380093,-0.119978055,-0.13193421,-0.10461687,-0.067046255,0.12268552,-0.08107181,-0.072988816,-0.0801441,0.0947191,-0.084750645,0.09682165,0.11482213,0.11676712,0.052990884,0.13844395,0.10462746,-0.09563385,-0.1172768,-0.100315295,0.06465285,-0.10284364,-0.084460504,-0.06754091,-0.12940669,-0.08630763,0.117268205,0.077815086,-0.06230047,-0.06854924,-0.116683826,-0.1199811
AF357399,-0.09614101,0.08518131,-0.08435326,-0.08170706,-0.10420382,0.1085592,0.13449389,0.042017736,0.14261039,-0.08009495,0.0893323,0.09896207,-0.11037637,0.12376939,-0.124866575,-0.104233794,-0.0016618818,0.11532612,-0.038821235,-0.10997699,-0.07631927,0.09545932,0.105387546,-0.07564254,-0.12044515,0.10359351,0.0754874,0.102029145,-0.08598263,0.084520444,-0.10481655,-0.11837621,-0.06565666,-0.12589145,-0.13844354,-0.10828281,-0.07028723,0.12775783,-0.086765066,-0.07607969,-0.08542479,0.097669944,-0.08981895,0.101775154,0.11935018,0.122683525,0.054339033,0.14444706,0.1087132,-0.099416524,-0.12052624,-0.10361558,0.06823076,-0.10761097,-0.08438207,-0.070693724,-0.13276806,-0.09291899,0.12144272,0.08347381,-0.065240145,-0.0710216,-0.12270638,-0.12563899
CLN6,0.025375776,-0.02468384,0.016787138,0.02762894,0.040430807,-0.03196133,-0.03710864,-0.031025952,-0.03678166,0.028672319,-0.025660656,-0.024019584,0.033397455,-0.020642852,0.029057503,0.030136935,-0.010576427,-0.024248144,0.013712624,0.02923547,0.027718194,-0.042258166,-0.039531913,0.029013302,0.03925088,-0.037511032,-0.025902033,-0.03195479,0.031147275,-0.026131846,0.023927078,0.026901094,0.025646918,0.033753138,0.030595278,0.03351199,0.044982284,-0.024889568,0.031095184,0.015213482,0.026393957,-0.03193297,0.032129977,-0.04389434,-0.021740796,-0.026593264,-0.022124633,-0.03031913,-0.022635136,0.028567817,0.022659814,0.035397165,-0.01865945,0.037838545,0.01017734,0.036639243,0.029893849,0.033558518,-0.03525137,-0.023661774,0.02434408,0.024553934,0.03308033,0.022516407
TAF5,0.05357974,-0.048311383,0.038011156,0.02764016,0.068001166,-0.066965945,-0.07089768,-0.05328299,-0.06641357,0.05599813,-0.045134895,-0.057824977,0.058729842,-0.05471511,0.048766762,0.054651447,-0.013210721,-0.05129233,0.028138073,0.057996035,0.033558004,-0.06626974,-0.07826074,0.032264385,0.06190054,-0.06711619,-0.029005721,-0.055850495,0.06133094,-0.04977691,0.043556325,0.047019884,0.034278087,0.066110745,0.06884603,0.061347716,0.074650764,-0.053185813,0.06083467,0.04502175,0.061383165,-0.062580526,0.0633866,-0.07159563,-0.04799038,-0.06282745,-0.010245189,-0.063861564,-0.03536508,0.06073965,0.051563725,0.06466855,-0.048856173,0.06273116,0.014211077,0.06353736,0.06953264,0.067366764,-0.06764574,-0.04494876,0.03233767,0.049303815,0.05915602,0.052484408
SNORA33,-0.07146311,0.06377901,-0.058909237,-0.06264469,-0.07432951,0.07853224,0.10504955,0.027145758,0.107962325,-0.056664705,0.0658156,0.07247196,-0.08233518,0.095298804,-0.10210961,-0.07732461,-0.0015921369,0.086298935,-0.024525411,-0.08225847,-0.061054215,0.06494233,0.07340907,-0.05995764,-0.0913572,0.08132668,0.06303351,0.07150124,-0.05919304,0.060875267,-0.0762572,-0.094423205,-0.05190814,-0.09361333,-0.10587501,-0.08093906,-0.044409245,0.09745132,-0.05984123,-0.05641173,-0.058552973,0.07343647,-0.06291032,0.07128401,0.09281838,0.08940916,0.047049716,0.109452486,0.08304198,-0.07259214,-0.09407307,-0.07306979,0.045937628,-0.07795766,-0.07173361,-0.047795825,-0.10346094,-0.06321743,0.08841775,0.060926523,-0.051857214,-0.053158395,-0.09077531,-0.094038084
PRPS2,0.025119044,-0.02464936,0.016672548,0.027932037,0.04149393,-0.031393416,-0.036823563,-0.031345274,-0.03738527,0.0282544,-0.023791406,-0.023438662,0.0329061,-0.019010462,0.028874278,0.032535918,-0.009398304,-0.021992,0.012746984,0.027912213,0.028389119,-0.041632313,-0.039243937,0.02803747,0.038056046,-0.037163395,-0.025775641,-0.030965548,0.029919256,-0.026586588,0.023139685,0.027449295,0.024788309,0.033540946,0.031120123,0.03259618,0.045225665,-0.024894694,0.030988114,0.016630761,0.025991874,-0.0314015,0.032821514,-0.042816132,-0.020700635,-0.026548017,-0.02289828,-0.028803755,-0.021906469,0.027911812,0.02211242,0.034671143,-0.019309144,0.037655678,0.008379895,0.036022216,0.029787205,0.034528658,-0.033944037,-0.02406916,0.024732932,0.023940913,0.033472333,0.02323873
MXD4,0.047063738,-0.048703093,0.03511098,0.029874485,0.065230764,-0.057733104,-0.063496076,-0.048643135,-0.06401481,0.050914913,-0.046184484,-0.05225321,0.05610804,-0.047903087,0.049331225,0.054919366,-0.011286043,-0.05026044,0.023046736,0.053877875,0.033516146,-0.06048869,-0.06935579,0.037373666,0.05644145,-0.063173465,-0.032592043,-0.053223167,0.052683562,-0.04408064,0.040874965,0.04329534,0.03614185,0.06288563,0.060525298,0.054929566,0.06644347,-0.049498565,0.05242509,0.038094886,0.049625177,-0.05589692,0.058668993,-0.069453746,-0.04468707,-0.05681328,-0.01551,-0.061636258,-0.03478797,0.056094963,0.046187244,0.060416553,-0.044768967,0.061128568,0.020558644,0.054815203,0.06357903,0.061483685,-0.062359795,-0.042727668,0.033616915,0.0461709,0.0568122,0.045795143
MDK,0.040634923,-0.054954957,0.030252494,0.045462754,0.06174609,-0.054135703,-0.07907188,-0.03284064,-0.07000105,0.05541508,-0.048646443,-0.04845266,0.06984406,-0.06075992,0.06520903,0.06376,-0.01991067,-0.05180043,0.005588025,0.055708587,0.042647712,-0.0442053,-0.06559489,0.070743725,0.07641064,-0.07078696,-0.042879954,-0.0622983,0.043542776,-0.04664916,0.038343333,0.074646115,0.053157642,0.07199052,0.06257334,0.050754957,0.045796014,-0.065620035,0.04718882,0.02363307,0.038151078,-0.050682046,0.06542437,-0.076454625,-0.042687275,-0.053626396,-0.035257593,-0.081279874,-0.043676738,0.06422365,0.053701535,0.059580658,-0.04788177,0.071745865,0.04482584,0.04935532,0.06600347,0.041749325,-0.06671005,-0.0426233,0.061273105,0.053181097,0.06894128,0.05087426
MAPKAPK2,0.011944361,-0.010221237,0.0050911605,0.021003798,0.022027425,-0.010549119,-0.018021269,-0.018989153,-0.018710146,0.015506432,-0.0069420673,-0.0043349713,0.013241504,-0.0018170518,0.010353144,0.013048209,-0.005968392,-0.0074237455,0.003072247,0.011413241,0.023544185,-0.028006021,-0.019936904,0.01911259,0.022141185,-0.018472828,-0.018239439,-0.014095485,0.015762787,-0.012625143,0.012485661,0.013520345,0.018113963,0.014187563,0.011567535,0.014828177,0.031997185,-0.0077680517,0.017616566,0.0010027513,0.01170915,-0.012047239,0.011424802,-0.020325031,-0.0062394273,-0.00737066,-0.023219936,-0.0056444705,-0.012670625,0.008473363,0.004699245,0.018600816,-0.0011177771,0.020843174,-0.0004953332,0.021175422,0.008706171,0.019188844,-0.015432797,-0.008517191,0.015783463,0.010944169,0.016832475,0.0107519245
DDIT3,0.047222465,-0.050420336,0.033882223,0.033490602,0.065767884,-0.058049746,-0.06595519,-0.047722254,-0.06815031,0.05263476,-0.050154507,-0.053994555,0.061869334,-0.051184993,0.05422604,0.058075245,-0.012975879,-0.0518039,0.020662796,0.055214256,0.0365024,-0.05888867,-0.07059212,0.044119503,0.060544796,-0.06626654,-0.034712315,-0.05609118,0.05197517,-0.0448275,0.040024087,0.04851379,0.04199735,0.06533061,0.06226308,0.055273466,0.063875124,-0.05489803,0.05201187,0.03635689,0.048052363,-0.055501603,0.06174436,-0.07434654,-0.04562282,-0.058026835,-0.018451855,-0.06683873,-0.034943867,0.059720986,0.047742687,0.059406944,-0.047007665,0.0632294,0.024571907,0.05518382,0.06593267,0.059989158,-0.062300533,-0.043719325,0.039111704,0.047089316,0.059718493,0.047061086
PRRX2,0.021354891,-0.0125865545,0.018150926,-0.009469677,0.029073011,-0.03820681,-0.01593839,-0.029643863,-0.008561587,0.017135877,-0.012564119,-0.030489229,0.009373765,-0.0016449434,-0.004332384,0.01589568,-0.0042989925,-0.0054911487,0.024725705,0.015593518,-0.0072853863,-0.03167732,-0.038096886,-0.012299772,0.006059069,-0.01868987,0.015027884,-0.010549683,0.035639964,-0.022284944,0.016341858,-0.0095538385,0.0015792064,0.018298585,0.019478884,0.024553617,0.049579374,0.0006523542,0.031586967,0.026644692,0.034493282,-0.02877897,0.025701214,-0.03072042,-0.0045716297,-0.026565403,0.018949687,-0.009242186,0.0020520575,0.020591175,0.010441111,0.02493998,-0.027094672,0.02050243,-0.023660475,0.031656213,0.019238148,0.03925709,-0.018553242,-0.014457893,-0.0041279793,0.022194043,0.017732572,0.012465285
HKDC1,-0.01292236,0.015156884,-0.016917463,-0.004057441,-0.013311449,0.025097469,0.018348686,-0.0010654293,0.020104222,-0.008975314,0.021886963,0.027750894,-0.019494772,0.026395207,-0.023468222,-0.017408289,-0.0035822913,0.023098689,-0.0057702735,-0.022000324,0.002497375,0.0037121894,0.013887024,-0.005831059,-0.014507253,0.013320416,0.0036809407,0.014585618,-0.010817186,0.01259277,-0.018674292,-0.020021264,-0.0009187795,-0.023224354,-0.024744293,-0.017216673,0.006008137,0.031908542,-0.0074769,-0.020731248,-0.016579323,0.016989976,-0.019144215,0.016589426,0.026741926,0.029914299,-0.008716553,0.03548732,0.01340517,-0.02112494,-0.025719138,-0.013768606,0.02064097,-0.010739122,-0.025023732,-0.00389795,-0.028790545,-0.011556216,0.022713758,0.016489344,-0.0020942613,-0.011882011,-0.01955456,-0.017919999
MSC,0.038803786,-0.034130428,0.032951273,0.010163028,0.05189668,-0.05165141,-0.046380654,-0.041116558,-0.04577766,0.03715389,-0.032331787,-0.047027722,0.03741459,-0.026706928,0.030272141,0.03896402,-0.007838935,-0.034475937,0.021601528,0.04085885,0.018221818,-0.05163839,-0.057645462,0.0049054213,0.03840087,-0.049764536,-0.00649184,-0.031655643,0.05012082,-0.038006965,0.03171646,0.018189518,0.021254864,0.041649308,0.051454827,0.04459249,0.07141216,-0.033844315,0.04827907,0.03806433,0.046588846,-0.047806382,0.04431058,-0.05620892,-0.028732298,-0.047164906,0.00278968,-0.045469288,-0.017468315,0.05055502,0.03133919,0.043595605,-0.03942471,0.04378803,-0.0055976473,0.052275926,0.05075182,0.05800372,-0.04340113,-0.030777257,0.018743947,0.036230035,0.04152717,0.039192528
APEX1,0.007003676,-0.012372073,0.00029930472,0.026427899,0.017189074,-0.009178811,-0.027906321,-0.015552301,-0.022115834,0.021614548,-0.007343415,-0.0035524666,0.018181883,-0.014056921,0.013751976,0.017798766,-0.009133704,-0.008346671,-0.0065146834,0.014398275,0.026009396,-0.022223823,-0.017068062,0.030391973,0.033604197,-0.022399522,-0.020087615,-0.015469242,0.011543752,-0.017405007,0.006391637,0.026305081,0.018619929,0.015928071,0.015592109,0.012822464,0.032578968,-0.0152266435,0.01830666,-0.0024506375,0.010240264,-0.013362654,0.019780723,-0.024156578,-0.008917285,-0.008139906,-0.02737765,-0.017563485,-0.013440508,0.011762332,0.00682042,0.024018638,-0.0058921613,0.023926392,0.0069827847,0.02709473,0.013334099,0.009952113,-0.022274474,-0.010925863,0.027049644,0.016607994,0.025100369,0.0194696
FOXJ3,0.026223786,-0.02667429,0.015484046,0.03044207,0.03952048,-0.029613448,-0.04401108,-0.02918265,-0.040250637,0.034839973,-0.021994736,-0.018768117,0.036285926,-0.02512117,0.031104501,0.036094096,-0.012585893,-0.023832904,0.0076941233,0.029242294,0.02959665,-0.039908588,-0.038511112,0.039176147,0.045697704,-0.039304517,-0.030543797,-0.033292044,0.027894512,-0.028418291,0.020676382,0.036422193,0.027652703,0.036767643,0.0334814,0.03137108,0.042299055,-0.03136246,0.032102376,0.01743152,0.027259165,-0.031192448,0.036528084,-0.044010237,-0.024149237,-0.02691572,-0.026103139,-0.033840038,-0.026049767,0.029368985,0.026410734,0.039051868,-0.020521805,0.039122697,0.015902627,0.03647339,0.03330316,0.031034797,-0.0387507,-0.023692515,0.03184261,0.029226232,0.039772745,0.029441245
NUPR1,0.0055486783,0.0020023547,0.007751867,-0.019326195,0.009459406,-0.020171842,0.006020654,-0.021105854,0.014889311,0.0036560697,0.0009765513,-0.013876729,-0.008109023,0.017949814,-0.024674699,-0.0012329593,-0.0017769188,0.010845047,0.01750394,-0.0026424257,-0.017994683,-0.015662212,-0.020020736,-0.021810949,-0.013677608,-0.00033126026,0.025946055,0.003565982,0.02033063,-0.007348139,0.0026413128,-0.029111098,-0.010149311,-0.00063065253,-0.001698168,0.007829448,0.033844255,0.020578675,0.01594504,0.014516227,0.019371442,-0.011897832,0.011383798,-0.0138155,0.012215412,-0.008591954,0.02525184,0.013190579,0.016247477,0.004545022,-0.008346113,0.010353118,-0.014828522,0.0031261817,-0.03217795,0.01799716,-0.0032831307,0.023648169,-0.00032999367,-0.0040923096,-0.0148580335,0.009021169,-0.0010320544,-0.008283799
PIAS2,0.031318508,-0.03200178,0.02046775,0.030927587,0.044991493,-0.036724992,-0.048317283,-0.038017944,-0.048350982,0.03994002,-0.029889718,-0.02965352,0.041041598,-0.034211047,0.033951562,0.038201816,-0.010370668,-0.033447742,0.008070668,0.038001508,0.031272538,-0.04620734,-0.04884158,0.032338906,0.04701244,-0.046644725,-0.029873073,-0.037320677,0.03584238,-0.032857683,0.022340663,0.035046905,0.027672973,0.0414307,0.043929305,0.03587476,0.054840654,-0.036583535,0.037807517,0.021370865,0.034218755,-0.038068607,0.04217911,-0.04849848,-0.030374078,-0.034540158,-0.018261299,-0.04262592,-0.025891196,0.036980867,0.029033562,0.044653885,-0.024790786,0.04428789,0.011522744,0.04661775,0.044343222,0.040161625,-0.046108592,-0.03075954,0.031090287,0.03214511,0.0429157,0.03443341
SMS,0.052943237,-0.05014718,0.04332579,0.027008187,0.07077256,-0.07240636,-0.069351375,-0.055395134,-0.07293094,0.054005727,-0.05170748,-0.06425078,0.059742793,-0.04967968,0.05051996,0.05882317,-0.014621582,-0.052486375,0.027182253,0.05968757,0.028340735,-0.06719268,-0.08147886,0.024008434,0.06618244,-0.07157206,-0.023008369,-0.052803073,0.06264355,-0.050247908,0.045857802,0.040476386,0.033794887,0.06485742,0.07363142,0.06504484,0.08622065,-0.059948042,0.06359878,0.051625334,0.06254693,-0.063693926,0.06506878,-0.08033982,-0.0428207,-0.06835528,-0.0030938238,-0.07007363,-0.029577408,0.07129918,0.048865438,0.06407886,-0.055226732,0.06627759,0.0139487125,0.06385957,0.075092174,0.073562324,-0.067720205,-0.046378408,0.03149133,0.050375346,0.05715562,0.054994866
HSPG2,0.02164112,-0.035870925,0.014821634,0.03834643,0.04467587,-0.03532446,-0.059583385,-0.011654608,-0.04518286,0.031197809,-0.025348399,-0.022685178,0.047192924,-0.036013342,0.04699585,0.045210876,-0.016365148,-0.027848566,-9.114295e-05,0.034873597,0.029787757,-0.023306318,-0.03575708,0.06344567,0.064212576,-0.045064084,-0.04112546,-0.03507078,0.024400376,-0.03503677,0.032427676,0.06031296,0.04649601,0.050177004,0.036844194,0.03841661,0.020614907,-0.04656501,0.030743118,0.009849183,0.017244302,-0.026338864,0.039895393,-0.048964456,-0.020902088,-0.030586157,-0.03833598,-0.050968245,-0.036747653,0.033924073,0.03349094,0.0333947,-0.028383832,0.055955682,0.036435958,0.026458267,0.034419645,0.022696007,-0.042690154,-0.025776818,0.054954164,0.03731833,0.046883244,0.034389958
HMGA2,0.018297363,-0.018883193,0.008738875,0.020965956,0.027837008,-0.014861663,-0.028686443,-0.026871456,-0.02730918,0.025474692,-0.013823543,-0.009622961,0.022196852,-0.017446226,0.01610158,0.020925675,-0.008569069,-0.017222429,0.0022559147,0.020907393,0.026715182,-0.033722978,-0.028531484,0.020174172,0.027610824,-0.027808033,-0.021369055,-0.021168593,0.021745034,-0.020050112,0.008982427,0.019850813,0.016277932,0.021849792,0.024302451,0.016526964,0.041981347,-0.016014015,0.024922527,0.008126751,0.021251205,-0.021709055,0.023943739,-0.028607685,-0.016836116,-0.013003662,-0.016746335,-0.018771503,-0.015189428,0.01807256,0.013362184,0.027269462,-0.009687424,0.027089605,-0.00063313916,0.035538,0.022939783,0.024697542,-0.028072916,-0.016247448,0.022910355,0.018627167,0.026165161,0.02104811
USP9X,0.022281945,-0.027662406,0.013946377,0.03205927,0.03505291,-0.028480908,-0.047111683,-0.025533933,-0.041870985,0.036930807,-0.023106948,-0.020283505,0.037670825,-0.029947378,0.031110518,0.03557413,-0.012542598,-0.025428006,-0.00012215227,0.031643756,0.02884107,-0.0345767,-0.03782703,0.040799204,0.050671577,-0.041118443,-0.029767022,-0.032602537,0.02684543,-0.030716423,0.017180096,0.041693635,0.028453913,0.036669936,0.036023475,0.029250927,0.04243376,-0.037191227,0.032303303,0.012838088,0.025616245,-0.030106306,0.037540287,-0.043573603,-0.022308102,-0.027091911,-0.02516137,-0.041587528,-0.025837857,0.030825533,0.025717063,0.038396075,-0.020903733,0.041267984,0.017429028,0.03987454,0.03578434,0.025565598,-0.041818645,-0.02378143,0.03683625,0.03056327,0.041807506,0.032792572
ANKS1,0.052881144,-0.052657194,0.03760045,0.028826188,0.07005647,-0.06500544,-0.07230647,-0.05307643,-0.06922722,0.057918802,-0.04767712,-0.058392458,0.06245558,-0.056724202,0.05283034,0.058851376,-0.01369236,-0.054081,0.026479691,0.059650764,0.03441447,-0.065451704,-0.07822301,0.03748567,0.062237293,-0.06944763,-0.03218949,-0.058745567,0.05932736,-0.049508054,0.043240987,0.050515763,0.037862543,0.068789974,0.06859351,0.061104238,0.07275157,-0.056069843,0.059298728,0.043134697,0.058222435,-0.062133886,0.06441038,-0.07320209,-0.05027648,-0.063864194,-0.0135694,-0.06759626,-0.036461253,0.062139798,0.0518151,0.06599686,-0.05093272,0.06507742,0.019265879,0.061351582,0.07066509,0.06714217,-0.06918727,-0.04470146,0.035470277,0.050677285,0.06161194,0.052770317
HMCES,0.03385853,-0.0378847,0.025328591,0.03100859,0.049826227,-0.04318153,-0.053291038,-0.03943437,-0.056370236,0.04416006,-0.03304566,-0.03483579,0.04529111,-0.03831282,0.038072303,0.044548064,-0.0108450055,-0.03925617,0.004946403,0.04292488,0.031266138,-0.04788621,-0.05519569,0.032546353,0.055142876,-0.053837575,-0.03219305,-0.03957661,0.038554013,-0.03696717,0.027930118,0.038343024,0.031498794,0.04779477,0.051664807,0.042542167,0.061445,-0.047491796,0.042105805,0.027905397,0.036013376,-0.040795706,0.04679314,-0.053276896,-0.03006898,-0.043028913,-0.017430365,-0.052882306,-0.025136922,0.043912116,0.03141796,0.04903345,-0.032831393,0.05032194,0.0136165805,0.04823395,0.053151663,0.04780454,-0.05292108,-0.03531541,0.03655455,0.036916666,0.047006067,0.041703664
ELF2,0.045323238,-0.053160094,0.034685038,0.043778237,0.06545002,-0.057870917,-0.073722504,-0.041256905,-0.07037828,0.05413784,-0.049700722,-0.04880061,0.06660798,-0.054264832,0.06339425,0.06279491,-0.017830476,-0.05172441,0.014277739,0.056721322,0.04224606,-0.054131035,-0.069894105,0.059707355,0.071619354,-0.07061741,-0.042398587,-0.060808036,0.047637437,-0.045986004,0.039888777,0.06292257,0.04794926,0.0705086,0.06462865,0.05500304,0.0563078,-0.0615023,0.0501454,0.031755216,0.043877624,-0.05544197,0.06620005,-0.07697956,-0.04400131,-0.057058126,-0.031506665,-0.07457641,-0.042598616,0.06430835,0.05308193,0.061408058,-0.046380907,0.068226434,0.03551137,0.052929178,0.06580526,0.052931316,-0.064982116,-0.04550295,0.05188153,0.050458625,0.06591639,0.048916787
GM24564,-0.10666683,0.09487383,-0.08934556,-0.09016232,-0.113753065,0.114559256,0.14994028,0.0488694,0.15893205,-0.08680309,0.09919283,0.10395177,-0.12230147,0.13357519,-0.13636526,-0.11072589,0.00061850995,0.1265499,-0.03793528,-0.119552545,-0.08706384,0.10594511,0.115750976,-0.08179456,-0.13259043,0.11254902,0.08525731,0.10953601,-0.09309842,0.09080605,-0.114546254,-0.13193415,-0.074354425,-0.13758118,-0.15029982,-0.118553214,-0.08095728,0.13935873,-0.091554776,-0.080289274,-0.09217844,0.10855451,-0.09341868,0.11062026,0.13191113,0.12905605,0.06383863,0.1547636,0.121083185,-0.10679041,-0.13260047,-0.11153025,0.07179578,-0.11676811,-0.09232174,-0.07810012,-0.14714165,-0.098831356,0.13292812,0.08592073,-0.07410595,-0.07703781,-0.13246417,-0.13893972
MTCL1,0.044075698,-0.05493401,0.031925336,0.04484882,0.06324181,-0.054603666,-0.07605824,-0.038027033,-0.07033844,0.056862973,-0.04786572,-0.046486057,0.06898809,-0.058882903,0.06361906,0.064079456,-0.019491386,-0.051720247,0.009640342,0.05757638,0.043809436,-0.05172744,-0.06949757,0.065481365,0.072804146,-0.07136136,-0.044141307,-0.06395644,0.045471203,-0.0453925,0.036587365,0.06948109,0.05021423,0.07187271,0.06388004,0.052212484,0.052219093,-0.06610913,0.04833942,0.028765678,0.04164152,-0.051876742,0.06608918,-0.075881094,-0.044873983,-0.055281058,-0.034102052,-0.07802397,-0.04249415,0.063781485,0.053849027,0.061437815,-0.04713823,0.068525106,0.03854623,0.05166572,0.06720474,0.04898026,-0.06658739,-0.043510433,0.056971543,0.0509625,0.06836195,0.050195314
PAX8,0.0033318475,0.003914669,0.005088415,-0.019821964,0.006394081,-0.016578246,0.008960232,-0.018656332,0.018315166,0.002857944,0.002975393,-0.010698721,-0.010463879,0.019262655,-0.026476275,-0.0037839338,-0.0030953437,0.013339585,0.016502589,-0.0034110919,-0.019893382,-0.013130961,-0.01727901,-0.021183636,-0.014407728,0.00089994445,0.02608155,0.0037951432,0.017541803,-0.0051303282,6.072223e-07,-0.0290928,-0.011014063,-0.0027610175,-0.00493023,0.0047777165,0.029599212,0.022135783,0.014885306,0.011737198,0.01703436,-0.008690517,0.009694599,-0.010772467,0.014964776,-0.005738523,0.024976633,0.015551936,0.017471958,0.0018093996,-0.010543263,0.00867841,-0.011590071,0.0012870878,-0.032364275,0.015946463,-0.0063709617,0.019450359,0.0023558773,-0.0023410283,-0.015346449,0.007092729,-0.0033422709,-0.011718464
ARF4,0.03031189,-0.045773357,0.022055976,0.039875757,0.05285604,-0.04386308,-0.066246785,-0.022455538,-0.05598135,0.04274392,-0.03569699,-0.033348314,0.05615957,-0.04560826,0.055105254,0.054190144,-0.018034682,-0.03805314,0.0033038668,0.04421673,0.03454902,-0.03504865,-0.04800178,0.065464735,0.0671304,-0.05705857,-0.040972255,-0.04792409,0.033864114,-0.039575264,0.034448467,0.06467056,0.04823751,0.060222615,0.047483083,0.04356454,0.034216937,-0.054181308,0.037302133,0.018371388,0.026431885,-0.037146382,0.05254916,-0.060550876,-0.030770095,-0.041631494,-0.037921816,-0.063308716,-0.03746472,0.04680392,0.04242803,0.046853688,-0.038240086,0.06091821,0.038970347,0.035523012,0.048311774,0.03309964,-0.05310384,-0.033589587,0.054996848,0.044152208,0.057538796,0.042148266
RBMXL2,-0.0021459572,0.0030499436,0.00052849203,-0.0123725645,0.0036511123,-0.001394676,0.012132648,-0.015762582,0.013536885,0.0023476947,0.0078088976,0.001817897,-0.008216062,0.019110393,-0.02149531,-0.004711829,0.0010083169,0.011887178,0.0012217872,-0.006159694,-0.0045744292,-0.0132889915,-0.011116012,-0.018138997,-0.015085649,0.0060960352,0.013528489,0.009648766,0.0068166936,-0.0017415583,-0.007294763,-0.02636879,-0.0067336373,-0.0088665765,-0.007372113,-0.006828686,0.028006762,0.018990388,0.0071847737,0.004045196,0.0106169805,-0.00083751976,0.003971033,-0.0070832595,0.011771593,0.0039251763,0.013223704,0.015167121,0.015151475,0.00046910346,-0.0127847055,-0.00045974553,-0.0037638582,-0.001986526,-0.03210525,0.015448034,-0.007334794,0.016413864,0.0043673664,0.00091327727,-0.0062105916,0.0021419115,-0.0059626885,-0.006752218
SHKBP1,-0.04507291,0.041528355,-0.04897213,-0.031846557,-0.04537778,0.061116405,0.057419013,0.015228599,0.06267322,-0.034027018,0.04859216,0.056907907,-0.0529743,0.058774304,-0.06059033,-0.05012501,-0.005194351,0.056333758,-0.022620682,-0.051970363,-0.0243235,0.037727743,0.052154846,-0.030343052,-0.047816228,0.050195813,0.029225409,0.047635574,-0.04324459,0.04051412,-0.054822013,-0.04961161,-0.031023879,-0.06358132,-0.0664042,-0.05621936,-0.019955233,0.064075135,-0.039704032,-0.043165162,-0.04334247,0.04466132,-0.039784454,0.05023749,0.055400267,0.06634733,0.010330617,0.07392672,0.04566892,-0.053958397,-0.058452904,-0.042177223,0.03664478,-0.050995674,-0.045713544,-0.020786189,-0.06262165,-0.048299253,0.055215307,0.04561428,-0.019267257,-0.033502214,-0.050745964,-0.05392696
DCXR,0.034738414,-0.035727307,0.026258223,0.030352425,0.052376807,-0.043367468,-0.047593288,-0.03869024,-0.049329136,0.037275963,-0.036457814,-0.033913005,0.044897225,-0.029331513,0.04104358,0.04256674,-0.010731481,-0.034938246,0.017196326,0.04076477,0.031208701,-0.04938856,-0.05186767,0.035608727,0.048273742,-0.05006736,-0.032787137,-0.04181047,0.03959502,-0.033820726,0.031445675,0.034827057,0.03266206,0.048274275,0.04474637,0.04305064,0.052940995,-0.038827226,0.040133692,0.026294954,0.036021937,-0.041548215,0.04399448,-0.055208087,-0.03074416,-0.040881038,-0.023115657,-0.04456579,-0.028080087,0.040714648,0.032471254,0.043344118,-0.0303999,0.0480038,0.013749797,0.04253588,0.04389796,0.04694157,-0.045002315,-0.032484833,0.030149883,0.032668255,0.045842428,0.03288422
ASAH1,0.04984857,-0.06703298,0.041484967,0.049464118,0.0758868,-0.06817617,-0.088861614,-0.040029116,-0.082652986,0.06044039,-0.060776994,-0.061753206,0.08182796,-0.0701996,0.08055463,0.07715229,-0.021399822,-0.06296561,0.013573017,0.067141965,0.04798226,-0.051048294,-0.07970393,0.07609899,0.08523345,-0.08396855,-0.047519535,-0.07480708,0.052658748,-0.054220796,0.048534013,0.082223535,0.060161896,0.087412685,0.07505211,0.06302303,0.052441724,-0.07630715,0.05544108,0.0327029,0.04457169,-0.06258348,0.07718697,-0.0900448,-0.04950831,-0.068484485,-0.03810642,-0.09635244,-0.05194552,0.07952374,0.06501032,0.06784112,-0.060633555,0.08406206,0.05105048,0.054063622,0.07751613,0.054804664,-0.076172814,-0.05403704,0.066998996,0.062030718,0.07955785,0.0589931
NFIB,0.038245916,-0.032422658,0.034095116,0.0072872452,0.051224325,-0.053184792,-0.044539776,-0.042451974,-0.042124607,0.035655335,-0.028905803,-0.048442155,0.032875203,-0.02223391,0.023618348,0.034952775,-0.00544779,-0.03207609,0.027814403,0.035308994,0.015926301,-0.05301,-0.060630552,0.0014293008,0.034651868,-0.041267734,-0.0033697113,-0.028530832,0.050985232,-0.039773412,0.03472349,0.009715907,0.01505113,0.040492218,0.04900378,0.044885036,0.0722617,-0.027870713,0.049529664,0.04025594,0.052584145,-0.049566373,0.043860026,-0.056303877,-0.027379008,-0.049397,0.0075395256,-0.040250167,-0.016251612,0.045260668,0.03161194,0.04296919,-0.041091517,0.0408437,-0.010516975,0.054164357,0.048841223,0.061427996,-0.044077385,-0.028272633,0.014202524,0.03495283,0.040245105,0.037963375
SNAI1,0.054958634,-0.05907932,0.041764982,0.039161924,0.07450628,-0.06663839,-0.075606644,-0.053589184,-0.078520864,0.059254274,-0.05906128,-0.061434314,0.07188783,-0.061039288,0.06464034,0.06793855,-0.014782611,-0.061251357,0.025683763,0.06661561,0.041958146,-0.06557952,-0.08019877,0.051268157,0.07242078,-0.07774235,-0.042520106,-0.066055864,0.057615604,-0.05016697,0.04652945,0.057840195,0.046732888,0.076915145,0.07445124,0.06451605,0.070891194,-0.065692276,0.05908433,0.042037927,0.055407323,-0.06296585,0.07188926,-0.08396784,-0.053162836,-0.06976639,-0.02274464,-0.07834853,-0.04163081,0.072087616,0.056440018,0.06706098,-0.05423184,0.07203212,0.030891236,0.061846234,0.076835826,0.06933144,-0.07390713,-0.051581185,0.04470879,0.054520234,0.06952232,0.05626622
HNRNPD,0.008724447,-0.025304127,0.0026224405,0.03331915,0.024703935,-0.01690926,-0.0509632,-0.0030205362,-0.031134095,0.03050194,-0.009056885,-0.009851202,0.03384987,-0.031086203,0.029820941,0.03416496,-0.015329156,-0.016033163,-0.012978442,0.021820506,0.026409708,-0.0138668,-0.021336183,0.06102177,0.056029424,-0.031719394,-0.03101118,-0.02529389,0.011950699,-0.026844017,0.01571595,0.05590271,0.034670576,0.03349198,0.024957996,0.020510713,0.01652981,-0.03589748,0.022750193,-0.001548633,0.009707946,-0.013393667,0.03200787,-0.035550613,-0.013134209,-0.017877799,-0.03695728,-0.040813956,-0.027006682,0.020814236,0.021681657,0.030711954,-0.018824644,0.042892195,0.031839605,0.024729822,0.025519123,0.0051923245,-0.034555867,-0.013464037,0.051572196,0.032451257,0.039101396,0.030272335
1110038B12RIK,-0.037305675,0.04065953,-0.047811393,-0.0076691993,-0.04251672,0.060616083,0.030211966,0.01977206,0.040945098,-0.029753199,0.05285388,0.05925341,-0.048764527,0.04213509,-0.04844884,-0.04345011,-0.0067685843,0.049189553,-0.03001862,-0.04713116,0.006947495,0.03609797,0.04732301,-0.008992009,-0.0211264,0.042986944,0.0099476725,0.041185237,-0.043245327,0.036567852,-0.042816263,-0.019416202,-0.018928286,-0.051215626,-0.0493043,-0.046496652,-0.015991397,0.049118668,-0.032946363,-0.047502257,-0.049558148,0.038919553,-0.04212355,0.052361995,0.044353984,0.058959216,-0.02136115,0.065885484,0.026261505,-0.054352593,-0.04616732,-0.03309183,0.045289606,-0.04086892,-0.029868169,-0.013313606,-0.053467847,-0.048843637,0.046286717,0.043782458,0.008743543,-0.02469977,-0.032003842,-0.034782223
EPHA2,0.042159043,-0.047185257,0.032231003,0.03146774,0.060081482,-0.053506896,-0.06234081,-0.04327911,-0.064902425,0.049703196,-0.045558378,-0.047894493,0.056476012,-0.045537863,0.048344217,0.054426447,-0.011903919,-0.046905518,0.0137233585,0.052953213,0.031127937,-0.05384916,-0.06621132,0.038327333,0.06135968,-0.064797394,-0.032221273,-0.048574332,0.045287143,-0.04333418,0.035019666,0.046099298,0.038189355,0.058591593,0.06060145,0.050775297,0.06482114,-0.056069426,0.051400602,0.033449218,0.043021947,-0.051007267,0.054918703,-0.06611015,-0.037768863,-0.054515194,-0.015817657,-0.065193295,-0.031125847,0.055993892,0.04092022,0.054715466,-0.042269975,0.060616422,0.019843753,0.053834632,0.06271545,0.05515446,-0.05984482,-0.039925467,0.040223658,0.04521507,0.05409463,0.04686756
ORC2,0.008764058,-0.010560334,6.0655177e-05,0.021073993,0.017458748,-0.0065757073,-0.022089392,-0.02027969,-0.01954598,0.019450866,-0.004775867,-0.00015837699,0.014186773,-0.011797741,0.008749176,0.014040131,-0.009530932,-0.0077936593,-0.0044075735,0.012892535,0.024761483,-0.023714095,-0.01824113,0.01870868,0.025049992,-0.019873999,-0.017139733,-0.013125595,0.012559178,-0.01575936,0.002256453,0.018003516,0.013300125,0.011786375,0.015240058,0.008631669,0.035598323,-0.00830332,0.017992152,-0.00020163506,0.011312082,-0.013424523,0.016224798,-0.019087583,-0.008235594,-0.0031846687,-0.020121828,-0.0105172405,-0.009761605,0.010143857,0.004185876,0.02134873,-0.0034664571,0.01957393,-0.0017917044,0.029166944,0.0121795535,0.0124727115,-0.019647676,-0.009139907,0.021622617,0.012359299,0.020282771,0.014919478
UHRF1,-0.0030479059,-0.0015733652,-0.00890458,0.02137534,0.006639151,0.0044571497,-0.017495833,-0.0057636313,-0.008712841,0.009941323,0.007865388,0.010366946,0.003783687,-0.0033419435,0.0012880862,0.007628426,-0.007892545,0.00546884,-0.009877045,0.0020954125,0.022379644,-0.010367719,-0.0035063159,0.024679508,0.026004069,-0.008146457,-0.014905967,-0.0037449598,0.00037916843,-0.009121224,-0.0013319515,0.019370046,0.010696448,0.0016477033,0.0013324376,0.0013479143,0.02175489,-0.002015628,0.010454599,-0.012365211,0.00031074136,-0.00043180585,0.00620069,-0.009205066,0.004166575,0.0049580503,-0.027839176,-0.0011596605,-0.008016106,-0.0029197969,-0.004190297,0.013201438,0.0053276606,0.013548236,0.0013959557,0.017446704,-0.0007692089,-0.002806887,-0.00892856,0.000523787,0.023214662,0.009979799,0.013856966,0.0098919775
DDX58,0.02383972,-0.023084387,0.013405964,0.026412707,0.035820976,-0.02533015,-0.035583496,-0.031782057,-0.03681234,0.0316771,-0.01896929,-0.019125193,0.02855787,-0.022639353,0.023249574,0.028033469,-0.008705478,-0.023672061,0.0041074753,0.027781522,0.028033502,-0.04102985,-0.03730038,0.024439152,0.03607095,-0.03476568,-0.025686637,-0.027537908,0.028477557,-0.02528099,0.016098812,0.026006494,0.022066694,0.029894765,0.032560863,0.025754686,0.04766633,-0.023663877,0.02961042,0.015157595,0.02667593,-0.027687881,0.030989371,-0.036096517,-0.022017209,-0.021257633,-0.017983526,-0.027870057,-0.019443516,0.025917962,0.019654559,0.035664972,-0.015276391,0.033656955,0.004399851,0.038491905,0.031972077,0.03146872,-0.035148732,-0.022886984,0.02394966,0.02336439,0.0330608,0.026684128
GM24201,-0.086072326,0.07624777,-0.078220576,-0.07194692,-0.09189071,0.097376,0.120642245,0.035444297,0.12504329,-0.071518324,0.080949634,0.09032354,-0.09931392,0.11049353,-0.110193394,-0.092686825,-0.000628978,0.103523456,-0.035189107,-0.09780355,-0.06526823,0.08457325,0.09374927,-0.06678598,-0.10556762,0.093529716,0.06568879,0.092067346,-0.076179706,0.07594554,-0.09502103,-0.107421055,-0.059224214,-0.11345719,-0.12274713,-0.09858281,-0.061599627,0.11531288,-0.07496958,-0.068832144,-0.07666343,0.087289825,-0.07779632,0.09225936,0.106842875,0.11131191,0.04643317,0.1297499,0.096708015,-0.090395585,-0.10976021,-0.09175786,0.06030418,-0.095172465,-0.07946405,-0.060741805,-0.120484665,-0.0812213,0.110722125,0.07217335,-0.058409553,-0.06372858,-0.10836249,-0.11209386
HIST1H2BF,-0.0033715032,0.0035807304,-0.010686424,0.002959337,0.0025150254,0.008662463,-0.0016261712,-0.014559709,0.004647739,0.004666686,0.0066442527,0.014070466,-0.0017157514,0.0050062225,-0.0103571145,-0.0029420033,-0.0073524117,0.008083489,-0.007388912,-0.0036773207,0.012950249,-0.011071955,-0.00030753575,0.0015073605,5.9191138e-05,-0.0043547526,-0.00474333,0.0030048825,-0.00014698412,0.0010925084,-0.010217175,-0.0040320884,-0.00033937022,-0.007180851,-0.0041374452,-0.008938963,0.024825726,0.010936724,0.0044149645,-0.007040456,-0.00061727315,-0.0013917089,0.002329275,-0.00079815835,0.005076425,0.013035836,-0.012244791,0.013098303,0.0055140667,-0.0045691244,-0.0104645,0.0056726346,0.0072906613,0.0013625138,-0.015452292,0.018446274,-0.005783906,0.0014023781,-0.0012648329,0.0017204136,0.011276282,0.0033365265,0.0021000318,-0.0017630449
AGAP3,0.038891457,-0.04218989,0.027514763,0.03805689,0.05506099,-0.0474374,-0.06041506,-0.0410629,-0.05850339,0.047358796,-0.03699063,-0.03770321,0.053152226,-0.04251778,0.04727543,0.05064358,-0.013774142,-0.041780904,0.012440329,0.04600679,0.0382177,-0.052798245,-0.06023962,0.045835447,0.057739735,-0.05642875,-0.037462234,-0.04965025,0.04246708,-0.03813248,0.032140553,0.047570035,0.03631256,0.055922877,0.053435463,0.046204455,0.055432774,-0.048228703,0.043561343,0.028605103,0.040169604,-0.0453559,0.053918384,-0.061891254,-0.038367897,-0.04535474,-0.026294999,-0.05580317,-0.034646172,0.04839118,0.041730672,0.054148637,-0.03450448,0.054809704,0.023523,0.048720807,0.054571096,0.048198707,-0.054973915,-0.037941698,0.040295072,0.039714433,0.053729754,0.0402016
