,0,1,2,3,4,5,6,7,8,9,10,11,12,13,14,15,16,17,18,19,20,21,22,23,24,25,26,27,28,29,30,31,32,33,34,35,36,37,38,39,40,41,42,43,44,45,46,47,48,49,50,51,52,53,54,55,56,57,58,59,60,61,62,63
SRSF1,0.2782702,0.115906686,-0.1675791,-0.1659484,-0.25415903,0.12300484,0.149061,0.23960271,-0.2719584,0.293504,-0.26887453,-0.18339948,-0.14608687,0.16242863,-0.17511882,-0.2723308,-0.26213092,-0.2499129,0.23289439,0.24541847,0.26513577,-0.2828564,0.26671124,-0.21282528,-0.200942,0.19358833,-0.22820738,-0.21037379,-0.17995803,-0.2933146,-0.13673276,0.21022227,0.17743172,-0.20407891,0.21710345,0.2024223,-0.23036808,-0.28890738,0.25857005,-0.096498825,-0.22513585,-0.2698812,0.2211873,-0.266728,-0.10122232,0.23221797,0.20054968,0.2208214,-0.24436082,-0.052093677,-0.2458801,0.24159807,-0.2612849,-0.29227945,0.20773423,0.28586674,-0.21255332,-0.18502894,0.04706994,-0.15110499,0.15928853,0.21989316,-0.043850385,-0.25367948
DYNC1LI1,0.019461991,-0.0071197525,0.0073292735,-0.03932815,-0.030031243,-0.022795647,0.0039402433,-0.0014936551,-0.004574381,0.017462034,-0.01411799,-0.016930073,-0.016960282,-0.024654303,0.0034971796,-0.013761396,-0.037893374,0.020323034,0.020997448,0.009876244,-0.003892161,0.0056138486,0.008339078,-0.03539062,-0.000304332,0.0152704045,-0.025219023,-0.028920107,0.015948594,-0.0032491162,-0.013397908,0.044078138,-0.0022514798,0.0025902689,-0.002309762,0.01773005,-0.03153706,-0.059900682,0.05038279,-0.02388063,-0.021159027,-0.043224175,0.004451845,-0.029701186,0.04061763,-0.007743912,-0.0029959548,-0.0060046874,-0.0049465895,0.016560335,-0.016537605,-0.026798965,-0.018883321,0.0010594027,-0.017763373,0.012484074,-0.025052276,-0.00822752,-0.009881634,-0.018370494,0.004768919,0.019483753,-8.162111e-06,-0.020461254
ALDOA,-0.16873041,-0.06914501,0.13108018,0.071705446,0.16557679,-0.07261886,-0.024904195,-0.16806841,0.19634575,-0.1831694,0.14192164,0.12744355,0.12507856,-0.14193864,0.118573576,0.18039556,0.14269629,0.19904605,-0.0963832,-0.1312347,-0.11053653,0.15235071,-0.14248912,0.15401492,0.11403645,-0.09056328,0.054775074,0.1498237,0.15250714,0.17361072,0.10721667,-0.11605225,-0.08872275,0.1347861,-0.1650977,-0.1775855,0.19015265,0.16602632,-0.19502915,0.006658744,0.122182414,0.16688897,-0.111603945,0.16777019,0.080649,-0.12729955,-0.113941886,-0.12136917,0.20311023,0.038900096,0.16340868,-0.18414068,0.15436739,0.17403182,-0.14986378,-0.12957644,0.1455255,0.06530407,-0.09994139,0.09217939,-0.10221975,-0.15033358,0.043726347,0.19564986
TAX1BP3,0.2659258,0.06505573,-0.12454714,-0.12864517,-0.18773949,0.17487222,0.14809464,0.19062996,-0.2603402,0.25789446,-0.22589305,-0.1487164,-0.1090152,0.18617529,-0.1442727,-0.24348643,-0.2031537,-0.30244297,0.14541166,0.21061496,0.19954091,-0.2844035,0.22708347,-0.17181142,-0.2116673,0.15380983,-0.1733969,-0.1550479,-0.21836178,-0.25269082,-0.1270217,0.16540673,0.15721482,-0.18482602,0.23183286,0.23225848,-0.21026185,-0.20712608,0.20943424,-0.058169298,-0.1779684,-0.19702286,0.189108,-0.2565702,-0.08186023,0.21573189,0.1987595,0.20912717,-0.2734807,-0.04467787,-0.22897685,0.26779097,-0.22928673,-0.2847608,0.181241,0.23534219,-0.18104306,-0.15403067,0.071665555,-0.12924348,0.15083513,0.18773942,-0.09572166,-0.24305001
NEDD8,-0.120520405,-0.055058457,0.10015303,0.042631622,0.11646757,-0.06261962,-0.018229086,-0.12830575,0.14648525,-0.1352602,0.103007965,0.0900592,0.088458516,-0.1149746,0.093345374,0.13109206,0.095064655,0.15655231,-0.06335877,-0.09397006,-0.08119185,0.11599986,-0.10668266,0.10402851,0.08516703,-0.06554423,0.028805688,0.10271587,0.1228316,0.13074666,0.07722809,-0.07414187,-0.066017866,0.10009572,-0.12711841,-0.12636286,0.13256872,0.10845805,-0.12872054,-0.006845586,0.087489285,0.11182788,-0.08545534,0.11842397,0.07074715,-0.098047145,-0.08258527,-0.09475498,0.14781237,0.034752954,0.1168685,-0.14942637,0.11065742,0.13351269,-0.1220541,-0.09586738,0.09836503,0.050806556,-0.079674914,0.06402855,-0.075430624,-0.10745666,0.032881387,0.14076075
APEX1,0.24992281,0.029744882,-0.09153932,-0.098694935,-0.13927624,0.20220351,0.14127293,0.15378809,-0.24742723,0.22184479,-0.19170704,-0.12196576,-0.07784139,0.19873585,-0.11662808,-0.21816278,-0.15381421,-0.33343774,0.08496718,0.17881751,0.15252003,-0.27902067,0.18284908,-0.14255045,-0.21103537,0.12363447,-0.12199016,-0.114810236,-0.23549679,-0.2094813,-0.1265102,0.12649348,0.1333665,-0.1692462,0.2355242,0.2509654,-0.18404135,-0.144966,0.17376027,-0.0334137,-0.15051956,-0.14770123,0.15473934,-0.2314783,-0.068895414,0.19850282,0.19346501,0.19182144,-0.28816527,-0.03807749,-0.20893024,0.2657013,-0.2013756,-0.2670418,0.16012114,0.19149576,-0.15136641,-0.118429035,0.080691636,-0.12152991,0.13550591,0.15163478,-0.12509292,-0.21592742
CNOT6,0.27863336,0.108795136,-0.16566603,-0.16561586,-0.25392303,0.120273665,0.13999932,0.23762834,-0.2739677,0.2915718,-0.26540023,-0.1841811,-0.14237767,0.1627778,-0.17620865,-0.27676156,-0.25633398,-0.25254464,0.2275948,0.24290256,0.26189423,-0.28214586,0.26209715,-0.20904657,-0.20005395,0.19287111,-0.22586781,-0.21010178,-0.17659108,-0.2916955,-0.13693267,0.20859584,0.17114548,-0.19820058,0.21550924,0.20693544,-0.2261836,-0.2879596,0.26145518,-0.094565675,-0.22618873,-0.271278,0.21886855,-0.26905388,-0.093765795,0.22591698,0.19681911,0.21884693,-0.24410279,-0.044714164,-0.24287014,0.23658362,-0.2620209,-0.28676227,0.2035228,0.28426144,-0.2133424,-0.18231192,0.05192941,-0.14710969,0.15983209,0.2182532,-0.04809086,-0.25345626
MS4A6D,0.024934506,-0.0041924827,0.0018747157,-0.040699355,-0.03440224,-0.020678297,0.0042776503,0.0071274117,-0.013748702,0.020524254,-0.021958377,-0.023336157,-0.01925239,-0.016559381,-0.004145894,-0.01821628,-0.040677436,0.006457478,0.024399227,0.019945413,0.0033463016,0.00462283,0.015299517,-0.039589997,-0.0043321177,0.017349191,-0.026429553,-0.036300723,0.0015874337,-0.013416402,-0.016210144,0.05118957,0.0034484826,-0.0048142,0.003647633,0.025769379,-0.03845333,-0.066060185,0.057972226,-0.021546036,-0.024208259,-0.048576612,0.011762526,-0.0362449,0.04145678,-0.0029009604,-0.0023669414,0.0003364645,-0.01325056,0.018002499,-0.022711752,-0.01871876,-0.023523465,-0.00077217165,-0.013617657,0.012741249,-0.025690416,-0.009860396,-0.007311236,-0.02088729,0.009451881,0.025902215,-0.0055995462,-0.02872166
H1F0,0.24286142,0.19381912,-0.19721112,-0.1637329,-0.2685132,0.14459677,0.21343829,0.22074774,-0.21110424,0.2893805,-0.27081177,-0.13380054,-0.19701168,0.11374523,-0.1560124,-0.20100763,-0.30671778,-0.16368054,0.2773518,0.24991699,0.29374483,-0.24356167,0.28176484,-0.2383775,-0.1960806,0.19276771,-0.24224147,-0.21879593,-0.17169279,-0.28822383,-0.12791182,0.24659956,0.23881806,-0.19794801,0.18662658,0.1329898,-0.27309477,-0.3120736,0.22089048,-0.12982981,-0.20695613,-0.2568491,0.21551074,-0.24215293,-0.15888903,0.26485792,0.22508171,0.19017126,-0.19409342,-0.106771275,-0.26423708,0.2783623,-0.22862789,-0.30877063,0.23118666,0.29331917,-0.21913055,-0.210655,0.026698004,-0.19284089,0.1429143,0.21838012,0.0026333947,-0.2528131
NDUFA6,-0.098457426,-0.04793772,0.08721626,0.03349238,0.09461234,-0.05498673,-0.013344873,-0.10869898,0.12282342,-0.11692864,0.08636875,0.073161505,0.075386055,-0.10207127,0.07840106,0.1108351,0.07718207,0.13523278,-0.051834762,-0.0791939,-0.067883715,0.10204491,-0.08816482,0.08127692,0.07129539,-0.055292454,0.01962892,0.08372543,0.10343149,0.11153548,0.06460407,-0.05763579,-0.053075116,0.08409017,-0.11104485,-0.105738886,0.10732465,0.08459244,-0.10209839,-0.008052275,0.070441015,0.091922715,-0.07057591,0.09741393,0.06594051,-0.081281245,-0.074227035,-0.08099122,0.12821406,0.031840306,0.09937738,-0.13148725,0.09189052,0.11643726,-0.10879147,-0.07982305,0.082451664,0.043207813,-0.070985794,0.049285382,-0.06342731,-0.08880695,0.028572159,0.118034534
RPL5,-0.031393625,-0.020704284,0.040406704,-0.009334504,0.017459575,-0.027308485,-0.003763143,-0.043026157,0.041742355,-0.03592283,0.026636831,0.019277975,0.017773598,-0.051758662,0.032146532,0.037255876,0.009869844,0.0631655,-0.010529419,-0.022359371,-0.0309835,0.04155653,-0.02786327,0.013626058,0.026068578,-0.011501946,-0.003594339,0.015831657,0.044773713,0.03866087,0.019407336,0.0035190508,-0.021957029,0.034067266,-0.04212305,-0.03070428,0.025460176,0.00035076588,-0.010241669,-0.017693367,0.014626931,0.012712019,-0.026055988,0.024353009,0.05203707,-0.03423646,-0.03231211,-0.035113934,0.050801568,0.02183177,0.024755308,-0.06743099,0.025863707,0.05004177,-0.053834807,-0.025736216,0.018830806,0.011198934,-0.033591475,0.010583751,-0.021824732,-0.022658832,0.0053474307,0.0329512
VIM,-0.19423215,-0.07906683,0.1458653,0.088452294,0.19803551,-0.08216348,-0.027677309,-0.19679165,0.2293455,-0.21257338,0.16413966,0.14854932,0.14957684,-0.16160601,0.13481796,0.20706895,0.16998728,0.22158056,-0.11630689,-0.15291992,-0.12475216,0.17589772,-0.16465774,0.18049936,0.12800921,-0.106823,0.06364025,0.18000016,0.17501447,0.19947141,0.12409326,-0.14239103,-0.101650044,0.15378278,-0.19224864,-0.20870848,0.22325188,0.2013905,-0.23207568,0.011432581,0.14453125,0.1983751,-0.13308959,0.19599321,0.088460736,-0.14677027,-0.12846455,-0.13928545,0.23192303,0.04414003,0.19097129,-0.20730826,0.17985144,0.19912396,-0.16783017,-0.15118864,0.17206186,0.07655078,-0.10978384,0.11235985,-0.12059211,-0.17760187,0.051766947,0.2285955
SGK1,-0.13365696,-0.06470999,0.108015954,0.05601203,0.14022678,-0.07254182,-0.01900376,-0.14868589,0.17187524,-0.16275391,0.12091287,0.10259902,0.10827761,-0.13013601,0.105651274,0.15159953,0.11665949,0.17323309,-0.076431006,-0.11141321,-0.088903464,0.14073732,-0.12247491,0.11780144,0.097962976,-0.08287133,0.03195542,0.1225811,0.13713323,0.14956367,0.08876392,-0.09084282,-0.070128426,0.11541024,-0.15429308,-0.15008622,0.15063342,0.12913924,-0.14835921,-0.001311887,0.102589734,0.13839756,-0.09893584,0.13712704,0.0754274,-0.10513449,-0.09937953,-0.11033194,0.17030212,0.042369578,0.14254701,-0.16744813,0.12649468,0.1570815,-0.13907811,-0.11163007,0.11976552,0.065658346,-0.091512024,0.07252914,-0.08799184,-0.12447331,0.041229002,0.16667098
FUBP3,0.28337514,0.119596764,-0.17705028,-0.17226127,-0.27013835,0.0999317,0.13495111,0.25078687,-0.2819707,0.2998293,-0.27420858,-0.19529364,-0.14871503,0.15643896,-0.18498328,-0.2848806,-0.26610288,-0.23592071,0.24732704,0.24799348,0.27476457,-0.27941754,0.2722232,-0.21950398,-0.19314115,0.19855693,-0.23541228,-0.2206473,-0.1651606,-0.30053386,-0.14108796,0.21463281,0.17167391,-0.20511726,0.21178865,0.20246111,-0.22663349,-0.3070032,0.27508014,-0.101334944,-0.23644848,-0.28878438,0.21984872,-0.27199835,-0.09389286,0.22722301,0.19339627,0.22470273,-0.23429962,-0.045004267,-0.24288373,0.22507805,-0.2677748,-0.2824361,0.2088235,0.29341426,-0.22184968,-0.18556817,0.04195455,-0.14540437,0.16069612,0.22643375,-0.03268448,-0.25224409
IRF1,0.22636661,0.028494287,-0.072225675,-0.061724424,-0.10817519,0.23290378,0.13578196,0.12940249,-0.24235073,0.19710852,-0.150734,-0.07509731,-0.06270337,0.22238813,-0.08637111,-0.18896896,-0.11390379,-0.3431568,0.024715228,0.14429356,0.10085228,-0.29004854,0.14972122,-0.1298721,-0.21767373,0.08428994,-0.06177102,-0.069488645,-0.26399353,-0.17719,-0.14533728,0.09359029,0.12589015,-0.16082686,0.26869115,0.27726164,-0.16782156,-0.091334805,0.14728217,-0.016274434,-0.13216276,-0.10287503,0.09508392,-0.20188898,-0.058661364,0.21624205,0.21350312,0.18461607,-0.29847908,-0.04172898,-0.18721847,0.29471153,-0.15889391,-0.23065545,0.16666126,0.14792992,-0.14569002,-0.07864124,0.08258508,-0.11125158,0.12665653,0.114149466,-0.1537444,-0.17836173
NCOR2,0.27933258,0.10603352,-0.16686134,-0.16696806,-0.257813,0.10012564,0.12937608,0.24185303,-0.28022397,0.2912294,-0.26647872,-0.1932845,-0.13910706,0.15944177,-0.17923932,-0.28040722,-0.25288507,-0.2441596,0.23325136,0.24026014,0.26036945,-0.27588394,0.26067036,-0.21146245,-0.19086213,0.19226676,-0.22413363,-0.21175355,-0.16660005,-0.29076394,-0.13881245,0.2051104,0.16128303,-0.20151827,0.2101757,0.206612,-0.21838439,-0.292595,0.26767436,-0.09455764,-0.22727881,-0.27931786,0.21377958,-0.26753283,-0.08638814,0.21709436,0.18845344,0.22245209,-0.23772492,-0.041848987,-0.23701352,0.21904433,-0.26170737,-0.27746502,0.19862598,0.28264764,-0.2139787,-0.17677298,0.044430625,-0.14041696,0.15799356,0.22000152,-0.037702244,-0.24675754
SKI,0.27957883,0.11538027,-0.17303799,-0.17302692,-0.2731984,0.085505515,0.12296739,0.2509052,-0.27988592,0.29592174,-0.2714875,-0.19808401,-0.14465734,0.15154262,-0.18561539,-0.28674063,-0.26288313,-0.2286083,0.25090012,0.24641557,0.2742479,-0.2735167,0.2668586,-0.21693064,-0.18492171,0.19877672,-0.23550412,-0.2230156,-0.15041836,-0.29637215,-0.14069116,0.21368983,0.16260104,-0.19978258,0.20481208,0.19979657,-0.2208752,-0.31078547,0.2803937,-0.10375184,-0.2397363,-0.29617915,0.21870098,-0.26758325,-0.08541116,0.21746421,0.18568662,0.21896203,-0.2270474,-0.03700119,-0.23568207,0.20886612,-0.26707187,-0.2729577,0.19992924,0.29127106,-0.22006394,-0.18099178,0.03869697,-0.1413619,0.15797058,0.22478232,-0.029772382,-0.24605936
RPS5,-0.03963197,-0.01596887,0.043853052,-0.0038201958,0.019714579,-0.018654723,-0.0022313409,-0.039999694,0.03641803,-0.03696266,0.028009929,0.02262085,0.016415954,-0.046905704,0.031690534,0.042820506,0.014831521,0.0602967,-0.014855737,-0.019058634,-0.034239966,0.03560084,-0.024400314,0.023381043,0.02587404,-0.011118289,0.005282104,0.02071365,0.03682784,0.03967015,0.021824142,-0.00014524162,-0.02335601,0.032801665,-0.032657728,-0.028086914,0.03166794,0.008162081,-0.01860429,-0.009377465,0.018501265,0.017792985,-0.02500021,0.0324581,0.048749432,-0.038014904,-0.0376734,-0.030618139,0.050861556,0.020853478,0.02375863,-0.060382508,0.026807584,0.052407574,-0.052589603,-0.027990658,0.024600483,0.008330941,-0.03063852,0.015125267,-0.020254016,-0.021174356,-0.00063174963,0.034339383
LDHA,-0.0649684,-0.03240145,0.06075309,0.01537687,0.057670496,-0.039984968,-0.009682339,-0.079103425,0.080927804,-0.079886526,0.05936437,0.04555921,0.044301122,-0.07814785,0.05332833,0.07669202,0.04898329,0.09854808,-0.034200937,-0.05183605,-0.051558055,0.07708332,-0.057925865,0.05035797,0.051362917,-0.034580592,0.011014208,0.050697125,0.06998739,0.076464474,0.042235967,-0.028377242,-0.037640493,0.061315954,-0.07963666,-0.06821538,0.067248054,0.04401306,-0.059341352,-0.009399712,0.046601906,0.053982623,-0.049028765,0.06253129,0.06167718,-0.061573397,-0.057924002,-0.05794774,0.09336118,0.02670836,0.06279624,-0.099005386,0.058520578,0.08872257,-0.08215137,-0.051803682,0.054249287,0.027575057,-0.050074838,0.032277755,-0.040913396,-0.053822167,0.017150415,0.075293995
YEATS4,0.27750707,0.10619849,-0.16510776,-0.1660813,-0.2556956,0.10797484,0.13090783,0.23926061,-0.27475005,0.29075888,-0.26406518,-0.18887486,-0.14008741,0.15878017,-0.17874905,-0.27972642,-0.25187,-0.24670137,0.22835806,0.24002154,0.2598211,-0.27793354,0.259315,-0.20811073,-0.19282296,0.19251074,-0.22398996,-0.21103203,-0.16931675,-0.28887162,-0.13828912,0.20506275,0.16367419,-0.19737694,0.21148989,0.20591582,-0.22079626,-0.29018012,0.266347,-0.09516285,-0.22765358,-0.27541783,0.21630655,-0.26718137,-0.08540465,0.21879926,0.19033413,0.21838711,-0.24055348,-0.040706456,-0.23888513,0.22485197,-0.26201856,-0.2776397,0.19885546,0.2830006,-0.21219853,-0.17734203,0.04849905,-0.1413655,0.15925993,0.21744639,-0.044071138,-0.24807969
MYEF2,0.2790672,0.108895436,-0.16581415,-0.1673174,-0.2557801,0.107584536,0.13352537,0.24009222,-0.27542245,0.29176626,-0.26497275,-0.18803419,-0.1406002,0.16007109,-0.17704904,-0.27954698,-0.2562277,-0.24510954,0.2306669,0.24132217,0.2614393,-0.28091133,0.26154065,-0.20879062,-0.19518322,0.19390108,-0.22619438,-0.21156713,-0.16906065,-0.28892168,-0.13777447,0.20765917,0.16629513,-0.19764432,0.21388593,0.2069047,-0.22215164,-0.29067814,0.2665214,-0.09526309,-0.22723435,-0.2762097,0.21684779,-0.26680553,-0.08907962,0.22219998,0.1930792,0.22011743,-0.2415572,-0.041798025,-0.23911245,0.22692397,-0.2625064,-0.27996394,0.20152849,0.28422597,-0.21428421,-0.17965084,0.048077624,-0.14180624,0.15791968,0.21833777,-0.04302205,-0.24893501
ELF2,0.29806557,0.19246821,-0.23233342,-0.1977148,-0.33731818,0.065348715,0.1453034,0.2984404,-0.28592232,0.33257955,-0.31646785,-0.21346857,-0.19118607,0.12617433,-0.20854491,-0.29549542,-0.3326703,-0.17584643,0.34365076,0.28383142,0.3492123,-0.2773952,0.31917873,-0.25143355,-0.19115682,0.23146741,-0.28627563,-0.26703575,-0.13139191,-0.33695087,-0.154728,0.26258534,0.21257946,-0.22041622,0.20701122,0.16193281,-0.2515464,-0.38437837,0.31460366,-0.14403448,-0.27833843,-0.34503418,0.24674945,-0.28003076,-0.13008338,0.2579147,0.20640633,0.23228644,-0.19562806,-0.06066254,-0.25659722,0.22232583,-0.29417858,-0.29721725,0.24574006,0.34188128,-0.26131797,-0.21834643,0.01477712,-0.17077994,0.1630151,0.25827453,0.01649273,-0.25673825
RPS3,-0.09947871,-0.044553652,0.084166095,0.034061942,0.09207528,-0.049727894,-0.0132824145,-0.1062937,0.117800996,-0.11251101,0.0836926,0.070794135,0.072231375,-0.097130895,0.07494636,0.10758824,0.07522945,0.13007826,-0.05288876,-0.074829206,-0.06964308,0.09799634,-0.08449638,0.08240378,0.06727622,-0.052107092,0.02151665,0.08234318,0.09925145,0.105649255,0.064029716,-0.056029953,-0.05335356,0.08156033,-0.10576685,-0.102399,0.10613816,0.083650924,-0.10187279,-0.00713256,0.06836291,0.08816997,-0.068995744,0.0969753,0.06650153,-0.0819495,-0.07404789,-0.077475846,0.12572014,0.03027999,0.09300255,-0.1272341,0.08860134,0.11403513,-0.103809185,-0.078292266,0.08152114,0.038601916,-0.06647957,0.050284646,-0.061866663,-0.08651634,0.025134983,0.11438068
GSTM1,-0.13361107,-0.06472144,0.110110156,0.05624758,0.14076322,-0.06890057,-0.022339996,-0.14927402,0.17130955,-0.15922904,0.12141655,0.10422578,0.10983876,-0.12930474,0.106319055,0.14955385,0.11547069,0.17193514,-0.07613197,-0.112935886,-0.090188734,0.13839367,-0.12313397,0.12144299,0.09409695,-0.08070435,0.030339211,0.1255492,0.13798098,0.14843273,0.090473644,-0.09127701,-0.07315573,0.1140204,-0.15151936,-0.1506213,0.15582249,0.13243073,-0.1493695,-0.004687533,0.10268583,0.1365551,-0.09814428,0.13621885,0.07712883,-0.10639156,-0.09378703,-0.109546036,0.17291936,0.041606788,0.14131042,-0.16480231,0.12593663,0.15382898,-0.13720155,-0.11017929,0.11830555,0.06415966,-0.091689035,0.07324919,-0.0901184,-0.12567744,0.03900229,0.16990608
MBD2,0.25488564,0.039381865,-0.09900344,-0.1146477,-0.1612792,0.18125494,0.13692981,0.1691668,-0.2535715,0.23320466,-0.20368126,-0.14337908,-0.08505581,0.18951234,-0.12802315,-0.23224026,-0.17227216,-0.31507397,0.10721657,0.19120997,0.17133415,-0.27536127,0.20128728,-0.15364736,-0.20660533,0.13756934,-0.1508835,-0.1329155,-0.21508878,-0.22711518,-0.12004744,0.13781314,0.13612376,-0.17397669,0.22653139,0.23553087,-0.19128615,-0.17156452,0.1922753,-0.04239415,-0.16559978,-0.17126098,0.1714799,-0.2372461,-0.067904115,0.19791913,0.18480209,0.19925071,-0.27220255,-0.035410646,-0.2111399,0.24777776,-0.21503559,-0.27139974,0.16167107,0.20699804,-0.16061994,-0.13231362,0.07177994,-0.1180819,0.14304945,0.16511898,-0.108689435,-0.22581547
EIF3K,-0.14934517,-0.07017563,0.120512486,0.063356906,0.15405995,-0.07514152,-0.021721993,-0.16308802,0.18813105,-0.1741816,0.13293943,0.11602696,0.11814789,-0.13849859,0.115406916,0.16644636,0.12873074,0.18826194,-0.08423676,-0.12363577,-0.09971595,0.14641085,-0.13456593,0.13561624,0.106652044,-0.08884886,0.04051186,0.13709176,0.1504026,0.16465452,0.096639335,-0.10398162,-0.07879768,0.1263895,-0.16222417,-0.16362463,0.17057636,0.14966047,-0.17236926,-0.00011436641,0.1147313,0.1538844,-0.10961956,0.15105042,0.07738928,-0.1159213,-0.10154748,-0.11898506,0.18540753,0.039841775,0.15517071,-0.177937,0.14228621,0.16458692,-0.14561641,-0.121291,0.13090663,0.067611456,-0.09859984,0.083414376,-0.09664091,-0.14087626,0.044545963,0.18303841
STAT6,0.24674374,0.024824169,-0.08538687,-0.094496965,-0.13058527,0.21799304,0.14245574,0.1462983,-0.24184003,0.21788847,-0.18125486,-0.11496648,-0.074343026,0.2021656,-0.110478446,-0.21075767,-0.14481711,-0.3409745,0.06736485,0.17384939,0.14273074,-0.2823822,0.17877539,-0.13485818,-0.21441661,0.117633924,-0.11539125,-0.104010254,-0.23829135,-0.20457622,-0.12474955,0.11995478,0.13491845,-0.1620464,0.23987633,0.25242028,-0.18292788,-0.1292768,0.1666783,-0.027893934,-0.14541559,-0.13270995,0.14988555,-0.22506227,-0.06488678,0.2022961,0.19494563,0.18397173,-0.29067045,-0.033582628,-0.20814228,0.2714785,-0.19502541,-0.26346704,0.15903807,0.18110846,-0.14586338,-0.11366609,0.08362374,-0.11507191,0.13243937,0.141334,-0.13773634,-0.21102944
ESD,0.032055423,0.0057546236,-0.0038775844,-0.046110995,-0.04614818,-0.00053687394,0.004252147,0.023630828,-0.0340241,0.036707737,-0.03262331,-0.028110836,-0.029406793,0.0017104708,-0.012500798,-0.031228965,-0.047970906,-0.015509233,0.03024081,0.036803726,0.008044869,-0.016143616,0.03290404,-0.04306332,-0.016781354,0.025451899,-0.022361107,-0.047407195,-0.021523124,-0.031248093,-0.02473102,0.062886655,0.007874023,-0.01654949,0.028936043,0.04333634,-0.048868723,-0.07540787,0.07502983,-0.01785862,-0.03235365,-0.058795743,0.01997776,-0.04545302,0.03586094,0.0069139055,0.006558627,0.014827874,-0.03455977,0.017052371,-0.040391266,0.0067612156,-0.038155176,-0.012281908,-0.0004522577,0.020960404,-0.035827227,-0.0203256,-0.0014661476,-0.022265915,0.019385895,0.040728286,-0.021652756,-0.045017276
PSMA1,-0.006904835,-0.014530603,0.023611268,-0.023037933,-0.0045535434,-0.027018813,-0.0020091496,-0.022904512,0.021103106,-0.01393955,0.0073632672,0.0041098176,0.0063263252,-0.04398415,0.018191438,0.013318377,-0.012033202,0.04168669,0.003558362,-0.0068385825,-0.017240562,0.030964993,-0.009790737,-0.011807483,0.014554193,-0.0009051673,-0.012389213,-0.00505165,0.030558227,0.018186439,0.0041349325,0.022850782,-0.01289634,0.017009057,-0.026556946,-0.009004792,-0.0018758215,-0.029862802,0.019498002,-0.020947006,-0.002465684,-0.01353813,-0.0108550675,-0.0017368011,0.0466236,-0.020544343,-0.019184962,-0.022111287,0.026376914,0.02105746,0.0067770313,-0.048907652,0.00563059,0.03109185,-0.036758166,-0.008934684,-0.001627869,0.0035733245,-0.023579666,-0.004102815,-0.0113693625,-0.0048041493,0.0037754998,0.0088746995
BTG2,0.26164925,0.074291125,-0.13203846,-0.1440702,-0.2090914,0.14532387,0.124524474,0.20315415,-0.25282496,0.26196828,-0.23065102,-0.15894009,-0.1138639,0.16704403,-0.15390034,-0.25897524,-0.21331933,-0.27666527,0.16934025,0.21639453,0.21448252,-0.276538,0.22673284,-0.17623536,-0.1987874,0.1676359,-0.18577138,-0.17796814,-0.18617854,-0.257979,-0.12711728,0.17873459,0.14988722,-0.1717157,0.2167958,0.2194963,-0.21195531,-0.23685792,0.23620017,-0.07145009,-0.19878396,-0.22266042,0.19808593,-0.25360808,-0.07030831,0.20637655,0.18570542,0.20259069,-0.26069313,-0.02977616,-0.22612482,0.23963022,-0.2410006,-0.27167475,0.17884389,0.24412255,-0.1888822,-0.15817414,0.068477094,-0.12603727,0.15166739,0.18897286,-0.08307461,-0.24147138
ETV3,0.27908534,0.11300276,-0.16863655,-0.15937448,-0.24763656,0.13094607,0.15013899,0.2343798,-0.27349025,0.2919407,-0.26320687,-0.17835933,-0.14558923,0.16751598,-0.17305842,-0.2693055,-0.25464204,-0.25582975,0.22161973,0.24187733,0.25475737,-0.28309584,0.2663917,-0.21058974,-0.20472614,0.18589385,-0.21830872,-0.20469674,-0.19041887,-0.2916558,-0.13821805,0.20722687,0.17837583,-0.2029517,0.22280192,0.20992029,-0.2315948,-0.27967024,0.25519916,-0.08962083,-0.2177232,-0.25976261,0.2138165,-0.27031428,-0.09740654,0.23237512,0.20089312,0.22143231,-0.25119078,-0.05076096,-0.24713773,0.2538716,-0.25683883,-0.28989464,0.20814237,0.2808343,-0.21208921,-0.1839371,0.054115806,-0.1463384,0.16002974,0.21871218,-0.051026486,-0.25425893
ATP5C1,-0.02149446,-0.020113554,0.035864636,-0.011900447,0.009404639,-0.024354348,-0.003915962,-0.03896147,0.03571978,-0.029196601,0.02258785,0.016598616,0.015259534,-0.051778466,0.0280875,0.02879457,0.0039865747,0.056769975,-0.008133197,-0.020438299,-0.027018987,0.03578132,-0.02259686,0.006864574,0.020873196,-0.0060148686,-0.005445067,0.010621674,0.042331606,0.03665844,0.013069869,0.00709679,-0.019964177,0.029405728,-0.03650616,-0.023135798,0.018782914,-0.008365534,-0.0029438324,-0.018947463,0.009851206,0.005924436,-0.020360019,0.016847495,0.04844749,-0.028987696,-0.024883322,-0.029816078,0.044520058,0.01844437,0.021599362,-0.06265757,0.019997738,0.041927483,-0.04776875,-0.018613946,0.009443149,0.008508798,-0.029219786,0.005497031,-0.018349394,-0.017451309,0.004533002,0.026486427
IRF2,0.2292903,0.024719927,-0.07302958,-0.0753081,-0.12074325,0.20234457,0.119981095,0.13941586,-0.2461158,0.19609237,-0.15866637,-0.09957801,-0.06108265,0.21051586,-0.094127476,-0.20061141,-0.11823624,-0.32789153,0.04144921,0.14778344,0.11214194,-0.27828765,0.14862674,-0.12883101,-0.20617418,0.09460214,-0.07723553,-0.08127296,-0.2363247,-0.17899466,-0.13539238,0.094708376,0.11709389,-0.1539464,0.24964613,0.26253393,-0.16256994,-0.10379082,0.1599927,-0.018819511,-0.14525135,-0.11848322,0.102484345,-0.19354418,-0.053499,0.20127526,0.19188216,0.18460338,-0.27996773,-0.030683529,-0.17941722,0.25325057,-0.17149198,-0.22167507,0.1556991,0.15091567,-0.14658786,-0.078476906,0.07766622,-0.10836143,0.12352585,0.11036733,-0.13648799,-0.17324357
UBE2L6,-0.15829274,-0.07820293,0.1274199,0.06989941,0.1756345,-0.0858076,-0.022274721,-0.18105656,0.21253228,-0.18928894,0.14360234,0.124892704,0.13340157,-0.15059459,0.12697625,0.18117988,0.13865374,0.20147732,-0.09181358,-0.13747059,-0.106259644,0.16172369,-0.14912726,0.14718606,0.113505945,-0.099824265,0.038398698,0.15491521,0.16746417,0.17960253,0.10633602,-0.118329845,-0.08422059,0.13478646,-0.17815171,-0.18226035,0.1861803,0.16822353,-0.19004168,0.0010049604,0.12748982,0.16898564,-0.119390205,0.16496395,0.082647845,-0.12282246,-0.10661261,-0.12954526,0.19805916,0.0456522,0.17064951,-0.19150159,0.15541023,0.17672867,-0.15474164,-0.13459222,0.14480554,0.07724534,-0.10717679,0.09023721,-0.10862713,-0.15734571,0.05263023,0.20259836
TGIF1,0.2244225,0.030533735,-0.070327684,-0.05320036,-0.0997073,0.24774891,0.14442681,0.12387611,-0.23920861,0.19563091,-0.14583004,-0.065309346,-0.061981395,0.22904386,-0.082500234,-0.1819223,-0.11001995,-0.35124427,0.0150890965,0.14360516,0.09477167,-0.29323548,0.15098533,-0.12875661,-0.22216669,0.07865688,-0.05470953,-0.06293843,-0.27755278,-0.17645818,-0.14899798,0.090020925,0.13261178,-0.16473606,0.277113,0.27771357,-0.16988003,-0.0824227,0.13979532,-0.012568433,-0.12509657,-0.091798775,0.09369567,-0.19997677,-0.061105624,0.22245124,0.21956682,0.1829665,-0.30331314,-0.045725714,-0.18905735,0.31050795,-0.1519643,-0.23462182,0.16851467,0.14225553,-0.14057173,-0.07790026,0.08365108,-0.11101591,0.12513387,0.11365254,-0.1606205,-0.17734018
ATP6V1G1,-0.11508921,-0.051546555,0.09575437,0.042453256,0.110208385,-0.057332277,-0.016304899,-0.12436681,0.13762546,-0.1309137,0.09895257,0.08471193,0.08403271,-0.10990061,0.08768214,0.1257342,0.09136096,0.14882687,-0.06139805,-0.08864631,-0.07897612,0.113281265,-0.09954678,0.098899946,0.07953759,-0.062447358,0.027004018,0.09770589,0.114088476,0.1236039,0.07495243,-0.069143645,-0.0612542,0.095482714,-0.12284163,-0.12073674,0.1262945,0.103632815,-0.12308702,-0.0049485266,0.08352971,0.107386634,-0.080516174,0.11253679,0.069309,-0.09405705,-0.08441365,-0.08973161,0.14427765,0.03332277,0.11197329,-0.14243385,0.10412394,0.12901823,-0.11745069,-0.09023811,0.09647767,0.046794157,-0.07517378,0.060583785,-0.07143482,-0.101875864,0.030273275,0.1343686
ANXA2,-0.15040083,-0.06133696,0.11617126,0.060973052,0.1429055,-0.06282955,-0.022617254,-0.14880183,0.17019077,-0.16246706,0.124924086,0.111557774,0.11055002,-0.12845978,0.10298085,0.15802392,0.12456605,0.17501281,-0.087555595,-0.11396648,-0.09704515,0.13713902,-0.12535773,0.13350423,0.09670111,-0.076603085,0.045498595,0.1332781,0.13361965,0.15036115,0.09526988,-0.10054711,-0.07843022,0.117789336,-0.14792559,-0.15620075,0.1690706,0.14239058,-0.1695701,0.002720572,0.10609998,0.1442261,-0.09824471,0.14669766,0.07736725,-0.1151678,-0.101977535,-0.10678287,0.18460281,0.03413679,0.14124072,-0.16810706,0.135526,0.15643021,-0.13570316,-0.11477612,0.12805045,0.057313535,-0.0856967,0.081382856,-0.09027613,-0.1309436,0.037281603,0.17161798
STMN1,-0.022221852,-0.03172651,0.032035705,-0.0027739573,0.024340257,-0.023976227,0.004190266,-0.056502976,0.057089098,-0.03631668,0.029265948,0.02090789,0.01792495,-0.057631247,0.03193692,0.034807656,0.0053028762,0.060200162,-0.012644393,-0.03435992,-0.042125687,0.046055064,-0.035205297,0.0024709888,0.017869292,-0.010910813,-0.01415538,0.017536692,0.06056779,0.044507854,0.0100308005,0.0013873503,-0.0189327,0.038834557,-0.046401847,-0.025180295,0.018292166,-0.004880145,-0.010786291,-0.022965975,0.0201585,0.006443732,-0.029896129,0.019858662,0.053566948,-0.031228056,-0.016439661,-0.044060927,0.04463148,0.017622571,0.029956015,-0.0610886,0.023308203,0.03993934,-0.04978292,-0.017070848,0.00893,0.018537518,-0.026261166,0.0012301058,-0.016219959,-0.018933147,0.015124572,0.030794315
PGAM1,-0.055607103,-0.031453963,0.05734936,0.00660719,0.04720059,-0.043327615,-0.007333804,-0.07150274,0.07616169,-0.06755972,0.050843112,0.040147927,0.03812767,-0.07630414,0.051352274,0.06746553,0.035621323,0.09582532,-0.023906654,-0.046173505,-0.046761304,0.06958634,-0.05201368,0.03816857,0.049620807,-0.02982125,0.006695032,0.040080614,0.07161421,0.069968686,0.03517712,-0.018925227,-0.034064475,0.05553994,-0.07213205,-0.060821973,0.05340506,0.0299396,-0.04540324,-0.013545565,0.037875425,0.042194806,-0.04306942,0.050441463,0.05766487,-0.0540387,-0.05085481,-0.055963576,0.08131933,0.027446065,0.05544424,-0.09329794,0.051966026,0.07635264,-0.07550561,-0.044826042,0.042573866,0.024145935,-0.048771765,0.024153039,-0.03828282,-0.047215566,0.018489795,0.065127395
CXCL1,-0.080704816,-0.045065463,0.07088576,0.02724025,0.08338015,-0.05556485,-0.014028523,-0.09128949,0.111327395,-0.097766295,0.07271194,0.058886807,0.061443873,-0.089197814,0.06600627,0.09969937,0.059181727,0.11843821,-0.041193463,-0.06895973,-0.06639344,0.09950656,-0.077920176,0.06510866,0.06777083,-0.050985906,0.015045635,0.06628945,0.09383288,0.094945125,0.04895863,-0.040949903,-0.044144165,0.07141629,-0.09901733,-0.08675013,0.08847744,0.06443704,-0.08764604,-0.009543795,0.06349261,0.07146541,-0.06319749,0.07876915,0.07031679,-0.07273221,-0.06634956,-0.07673587,0.10916068,0.03445852,0.08628794,-0.11481124,0.07971852,0.108930126,-0.094616525,-0.065991804,0.069805205,0.0372301,-0.0635979,0.037794992,-0.05441951,-0.07878541,0.025987638,0.09878378
PSMA3,0.035935983,-0.00037156418,-0.0036052936,-0.046779674,-0.049838424,0.002356641,0.0052910633,0.016529828,-0.03104565,0.035568275,-0.028913066,-0.026193742,-0.026549116,-0.0033166073,-0.011545926,-0.034089044,-0.04765962,-0.01614657,0.023544006,0.027965229,0.0077095926,-0.01806667,0.02769694,-0.04651984,-0.021023797,0.029240796,-0.02790352,-0.04194618,-0.015526054,-0.025528878,-0.026228996,0.05721596,0.0077309087,-0.0129914805,0.023025341,0.04201681,-0.04849223,-0.07525943,0.07275784,-0.02263045,-0.03576566,-0.05472915,0.017474402,-0.04538111,0.0358361,0.011710277,0.013723351,0.010643423,-0.030648343,0.013616476,-0.036910325,0.00127073,-0.037842225,-0.014804955,0.00044361502,0.023815269,-0.04096548,-0.018955898,0.0014490262,-0.025892857,0.018800024,0.035602003,-0.016886586,-0.04221937
PTP4A1,-0.008662153,-0.016185068,0.024722347,-0.019609801,-0.003353946,-0.019017942,-0.0005761348,-0.028122716,0.02205575,-0.011645999,0.009857118,0.006168234,0.0033227429,-0.040962115,0.01841712,0.015224239,-0.0104364045,0.040121324,0.0004989039,-0.0077588297,-0.0216581,0.026396489,-0.01080524,-0.008081954,0.013023904,0.0011476241,-0.011178099,-0.0033856854,0.031182598,0.021175668,0.0018189196,0.021122858,-0.012869861,0.018767267,-0.023148108,-0.0068846825,3.0107796e-05,-0.025602989,0.015157361,-0.020058654,-0.0002534166,-0.010542089,-0.011054009,0.00047392026,0.04723972,-0.021124398,-0.015701402,-0.024452832,0.024820305,0.0197368,0.0055858847,-0.045338817,0.0062914565,0.027726892,-0.036373988,-0.007974617,-0.0023054937,0.0017793141,-0.021665908,-0.003080327,-0.00946594,-0.0049419403,0.0007420238,0.0086665675
JUNB,0.23070845,0.027760807,-0.07118415,-0.060339738,-0.102669075,0.24358654,0.1453047,0.12763652,-0.24565005,0.19821326,-0.15206152,-0.07629972,-0.063874915,0.22823776,-0.08594153,-0.18721455,-0.11271021,-0.35165292,0.021646434,0.14513333,0.10368064,-0.2944743,0.15312907,-0.13084595,-0.22022776,0.08410178,-0.06159075,-0.06749066,-0.27499416,-0.17793578,-0.14512135,0.090645306,0.13152683,-0.1652348,0.271531,0.2749817,-0.16952482,-0.084422134,0.14352389,-0.012381092,-0.1321293,-0.0942888,0.10033406,-0.2003227,-0.0641825,0.22077031,0.21483469,0.1851026,-0.30105054,-0.04458195,-0.1924752,0.29923582,-0.15996677,-0.23886032,0.16667339,0.14763685,-0.13966623,-0.08063416,0.08100571,-0.114619985,0.12412011,0.1150445,-0.15457979,-0.1802056
SMAD4,0.2756399,0.10135253,-0.15364794,-0.15961482,-0.23771542,0.13266474,0.14283755,0.2263008,-0.26869023,0.2819979,-0.2555772,-0.17837906,-0.13401163,0.16759309,-0.16544968,-0.26766956,-0.24456307,-0.2643056,0.20629336,0.23553304,0.24827132,-0.28344804,0.2534113,-0.20079817,-0.20113365,0.18373127,-0.21617684,-0.19618207,-0.18364233,-0.28146645,-0.13207096,0.19631438,0.16610314,-0.19587347,0.21914244,0.21110761,-0.22400022,-0.26730224,0.25052297,-0.08641018,-0.21680571,-0.25384238,0.21357632,-0.2608804,-0.08999835,0.22464341,0.1966758,0.21631075,-0.25118482,-0.04397744,-0.24047764,0.24013638,-0.25407282,-0.2866269,0.19839808,0.27211538,-0.20250696,-0.17561048,0.0535975,-0.14139485,0.1571053,0.2090553,-0.057905294,-0.24903059
TARDBP,0.27468592,0.106990024,-0.16580857,-0.17071493,-0.26661965,0.08360115,0.114289135,0.2453767,-0.27443764,0.29031783,-0.26329893,-0.1937042,-0.13922472,0.14668542,-0.18158495,-0.28592202,-0.2550576,-0.22500338,0.24194457,0.24005423,0.26611865,-0.26777837,0.25956315,-0.20946471,-0.17989309,0.19445264,-0.23035261,-0.22015315,-0.14474139,-0.2888265,-0.13719764,0.20882785,0.15568823,-0.19029626,0.19987744,0.19814558,-0.21571794,-0.3058453,0.276966,-0.101040944,-0.23540087,-0.2907939,0.21404268,-0.26521924,-0.07783893,0.20794421,0.17862222,0.21210615,-0.225042,-0.030658377,-0.22800693,0.20291877,-0.2646401,-0.26457915,0.19199589,0.28386107,-0.2162017,-0.17504752,0.042532783,-0.13536479,0.15639642,0.2187421,-0.034620218,-0.24366671
FIS1,0.08270619,0.020937111,-0.032239858,-0.07605006,-0.09299966,0.013004055,0.0144287795,0.05858492,-0.08044316,0.08882485,-0.0722497,-0.05153457,-0.05550246,0.02165436,-0.035232645,-0.08375708,-0.0902383,-0.063590735,0.057850145,0.061454687,0.037457734,-0.059334632,0.06364647,-0.08189749,-0.051089242,0.05710531,-0.041567355,-0.07890772,-0.04881078,-0.0707074,-0.052458897,0.09248762,0.024989896,-0.042064488,0.07000437,0.08725654,-0.09647296,-0.12733354,0.12557128,-0.028934907,-0.06665389,-0.10452894,0.047632806,-0.09574484,0.017276565,0.03872067,0.040733792,0.051048934,-0.08657873,0.008295987,-0.07371527,0.049161352,-0.08338155,-0.06958334,0.039305232,0.06462171,-0.081259795,-0.038364,0.028647978,-0.049074218,0.044517715,0.07585497,-0.025893826,-0.09352205
SNRPE,-0.122629575,-0.057088092,0.103166446,0.047999192,0.12358742,-0.06444201,-0.018664863,-0.13388464,0.15271159,-0.14330626,0.108444,0.09248957,0.095978595,-0.11949976,0.09530866,0.13394114,0.101055264,0.16051413,-0.066836275,-0.09923291,-0.0836329,0.122816816,-0.10970171,0.10722521,0.0850703,-0.06986645,0.027858853,0.108215876,0.12671705,0.13501191,0.081614494,-0.07909966,-0.0666026,0.10292695,-0.13545217,-0.1342848,0.13842174,0.114882804,-0.13357425,-0.0055317804,0.090576194,0.11764727,-0.08825116,0.123743206,0.07270576,-0.10068975,-0.08795783,-0.09608897,0.1552827,0.03635333,0.1250056,-0.15417007,0.11390815,0.138785,-0.12708436,-0.098889306,0.105464235,0.052768458,-0.08251807,0.06591011,-0.07960383,-0.11260443,0.034896523,0.14900857
CHD1,0.27461419,0.097877845,-0.15193115,-0.15811206,-0.2372716,0.13097085,0.14011143,0.22662729,-0.26981223,0.28133962,-0.25463626,-0.17872763,-0.13263603,0.16642554,-0.16717066,-0.26888385,-0.24154358,-0.26364195,0.20628813,0.23379602,0.2467376,-0.281021,0.25176477,-0.1991464,-0.200305,0.18393585,-0.2145029,-0.19666353,-0.18278629,-0.2806116,-0.13247575,0.19460523,0.16591652,-0.19560793,0.21702692,0.20891705,-0.22027767,-0.26708308,0.24941133,-0.08559941,-0.2156231,-0.25318995,0.2128737,-0.2616164,-0.08924696,0.22169569,0.19333085,0.21586983,-0.24842288,-0.043164887,-0.2375927,0.23646933,-0.254612,-0.28551963,0.195923,0.27032426,-0.20196384,-0.1733049,0.053615484,-0.14143941,0.1566033,0.20795563,-0.057942852,-0.24822184
HINT1,-0.0031796657,-0.009514369,0.020969162,-0.025344875,-0.012464268,-0.013201617,-0.0012392551,-0.015458234,0.008418962,-0.003959032,0.0021522343,-0.0001846971,-0.0022774711,-0.031690553,0.013262492,0.0058003515,-0.016889125,0.02989962,0.005356813,0.00067949295,-0.01444418,0.016236577,-0.0015325565,-0.012382835,0.005916266,0.006534489,-0.013340004,-0.010689102,0.018616918,0.010582157,-0.00071015395,0.02823563,-0.009479757,0.012311254,-0.012430884,0.0011890777,-0.006967373,-0.034402736,0.02758203,-0.019610634,-0.007933784,-0.018577382,-0.0061500855,-0.005403936,0.044348575,-0.015261203,-0.013149268,-0.0143856,0.015761051,0.01914445,-0.003347544,-0.03669916,-0.003408812,0.02261741,-0.030893773,-0.0027702674,-0.007972697,-0.0030643456,-0.018878572,-0.0063500516,-0.0042043515,0.004657194,-0.0046254005,-0.0006556809
FXR1,0.26157874,0.085237786,-0.14736523,-0.15720598,-0.2401382,0.08447955,0.10177821,0.22281328,-0.26286617,0.2687045,-0.24213573,-0.18404648,-0.12318541,0.14532547,-0.16868114,-0.27021232,-0.22708063,-0.22953703,0.20810421,0.21785177,0.2350226,-0.25435466,0.23300473,-0.19250901,-0.17154242,0.17711122,-0.20627464,-0.19880882,-0.14370973,-0.26455614,-0.129332,0.1884313,0.13634126,-0.17677128,0.19194204,0.20182775,-0.19931081,-0.27622148,0.25762552,-0.08711521,-0.21527217,-0.26715744,0.19533917,-0.2532367,-0.06186799,0.18939658,0.16752906,0.20081048,-0.22081025,-0.023176137,-0.21601605,0.1895678,-0.24622956,-0.24715309,0.17380854,0.2601566,-0.20038854,-0.15646529,0.046662625,-0.12317037,0.14796957,0.20170948,-0.043589666,-0.23011169
SRSF2,0.25419527,0.037494916,-0.09043433,-0.098424524,-0.13249296,0.23105872,0.1674005,0.1494171,-0.24204433,0.2293983,-0.19368142,-0.10953014,-0.08388044,0.20258977,-0.11339009,-0.21311152,-0.16754554,-0.34515542,0.08024289,0.186704,0.15570986,-0.28725296,0.19784984,-0.14718343,-0.22582428,0.12623948,-0.13331592,-0.11375982,-0.25613257,-0.21831545,-0.121826686,0.13408558,0.15387338,-0.17637497,0.24733758,0.24830808,-0.20141953,-0.14261885,0.16737641,-0.032179434,-0.14514564,-0.13606925,0.17139417,-0.24068774,-0.08009225,0.21530579,0.2049755,0.19374722,-0.30120856,-0.04727517,-0.22033697,0.29843256,-0.20090619,-0.29089305,0.16819108,0.19613548,-0.1474038,-0.13306725,0.08847313,-0.12738882,0.13830608,0.16149288,-0.1360833,-0.23572081
ATP5J2,-0.09058077,-0.040740915,0.0802536,0.027817588,0.08025635,-0.045670763,-0.011416692,-0.096352756,0.1056382,-0.102674454,0.076518364,0.065725535,0.062504075,-0.09113931,0.07101652,0.099615164,0.0664181,0.123969,-0.0453137,-0.06750022,-0.06365958,0.08913729,-0.076798886,0.07278857,0.06388001,-0.04616825,0.01875262,0.071815275,0.09151166,0.097475626,0.05778958,-0.046353765,-0.04826464,0.0759781,-0.09549424,-0.09128217,0.09536741,0.07146264,-0.08864179,-0.008498862,0.06161678,0.078559846,-0.061844658,0.08714531,0.06256707,-0.074806765,-0.06944879,-0.0721713,0.115887344,0.02940743,0.08486407,-0.1185228,0.08022662,0.1046481,-0.09892951,-0.070242465,0.0710666,0.035457376,-0.06347102,0.043421596,-0.054882668,-0.07614989,0.02187184,0.102327965
MRPS18C,0.065777205,0.00852881,-0.022523155,-0.063932404,-0.075384274,0.014710119,0.014030345,0.030500665,-0.055627752,0.07132907,-0.051708512,-0.03913429,-0.05011287,0.009951811,-0.023910612,-0.0661338,-0.07580967,-0.04320304,0.04035631,0.043799657,0.018737957,-0.04691278,0.045591246,-0.071573354,-0.043046013,0.04854549,-0.040844556,-0.062658034,-0.029252043,-0.04954157,-0.046020642,0.07737221,0.018691808,-0.026638068,0.052407257,0.07150044,-0.080780864,-0.10575468,0.10487589,-0.030605545,-0.053033408,-0.08560612,0.03535738,-0.07957804,0.024451656,0.02951984,0.037770018,0.028727293,-0.065203175,0.0058590584,-0.061905988,0.03194043,-0.067129195,-0.054753903,0.026028976,0.052954603,-0.072324,-0.029520344,0.022149045,-0.04231568,0.037551746,0.062018998,-0.021966713,-0.075413145
ATP5E,-0.07426897,-0.030946385,0.06836233,0.01684368,0.05930274,-0.03954421,-0.010961283,-0.07379765,0.0826918,-0.07903431,0.059102558,0.050486367,0.046596594,-0.074702084,0.055708233,0.079712674,0.049334615,0.10362299,-0.032565594,-0.04995703,-0.053928077,0.071541056,-0.0581519,0.057210315,0.05323393,-0.034630936,0.01596117,0.053111948,0.07184682,0.07751812,0.04646433,-0.029964969,-0.041514304,0.060252782,-0.07349721,-0.07061461,0.07415447,0.048358418,-0.063903555,-0.007923953,0.045970418,0.056448787,-0.04844321,0.06955905,0.058817964,-0.06403766,-0.05932947,-0.05750475,0.09430665,0.026804823,0.06334775,-0.09813264,0.061669476,0.0885417,-0.083841145,-0.05707929,0.05588924,0.025331724,-0.055164125,0.034329757,-0.043833584,-0.055938356,0.013091559,0.07857422
ATP5G1,0.04914715,0.0079933815,-0.012122538,-0.056535073,-0.062223718,0.0025368426,0.0061839297,0.03122294,-0.04752324,0.050161116,-0.043496992,-0.0334908,-0.037326653,0.0032688044,-0.016982822,-0.047136433,-0.06215152,-0.02666226,0.035635866,0.03911366,0.017719798,-0.026035894,0.03905209,-0.056511432,-0.024885656,0.035025172,-0.030844614,-0.05576461,-0.0265104,-0.03973219,-0.03303551,0.07074811,0.013463691,-0.022316925,0.03703004,0.054387078,-0.0622752,-0.091834225,0.08944608,-0.023040846,-0.043824244,-0.0701721,0.027111823,-0.062591925,0.02988333,0.018037658,0.015586615,0.022026822,-0.04610102,0.015253019,-0.047374055,0.013882257,-0.0509469,-0.028594248,0.011025451,0.035380073,-0.05350021,-0.024961349,0.007947441,-0.03306459,0.026504412,0.047782015,-0.019729085,-0.05892145
PLP2,-0.19768268,-0.08920687,0.15112568,0.09225111,0.21420789,-0.08822938,-0.029866684,-0.21650729,0.2467078,-0.23001456,0.17578566,0.15900029,0.16287732,-0.17210133,0.15014409,0.21638401,0.17884776,0.23123842,-0.123219825,-0.16667639,-0.12853804,0.1883295,-0.17795606,0.18844254,0.13131808,-0.119860455,0.057437137,0.19573686,0.18994847,0.2119681,0.13031855,-0.15181237,-0.10331838,0.16351578,-0.21038607,-0.21902429,0.2355408,0.21738625,-0.24258797,0.0087872185,0.15578279,0.21539028,-0.14551875,0.20273411,0.08885843,-0.14785819,-0.13109598,-0.151921,0.23969126,0.050076086,0.20742923,-0.22154623,0.18842256,0.21008979,-0.17747287,-0.16229104,0.17861904,0.08903164,-0.11769925,0.118580475,-0.12809783,-0.19403082,0.055890918,0.24519682
BTG1,0.25034103,0.06647201,-0.10303043,-0.13205081,-0.16654137,0.2120654,0.15483372,0.1734114,-0.24494696,0.25624523,-0.21270135,-0.12323556,-0.11705997,0.19111861,-0.13608153,-0.23209748,-0.19072019,-0.32573545,0.12233195,0.21589668,0.18200982,-0.2892008,0.21487673,-0.1614346,-0.22355065,0.15210055,-0.16114068,-0.15557766,-0.24763784,-0.24417505,-0.11556063,0.16726455,0.16810949,-0.17273724,0.24698353,0.23572306,-0.2330383,-0.19670063,0.20464663,-0.043445453,-0.17274094,-0.17007944,0.20076631,-0.25414795,-0.07386724,0.21577007,0.19437633,0.19966722,-0.3067907,-0.03011627,-0.23061058,0.30382854,-0.22094285,-0.29436424,0.17876902,0.21909462,-0.16566508,-0.15824299,0.10132867,-0.13770099,0.15655649,0.18397766,-0.12531404,-0.2629641
TUBB5,-0.1564399,-0.08058119,0.12742741,0.07130194,0.1721971,-0.074719004,-0.019569207,-0.18217142,0.20519337,-0.18558562,0.14700955,0.12681271,0.12880331,-0.1497431,0.12484695,0.17701536,0.14065987,0.19688672,-0.097200625,-0.14069529,-0.11065413,0.16040693,-0.14880629,0.1447963,0.10707093,-0.09502117,0.040290825,0.15556717,0.16408727,0.17776963,0.10271511,-0.11762155,-0.08444008,0.13828224,-0.17724007,-0.17949109,0.18472558,0.16617453,-0.19130142,-0.0023168288,0.12598579,0.16771364,-0.11946273,0.16094558,0.083296925,-0.11922779,-0.10530635,-0.1282348,0.20050226,0.04207806,0.17101112,-0.18849525,0.15353298,0.1701813,-0.14862227,-0.12670468,0.13983093,0.07656437,-0.097241774,0.088757664,-0.101729654,-0.15466964,0.05105955,0.19793457
AA467197,-0.11111664,-0.042835146,0.08561589,0.03905267,0.10012596,-0.0568114,-0.016570318,-0.10427686,0.12484768,-0.116379336,0.088068195,0.06982227,0.07360863,-0.09405665,0.07650918,0.1184246,0.08034319,0.13528752,-0.056315623,-0.07605444,-0.07435464,0.10414754,-0.087224215,0.09266396,0.07629182,-0.056635465,0.031392246,0.0873872,0.102678604,0.110877685,0.06698946,-0.059429474,-0.06163278,0.08513054,-0.10582157,-0.107726894,0.11397063,0.091806956,-0.10954498,-0.002243992,0.07411084,0.091525115,-0.07617167,0.10883351,0.0714319,-0.091874965,-0.07802566,-0.08043416,0.13377634,0.02992316,0.09746111,-0.13064733,0.095770456,0.12401271,-0.10767576,-0.086822584,0.09174853,0.03924204,-0.072386265,0.05693087,-0.06775286,-0.08831001,0.02535197,0.12179633
SPP1,-0.108097225,-0.045818686,0.08657196,0.04039408,0.0971122,-0.049246904,-0.014522616,-0.10760077,0.12514389,-0.1195904,0.090602614,0.07648147,0.07525597,-0.09873192,0.07204878,0.11770596,0.0873249,0.13388395,-0.061165206,-0.081884526,-0.07472799,0.108677015,-0.08874017,0.090032145,0.07627884,-0.053761322,0.030200794,0.0899628,0.09731211,0.1104757,0.06611528,-0.06240756,-0.056020003,0.08779581,-0.1125515,-0.11248415,0.1150764,0.08854131,-0.11259191,-0.0010807738,0.071763635,0.09903465,-0.06934282,0.10803038,0.07319867,-0.08562718,-0.08238298,-0.08177294,0.13959453,0.031581182,0.10216938,-0.12920567,0.09680272,0.12418258,-0.108971134,-0.08268453,0.09223873,0.040039834,-0.07022436,0.053768873,-0.06485002,-0.0891835,0.027084341,0.12124237
BANF1,-0.04803005,-0.03564805,0.049849633,0.0037839282,0.047582336,-0.040590048,-0.0058415644,-0.07501201,0.08013742,-0.061793122,0.04771547,0.04023732,0.03694377,-0.07672535,0.05014157,0.060253993,0.026369408,0.09147452,-0.02499867,-0.047797315,-0.047485113,0.06971115,-0.053197727,0.027776148,0.040135704,-0.027111582,-0.0040178113,0.041271575,0.07837088,0.06560089,0.030033661,-0.016614802,-0.032376412,0.053642258,-0.0702793,-0.057429448,0.050395414,0.023638688,-0.03654192,-0.01911357,0.03525278,0.035525367,-0.04308525,0.044618536,0.05884394,-0.04866041,-0.03827732,-0.05958738,0.07600528,0.026676904,0.05197306,-0.09075314,0.046003573,0.0675749,-0.069940805,-0.04045475,0.03354038,0.026441429,-0.044446982,0.018978454,-0.036549434,-0.044580586,0.021437852,0.06165646
NFAT5,0.27739683,0.10578242,-0.15910548,-0.16427304,-0.24844918,0.120458245,0.13884895,0.23589098,-0.2734655,0.2883927,-0.2631723,-0.18451174,-0.1387647,0.16262442,-0.17360136,-0.27508855,-0.25223455,-0.25488532,0.22131696,0.239056,0.2579452,-0.28099468,0.25737453,-0.2054726,-0.19772084,0.19133867,-0.22434488,-0.20605198,-0.17696416,-0.28669783,-0.13423273,0.20234016,0.16807441,-0.19912878,0.21513784,0.20504433,-0.22239429,-0.28241327,0.25734496,-0.09231262,-0.22368093,-0.26717943,0.21854492,-0.26499513,-0.0923703,0.2238605,0.19410816,0.2189698,-0.24314521,-0.04396143,-0.23950921,0.23177814,-0.26052967,-0.28580838,0.20095238,0.28066295,-0.20868877,-0.17803505,0.050462816,-0.1455396,0.15871051,0.21451202,-0.0486976,-0.25030804
CTSD,-0.0444175,-0.018402833,0.04412947,0.002032807,0.027303815,-0.022909652,-0.010002952,-0.039239604,0.04557106,-0.04745021,0.031543754,0.02565439,0.023494802,-0.04623411,0.030134324,0.046815626,0.023479968,0.06382171,-0.01656255,-0.024740865,-0.034670316,0.049099445,-0.029978985,0.03072242,0.032828502,-0.015394699,0.006587617,0.02373588,0.03587109,0.042601738,0.02633994,-0.002105236,-0.027273986,0.0363196,-0.042928357,-0.038043145,0.041558377,0.009928562,-0.021879494,-0.0073601604,0.020101767,0.02500505,-0.02256241,0.04036883,0.05521655,-0.04184856,-0.044337817,-0.033374283,0.06253982,0.02372082,0.033074014,-0.06516729,0.03026846,0.06422943,-0.061273098,-0.03376748,0.03230623,0.011493873,-0.04052853,0.015710436,-0.024875782,-0.022768132,0.0004486218,0.042971157
COX6A1,-0.082951054,-0.02994271,0.07248871,0.020335592,0.06044548,-0.033809546,-0.011289302,-0.07333617,0.0814822,-0.08287679,0.0608091,0.05634177,0.049745046,-0.07536922,0.05638236,0.08225106,0.052931502,0.10544859,-0.037707232,-0.052841306,-0.055445105,0.070377745,-0.061331637,0.06433387,0.05168338,-0.031942215,0.020708866,0.05822224,0.0709723,0.077209026,0.051096253,-0.034593336,-0.045143787,0.0626374,-0.072051406,-0.07444616,0.084459715,0.053303726,-0.07197571,-0.0066425763,0.046363343,0.060848434,-0.045907434,0.07629681,0.05752292,-0.067308605,-0.06358029,-0.054404862,0.102787234,0.023562763,0.06611465,-0.10057552,0.06477619,0.088390574,-0.08526085,-0.05913167,0.059433393,0.023692217,-0.053913243,0.03612209,-0.044084124,-0.058629893,0.012007292,0.08276903
C1QB,0.01747348,-0.006500814,0.0027608038,-0.038067404,-0.023199756,-0.021179296,0.0025620013,-0.009974856,0.003957145,0.016938306,-0.009914465,-0.009553901,-0.018506277,-0.032879688,0.007539347,-0.011533549,-0.040408194,0.029859468,0.020196855,0.0058144964,-0.009247772,0.013951236,0.0059566908,-0.03505066,0.00079313293,0.014610045,-0.026269607,-0.023218762,0.025550414,-0.0011801831,-0.013914665,0.04431756,-0.0049547963,0.009713542,-0.003578104,0.010878343,-0.025975147,-0.060988232,0.051519223,-0.026982147,-0.017065853,-0.04221717,0.00424397,-0.027666789,0.04122364,-0.011117822,-0.0012395978,-0.013936577,0.0036223717,0.017067697,-0.014693318,-0.027997911,-0.021520361,-0.00022386946,-0.016626138,0.017970996,-0.026813082,-0.005880382,-0.009212147,-0.018999808,0.0028579906,0.02288292,0.007376073,-0.017488688
SAT1,-0.13553084,-0.052607007,0.10514254,0.05166742,0.12454326,-0.06069611,-0.019916836,-0.12830159,0.15194146,-0.14155945,0.109514676,0.09564636,0.09323364,-0.11324912,0.09204842,0.14130194,0.10581605,0.16224739,-0.0712832,-0.096717805,-0.08947763,0.12173095,-0.10837428,0.117090166,0.09094198,-0.067934364,0.041727886,0.112228684,0.12227483,0.13499355,0.083508864,-0.082418956,-0.07214841,0.10440369,-0.12703252,-0.1356831,0.1459549,0.11984073,-0.14433719,0.002025105,0.09203105,0.12126154,-0.08847785,0.13463795,0.07354985,-0.10653852,-0.09210467,-0.09545406,0.16256575,0.033168826,0.12433948,-0.15127483,0.11999985,0.14220193,-0.12556875,-0.103974596,0.111418426,0.04752485,-0.08275083,0.07146115,-0.08104409,-0.11163104,0.031815886,0.14992452
NAMPT,-0.077051654,-0.039703496,0.07037206,0.017455433,0.074279994,-0.05649425,-0.011304546,-0.09037768,0.10445051,-0.092331395,0.06637398,0.055257786,0.057204522,-0.090280324,0.06682603,0.09028893,0.05268246,0.12009485,-0.035499975,-0.060600877,-0.05736959,0.09109099,-0.06963258,0.05707186,0.06264093,-0.044895057,0.011229128,0.059256725,0.093549006,0.08888716,0.051090784,-0.03472045,-0.044960972,0.069037355,-0.092838824,-0.08576987,0.08148184,0.05632239,-0.071840435,-0.011348598,0.05600449,0.0633797,-0.05839404,0.072547674,0.06297084,-0.071059786,-0.0636161,-0.06989655,0.103321105,0.031735677,0.077753596,-0.11531494,0.072912894,0.09615107,-0.09211099,-0.06476666,0.06318711,0.034374986,-0.061824676,0.037541963,-0.05362975,-0.06981482,0.02547914,0.09280246
PA2G4,0.25171167,0.031930078,-0.091005325,-0.10709414,-0.14360788,0.20090708,0.13979314,0.15797694,-0.24559528,0.22644784,-0.19333875,-0.12578197,-0.08015787,0.19429888,-0.11814274,-0.22033727,-0.16110444,-0.33028007,0.087745085,0.18250473,0.15724736,-0.27984542,0.18729688,-0.14102541,-0.21104701,0.13039279,-0.13397457,-0.118234046,-0.229013,-0.21491742,-0.12120218,0.13178754,0.13691296,-0.16546935,0.23447159,0.24362095,-0.18718505,-0.1519239,0.1777511,-0.03660618,-0.1532028,-0.15237953,0.16476034,-0.23273982,-0.06687917,0.19943212,0.1912752,0.19027098,-0.28343177,-0.033872813,-0.2097988,0.26156813,-0.20585474,-0.26972649,0.1605475,0.19560851,-0.1531093,-0.12340827,0.08212599,-0.11884634,0.13666122,0.15450728,-0.12552825,-0.2217075
ZNRD1,0.24906799,0.06645295,-0.1295781,-0.14439632,-0.21421394,0.09059343,0.09657395,0.19982779,-0.2492606,0.24948011,-0.22184977,-0.17007734,-0.10852071,0.14530325,-0.15242547,-0.2509085,-0.20403013,-0.23287041,0.17852467,0.2001015,0.20461461,-0.24414195,0.211631,-0.17510377,-0.16831373,0.1615155,-0.18259493,-0.17774186,-0.14530772,-0.24047175,-0.12328399,0.17067724,0.12404427,-0.16420805,0.1877456,0.20294344,-0.18664253,-0.24392048,0.23715524,-0.07509602,-0.19339292,-0.23754339,0.17840329,-0.23925829,-0.052159905,0.1746431,0.15979001,0.1901837,-0.22016098,-0.022642747,-0.20118813,0.1838209,-0.22892806,-0.23544931,0.15683606,0.23582709,-0.18609469,-0.1402195,0.05103482,-0.11374956,0.13798346,0.18530497,-0.05250608,-0.21703464
GM10653,-0.028598662,-0.017386284,0.038781703,-0.010997117,0.013822887,-0.026696684,-0.0024713874,-0.037705865,0.034885112,-0.032694604,0.023223594,0.017566577,0.014235608,-0.04978522,0.030911483,0.035140675,0.0075021386,0.06027293,-0.007035477,-0.019286405,-0.027361542,0.040140696,-0.024962025,0.010325324,0.025443615,-0.011378065,-0.0037842803,0.012377679,0.03937687,0.034198597,0.018112801,0.006889716,-0.019655555,0.031218953,-0.039553143,-0.02655033,0.019945577,-0.0040732473,-0.0052959993,-0.018255558,0.012529656,0.00904212,-0.023919929,0.01958752,0.051087417,-0.031604014,-0.03430857,-0.032341182,0.04732202,0.023867194,0.022033395,-0.062589385,0.021912538,0.048256326,-0.052352924,-0.021540526,0.016455166,0.010797534,-0.03120322,0.0071565956,-0.018509906,-0.018116228,0.004502408,0.027693383
SDCBP,-0.00011825003,-0.009108219,0.019481266,-0.026912564,-0.014041907,-0.017116863,-0.00014710799,-0.012582704,0.0076675527,-0.003926833,-0.00043358654,-0.0017275168,-0.004180141,-0.031283837,0.010992754,0.0037089381,-0.017101396,0.03001399,0.008794269,0.0030808933,-0.010381199,0.018604815,0.001057826,-0.016436532,0.008137444,0.0056348667,-0.013253666,-0.0152514875,0.015759353,0.0072660176,-0.0010130759,0.031597458,-0.0087253675,0.011298019,-0.013452016,0.0012611155,-0.011006467,-0.038836434,0.032280024,-0.01936932,-0.009614546,-0.020669248,-0.0031706877,-0.008345101,0.045038797,-0.014057461,-0.015541983,-0.012703877,0.013372753,0.01986676,-0.0036618877,-0.034911674,-0.00510484,0.022102762,-0.031488553,-0.002764672,-0.00853847,-0.0036447905,-0.020045247,-0.008481719,-0.002755355,0.0069002435,-0.004355967,-0.0050449558
MCM6,0.26270598,0.055660207,-0.11765848,-0.12813018,-0.18414742,0.16212128,0.13946265,0.18607739,-0.26107398,0.24978139,-0.22155401,-0.15611888,-0.09919444,0.18318345,-0.14175104,-0.24345866,-0.19290371,-0.30011415,0.13827823,0.20540167,0.19322601,-0.2772218,0.21677265,-0.16954671,-0.20384504,0.15211049,-0.16779906,-0.15229209,-0.20889133,-0.24288383,-0.12592176,0.15397081,0.14296147,-0.18502846,0.22357905,0.23176189,-0.20102674,-0.20167285,0.21047424,-0.057328604,-0.17802645,-0.19722188,0.18305348,-0.24884939,-0.073347345,0.20500106,0.19036825,0.20833887,-0.26964486,-0.041637085,-0.21982083,0.24588487,-0.22558704,-0.275523,0.17286381,0.22869556,-0.17501864,-0.14446118,0.066452965,-0.124496296,0.14797834,0.18281853,-0.08933318,-0.23326916
CHI3L3,0.038663387,-0.0008843355,-0.009490372,-0.049479116,-0.049781457,-0.006648315,0.0074384846,0.015077412,-0.028017182,0.041027732,-0.033702433,-0.029811881,-0.0311408,-0.007959215,-0.013005333,-0.035877995,-0.055030145,-0.013182342,0.030371144,0.027884077,0.008299947,-0.010874748,0.027800217,-0.051784653,-0.017922847,0.0295212,-0.03186535,-0.048126582,-0.009976139,-0.025417492,-0.028722825,0.06301738,0.008115772,-0.012386866,0.020679243,0.043205664,-0.055548772,-0.08511878,0.07556872,-0.02260609,-0.034098122,-0.06443745,0.020986754,-0.05470095,0.036557034,0.0054964223,0.012963194,0.008938659,-0.034046665,0.014941122,-0.037470162,0.0043546855,-0.040155176,-0.020359695,-0.000440754,0.030139113,-0.043418072,-0.01692358,0.0055632032,-0.030238293,0.021833362,0.04330764,-0.009975631,-0.04777136
VDAC2,-0.0044809785,-0.016695756,0.023901006,-0.0230312,-0.0034884606,-0.029109308,-0.00068179145,-0.02939178,0.025792936,-0.012347583,0.009577461,0.0050678076,0.0021574497,-0.04671453,0.021794442,0.0127551425,-0.014778279,0.048681792,0.0049595498,-0.01221738,-0.018798403,0.030086372,-0.013771119,-0.012525797,0.014906695,0.0010654815,-0.017616559,-0.0043083876,0.03981985,0.023203978,0.0031762403,0.022456765,-0.013941046,0.020722315,-0.027514406,-0.011212481,-0.0006400496,-0.029932268,0.019191455,-0.022594452,-0.00063945726,-0.014289925,-0.010710396,-0.0019423179,0.046516333,-0.022952165,-0.016359746,-0.024470376,0.026520751,0.019322049,0.008652156,-0.051390685,0.0035938248,0.023948722,-0.03822192,-0.006355051,-0.005138633,0.004884217,-0.023769058,-0.0065113455,-0.010042757,-0.0044852123,0.008275256,0.00879816
MRFAP1,-0.08618574,-0.041692156,0.076483645,0.024461724,0.07971516,-0.045576144,-0.013152439,-0.096271716,0.10732946,-0.09823783,0.07590806,0.063102365,0.06442798,-0.09116683,0.07074322,0.09482924,0.06264578,0.120208174,-0.04592783,-0.06923195,-0.063124046,0.088850036,-0.07628816,0.06887077,0.05980429,-0.045990776,0.014912605,0.07309852,0.093457244,0.0952967,0.055093296,-0.046862848,-0.048580777,0.0747116,-0.09558262,-0.09193864,0.09281605,0.06716608,-0.08190745,-0.0105004385,0.05794419,0.076283254,-0.06304748,0.085023835,0.06491547,-0.07065448,-0.063006505,-0.07304813,0.11455947,0.030726139,0.08241456,-0.11845093,0.07773592,0.10284191,-0.09582312,-0.06920302,0.06867326,0.037072178,-0.06298901,0.041566133,-0.05686947,-0.0747013,0.022743015,0.10173597
RPL23,0.01964956,0.00065471604,0.0076752505,-0.03974513,-0.037204362,-0.003767062,0.0037736893,0.010255575,-0.022151943,0.021843692,-0.019170843,-0.018895712,-0.021423727,-0.008782739,-0.0030140225,-0.017486649,-0.034311157,0.0019612163,0.018961228,0.021537784,0.0008183867,-0.0075568296,0.01933612,-0.030860426,-0.008210061,0.019178897,-0.01784337,-0.031830218,-0.009137513,-0.015118372,-0.014018694,0.047169454,0.0020782948,-0.0047515556,0.013931662,0.027184863,-0.03376452,-0.058687188,0.05559984,-0.01873821,-0.02572852,-0.04083648,0.008889485,-0.02962741,0.03840885,0.0022278721,-0.0030032415,0.0062189996,-0.01380752,0.0160832,-0.027061446,-0.010927781,-0.024780639,-3.0839816e-05,-0.011188127,0.013269842,-0.025803354,-0.01409011,-0.006947484,-0.016557477,0.012136612,0.026297495,-0.01536374,-0.02966956
KPNA2,0.2733663,0.09345265,-0.15065277,-0.14838828,-0.22195095,0.15028508,0.15125693,0.21452197,-0.265315,0.27717257,-0.2484582,-0.16802275,-0.13011657,0.17554243,-0.15947263,-0.2552315,-0.23313268,-0.27581668,0.19012278,0.22976203,0.23200315,-0.2840597,0.2498208,-0.19653612,-0.20840465,0.17400874,-0.20036556,-0.18700035,-0.20419364,-0.27415124,-0.13441484,0.1901668,0.17011367,-0.19791648,0.22449872,0.21775328,-0.22412509,-0.24849114,0.23678868,-0.07818625,-0.19929324,-0.23196733,0.2053272,-0.2638479,-0.09104577,0.22558893,0.20236824,0.217027,-0.26266962,-0.051480997,-0.24158382,0.2593549,-0.24387285,-0.29011366,0.19644812,0.2632767,-0.19788215,-0.1727065,0.059966203,-0.14051831,0.15676284,0.20833796,-0.06670165,-0.25016487
CTSL,-0.0874443,-0.04561937,0.07395952,0.028185718,0.08890498,-0.058821797,-0.015070979,-0.10163813,0.11860089,-0.10736391,0.07851609,0.06360372,0.06727133,-0.096718445,0.07165447,0.101941235,0.066575825,0.12960202,-0.04423646,-0.07101841,-0.066999674,0.10312876,-0.08024007,0.07108882,0.07078095,-0.05310208,0.015844844,0.07083806,0.10072884,0.10116714,0.05511862,-0.04489424,-0.048854332,0.080778845,-0.10572673,-0.0964894,0.09527432,0.06941072,-0.08713575,-0.0066103563,0.06741494,0.07743787,-0.06582086,0.083985716,0.06746363,-0.07938194,-0.07146062,-0.079629585,0.11732415,0.034418005,0.09162556,-0.12434212,0.08203497,0.11328684,-0.10087668,-0.07289107,0.074996516,0.040799405,-0.06798562,0.04572907,-0.0589628,-0.07805685,0.02701418,0.10675626
RLIM,0.2725305,0.0876586,-0.15122764,-0.15495364,-0.23383895,0.11437051,0.12476997,0.22306621,-0.27449033,0.2776641,-0.24939317,-0.18280227,-0.12690195,0.16627619,-0.16768712,-0.2698243,-0.2306213,-0.25866497,0.20061629,0.22534128,0.23389044,-0.2742269,0.24359196,-0.1950701,-0.19196911,0.17838363,-0.20241088,-0.1924026,-0.17702371,-0.27280006,-0.13455266,0.18822072,0.15042607,-0.19161087,0.21381536,0.21591838,-0.20963398,-0.26405618,0.2497689,-0.079750255,-0.20950182,-0.25412315,0.20039178,-0.2619893,-0.07712506,0.20615152,0.18540907,0.21713693,-0.24592747,-0.0389371,-0.22998342,0.22393292,-0.25061193,-0.27163312,0.18771443,0.2641778,-0.20254385,-0.1645374,0.054007296,-0.13073903,0.15487765,0.20738071,-0.053633183,-0.24104336
HMGB2,0.26600373,0.06289472,-0.12152606,-0.1325744,-0.18171725,0.18175846,0.14777441,0.18578437,-0.26038632,0.25750744,-0.22341269,-0.14941363,-0.10816015,0.18742207,-0.13959685,-0.24323043,-0.2014151,-0.30760682,0.13614331,0.20723292,0.19673422,-0.28651994,0.22292438,-0.17169835,-0.2145272,0.1561242,-0.17191368,-0.15502778,-0.22427702,-0.24843192,-0.12415371,0.16482961,0.15377277,-0.18190345,0.23203161,0.23536171,-0.21165222,-0.20344266,0.20805481,-0.05515407,-0.17685218,-0.19251657,0.18979621,-0.25618827,-0.08159882,0.2131829,0.20067285,0.2114579,-0.2809167,-0.047017857,-0.23217627,0.26789314,-0.2310777,-0.2897157,0.18269077,0.23301749,-0.17839465,-0.1540199,0.07694179,-0.13043235,0.15285261,0.18564385,-0.097467184,-0.24668604
CTCF,0.23121622,0.06355946,-0.06432711,-0.05937362,-0.13117948,0.20530796,0.13651708,0.1713492,-0.27505606,0.19978145,-0.16359602,-0.09143039,-0.06842493,0.21880545,-0.09625757,-0.19150561,-0.11050661,-0.32834965,0.036098264,0.1379569,0.08815807,-0.29626745,0.1578537,-0.15349132,-0.20643388,0.07913858,-0.042807013,-0.06161554,-0.2746208,-0.1858021,-0.15118898,0.06960665,0.11501096,-0.19110504,0.30267322,0.27431953,-0.178173,-0.11320467,0.14974615,-0.009767294,-0.15359052,-0.1231396,0.077812485,-0.19415656,-0.07920252,0.2325032,0.20905286,0.21973674,-0.28635228,-0.062074877,-0.15860513,0.2953801,-0.15763831,-0.22317517,0.19320229,0.1559771,-0.14870094,-0.058967654,0.06944448,-0.12665944,0.12673776,0.11508513,-0.12479985,-0.1598114
CTSZ,-0.18211873,-0.07003543,0.13562284,0.080615744,0.17567053,-0.07482086,-0.025971014,-0.17788154,0.20803854,-0.1930666,0.15042567,0.13612355,0.13227224,-0.14822751,0.12140484,0.19134903,0.1541926,0.20706554,-0.10481512,-0.13874158,-0.11865946,0.16198322,-0.1501158,0.16544102,0.12124938,-0.09487739,0.06328666,0.16190109,0.1597755,0.18152127,0.112708874,-0.12715027,-0.095943764,0.14215101,-0.17273185,-0.18998224,0.20410019,0.18044281,-0.21085957,0.011176508,0.12956758,0.177915,-0.12036802,0.1824485,0.08542645,-0.1374685,-0.12183424,-0.12791382,0.21621615,0.03983302,0.171846,-0.19161153,0.16442421,0.18503131,-0.15624833,-0.13754438,0.15796587,0.06712958,-0.101961866,0.10168128,-0.10862879,-0.16010725,0.046604566,0.20701817
MKL2,0.26604268,0.071341485,-0.13625105,-0.14575994,-0.21519372,0.12298538,0.12045951,0.20726019,-0.26792854,0.26308763,-0.23500103,-0.17444436,-0.113422245,0.16919923,-0.15674812,-0.26022926,-0.2117227,-0.2685148,0.17463915,0.21315129,0.21499851,-0.26953566,0.22911054,-0.18278529,-0.19162054,0.16667792,-0.18754154,-0.17745143,-0.18050367,-0.2578403,-0.12929964,0.17442945,0.14165784,-0.18221015,0.21122128,0.22014241,-0.20149171,-0.2401124,0.23553155,-0.06981658,-0.19756904,-0.23356947,0.18872394,-0.25402197,-0.069721796,0.19791406,0.18044285,0.21056037,-0.24932392,-0.035019137,-0.22073126,0.22043955,-0.24009949,-0.26526603,0.17621717,0.24570182,-0.1920082,-0.15320417,0.05827942,-0.123900205,0.15076318,0.1933401,-0.065554984,-0.23469993
SP1,0.22713175,0.03711978,-0.06680712,-0.06320204,-0.1169846,0.21188557,0.12860332,0.14598417,-0.25453424,0.19707346,-0.15633172,-0.087637715,-0.061994158,0.21884046,-0.09031573,-0.1923071,-0.112959236,-0.33176112,0.038268648,0.14310576,0.10091828,-0.2870283,0.14900267,-0.13486898,-0.20808183,0.086027846,-0.06201897,-0.071142,-0.2565734,-0.17767766,-0.14330876,0.086781174,0.12230398,-0.16854736,0.27056226,0.26761493,-0.16480708,-0.10043366,0.14928262,-0.016622191,-0.14048214,-0.11331169,0.091419384,-0.19152328,-0.06505744,0.21544546,0.20313218,0.19425489,-0.28617543,-0.04358168,-0.17020372,0.2747263,-0.16061085,-0.22382647,0.16858876,0.14705266,-0.1470134,-0.07054176,0.07395683,-0.1163429,0.12346832,0.11165497,-0.1374092,-0.16699886
MYL12B,0.038286828,-0.0003922321,-0.0052600666,-0.047844015,-0.052648775,0.0033471528,0.005908128,0.014796659,-0.03358412,0.03786765,-0.030303407,-0.02449495,-0.028323177,-0.0071645677,-0.0112335235,-0.037454315,-0.050285187,-0.01586581,0.025741087,0.028226066,0.008886881,-0.016761515,0.02827266,-0.04915345,-0.022503233,0.030184248,-0.028230347,-0.0440818,-0.014852272,-0.027584694,-0.026776074,0.05881392,0.007918801,-0.012623519,0.022629619,0.04289788,-0.05126476,-0.07916018,0.07551841,-0.024790436,-0.036895145,-0.05619643,0.01929695,-0.05005534,0.03304233,0.012381574,0.01352831,0.012208078,-0.031537354,0.012898926,-0.0374834,0.003750112,-0.042319372,-0.019176442,0.0016030446,0.028286591,-0.04553201,-0.018865908,0.00458711,-0.02945329,0.022056619,0.03672496,-0.015688347,-0.046390973
BCAP31,-0.113651454,-0.055935264,0.095555514,0.04348902,0.1149274,-0.060785875,-0.0150702335,-0.12960485,0.14630376,-0.1353499,0.10213827,0.085454114,0.08748118,-0.113295645,0.08937384,0.12766056,0.09404613,0.15063211,-0.0635423,-0.09334026,-0.07978036,0.119520456,-0.1031736,0.096498236,0.08170482,-0.06594756,0.023546651,0.101707466,0.11993643,0.12670225,0.07469293,-0.07224322,-0.061039943,0.09813958,-0.1300768,-0.12519328,0.12474965,0.10395136,-0.12178801,-0.005525142,0.08328809,0.111383654,-0.083572835,0.11661592,0.07325567,-0.09138189,-0.08405521,-0.095155135,0.14514512,0.036991198,0.11768677,-0.1449802,0.10501932,0.13186896,-0.12052659,-0.09317376,0.0983206,0.050934415,-0.07854704,0.057673857,-0.07325425,-0.10397109,0.03424298,0.13750166
RELA,0.22996804,0.047202874,-0.066602774,-0.048978295,-0.107791446,0.23439544,0.14648917,0.14289528,-0.25816447,0.19885588,-0.15323995,-0.072858766,-0.06540132,0.2302999,-0.08678323,-0.1857743,-0.109125555,-0.34392297,0.025146702,0.14038809,0.09349607,-0.29690337,0.15736903,-0.13990206,-0.21690005,0.07491134,-0.047124743,-0.058920696,-0.2856598,-0.17888305,-0.15059504,0.080670886,0.13144109,-0.18192035,0.29228136,0.27306387,-0.17101154,-0.08937608,0.13844486,-0.008160356,-0.13395315,-0.09902758,0.086912245,-0.19627737,-0.07413991,0.22949156,0.21571885,0.19883661,-0.29760325,-0.054953773,-0.1766069,0.31010628,-0.1542247,-0.23464262,0.18203306,0.14460804,-0.1435152,-0.07203512,0.075209334,-0.12105068,0.123030044,0.11509393,-0.14728655,-0.17026311
IL1RN,-0.06594413,-0.030685348,0.057382587,0.012817051,0.0558049,-0.040555395,-0.010677513,-0.06682207,0.079627514,-0.072433874,0.053009234,0.038241625,0.038906835,-0.065172315,0.047039818,0.07455756,0.04380861,0.092685185,-0.03205838,-0.04315823,-0.051532663,0.07221607,-0.050604023,0.048203994,0.05252312,-0.03255376,0.013908692,0.043545462,0.06400572,0.07020434,0.0381698,-0.021171473,-0.038385566,0.055849936,-0.069841616,-0.0637507,0.062488183,0.03813117,-0.0534502,-0.0048460998,0.041351832,0.048270706,-0.04455826,0.06280334,0.0633661,-0.061227683,-0.05719209,-0.055233408,0.08288523,0.027121972,0.05563212,-0.09148428,0.055264153,0.087543994,-0.07813864,-0.054468516,0.05447767,0.022423636,-0.05222183,0.031188753,-0.039376184,-0.047774747,0.012830948,0.06963474
NDUFB6,-0.064419456,-0.033752173,0.06471762,0.009873327,0.057516135,-0.04536793,-0.009278249,-0.076762214,0.08739945,-0.074398905,0.058263846,0.04806744,0.0449213,-0.07987656,0.05974823,0.07707971,0.0421144,0.106264085,-0.027454747,-0.051060833,-0.05319133,0.07470765,-0.058371916,0.046043087,0.055584274,-0.036885258,0.009946518,0.047880016,0.08054752,0.077446446,0.04040757,-0.025784172,-0.038938757,0.05958429,-0.07598452,-0.07013319,0.064254366,0.041078977,-0.05382585,-0.013589799,0.04365504,0.05163166,-0.050141525,0.060604487,0.05915277,-0.05786881,-0.052801594,-0.06383811,0.09019834,0.03046218,0.062677525,-0.0994553,0.061157428,0.08403294,-0.0811081,-0.053172182,0.048485227,0.028532084,-0.057275005,0.029246937,-0.045635477,-0.05590848,0.018770775,0.076234244
MALAT1,-0.19882578,-0.078597106,0.15071684,0.089376464,0.20264623,-0.08498117,-0.028535802,-0.19990341,0.2340838,-0.21833955,0.16633362,0.15586217,0.15352064,-0.16573353,0.13949126,0.21233119,0.17240131,0.224822,-0.11772468,-0.15896633,-0.12800974,0.17950632,-0.17169085,0.18441881,0.13149399,-0.10786286,0.06812301,0.18393391,0.17826042,0.20381367,0.12726921,-0.14535123,-0.10534939,0.15957767,-0.19370249,-0.2122532,0.22863969,0.20581838,-0.23857306,0.011625096,0.14578643,0.20421809,-0.13335581,0.19994202,0.08812802,-0.14723712,-0.13132289,-0.14253102,0.23672278,0.04537591,0.19617942,-0.21121016,0.18433467,0.19896974,-0.1697751,-0.15433976,0.17603926,0.08048025,-0.11201587,0.11279553,-0.121880405,-0.18254113,0.053307965,0.23143512
AGAP3,0.27280438,0.103947625,-0.16509865,-0.16866885,-0.26479408,0.07847571,0.112077266,0.24265051,-0.2747397,0.2876812,-0.26183784,-0.19566812,-0.13828814,0.14722976,-0.18240646,-0.282281,-0.2500395,-0.22504209,0.24045238,0.23681886,0.26114023,-0.26401043,0.25518474,-0.20893252,-0.17729042,0.1930334,-0.22621758,-0.21769017,-0.14429882,-0.2853893,-0.13873921,0.20577028,0.15230641,-0.1924366,0.1974372,0.19839583,-0.2109074,-0.30287763,0.27501705,-0.09928201,-0.23142146,-0.2898753,0.21103673,-0.26339555,-0.07413479,0.20292363,0.17631823,0.211614,-0.22231959,-0.03154271,-0.22633797,0.19752926,-0.26024714,-0.26068297,0.18765444,0.28148964,-0.21353263,-0.17140263,0.040544715,-0.13427761,0.15389693,0.21930245,-0.030628933,-0.23900828
DNAJC2,0.27333793,0.092616424,-0.14973138,-0.15227443,-0.22644064,0.13774577,0.14085631,0.21822971,-0.27152485,0.27848005,-0.24826443,-0.17376181,-0.13035427,0.17444794,-0.16193853,-0.2620995,-0.23377694,-0.27111238,0.19282266,0.22959979,0.23237666,-0.28259808,0.24833508,-0.19558649,-0.20446664,0.17657977,-0.20240149,-0.18862942,-0.19442211,-0.27474764,-0.13352002,0.19051388,0.16367118,-0.19492432,0.22468436,0.21932471,-0.21923313,-0.25454804,0.2429335,-0.07660985,-0.20445533,-0.24184564,0.20405158,-0.26231238,-0.08574021,0.2182516,0.195422,0.21727215,-0.25828987,-0.044477493,-0.23726448,0.24701512,-0.24818209,-0.2841445,0.19423622,0.26268062,-0.19976872,-0.17045614,0.060047876,-0.13662712,0.156324,0.20702851,-0.06396818,-0.24718946
MGST1,-0.016591832,-0.019951392,0.027452387,-0.01670076,0.010736823,-0.033005115,-0.003982138,-0.037247058,0.03724271,-0.02608578,0.016711779,0.009617009,0.009148635,-0.049571738,0.026975606,0.025935253,-0.00379299,0.057354778,-0.0043089874,-0.017438829,-0.02479257,0.044158157,-0.021235062,-0.0013080314,0.023008527,-0.008196387,-0.012603767,0.0038451403,0.044467136,0.029912015,0.010147015,0.016460963,-0.018060882,0.029036328,-0.0391811,-0.02168949,0.010929301,-0.016629681,0.0066863783,-0.019329278,0.0098832585,-0.0041933,-0.019676458,0.0071353577,0.052591566,-0.03199507,-0.026986284,-0.03308831,0.038807075,0.023279961,0.018474126,-0.06096618,0.014083922,0.039585065,-0.04571809,-0.016669068,0.0075353086,0.009745326,-0.027520169,0.0021366142,-0.016198367,-0.011320755,0.009122292,0.021036059
CCRL2,0.03364721,-0.002214089,-0.003400722,-0.04309302,-0.042856224,-0.009116795,0.0070559233,0.008004002,-0.020582225,0.029765626,-0.025220558,-0.022445258,-0.026153117,-0.016475335,-0.0065250956,-0.029864619,-0.047973275,-0.0010222197,0.02663605,0.022312392,0.0048634782,-0.004059892,0.019862512,-0.048317105,-0.014643313,0.023795716,-0.030672789,-0.041228488,-0.0029632542,-0.019803293,-0.023068963,0.05603656,0.007074341,-0.0071901456,0.011421077,0.034814075,-0.048230663,-0.07732153,0.07016784,-0.026336715,-0.030872922,-0.05586687,0.017735668,-0.045496963,0.03834539,0.0043250504,0.007627975,0.0044773556,-0.02262643,0.015433114,-0.029852321,-0.0051927194,-0.036274105,-0.012829567,-0.005605124,0.025840592,-0.03989982,-0.013060402,0.0008992776,-0.031302646,0.019368824,0.036200956,-0.007432229,-0.04114271
USMG5,-0.10203173,-0.04612975,0.08836231,0.03406276,0.09360168,-0.052419342,-0.01571126,-0.10556537,0.12010412,-0.11393623,0.08558909,0.07377022,0.07380725,-0.09821766,0.07756142,0.10940645,0.076718956,0.13622642,-0.05205451,-0.07701254,-0.07004072,0.09815185,-0.086870454,0.08562878,0.06991361,-0.05234046,0.023118421,0.08272519,0.101663746,0.10937867,0.0665346,-0.055796914,-0.05497693,0.0844677,-0.1058645,-0.10515232,0.11152098,0.084959395,-0.10494354,-0.006975308,0.07068397,0.09033366,-0.06877357,0.098762825,0.06515792,-0.08397486,-0.07412018,-0.07762751,0.12882951,0.029511962,0.09635955,-0.1300923,0.091496415,0.11404663,-0.10661777,-0.081201494,0.08122488,0.039709385,-0.06982817,0.051716,-0.06282751,-0.08793961,0.024311015,0.1165896
SUMO1,0.023536662,-0.004361272,0.0050432705,-0.04181677,-0.034548134,-0.0123925265,0.0019086972,0.00018812716,-0.01380657,0.019900497,-0.017278299,-0.018801779,-0.018366002,-0.018025141,-0.0005417429,-0.018146994,-0.038164094,0.0071363,0.01530659,0.015338499,-0.002562642,-0.0018591173,0.015007919,-0.034152422,-0.006981671,0.019272082,-0.022757981,-0.03006411,0.0034488924,-0.0064237956,-0.0155451875,0.04554055,0.00041070953,-0.0019035563,0.008399934,0.025994748,-0.03175156,-0.057205945,0.050353095,-0.019559959,-0.022433724,-0.043180965,0.0059438236,-0.03190105,0.03723962,-0.0025942507,0.002635952,0.0011161864,-0.010847852,0.012761284,-0.022765087,-0.02093015,-0.021504752,-0.0014203917,-0.010367535,0.013532069,-0.029128829,-0.012364518,-0.005109817,-0.01621269,0.009635411,0.018988624,-0.008045958,-0.025417447
UPF1,0.23160943,0.057365518,-0.063587345,-0.05914108,-0.12597293,0.21258028,0.1420552,0.16351646,-0.27252126,0.20000294,-0.16285074,-0.08919122,-0.067675196,0.22129472,-0.09533143,-0.19138266,-0.11063736,-0.332704,0.035694763,0.14096223,0.091930404,-0.29701918,0.15683898,-0.15279372,-0.2098741,0.080859706,-0.047481038,-0.06170407,-0.2744608,-0.1848189,-0.15024455,0.070942305,0.1184894,-0.18944809,0.29777986,0.27446368,-0.17705205,-0.108277865,0.14849651,-0.01322107,-0.15130259,-0.119773306,0.08124012,-0.19366813,-0.07920502,0.23333153,0.2116737,0.21430404,-0.2887559,-0.06094215,-0.16307557,0.29380387,-0.15789536,-0.22862378,0.189246,0.1558044,-0.14723018,-0.062137026,0.06892064,-0.12757055,0.1260204,0.11470337,-0.12709476,-0.16294414
PSMA4,0.035715364,0.00048981234,0.0001348654,-0.051254433,-0.047783755,-0.012115534,0.003550876,0.018527798,-0.02770884,0.036336962,-0.031737972,-0.02487529,-0.028584503,-0.008794475,-0.007304229,-0.030209286,-0.05223208,-0.002368331,0.033051424,0.027652431,0.008811288,-0.014015727,0.023158014,-0.044574216,-0.010147342,0.027896445,-0.028089501,-0.04344552,-0.0060014576,-0.019743182,-0.022530088,0.058517203,0.005550284,-0.01247289,0.022656605,0.038292944,-0.044732295,-0.07569026,0.069042414,-0.021718472,-0.03273322,-0.056903537,0.019504651,-0.04387178,0.032106638,0.006195597,0.009189621,0.010737702,-0.027316168,0.014019895,-0.03148471,-0.0076779556,-0.03332431,-0.014599127,-0.0034141243,0.021685246,-0.040990878,-0.0170683,-0.0032097101,-0.025569404,0.014898578,0.03371287,-0.011635959,-0.040618893
ID2,0.2208969,0.043027584,-0.09308607,-0.085708216,-0.11914178,0.27806365,0.14684139,0.1203621,-0.22835642,0.22149888,-0.16514835,-0.07687254,-0.095722504,0.2239215,-0.10066338,-0.19109818,-0.12634754,-0.3766092,0.020652115,0.17095864,0.10112254,-0.28998417,0.17522876,-0.13658929,-0.24590848,0.09721017,-0.07953904,-0.10040705,-0.29856637,-0.20853844,-0.1392842,0.124679826,0.1509916,-0.15366778,0.27888596,0.27712828,-0.2186602,-0.11728777,0.16819507,-0.0058934055,-0.13254769,-0.097674094,0.13837643,-0.23697874,-0.0482162,0.21096447,0.209441,0.18188117,-0.33719105,-0.02747637,-0.23199226,0.3559156,-0.1764172,-0.26643062,0.17192087,0.16731185,-0.14702076,-0.11769129,0.12778701,-0.11328717,0.15950122,0.15119517,-0.17364717,-0.23383802
ACTB,-0.117101505,-0.026029032,0.08160602,0.03798287,0.078190975,-0.034602065,-0.015600268,-0.078461334,0.09749566,-0.09399627,0.07768131,0.06990912,0.062153704,-0.080042005,0.05644379,0.109251134,0.07832499,0.11606552,-0.057517402,-0.062304985,-0.0723774,0.08528961,-0.07523787,0.090047166,0.06562686,-0.034548786,0.050557896,0.07928272,0.07745294,0.08885544,0.060458243,-0.05716587,-0.06594087,0.07154091,-0.07910533,-0.098173216,0.11181433,0.07697744,-0.10292992,0.001663588,0.060929984,0.07610842,-0.059673045,0.10760364,0.07167171,-0.08843921,-0.07588138,-0.05968002,0.13597456,0.019351501,0.07695433,-0.11081297,0.09039345,0.109710336,-0.091144934,-0.073530525,0.08904426,0.022764575,-0.056002248,0.05548913,-0.06186893,-0.06984595,0.01525162,0.10451601
NDUFA12,-0.1779007,-0.08322817,0.14105186,0.08165796,0.1915774,-0.085142426,-0.025555123,-0.19425544,0.22500728,-0.20760919,0.15874836,0.14156204,0.14657697,-0.1599007,0.13679774,0.19621783,0.15860496,0.21715361,-0.106332846,-0.15089291,-0.116218224,0.17178363,-0.16198273,0.16745669,0.12302278,-0.108187124,0.049371824,0.1713402,0.17599246,0.19496682,0.11811298,-0.13253239,-0.092629984,0.14867602,-0.1924116,-0.19892229,0.20971406,0.19012854,-0.2151696,0.004589878,0.14008856,0.1907309,-0.1305284,0.18217258,0.08400565,-0.13508134,-0.119913615,-0.13829264,0.21806632,0.04698037,0.18864618,-0.20459488,0.17072266,0.19229814,-0.16621706,-0.14647953,0.15904316,0.081434876,-0.11182359,0.10280736,-0.115952484,-0.17364717,0.05262976,0.22177207
TM7SF4,-0.09290155,-0.052594297,0.08224104,0.02931694,0.09734246,-0.062156223,-0.01334833,-0.11560133,0.12956405,-0.11486511,0.08683521,0.072522454,0.07382659,-0.10492146,0.08154227,0.10943766,0.07270524,0.13901949,-0.052958615,-0.08238904,-0.0698682,0.10784477,-0.09138182,0.075855896,0.07232577,-0.056887437,0.014006466,0.08556595,0.11281047,0.11153457,0.061831743,-0.05528868,-0.052105602,0.08804616,-0.114316,-0.10701097,0.107333116,0.08336801,-0.10077694,-0.00970934,0.07291369,0.08960275,-0.07480061,0.09063181,0.06731331,-0.08081706,-0.069409,-0.086996704,0.12783888,0.03277779,0.100149065,-0.13568807,0.0921944,0.1128875,-0.10489069,-0.079518646,0.07834931,0.047452096,-0.06867397,0.049831554,-0.06366085,-0.09134018,0.033192977,0.1188009
POMP,0.019729273,-0.0040981136,0.0077821626,-0.038939096,-0.03276273,-0.008664301,0.0013718195,0.004309997,-0.013204377,0.017179493,-0.015873022,-0.015278009,-0.015806004,-0.015884679,0.00042812154,-0.014641834,-0.034496658,0.006686397,0.016228624,0.016081847,-0.00056892633,-0.00096094236,0.014859667,-0.030703124,-0.0055429433,0.017772183,-0.02139277,-0.028464742,2.5218353e-05,-0.007474754,-0.014247639,0.04457599,2.4698675e-06,-0.0020511374,0.00774879,0.023610001,-0.029438056,-0.05621923,0.051793266,-0.020395707,-0.02240568,-0.038509984,0.006968178,-0.027770033,0.038725317,0.0002622283,0.0010298323,-0.0007536188,-0.008117095,0.015587058,-0.02023227,-0.018846102,-0.020250943,0.003794659,-0.013694048,0.010201763,-0.026639838,-0.01027647,-0.009964127,-0.016916692,0.0072113015,0.020808294,-0.010980215,-0.0228442
NPM1,-0.08318905,-0.041197266,0.07369231,0.0238358,0.07669868,-0.045272723,-0.011704553,-0.093267694,0.1045115,-0.0953497,0.0726539,0.060395475,0.060219936,-0.08848728,0.06634994,0.09258363,0.061035022,0.117987156,-0.045178987,-0.06565717,-0.062896036,0.08694483,-0.07271299,0.065706134,0.060248457,-0.043995213,0.015642382,0.0680818,0.0914476,0.09412109,0.052064136,-0.043802924,-0.04768126,0.07265419,-0.0929234,-0.08713766,0.08872373,0.06426752,-0.081075385,-0.010003269,0.05649365,0.071832575,-0.061562542,0.082478374,0.06495598,-0.071066014,-0.062007833,-0.070841864,0.10927203,0.029245112,0.079614766,-0.11571986,0.07650223,0.10188685,-0.09401029,-0.0665935,0.06597553,0.033561092,-0.06109546,0.042044252,-0.054262117,-0.07288731,0.02166014,0.09697028
ZFHX3,0.27029684,0.08933455,-0.15218915,-0.1597298,-0.24245396,0.09774895,0.1165786,0.2276667,-0.27202195,0.27755475,-0.251105,-0.18716072,-0.12734036,0.15722515,-0.17037258,-0.27335393,-0.23458871,-0.2445757,0.21296436,0.22599818,0.24167597,-0.26668042,0.24310161,-0.19814013,-0.18337755,0.18194501,-0.21075979,-0.2004107,-0.15902159,-0.27351937,-0.13345452,0.19235834,0.14647837,-0.18861291,0.20264322,0.20842001,-0.20653224,-0.27553138,0.25733095,-0.087227084,-0.21680559,-0.2662208,0.20206131,-0.25903472,-0.07337032,0.20116428,0.17839971,0.2120945,-0.23412444,-0.033872,-0.22446346,0.20626312,-0.25204924,-0.26402846,0.1828261,0.2668398,-0.2037594,-0.16334373,0.047591846,-0.13071772,0.15233088,0.20773187,-0.044615813,-0.23686928
PSMB2,-0.099888556,-0.05179235,0.08563943,0.035445526,0.09785775,-0.050288573,-0.018172268,-0.11612587,0.12550904,-0.11720115,0.090561666,0.07546312,0.07892034,-0.10298717,0.080531925,0.10843632,0.077649176,0.13426472,-0.06139198,-0.08574642,-0.0716411,0.10399704,-0.09254545,0.08581044,0.06462493,-0.053951498,0.01771035,0.09026315,0.1065761,0.11237805,0.0662716,-0.06044253,-0.056786265,0.08830904,-0.11422365,-0.109301165,0.115785845,0.08984686,-0.106362134,-0.0101950355,0.07306514,0.094031,-0.07424416,0.097142786,0.0691932,-0.08345778,-0.0695214,-0.08251234,0.13444968,0.029163364,0.09921028,-0.13515061,0.09141707,0.11591546,-0.10652554,-0.080317125,0.081705175,0.044823278,-0.06562,0.052306145,-0.06468074,-0.09398309,0.027059926,0.12303602
CLEC4B1,-0.018442862,-0.021579292,0.031291835,-0.015666328,0.010601288,-0.031399895,-0.004046906,-0.041862965,0.03920579,-0.029527444,0.020679474,0.015785683,0.012930416,-0.055744722,0.02981802,0.02594092,-0.0011243522,0.060409404,-0.006542014,-0.021631837,-0.026788238,0.043525286,-0.023814222,0.0011069886,0.023771448,-0.008269463,-0.0099544935,0.009337805,0.04734175,0.03542251,0.011880215,0.010967754,-0.019172538,0.031752646,-0.03931652,-0.02591181,0.015860725,-0.013233814,0.002304811,-0.020568667,0.008854862,0.0030275774,-0.019619938,0.011041429,0.047783107,-0.030681744,-0.026269697,-0.034332488,0.043955524,0.021157194,0.021239417,-0.06452167,0.016119204,0.039157543,-0.046669483,-0.017036278,0.00585158,0.009884816,-0.02938252,0.0027396996,-0.017025083,-0.01689411,0.0117544755,0.02463977
GRN,-0.14443074,-0.06547697,0.117411986,0.060734536,0.14688322,-0.07163074,-0.022160169,-0.15398937,0.17784312,-0.16719443,0.12654236,0.1107788,0.11227847,-0.13159145,0.10861188,0.15891519,0.1239734,0.181322,-0.08085402,-0.11694802,-0.09637183,0.14150043,-0.12815158,0.13154073,0.102869295,-0.08332524,0.039089054,0.13054395,0.14082599,0.15656272,0.09519942,-0.097842254,-0.075727135,0.12106016,-0.15485615,-0.15758623,0.16523254,0.14235088,-0.16556205,0.001474008,0.10821061,0.1467269,-0.10131565,0.145725,0.0767344,-0.112975955,-0.10287242,-0.11221844,0.18048328,0.0401002,0.14861435,-0.17124707,0.13490933,0.15956856,-0.14148086,-0.11596654,0.1264277,0.062400278,-0.09475939,0.079237804,-0.09139494,-0.13342929,0.04031373,0.17448792
RPL4,-0.17144576,-0.07161277,0.13187829,0.07398915,0.17090595,-0.07212519,-0.023841638,-0.17354678,0.20068744,-0.18868035,0.1457409,0.12985952,0.1301701,-0.14554235,0.122062385,0.18290898,0.14615837,0.19944067,-0.099393,-0.13296789,-0.11114247,0.15560678,-0.14555912,0.15625958,0.11340174,-0.09350972,0.052746847,0.15594071,0.15729333,0.17532831,0.10875423,-0.12154,-0.08943394,0.13539276,-0.16988948,-0.18162978,0.19399399,0.1712327,-0.19781795,0.00464087,0.12492536,0.17101151,-0.115603,0.17250286,0.08159156,-0.12911946,-0.113647774,-0.12503408,0.20615019,0.040638316,0.1667529,-0.18932185,0.15753353,0.17750867,-0.15317771,-0.13297082,0.14789107,0.0678944,-0.101200595,0.09432544,-0.10558108,-0.15501237,0.04545793,0.20098534
FABP4,-0.034202706,-0.02897504,0.040115714,-0.008152333,0.02772766,-0.044028416,-0.002522353,-0.050979562,0.059954494,-0.04100046,0.031520925,0.020222664,0.02151107,-0.062002044,0.037375655,0.04783213,0.010703474,0.08040481,-0.0075028855,-0.030341644,-0.035075,0.05612605,-0.03607036,0.013204504,0.039531544,-0.019630488,-0.008030269,0.018126614,0.06302284,0.049913898,0.019392205,0.0008866936,-0.02365841,0.041416645,-0.054838456,-0.04202953,0.02721382,7.856637e-05,-0.016196512,-0.017664135,0.020382952,0.016515689,-0.027650516,0.0262171,0.05690229,-0.04088058,-0.036523696,-0.04891388,0.057193715,0.028148238,0.036162376,-0.07569272,0.03337639,0.055992577,-0.061100606,-0.02872121,0.024326786,0.018415462,-0.04262414,0.008405324,-0.027491085,-0.026715316,0.01842122,0.041150205
ANXA5,-0.03287506,-0.019474614,0.041259274,-0.007770911,0.019082166,-0.028011866,-0.004273344,-0.042205296,0.042062473,-0.036553126,0.027315117,0.02106367,0.015988573,-0.0510332,0.030754253,0.04272049,0.013854206,0.063526385,-0.011583151,-0.021428091,-0.033173617,0.042174973,-0.02682277,0.017598834,0.03125504,-0.012888972,0.0023378804,0.016905963,0.041662756,0.042354252,0.019401003,0.0022492558,-0.023128472,0.034031264,-0.038978666,-0.02798634,0.027377002,0.0038712695,-0.016285475,-0.012395743,0.018579947,0.014953634,-0.025934864,0.027656037,0.051410533,-0.037052352,-0.033166632,-0.03491246,0.05106187,0.020611439,0.02638078,-0.06376033,0.02858767,0.053700637,-0.053204857,-0.027367387,0.021351919,0.010673627,-0.034253705,0.012338273,-0.020999186,-0.02278056,0.0039203353,0.03372653
IL2RG,-0.050401703,-0.035015833,0.052963383,0.005922422,0.047391467,-0.038675614,-0.0050005503,-0.076876424,0.07975545,-0.06439844,0.051780194,0.040118504,0.03675141,-0.07697782,0.05206191,0.061581753,0.030467771,0.094297454,-0.02701786,-0.049012642,-0.0500854,0.06843755,-0.050530314,0.032394733,0.041833624,-0.028086454,0.0007672459,0.041629948,0.07807828,0.069719106,0.031014374,-0.019124277,-0.034093026,0.056727424,-0.0697002,-0.05898087,0.05102347,0.027214259,-0.040461775,-0.016717546,0.036330577,0.039052285,-0.044879463,0.046819378,0.055934288,-0.050532546,-0.04203076,-0.05790177,0.07825987,0.02403735,0.053700425,-0.09133753,0.04740257,0.06811501,-0.07136811,-0.040592898,0.03526285,0.025494386,-0.045712948,0.021330222,-0.035482787,-0.045605503,0.02071582,0.06320698
RPL18A,-0.1258511,-0.053353224,0.10323799,0.047432948,0.11957415,-0.05708447,-0.016573269,-0.12842417,0.14545417,-0.138965,0.106807254,0.09156593,0.090315185,-0.11328323,0.093221486,0.13583508,0.10086191,0.15718937,-0.06799234,-0.09366777,-0.08438638,0.11665246,-0.10501058,0.10962395,0.08539756,-0.06707351,0.03423699,0.10720169,0.12010803,0.13092303,0.08018032,-0.07878844,-0.06570959,0.10100284,-0.12651649,-0.12994127,0.13636681,0.11470813,-0.13523798,-0.003176719,0.088849604,0.11754777,-0.08411501,0.12407851,0.07058294,-0.09864258,-0.08884237,-0.09437534,0.15470608,0.033843014,0.11868804,-0.1491144,0.11306291,0.13513802,-0.122604206,-0.097816944,0.10472321,0.048023473,-0.08082281,0.06494905,-0.07716306,-0.10884278,0.031576216,0.14382628
IL1R2,-0.19773825,-0.091738254,0.14965688,0.09219816,0.21593565,-0.09448526,-0.030511025,-0.2198028,0.2527423,-0.23397012,0.17754069,0.15646127,0.16260287,-0.17469035,0.153083,0.2220303,0.17851172,0.23617579,-0.121366285,-0.16842283,-0.13091913,0.19307302,-0.1819828,0.18764882,0.1360103,-0.12288791,0.055045143,0.19434696,0.19593392,0.2141951,0.12983279,-0.1516838,-0.10452981,0.16634816,-0.21446136,-0.21904205,0.23694173,0.21996385,-0.24213733,0.010333393,0.15917459,0.21544796,-0.1483558,0.20278165,0.090995915,-0.15052459,-0.13103995,-0.1554134,0.2404419,0.05082077,0.20933525,-0.22411078,0.18869644,0.21315402,-0.17868793,-0.16176419,0.1813395,0.09352775,-0.12219635,0.11873746,-0.12696189,-0.19535506,0.058005787,0.24866584
BUB3,0.27459118,0.111220345,-0.15986612,-0.15734379,-0.23739874,0.14503992,0.16157044,0.22670224,-0.26580158,0.28684893,-0.26095173,-0.1700745,-0.14314312,0.1675732,-0.16410686,-0.2578222,-0.25434119,-0.26070178,0.2154126,0.2390144,0.2527892,-0.2833414,0.26164633,-0.20782463,-0.20736752,0.18434408,-0.21796547,-0.19879308,-0.19646284,-0.28564253,-0.13261741,0.20462254,0.18207285,-0.20308971,0.22041672,0.20522809,-0.23323104,-0.2688563,0.24124797,-0.08984835,-0.2100832,-0.24797565,0.21541233,-0.26449463,-0.10679543,0.23616874,0.20610872,0.2184283,-0.2527216,-0.059119362,-0.2471531,0.2587929,-0.2521666,-0.29881084,0.20739612,0.2758056,-0.20551722,-0.18328479,0.052695494,-0.15336041,0.15714288,0.21335414,-0.053574555,-0.2554637
H3F3B,0.0111913625,-0.0014034398,0.012711678,-0.031680375,-0.028386004,-0.001713749,0.0029876456,0.005322002,-0.013844173,0.012562767,-0.011320237,-0.013217992,-0.01354266,-0.011906356,-0.00047037005,-0.00836307,-0.024201445,0.0076616853,0.012415499,0.016846277,-0.0045093186,-0.002058383,0.016077004,-0.022438746,-0.005384758,0.013678499,-0.013309244,-0.024391651,-0.006155165,-0.008436449,-0.009417703,0.040215224,-0.0015929453,-0.0008678138,0.0075950474,0.02059156,-0.024790335,-0.048039347,0.04582489,-0.016329003,-0.020181578,-0.031648114,0.0047405735,-0.019341644,0.04204225,-0.0016552848,-0.006823197,0.0020956732,-0.0042732656,0.017196897,-0.020546136,-0.013264295,-0.017534062,0.010366753,-0.017076038,0.0065188967,-0.01692526,-0.011828508,-0.012694191,-0.012021219,0.006692916,0.020219672,-0.016399879,-0.019478835
MIF,-0.0825623,-0.041824017,0.07449931,0.024910342,0.07773817,-0.050316922,-0.0144617,-0.09452869,0.107530564,-0.09832603,0.073914714,0.060250405,0.061968602,-0.091330856,0.06632006,0.09106646,0.06292775,0.12146266,-0.042276546,-0.06765308,-0.06186113,0.092275605,-0.074200585,0.06509164,0.062808014,-0.045831826,0.014411598,0.066335015,0.09217993,0.09457212,0.054056503,-0.04209686,-0.048951488,0.07348858,-0.09926742,-0.091482036,0.08846923,0.062212117,-0.07781635,-0.010303818,0.05607108,0.07150628,-0.060192417,0.08200382,0.067387246,-0.07322574,-0.066037595,-0.07093052,0.11125535,0.031905886,0.08253825,-0.11606673,0.07427456,0.10467005,-0.09763314,-0.066611886,0.067877434,0.03420065,-0.0640669,0.04041569,-0.055011988,-0.07201963,0.023101514,0.09826998
TNFSF9,0.01340556,-0.013856377,0.010341452,-0.03316151,-0.022185419,-0.014494626,0.007201027,-0.021780342,0.011162162,0.01181143,-0.0045533106,-0.0026163543,-0.020807281,-0.03542517,0.012216836,-0.006300457,-0.03565401,0.031786554,0.013557952,-0.0022156574,-0.016218845,0.012193728,-0.002865754,-0.035460033,-0.0001633633,0.016581915,-0.027112376,-0.022850748,0.028877173,0.0072800703,-0.016118126,0.041083,-0.0033210404,0.012471143,-0.007874183,0.012402594,-0.028092222,-0.05516939,0.040901918,-0.031120922,-0.010841794,-0.038199462,0.0014119409,-0.028476737,0.04180285,-0.0070887986,0.0043613575,-0.017588202,-0.00048604235,0.010538567,-0.011634694,-0.025838837,-0.015740097,-0.004045153,-0.016096808,0.015980335,-0.03183371,-0.0032635964,-0.00616654,-0.023428157,0.009770647,0.018321272,0.0065366123,-0.020336587
RUVBL2,0.2718079,0.07729407,-0.14029546,-0.14293242,-0.21239972,0.14449981,0.14326172,0.20865673,-0.27167863,0.27053463,-0.24104142,-0.16984136,-0.118805155,0.17979929,-0.15699703,-0.25709134,-0.21976432,-0.28249186,0.17604452,0.22122146,0.21762025,-0.28076547,0.24072208,-0.18857424,-0.20533787,0.16856548,-0.1884361,-0.17565712,-0.20327091,-0.2661926,-0.13348769,0.17759839,0.15785527,-0.195328,0.22480929,0.22241497,-0.21168539,-0.23582754,0.23050989,-0.068999544,-0.19354253,-0.22564623,0.19704495,-0.26092386,-0.08323005,0.2145423,0.19417349,0.2182061,-0.26255834,-0.047956496,-0.23214035,0.24755326,-0.24127936,-0.28409615,0.18737575,0.25174284,-0.19199108,-0.16222416,0.060402673,-0.13317814,0.15393475,0.20155302,-0.07008717,-0.24427384
NFKBIB,0.26807365,0.07785666,-0.14070806,-0.15039138,-0.22270977,0.12267029,0.118800536,0.21360627,-0.26709422,0.26866862,-0.23831674,-0.1743489,-0.12004925,0.16518533,-0.16154566,-0.26776835,-0.21993206,-0.26230133,0.1831327,0.2171597,0.22410503,-0.2716094,0.23302813,-0.1855015,-0.19167766,0.1723539,-0.19716127,-0.18528965,-0.17429435,-0.2646212,-0.12817818,0.18238884,0.14499329,-0.17909813,0.210179,0.21802382,-0.2062271,-0.2522347,0.2432784,-0.0760939,-0.20538382,-0.24323156,0.19537662,-0.25776014,-0.07059176,0.20179273,0.18080905,0.20927729,-0.24532728,-0.030994084,-0.224106,0.22179878,-0.24658084,-0.26571292,0.18104449,0.25444525,-0.19781268,-0.15952505,0.06136403,-0.12662688,0.15267788,0.1960643,-0.06503026,-0.23886693
CTSH,-0.11926331,-0.06013411,0.09972931,0.046022672,0.124158256,-0.061305955,-0.019612703,-0.13773522,0.15461287,-0.14225918,0.109764345,0.092337005,0.094581924,-0.11927155,0.09719668,0.13378417,0.100217804,0.15725665,-0.06969511,-0.10130061,-0.085078865,0.125611,-0.11159821,0.10508646,0.0829764,-0.070690796,0.025491595,0.11042904,0.12803471,0.132723,0.07975002,-0.07939189,-0.0659896,0.103896946,-0.13759084,-0.1340426,0.13750315,0.11527387,-0.13134429,-0.008131586,0.091037646,0.11919879,-0.090575546,0.120324135,0.074533254,-0.09655974,-0.08454317,-0.1004218,0.15541384,0.03705428,0.12373193,-0.15350008,0.11175988,0.13757771,-0.123919606,-0.09745079,0.102758214,0.05564436,-0.080045044,0.06378541,-0.07909142,-0.11369344,0.035475686,0.14887252
RPS27,-0.0842028,-0.03224819,0.072570786,0.022317987,0.066479966,-0.03832823,-0.009974163,-0.078073494,0.08699003,-0.08563173,0.06521464,0.052973036,0.051645435,-0.07629009,0.05828731,0.08717795,0.05665952,0.107879,-0.04031007,-0.05419726,-0.058063626,0.074508265,-0.062438786,0.06590092,0.054550223,-0.036729228,0.020997494,0.060836248,0.07505321,0.0822293,0.051971555,-0.037647344,-0.046171706,0.06448805,-0.07732621,-0.077839345,0.08312594,0.057862617,-0.07520977,-0.0062845945,0.050381057,0.06332301,-0.051473524,0.07900131,0.06120017,-0.06966851,-0.063391596,-0.05811944,0.1046606,0.02404612,0.06752593,-0.10361748,0.068627335,0.09324734,-0.08706016,-0.06258012,0.064739905,0.025462683,-0.057104476,0.038494088,-0.048110314,-0.061490886,0.014358642,0.0864921
BRP44L,-0.06706944,-0.036155533,0.062216993,0.014486577,0.056192987,-0.0365171,-0.009900477,-0.07880451,0.08306438,-0.0774456,0.058688365,0.047525275,0.046793096,-0.07608795,0.053260352,0.07505398,0.04636749,0.09705305,-0.03596378,-0.053536855,-0.05194648,0.073830955,-0.059528455,0.04957207,0.047054578,-0.03206983,0.008126542,0.05190935,0.072534256,0.07516155,0.04190261,-0.028349362,-0.03996714,0.06051924,-0.07953286,-0.068127975,0.06978662,0.04440958,-0.05914175,-0.013457213,0.043171316,0.053916898,-0.048812542,0.062221747,0.063217774,-0.058910444,-0.051958352,-0.05948075,0.09316161,0.02498072,0.06178438,-0.099092305,0.05968236,0.08643356,-0.08129941,-0.05188297,0.052132398,0.026619736,-0.051149007,0.030949343,-0.042842984,-0.05716493,0.015879652,0.077266715
PSMB3,-0.16964385,-0.07529415,0.13211526,0.07546887,0.17566916,-0.07926822,-0.025353897,-0.17916998,0.20942733,-0.19472793,0.14715344,0.13204114,0.13521424,-0.14994998,0.1255297,0.18621626,0.1466932,0.20355542,-0.097591974,-0.13907774,-0.11104594,0.16322337,-0.15047117,0.15629129,0.117935754,-0.09913094,0.04823146,0.15890017,0.16265528,0.18036246,0.109785214,-0.12097175,-0.08805615,0.1383166,-0.17800394,-0.1842781,0.19549,0.17345169,-0.19986017,0.0045866594,0.12811925,0.17553003,-0.120475546,0.17362441,0.0828782,-0.12868227,-0.113863826,-0.13022104,0.20506881,0.044545513,0.17346244,-0.19155884,0.15892497,0.1830383,-0.15832737,-0.13675782,0.14980958,0.074899375,-0.10728273,0.09388947,-0.107376866,-0.16084662,0.049260087,0.20700014
CHMP2A,-0.023217766,-0.02143908,0.035647534,-0.013231612,0.011393717,-0.031716205,-0.0026487708,-0.039448775,0.03894812,-0.0315994,0.021554254,0.015743565,0.014974773,-0.052285366,0.029105637,0.03444995,0.005421877,0.058782727,-0.004761737,-0.020285986,-0.025655806,0.042848177,-0.026091242,0.0061097555,0.027584136,-0.009683751,-0.007594768,0.009997703,0.042516723,0.037517913,0.014513296,0.008571349,-0.019872606,0.030606378,-0.041651,-0.024356658,0.016744807,-0.0084566325,-0.0035618544,-0.019856261,0.010853186,0.0072255437,-0.020849485,0.016703162,0.051709615,-0.030106535,-0.026835216,-0.03473309,0.045406017,0.021486882,0.023757564,-0.063792616,0.023195691,0.046768706,-0.050714556,-0.021213297,0.012959275,0.012628641,-0.0341751,0.0038378276,-0.01911094,-0.018330038,0.008608272,0.028337188
TARBP2,0.29187813,0.15330078,-0.20462449,-0.18987356,-0.30961907,0.07381049,0.13406298,0.28119642,-0.28933233,0.32097027,-0.2989997,-0.21047613,-0.17019305,0.14169833,-0.20211284,-0.2979218,-0.30213442,-0.2055747,0.30229723,0.27128872,0.31659415,-0.27944928,0.29852888,-0.23753445,-0.1892625,0.21889506,-0.26657093,-0.2505968,-0.14307618,-0.3224006,-0.1496228,0.24152109,0.18847714,-0.2134833,0.2085155,0.18426757,-0.23929998,-0.35483068,0.3041124,-0.12524137,-0.26373845,-0.3280007,0.23781662,-0.27900383,-0.10720301,0.23856595,0.19703272,0.22848506,-0.2167892,-0.04636803,-0.24819419,0.21835706,-0.28728834,-0.28579372,0.22533053,0.32321736,-0.24265283,-0.20297796,0.029465515,-0.15827402,0.1648809,0.24693811,-0.00631018,-0.2564343
CD302,-0.1767017,-0.08166179,0.13843167,0.08301352,0.19320953,-0.086002976,-0.025880557,-0.19551434,0.22741723,-0.20927283,0.1592888,0.14057477,0.14564577,-0.15823604,0.13586304,0.1963284,0.15911797,0.21654777,-0.10553231,-0.14922005,-0.11910494,0.17296787,-0.16160247,0.16752477,0.12390036,-0.1108333,0.048870265,0.17144811,0.17589104,0.19344378,0.11666653,-0.13289171,-0.09231673,0.14901745,-0.19110632,-0.19796544,0.20750955,0.19068724,-0.21133284,0.006700158,0.14010851,0.18958619,-0.13197657,0.1829466,0.085395716,-0.13571496,-0.12065534,-0.14009658,0.21693273,0.04841085,0.18819994,-0.20319587,0.16890463,0.19447511,-0.16557255,-0.14632097,0.15983544,0.08201386,-0.11395584,0.10371524,-0.115608536,-0.17239195,0.051284008,0.22239646
BOLA2,-0.11494344,-0.05779299,0.099214695,0.04262166,0.11738663,-0.064107366,-0.016623791,-0.12946345,0.14751291,-0.13727507,0.10499666,0.08837295,0.089229144,-0.11517465,0.09452213,0.1307538,0.09619288,0.15629527,-0.062731214,-0.096746914,-0.08028087,0.12011488,-0.107121095,0.09929563,0.08562572,-0.06917949,0.024983786,0.10305319,0.122984685,0.13073194,0.07545974,-0.07365174,-0.062356513,0.10098319,-0.13198385,-0.12610497,0.12866694,0.10758745,-0.12631302,-0.0073032454,0.08674824,0.11383298,-0.086762875,0.11484733,0.07186698,-0.092287526,-0.08292192,-0.096838,0.14885932,0.03655115,0.12056454,-0.14912826,0.11032473,0.13359058,-0.12271229,-0.09386051,0.09843812,0.0546824,-0.081881106,0.06047325,-0.0744478,-0.10759499,0.0355018,0.14136362
ZFP410,0.28602514,0.13455221,-0.19073711,-0.1820429,-0.29074106,0.08396009,0.13153003,0.26568675,-0.2852019,0.3112128,-0.2868588,-0.20397532,-0.1591588,0.14892897,-0.19423607,-0.29198375,-0.28418875,-0.22021954,0.2764759,0.25930813,0.29589054,-0.27859595,0.28387526,-0.2284684,-0.18977873,0.20956607,-0.2516479,-0.2370193,-0.1514089,-0.31073454,-0.14617285,0.22868678,0.17749901,-0.20828488,0.20810884,0.19371125,-0.23153836,-0.3333087,0.28982377,-0.11392524,-0.25055006,-0.31101757,0.22875656,-0.27567574,-0.0986992,0.22971529,0.19517314,0.22500633,-0.22519518,-0.044775598,-0.245093,0.21935311,-0.2778982,-0.28243843,0.21468988,0.30893406,-0.23161538,-0.1930943,0.03573126,-0.151581,0.16325262,0.23768985,-0.018468194,-0.25422624
SEC11A,-0.17302112,-0.08562719,0.13879505,0.080327034,0.1916751,-0.083978824,-0.027272295,-0.1957736,0.2247026,-0.2067211,0.15848479,0.14080928,0.14676392,-0.16028954,0.13530305,0.19322047,0.15710467,0.21222757,-0.10755045,-0.15333581,-0.11511257,0.17333142,-0.16302045,0.16451378,0.1188166,-0.10682227,0.0460338,0.17295459,0.17502049,0.1939235,0.11650805,-0.13245112,-0.092563435,0.14763865,-0.19359419,-0.19744796,0.20897886,0.18885976,-0.2129889,0.002108261,0.13931915,0.18879265,-0.13022949,0.1793325,0.08612782,-0.13191587,-0.11587784,-0.13812798,0.21715097,0.047061194,0.18815172,-0.20426238,0.16827968,0.19051182,-0.16448158,-0.14424528,0.15676108,0.08222993,-0.10945386,0.10077882,-0.11517476,-0.17391044,0.05326598,0.22077358
KDM5A,0.28000137,0.11526017,-0.16922669,-0.16955344,-0.26178712,0.10873252,0.13758929,0.24377114,-0.277188,0.29490945,-0.2699404,-0.1887369,-0.14501911,0.15897228,-0.1793851,-0.2787821,-0.26043382,-0.24474134,0.23736899,0.24621595,0.26778826,-0.2806434,0.26548648,-0.2135344,-0.19570456,0.19506072,-0.23030607,-0.21497175,-0.1703236,-0.29426724,-0.13776635,0.21112782,0.17121266,-0.20107237,0.2139945,0.20558406,-0.22817725,-0.29696402,0.26770315,-0.09845972,-0.23090146,-0.27985638,0.21907264,-0.26891834,-0.093445,0.22672194,0.19532937,0.22129564,-0.2410279,-0.043779306,-0.24112125,0.23105824,-0.26356292,-0.28407213,0.20538071,0.28802803,-0.2167767,-0.18251202,0.047474634,-0.14635605,0.16030604,0.22104457,-0.04068943,-0.25232503
