,0,1,2,3,4,5,6,7,8,9,10,11,12,13,14,15,16,17,18,19,20,21,22,23,24,25,26,27,28,29,30,31,32,33,34,35,36,37,38,39,40,41,42,43,44,45,46,47,48,49,50,51,52,53,54,55,56,57,58,59,60,61,62,63
CSRP2,-0.0024587773,0.020617828,0.012673724,-0.022885531,0.009546801,0.0105939545,-0.027044978,-0.015517386,-0.014478397,0.026133249,-0.029779594,-0.028521322,-0.018148296,0.020450074,-0.009853452,0.025284395,0.0016968828,0.0020295978,-0.005512908,-0.0186928,-0.0059847757,-0.014573779,0.014712155,-0.0010552034,-0.004404027,-0.031170793,0.02117407,-0.0220581,0.013390053,0.017742436,0.018749,-0.022149578,0.023340307,0.016227573,0.023115257,0.015429545,-0.01867915,0.02140744,0.0075721163,-0.040968686,-0.010140661,0.027360447,-0.007351864,-0.0146700535,-0.018352333,-0.007876561,-0.0046430677,-0.0438734,-0.022144975,-0.0034968033,-0.006982483,-0.009635884,-0.0009199828,0.02216118,0.0048699677,-0.037598215,0.014237702,-0.025051024,-0.008325934,-0.00900336,0.021654442,-0.02215083,-0.0008561164,-0.0051770993
TEAD4,-0.10484661,0.07025701,0.08385604,-0.046763938,0.08143076,0.11851817,-0.1257837,-0.0867978,-0.09423056,0.09033804,-0.11161876,-0.11174016,-0.10176027,0.09737311,-0.09687941,0.11333649,0.1144414,0.12310921,-0.11952984,-0.07674107,-0.10709585,-0.13427994,0.040167958,0.09082591,-0.10783078,-0.10316394,0.09360065,-0.09931834,0.12297697,0.10204758,0.08152557,-0.11912792,0.017007656,0.13238168,0.103650145,0.11739267,-0.11145425,0.11201921,-0.09772572,-0.12762065,0.1119277,0.105620235,0.12111816,-0.1048786,-0.09828877,-0.10625484,0.053659488,-0.07269383,-0.11453415,-0.117986195,-0.10369429,-0.102372035,-0.06259884,0.10438617,0.098762505,-0.099570826,0.11861481,-0.005698379,-0.11153866,-0.10410333,0.11753155,-0.109088734,0.14372376,-0.09454197
SNORA68,0.13911773,-0.08544387,-0.11253407,0.048704177,-0.11061889,-0.13893096,0.14195667,0.10776634,0.11864628,-0.13021581,0.13103616,0.12814945,0.10329108,-0.12486783,0.11316081,-0.1421441,-0.12816899,-0.1378232,0.15931265,0.113718525,0.15275717,0.15362808,-0.056163847,-0.11768578,0.13485412,0.11864112,-0.10406071,0.11938022,-0.14694841,-0.15105687,-0.10712085,0.14230582,-0.01008486,-0.14402689,-0.13543761,-0.13553141,0.14022823,-0.137669,0.12947676,0.14820111,-0.13549587,-0.1321483,-0.13785255,0.12784106,0.12902285,0.123643704,-0.08813975,0.09389986,0.1400917,0.14050758,0.1350024,0.12545623,0.07654603,-0.14101471,-0.13926026,0.12111316,-0.1319224,0.0066219456,0.122441575,0.15760681,-0.14596091,0.13253255,-0.17142875,0.12586102
CELF3,0.025737906,-0.010407757,-0.018049035,0.0010963902,-0.022966797,-0.024323067,0.025820363,0.009985788,0.019286945,-0.030503292,0.020786189,0.023989119,-0.001551142,-0.02504437,0.008073358,-0.025752768,-0.0109009305,-0.016395006,0.03342971,0.03462757,0.030138154,0.013615847,-0.011406872,-0.02197811,0.027817996,0.0063358434,-0.013911746,0.01800625,-0.018858798,-0.031355374,-0.024382906,0.014460616,0.003260769,-0.009263463,-0.02043026,-0.01878963,0.024843179,-0.020637657,0.024232913,0.021707412,-0.019323768,-0.016615506,-0.008656548,0.022612484,0.0319431,0.025116704,-0.021371072,0.013836039,0.019171115,0.023483362,0.022837695,0.019044409,0.0070435964,-0.02041254,-0.024680894,0.021073297,-0.012789242,-0.00010718033,0.009296626,0.033573363,-0.025064647,0.02070278,-0.013929784,0.023173135
SMARCD1,-0.015072744,0.019400015,0.016956508,-0.02381493,0.019400429,0.020284122,-0.031042717,-0.025626946,-0.022961393,0.021943005,-0.032433458,-0.02749157,-0.03390938,0.018693935,-0.024658635,0.028841376,0.016635107,0.016062874,-0.013707213,-0.01056934,-0.016397826,-0.032211717,0.008042552,0.0113827735,-0.015074048,-0.03637288,0.030209795,-0.026624113,0.025349189,0.01604461,0.018337429,-0.030385345,0.012571938,0.03964544,0.024818791,0.022620946,-0.026509529,0.02372016,-0.006821066,-0.03725686,0.012724363,0.027199917,0.023657922,-0.013355328,-0.0146486815,-0.020710267,0.004038781,-0.026589304,-0.026995135,-0.022747613,-0.02133213,-0.016789988,-0.014912911,0.02422591,0.016302228,-0.034255445,0.032501914,-0.015185658,-0.024003647,-0.013547938,0.030464672,-0.02574557,0.022911085,-0.017674003
CTSZ,0.01670606,-0.010595392,-0.004084073,-0.022571564,-0.01649198,-0.015964342,0.006682027,0.0018271636,0.007159129,-0.012265701,0.0030035526,0.0028576674,0.0016792379,-0.014860708,0.009591733,-0.009339079,-0.020834979,-0.023054523,0.027644264,0.0071936976,0.016961798,0.009172127,0.0031481385,-0.019485157,0.02009399,0.00059654936,0.0060274303,0.0012687445,-0.020323334,-0.020004787,-0.008498067,0.012790747,0.02388379,-0.0012589246,-0.0062592924,-0.010275931,0.019113302,-0.011762634,0.026253117,-0.0141300075,-0.03541032,-0.00641419,-0.018370977,0.018247018,0.010136161,0.013284924,-0.020257603,-0.011710284,0.00618482,0.016272563,0.021099487,0.015614798,0.009631876,-0.015466737,-0.020735702,-0.015130743,-0.00794512,-0.027946044,0.012567624,0.021530967,-0.003380932,0.013343297,-0.03068033,0.021928726
RNF19A,-0.061546955,0.04600033,0.055643775,-0.038768034,0.048312094,0.07241164,-0.07656108,-0.059254356,-0.060933817,0.052895762,-0.070381455,-0.069369,-0.07260306,0.058957916,-0.06689068,0.068572044,0.07335881,0.07527177,-0.06868012,-0.04005482,-0.06072247,-0.09038796,0.02681785,0.05424609,-0.065249205,-0.07350315,0.062259413,-0.06872653,0.08021283,0.06154077,0.048291013,-0.077857494,0.014384463,0.09259206,0.06752832,0.074791916,-0.068799645,0.07088513,-0.05769658,-0.082091205,0.06750823,0.07118481,0.07870367,-0.06313235,-0.059352003,-0.0641921,0.029670242,-0.052317984,-0.07547131,-0.07258984,-0.06334808,-0.063721254,-0.042989057,0.06724953,0.06184777,-0.06836091,0.081112586,-0.0077661574,-0.075760916,-0.061269823,0.07607262,-0.07091373,0.09498114,-0.056342486
HEXIM1,0.05879726,-0.03142081,-0.048095986,0.0059471503,-0.044638135,-0.061580755,0.05975536,0.0397693,0.048634335,-0.05269278,0.050572686,0.054347098,0.031976186,-0.054511882,0.041021436,-0.05376066,-0.05491814,-0.060096174,0.07513314,0.052733272,0.061507747,0.058297195,-0.022340469,-0.05260093,0.060733642,0.039366435,-0.03587006,0.046613917,-0.05839297,-0.06591922,-0.044942223,0.05490207,0.0055187866,-0.048314475,-0.051598117,-0.0539767,0.058058806,-0.055569436,0.06036372,0.053652126,-0.059762865,-0.052577972,-0.0516886,0.060503975,0.06321232,0.05401746,-0.038682684,0.03444349,0.05422175,0.059217475,0.050795116,0.052779783,0.025515042,-0.05432549,-0.059185266,0.045700207,-0.053547256,-0.007918779,0.04828621,0.06928522,-0.056006707,0.05357642,-0.07277349,0.05275671
MSANTD3,0.08666008,-0.046983194,-0.069218695,0.019910984,-0.060169116,-0.09599799,0.08936393,0.05929037,0.07416934,-0.07576729,0.07936496,0.07637255,0.05113241,-0.082601696,0.06834901,-0.0868487,-0.09013649,-0.09934825,0.109267026,0.072188154,0.10001542,0.097048566,-0.041117877,-0.07907249,0.08772783,0.060828704,-0.054922424,0.07541393,-0.09280114,-0.09286919,-0.07109554,0.08327625,0.0029518679,-0.08297031,-0.0838924,-0.083755225,0.092729956,-0.08209704,0.09415202,0.08442344,-0.09043302,-0.07906011,-0.092543796,0.08515568,0.08543679,0.07962284,-0.06243467,0.046104804,0.080096796,0.0985291,0.08171865,0.08027935,0.044874415,-0.086051166,-0.09263562,0.06727868,-0.08675576,-0.006402243,0.07640104,0.10095596,-0.0883089,0.08559686,-0.11619549,0.07989057
HIST1H2AI,-0.0010774247,0.0011647344,0.0006740019,-0.012377584,0.005617555,0.0011820477,-0.008150682,-0.0050421692,-0.0035789944,0.00028564408,-0.0085798465,-0.00889477,-0.0068210997,0.0013980865,-0.0045766085,0.009239588,-0.008302563,0.00054252334,0.008818617,-0.005472034,0.0038343966,-0.0069284625,-0.00033532456,-0.008894756,0.000539314,-0.009842306,0.010718126,-0.011323288,0.0048692375,-0.0077017695,0.0030761994,-0.003973834,0.012082316,0.010619029,0.007369671,0.00066901976,-0.010047227,-0.002274301,0.011197466,-0.01762288,-0.0047686845,0.00018306822,-0.0016625975,0.005342798,-0.0038035936,-0.0066710804,-0.00586335,-0.0071120737,-6.4147636e-05,-0.0015076175,-0.0005200021,0.002127517,0.0019169375,0.0060989177,-0.0019992068,-0.014973594,0.012085278,-0.014274787,-0.0016581081,0.0077275224,0.009525597,0.0005307868,-0.0070001613,9.0010464e-05
TMED9,0.043617375,-0.032003284,-0.028577339,-0.0042550396,-0.03446109,-0.04370083,0.035311725,0.026375776,0.0333156,-0.04255213,0.030665427,0.02977729,0.02461985,-0.04199973,0.029093504,-0.04161887,-0.046994135,-0.046992145,0.055422515,0.02621829,0.049865264,0.04301291,-0.014907446,-0.042245626,0.045211352,0.027631368,-0.017821833,0.02697064,-0.04700566,-0.052768853,-0.030416807,0.03826575,0.010388933,-0.032564677,-0.032835305,-0.036909148,0.043149833,-0.042410836,0.0506272,0.0236683,-0.05563654,-0.03853154,-0.04561158,0.043759298,0.038007744,0.035918556,-0.032935,0.015580729,0.039654605,0.043589994,0.04260834,0.042448,0.027119728,-0.04600785,-0.04451953,0.014455944,-0.031633295,-0.017222542,0.03612015,0.053061247,-0.03519042,0.04290588,-0.063214496,0.045285515
MSC,-0.27921787,0.13108876,0.16659588,-0.012608413,0.17922153,0.2786358,-0.30336958,-0.17535329,-0.22869967,0.21996978,-0.22268859,-0.2753161,-0.15819311,0.2744823,-0.18108284,0.25240582,0.25228867,0.27965847,-0.2857805,-0.21057363,-0.23680526,-0.28670028,0.083739266,0.19987714,-0.25218457,-0.18230176,0.14927454,-0.21859682,0.28994167,0.26848087,0.18360455,-0.2815948,-0.015707593,0.26574668,0.19619036,0.24578011,-0.23287442,0.28047514,-0.24979025,-0.26518056,0.2821988,0.20192942,0.27819306,-0.28335848,-0.24672379,-0.24532157,0.16903389,-0.0982783,-0.25017905,-0.2614662,-0.2355473,-0.26195598,-0.094742835,0.27304563,0.19713706,-0.17262554,0.22834331,0.052262377,-0.2333572,-0.22302473,0.2611555,-0.1925448,0.3249932,-0.23468341
GLIPR1,-0.04183043,0.03659516,0.044158645,-0.040890068,0.039381232,0.048849322,-0.06160948,-0.05297306,-0.044418916,0.048438303,-0.0600968,-0.053974133,-0.060771525,0.04333574,-0.04973526,0.058541805,0.04844574,0.04731551,-0.047890797,-0.03092153,-0.047377065,-0.07152761,0.022641376,0.038566656,-0.04543544,-0.060923174,0.0520465,-0.05397048,0.053736355,0.04582933,0.035322547,-0.05439919,0.026759751,0.074194744,0.051893286,0.05074696,-0.05193291,0.055286974,-0.033541627,-0.07505554,0.039700527,0.060730964,0.055831846,-0.04256362,-0.043021478,-0.043253813,0.014692407,-0.048737355,-0.05883739,-0.04980932,-0.046212435,-0.042604942,-0.032076936,0.052853204,0.0406076,-0.064382106,0.06090115,-0.021274764,-0.051581576,-0.04327276,0.06017,-0.05471562,0.062037744,-0.036436822
FOXJ3,0.011412583,-0.00615298,-0.0047907867,-0.015938438,-0.006246645,-0.010029875,-0.0010910127,0.0026881117,0.002764944,-0.012009278,-0.0027178526,-0.001451688,0.0006797891,-0.01098552,0.0010550297,-0.002930062,-0.01758321,-0.013167416,0.019577311,0.0015848484,0.0136938095,0.0055383146,-0.0029076636,-0.017124336,0.012616303,-0.0018132813,0.007073328,-0.0010697618,-0.012552042,-0.019872805,-0.003742518,0.0042116717,0.013600953,0.0020736642,-0.0029423423,-0.007551261,0.0039201323,-0.012180798,0.022125756,-0.013816994,-0.019567203,-0.007950012,-0.01252153,0.014429716,0.008795298,0.00545022,-0.011740375,-0.0016093794,0.008447032,0.007531278,0.01147227,0.013128839,0.009507071,-0.010790361,-0.011708528,-0.0117489435,0.0013234839,-0.01442286,0.0069970377,0.018633474,0.0013797581,0.010518156,-0.021882605,0.012910433
ZFP991,0.17841206,-0.11799599,-0.15537962,0.08212204,-0.14667034,-0.18168667,0.19197106,0.14938526,0.1631173,-0.16507128,0.17378488,0.1751513,0.14331873,-0.15820585,0.14805786,-0.1874608,-0.1650109,-0.17632727,0.20695907,0.14884831,0.19168803,0.21089728,-0.08307885,-0.1540331,0.17798133,0.16359042,-0.14920071,0.16529298,-0.19370663,-0.19322148,-0.14293352,0.18110901,-0.027403,-0.19960694,-0.18463865,-0.18034513,0.17934868,-0.1860361,0.16565396,0.20999834,-0.16373923,-0.1857382,-0.1723594,0.1623175,0.17665236,0.16147394,-0.10381316,0.13968647,0.19032833,0.18532252,0.17032874,0.16194013,0.10462339,-0.18014331,-0.18275324,0.17734215,-0.18159926,0.030461114,0.16679013,0.2036282,-0.19817968,0.18304718,-0.2175354,0.15769158
ZFP275,0.07118699,-0.04331509,-0.059319194,0.016844656,-0.060040906,-0.074514665,0.07357651,0.050241843,0.060221687,-0.06810784,0.06494553,0.06766236,0.04155779,-0.06749204,0.051215015,-0.07216537,-0.06154512,-0.07144134,0.08809304,0.06676923,0.077888966,0.07160622,-0.030419935,-0.063078225,0.073435694,0.052042093,-0.048950836,0.0579099,-0.07283304,-0.07994504,-0.05863183,0.067460574,-0.0015429631,-0.063932404,-0.066899486,-0.0675764,0.06949297,-0.069885544,0.07138868,0.07165167,-0.06896078,-0.066378936,-0.06030119,0.07269444,0.077484176,0.06738225,-0.046300486,0.04941237,0.06933305,0.075920984,0.06762018,0.06533784,0.03602109,-0.06590274,-0.072949104,0.06286163,-0.0642057,-0.00044285133,0.05999333,0.08478017,-0.07319605,0.06809765,-0.08256517,0.064372495
HMGA2,-0.08363363,0.04838016,0.05201479,-0.030555982,0.06076139,0.09998284,-0.09163998,-0.055291265,-0.07494506,0.07205419,-0.082770884,-0.08278682,-0.06648896,0.07317419,-0.0732018,0.08730838,0.088719934,0.10009311,-0.09125598,-0.06250982,-0.09139159,-0.09750782,0.034567952,0.07067955,-0.08454737,-0.06546983,0.06501579,-0.07107596,0.09553714,0.06718691,0.06455371,-0.088609114,0.013306536,0.08992259,0.08124351,0.09126733,-0.090744145,0.07695538,-0.0818996,-0.09733163,0.092534095,0.07017869,0.09814729,-0.0716747,-0.07772388,-0.08246266,0.05452067,-0.037635554,-0.077651136,-0.09927245,-0.08228734,-0.08374825,-0.04927394,0.07366072,0.07682229,-0.066194944,0.08524868,-0.012412947,-0.08102043,-0.07917951,0.08673018,-0.07677227,0.10656238,-0.077120736
MEIS3,-0.0027425177,0.0029550567,0.0046087205,-0.01629007,0.001889009,0.008921562,-0.009110149,-0.011874852,-0.008829664,-0.0013468806,-0.0124216825,-0.0077678775,-0.023165034,0.00018883124,-0.0146621475,0.00473183,0.011692747,0.00904154,0.0013229176,0.0050629657,-0.0024535283,-0.020529877,0.0016146377,0.0027139783,-0.0027782507,-0.014410809,0.012876593,-0.012161069,0.010056686,-0.0034311675,-0.00047297217,-0.01262616,0.008431293,0.023623025,0.008665586,0.0073007513,-0.009647926,0.007405944,-0.004101455,-0.0154367685,0.005535704,0.010735411,0.0170051,-2.8316397e-05,0.00048146257,-0.0034516035,-0.0021906234,-0.0037498046,-0.0095786955,-0.009519465,-0.0041460283,-0.005980812,-0.008354474,0.008341482,0.0030526295,-0.012668975,0.017988957,-0.009939041,-0.014531236,0.0049572326,0.009781774,-0.009506747,0.015142424,-0.0019772537
ZMYND11,0.049941063,-0.02893965,-0.03403668,0.0014274418,-0.03602192,-0.0499772,0.042284016,0.030811807,0.03622724,-0.046929322,0.036507353,0.037548315,0.02686019,-0.04535467,0.0314185,-0.044488985,-0.05120913,-0.05098727,0.060484905,0.036243975,0.055382296,0.047094867,-0.018278755,-0.046087082,0.048279345,0.030866455,-0.02467227,0.031874478,-0.047894895,-0.05657758,-0.034558646,0.04082177,0.004909985,-0.037724204,-0.037148908,-0.04315682,0.045238964,-0.048543606,0.052664623,0.033715557,-0.05488829,-0.04199934,-0.047557246,0.049151164,0.046825733,0.042003892,-0.033311266,0.02291719,0.043039486,0.04661356,0.043876845,0.045903243,0.027187593,-0.04743059,-0.047999706,0.026338376,-0.037180886,-0.010492247,0.038771484,0.059234247,-0.041611627,0.045104925,-0.06504154,0.04597635
GRIN1,-0.11057791,0.08819775,0.0977995,-0.062819526,0.091747284,0.11951553,-0.12180683,-0.10883384,-0.103457645,0.10029951,-0.11647287,-0.11771943,-0.119397156,0.10717519,-0.10710671,0.11817509,0.12819442,0.1333716,-0.13219489,-0.07410014,-0.11631119,-0.14845599,0.050551943,0.09755895,-0.11218783,-0.11807959,0.10239774,-0.10981225,0.13969319,0.11944924,0.08638856,-0.13350889,0.025346637,0.1453124,0.11716464,0.13070688,-0.110857286,0.12654138,-0.110170335,-0.13722804,0.12190639,0.12412599,0.13413332,-0.117702894,-0.107759304,-0.11232406,0.05806021,-0.091612145,-0.13647772,-0.12388753,-0.11804277,-0.11942722,-0.0828526,0.12006832,0.11125406,-0.111160465,0.132534,-0.012271959,-0.12323749,-0.11852667,0.121131904,-0.12588891,0.16719685,-0.10112454
SNORA62,-0.039606478,0.024498522,0.03008841,-0.020581163,0.030612122,0.04990442,-0.048672494,-0.032833874,-0.038288705,0.029938886,-0.04432207,-0.04475158,-0.045412235,0.0358047,-0.044127803,0.044953115,0.048069175,0.049818266,-0.040663116,-0.02440814,-0.04034666,-0.05417534,0.014365159,0.033475704,-0.040094595,-0.043317705,0.03890347,-0.039742045,0.049047325,0.032525826,0.029451335,-0.04732429,0.0108857155,0.05813207,0.037229083,0.046639044,-0.043843113,0.043441236,-0.03692057,-0.053346187,0.0447401,0.039545327,0.053428415,-0.035540592,-0.036383428,-0.042708382,0.021349091,-0.025955625,-0.045243382,-0.046569444,-0.041512564,-0.03974684,-0.026611634,0.03932289,0.0384833,-0.034282457,0.050059386,-0.0066971853,-0.04989676,-0.03284538,0.04486426,-0.039264947,0.05716183,-0.036938448
SLC25A5,0.017629419,-0.0013004765,-0.0021837987,-0.022124391,-0.0033774003,-0.013215,0.007908508,0.0055195745,0.003778208,-0.011328329,-0.004653655,-0.002704306,0.007931894,-0.0067168064,0.012025854,-0.008173617,-0.026684865,-0.022556059,0.021736655,-0.0030621532,0.020789027,0.01344946,0.0050079376,-0.021539364,0.015197543,-0.00249793,0.004206687,-0.0009869635,-0.022963502,-0.014543746,-0.008832028,0.017686523,0.022304729,-0.017677061,-0.0022363719,-0.01798777,0.013785012,-0.010919441,0.024765499,-0.019302938,-0.035108685,-0.0050801095,-0.034869194,0.0107528195,0.000929167,0.016602237,-0.017237905,-0.016358428,0.006211794,0.020189092,0.020620119,0.014887003,0.01332744,-0.0066751186,-0.014936347,-0.016425813,-0.011059664,-0.029490028,0.016752012,0.01497544,-0.0058459193,0.006560296,-0.029931922,0.01949891
LHX2,-0.035464074,0.0323001,0.03644099,-0.026339147,0.027954321,0.042676188,-0.04293386,-0.042352714,-0.037722647,0.02711021,-0.042279817,-0.038558684,-0.05620537,0.033987362,-0.04677217,0.03829381,0.05374304,0.052601945,-0.042890757,-0.014125468,-0.033886865,-0.06408265,0.015752457,0.032806203,-0.038766336,-0.05148652,0.036680013,-0.04314864,0.054441083,0.035184506,0.023113599,-0.054911226,0.011387393,0.061526123,0.04272289,0.048384674,-0.03926015,0.04617393,-0.03850238,-0.05070016,0.045949463,0.048195325,0.05506559,-0.04459422,-0.032076627,-0.035922777,0.012755837,-0.034717165,-0.04966978,-0.047276564,-0.038650706,-0.042358357,-0.031149816,0.040708207,0.038155697,-0.040331982,0.05658035,-0.003570471,-0.054921962,-0.035524007,0.042928386,-0.04710464,0.071547784,-0.032450534
AARS,0.042001925,-0.015530176,-0.022594253,-0.010981381,-0.019493345,-0.040129155,0.032135997,0.01797763,0.026156828,-0.0367058,0.02220355,0.022596663,0.01948187,-0.036646094,0.029120717,-0.03218092,-0.049400352,-0.047848746,0.049163528,0.022755807,0.051738605,0.038544834,-0.008046344,-0.040078208,0.036427997,0.01701564,-0.0110073835,0.022200197,-0.042234376,-0.0427249,-0.030398278,0.04089538,0.01883366,-0.033195697,-0.029999629,-0.040625516,0.042297967,-0.03379579,0.046715215,0.015013579,-0.054105073,-0.026859848,-0.055382296,0.03661499,0.026070444,0.03298709,-0.035616893,0.0022390615,0.027265154,0.043504737,0.040808782,0.0367966,0.022289824,-0.037072472,-0.04138066,0.008950438,-0.033155963,-0.02369428,0.031969327,0.04561352,-0.028972678,0.030282974,-0.058311302,0.03967066
ING3,0.075688034,-0.042861894,-0.059982523,0.013321642,-0.055303756,-0.082393415,0.07682735,0.05289276,0.06308949,-0.070642404,0.06977477,0.069160596,0.050455414,-0.07077543,0.05753026,-0.07323924,-0.07860019,-0.081805274,0.094130486,0.062489405,0.08527216,0.0817958,-0.030818678,-0.07013724,0.074391,0.05705229,-0.048617058,0.062112585,-0.08277224,-0.08460079,-0.06103038,0.0756801,0.0047146752,-0.07309491,-0.070091635,-0.07418783,0.08063113,-0.074268155,0.07876817,0.06771842,-0.0825553,-0.06960488,-0.07808612,0.07452653,0.07693336,0.06947703,-0.052265465,0.04252675,0.0717026,0.0792591,0.0728576,0.071427085,0.040977914,-0.07699572,-0.078912176,0.059106402,-0.07342713,-0.009439182,0.06554441,0.08866896,-0.07623784,0.07230164,-0.10101131,0.070721455
ECT2,0.041165557,-0.012193993,-0.019771298,-0.012034345,-0.017566217,-0.03921608,0.029430185,0.015591802,0.024695024,-0.031727094,0.02008234,0.02089347,0.016592873,-0.0347149,0.026595332,-0.029472724,-0.047172472,-0.045947798,0.047172736,0.022315295,0.045570828,0.03553824,-0.00896243,-0.036496397,0.03616455,0.0119465105,-0.010267854,0.021529421,-0.039717533,-0.0392043,-0.02709107,0.03385552,0.019843727,-0.02787178,-0.0262471,-0.03653903,0.039389573,-0.030283302,0.04621802,0.012862068,-0.052154586,-0.022571683,-0.052480944,0.035372794,0.026947528,0.032434393,-0.03551907,-0.001974984,0.024489876,0.04143262,0.036922146,0.033183925,0.021246064,-0.03531505,-0.03810923,0.005719058,-0.03257504,-0.02452271,0.029264312,0.04220946,-0.027864844,0.027269203,-0.055977732,0.037951875
ELOVL6,-0.04109573,0.032084383,0.029652752,-0.025333388,0.03785758,0.05411394,-0.061198052,-0.032160833,-0.048319876,0.045798056,-0.055962212,-0.051771324,-0.033410612,0.0399842,-0.037878573,0.054145128,0.037924856,0.044310767,-0.043273017,-0.044385947,-0.0508025,-0.054493587,0.015746728,0.02983825,-0.04041448,-0.047939323,0.0460687,-0.04369931,0.047691736,0.03403314,0.041551262,-0.05266648,0.0140668005,0.050698206,0.04728633,0.044906136,-0.058475118,0.04220126,-0.031825587,-0.068342894,0.04342537,0.04223875,0.04658452,-0.03790031,-0.043017562,-0.043730084,0.027898062,-0.02905289,-0.039166726,-0.053919382,-0.040618896,-0.040076587,-0.02067342,0.047661077,0.042663135,-0.05206243,0.05260902,-0.015613366,-0.039563287,-0.043238197,0.059872,-0.043028757,0.0485128,-0.043911014
STARD8,-0.06248742,0.04102449,0.050704755,-0.03829656,0.047252852,0.070127234,-0.081330806,-0.056144513,-0.056774452,0.05827768,-0.07364489,-0.069819756,-0.06688016,0.05535641,-0.056901295,0.072226495,0.065782025,0.06703627,-0.06502857,-0.04890953,-0.066223994,-0.08983935,0.026088879,0.052408032,-0.061944973,-0.067951605,0.06420259,-0.063677706,0.06941822,0.05960041,0.047206745,-0.06661075,0.024260625,0.083657764,0.061235815,0.063482314,-0.06837788,0.07313265,-0.050120533,-0.08499318,0.057663325,0.06625515,0.071623266,-0.058002707,-0.058376156,-0.06132484,0.025870372,-0.048337042,-0.07199063,-0.06573825,-0.06087753,-0.056162763,-0.03887413,0.068884656,0.05223588,-0.072910376,0.072164804,-0.017449956,-0.06473681,-0.05912787,0.07855733,-0.0639925,0.08108373,-0.055715475
ZFP978,0.21337728,-0.14131235,-0.18369591,0.103168026,-0.1746369,-0.21424116,0.23257698,0.18230307,0.19334003,-0.19679002,0.2090343,0.20924944,0.17583437,-0.1859597,0.17867784,-0.22534107,-0.19633687,-0.20990129,0.24447806,0.1795746,0.2251786,0.25476414,-0.0993832,-0.18226677,0.2117534,0.20198955,-0.1841265,0.20241205,-0.23167793,-0.23051298,-0.17096512,0.21455994,-0.036226604,-0.24287377,-0.21821123,-0.21838062,0.21570525,-0.2224844,0.19146515,0.25077125,-0.19310834,-0.21793401,-0.20605566,0.18489227,0.20821674,0.19593833,-0.123449415,0.16903634,0.22840899,0.21851799,0.20666595,0.19114007,0.1249342,-0.21560971,-0.21700838,0.21600875,-0.22072396,0.037677076,0.20137422,0.24297489,-0.24082638,0.21535783,-0.2595496,0.18745162
DNAJC2,0.10354906,-0.0681903,-0.0848832,0.031040683,-0.084729165,-0.10470581,0.10592051,0.08084137,0.08891526,-0.10214469,0.097307496,0.09164643,0.07752834,-0.096517004,0.08242427,-0.10791531,-0.1001497,-0.106062904,0.120429344,0.08029276,0.11842902,0.1165245,-0.041835375,-0.09224632,0.09984924,0.09102507,-0.07240085,0.08445814,-0.11235736,-0.11577754,-0.080528684,0.10778194,-0.0057773814,-0.10778014,-0.10020247,-0.10170775,0.10674229,-0.10555516,0.100051045,0.10594648,-0.1061385,-0.10307027,-0.108104706,0.09803147,0.096443005,0.0905681,-0.06560142,0.07001466,0.10501107,0.106703945,0.10215561,0.09705205,0.05989232,-0.108965516,-0.10588542,0.08739021,-0.0958265,-0.002874788,0.09054403,0.12096302,-0.106584534,0.10207481,-0.13495126,0.095752254
HDAC7,0.009040412,-0.0012038946,-0.0006455779,-0.012116227,-0.0038467422,-0.0059053935,0.0034299046,-0.0050717313,0.0030456781,-0.008941121,-0.0015212074,0.0022122245,-0.01979677,-0.008439977,-0.0061796084,-0.0063944105,0.0033427244,-0.0027480777,0.012427086,0.017469013,0.009311892,-0.010755539,-0.0039510056,-0.004836023,0.007165663,-0.008481815,0.00632485,-0.0026934147,-0.0027060695,-0.012055887,-0.00708252,-0.0006586686,0.007827878,0.012521267,-0.00089648087,-0.002522651,0.0029709265,-0.0006938353,0.010685356,-0.0026912242,-0.0068316287,0.004317783,0.005368964,0.0073642447,0.0112129245,0.0073621618,-0.013262808,-0.0013918886,-0.0016741846,0.005651854,0.0057179444,0.0051755495,-0.003906969,-0.00082522444,-0.009135526,-0.003469564,0.0062172636,-0.009160072,-0.005005354,0.01612601,-0.0019542575,0.0008132197,0.0028895233,0.0073826574
GM10135,-0.056421574,0.038590863,0.047743194,-0.033566393,0.04539049,0.06242384,-0.073775426,-0.051843688,-0.052764524,0.053558603,-0.06776914,-0.06606047,-0.06579822,0.05522183,-0.05703945,0.06588779,0.06059707,0.06292485,-0.06106125,-0.039779402,-0.055799842,-0.078059986,0.020824134,0.0478302,-0.057050433,-0.06789081,0.059505463,-0.06022643,0.06601697,0.054102186,0.046492025,-0.068197995,0.015298411,0.082385436,0.059551686,0.06351521,-0.06378496,0.063345745,-0.045059457,-0.077453725,0.056011993,0.063725814,0.06719315,-0.051346835,-0.051792316,-0.058272876,0.024416942,-0.04717087,-0.06522581,-0.06270822,-0.056600094,-0.05338869,-0.03268626,0.061247773,0.051984362,-0.065835364,0.06933999,-0.011664066,-0.062070146,-0.05300569,0.0699929,-0.05920601,0.07556093,-0.05008388
MYBL2,-0.098846614,-0.024498448,-0.03821893,0.07500316,0.013146274,0.09079181,-0.057869665,0.04505351,-0.02338348,0.071049094,-0.02857751,-0.069199845,0.04361619,0.100392416,-0.0059193326,0.03126452,0.044001874,0.08314949,-0.09075187,-0.101298474,-0.0889688,-0.0072080344,0.014863901,0.05697649,-0.068055674,0.05448607,-0.040024206,-0.03223329,0.0372607,0.02282364,0.04751996,-0.054076973,-0.048959784,-0.038864955,0.01989541,0.03738309,-0.08899511,0.036092922,-0.07315013,-0.011635255,0.12635478,-0.043619405,0.054022167,-0.05273969,-0.055848837,-0.07768431,0.0999559,0.11134613,0.015900936,-0.08946342,-0.04904911,-0.07565285,0.008333024,0.03787218,0.02031225,0.033447415,0.01455814,0.021003399,-0.0150019005,-0.01925509,0.02859456,0.042640768,0.031240499,-0.08456889
GABARAPL2,-0.03791168,0.025751933,0.023773588,-0.026378931,0.032032665,0.046029888,-0.05028321,-0.027022412,-0.042243488,0.038459964,-0.048776243,-0.04077206,-0.026326977,0.032627705,-0.032013085,0.04772564,0.034299765,0.038204256,-0.034823723,-0.04112436,-0.044483155,-0.045635033,0.013937503,0.026393212,-0.03539903,-0.03695654,0.04170564,-0.034355532,0.036414687,0.025065292,0.032722183,-0.043072242,0.017629422,0.042754065,0.041339055,0.03741188,-0.049765907,0.034507148,-0.0263775,-0.060969893,0.03683394,0.03299083,0.041812308,-0.028961191,-0.03512442,-0.03798066,0.026579794,-0.021179449,-0.032348916,-0.047615908,-0.036114752,-0.035157103,-0.01938491,0.039153934,0.03521201,-0.04345662,0.043161117,-0.019125614,-0.032546338,-0.03742696,0.04963245,-0.033444613,0.03948015,-0.03836404
PLK2,-0.020658288,0.018536821,0.0202026,-0.02571247,0.016061023,0.02375129,-0.030401226,-0.030012418,-0.025551908,0.016468728,-0.029780254,-0.028345518,-0.042510137,0.01606882,-0.028189726,0.022523727,0.031497847,0.02527615,-0.019108128,-0.007937862,-0.013606265,-0.04548689,0.007361274,0.017719999,-0.018984932,-0.035011023,0.033066113,-0.031465158,0.02942631,0.019958947,0.01275776,-0.03523249,0.010044821,0.04618007,0.025942573,0.029496763,-0.023757275,0.03267385,-0.014663141,-0.03406822,0.017143853,0.033054218,0.031927,-0.022131907,-0.017457942,-0.019784022,0.0007278882,-0.025201615,-0.036708854,-0.021777071,-0.020608664,-0.020621214,-0.022158977,0.031666152,0.015772916,-0.034168236,0.037355572,-0.010421086,-0.03489177,-0.013476197,0.02939799,-0.029984482,0.03695754,-0.018789783
EYA1,-0.044107582,0.039024368,0.040326484,-0.030858744,0.03606159,0.049915433,-0.04960475,-0.044496633,-0.044355482,0.0348145,-0.047225848,-0.048287574,-0.06159287,0.04079247,-0.051882423,0.048715286,0.05812522,0.05869775,-0.047988184,-0.020229567,-0.044233352,-0.06695491,0.017882615,0.03800133,-0.043325525,-0.055066057,0.04735306,-0.047750503,0.06129842,0.043151516,0.032499142,-0.061090555,0.013658956,0.07331422,0.04809563,0.0582546,-0.044762295,0.052008763,-0.043779075,-0.058604173,0.054446954,0.054185882,0.062154893,-0.047809493,-0.041430894,-0.04622186,0.018472139,-0.03943561,-0.057723507,-0.052994467,-0.048278168,-0.051224146,-0.035875034,0.0474199,0.046689577,-0.046015806,0.05980643,-0.004393805,-0.0599406,-0.041935835,0.050680712,-0.052353285,0.07508967,-0.039928284
HIST1H2BL,0.021468945,-0.00974679,-0.007038817,-0.0093418285,-0.006243482,-0.018685045,0.014264654,0.013256898,0.012659602,-0.013411222,0.0086609535,0.004432981,0.018738238,-0.008404404,0.01782529,-0.012240302,-0.031836804,-0.022246292,0.026853438,0.0041337404,0.030535765,0.021951064,-0.00051342696,-0.03103078,0.018182864,5.8718026e-05,-0.0062193125,-0.001390811,-0.023687117,-0.023840822,-0.0151451025,0.025235362,0.024028748,-0.025588684,-0.011357969,-0.024141327,0.015472921,-0.012906237,0.031060643,-0.0067801885,-0.03544682,-0.014162298,-0.04378186,0.013254672,-0.0025247377,0.015047363,-0.020569399,-0.010544188,0.018344983,0.027694557,0.026723482,0.022416078,0.017882701,-0.011586914,-0.01851992,-0.010832019,-0.013874501,-0.021768618,0.023303907,0.023802403,-0.01112067,0.018089376,-0.039168235,0.025630279
PATJ,0.048871785,-0.037522413,-0.034588426,-0.0052999817,-0.040755257,-0.04847765,0.04578056,0.026278628,0.033140033,-0.03680209,0.03743714,0.03299064,0.022437109,-0.047886774,0.038336225,-0.05637783,-0.04284677,-0.05915496,0.06388069,0.035562217,0.052800335,0.04474292,-0.016006175,-0.043526646,0.048945908,0.031581637,-0.021340787,0.032571837,-0.053260244,-0.0537735,-0.034255795,0.04253737,0.011004068,-0.037126996,-0.042714886,-0.041726783,0.047181852,-0.039798114,0.0532716,0.037876565,-0.06379351,-0.038689524,-0.05332843,0.05118549,0.040485132,0.042255092,-0.036804393,0.017957048,0.03770543,0.054007284,0.05494138,0.0455044,0.024313705,-0.04865487,-0.052169822,0.019079648,-0.04091461,-0.022809487,0.041364547,0.059910398,-0.041500308,0.045483187,-0.0693256,0.047616817
TPM1,-0.010453664,-0.0002784729,0.006840661,-0.019349864,0.0030597672,0.011601981,-0.020139545,-0.00822318,-0.011153385,0.007477941,-0.017368212,-0.018633544,-0.010422947,0.00745932,-0.0121700065,0.014197256,0.0033935662,0.0053449944,-0.0021672845,-0.014260719,-0.008060455,-0.013575532,0.0050542243,-0.0027877726,-0.0044706315,-0.013476092,0.020753875,-0.018386029,0.00493693,-0.0009724386,0.009532442,-0.013637576,0.0154944435,0.019649314,0.014811698,0.011485834,-0.013299586,0.00693864,0.004507724,-0.033323906,0.0001244722,0.007814117,0.008569155,-0.0042772307,-0.009698134,-0.012462999,0.00013204664,-0.011442336,-0.00887933,-0.010159232,-0.0047464482,-0.0043999776,0.00081656873,0.0063135466,0.003325209,-0.026808102,0.018681113,-0.017319638,-0.006476123,0.00025007874,0.021131895,-0.003095761,-0.0007157624,-0.0055130385
GM25057,0.10390711,-0.06718697,-0.08429706,0.031036526,-0.08309978,-0.11156412,0.11064994,0.08082035,0.0913766,-0.09696962,0.10043167,0.09801762,0.07501533,-0.09724419,0.08045182,-0.108210884,-0.09810498,-0.10773286,0.12644856,0.089563526,0.11532579,0.115538105,-0.046391256,-0.093216985,0.10315053,0.08436008,-0.07723291,0.08870052,-0.11361864,-0.11522533,-0.08024626,0.10348246,-0.0037670285,-0.10709469,-0.100102805,-0.0999618,0.10574867,-0.10493333,0.10564602,0.108112246,-0.106203794,-0.10216533,-0.10368353,0.10453083,0.104324736,0.09546633,-0.06535085,0.07217102,0.105774425,0.1118834,0.099767044,0.09836289,0.0567398,-0.105133586,-0.10596171,0.09248581,-0.10137113,0.0023322143,0.09378849,0.11957191,-0.11001392,0.107588686,-0.13354886,0.095167264
MAGED1,0.032500826,-0.025623165,-0.01858271,-0.009676743,-0.027450737,-0.033306286,0.030016359,0.022331351,0.025252998,-0.03501282,0.022636399,0.020242255,0.021703677,-0.03069917,0.022346556,-0.031373397,-0.039450616,-0.03676822,0.045026153,0.01797408,0.036639024,0.033255816,-0.007575944,-0.036566045,0.035829537,0.021025311,-0.011995852,0.017237507,-0.04217346,-0.04339453,-0.021760764,0.03047733,0.015770324,-0.029932603,-0.019836718,-0.026774265,0.034550697,-0.03318528,0.040497895,0.008639168,-0.04883743,-0.02910399,-0.039810013,0.03186943,0.02457753,0.030270476,-0.026826583,0.007150976,0.03174305,0.033917964,0.035917327,0.03409496,0.020510357,-0.033688426,-0.033379138,0.0051990747,-0.023970336,-0.022728976,0.029710937,0.03932771,-0.025870085,0.033661727,-0.05356299,0.03651119
CCND2,-0.025347646,0.028562061,0.03372187,-0.032208342,0.03200599,0.03199532,-0.039114203,-0.040931046,-0.031541083,0.030491436,-0.042574152,-0.03822459,-0.055589523,0.0250302,-0.03809439,0.036070183,0.035393037,0.029765438,-0.030766726,-0.012902675,-0.032024726,-0.05329047,0.012740932,0.026563458,-0.029272135,-0.049791016,0.04115321,-0.039428733,0.033840094,0.029750068,0.022298483,-0.04122606,0.022771113,0.05378177,0.03747786,0.03747429,-0.039431553,0.04050751,-0.019930936,-0.048709773,0.022984196,0.046123266,0.036050532,-0.027925324,-0.028443718,-0.02781042,0.004810326,-0.04212299,-0.045244068,-0.03483303,-0.02994506,-0.025229957,-0.029544156,0.0385262,0.029432252,-0.049158685,0.046862498,-0.02023543,-0.040790346,-0.02806655,0.038464904,-0.044406906,0.044477396,-0.026078891
GM43110,0.05592761,-0.030435834,-0.031154037,-0.0047168545,-0.03767923,-0.05168862,0.048910055,0.034092896,0.04131484,-0.05457297,0.038207993,0.03803169,0.031874925,-0.047536865,0.03730302,-0.05055486,-0.055859618,-0.056284856,0.06316705,0.034299046,0.06257883,0.05093474,-0.013186313,-0.050668005,0.04822098,0.035349842,-0.022890449,0.030589305,-0.05768461,-0.05955326,-0.03741344,0.052949913,0.0131951645,-0.046145774,-0.038284153,-0.04857906,0.05537758,-0.050518375,0.054455284,0.03361779,-0.06789506,-0.041898258,-0.061990626,0.048944663,0.03916401,0.044960223,-0.040962514,0.015445678,0.04524874,0.051616855,0.052824296,0.05178976,0.028914446,-0.05255367,-0.052474216,0.021101266,-0.042391025,-0.020204555,0.04252096,0.05958455,-0.0412774,0.045095507,-0.07298081,0.053489935
ANKS1,0.07779601,-0.04893344,-0.06651142,0.020122133,-0.0643189,-0.081746526,0.078740075,0.05833663,0.066091835,-0.07445888,0.07212051,0.07285072,0.050099663,-0.072959036,0.058133904,-0.07691517,-0.07156628,-0.07952225,0.09608935,0.06859038,0.08481458,0.08227919,-0.033064842,-0.07100044,0.07938902,0.06018253,-0.054232016,0.06393188,-0.080334365,-0.08746718,-0.06097289,0.07442499,-0.002791755,-0.07272395,-0.07420908,-0.0731814,0.07537815,-0.07819295,0.07886792,0.079553634,-0.07782524,-0.07591668,-0.06999593,0.08039402,0.08352357,0.0710038,-0.048303068,0.054413058,0.07801293,0.080766134,0.073291704,0.0730405,0.04227627,-0.075369895,-0.07913251,0.068921305,-0.071703546,0.0006199442,0.06824671,0.09293127,-0.07907595,0.07631879,-0.096102506,0.0691839
GALK1,0.014556762,-0.00828138,-0.0024848431,-0.015955007,-0.011878882,-0.012185523,0.0012391936,0.0021801237,0.0049459934,-0.0059947027,-0.0032208525,-0.0030969344,-0.0012881607,-0.008951839,0.0046044406,-0.0048822463,-0.018686458,-0.01660268,0.022141393,0.003238378,0.014738575,0.0076667964,0.0012633428,-0.016941428,0.01708557,-0.0055828616,0.0073015876,-0.0017267428,-0.014868021,-0.016339662,0.0002041366,0.0039556697,0.01730308,-0.0012164563,0.0018045176,-0.0062345117,0.008891728,-0.009050965,0.024496708,-0.015942212,-0.028840926,-0.002748821,-0.017876888,0.01390033,0.0071719144,0.011257428,-0.016309746,-0.012574532,0.00689076,0.01348649,0.016500633,0.012516528,0.011000792,-0.009795943,-0.01688597,-0.017713407,-0.003518559,-0.023264464,0.010315862,0.016844425,0.0008173436,0.011098281,-0.02708799,0.01571546
MTA3,0.0013150908,0.0071724653,0.004673302,-0.021750169,0.007058181,0.002919728,-0.012697953,-0.009988884,-0.009233311,0.0037239473,-0.015371248,-0.012712152,-0.012475653,0.00078397617,-0.008307821,0.010536075,-0.0062321173,-0.003407484,0.004916448,-0.005603265,-0.00021950155,-0.009688042,0.002166465,-0.00558462,0.001434274,-0.017747391,0.01639345,-0.0110217035,0.0040979423,-0.00457103,0.0046789553,-0.011766583,0.014834881,0.01595743,0.009778883,0.005002314,-0.007599024,0.0038287565,0.01046042,-0.023930494,-0.0070361886,0.007855479,0.00035457034,0.001277816,-0.0025680042,-0.0041299835,-0.0055199377,-0.014635719,-0.007736983,-0.0058926344,-0.002954159,-0.00043250993,-0.002087675,0.004414534,0.0012044609,-0.02240999,0.013446756,-0.01717468,-0.00565245,0.003095787,0.013136059,-0.0067446977,-0.004561927,-0.0011574924
RUVBL2,0.091951594,-0.053523473,-0.073471695,0.025505748,-0.07031577,-0.09497354,0.092675954,0.06728887,0.077083915,-0.08471498,0.08434915,0.08346242,0.061467722,-0.084407575,0.06982012,-0.08992553,-0.08851274,-0.09450172,0.10924481,0.07602824,0.10168332,0.0978276,-0.03740398,-0.08122436,0.088752314,0.07248686,-0.061670348,0.07443783,-0.09476977,-0.10007061,-0.06893724,0.08892765,-0.0023278743,-0.08918925,-0.08373392,-0.088098265,0.09222251,-0.09229703,0.09023631,0.08918536,-0.09254969,-0.08527449,-0.09138431,0.08832969,0.08923645,0.08172893,-0.06003606,0.057688266,0.08851627,0.094300896,0.086736105,0.08503328,0.05124019,-0.091878936,-0.09461892,0.075759016,-0.08544458,-0.0019183978,0.079417005,0.10572024,-0.090213135,0.08899505,-0.11722288,0.08339113
GM25183,0.14077492,-0.092080235,-0.12354388,0.054675438,-0.11895853,-0.14924572,0.15056153,0.114793785,0.12410188,-0.13191704,0.1407933,0.13779171,0.109351486,-0.13267821,0.11701123,-0.15052207,-0.13031682,-0.14859761,0.1697852,0.12023397,0.15375723,0.16267021,-0.06443419,-0.12252057,0.14357325,0.12686433,-0.109625965,0.13092898,-0.15376654,-0.15544397,-0.11241304,0.14230794,-0.015393645,-0.15057741,-0.14127225,-0.13851443,0.14617981,-0.14512044,0.13759553,0.16142708,-0.13775402,-0.14286071,-0.13727167,0.13874143,0.1465009,0.12966879,-0.08502291,0.110030346,0.1460088,0.15203151,0.13850129,0.13204998,0.080596216,-0.14716741,-0.14602262,0.13600647,-0.14407206,0.012897078,0.13263543,0.16427583,-0.15482493,0.14567658,-0.17964746,0.12531227
RPL17-PS10,0.100636974,-0.06450229,-0.0820605,0.030516468,-0.07755248,-0.107488565,0.10894938,0.07775871,0.08361851,-0.099262804,0.097343795,0.08941735,0.078535184,-0.09493553,0.08609574,-0.10987277,-0.10382267,-0.11279841,0.12009827,0.08009404,0.11802675,0.11832252,-0.04291821,-0.088328555,0.09765167,0.08800259,-0.075442865,0.09251274,-0.11555299,-0.11410844,-0.08378217,0.109251685,-0.0032132491,-0.112583116,-0.10257352,-0.10262775,0.115736514,-0.10043952,0.099752195,0.10364495,-0.109612405,-0.1001567,-0.112614766,0.09958779,0.09837978,0.094964676,-0.06682426,0.0684103,0.10059587,0.107666396,0.10436885,0.09457998,0.059387386,-0.1059128,-0.104125485,0.08904988,-0.10214131,-0.008164447,0.0932125,0.1199729,-0.112596616,0.10200339,-0.13611385,0.0922638
GFPT2,-0.09280993,0.075942636,0.07322974,-0.04889512,0.08026154,0.101047255,-0.105655506,-0.090478614,-0.089131296,0.09435043,-0.09887676,-0.10034822,-0.0961852,0.09302813,-0.0823567,0.105703026,0.10343038,0.10746993,-0.10430834,-0.065630786,-0.10136512,-0.12192888,0.04427018,0.075592704,-0.09111622,-0.10195257,0.08767622,-0.08847845,0.114044085,0.101515904,0.07672797,-0.10624868,0.024524428,0.11690638,0.09166346,0.106122464,-0.093699954,0.111661926,-0.084038205,-0.112640224,0.093851395,0.10315253,0.11009641,-0.094464794,-0.09043264,-0.09445011,0.05420911,-0.07940922,-0.11350005,-0.09614659,-0.10099721,-0.095699415,-0.071559384,0.10739188,0.09150117,-0.0955064,0.109486215,-0.014474358,-0.09405157,-0.09823227,0.102440834,-0.108822286,0.13243875,-0.08746083
ZFP91,0.06210274,-0.041427072,-0.049167126,0.010424525,-0.048208524,-0.064573176,0.058565546,0.044267103,0.04988219,-0.059617624,0.05364702,0.052836824,0.039203063,-0.056993924,0.043683175,-0.059550796,-0.06125693,-0.06391588,0.07591027,0.050714612,0.069682404,0.06502092,-0.025309587,-0.0581,0.06205731,0.04546057,-0.039091222,0.0450812,-0.0635218,-0.070737146,-0.045914255,0.057884254,0.0006785765,-0.055629626,-0.0549566,-0.056365088,0.05947078,-0.06270972,0.064473286,0.053771798,-0.066956855,-0.059232756,-0.059683416,0.06387524,0.06322673,0.05541935,-0.03925982,0.03704396,0.059876494,0.06179871,0.057292923,0.059332423,0.035540536,-0.06163624,-0.061889425,0.04634002,-0.05262725,-0.006085433,0.052188832,0.075533986,-0.06001693,0.060228728,-0.08193189,0.056523718
AP1AR,0.052914433,-0.031024598,-0.029552314,-0.0026066266,-0.0396823,-0.04891961,0.045760635,0.034082226,0.040671676,-0.05128414,0.03688664,0.035211988,0.030683225,-0.043856256,0.034643773,-0.0466351,-0.053978756,-0.051202964,0.060635097,0.033721298,0.059839893,0.04710211,-0.013161689,-0.0487243,0.047732383,0.034327354,-0.02145888,0.026055992,-0.055086836,-0.05867237,-0.03475856,0.048568927,0.0110561475,-0.042420484,-0.035787396,-0.045749597,0.049568377,-0.04928301,0.053771302,0.029678445,-0.065339044,-0.04138715,-0.05688474,0.045543976,0.036816034,0.041716866,-0.039772727,0.013521943,0.046971653,0.04756153,0.05114535,0.049944073,0.02879674,-0.0499392,-0.05226931,0.017952286,-0.03510738,-0.02076609,0.0392428,0.057944305,-0.038449414,0.04424815,-0.06970631,0.053442713
AMOTL2,-0.03561501,0.022690207,0.03222891,-0.032478265,0.022614297,0.044319198,-0.06046028,-0.032996997,-0.03807084,0.04825048,-0.055839114,-0.051314835,-0.035219915,0.040222008,-0.03322916,0.05041857,0.035494283,0.036960773,-0.036525533,-0.045310434,-0.042188436,-0.048816055,0.02125533,0.024442993,-0.031599235,-0.046438932,0.048496567,-0.04370103,0.039259244,0.036179934,0.043240905,-0.04436723,0.023008473,0.05131506,0.04782971,0.043056518,-0.046186462,0.044427596,-0.019088946,-0.072904035,0.025749255,0.045142666,0.03688542,-0.03655341,-0.03956615,-0.038580354,0.01612693,-0.041495457,-0.041426897,-0.037668213,-0.031919733,-0.034063462,-0.010703482,0.041733086,0.03025756,-0.06270629,0.04293686,-0.020803627,-0.031091284,-0.035454076,0.058164462,-0.036241367,0.035879068,-0.032283418
GM49369,0.10366845,-0.06350689,-0.08147153,0.02646418,-0.08117972,-0.1079899,0.10560243,0.075691804,0.0837743,-0.09667379,0.0966428,0.09346612,0.07112475,-0.09693661,0.08167168,-0.10670401,-0.09819891,-0.1100508,0.12377237,0.08892924,0.117414236,0.11543824,-0.0414869,-0.088717766,0.101096526,0.084802136,-0.07005265,0.08764352,-0.109514594,-0.11404602,-0.07706889,0.10381844,-0.0029563084,-0.10052279,-0.09636398,-0.09781606,0.111527026,-0.100720875,0.101460725,0.10153805,-0.11072952,-0.09309834,-0.10631174,0.100734025,0.09968776,0.09578642,-0.068001255,0.06381336,0.098694034,0.10992107,0.1032023,0.0947617,0.05599246,-0.10597723,-0.10558741,0.085755624,-0.10001055,-0.0063797347,0.09026092,0.12238982,-0.105995536,0.09979189,-0.13661647,0.095456034
POLR1E,0.0556961,-0.033816695,-0.047660377,0.009775363,-0.041399084,-0.058572732,0.051364664,0.040214494,0.043440446,-0.051588714,0.047221117,0.047664832,0.03586884,-0.052303962,0.039045114,-0.050979484,-0.05615925,-0.057279006,0.07124688,0.04429508,0.062016323,0.058678128,-0.024013039,-0.051481314,0.05561874,0.04016939,-0.034242995,0.043067418,-0.057117276,-0.06463504,-0.039399177,0.053547703,0.0017484799,-0.049408622,-0.049750477,-0.05138258,0.051144235,-0.05708205,0.05862345,0.0471729,-0.057940606,-0.054321907,-0.053611916,0.060233437,0.05837185,0.05073592,-0.03491773,0.03681066,0.054185964,0.055021435,0.05115719,0.051581386,0.030973896,-0.051915087,-0.056513447,0.04318957,-0.048112348,-0.0074841715,0.04726505,0.068041965,-0.05343981,0.054529674,-0.07297467,0.048282858
CRIP2,0.00054723397,0.0011346042,0.0063802786,-0.019317761,0.002150055,0.003836982,-0.015149663,-0.0071835117,-0.0047813132,0.0058005434,-0.014299285,-0.013616885,-0.012808526,0.005423043,-0.008104134,0.009565391,-0.004183094,-0.0023258887,0.0043251254,-0.005596526,0.00047385693,-0.010553889,0.003746178,-0.0067572445,0.0012686402,-0.018383246,0.015808657,-0.014802508,0.0029914118,-0.0035255812,0.0096728355,-0.011977803,0.013711892,0.015438013,0.016967041,0.009763816,-0.007182829,0.0038425028,0.0102625955,-0.026565716,-0.010296885,0.010497127,0.00014419947,0.0014928756,-0.004072569,-0.002210318,-0.007851239,-0.01819542,-0.0046107136,-0.0068865344,0.00063546374,0.001932092,0.0015956685,0.0041598454,-0.001688093,-0.026946638,0.01316347,-0.019209329,-0.0036335513,0.0027129166,0.016217347,-0.0062305927,-0.0077264514,0.00016144477
GM23578,0.19299845,-0.119567335,-0.15313104,0.07687317,-0.15886316,-0.17705776,0.19893806,0.15511645,0.16007894,-0.16862123,0.17630073,0.17876294,0.15080689,-0.1668563,0.15501949,-0.20180866,-0.1672056,-0.18488385,0.213324,0.14507546,0.19796807,0.2119409,-0.07733645,-0.15665093,0.18707237,0.17697382,-0.14954713,0.1672691,-0.19460796,-0.19997661,-0.14138205,0.17833668,-0.02299226,-0.1948907,-0.17761263,-0.188181,0.17561582,-0.19490568,0.16927877,0.21448815,-0.17797305,-0.17521766,-0.18357293,0.15832703,0.16631158,0.16225444,-0.11025736,0.13087964,0.19262606,0.1876241,0.18749207,0.16581474,0.103232384,-0.19244921,-0.18319267,0.16946262,-0.18132263,0.016573623,0.1689506,0.21102044,-0.20257731,0.17595145,-0.22420804,0.16803089
EIF4A-PS4,0.024511931,-0.0104510635,-0.0076289773,-0.015740499,-0.010467764,-0.022071945,0.017839484,0.010695001,0.016337954,-0.021395668,0.007112682,0.01046406,0.011992386,-0.018240567,0.014275876,-0.0174152,-0.03037721,-0.025012784,0.030143209,0.0038341302,0.02563024,0.0149565935,-0.00247363,-0.02790124,0.02182378,0.00912983,0.00036890805,0.004090145,-0.03241416,-0.028693859,-0.013016464,0.02274803,0.019754402,-0.02116952,-0.004505136,-0.02269236,0.016877988,-0.025372017,0.029917032,-0.0073402748,-0.03777397,-0.01573278,-0.034742534,0.021696685,0.013188785,0.020293158,-0.023730678,-0.0043477574,0.019087601,0.020884886,0.025110513,0.026764872,0.014840741,-0.019419925,-0.024511848,-0.008505017,-0.012253337,-0.027528819,0.021382786,0.023190606,-0.009769671,0.017934043,-0.038482387,0.026068449
CREB3,-0.030337747,0.019476324,0.029688679,-0.03298567,0.024147037,0.03422033,-0.048830293,-0.035536684,-0.02959245,0.038464047,-0.04640146,-0.04401332,-0.042933114,0.033994485,-0.032082543,0.041553915,0.028353132,0.028544854,-0.02942948,-0.028578209,-0.0334415,-0.043892764,0.01730378,0.02060192,-0.026175912,-0.044564787,0.039993722,-0.04058314,0.03137895,0.030791488,0.02988161,-0.039661862,0.021881007,0.051324464,0.039705,0.035268366,-0.036604896,0.03846076,-0.0146372765,-0.064146996,0.019285224,0.041968994,0.031593688,-0.030490326,-0.03133227,-0.031547535,0.0049690306,-0.041778557,-0.03886363,-0.03284321,-0.026029788,-0.02890871,-0.012995739,0.03500428,0.02572488,-0.0545779,0.04107598,-0.022675212,-0.02955287,-0.028288413,0.044529956,-0.03529787,0.032091618,-0.023581214
XRCC5,0.0031711496,0.0081091225,0.0056028813,-0.022508172,0.008380912,0.0021772627,-0.011133611,-0.010829261,-0.010058045,0.0038251858,-0.015621413,-0.01245043,-0.011142688,-0.0019732788,-0.007891569,0.0105928965,-0.008077827,-0.0050344393,0.007261973,-0.003046317,-0.0006695092,-0.007254213,0.0014644712,-0.005558949,0.0031776913,-0.02077083,0.016889215,-0.009121288,0.0033306293,-0.0034857504,0.0031525735,-0.010000847,0.018847771,0.015905965,0.008303717,0.0033507897,-0.0041619027,0.006435126,0.012296855,-0.02489407,-0.009069329,0.008926529,-0.0030915523,0.003169683,-0.003449367,-0.0024914006,-0.0069189034,-0.018218223,-0.006849412,-0.002396129,-0.0020940527,-0.00063440576,-0.0023402162,0.004131782,0.0022760555,-0.022412755,0.010390185,-0.019468945,-0.0049121156,0.003286738,0.011285096,-0.008170009,-0.005619012,-6.3207e-05
MDM2,0.022988899,-0.014331698,-0.0118702315,-0.009209536,-0.016160345,-0.020009067,0.0061837398,0.009757569,0.012313761,-0.018363604,0.0052141026,0.006162503,0.006230904,-0.019154217,0.010548411,-0.01403989,-0.0276675,-0.024121953,0.0307789,0.007878495,0.02633626,0.01676327,-0.0056961216,-0.023486193,0.024013255,0.0043367036,0.0009732172,0.0061431006,-0.02153803,-0.027756663,-0.008404924,0.01115156,0.011361577,-0.008343101,-0.007546208,-0.01473448,0.016042244,-0.019589612,0.031920366,-0.0029054098,-0.032421626,-0.015281957,-0.02443533,0.02274298,0.016333064,0.016789,-0.019932453,-0.0014167838,0.01630824,0.020208951,0.020461928,0.020324282,0.014812274,-0.020184027,-0.025575858,-0.006870009,-0.009861223,-0.017058413,0.016402517,0.0289764,-0.008251384,0.020068645,-0.036484923,0.021256534
SPC25,0.090565816,-0.061438285,-0.070569366,0.021231823,-0.07635148,-0.08888006,0.0926587,0.07007401,0.07552701,-0.090707764,0.084848724,0.076714486,0.068222255,-0.08475075,0.06820876,-0.09672375,-0.08526496,-0.09167205,0.104310215,0.06772232,0.101534456,0.09768161,-0.03444631,-0.07948233,0.08536102,0.080476046,-0.059075564,0.067880526,-0.095731035,-0.10278174,-0.06806635,0.09234003,-0.002368115,-0.09048349,-0.08238265,-0.08464665,0.0919729,-0.09103905,0.08669063,0.08813286,-0.09612814,-0.08816294,-0.09361136,0.08474351,0.081064075,0.07842276,-0.056818977,0.058446057,0.089520946,0.09213574,0.08840515,0.08515242,0.04985442,-0.09372049,-0.09020544,0.070208035,-0.077744804,-0.009731922,0.0768031,0.10545458,-0.08937107,0.085732386,-0.11849285,0.08582784
PGAM1-PS2,0.096900485,-0.053718366,-0.065864265,0.01924555,-0.07097036,-0.08646743,0.091400236,0.066474475,0.076916724,-0.09039562,0.07714792,0.07380588,0.065434836,-0.08182727,0.07884651,-0.09684791,-0.092515066,-0.09510052,0.101183504,0.06379032,0.1127262,0.098328754,-0.025583986,-0.08108993,0.08448956,0.07797931,-0.059219882,0.06860037,-0.09666452,-0.099723026,-0.07179498,0.100627445,0.0028061941,-0.094876945,-0.08166382,-0.09693068,0.09915003,-0.088653356,0.084413536,0.082905576,-0.10274813,-0.07716857,-0.10562691,0.07875837,0.06963303,0.08096228,-0.06439585,0.044595085,0.088737294,0.09127438,0.09809877,0.08366604,0.053367756,-0.09370222,-0.09612787,0.062198125,-0.083174534,-0.01730908,0.07782307,0.10632233,-0.088991344,0.08068705,-0.12151393,0.089514524
RPN1,0.05014642,-0.029953599,-0.026166897,-0.0060292296,-0.03980252,-0.045744963,0.04528198,0.03339842,0.039315134,-0.049085364,0.034049876,0.031651665,0.0316263,-0.04071786,0.033857353,-0.04509842,-0.05171694,-0.04871022,0.058125764,0.028679537,0.05387949,0.045337185,-0.00842933,-0.04653552,0.046192236,0.031979967,-0.020688824,0.025622986,-0.056762427,-0.05583136,-0.030603686,0.049547173,0.016847618,-0.04517892,-0.031025244,-0.041527912,0.0486691,-0.045091044,0.05016184,0.023164604,-0.06507698,-0.03825347,-0.05734921,0.042282812,0.033098366,0.04337856,-0.03808911,0.010997282,0.045376614,0.04592565,0.050663758,0.047278214,0.0268049,-0.045242213,-0.04806796,0.01388979,-0.03618306,-0.02598704,0.039905075,0.051353842,-0.037207708,0.041720208,-0.06805131,0.05105148
TCF12,-0.05460785,0.037080824,0.04491885,-0.035050567,0.042848874,0.064422265,-0.071132086,-0.05076059,-0.054126866,0.051383793,-0.06608633,-0.06257383,-0.061446354,0.052073997,-0.056007773,0.06337777,0.058698326,0.06026927,-0.057378873,-0.03964606,-0.05599326,-0.076697975,0.023291945,0.04670886,-0.05475342,-0.061662897,0.057477824,-0.0590491,0.06311536,0.0496603,0.043401342,-0.06469381,0.0172266,0.079059266,0.058227584,0.060344093,-0.06411344,0.058714435,-0.047061317,-0.07722564,0.05320693,0.06037595,0.06767662,-0.048588097,-0.05104814,-0.05538296,0.027257886,-0.042610504,-0.062496632,-0.06370402,-0.05308628,-0.052269477,-0.033556785,0.05895053,0.049823128,-0.06533023,0.06821467,-0.015843924,-0.05940012,-0.05069766,0.06948133,-0.057605192,0.07362669,-0.048542503
GM38009,0.040690392,-0.027331725,-0.03228594,-0.0072479323,-0.036397938,-0.04198797,0.039477978,0.023349905,0.02881807,-0.036680695,0.033452228,0.03185563,0.019081807,-0.045206826,0.029143572,-0.045259833,-0.036686625,-0.04941276,0.05629397,0.033970177,0.047052346,0.034936816,-0.013680443,-0.03581544,0.04289396,0.027900115,-0.016565725,0.028929107,-0.04388608,-0.048480682,-0.03457059,0.03962808,0.009949714,-0.02877213,-0.037715912,-0.036094677,0.042934857,-0.03478474,0.048349105,0.029923763,-0.050204817,-0.03468822,-0.03754299,0.046950046,0.04047354,0.037773795,-0.032390177,0.020889686,0.030750956,0.04803472,0.042364303,0.03838253,0.015269479,-0.038673,-0.046454288,0.022950172,-0.034302153,-0.018709231,0.032591138,0.055602882,-0.03767453,0.037825204,-0.0535315,0.041088603
JARID2,-0.049153235,-0.03328223,-0.062123947,0.062879406,-0.0145309605,0.043719552,0.008291524,0.060003087,0.016590878,0.026012527,0.018148154,-0.018700846,0.06903447,0.03695756,0.020118002,-0.0211441,0.0011446448,0.029640581,-0.038286008,-0.06301437,-0.05491084,0.032595962,0.003493823,0.021789059,-0.015414048,0.08295922,-0.055350214,0.015881605,-0.010688178,-0.01635378,0.0033313166,-0.0074324086,-0.023284853,-0.06921294,-0.005130887,-0.003144011,-0.029628161,-0.0069534928,-0.029870927,0.03184351,0.07305562,-0.06849623,0.0040016696,-0.0040099495,-0.016582236,-0.03385339,0.063453645,0.11435238,0.045535464,-0.035196103,-0.010111604,-0.029382844,0.0065583233,-0.0061742067,-0.010588504,0.054104894,-0.02086424,-0.0069851615,0.02213912,0.016992554,-0.025205389,0.059291407,-0.020987144,-0.04039063
GM26431,0.19986436,-0.11718221,-0.14791036,0.07135679,-0.16872017,-0.17328726,0.19802344,0.15754108,0.16241187,-0.17323557,0.17523217,0.17908266,0.15442468,-0.16430718,0.15998569,-0.20309247,-0.164369,-0.18151173,0.2081171,0.1422816,0.20420127,0.20642535,-0.06912907,-0.15975079,0.18582638,0.18097953,-0.14589068,0.15794507,-0.19224891,-0.2018901,-0.14037918,0.18266362,-0.019155692,-0.19461988,-0.17278063,-0.19679351,0.17196135,-0.19614434,0.16682388,0.21149611,-0.18310146,-0.16855927,-0.18578249,0.15124246,0.15649103,0.16084774,-0.11318235,0.12236828,0.19616272,0.18543938,0.19605589,0.16880621,0.10278392,-0.19202328,-0.18486229,0.15964234,-0.17291644,0.011335712,0.16947465,0.20925051,-0.19802417,0.1699495,-0.2221034,0.1741631
ARHGAP1,0.040151387,-0.024685867,-0.024448741,-0.008666504,-0.03008542,-0.03976558,0.029802501,0.02165213,0.02837906,-0.039166763,0.025413133,0.026259972,0.019244688,-0.0371594,0.02543255,-0.034260795,-0.043094795,-0.043082,0.049692404,0.024115669,0.0468317,0.037510857,-0.010430492,-0.038017828,0.040836535,0.02405246,-0.011354081,0.022408739,-0.041502297,-0.04714151,-0.02668059,0.034554295,0.0118936375,-0.026725128,-0.026277352,-0.032808773,0.039756574,-0.037695523,0.04579566,0.015587915,-0.052752268,-0.03024231,-0.0418604,0.03807694,0.03447458,0.032717057,-0.032054108,0.008714708,0.032084987,0.039375797,0.03824524,0.037861753,0.023717143,-0.04087027,-0.04178465,0.010079116,-0.027745664,-0.019442972,0.030774105,0.049430322,-0.028924763,0.035467405,-0.05856643,0.040922374
MAPK8,0.036067776,-0.020248178,-0.025642939,-0.0010739528,-0.025842203,-0.03611458,0.026657749,0.021223983,0.025187805,-0.031234397,0.024784274,0.024321914,0.013906477,-0.030317353,0.020165667,-0.029417284,-0.034514576,-0.037261046,0.045366645,0.030048022,0.040831096,0.031342797,-0.014495149,-0.034094676,0.036222428,0.017888833,-0.01524581,0.020834707,-0.031954046,-0.041078627,-0.023156384,0.026954703,0.0041859075,-0.021221317,-0.026448471,-0.028267704,0.030418646,-0.03232483,0.040419605,0.022486325,-0.039345395,-0.027971536,-0.029517626,0.0373047,0.03730103,0.030523688,-0.024832731,0.01564183,0.029279502,0.032554872,0.030990925,0.03355459,0.018377032,-0.03141147,-0.034817643,0.018269666,-0.023756437,-0.008576836,0.026206583,0.046480067,-0.028806403,0.030737504,-0.046560958,0.030892374
GM45213,0.023985416,-0.016028047,-0.019976508,-0.005512465,-0.016623542,-0.022313004,0.019220922,0.01817325,0.016826995,-0.025830884,0.014541723,0.015941767,0.017129106,-0.02541302,0.012106094,-0.020972366,-0.029097136,-0.026102105,0.03447947,0.012020195,0.027200136,0.023495704,-0.01160327,-0.028696414,0.02401286,0.015130505,-0.007754259,0.011678234,-0.026879849,-0.035564877,-0.017270999,0.01978711,0.008186765,-0.019056857,-0.01889456,-0.021728743,0.017015636,-0.02900118,0.03328215,0.0098355,-0.028583717,-0.027059872,-0.025619142,0.028253775,0.022007547,0.016152889,-0.014471775,0.012135206,0.024743577,0.020935334,0.022544377,0.026569085,0.014589287,-0.025386216,-0.023715694,0.008748218,-0.013145752,-0.012726743,0.01691458,0.032230202,-0.0172624,0.02601526,-0.03728458,0.02231504
FXYD6,-0.14093353,0.11225867,0.11041426,-0.06386322,0.11551744,0.15340632,-0.15377082,-0.13274123,-0.13300198,0.13825394,-0.14324993,-0.15003344,-0.13258095,0.14424448,-0.12238864,0.15418424,0.15779403,0.16219506,-0.16475053,-0.10169263,-0.15054327,-0.1764164,0.068327524,0.119153775,-0.13967209,-0.13626482,0.12325867,-0.1324829,0.17053099,0.15671103,0.11624686,-0.15847416,0.02675762,0.16626503,0.13942093,0.15704192,-0.14075854,0.16188748,-0.13831799,-0.16414873,0.14523844,0.15324707,0.1633767,-0.14754295,-0.13676144,-0.14228104,0.08792849,-0.10847042,-0.1669329,-0.14746648,-0.14704946,-0.14654046,-0.100924894,0.16062033,0.13671532,-0.13070558,0.15618306,-0.011382621,-0.13874514,-0.1498363,0.14733386,-0.155104,0.2008847,-0.13270815
BARD1,0.07420771,-0.03850746,-0.05969809,0.014327705,-0.05595821,-0.08017811,0.076520115,0.051340014,0.06314686,-0.06625315,0.067936435,0.07007222,0.041911006,-0.068192825,0.05571198,-0.069835246,-0.07002727,-0.07747069,0.09523198,0.068051666,0.079003155,0.07558073,-0.029494304,-0.06712532,0.07697189,0.0518901,-0.047869094,0.060956664,-0.07519476,-0.080804646,-0.05758425,0.071341924,0.0032055303,-0.06540434,-0.06885596,-0.07022695,0.07474817,-0.071473345,0.076798186,0.073200375,-0.07377178,-0.0670578,-0.067311496,0.07467331,0.0768806,0.06762456,-0.050826848,0.04330279,0.068964146,0.077881,0.06716347,0.066155344,0.03453674,-0.06904796,-0.076053,0.060959674,-0.06878839,-0.0040999763,0.0639372,0.087502204,-0.07364206,0.069221884,-0.090152994,0.06621201
FAM234A,0.03493131,-0.031949602,-0.026698949,-0.0028171763,-0.032405473,-0.034612633,0.035275903,0.0290453,0.029132575,-0.039109576,0.027035229,0.025429714,0.029608542,-0.033318494,0.023655511,-0.038765926,-0.041760143,-0.038776327,0.046493594,0.017269766,0.037567474,0.039112017,-0.010994412,-0.038899075,0.037349686,0.032222573,-0.017155945,0.019541427,-0.049210522,-0.050439447,-0.025383187,0.034338273,0.010203727,-0.03714294,-0.026792254,-0.030874275,0.034922272,-0.04286931,0.042253185,0.016737405,-0.047723185,-0.04081384,-0.043071065,0.035943095,0.02964533,0.029324673,-0.023362674,0.018823067,0.03928327,0.034265213,0.03754572,0.03806879,0.024010003,-0.042063005,-0.037722684,0.013274841,-0.025783964,-0.019940566,0.03318685,0.045408174,-0.030742504,0.042081594,-0.057374462,0.038084663
ITM2B,-0.030142795,0.013660498,0.014165595,-0.023260668,0.018007409,0.033227213,-0.041546747,-0.020138089,-0.029985594,0.024688972,-0.035141382,-0.033671375,-0.019944381,0.023301613,-0.02354125,0.03452072,0.021659754,0.024032231,-0.021814242,-0.031347558,-0.030181833,-0.033420563,0.011574611,0.014624037,-0.023730125,-0.025150515,0.03227344,-0.029465474,0.023690615,0.014333691,0.02296683,-0.031374216,0.016033359,0.035647195,0.027866138,0.02796816,-0.03692808,0.022962764,-0.015334785,-0.048884243,0.022738662,0.020924136,0.030383691,-0.017796865,-0.025361782,-0.031324595,0.016805157,-0.013515538,-0.023292596,-0.03402301,-0.021238029,-0.023121044,-0.010111224,0.02552671,0.020748742,-0.036355697,0.03398615,-0.016321968,-0.022617605,-0.019912828,0.03932319,-0.019146636,0.024282651,-0.026104614
CEBPZ,0.038755044,-0.026566207,-0.027940052,-0.0031919777,-0.027328007,-0.03992536,0.03509454,0.026569864,0.027938731,-0.03781463,0.027185455,0.02790462,0.023160411,-0.036333524,0.02472984,-0.03667974,-0.043990456,-0.041629843,0.050063383,0.025757017,0.044402186,0.038699187,-0.015087195,-0.039843656,0.038589228,0.022808533,-0.01899673,0.022054687,-0.04077251,-0.048860095,-0.028416293,0.032621525,0.0061781257,-0.032387257,-0.029211484,-0.034334257,0.033504896,-0.039593115,0.04614833,0.024399605,-0.047086943,-0.037093125,-0.04290883,0.040711198,0.034928184,0.032574467,-0.026382247,0.018366462,0.036063116,0.038172826,0.034911346,0.037988663,0.019749854,-0.037025705,-0.03629916,0.016919762,-0.027804017,-0.014747422,0.031186003,0.047044933,-0.032123506,0.037379906,-0.05550891,0.03717842
HMGXB3,0.036034103,-0.02271134,-0.02978972,0.0030816533,-0.028421143,-0.033907406,0.027203985,0.023149265,0.024373174,-0.03221728,0.025488012,0.027105972,0.015050447,-0.031413592,0.020698912,-0.031470977,-0.030951843,-0.0362374,0.044870988,0.031807788,0.040746532,0.030964956,-0.014981568,-0.03273455,0.03571106,0.020551834,-0.017214313,0.02108872,-0.030835439,-0.041375056,-0.024905426,0.028398864,0.00041793287,-0.022976518,-0.0292297,-0.030264527,0.029446352,-0.034290634,0.037411343,0.027055304,-0.037479,-0.03121919,-0.027255736,0.039846394,0.038928583,0.03034456,-0.021580055,0.021338897,0.031027807,0.032461304,0.03207788,0.033181276,0.019498037,-0.03165461,-0.035816945,0.024345435,-0.024743885,-0.0064234026,0.026298221,0.04776155,-0.029983908,0.032811724,-0.043409802,0.029088069
BTBD11,-0.016039819,0.019320875,0.017278079,-0.015866458,0.010491058,0.019378824,-0.018872194,-0.024200736,-0.017313581,0.0067927223,-0.019960742,-0.018229077,-0.038652495,0.014823649,-0.0275334,0.017473754,0.03235654,0.030445468,-0.017122187,0.0029078033,-0.011482112,-0.036169052,0.0066090077,0.01501561,-0.0154391825,-0.031418867,0.020330336,-0.02048292,0.0299371,0.013502736,0.008201886,-0.029942106,0.0075209513,0.037239064,0.019967323,0.026994199,-0.016615689,0.022067636,-0.01774095,-0.024517866,0.02624235,0.024959344,0.0360923,-0.020756021,-0.0101318285,-0.017155379,0.0013195314,-0.017598044,-0.026876168,-0.0233315,-0.019928694,-0.02404761,-0.019148953,0.020873804,0.016458653,-0.016787224,0.032995462,-0.0013948493,-0.03333935,-0.011685658,0.018364206,-0.02386403,0.04477799,-0.014191013
PHLDB2,-0.0502997,0.034706794,0.043297075,-0.038026508,0.038004365,0.05507712,-0.065708496,-0.051352855,-0.047441974,0.049305886,-0.062397376,-0.059439346,-0.062765725,0.042405266,-0.046374623,0.056151733,0.055293757,0.050459098,-0.050340854,-0.039842047,-0.051936537,-0.07917756,0.021982208,0.04146418,-0.050114747,-0.05933382,0.058717325,-0.05572009,0.05301823,0.049737144,0.033729326,-0.055755503,0.026858717,0.0715508,0.04831314,0.051200584,-0.056722265,0.06387615,-0.03754559,-0.071561515,0.04345069,0.057737976,0.05578803,-0.046361353,-0.05053546,-0.050037324,0.016043622,-0.046333075,-0.06430151,-0.050654717,-0.046787262,-0.043813866,-0.03488968,0.059579946,0.03911525,-0.06578858,0.06253745,-0.019966584,-0.054807473,-0.045934346,0.06422083,-0.054949686,0.067066394,-0.043030474
ZEB2,-0.07703775,0.061407134,0.070143215,-0.04619831,0.05989035,0.08671585,-0.08731255,-0.0745991,-0.07342393,0.062377766,-0.081173554,-0.08100477,-0.09082226,0.071141556,-0.08206951,0.0806396,0.09621384,0.09823522,-0.09126885,-0.043978497,-0.0754589,-0.11144091,0.03476347,0.06955541,-0.08146249,-0.08774313,0.070690945,-0.079587415,0.10168482,0.0792235,0.05474516,-0.096372,0.016501606,0.10971575,0.083681405,0.09503495,-0.077187285,0.08825004,-0.07942916,-0.09725633,0.090589136,0.089487374,0.0988214,-0.083608754,-0.07236556,-0.077031806,0.03528471,-0.06327603,-0.09418075,-0.09222672,-0.079754636,-0.085460395,-0.05705906,0.0791495,0.07826614,-0.077186905,0.09897606,-0.0043972246,-0.095387876,-0.08056778,0.0858091,-0.09128782,0.1274526,-0.068663076
TMEM59,0.023537226,-0.0143083185,-0.010126162,-0.014931582,-0.017118644,-0.022403983,0.014127839,0.010877332,0.014708854,-0.022982458,0.00893797,0.009766801,0.009945577,-0.02115054,0.011762971,-0.016789407,-0.0292494,-0.02541777,0.032219175,0.009522034,0.027519014,0.019442044,-0.0037402771,-0.026159704,0.024723066,0.008519504,-0.0001334548,0.0073509514,-0.026316054,-0.030895602,-0.012682883,0.018920697,0.016205713,-0.013522908,-0.009968203,-0.018165704,0.021346435,-0.022384407,0.033328816,-0.0040001236,-0.036137916,-0.016645703,-0.026816148,0.022900643,0.016390797,0.018191569,-0.020162487,-0.0017349422,0.018010292,0.023116924,0.023260627,0.022853065,0.014457177,-0.022579907,-0.02455632,-0.005423948,-0.011682197,-0.020933751,0.017733667,0.028774474,-0.011686131,0.021757655,-0.038330577,0.02550614
ZFP423,-0.06799409,0.060572863,0.061880626,-0.045936577,0.061242167,0.076194085,-0.084087715,-0.075157724,-0.06930066,0.07178633,-0.08291632,-0.079566,-0.0832912,0.069369584,-0.06874349,0.08230814,0.078540795,0.07987021,-0.07804727,-0.045112878,-0.07460627,-0.09895758,0.035904527,0.05927182,-0.0681992,-0.08755182,0.07227346,-0.07347526,0.088460505,0.07689829,0.05671352,-0.08387099,0.02516742,0.0980614,0.07201396,0.07976709,-0.07321395,0.0881183,-0.06076342,-0.09387833,0.068009086,0.08434658,0.08448228,-0.07070025,-0.06928257,-0.07204958,0.035643082,-0.06943607,-0.09100073,-0.074272566,-0.07703242,-0.07272327,-0.05683967,0.08294909,0.06843213,-0.080447696,0.08809665,-0.017628323,-0.07717499,-0.073059976,0.08287738,-0.086327836,0.10448877,-0.06414226
EDEM1,0.0471609,-0.031873055,-0.026832944,-0.0066598803,-0.03840708,-0.046461776,0.042718347,0.03024981,0.03772235,-0.04750005,0.035417818,0.031937946,0.028057722,-0.042904727,0.03167798,-0.044365168,-0.050317094,-0.049025394,0.05793972,0.028839724,0.051492713,0.045016535,-0.011196122,-0.04624214,0.04773188,0.031295363,-0.018689863,0.027165554,-0.05444775,-0.055048216,-0.03148178,0.045114525,0.015662149,-0.039608,-0.031379096,-0.039305415,0.048093207,-0.04508353,0.05092709,0.0222571,-0.061863273,-0.038413845,-0.052973446,0.0431996,0.036696285,0.04168402,-0.03756503,0.012763474,0.04297246,0.046780016,0.047788337,0.046719555,0.02719637,-0.04719963,-0.046095647,0.014802732,-0.033360727,-0.02302147,0.040138323,0.052478928,-0.037390284,0.042357985,-0.068132386,0.0497884
HIST1H2BB,-0.047414076,0.042076185,0.046623208,-0.032839265,0.038946103,0.053549305,-0.0575088,-0.050833292,-0.047025606,0.0399822,-0.053634346,-0.053117555,-0.06704967,0.047553364,-0.054990873,0.053421557,0.063298166,0.06322345,-0.05562073,-0.021456324,-0.046892285,-0.07572066,0.02147232,0.043356888,-0.04919895,-0.062409263,0.04883375,-0.05412586,0.06811392,0.050279368,0.036593515,-0.06404227,0.012985192,0.07626584,0.05340997,0.06198762,-0.0493968,0.057622515,-0.04699029,-0.064965256,0.05705521,0.059505448,0.06778531,-0.05326583,-0.04499203,-0.048516285,0.018592063,-0.04451838,-0.06357379,-0.057218485,-0.051910654,-0.05458269,-0.038744573,0.053531,0.047619678,-0.05030762,0.06673681,-0.0046554618,-0.064054325,-0.04581182,0.056923933,-0.057648182,0.08309872,-0.043211218
PMS1,0.07396902,-0.046967372,-0.061148997,0.016473234,-0.05799906,-0.07959427,0.075632825,0.0556477,0.063887104,-0.070399754,0.067429185,0.06875416,0.05037225,-0.06924724,0.056193776,-0.07232114,-0.07314838,-0.075746685,0.09327139,0.06154813,0.080846995,0.07887925,-0.03144729,-0.068384096,0.07512281,0.056934554,-0.05168891,0.06026955,-0.07940766,-0.08424412,-0.056672506,0.073385425,0.0007997602,-0.07184121,-0.069879815,-0.070535704,0.07224582,-0.07571602,0.078044504,0.071700096,-0.076606214,-0.07420374,-0.07153055,0.07718447,0.07645287,0.06747858,-0.048164453,0.049044125,0.074187644,0.077255994,0.06816709,0.07007223,0.039171938,-0.07210079,-0.07564827,0.06201607,-0.06834408,-0.0035659187,0.065499544,0.0885523,-0.0760081,0.074297585,-0.09511561,0.06749973
MIR7063,0.16223072,-0.09768288,-0.12719128,0.056271695,-0.13754074,-0.15240948,0.16310102,0.12826885,0.13459116,-0.14716293,0.15143663,0.14964983,0.12592873,-0.1417825,0.13359374,-0.16764672,-0.14154889,-0.1581306,0.17604376,0.12300865,0.176377,0.17343962,-0.061499204,-0.13403034,0.15318558,0.14724599,-0.11755076,0.13222335,-0.16183507,-0.17141561,-0.11883464,0.15829468,-0.016012609,-0.16174021,-0.15034606,-0.16124621,0.15219969,-0.16252136,0.14268556,0.17478523,-0.15352716,-0.14437437,-0.1563635,0.13638356,0.13989706,0.13714598,-0.096398376,0.10559549,0.1620563,0.15755051,0.16132899,0.14363773,0.087131366,-0.16120082,-0.15594368,0.1358569,-0.14445686,0.0069660954,0.14098729,0.17886917,-0.1654377,0.14747989,-0.1912962,0.14297138
DIDO1,0.00036565214,0.009075023,0.0055692457,-0.021002326,0.009765655,0.0038487315,-0.014595691,-0.011114328,-0.0111352205,0.008084254,-0.017809555,-0.014577127,-0.01319061,0.002075415,-0.008350531,0.012896217,-0.006279313,-0.0040873094,0.0036839917,-0.0075690337,-0.0014172122,-0.009888541,0.002926208,-0.0046297014,0.00020154193,-0.021186132,0.01857191,-0.012141503,0.005469065,-0.0011511333,0.005752517,-0.0127907805,0.016576491,0.015137931,0.011283986,0.0049673254,-0.009331595,0.0073215216,0.010337051,-0.02695554,-0.006832714,0.010513306,-0.0028984942,-0.0004148255,-0.0052832966,-0.0045790737,-0.005402934,-0.019304473,-0.009845139,-0.0049089193,-0.0034753159,-0.0014205836,-0.0017594136,0.0068264175,0.0023872927,-0.024973912,0.012891911,-0.019673754,-0.0060477294,0.0014072284,0.014903851,-0.008763164,-0.0046282653,-0.0028915368
FDPS,0.010586001,-0.0034377128,-0.0024567582,-0.016072515,0.00038051978,-0.009529173,0.0061340593,0.0038756225,0.0006742105,-0.008208223,-0.0038474835,-0.001507243,0.008026211,-0.009441927,0.0062420834,-0.0054301396,-0.023073524,-0.015729304,0.020217653,-0.00092301704,0.01010026,0.010382898,-0.0017006844,-0.018110108,0.012255432,-0.003860578,0.0038482025,-0.0005120933,-0.014596388,-0.017171413,-0.0067474563,0.006591387,0.020013668,-0.009233993,-0.001449002,-0.012703008,0.006469745,-0.009038202,0.020523913,-0.014505692,-0.021570425,-0.0070151947,-0.024293706,0.01169033,0.00089858985,0.0077751866,-0.010701612,-0.0078020412,0.007963361,0.011970554,0.013050318,0.010529716,0.008159669,-0.0068074893,-0.007869121,-0.012447573,-0.0055111796,-0.023396175,0.010420218,0.014820445,-0.002053827,0.009064198,-0.025118463,0.011311505
ZDHHC15,-0.038236614,0.03510359,0.037774324,-0.02763081,0.028897684,0.04381577,-0.04232437,-0.044084445,-0.03760181,0.026991466,-0.041916966,-0.040475916,-0.058880594,0.03535142,-0.0482813,0.04066196,0.056574818,0.055678878,-0.045379795,-0.013588497,-0.035055473,-0.064581044,0.017419413,0.03495162,-0.040539365,-0.05281523,0.038732033,-0.04266693,0.057018,0.03774004,0.02435851,-0.05409702,0.012289874,0.06381606,0.043962963,0.05182326,-0.038100153,0.046913527,-0.04125403,-0.051225573,0.049835864,0.049772978,0.059314247,-0.044561096,-0.03271111,-0.038495515,0.013407793,-0.03574463,-0.052523606,-0.0485742,-0.041805327,-0.0461323,-0.034701865,0.04330811,0.039795674,-0.038869005,0.0577774,-0.0037751757,-0.056604944,-0.038074773,0.04304704,-0.049500525,0.07609426,-0.03393637
RHOX6,-0.25643814,0.04943408,0.09215512,0.07299877,0.12129216,0.24833742,-0.26048726,-0.07716685,-0.17641398,0.19010422,-0.17908669,-0.23231894,-0.08376482,0.25992903,-0.1275025,0.20110472,0.2069672,0.23910041,-0.24962555,-0.20155188,-0.20403904,-0.19633266,0.055923,0.17020944,-0.21465862,-0.09840159,0.06508927,-0.16993979,0.22482367,0.21376318,0.15446277,-0.23390394,-0.06430357,0.16471559,0.1300755,0.1840201,-0.20310251,0.21808,-0.21366054,-0.18709898,0.262009,0.114692524,0.21736094,-0.23283857,-0.19244607,-0.21199767,0.1774329,0.0025744196,-0.15972643,-0.23226479,-0.20036155,-0.22208636,-0.03266013,0.2062332,0.14065987,-0.07683916,0.15616134,0.08181797,-0.18183486,-0.15745269,0.20561314,-0.08730921,0.23900966,-0.21648957
TIMELESS,0.05503681,-0.026742794,-0.029668547,-0.0055657625,-0.03304538,-0.047623903,0.046403427,0.03162413,0.03827001,-0.051423706,0.03310372,0.03248562,0.032098338,-0.045306884,0.038625464,-0.047812965,-0.05721739,-0.05599793,0.05882655,0.029375466,0.063332856,0.050356098,-0.00908903,-0.049828168,0.045561418,0.03089327,-0.022032157,0.028260827,-0.05731101,-0.055504385,-0.03803107,0.05643914,0.016404696,-0.048828013,-0.038604163,-0.05098017,0.054721713,-0.046684325,0.053885058,0.028267775,-0.06728754,-0.039332554,-0.0685094,0.04519809,0.03182587,0.044665612,-0.04143109,0.010973593,0.042433176,0.05151635,0.053984858,0.04895048,0.028642893,-0.04878626,-0.05080944,0.017783612,-0.0411345,-0.023814436,0.04253122,0.0558339,-0.039994016,0.04023611,-0.071028106,0.05115382
SLC25A4,0.008075718,-0.006002538,0.0041709617,-0.020941518,-0.007128667,-0.0055043157,-0.0049323123,-0.0031894073,0.0011318885,-0.0022985637,-0.007693507,-0.007371337,-0.006623881,-0.004161481,-0.0019282545,0.00072444044,-0.012733576,-0.009634863,0.014634099,-0.0012817662,0.007848471,-0.0010066181,0.0028782636,-0.013929386,0.011470601,-0.009530891,0.013732068,-0.0092260055,-0.007679034,-0.011613619,0.0023919288,-0.002403833,0.017977268,0.008662224,0.008686807,-0.0007450916,0.0042004418,-0.0028181635,0.018988239,-0.023994815,-0.020694636,0.0036353692,-0.008940807,0.0057675783,0.0006715474,0.005005547,-0.014172621,-0.016222328,0.0010201633,0.006079264,0.009399332,0.008025158,0.007331103,-0.005589934,-0.009643711,-0.024010807,0.005681649,-0.022728514,0.0055914707,0.011685256,0.00811328,0.0034843683,-0.01820637,0.011855235
TNK2,0.040955167,-0.01507853,-0.024652442,-0.0070645567,-0.018012127,-0.04217173,0.032149065,0.018749839,0.02923201,-0.030905396,0.025336184,0.022752203,0.01584932,-0.034231365,0.02991262,-0.030733882,-0.0489406,-0.049588617,0.049705416,0.027237298,0.048477337,0.040548988,-0.010387063,-0.040879942,0.038319416,0.0136644505,-0.015687495,0.02347608,-0.03963827,-0.040778108,-0.030238716,0.037054993,0.018068358,-0.03287877,-0.034041945,-0.038691062,0.04326406,-0.030969117,0.04762011,0.018417548,-0.049298797,-0.027858006,-0.055300023,0.03457815,0.026962535,0.034335494,-0.035963688,0.00019097049,0.027944224,0.04552053,0.03750304,0.033203963,0.023151595,-0.037546046,-0.04361006,0.012183722,-0.036105715,-0.020186078,0.03190696,0.046817046,-0.031420752,0.03175462,-0.05903983,0.03835941
MSH6,-0.011233676,0.017716974,0.014617197,-0.024562519,0.019993428,0.018730154,-0.02620847,-0.018501919,-0.022395663,0.02419923,-0.030214,-0.02598963,-0.014059193,0.016868819,-0.014214055,0.026542611,0.006660058,0.010569187,-0.008911632,-0.02101653,-0.020216122,-0.020524312,0.010929108,0.0051552504,-0.012966685,-0.030700754,0.024496838,-0.022539355,0.017636556,0.013206717,0.018359242,-0.021399371,0.022572778,0.020632086,0.021298314,0.016529575,-0.023138657,0.021461055,-0.0021421686,-0.03921591,0.0052891495,0.02194833,0.005345771,-0.015269605,-0.022696579,-0.017627846,0.0054455213,-0.029575018,-0.019360164,-0.014113344,-0.014451541,-0.015988328,-0.0051732734,0.021349384,0.01700458,-0.03689236,0.01754827,-0.02227069,-0.013479546,-0.014259074,0.026240889,-0.020564884,0.010032723,-0.013386857
MCM5,0.029197162,-0.011174187,-0.020089831,-0.0061106496,-0.014856651,-0.025583437,0.016457163,0.013127042,0.014686182,-0.02187605,0.014200836,0.015691048,0.00821746,-0.025290947,0.013535662,-0.019000284,-0.029589526,-0.030518606,0.03670155,0.019992149,0.030570474,0.021953776,-0.010520734,-0.027310302,0.028074874,0.007845111,-0.0062363297,0.014273323,-0.022364568,-0.032152247,-0.016379165,0.017294064,0.007092759,-0.012159597,-0.017040633,-0.020722024,0.02052731,-0.023505487,0.033310622,0.0108748935,-0.032019455,-0.019142302,-0.024916712,0.029671965,0.026852574,0.021784905,-0.02043766,0.0075550918,0.020143168,0.02282586,0.023005959,0.025638614,0.01273049,-0.02365745,-0.025357017,0.007912286,-0.015461497,-0.01212072,0.018429235,0.034839816,-0.01765392,0.019875366,-0.0377248,0.021457301
CDKN1A,-0.1069185,0.081992775,0.09754508,-0.059695613,0.08698569,0.11502017,-0.12092872,-0.10051549,-0.09499277,0.09459212,-0.11416689,-0.11642568,-0.117860585,0.10132755,-0.1057836,0.114944145,0.12078718,0.1261258,-0.12919588,-0.070061676,-0.11259921,-0.14638394,0.045741737,0.09554682,-0.11034104,-0.11625509,0.098128885,-0.10872495,0.12485789,0.11327164,0.078298375,-0.12666918,0.02822502,0.14029387,0.11084029,0.123341136,-0.11080207,0.124414906,-0.10059042,-0.13489689,0.1120606,0.12230392,0.12233877,-0.11518916,-0.102800496,-0.104576744,0.04888678,-0.09185387,-0.12848698,-0.11937695,-0.10816151,-0.10572538,-0.073824584,0.11501014,0.105748706,-0.11262931,0.12852491,-0.010551598,-0.12142587,-0.11339542,0.116302356,-0.1210317,0.15680455,-0.094220504
ADAMTS9,-0.034386244,0.028723493,0.030894302,-0.034785785,0.031360287,0.03560432,-0.047839183,-0.043710575,-0.032958854,0.04301274,-0.048547443,-0.048326705,-0.05618981,0.0343947,-0.033049967,0.044723697,0.0363508,0.030456629,-0.035403237,-0.026443448,-0.0360161,-0.051925227,0.022521377,0.02639772,-0.031078618,-0.04839725,0.04109665,-0.040967353,0.03543346,0.03849392,0.025159547,-0.040569957,0.029372953,0.052282654,0.037088245,0.040769834,-0.041066315,0.047024757,-0.017068684,-0.060668245,0.022658434,0.04818888,0.033850867,-0.03250612,-0.034718864,-0.032783892,0.007746797,-0.04735267,-0.048967667,-0.030775659,-0.030474596,-0.029513005,-0.024231747,0.041934937,0.027778417,-0.051141094,0.04612341,-0.022467535,-0.037667852,-0.029600192,0.041155055,-0.042211413,0.039176308,-0.028184123
GM10259,0.066811085,-0.04255391,-0.06033847,0.015428413,-0.0532706,-0.073429644,0.06949335,0.05064813,0.05822268,-0.06232716,0.062804885,0.06325491,0.04545279,-0.06570073,0.050626684,-0.06539503,-0.06780521,-0.07085029,0.086857885,0.05542498,0.07481001,0.07310401,-0.029255511,-0.06326944,0.0695031,0.054794405,-0.044511832,0.057591178,-0.07300769,-0.07700768,-0.05341503,0.06848315,0.0013199449,-0.062730536,-0.065854095,-0.06638693,0.06758677,-0.06910008,0.069756344,0.06624979,-0.06851405,-0.06742333,-0.065421194,0.07178531,0.07464537,0.062077306,-0.042187445,0.048027806,0.067262456,0.07102397,0.06367414,0.06484291,0.037211612,-0.065362185,-0.069127485,0.05901351,-0.06478944,-0.0066834576,0.060700726,0.082979456,-0.07017979,0.067879826,-0.087802626,0.060610615
HMGA1B,0.023357678,-0.031887922,-0.032183986,0.011902846,-0.01493313,-0.021064153,0.043309513,0.03653896,0.024006173,-0.017224602,0.027410813,0.014397878,0.046358854,-0.020857472,0.034483094,-0.04247279,-0.04785282,-0.036950566,0.042421687,-0.001050476,0.008391395,0.0494451,-0.009949591,-0.030791396,0.026861407,0.031963844,-0.03604403,0.03206055,-0.048354253,-0.041395016,-0.026665458,0.02792982,0.0218416,-0.06006658,-0.032918,-0.03291551,0.02744105,-0.027233554,0.03053013,0.029160608,-0.026803508,-0.04708934,-0.052934673,0.026360711,0.017105587,0.023663502,-0.010218922,0.027776105,0.041847885,0.029958356,0.0381307,0.024450302,0.020931594,-0.03066658,-0.025074076,0.024440631,-0.039828524,-0.025455732,0.042016257,0.032554414,-0.036441192,0.040659547,-0.06087375,0.018616304
SUN2,0.055955768,-0.03650468,-0.0398204,0.0036053583,-0.045257196,-0.056215905,0.050724585,0.037900776,0.0426137,-0.05146224,0.0432586,0.044641916,0.033,-0.04918026,0.036499023,-0.05200576,-0.054151513,-0.054806795,0.06708284,0.044110022,0.060621522,0.054210424,-0.020442378,-0.051338106,0.05558899,0.03593422,-0.03190726,0.036807045,-0.055810776,-0.063389294,-0.03888496,0.047016077,0.0028148144,-0.045208216,-0.045367837,-0.048479743,0.052299976,-0.0510165,0.058049053,0.042661462,-0.06355587,-0.048516795,-0.05140711,0.05398706,0.055385962,0.0489975,-0.035599004,0.02816355,0.051944077,0.053450562,0.04990883,0.0525172,0.029458296,-0.053407304,-0.05245877,0.033541627,-0.04492537,-0.009020619,0.04395098,0.06497971,-0.05061865,0.05054474,-0.07251997,0.051920466
NFATC3,0.059530333,-0.037307322,-0.047629885,0.008555777,-0.04510651,-0.062344402,0.05617061,0.04203821,0.04664783,-0.055798016,0.050211996,0.05167501,0.03721334,-0.055401903,0.042472977,-0.056135807,-0.05940398,-0.061881166,0.07437746,0.047983468,0.06686911,0.06280866,-0.023905966,-0.05517596,0.0594712,0.041617494,-0.036952205,0.044921845,-0.060473934,-0.06792295,-0.043331116,0.05519203,0.0016459972,-0.05316545,-0.05198835,-0.054699503,0.05700531,-0.059781633,0.06255473,0.051403303,-0.06420007,-0.05596807,-0.058489095,0.062304158,0.06098806,0.05361577,-0.037619546,0.03493239,0.05628144,0.059482783,0.053865977,0.05554206,0.03256253,-0.057773113,-0.058963027,0.04399266,-0.051840343,-0.00690509,0.049603272,0.07118708,-0.05724349,0.05729849,-0.07871036,0.05317492
HYOU1,0.07346368,-0.04408876,-0.044754602,0.005656719,-0.06035734,-0.0654602,0.06959063,0.05213006,0.058886565,-0.07056374,0.058064096,0.05338679,0.05058629,-0.061372425,0.05115628,-0.07173833,-0.07002551,-0.06810318,0.08217275,0.043696344,0.077575244,0.068781585,-0.01719337,-0.06416684,0.06505231,0.05653872,-0.036422372,0.04396932,-0.07741342,-0.07948015,-0.04801116,0.074605234,0.011677206,-0.066906504,-0.053913742,-0.065227784,0.070598945,-0.068430714,0.06656057,0.05431925,-0.08130892,-0.06077691,-0.077834845,0.060568072,0.050125647,0.05875682,-0.04859072,0.030809315,0.0677215,0.065325975,0.0726969,0.06643635,0.038536556,-0.069663964,-0.06825479,0.03441067,-0.053242177,-0.02258559,0.05803993,0.07642714,-0.059582412,0.060870625,-0.09157501,0.07055532
GM14303,0.1543956,-0.093453415,-0.11960812,0.059438407,-0.11621587,-0.14541055,0.15609956,0.1230099,0.13087803,-0.15081841,0.14126518,0.13169575,0.119368404,-0.12912874,0.13151966,-0.1574059,-0.14517142,-0.15448767,0.16365072,0.12445982,0.17865561,0.17942633,-0.058986686,-0.1288229,0.14103422,0.14023869,-0.12319696,0.13203713,-0.16378708,-0.16532901,-0.12344504,0.16810939,-0.017185535,-0.17304729,-0.15681052,-0.16150297,0.1598532,-0.15040864,0.13287623,0.15921676,-0.14801364,-0.14520028,-0.16132781,0.12878631,0.1310019,0.13796337,-0.094224006,0.09972095,0.15834819,0.14837274,0.15860885,0.13474467,0.0908981,-0.15677848,-0.15699741,0.13986889,-0.14731857,0.006451424,0.13289678,0.17814805,-0.16564642,0.1443071,-0.19064736,0.13786136
TCEAL9,0.030950919,-0.012189519,-0.012024293,-0.013637243,-0.018419052,-0.028598724,0.020464946,0.012992019,0.019098446,-0.025905525,0.014267981,0.012656934,0.009999109,-0.023702562,0.018108658,-0.019853715,-0.036917437,-0.033220854,0.03883585,0.016806437,0.0370139,0.023002818,-0.0024072863,-0.031152593,0.028823586,0.00874028,-0.0038626045,0.009377345,-0.030356212,-0.032570355,-0.016861623,0.023163244,0.016881347,-0.017664384,-0.013029506,-0.02540645,0.028633565,-0.02483139,0.036870763,0.0004649423,-0.0443365,-0.014261914,-0.036353763,0.024359832,0.017522132,0.025652088,-0.029279279,-0.0077550947,0.019894652,0.028425,0.030718125,0.026649088,0.016590137,-0.02420454,-0.03188446,-0.002718076,-0.016659819,-0.025899034,0.02159205,0.033742785,-0.016684823,0.020389292,-0.04369031,0.03295822
FGF3,-0.046615433,0.033056334,0.041023985,-0.041712523,0.03704002,0.053406082,-0.060863953,-0.05086256,-0.045272045,0.045815498,-0.05911487,-0.055541996,-0.061711952,0.039938573,-0.04479337,0.053837672,0.051103048,0.04785685,-0.046531513,-0.03779494,-0.051276937,-0.07491064,0.022676572,0.040593855,-0.045823965,-0.056982383,0.05412864,-0.05194541,0.05157796,0.044451494,0.033196427,-0.051817544,0.02679123,0.07124831,0.047102734,0.049171507,-0.054173946,0.057645164,-0.037848175,-0.06955005,0.04319828,0.054771,0.056185607,-0.042054553,-0.047004387,-0.045783736,0.015137587,-0.042553075,-0.058483444,-0.051364116,-0.04422714,-0.045086358,-0.033235814,0.05551231,0.03916426,-0.06390932,0.060772456,-0.02285647,-0.05279211,-0.04430263,0.061322406,-0.05427228,0.06446669,-0.038583916
MIR186,0.16145957,-0.100493655,-0.13473263,0.061591923,-0.13310596,-0.16208018,0.16863282,0.13100192,0.1411516,-0.15051875,0.15745673,0.15455568,0.12728788,-0.14583787,0.1337378,-0.16781811,-0.14636962,-0.16323765,0.18386413,0.13117678,0.17432344,0.18230723,-0.06871941,-0.13802868,0.15699363,0.1475381,-0.12498985,0.14365308,-0.17183596,-0.17430793,-0.12662056,0.16431803,-0.016293071,-0.17321499,-0.15934479,-0.1616777,0.1606849,-0.16642866,0.14983597,0.18149659,-0.15186144,-0.15841056,-0.15694027,0.14596266,0.1547092,0.14222838,-0.096700504,0.11892093,0.16661286,0.16438371,0.15853713,0.14837584,0.09053427,-0.16719747,-0.16191152,0.15038043,-0.15680552,0.016070474,0.14743595,0.18223456,-0.17242795,0.15796073,-0.19835435,0.1427376
PCBP2,0.044471957,-0.01910548,-0.025749136,-0.007441025,-0.022867292,-0.043028653,0.03416886,0.021989426,0.028011225,-0.03994281,0.025505148,0.025477877,0.021723239,-0.03949075,0.02940192,-0.03520957,-0.052048065,-0.04872255,0.05354728,0.023385854,0.051523622,0.040195547,-0.012084551,-0.04113408,0.03954752,0.019508168,-0.014944762,0.025131136,-0.046071917,-0.046630207,-0.030723402,0.03893783,0.014964566,-0.03510473,-0.031126322,-0.038765185,0.04124008,-0.038654942,0.050564755,0.019783478,-0.056015186,-0.03247769,-0.054254577,0.039828535,0.03142126,0.035718866,-0.03648251,0.0069277007,0.03219258,0.043757964,0.040988013,0.0397311,0.023680558,-0.039181314,-0.04263948,0.0113505125,-0.033040427,-0.02082887,0.033145066,0.047662154,-0.03239288,0.033661626,-0.06093446,0.04200286
GM9385,0.07564509,-0.0435499,-0.050507717,0.008646082,-0.047705688,-0.07137698,0.07007767,0.04743281,0.060771637,-0.070667624,0.05664388,0.054128822,0.0449597,-0.067744054,0.05779289,-0.07402602,-0.07724491,-0.08094446,0.08119471,0.050391875,0.08998062,0.07843642,-0.0237177,-0.06516732,0.06811396,0.053820353,-0.042779967,0.05316727,-0.07612597,-0.079836786,-0.05862636,0.07680222,0.0076385885,-0.071847916,-0.06473654,-0.07340765,0.0800962,-0.06759187,0.072799295,0.06051478,-0.08419394,-0.062035702,-0.08887768,0.06553124,0.05694125,0.06293687,-0.055586774,0.031748064,0.06640801,0.07462735,0.073418334,0.06753201,0.040596902,-0.075433,-0.07560523,0.044891052,-0.06632238,-0.01829144,0.06096066,0.08630507,-0.06630288,0.06489006,-0.0993313,0.069890946
TRIB3,-0.034339506,0.03716837,0.036103792,-0.032542102,0.029720154,0.037360556,-0.041731544,-0.043825123,-0.036392473,0.028201526,-0.040830597,-0.039798092,-0.059206545,0.03224862,-0.04451798,0.04184281,0.048390742,0.04706374,-0.037850462,-0.011225745,-0.03241822,-0.05948096,0.016495652,0.031103447,-0.032819074,-0.0522741,0.041916203,-0.04029651,0.051230375,0.036372136,0.02433616,-0.050388463,0.016343072,0.06498656,0.040276177,0.04806222,-0.03454076,0.045612276,-0.033060536,-0.051968046,0.041826557,0.04927162,0.054359604,-0.039530892,-0.0302742,-0.03525071,0.010080602,-0.039158583,-0.05143016,-0.041736417,-0.040381707,-0.042889778,-0.0337749,0.042331576,0.03587284,-0.04254316,0.053093158,-0.007264074,-0.05176495,-0.033139523,0.041253734,-0.047425583,0.06606822,-0.030502107
TBRG1,0.042997535,-0.026101857,-0.020812325,-0.01157744,-0.03377808,-0.04027898,0.040474836,0.028988106,0.031918734,-0.0451606,0.027998284,0.02630276,0.028297303,-0.035348702,0.029084839,-0.03939411,-0.04643167,-0.044155043,0.051296715,0.024410425,0.046409212,0.03961283,-0.0056440607,-0.040734105,0.03881292,0.02744639,-0.016717196,0.021351747,-0.051963475,-0.050160818,-0.027821036,0.044483744,0.018096916,-0.041632168,-0.026846658,-0.03627824,0.044714816,-0.03926746,0.045564126,0.016393889,-0.060277827,-0.03366004,-0.051345088,0.037746686,0.027364075,0.037945002,-0.03243148,0.00785437,0.03786102,0.040376358,0.04464763,0.041098308,0.021902975,-0.039397128,-0.041179903,0.009556502,-0.031865373,-0.027318668,0.03434371,0.04501183,-0.03232018,0.036053613,-0.060311556,0.045249447
LBHD1,0.0627233,-0.03969443,-0.04786311,0.0055549294,-0.04719233,-0.06912012,0.068551525,0.046290778,0.052727856,-0.06230343,0.058480002,0.05677995,0.047018662,-0.06235823,0.04588459,-0.066254236,-0.06831221,-0.06979263,0.0809993,0.048035733,0.06847865,0.06935011,-0.02653651,-0.060302358,0.062222935,0.051628586,-0.039217584,0.049100637,-0.07366756,-0.074616164,-0.05132916,0.06600141,0.008305661,-0.06378189,-0.05568307,-0.06182863,0.06802514,-0.065912865,0.06932168,0.053632703,-0.07148413,-0.06324038,-0.069692776,0.0654242,0.06109252,0.05844699,-0.043178745,0.03701584,0.060894966,0.06759647,0.062374514,0.06170959,0.03287661,-0.06510717,-0.06349282,0.04559412,-0.05749107,-0.01700386,0.05618267,0.076374024,-0.063519135,0.061879054,-0.08821327,0.06037535
PFKL,0.01607059,0.003922403,0.0020577274,-0.021902418,-0.007555533,-0.010855537,0.008618034,0.004421195,0.0056869537,-0.002281947,-0.00474672,-0.0031712018,0.0021110289,-0.0011492558,0.009510127,-0.0020511374,-0.020521007,-0.019801483,0.019884458,0.00020733848,0.017823622,0.009394765,0.010272481,-0.017885009,0.014946565,-0.008867696,0.0053051487,-0.004622437,-0.018827623,-0.0076024663,-0.0015919078,0.009069674,0.026058696,-0.0132460855,0.00655568,-0.011347548,0.01242809,-0.0029678196,0.022071209,-0.024030272,-0.036959328,0.0068331435,-0.031704776,0.006416459,-0.001311407,0.017151374,-0.018313233,-0.029007938,0.0030065319,0.017025985,0.019132283,0.011196217,0.008531405,-0.00069095753,-0.015948445,-0.019559901,-0.011919603,-0.03463119,0.011735208,0.0079070665,-0.003490433,0.0046548657,-0.02814799,0.019127946
GLDC,-0.03261246,0.019904226,0.014424168,-0.020037726,0.024785783,0.036614537,-0.033292577,-0.021315347,-0.03250939,0.034446374,-0.030644737,-0.03451312,-0.022497077,0.027226333,-0.024308212,0.035923366,0.02555031,0.032670874,-0.02007036,-0.026082532,-0.039515093,-0.038794164,0.012415737,0.018217519,-0.025467675,-0.031331003,0.027650103,-0.027253203,0.038159516,0.021747917,0.027378093,-0.03598383,0.020243347,0.03966215,0.02815379,0.031131215,-0.032753456,0.034344576,-0.02350882,-0.042055804,0.03245453,0.025507867,0.034230914,-0.018552763,-0.032154568,-0.031510167,0.021761667,-0.016257595,-0.028154077,-0.032877333,-0.03015738,-0.03545207,-0.02193952,0.038336724,0.0270693,-0.033013273,0.034340195,-0.020790745,-0.02664401,-0.024304602,0.03740226,-0.02712991,0.030907067,-0.031740706
LDLRAP1,-0.033621993,0.026573405,0.033301122,-0.030902468,0.030229058,0.037649516,-0.0456902,-0.040657084,-0.03143697,0.03561043,-0.045746524,-0.043621715,-0.057391487,0.03167003,-0.037227064,0.039665375,0.041054487,0.03589763,-0.03531953,-0.018453432,-0.03538032,-0.059178147,0.018300436,0.031334408,-0.033532042,-0.047128804,0.039778523,-0.043907076,0.03758723,0.034828518,0.023038466,-0.03979663,0.02204869,0.05486063,0.038657196,0.039968643,-0.039859615,0.046554074,-0.021094956,-0.05395652,0.02821159,0.047378853,0.040476594,-0.03405193,-0.03261403,-0.031806678,0.0046729073,-0.040208332,-0.04867851,-0.033753462,-0.032259293,-0.030775975,-0.028128639,0.041645613,0.027034283,-0.04741346,0.04739748,-0.019746121,-0.04257143,-0.026733447,0.041252702,-0.043638602,0.047240272,-0.028562628
SPRY4,-0.14731188,0.10885303,0.11177697,-0.057381876,0.11519107,0.15745334,-0.15785019,-0.12711838,-0.13241729,0.13320206,-0.14022377,-0.15326811,-0.13430642,0.14125739,-0.12749141,0.15137379,0.15906471,0.16765419,-0.1696531,-0.10214884,-0.1480738,-0.18331322,0.06048978,0.12243334,-0.14609881,-0.13743973,0.122845575,-0.1350351,0.17675152,0.15312053,0.113029346,-0.1694848,0.018910207,0.17330769,0.13896507,0.16378637,-0.14533682,0.15804307,-0.14282072,-0.16474791,0.16090937,0.14804901,0.1690062,-0.15319277,-0.13892817,-0.14693098,0.08464502,-0.101799496,-0.16462184,-0.15735385,-0.1442183,-0.14803435,-0.09385188,0.15462643,0.13765562,-0.1266464,0.16187379,-0.004766155,-0.15077612,-0.14930466,0.15303996,-0.15103751,0.20645599,-0.13399033
ATP6V0A1,0.07589581,-0.04607086,-0.055205423,0.011585277,-0.060575742,-0.078442544,0.07906404,0.052998886,0.0623345,-0.067326136,0.06824532,0.06380117,0.04652293,-0.068272606,0.06157611,-0.07866353,-0.076107845,-0.08287926,0.09310271,0.060237408,0.087874725,0.081772074,-0.02512281,-0.06784509,0.07480465,0.061538626,-0.048401326,0.058259293,-0.0802304,-0.08445737,-0.05553878,0.07518292,0.005410962,-0.07017244,-0.06463342,-0.06995924,0.08448063,-0.07121251,0.07648189,0.06458029,-0.089993216,-0.060878057,-0.084218696,0.06909027,0.06647734,0.072246276,-0.056180675,0.033027455,0.070516385,0.08223648,0.079816006,0.07052328,0.0407255,-0.07554607,-0.07975244,0.05059322,-0.070429824,-0.01954211,0.06452958,0.09147283,-0.07260229,0.07075913,-0.10779939,0.078183904
VANGL1,-0.027197223,0.031110883,0.025976695,-0.029740077,0.031100463,0.03704853,-0.050306123,-0.031405672,-0.03912506,0.0404576,-0.049619544,-0.04380329,-0.029827006,0.033441197,-0.029228833,0.04707011,0.026160458,0.027658068,-0.028860867,-0.03689149,-0.036732987,-0.04103355,0.015358649,0.019295134,-0.029219922,-0.047367882,0.04061013,-0.035781153,0.035884332,0.031347346,0.03418308,-0.041006505,0.019373342,0.04165032,0.037008412,0.036265608,-0.04424081,0.03922099,-0.015367918,-0.060022842,0.023078155,0.03904085,0.027582105,-0.03136981,-0.034611,-0.03239675,0.016346537,-0.038803384,-0.036482595,-0.03349226,-0.031064615,-0.029924188,-0.01393662,0.041719526,0.033190034,-0.051877394,0.03881054,-0.016948525,-0.029259793,-0.033362437,0.046239883,-0.03839799,0.033314727,-0.029788349
SUN1,-0.009940561,0.023119986,0.02423188,-0.032520514,0.01556607,0.019621987,-0.031910636,-0.024074454,-0.024117872,0.028785257,-0.03735963,-0.030969357,-0.02025298,0.025800485,-0.015523744,0.030473538,0.013508444,0.010358255,-0.01336626,-0.021235231,-0.017779991,-0.023601562,0.018019661,0.0050069764,-0.009364907,-0.041300323,0.029338364,-0.03028164,0.020479355,0.023416251,0.023534896,-0.028025195,0.026013255,0.026436536,0.02988969,0.022449372,-0.023641711,0.029360026,-0.0011477768,-0.04994544,-0.0010410948,0.03442677,0.0053876573,-0.021940934,-0.027490245,-0.01772507,0.004146617,-0.045966476,-0.02939347,-0.013075627,-0.018260896,-0.019096222,-0.0066770874,0.027481997,0.019013532,-0.045691736,0.017658994,-0.021669578,-0.014062522,-0.021405715,0.028476752,-0.026519373,0.014445366,-0.011701826
ZFP281,0.017816406,-0.047036722,-0.055962935,0.03588961,-0.046353485,-0.01236253,0.052253876,0.050931595,0.035148337,-0.038072575,0.042758532,0.032725815,0.06662256,-0.03953644,0.027559675,-0.059842154,-0.04198118,-0.03567012,0.04411277,0.004049422,0.018850878,0.06013523,-0.021381903,-0.036608223,0.04423494,0.071636215,-0.048628524,0.04463257,-0.049771823,-0.046998844,-0.047766037,0.029936187,0.0027955174,-0.0532998,-0.0346259,-0.04586065,0.032558233,-0.04730124,0.033545196,0.05191828,-0.015751315,-0.07187411,-0.042634595,0.04268832,0.028739413,0.0126184905,0.0017044805,0.06598071,0.056979932,0.0354321,0.043093316,0.035141647,0.02139904,-0.052113265,-0.039854493,0.0435083,-0.040621124,-0.017124336,0.042912755,0.06028863,-0.052134484,0.064408034,-0.06521795,0.022312626
ARID3B,0.010017619,0.01205346,0.005241342,-0.023427254,0.005571075,-0.0059376676,-0.009460151,-0.0135978665,-0.0060509034,0.0033571701,-0.012738287,-0.009697608,-0.014810305,-0.0039362833,-0.0044614533,0.008708693,-0.010837459,-0.013662131,0.011188244,0.0015113968,0.0098523125,-0.0050467066,0.0028225482,-0.010321684,0.007023353,-0.02204526,0.017674439,-0.007770635,0.00210369,-0.0026700646,0.0003104601,-0.008284967,0.020615503,0.013763979,0.0063460935,-0.00073801447,0.0015785983,0.0054761544,0.017813446,-0.022177394,-0.017498825,0.012788825,-0.00945125,0.003897326,0.0016080118,0.0014228662,-0.014566708,-0.02753294,-0.011053314,0.004740745,0.002133865,0.0040919036,0.0014171228,0.0006646048,-0.00556463,-0.023261372,0.0061332807,-0.02053124,-0.002886828,0.0075625367,0.009257514,-0.008214004,-0.010981463,0.0047220103
KLF15,-0.0076106116,0.016074032,0.0103691295,-0.017478522,0.006842103,0.0085615255,-0.013787014,-0.017664034,-0.010712627,0.006311329,-0.014669625,-0.0127170095,-0.03271894,0.009728748,-0.017027207,0.014989778,0.017004687,0.014250368,-0.0024437904,0.007232623,-0.0046768337,-0.02612241,0.004181497,0.0067682043,-0.004792433,-0.025649814,0.0174653,-0.014320619,0.018043123,0.0068973415,0.0053829495,-0.017423067,0.010953411,0.029993648,0.011768872,0.015007153,-0.009331862,0.01622222,-0.0048778057,-0.019738805,0.011137229,0.017517269,0.024203643,-0.007940847,-0.0021155882,-0.007838455,-0.004562352,-0.014932469,-0.019339869,-0.010846667,-0.01311107,-0.013825458,-0.014871452,0.01652924,0.0047075637,-0.015273675,0.021399189,-0.0076693743,-0.020999592,-0.0013533719,0.01374273,-0.014777236,0.023240963,-0.006849937
GCNT1,-0.027639676,0.016112804,0.01890349,-0.027310006,0.018924747,0.032448657,-0.036824767,-0.027605774,-0.027746905,0.022960113,-0.034171753,-0.031591892,-0.03199946,0.019217942,-0.028072696,0.03134468,0.02497964,0.024849508,-0.019673217,-0.02406333,-0.026581898,-0.039969914,0.011093929,0.017553374,-0.023035858,-0.030253645,0.034435064,-0.029077202,0.026833031,0.01657812,0.017752448,-0.03176674,0.019295223,0.04393779,0.028597666,0.027345967,-0.032115277,0.0271409,-0.01855991,-0.04683394,0.02378777,0.026747491,0.034937557,-0.01893609,-0.023913689,-0.028524457,0.009113755,-0.02033511,-0.03073745,-0.03146352,-0.02256973,-0.024327707,-0.016612925,0.027414158,0.020355597,-0.03896616,0.03614123,-0.019328754,-0.028505977,-0.019580763,0.036665395,-0.025533505,0.031059714,-0.022768758
SET,0.031492755,-0.0058324635,-0.008438919,-0.019473977,-0.013884854,-0.02033872,0.026455302,0.0170066,0.01605782,-0.021218179,0.0047383904,0.003719911,0.018840788,-0.012334947,0.026289117,-0.023735067,-0.03613641,-0.038866036,0.032145265,0.005658457,0.036334015,0.0287733,0.008401126,-0.03080942,0.022786593,0.009726256,-0.005661726,0.0072540045,-0.038931996,-0.021835335,-0.017858976,0.037216328,0.02779495,-0.03880225,-0.01395691,-0.032629907,0.03225039,-0.017152399,0.029129948,-0.006538946,-0.055581085,-0.010708798,-0.058488898,0.018710751,0.0020691706,0.030333914,-0.023926497,-0.015385137,0.016362932,0.033591907,0.040646266,0.026267484,0.019829199,-0.015913716,-0.028187633,-0.008526027,-0.031913206,-0.037077013,0.0286033,0.023086876,-0.017316297,0.01659422,-0.04751347,0.032365337
EHD1,-0.018309664,0.016001523,0.025112383,-0.030029483,0.015755277,0.027677117,-0.037615225,-0.018585514,-0.025292344,0.030710718,-0.04141061,-0.036538493,-0.018442579,0.02829634,-0.020087432,0.0314515,0.014361574,0.018990017,-0.017560512,-0.035735272,-0.024370626,-0.028803881,0.017564505,0.010431811,-0.015803441,-0.03349912,0.03366062,-0.031735815,0.018165264,0.0209101,0.02811109,-0.02703635,0.023438059,0.024237992,0.037869968,0.023114353,-0.028409317,0.028451696,-0.0053140223,-0.06049218,0.0024316795,0.03148496,0.011821581,-0.024273345,-0.028519915,-0.018271383,0.007698849,-0.03829044,-0.026448028,-0.020718805,-0.015128426,-0.019067626,-0.0057704747,0.030014738,0.019010484,-0.052464973,0.024711229,-0.029434998,-0.014859702,-0.02316371,0.036864877,-0.023075305,0.013812875,-0.01609214
GM45105,0.0836048,-0.051522862,-0.06138885,0.017176349,-0.062735036,-0.0830388,0.08605029,0.061820216,0.069425106,-0.08295155,0.07515086,0.07038556,0.06282112,-0.076387726,0.066392004,-0.086812414,-0.0869574,-0.08852264,0.098155625,0.060682364,0.09762093,0.09253773,-0.030640218,-0.07559351,0.078492075,0.06866604,-0.056161,0.063852236,-0.093378335,-0.09429626,-0.068226084,0.092089064,0.004881151,-0.08786972,-0.07972607,-0.083867945,0.090507045,-0.08250651,0.08424859,0.076829344,-0.09226703,-0.080005355,-0.09485957,0.077107765,0.069531746,0.073185585,-0.057683274,0.045017473,0.08172075,0.08368994,0.0856458,0.07770519,0.04504027,-0.0859478,-0.08354106,0.061215848,-0.07422268,-0.015470054,0.07059005,0.09683442,-0.08320786,0.07758404,-0.10987832,0.079622924
ALG13,0.007104706,0.00450781,-0.0007386282,-0.016213136,0.0053721406,-0.004408816,-0.0042737946,-0.0036384072,-0.0035944283,0.007148184,-0.008635618,-0.008922721,0.0034728702,0.0006621145,0.0070534404,0.0058174245,-0.016436175,-0.011418022,0.014780166,-0.0051553957,0.004104249,0.004955329,0.006286919,-0.012932688,0.006621536,-0.014911208,0.006361887,-0.0060340725,-0.004565213,-0.005299816,0.0019909423,0.0033282265,0.025154434,-0.0037516989,-0.002017132,-0.006572447,0.0027205069,0.0051660053,0.016980495,-0.018321984,-0.016456742,0.0027366802,-0.023250688,0.002628806,-0.008105382,0.0014526518,-0.00930113,-0.020653147,-0.00072446093,0.013130229,0.0071638525,4.4174492e-05,0.008498367,0.0021253396,-0.005048938,-0.019442674,-0.00798998,-0.025173899,0.007347759,0.008466776,0.0021981858,0.0006904304,-0.018274065,0.0068071354
NSD2,0.040935386,-0.03183171,-0.026595283,-0.0039308593,-0.033245884,-0.040886737,0.036093097,0.027325453,0.032660343,-0.0419946,0.030231118,0.027677491,0.024349155,-0.04022589,0.028193392,-0.0416849,-0.04625394,-0.044624034,0.053056404,0.024017544,0.045310866,0.038468555,-0.013981916,-0.041657165,0.04283159,0.027703177,-0.017190918,0.023946956,-0.04753756,-0.05186294,-0.028946789,0.03542728,0.0101279095,-0.033434592,-0.027458433,-0.03521491,0.039569154,-0.042538233,0.04755956,0.021263149,-0.05301099,-0.037967205,-0.04469215,0.042356994,0.034619078,0.035591796,-0.03188042,0.016959669,0.039832734,0.040692106,0.04218027,0.042024624,0.025049882,-0.044015326,-0.042829845,0.013349608,-0.029116578,-0.019752916,0.03603145,0.049512405,-0.033234566,0.041931655,-0.061669834,0.043060504
