,0,1,2,3,4,5,6,7,8,9,10,11,12,13,14,15,16,17,18,19,20,21,22,23,24,25,26,27,28,29,30,31,32,33,34,35,36,37,38,39,40,41,42,43,44,45,46,47,48,49,50,51,52,53,54,55,56,57,58,59,60,61,62,63
MTFR1,-0.017867226,-0.052738998,-0.059135757,-0.06653124,0.007962285,-0.08759999,0.03297725,-0.0076438263,0.062962055,-0.005543243,-0.07327835,0.036444366,-0.027074113,0.04881223,-0.08833417,-0.006759599,-0.059024446,-0.011872165,-0.06792831,0.060791768,-0.036273368,0.07289704,0.044133887,0.09064579,-0.0472854,-0.030480877,0.057690084,-0.08774264,-0.022959191,0.068314895,-0.074366115,-0.048028298,0.023096032,0.0026784828,0.0030147135,-0.054932833,-0.05214273,0.025022171,0.058380067,0.06286284,0.058378376,0.043444246,0.03714762,0.096347325,0.05985578,0.06266482,-0.074928746,-0.05246242,-0.08049357,0.0646927,-0.021605369,-0.058804225,0.056452673,-0.0017320141,-0.08679988,-0.014997229,0.081483364,-0.05922637,0.04639986,0.084151655,-0.019555174,0.058377974,-0.05958383,-0.06690332
CD93,0.036974795,0.06392954,0.08836367,0.09349197,-0.012059914,0.07513583,-0.02469739,0.007422503,-0.05095419,-0.015337862,0.098711886,-0.07280097,0.060606595,-0.09923523,0.084426165,0.030741133,0.039419033,0.059576117,0.061508473,-0.061469205,0.062153194,-0.111042775,-0.057438202,-0.07844007,0.08778609,0.019586377,-0.07775918,0.11926085,0.041018896,-0.06266026,0.11101356,0.051955245,-0.08712893,-0.001921027,0.031390347,0.04697647,0.052212983,-0.075225525,-0.04334297,-0.08809313,-0.06848046,-0.08962275,-0.02732102,-0.12832344,-0.09509962,-0.10838968,0.077146485,0.06631081,0.11973526,-0.061096463,0.0208452,0.087705225,-0.04179836,-0.025986973,0.14067273,0.0006153509,-0.12491372,0.107101806,-0.0025222944,-0.12955126,0.028775249,-0.043225534,0.053475812,0.11055812
WDR5,-0.12514958,0.08935438,0.15212293,0.044089038,0.16690218,-0.010757431,-0.15398528,-0.13878317,0.040412012,-0.23370951,0.079150416,-0.18686114,0.18840608,-0.117176145,0.05701433,0.17268418,-0.05264556,0.22946274,0.018141348,-0.012258358,-0.010930933,0.032917514,0.10711765,-0.079840064,0.11925117,-0.15472835,-0.0028694924,0.09151769,-0.029241163,-0.023342185,0.03901905,-0.041973423,-0.17693171,-0.13086438,-0.12625673,-0.10268407,-0.091462195,0.13935214,0.23652953,-0.09408061,-0.044200215,-0.023180649,-0.17605338,-0.088384405,-0.034188956,-0.122426584,0.072966784,0.07518551,-0.01373262,0.1235829,-0.1311358,0.13362056,-0.13727497,-0.16072223,0.011344017,-0.13028404,-0.13321778,-0.03920698,0.078368224,0.006454479,0.08521448,0.11157026,-0.16499658,0.18415548
JAK3,0.016034942,-0.051699787,-0.040459625,-0.021022364,-0.03972614,-0.037555005,0.055336244,0.03243772,0.025702637,0.03289129,-0.024495862,0.031785972,-0.021285303,-0.010189235,-0.02231031,-0.017753124,-0.015418217,-0.03761045,-0.0140799545,0.02933465,-0.013523854,-0.016478553,-0.023107378,0.063412786,-0.021618456,0.015411943,0.018683089,-0.03606239,0.01071859,0.02169102,-0.005098764,-0.015469432,0.0075298473,0.052212603,0.045274056,0.005872138,0.0035044104,-0.05994166,3.4712255e-05,0.02208073,0.01244184,0.0032660738,0.038341235,0.031893298,-0.0016353056,0.006789457,-0.03810866,-0.032827046,-0.0039331093,-0.00033888593,0.011646483,-0.041263122,0.05328058,0.003560476,-0.007676823,-0.008808244,0.023109999,-0.0013372488,0.017779548,0.00028878078,-0.02384729,-0.0067791734,0.00685852,-0.024479229
GSTM5,0.08788079,0.05815293,0.049103323,0.09552111,-0.05660808,0.11563788,0.016319375,0.07356549,-0.07464562,0.014177978,0.049281515,-0.022226172,0.022684578,-0.048655633,0.053918257,-0.0131878555,0.06872375,0.008409493,0.059885096,-0.11174493,0.040729553,-0.11282543,-0.091764726,-0.07932487,0.0343675,0.07383694,-0.12062359,0.09377307,0.058720976,-0.077232644,0.079397306,0.09833055,-0.040431283,0.036356542,0.041628562,0.10085013,0.06762719,-0.09784058,-0.08670867,-0.0809606,-0.081994444,-0.081174076,0.025879143,-0.109960325,-0.12398886,-0.09446852,0.07130328,0.06967376,0.06931574,-0.08124524,0.043345947,0.0698623,-0.03295672,0.040366806,0.1300889,0.04513011,-0.08777167,0.13298053,-0.051851552,-0.098870486,0.039518718,-0.03725598,0.051452942,0.06980595
MTHFD1,-0.042746995,-0.097596385,-0.10479347,-0.1131337,0.016061636,-0.13021973,0.044090036,-0.020949177,0.103298485,-0.0043894798,-0.10164395,0.057149865,-0.04101424,0.0905458,-0.10941522,-0.0063284263,-0.08968582,-0.041422725,-0.09796531,0.10615024,-0.059820235,0.11958813,0.07560577,0.14253247,-0.08127349,-0.051597398,0.11408476,-0.1374539,-0.049026977,0.09834369,-0.11998106,-0.0818955,0.043362148,0.011429391,-0.0055538416,-0.08404046,-0.07472641,0.05856984,0.083493054,0.10500461,0.0961446,0.08983129,0.042368524,0.1587847,0.10785443,0.10556401,-0.11044315,-0.0948475,-0.11608289,0.08975762,-0.033948682,-0.096354626,0.093647964,-0.009346522,-0.14313366,-0.038416136,0.12595755,-0.10998135,0.070199125,0.13254346,-0.042772673,0.07783128,-0.08189005,-0.11800745
ZFP451,-0.0346828,-0.079587296,-0.07541091,-0.092536375,0.019700283,-0.11995992,0.0322859,-0.020821653,0.0867638,-0.006056927,-0.08400849,0.04074627,-0.03200166,0.054036926,-0.085761696,0.0005556196,-0.07819691,-0.025592886,-0.07855253,0.09134542,-0.04820951,0.094208576,0.06126628,0.12258495,-0.054498583,-0.04365395,0.08872269,-0.11061153,-0.040446177,0.08658162,-0.09320199,-0.06549571,0.031136267,0.006595644,-0.0046553165,-0.079663314,-0.0691847,0.034969695,0.083207,0.08123423,0.07667825,0.06701991,0.03064227,0.12923901,0.0865371,0.079571314,-0.09477727,-0.067443706,-0.09551856,0.08163814,-0.029908046,-0.08363735,0.07797963,-0.014485847,-0.120012805,-0.035395443,0.0963673,-0.09342403,0.061584484,0.09596926,-0.03390532,0.06948694,-0.068823285,-0.07790223
HMGB2,-0.09204726,-0.09338699,-0.09088869,-0.13918209,0.06589914,-0.17083426,0.004514795,-0.056505553,0.13248259,-0.04223241,-0.12127637,0.044234134,-0.018050656,0.08890951,-0.11120045,0.029858828,-0.11042493,-0.014617987,-0.116908,0.13133308,-0.06688026,0.16680562,0.11790248,0.1556531,-0.06139785,-0.09720579,0.15076692,-0.13667361,-0.076676995,0.13079157,-0.13726941,-0.114590585,0.036396466,-0.029446468,-0.042246044,-0.14673957,-0.12210315,0.10880468,0.13414033,0.13347338,0.11882423,0.108992584,0.028841672,0.18255652,0.14813444,0.11735788,-0.11453885,-0.09362211,-0.14883891,0.124358326,-0.068069816,-0.095141076,0.08685902,-0.052973647,-0.18502219,-0.06532206,0.13961726,-0.15381378,0.09879241,0.16100754,-0.042522125,0.1161672,-0.10827409,-0.106495604
CASP1,0.08607603,0.12559064,0.1338423,0.15400493,-0.033879295,0.16058116,-0.023336094,0.037863526,-0.12480633,-0.025019834,0.14901343,-0.10846562,0.067388386,-0.13851917,0.12805846,0.0141854435,0.09269157,0.07848407,0.12480393,-0.14083654,0.093987204,-0.17872241,-0.11805298,-0.16209903,0.09964276,0.07319674,-0.18761285,0.19119886,0.07734111,-0.11989835,0.16596869,0.12855119,-0.08243999,-0.016138759,0.041270815,0.11171014,0.11045787,-0.11660007,-0.108194076,-0.16256328,-0.12842658,-0.15572643,-0.03740988,-0.21418332,-0.17574194,-0.16851415,0.12627287,0.12267728,0.16931129,-0.11648676,0.04383519,0.123467326,-0.101011045,0.022116669,0.23230548,0.043081835,-0.18403944,0.18061489,-0.047580365,-0.20288649,0.06485704,-0.08544602,0.0917494,0.14523539
JUN,-0.19646505,0.29799587,0.40706366,0.21672377,0.29157263,0.15836874,-0.37389362,-0.22334813,-0.05666971,-0.4498225,0.3086797,-0.44295,0.36506766,-0.30747485,0.26984996,0.33267,0.009802856,0.45331797,0.13456129,-0.14932978,0.09494859,-0.07754313,0.10034869,-0.3034001,0.35378245,-0.20361373,-0.18299337,0.36133987,-0.0065418854,-0.15198828,0.21494895,0.069438465,-0.38590813,-0.32109442,-0.21887287,-0.106685735,-0.08854462,0.22711208,0.27562377,-0.30579603,-0.2019419,-0.18642548,-0.34586945,-0.36803475,-0.17902184,-0.37993068,0.26646417,0.27959266,0.11015115,0.06498818,-0.20802276,0.36858723,-0.388846,-0.2969992,0.23601355,-0.15727106,-0.3954379,0.115586765,0.032947138,-0.14899436,0.23677447,0.08511387,-0.12696794,0.4491038
TLE2,0.17588535,0.2172954,0.1893706,0.30650803,-0.14827117,0.3475774,0.035015218,0.11010022,-0.26437712,0.038707815,0.26968494,-0.1335688,0.10296809,-0.16375598,0.24247691,-0.046464212,0.21139807,0.0522509,0.2609491,-0.28708893,0.16231832,-0.3414308,-0.24804069,-0.33883828,0.14182073,0.17699915,-0.32876498,0.35453278,0.14370073,-0.20259272,0.28151846,0.25807428,-0.07280575,0.021444969,0.06580837,0.2669518,0.25649917,-0.2678489,-0.27800477,-0.25972876,-0.26763856,-0.2633292,-0.0016824659,-0.35260192,-0.33990908,-0.2826962,0.24382521,0.21864943,0.31335843,-0.27428472,0.16482322,0.24467534,-0.16469546,0.1431584,0.35791925,0.15301101,-0.32693803,0.35250142,-0.17055596,-0.375328,0.07629801,-0.22970022,0.23210031,0.25127918
ALDH9A1,-0.03792737,-0.08096639,-0.07847818,-0.09415917,0.019563628,-0.1183155,0.029612016,-0.0200888,0.08726144,-0.007061746,-0.08558426,0.043218657,-0.032586716,0.061505448,-0.08297451,-0.00077471137,-0.07586457,-0.038841836,-0.08210172,0.08871732,-0.048624642,0.097515196,0.060533702,0.12465963,-0.054914206,-0.03859233,0.09609918,-0.103492215,-0.040104378,0.08596814,-0.09409339,-0.07205254,0.032047905,0.014174257,0.00016747229,-0.08323924,-0.065444045,0.045107417,0.08031906,0.091423005,0.07412997,0.068846695,0.036466293,0.13679352,0.087365754,0.07831077,-0.094133094,-0.07327731,-0.09134014,0.08130951,-0.033020504,-0.07658752,0.08019343,-0.014967889,-0.12098457,-0.028966062,0.09979311,-0.091459595,0.065923505,0.101019755,-0.033235244,0.06426046,-0.064914726,-0.07598248
TLK1,0.061701547,0.004820995,0.0021938905,0.024601158,-0.050854772,0.03878208,0.038384847,0.05399792,-0.022024821,0.01793956,0.0055473074,0.0043061506,-0.011095263,-0.011296023,-0.0068925507,-0.01820451,0.016883612,-0.017321683,0.009120818,-0.046245098,-0.0014533196,-0.05701544,-0.044731274,-0.008476943,-0.011012945,0.0437375,-0.059946597,0.015478458,0.026727077,-0.018264368,0.01545063,0.051387616,-0.009230532,0.038687665,0.039986573,0.05782015,0.036626242,-0.070274726,-0.038629346,-0.033592086,-0.034561727,-0.036416493,0.030764997,-0.0378702,-0.05688859,-0.025832338,0.012937345,0.023974724,0.020728707,-0.031350236,0.025906328,0.008595391,0.01615439,0.039655633,0.0477029,0.028216451,-0.020788465,0.06920992,-0.019410774,-0.036593236,0.01696571,-0.018897662,0.01489532,0.011020359
ELP3,0.009838956,-0.04874613,-0.04311362,-0.042641964,-0.012840886,-0.05703862,0.044886444,0.014369413,0.035800647,0.011020303,-0.05172505,0.03764449,-0.03389825,0.024159115,-0.057908505,-0.019368261,-0.03728731,-0.032704115,-0.051764816,0.031794257,-0.024391629,0.03415832,0.0073821163,0.07788076,-0.03844344,-0.0003713295,0.035160936,-0.06361971,-0.011629876,0.050995573,-0.04748372,-0.023230713,0.026003726,0.015973747,0.024340045,-0.03202381,-0.023188494,-0.019547895,0.032888424,0.03902479,0.038320348,0.018899038,0.044232223,0.062048674,0.0344046,0.037091747,-0.051652282,-0.035270046,-0.041441683,0.03822258,-0.0021463595,-0.056278687,0.06290637,0.016974233,-0.050650135,0.00081682205,0.052776504,-0.023691654,0.021803241,0.037938956,-0.011229418,0.02991603,-0.024376903,-0.03871123
UBA3,0.025978938,-0.036453832,-0.037147395,-0.02249735,-0.028514374,-0.03256223,0.042834252,0.026236326,0.023573253,0.0153608695,-0.040661547,0.036381654,-0.031753764,0.018742602,-0.053325586,-0.024036124,-0.021864206,-0.02539023,-0.041026566,0.010868177,-0.026517339,0.014968446,-0.0052952897,0.053718325,-0.03700359,0.011540428,0.008192845,-0.04582925,-0.00029620528,0.033840682,-0.040070914,0.00022733957,0.017654292,0.022168167,0.03203565,-0.0028585978,-0.0062268376,-0.025035404,0.0062785707,0.02632324,0.020436097,0.0041312873,0.044888854,0.039567225,0.013096295,0.026686735,-0.028623432,-0.017417785,-0.022453837,0.016260952,0.0070213713,-0.03833014,0.056107238,0.025630094,-0.022130264,0.005827442,0.043129634,0.0027081706,0.015809719,0.032722857,-0.0034440532,0.027723309,-0.021415148,-0.038159553
ELAC2,-0.020480443,-0.07993521,-0.07857596,-0.090771526,0.006109124,-0.105592586,0.043606624,-0.011950068,0.08488421,0.0048179105,-0.07974533,0.039601132,-0.04063216,0.06462009,-0.09545161,-0.015205815,-0.07671179,-0.030686997,-0.075305484,0.08995404,-0.047555417,0.08425857,0.06354833,0.11563984,-0.065026,-0.033592626,0.072999544,-0.118664175,-0.036370218,0.07582676,-0.09123326,-0.058900468,0.034937598,0.015783213,0.006077854,-0.05673422,-0.054398958,0.029901616,0.07007641,0.06642531,0.07150872,0.06163644,0.03168723,0.11874506,0.07450185,0.08157301,-0.10065861,-0.07321679,-0.08893042,0.07536539,-0.025405338,-0.08492243,0.07280323,-0.0013305172,-0.11375665,-0.026133008,0.09687176,-0.075245656,0.054327726,0.095560476,-0.0353759,0.057935968,-0.06948843,-0.09107809
TES,-0.033003002,-0.04371855,-0.007124968,-0.04665401,0.007999266,-0.061664738,-0.009687107,-0.018718474,0.05199337,-0.021976545,-0.0056474283,-0.019181982,0.013759803,-0.033519436,-0.0038244575,0.026477423,-0.027682278,-0.0017252341,-0.02591345,0.047794953,-0.025324333,0.004961919,0.03237851,0.06088899,0.00065041706,-0.027530111,0.046622537,-0.012048107,-0.008948553,0.03483072,-0.0053391308,-0.0370262,-0.025284648,0.018365152,0.009881696,-0.043492112,-0.031073555,0.0063585714,0.06334455,0.018364478,0.004144743,0.013091493,0.0013367478,0.027873129,0.025803424,-0.00295683,-0.02515196,-0.021062449,-0.0121445805,0.04004487,-0.036388323,-0.013655043,0.024133302,-0.03998573,-0.025117368,-0.0418864,0.0073622838,-0.033515517,0.049929965,0.014092416,-0.0059721395,0.01898015,-0.02343259,0.0049012676
TOP2A,0.005032138,-0.011671476,-0.0102523565,-0.011839371,0.00024191104,-0.01935947,-3.8977712e-05,0.01209867,0.011107609,-0.0074572265,-0.020201124,0.020710899,0.0003691092,-0.00931884,-0.021405652,-0.0016071796,-0.002392847,-0.008141704,-0.030738125,-0.008299656,-0.010409933,0.013636595,-0.0051992433,0.024392687,-0.0056230947,2.56747e-05,0.018375402,-0.0039000995,0.0041928515,0.022808256,-0.014621459,-0.0023287237,-0.008558013,0.0049604783,0.0068827514,-0.02065657,-0.023005173,-0.0004111007,0.019246817,0.014026914,0.00021377578,0.0017418787,0.030295454,0.027172856,0.0066762045,-0.004428368,-0.0075950436,-0.010306853,-0.0083197355,0.010186743,-0.005825918,-0.011576847,0.023091745,0.00056567043,-0.0066429903,-0.0043665245,0.017924331,-0.0030636173,0.01735854,0.013525438,0.002697114,0.021328267,-0.0130568,-0.0043180175
GM28875,0.1803118,0.20217945,0.191766,0.28262055,-0.10203013,0.34089327,0.013051365,0.10189294,-0.24392967,0.02330254,0.24388361,-0.14165585,0.10525698,-0.16817275,0.21622398,-0.009938076,0.20312592,0.06108263,0.24348529,-0.28075036,0.1501387,-0.30014053,-0.21806975,-0.29372844,0.14289829,0.16077895,-0.32812327,0.3248141,0.13893285,-0.19607621,0.2660544,0.26459438,-0.08143815,0.014231787,0.05683076,0.2556682,0.20862252,-0.21911618,-0.25861126,-0.24059282,-0.23682189,-0.24340564,0.0018609334,-0.33448967,-0.29899484,-0.24560499,0.22068633,0.19507414,0.26457575,-0.25616324,0.14156877,0.22338519,-0.16092867,0.107777335,0.37002015,0.1193379,-0.27909568,0.3258678,-0.15722464,-0.34497148,0.08356793,-0.20338969,0.2074441,0.23505414
ZFP930,-0.012210095,-0.087227106,-0.083075024,-0.091571935,0.001694724,-0.10996273,0.05196883,-0.005573526,0.084095314,0.014529645,-0.08926922,0.045728482,-0.046148196,0.06835328,-0.09807794,-0.015743107,-0.07737149,-0.037465177,-0.078226715,0.09043081,-0.04805345,0.08164882,0.055584706,0.12522465,-0.06917405,-0.030450132,0.0677153,-0.124962196,-0.037326064,0.08174476,-0.09471322,-0.05842212,0.044502914,0.020556964,0.016689364,-0.05251264,-0.054219827,0.011671469,0.066623084,0.0654016,0.07836537,0.06024669,0.03704805,0.119681716,0.07388688,0.089363426,-0.10419352,-0.07220274,-0.09247129,0.075557,-0.019191667,-0.0918261,0.08576999,0.0039418787,-0.11333154,-0.022075117,0.10598411,-0.07464331,0.054619323,0.09475085,-0.042442366,0.059293374,-0.06571312,-0.0929209
RPA1,-0.051510174,-0.054324474,-0.027254947,-0.058977343,0.051170662,-0.12279332,0.020014005,-0.0254158,0.08721809,-0.044234075,-0.08454005,0.0053963307,0.02343363,0.030838776,-0.073463604,0.040166266,-0.082785524,0.011910699,-0.049671676,0.07587102,-0.040549673,0.12706387,0.07163337,0.08519247,-0.050678395,-0.076379634,0.08428293,-0.10358961,-0.052434172,0.07289053,-0.07984386,-0.10468481,-0.0052435175,0.008136767,-0.02817712,-0.08295575,-0.06780447,0.030113257,0.16721538,0.052147735,0.096356556,0.072855465,-0.022810994,0.098051764,0.062318556,0.055388033,-0.08543084,-0.0640969,-0.10322858,0.12155026,-0.050001074,-0.059074868,0.03235334,-0.035272285,-0.13108389,-0.074037634,0.08498588,-0.11956852,0.0863788,0.10385263,-0.03471697,0.11750307,-0.13543946,-0.04487827
DNM1L,-0.0028780592,-0.07165239,-0.07131878,-0.06655842,-0.018058069,-0.0794517,0.058450755,0.021725047,0.05685368,0.022844769,-0.077259816,0.055061422,-0.04493674,0.03721403,-0.070942044,-0.021476798,-0.044072095,-0.05699312,-0.062240407,0.05370475,-0.03531366,0.05285675,0.014303374,0.11123322,-0.05517871,-0.0048114806,0.061086617,-0.08828434,-0.017741378,0.065026626,-0.070497535,-0.042997524,0.037867047,0.033547945,0.027032638,-0.041724432,-0.03385339,-0.013888616,0.032642517,0.07381429,0.05533138,0.040736422,0.060083456,0.09862042,0.05428431,0.064344056,-0.073634475,-0.0615305,-0.063440666,0.04697235,-0.0093812905,-0.07276619,0.079735994,0.0144951865,-0.080906406,-0.0057247058,0.086621135,-0.04627434,0.033731285,0.0677207,-0.026440538,0.034536086,-0.027993627,-0.06767246
SMIM15,-0.047962587,-0.08446212,-0.0833865,-0.1077594,0.030307664,-0.13104624,0.023933329,-0.02996175,0.09374587,-0.013771318,-0.09072108,0.043174013,-0.02991096,0.067614764,-0.09085373,0.007169187,-0.08388749,-0.031073697,-0.08568981,0.09645353,-0.053772666,0.11071613,0.072123304,0.1276414,-0.058549017,-0.05404904,0.10638019,-0.11226161,-0.046479177,0.09818569,-0.100840785,-0.07983993,0.036065675,0.00467324,-0.011995807,-0.09386871,-0.07915926,0.054644033,0.09451475,0.09354468,0.08132109,0.07965722,0.030564664,0.14597808,0.10111014,0.087811545,-0.10199909,-0.07807711,-0.10598749,0.090962455,-0.039745122,-0.085677214,0.079270616,-0.02125813,-0.1350541,-0.04046258,0.11166254,-0.10982848,0.07504646,0.110152096,-0.038951904,0.0721445,-0.07291339,-0.08563995
VIM,-0.077694684,-0.07124488,-0.032385163,-0.09675653,0.043957785,-0.116065726,-0.032527108,-0.04607793,0.094279766,-0.030579375,-0.037924357,-0.004852064,0.014817759,0.0023098812,-0.016476251,0.042334415,-0.05566796,-0.004049994,-0.058237992,0.09022127,-0.047450013,0.059061535,0.07668213,0.098223016,-0.018912904,-0.06282671,0.107825525,-0.038960017,-0.03461006,0.079244934,-0.05447664,-0.08477479,-0.0200461,0.014306719,-0.009229027,-0.09760459,-0.07416138,0.060067035,0.109638266,0.072525114,0.047299296,0.055116534,0.0016197693,0.090845704,0.084121265,0.033009037,-0.049790576,-0.05497036,-0.053111784,0.076998055,-0.06586927,-0.037545517,0.043316334,-0.06338259,-0.089074664,-0.06947935,0.048431996,-0.09952511,0.09461311,0.07599874,-0.023827218,0.053865053,-0.050479297,-0.027861733
9030619P08RIK,0.16387415,0.23079576,0.22233695,0.29749787,-0.064056225,0.35118824,-0.023065124,0.08076418,-0.25707173,-0.022025876,0.27802438,-0.1826968,0.12480082,-0.19494471,0.25191948,0.0060876682,0.19451368,0.09475247,0.24547212,-0.2890165,0.16462445,-0.31723115,-0.21021226,-0.31173155,0.17417538,0.14674023,-0.33366528,0.36112928,0.13110545,-0.22813253,0.2916728,0.26000607,-0.11548962,-0.014401893,0.044264488,0.24313411,0.21164241,-0.19589671,-0.23285633,-0.27273163,-0.2467277,-0.26740012,-0.03865119,-0.37523463,-0.32023185,-0.298015,0.24567099,0.21092576,0.2910624,-0.24299961,0.10954505,0.25369143,-0.18588607,0.07620671,0.3910403,0.1074508,-0.32931226,0.34797847,-0.13774051,-0.3581247,0.10589858,-0.2016451,0.20147377,0.263642
WDR36,-0.06691705,-0.10492669,-0.1027806,-0.13539764,0.042794906,-0.16603255,0.027709149,-0.047308214,0.12823054,-0.015930876,-0.12002106,0.041665606,-0.035741225,0.10489088,-0.12206119,0.008713972,-0.10969347,-0.02929873,-0.115301535,0.13574362,-0.06812017,0.15111357,0.10644261,0.16263695,-0.08217586,-0.08052554,0.1302288,-0.15795362,-0.07073231,0.12648046,-0.13806468,-0.103738755,0.04982572,-0.0040949183,-0.01993388,-0.11799431,-0.10412449,0.07984883,0.1216237,0.11634849,0.121871546,0.109327935,0.03127729,0.18189998,0.13832435,0.12991717,-0.13416462,-0.09788945,-0.14973907,0.12526883,-0.04785482,-0.10357693,0.095540494,-0.026251405,-0.18049833,-0.05079992,0.14651307,-0.13950226,0.08871591,0.1555289,-0.05586543,0.09829943,-0.10325979,-0.11542389
MCM4,-0.030519444,-0.059236012,-0.06491209,-0.07290521,0.024104057,-0.09529248,0.016019609,-0.016430184,0.07013044,-0.0243725,-0.06328079,0.035069108,-0.013665743,0.04805551,-0.06267693,0.0026109964,-0.058224164,-0.016293615,-0.06822829,0.05875771,-0.033859007,0.0752901,0.04115369,0.091823965,-0.03825348,-0.034872916,0.08107595,-0.07276423,-0.028645027,0.066571176,-0.073564865,-0.055880584,0.016762309,0.0050685396,-0.0035654604,-0.066236794,-0.06073754,0.048409887,0.076087266,0.07099375,0.05956245,0.057079725,0.026331896,0.113961056,0.06766773,0.046136215,-0.071618326,-0.061032303,-0.07493547,0.06595136,-0.034077544,-0.05087098,0.06131134,-0.022114955,-0.09128861,-0.02846276,0.071201965,-0.084483884,0.053258628,0.078902915,-0.026661538,0.061517,-0.05732506,-0.05773597
SNAP23,0.09115811,0.045384422,0.036704432,0.08456573,-0.07074075,0.10035695,0.04319081,0.07855015,-0.0744015,0.029165357,0.036045104,2.8377399e-05,0.0005687624,-0.041583877,0.0444282,-0.0340036,0.064594924,-0.01080966,0.054950934,-0.10853282,0.036141858,-0.10497912,-0.10168699,-0.06681128,0.015609417,0.073173925,-0.10950552,0.072319865,0.053505436,-0.054219812,0.06285669,0.09738677,-0.015013672,0.03819108,0.048574135,0.08634392,0.0793196,-0.11311905,-0.10162247,-0.0587673,-0.05920476,-0.08387275,0.04180055,-0.094775125,-0.09792631,-0.076899275,0.06671414,0.059221447,0.079954065,-0.08282271,0.054021608,0.043015778,-0.019128626,0.06551828,0.11516599,0.04836306,-0.07027264,0.120989025,-0.0521765,-0.090529576,0.029378504,-0.048473865,0.07504594,0.05648499
PDK3,0.08624427,0.07756688,0.08220972,0.11753872,-0.05225657,0.12704338,-0.0059141926,0.057747148,-0.09692131,0.0053885654,0.07568241,-0.034165397,0.033522304,-0.08817474,0.08248028,-0.008810058,0.08754122,0.025278635,0.07805149,-0.13469934,0.07313008,-0.120875515,-0.10702752,-0.1104172,0.059028037,0.06994879,-0.1311987,0.11781925,0.06725157,-0.07656105,0.107703805,0.10747992,-0.04435557,0.014442994,0.034439612,0.085954465,0.08360991,-0.101788595,-0.10381851,-0.09232753,-0.09209013,-0.11621232,0.02066574,-0.13709375,-0.11844526,-0.11771868,0.0914567,0.086400315,0.115987875,-0.099130765,0.04514697,0.084856994,-0.06592941,0.041331515,0.17031714,0.044561736,-0.11242625,0.14157182,-0.05574322,-0.12748075,0.042303864,-0.055149004,0.091854244,0.096133135
SCRN3,-0.032340646,-0.07518537,-0.073026426,-0.09850216,0.01892352,-0.11165002,0.035676524,-0.019613944,0.08736242,-0.007795498,-0.07806169,0.03303857,-0.032044053,0.061793108,-0.09246105,-0.007944971,-0.07930447,-0.02260781,-0.070576124,0.095198795,-0.04376035,0.09308025,0.07543724,0.11625469,-0.0575938,-0.040356815,0.080983505,-0.11732726,-0.04118518,0.07860027,-0.09014442,-0.06778634,0.03675911,0.0064338474,-0.006768126,-0.06986837,-0.06352938,0.041893438,0.08833805,0.06838462,0.06731053,0.07152293,0.022548718,0.12234071,0.07935447,0.08201216,-0.10995386,-0.079667546,-0.102804355,0.08147304,-0.041940063,-0.08177935,0.05722683,-0.014086582,-0.12695174,-0.027300328,0.091899246,-0.087920584,0.05545514,0.09178999,-0.035739966,0.056791514,-0.07860673,-0.08523564
SMARCA2,-0.0055743577,-0.089993246,-0.07866929,-0.072625995,-0.016784174,-0.095739976,0.051011167,0.014897052,0.06786047,0.023039125,-0.06827026,0.043326803,-0.04364504,0.037734304,-0.06566201,-0.0144155845,-0.051890247,-0.05464477,-0.064590916,0.067285486,-0.038632184,0.047252096,0.021288402,0.10673368,-0.062014274,-0.011035312,0.06756467,-0.09491669,-0.016057368,0.0747198,-0.07218201,-0.053920202,0.034602508,0.048438005,0.036935586,-0.040852524,-0.033787183,-0.013329666,0.047810294,0.06514192,0.06376568,0.052160814,0.037193872,0.1063365,0.05958379,0.060194626,-0.084397495,-0.061861876,-0.05759533,0.05652549,-0.006345261,-0.08216206,0.08919877,0.006576918,-0.08334894,-0.020387374,0.07978217,-0.06376756,0.051791307,0.068509325,-0.037578143,0.037659112,-0.033540227,-0.066914305
GANAB,-0.032216277,-0.06869474,-0.07072092,-0.0840067,0.020155745,-0.10608289,0.026131047,-0.017911397,0.07731332,-0.010767125,-0.0776417,0.03876324,-0.025926322,0.053392824,-0.0837357,0.0023373216,-0.07071911,-0.023857616,-0.078794755,0.07467843,-0.045113534,0.092677735,0.056679025,0.11017898,-0.04756418,-0.041006397,0.08525461,-0.094822034,-0.036438607,0.08093629,-0.08868224,-0.061158344,0.023980387,0.003965224,-0.005228583,-0.0744812,-0.06805626,0.04127667,0.07623562,0.0810145,0.06782378,0.061651178,0.03457047,0.12186138,0.07965238,0.07278294,-0.083201595,-0.062079076,-0.08842376,0.076599166,-0.031080803,-0.0697265,0.072717845,-0.014741305,-0.11146297,-0.027164705,0.09288502,-0.08116973,0.056848433,0.092087895,-0.025350131,0.0661258,-0.06409536,-0.069041505
SLC18A2,0.17353216,0.16938472,0.16181955,0.25763202,-0.12723652,0.31069514,0.042537216,0.1134801,-0.21316774,0.049205527,0.2084265,-0.11559968,0.090509,-0.15130629,0.18712744,-0.014949501,0.18978581,0.03297867,0.23397277,-0.2547025,0.13048208,-0.27930367,-0.21080221,-0.2665897,0.12095395,0.15886667,-0.30335653,0.28132784,0.1261852,-0.1703966,0.23667952,0.25463432,-0.05171996,0.03621075,0.05990855,0.25300696,0.2126838,-0.23276538,-0.25821424,-0.20996603,-0.22954217,-0.21377093,0.014315415,-0.30327588,-0.28010958,-0.2106836,0.19356309,0.18328501,0.22182566,-0.2584618,0.14985558,0.19758143,-0.13706751,0.11774444,0.32913992,0.11228311,-0.24241677,0.29905707,-0.15500414,-0.32169324,0.059063878,-0.18867649,0.19773227,0.21182874
CACFD1,0.04758575,-0.049375355,-0.048216723,-0.027839992,-0.045858912,-0.033419594,0.06638212,0.043661255,0.02353409,0.027108528,-0.043723814,0.038235992,-0.046392657,0.011870984,-0.05657981,-0.034044772,-0.027505595,-0.04764416,-0.03363885,0.019782845,-0.020974372,-0.0061873943,-0.019041674,0.072058834,-0.037402324,0.028122127,-0.0022334969,-0.06767662,0.005906595,0.017812569,-0.026049845,0.00543461,0.032411993,0.043754533,0.044328526,0.012415864,0.006639838,-0.05509707,-0.0004855618,0.010440908,0.012264047,0.0020719878,0.0452009,0.043941617,-0.0024514496,0.021128863,-0.05119719,-0.023229603,-0.020675533,0.013938237,0.010338429,-0.05256537,0.06530595,0.034346953,-0.020298632,0.011374697,0.04799072,0.003595964,0.007094443,0.013793942,-0.0113187805,0.014682263,-0.01699581,-0.041803647
ZFP945,-0.022652622,-0.089579955,-0.08453182,-0.095670074,0.002963338,-0.11787483,0.04516124,-0.0049380288,0.08746396,0.011838056,-0.09355324,0.047009982,-0.043304235,0.059736397,-0.0982605,-0.010400377,-0.0746143,-0.036313556,-0.07886687,0.09287219,-0.050034367,0.08700835,0.050806202,0.12774424,-0.06719918,-0.03565281,0.08055212,-0.119831145,-0.033166863,0.08890563,-0.095972575,-0.06636944,0.03777185,0.02385934,0.013152149,-0.06648582,-0.06348111,0.01744885,0.07227145,0.084209636,0.086660594,0.06140203,0.039895043,0.12863053,0.08543337,0.085940644,-0.10465567,-0.07045553,-0.095764145,0.08116087,-0.021761114,-0.093437165,0.08763882,-0.0028800294,-0.11867713,-0.026477296,0.1087874,-0.0866104,0.06614152,0.10155377,-0.040665485,0.06691272,-0.062353346,-0.09228638
ZFP672,-0.043449674,-0.09103407,-0.088953234,-0.11012057,0.028244087,-0.13532385,0.033671543,-0.031230792,0.10643166,-0.0075884983,-0.09871882,0.038759567,-0.03845121,0.085875675,-0.104503535,-0.0015380755,-0.09361854,-0.027943946,-0.09148676,0.1149721,-0.053412206,0.118714154,0.08729125,0.13277206,-0.07293775,-0.055880073,0.09979514,-0.13940893,-0.051961634,0.09694858,-0.11086676,-0.082764894,0.041679867,0.0052751238,-0.0077168345,-0.0856058,-0.07856698,0.05663345,0.09612803,0.08814968,0.09598476,0.08735626,0.02579957,0.14993002,0.10252733,0.10215904,-0.12167988,-0.08865651,-0.1177835,0.09814882,-0.037854,-0.0934786,0.07634054,-0.016793318,-0.14848186,-0.042781558,0.11979166,-0.11056319,0.0741691,0.12602085,-0.048927195,0.080139704,-0.089151666,-0.107150555
GNAI3,-0.10862023,-0.110171705,-0.10557731,-0.15600118,0.08506755,-0.2079921,-0.002186574,-0.08384161,0.16046421,-0.041379966,-0.14323041,0.03317053,-0.020516984,0.12811425,-0.13547939,0.036874525,-0.13226582,-0.004366681,-0.14018561,0.16743517,-0.08041081,0.20132333,0.15261944,0.17170464,-0.08396659,-0.12615934,0.17275001,-0.16972499,-0.094734356,0.16015929,-0.16813013,-0.1410088,0.043980293,-0.032234512,-0.04771615,-0.16989088,-0.14913109,0.13132334,0.16599941,0.15043944,0.15713184,0.140199,0.018349493,0.21603207,0.17887363,0.15522896,-0.1470894,-0.109448045,-0.18376318,0.16167042,-0.06860946,-0.109562136,0.09943955,-0.05741484,-0.22776161,-0.08053938,0.16744848,-0.18053442,0.12220526,0.20238583,-0.064626165,0.14096937,-0.1382889,-0.12443842
REL,-0.024695005,-0.07281802,-0.055102892,-0.09080334,0.016848365,-0.10536453,0.027567495,-0.021965742,0.085253224,-0.01064093,-0.075320214,0.0220708,-0.015240453,0.03100555,-0.082284525,0.010179952,-0.07252339,-0.003522709,-0.06609115,0.08742427,-0.04883644,0.07364899,0.060799554,0.10852141,-0.04728271,-0.056505624,0.07154223,-0.10279484,-0.029652707,0.06787765,-0.07317185,-0.060532328,0.018265523,0.014376647,-0.0052919984,-0.06803428,-0.066663325,0.03200098,0.09349882,0.056146663,0.05780383,0.05230487,0.013602799,0.09850648,0.06694182,0.06106107,-0.08395143,-0.05089759,-0.08986308,0.081840925,-0.038904645,-0.07012226,0.06363409,-0.02120785,-0.101752825,-0.039699502,0.07889202,-0.08718885,0.06373916,0.08018628,-0.026949488,0.065431215,-0.08176267,-0.06393857
SEPT6,-0.07921939,-0.07860843,-0.043537922,-0.111631826,0.042232625,-0.13102376,-0.011974711,-0.04662495,0.10347162,-0.03013391,-0.060038995,0.001605371,0.0051323622,0.02143174,-0.041499786,0.043277904,-0.07525952,-0.005609952,-0.0730431,0.10286531,-0.049171433,0.08302044,0.08154943,0.11824863,-0.028564729,-0.07251446,0.11118492,-0.07045749,-0.046030585,0.09567102,-0.07176363,-0.091861784,0.0015383139,0.0012896815,-0.012382258,-0.108210735,-0.07833759,0.055718176,0.11279075,0.08307807,0.06351898,0.06306896,0.011122404,0.09945457,0.09703923,0.05634273,-0.0692082,-0.0621042,-0.08214528,0.092859365,-0.06989449,-0.05287009,0.056652695,-0.0623115,-0.11135667,-0.066055626,0.07255915,-0.110015355,0.09113589,0.090669066,-0.024528213,0.070469424,-0.065974966,-0.048307497
E2F8,0.018665832,-0.024895921,-0.025202185,-0.024448665,-0.025301011,-0.016724302,0.02683475,0.026700843,0.014386725,0.0017060302,-0.028446022,0.023447497,-0.0129528195,-0.0022734068,-0.042735275,-0.015303701,-0.006711982,-0.021683492,-0.022544187,0.003448043,-0.012615539,0.0028232224,-0.007822277,0.04432025,-0.012719117,0.011303276,-0.0029300135,-0.03428949,0.010707026,0.008349862,-0.01027751,0.0024125203,0.0019261539,0.023461074,0.015187474,-0.0011490285,-0.01218228,-0.020540792,0.009926729,0.0035824962,-0.005153518,-0.0059926044,0.032231826,0.03294372,-0.0067191124,0.0021621995,-0.03056816,-0.010842686,-0.02056009,0.009414159,-0.005719796,-0.018153962,0.02405658,0.017530002,-0.00689873,0.007622242,0.029805984,0.0029043858,0.009410652,0.013724897,-0.0010376722,0.010856414,-0.018896673,-0.024483759
NSD2,0.17644247,0.16092712,0.14783546,0.23106274,-0.10665739,0.27047762,0.03616691,0.109908625,-0.20624843,0.030724384,0.182255,-0.08339759,0.062595144,-0.13067253,0.17420334,-0.029263474,0.16438285,0.019270599,0.18003362,-0.23247558,0.1247633,-0.26982954,-0.19105494,-0.2205846,0.11605389,0.13505973,-0.26886648,0.2606704,0.11775014,-0.15851338,0.22278458,0.216191,-0.06306232,0.024111472,0.06163874,0.2268981,0.17162043,-0.21059102,-0.2205025,-0.18855804,-0.18941872,-0.20213106,0.034922183,-0.2753505,-0.2529267,-0.20323794,0.18217334,0.15321814,0.23252785,-0.20419404,0.12625161,0.17482081,-0.10244737,0.11207136,0.29056168,0.11656132,-0.22693855,0.28266203,-0.14681871,-0.280252,0.06882326,-0.17687161,0.17435975,0.1846933
TRIB3,0.044762906,-0.05789849,-0.0510951,-0.034101166,-0.051157877,-0.039522663,0.07273712,0.046526928,0.029679619,0.035995007,-0.05220169,0.03765955,-0.052878916,0.0054236837,-0.06579211,-0.03438139,-0.030917857,-0.048539482,-0.034145605,0.03191363,-0.026042465,-0.0022578333,-0.014309745,0.08107496,-0.042562388,0.022740945,-0.0023585,-0.07912291,0.0042816326,0.021816833,-0.028693676,0.0015458539,0.030756153,0.050349593,0.046380058,0.010588564,0.0020681694,-0.06300963,0.0061448365,0.010688446,0.01725721,0.0030009747,0.04464873,0.045827385,-0.0029010475,0.029799528,-0.059288457,-0.02585572,-0.025562108,0.019239262,0.013998713,-0.065634735,0.0703147,0.03546626,-0.027386647,0.009080291,0.056688588,0.0021988014,0.0066288896,0.01555698,-0.01540225,0.01205593,-0.022775363,-0.046729106
KRT18,0.1503235,0.13559306,0.1259252,0.21146646,-0.12524833,0.24985923,0.04962636,0.10210131,-0.17913564,0.048656322,0.16539198,-0.07798982,0.06465128,-0.12430607,0.15344791,-0.027768627,0.14790142,0.020201333,0.18889742,-0.20078969,0.10394191,-0.24635419,-0.18673943,-0.21162716,0.08635062,0.14632879,-0.25367427,0.22708079,0.111650735,-0.14612237,0.19949427,0.20848697,-0.037883002,0.040093467,0.06387612,0.21813112,0.19131732,-0.22673103,-0.22783351,-0.1771302,-0.19780236,-0.18298799,0.020156387,-0.26373732,-0.24635786,-0.1743386,0.15981756,0.14530568,0.20018792,-0.2176699,0.12732022,0.15820956,-0.09887379,0.10458324,0.2680693,0.09866485,-0.20575805,0.25381276,-0.123316064,-0.262371,0.045582503,-0.16100334,0.16236407,0.16170073
FZR1,-0.072733164,-0.0874572,-0.074877255,-0.12599933,0.0520114,-0.15357749,0.015012968,-0.049865574,0.116400674,-0.021693926,-0.104140714,0.033896074,-0.025914177,0.072923586,-0.10107137,0.0184768,-0.10065048,-0.019372873,-0.102146775,0.124056906,-0.06387187,0.13848767,0.10638869,0.14297569,-0.062859625,-0.07425444,0.11886188,-0.12914892,-0.069839045,0.1229714,-0.12165674,-0.09710915,0.040635593,-0.02032527,-0.024104007,-0.12265932,-0.09734154,0.07402442,0.12153062,0.10186614,0.1026569,0.09184723,0.027092429,0.15340632,0.12818971,0.10921815,-0.108643346,-0.082460776,-0.1305058,0.113608405,-0.053986102,-0.09556035,0.07806441,-0.0359593,-0.1646602,-0.052923463,0.12347895,-0.12481218,0.08619817,0.1337356,-0.038194917,0.09389494,-0.093881175,-0.08762127
MED22,0.021714803,-0.05591649,-0.060642935,-0.051413033,-0.022475686,-0.059484392,0.053107496,0.015055977,0.04707408,0.018171899,-0.052078806,0.038933933,-0.03995677,0.039983425,-0.07358008,-0.026967049,-0.05063376,-0.031137504,-0.051718604,0.04520399,-0.036621995,0.030187743,0.019920496,0.08236345,-0.05141624,0.00042396784,0.031116826,-0.08186728,-0.009697931,0.04495874,-0.05890985,-0.018788159,0.027906023,0.028777868,0.03017393,-0.012181424,-0.01701922,-0.012562089,0.028064977,0.03335047,0.036516108,0.028448146,0.03718614,0.071241066,0.030545339,0.050773293,-0.06237244,-0.04436583,-0.04290628,0.038688563,-0.0055203065,-0.0657878,0.071295634,0.019881994,-0.054827616,-0.0059730634,0.062406156,-0.02460275,0.027940575,0.05093607,-0.016474657,0.03540186,-0.043644458,-0.06452967
GMPR,0.10530713,0.09756084,0.09219341,0.1512504,-0.058058843,0.16402207,0.01761952,0.054000825,-0.117519334,0.01509621,0.1275557,-0.07233956,0.045897093,-0.10780453,0.10144788,-0.008438595,0.09358966,0.041099183,0.11912696,-0.12498816,0.0713369,-0.16766647,-0.12738213,-0.12770523,0.07734532,0.0897052,-0.17480372,0.16463208,0.07926534,-0.11633505,0.14213282,0.13410398,-0.06038539,0.018495448,0.057446074,0.12875962,0.10842791,-0.13671912,-0.13299412,-0.12783319,-0.11308923,-0.13991374,-0.0004390087,-0.18428804,-0.16892521,-0.13768508,0.112656906,0.10032429,0.15149003,-0.13242579,0.07239731,0.10653475,-0.065678135,0.032882407,0.21022488,0.052429117,-0.14553866,0.18200707,-0.062413048,-0.18678872,0.044844255,-0.09325933,0.097411275,0.122859865
TFG,-0.09786173,-0.10937322,-0.1060958,-0.1537015,0.07720624,-0.1954684,0.0012225099,-0.07695384,0.15106966,-0.042364664,-0.13053316,0.03561057,-0.021809176,0.12516747,-0.12483729,0.029200215,-0.12717828,-0.012726568,-0.13067028,0.15925062,-0.07480712,0.19027796,0.14086491,0.16654909,-0.08449427,-0.110648245,0.16836812,-0.16748029,-0.08619334,0.14448899,-0.1585033,-0.13220099,0.046203397,-0.02269148,-0.04403595,-0.15763885,-0.13489951,0.12868094,0.15948513,0.14112322,0.143186,0.139106,0.015183432,0.2129853,0.1669645,0.14310397,-0.14847827,-0.114807025,-0.1735211,0.14940526,-0.069965065,-0.10528595,0.08908779,-0.052886773,-0.2158508,-0.07451677,0.1562477,-0.18088192,0.11491003,0.18831883,-0.06335873,0.124514066,-0.1323944,-0.125775
DIS3L2,-0.029979352,-0.083519965,-0.07936186,-0.102362595,0.015804479,-0.11801304,0.038819253,-0.021267876,0.09172803,-0.0029015318,-0.08718087,0.038763486,-0.037873678,0.06710257,-0.09593624,-0.0056583956,-0.08180798,-0.029599868,-0.07788411,0.100875415,-0.05129073,0.09786765,0.07367663,0.12642524,-0.06305935,-0.043433294,0.082392134,-0.12760928,-0.043240737,0.083985195,-0.09526361,-0.065988675,0.042422697,0.0071471324,-0.00522222,-0.073976554,-0.067478344,0.040095843,0.08528638,0.07033029,0.07368152,0.072624825,0.028710714,0.13361432,0.087208115,0.08811161,-0.11087934,-0.07622684,-0.10520339,0.084234014,-0.03561955,-0.089033335,0.07063479,-0.0095350295,-0.12918057,-0.03329696,0.11157586,-0.09581118,0.06436882,0.10047546,-0.04141838,0.06800886,-0.07981548,-0.09506345
PWWP3A,0.21437427,0.23098536,0.21756503,0.3266628,-0.13083474,0.3926261,0.0010901988,0.13549726,-0.28101012,0.025720157,0.2608109,-0.112172216,0.10447301,-0.17753658,0.28547847,-0.02319663,0.24427992,0.039400395,0.26060084,-0.3308472,0.18539369,-0.36936626,-0.25785702,-0.3575548,0.16764319,0.19070886,-0.36868232,0.37344864,0.15986833,-0.22469084,0.3111847,0.292078,-0.07649392,0.028418519,0.06768968,0.32345656,0.25120306,-0.26621693,-0.30361408,-0.27510056,-0.29290685,-0.26243877,0.025063938,-0.39841053,-0.3482741,-0.29930168,0.2849487,0.23320167,0.30715632,-0.2893858,0.16349699,0.29488248,-0.19023912,0.14372501,0.39328942,0.16008882,-0.332914,0.3643572,-0.20857053,-0.3677087,0.09355788,-0.23603998,0.23610538,0.26370478
STXBP3,-0.02926936,-0.08590459,-0.084057845,-0.09723571,0.0141558405,-0.11652556,0.040800735,-0.019118875,0.091375574,0.00046499074,-0.090077326,0.04250299,-0.040387273,0.072955,-0.09968976,-0.007347882,-0.08183766,-0.029976085,-0.081891745,0.09790659,-0.05156926,0.09837269,0.07151725,0.123982355,-0.06812885,-0.043367714,0.08249578,-0.12617292,-0.04207812,0.08643134,-0.10008889,-0.066503316,0.038565867,0.010321393,0.00021013245,-0.069278516,-0.06479764,0.037574433,0.07850143,0.07513365,0.08159727,0.06919973,0.032224424,0.13140163,0.08662263,0.090063065,-0.10648094,-0.07640308,-0.09979972,0.08269282,-0.027865928,-0.08999358,0.07591077,-0.0058608055,-0.124800235,-0.03337288,0.109245956,-0.08873694,0.063836224,0.10932776,-0.041699126,0.06898321,-0.075881355,-0.09792489
VPS26C,-0.046123546,-0.08606096,-0.081403576,-0.113065556,0.031769253,-0.1385823,0.029961301,-0.031809226,0.10495047,-0.010513432,-0.1042455,0.039178237,-0.034674704,0.076398656,-0.109612495,0.0040203035,-0.093680665,-0.01954662,-0.09195641,0.11483888,-0.055380613,0.12477431,0.085954085,0.13532525,-0.06708219,-0.06249733,0.102629535,-0.13762808,-0.053379055,0.10069628,-0.11195255,-0.082393244,0.04169684,-0.0046316506,-0.017057795,-0.0993733,-0.08957906,0.056193374,0.10444509,0.09372258,0.09799723,0.08422586,0.026569644,0.14817844,0.10810382,0.102644295,-0.11761952,-0.078925975,-0.1251382,0.10325583,-0.04346575,-0.0962082,0.07673153,-0.018862609,-0.15047017,-0.040680215,0.12332174,-0.11558022,0.07810028,0.12532169,-0.041705176,0.08772232,-0.09333798,-0.10307588
TOM1L1,0.15256879,0.13250135,0.12322527,0.20430192,-0.11163089,0.22732131,0.025079899,0.10625404,-0.16994782,0.022288315,0.14162406,-0.059626862,0.046609722,-0.108408436,0.15603383,-0.028933138,0.14900464,0.013862632,0.15153868,-0.20357305,0.100358464,-0.24865839,-0.18106727,-0.19377947,0.090316504,0.13403003,-0.24623671,0.21762261,0.10326952,-0.14069812,0.19235149,0.19068757,-0.051711712,0.0347431,0.06530076,0.20210624,0.15697087,-0.20269713,-0.1903727,-0.17019406,-0.17805472,-0.16845444,0.030486226,-0.24393609,-0.23576137,-0.19257444,0.16022637,0.15358764,0.18543711,-0.18097998,0.108227566,0.1609008,-0.090500794,0.096341066,0.24690251,0.10109526,-0.19764945,0.25064418,-0.13216238,-0.22920962,0.05810747,-0.1317777,0.14178734,0.15968664
DCP1A,-0.029976372,-0.08980621,-0.082802154,-0.10639587,0.013962718,-0.12884971,0.04416546,-0.0180137,0.09665538,0.0026564673,-0.09749907,0.04148385,-0.04081008,0.07193458,-0.102151826,-0.0076885074,-0.08652076,-0.030744158,-0.08395675,0.10628007,-0.050505668,0.103898905,0.06975897,0.13632968,-0.067854226,-0.046959057,0.08786159,-0.13731156,-0.045304935,0.09170516,-0.10242561,-0.07217314,0.044817664,0.013517722,0.0009436384,-0.07801301,-0.070699565,0.033620857,0.090421095,0.08191934,0.08733268,0.07532965,0.03218358,0.13935716,0.09212423,0.09579486,-0.11827189,-0.07933257,-0.11377004,0.09199807,-0.0345383,-0.09556048,0.0809045,-0.007573545,-0.13669235,-0.0310559,0.11609124,-0.10182545,0.06551696,0.1076681,-0.04531634,0.07034012,-0.08178229,-0.098897025
KPNA3,0.028330717,-0.03032178,-0.03550756,-0.026550362,-0.025991777,-0.02760291,0.038575083,0.021356583,0.022898136,0.011966333,-0.027989864,0.026684964,-0.019451275,0.0247319,-0.04963961,-0.02014269,-0.026071545,-0.015182734,-0.03247575,0.011873126,-0.026937775,0.0017966628,0.003122719,0.046724305,-0.034787506,0.009748161,0.0026191603,-0.040352605,0.0021835864,0.02640139,-0.035177007,0.00015946478,0.010646515,0.026026286,0.030421464,0.0076588094,-0.0017341599,-0.020893268,0.01049326,0.010556236,0.011071157,0.006498255,0.03254477,0.033022698,0.0037767813,0.021958303,-0.031875283,-0.024996229,-0.020375203,0.009888265,-0.0010821335,-0.03209726,0.046134286,0.018955268,-0.018807659,0.0007122494,0.030464191,0.0033694366,0.016903011,0.025541786,-0.007732101,0.01773274,-0.027640168,-0.037095
DDHD2,0.0004929798,-0.06538976,-0.061878376,-0.058701858,-0.009943878,-0.075013176,0.043634944,0.004157841,0.05508727,0.008446444,-0.056559075,0.038145587,-0.032961838,0.035115037,-0.067414545,-0.014304429,-0.049630128,-0.03176917,-0.060544416,0.050184,-0.0388553,0.0451135,0.02690708,0.092930354,-0.05186203,-0.013406396,0.052017882,-0.07794036,-0.017267663,0.05811074,-0.06738407,-0.035046995,0.021860309,0.02436833,0.02128545,-0.034020897,-0.034377765,0.002063416,0.046290156,0.05008487,0.046643987,0.037129357,0.03766136,0.08640458,0.046886556,0.05060631,-0.061724484,-0.0490155,-0.054592084,0.048736114,-0.009785622,-0.062460426,0.07635313,0.009549253,-0.06807677,-0.01461561,0.06824784,-0.044298004,0.038007982,0.060518283,-0.020283617,0.044135667,-0.044432674,-0.058768224
PBX1,0.097986266,0.06642942,0.0639664,0.12943402,-0.0809411,0.13155559,0.053300723,0.070306,-0.09758578,0.05395817,0.09298081,-0.04226416,0.03406311,-0.08402175,0.072637886,-0.013236985,0.079738885,0.011305667,0.10543127,-0.10040987,0.05658043,-0.14795971,-0.11924174,-0.099199474,0.056653358,0.085047916,-0.1426873,0.12233353,0.069108754,-0.088535726,0.11704787,0.1159729,-0.03315951,0.043368816,0.060212977,0.12047864,0.11090848,-0.15547976,-0.13618237,-0.09768824,-0.10078801,-0.11116088,0.01849463,-0.14858577,-0.14645022,-0.10557486,0.084290475,0.07881829,0.12272654,-0.13429727,0.08835843,0.07574828,-0.036710225,0.04824496,0.17055532,0.047719896,-0.11196081,0.15394536,-0.054282214,-0.16768758,0.01674246,-0.087667435,0.09393652,0.101734325
EIF1AD,-0.06136966,-0.09287092,-0.09491194,-0.12120412,0.045672864,-0.15086384,0.020869212,-0.04636859,0.11767414,-0.020532055,-0.10922263,0.041854173,-0.030961841,0.10384107,-0.11568733,0.008962303,-0.10582246,-0.020692617,-0.11208387,0.12272319,-0.064415246,0.14741653,0.10370582,0.14222427,-0.07646795,-0.07332341,0.1279218,-0.14096692,-0.06340194,0.11611584,-0.13346812,-0.09808024,0.03944499,-0.008472309,-0.017716743,-0.1133126,-0.09757021,0.08615995,0.115343794,0.11375128,0.11488935,0.10027886,0.028789887,0.17056964,0.12644497,0.11747612,-0.12035786,-0.09453778,-0.13091582,0.11510557,-0.046269633,-0.096313395,0.08791684,-0.026574396,-0.16668813,-0.04805234,0.12959531,-0.12784374,0.08765046,0.15301582,-0.045178205,0.0977077,-0.10276413,-0.11077806
KAT7,-0.05547032,-0.098996535,-0.095465936,-0.12068629,0.035518013,-0.15114193,0.029850667,-0.03628332,0.113970384,-0.011323944,-0.11195035,0.043828428,-0.036890194,0.09159464,-0.110472016,0.0059173517,-0.09947111,-0.036611296,-0.10704652,0.12049926,-0.060701326,0.13616107,0.088616244,0.15164322,-0.07512648,-0.06543292,0.12017048,-0.14071119,-0.06030434,0.11498998,-0.12583041,-0.09541995,0.04425723,0.0036344072,-0.009060606,-0.10517059,-0.09168853,0.0641223,0.10695188,0.11303671,0.11091773,0.09528724,0.035278693,0.16775705,0.12051319,0.11565648,-0.1212832,-0.0907788,-0.12915067,0.111106515,-0.039890513,-0.095836736,0.09483782,-0.02110656,-0.16270208,-0.042135462,0.13293657,-0.12279027,0.08124001,0.14124238,-0.04777211,0.087676,-0.090872176,-0.1041314
AHCTF1,-0.08136926,-0.11788346,-0.12052632,-0.15297173,0.052925333,-0.18829866,0.03341722,-0.05086164,0.145248,-0.017676312,-0.14590307,0.058782265,-0.041031733,0.12800619,-0.1378632,0.00964804,-0.12418552,-0.039573513,-0.13131274,0.15420885,-0.075072415,0.1867587,0.11927169,0.18636635,-0.09570817,-0.089324474,0.16148657,-0.18001737,-0.08294417,0.1431596,-0.16271079,-0.12531783,0.059988074,-0.009114583,-0.027089003,-0.13843465,-0.121123485,0.096369885,0.13429233,0.15123422,0.14656138,0.12917715,0.043119438,0.21318363,0.16081724,0.15589248,-0.15093774,-0.12199377,-0.1745308,0.13861926,-0.057058357,-0.119364254,0.10855854,-0.0329238,-0.2124554,-0.056781303,0.17203353,-0.16468844,0.09846078,0.18706706,-0.06256433,0.11420665,-0.11626157,-0.14401127
UBXN2B,-0.003660989,-0.07010199,-0.068708695,-0.07035171,-0.0099468175,-0.0857598,0.04803633,0.0039580166,0.06460641,0.009408765,-0.071816474,0.04282917,-0.039085515,0.049613822,-0.08871444,-0.014774665,-0.06037076,-0.02727829,-0.06553207,0.06794192,-0.04181827,0.06385167,0.03930585,0.102579154,-0.05557937,-0.022519022,0.05436328,-0.10057868,-0.020089686,0.06297104,-0.077977486,-0.041511245,0.027908348,0.020436056,0.015023304,-0.0431388,-0.043861117,0.009421602,0.04902352,0.060055334,0.05944346,0.042140894,0.03866934,0.09916624,0.056660138,0.06631398,-0.07999645,-0.053442262,-0.07115838,0.056138203,-0.013935097,-0.07419074,0.07188439,0.01046484,-0.08457627,-0.013500541,0.08589968,-0.056601785,0.045301143,0.07905245,-0.025379293,0.05059229,-0.057124425,-0.0781893
CDCA5,0.014275621,-0.05522886,-0.06791972,-0.058121074,-0.026995635,-0.056467254,0.05719886,0.025326654,0.044231273,0.017699435,-0.06012862,0.04916589,-0.03919959,0.040335525,-0.07551622,-0.026491672,-0.042645536,-0.045067288,-0.051034693,0.042868882,-0.03108687,0.035650715,0.013074807,0.09047543,-0.048900954,0.004542142,0.031013744,-0.08757567,-0.009861,0.04265221,-0.051968604,-0.0244831,0.035563774,0.031131208,0.023037378,-0.01386518,-0.01906659,-0.016746905,0.020012133,0.0382342,0.032452088,0.03136722,0.04698091,0.07902273,0.030410744,0.051615946,-0.07412843,-0.052419707,-0.059703007,0.027079713,-0.0060445853,-0.059152436,0.06170693,0.015173994,-0.06375524,-0.0028889105,0.073128656,-0.028286602,0.01721342,0.049467836,-0.025504865,0.02731661,-0.03693927,-0.0707643
UROS,-0.015277568,-0.059572827,-0.060401224,-0.07312232,0.0028775167,-0.08091852,0.035135955,-0.0056069195,0.064484596,3.7606806e-05,-0.05945842,0.031721152,-0.027003169,0.043962795,-0.08156883,-0.0130038485,-0.05882986,-0.019486442,-0.058983423,0.066622674,-0.035525292,0.058282502,0.054156132,0.09391312,-0.041953176,-0.022136413,0.05027712,-0.085534185,-0.024891306,0.058490083,-0.0644794,-0.049359735,0.024037965,0.0090511115,0.0022320151,-0.045413926,-0.046217807,0.019790836,0.056284517,0.04417378,0.044829596,0.041464485,0.02933983,0.09058906,0.053345285,0.056648597,-0.0816872,-0.058077525,-0.06975196,0.05570723,-0.027314924,-0.06072555,0.05001968,-0.0048497543,-0.089266576,-0.016942233,0.06987126,-0.050010446,0.041834187,0.06778471,-0.025054783,0.044957597,-0.055647954,-0.0658962
ERLIN2,-0.074709214,-0.1136438,-0.10182858,-0.13856621,0.056740865,-0.178434,0.018827189,-0.057725802,0.14316192,-0.017728843,-0.12825409,0.03596171,-0.033893406,0.11169714,-0.12740934,0.017586388,-0.117420025,-0.016561419,-0.1209697,0.15290251,-0.06688892,0.1665783,0.12969735,0.1623421,-0.087661125,-0.100242555,0.13736565,-0.17318034,-0.07978295,0.13408034,-0.14728096,-0.11865975,0.04289592,-0.009801188,-0.026356347,-0.121354744,-0.12033409,0.09337204,0.13531998,0.121110424,0.13902594,0.12414812,0.022242764,0.18661578,0.14739001,0.14106853,-0.14397867,-0.10413583,-0.16231859,0.13661902,-0.051949047,-0.106029116,0.09025068,-0.037040185,-0.20015351,-0.06828172,0.15445097,-0.14797348,0.102044344,0.17485484,-0.064257346,0.11786121,-0.12138589,-0.12839164
H2-OB,0.083398886,0.12186365,0.13689727,0.1563569,-0.027801268,0.1578887,-0.03147733,0.035940733,-0.11170669,-0.034666866,0.15201327,-0.11039307,0.0676082,-0.1475822,0.12852874,0.026387308,0.08944112,0.07667723,0.11336611,-0.13512963,0.08403371,-0.18046564,-0.10170967,-0.14818576,0.11827467,0.063481316,-0.1748278,0.19007033,0.077846095,-0.11909519,0.16685401,0.12748134,-0.10007218,-0.025089193,0.03529691,0.10238207,0.08381188,-0.09684732,-0.09059621,-0.16282758,-0.13795707,-0.14517926,-0.03797613,-0.20134042,-0.16851953,-0.16491492,0.12949751,0.124621406,0.16880548,-0.10626587,0.043011095,0.12815572,-0.09156553,0.010289408,0.22419925,0.03533686,-0.18185748,0.18306819,-0.048833746,-0.19772214,0.067249134,-0.07646562,0.07981309,0.15868013
HCFC1,-0.11683224,0.14947784,0.21978667,0.10583088,0.16664733,0.036415625,-0.19296198,-0.13633472,-0.0032979809,-0.26791322,0.13922477,-0.2509186,0.21352702,-0.16150363,0.1137646,0.19749469,-0.02219924,0.2708305,0.048802536,-0.060162134,0.03771183,-0.020900168,0.07483862,-0.1407425,0.18594152,-0.14553864,-0.0751099,0.16488227,-0.014596384,-0.05991254,0.109172165,-0.00016827136,-0.22030038,-0.16592368,-0.12698472,-0.089063585,-0.070144296,0.12786084,0.2096844,-0.16027151,-0.08705495,-0.07754377,-0.20756462,-0.17341216,-0.0870654,-0.19364114,0.11091095,0.13900892,0.03345853,0.086890355,-0.12859602,0.19503838,-0.18860485,-0.17594668,0.09184167,-0.11271103,-0.20051116,0.02791036,0.046763565,-0.059160832,0.120092146,0.08157788,-0.1272124,0.25586462
OSTM1,-0.09616107,-0.119732246,-0.10580448,-0.1623711,0.079322375,-0.19998837,0.0074910745,-0.076925874,0.16448925,-0.034331005,-0.13462219,0.030199094,-0.0270755,0.12783873,-0.13033901,0.028264076,-0.13427325,-0.009981178,-0.13166316,0.1729106,-0.07401229,0.18902138,0.16111621,0.17590691,-0.09035575,-0.12045658,0.16177623,-0.1873936,-0.09768462,0.15146346,-0.16614297,-0.13870353,0.048834972,-0.022608202,-0.039960288,-0.14355293,-0.13953911,0.12330779,0.16556981,0.13358392,0.15196474,0.14683488,0.013065187,0.2084458,0.17184842,0.15856025,-0.16104738,-0.11904277,-0.18865648,0.15720385,-0.07351006,-0.10784649,0.08709515,-0.05567262,-0.23221153,-0.0818986,0.16592464,-0.17698309,0.11362977,0.19190344,-0.07081636,0.1295652,-0.13674143,-0.13486771
IKZF2,0.13878106,0.19552095,0.1913976,0.2504975,-0.05039686,0.28921652,-0.029962484,0.059953146,-0.2032974,-0.016162671,0.23127115,-0.14891645,0.105293855,-0.17648706,0.19727536,0.012050293,0.1669204,0.090533786,0.20014635,-0.23612982,0.139554,-0.25528678,-0.17261417,-0.262078,0.15266252,0.11726737,-0.27667302,0.29612654,0.12163502,-0.17966156,0.24434641,0.21206239,-0.10954257,-0.022357136,0.046878345,0.19294214,0.16062029,-0.15338594,-0.19192809,-0.224769,-0.2030741,-0.21872431,-0.030213544,-0.30341712,-0.25406063,-0.23241678,0.20564438,0.1778488,0.24772656,-0.19814713,0.09781593,0.20371598,-0.15599601,0.054876097,0.3385645,0.082251474,-0.26288325,0.28248307,-0.104920596,-0.298737,0.08875003,-0.15397231,0.16411468,0.22012952
RNASE6,0.061773513,0.058988705,0.07334908,0.09147793,-0.038891934,0.0856694,-0.004502941,0.03162387,-0.057876285,-0.0029879212,0.08114495,-0.050524876,0.02962546,-0.10295944,0.06285102,0.0036245845,0.048980057,0.039834786,0.059920575,-0.07189689,0.04798459,-0.11272205,-0.07509357,-0.07313979,0.06721093,0.048282623,-0.10466301,0.098762065,0.0525144,-0.06894329,0.10612077,0.07886682,-0.059167206,0.0054709427,0.037553407,0.05872947,0.061169192,-0.0858183,-0.059829704,-0.09652999,-0.082464635,-0.09135108,-0.009681415,-0.116574615,-0.1054647,-0.10083096,0.069770396,0.073277906,0.11153401,-0.06869747,0.034303006,0.060611825,-0.0348844,0.0073608086,0.14123566,0.017982125,-0.105670884,0.113277785,-0.023888476,-0.12704188,0.035082527,-0.04158979,0.050786242,0.08996432
D1ERTD622E,0.035501327,-0.028050434,-0.031477615,-0.015441354,-0.036562007,-0.015295122,0.044452466,0.034237895,0.016502159,0.010606252,-0.029145405,0.023159252,-0.025943026,0.005607426,-0.0487714,-0.024737224,-0.015540104,-0.023738913,-0.021512248,0.009107608,-0.015049957,-0.0060722325,-0.007868139,0.0473274,-0.02684132,0.020665452,-0.009352857,-0.040892247,0.00932316,0.010100368,-0.01818639,0.009680904,0.009722523,0.030375779,0.029469272,0.01487308,0.0026102364,-0.033087403,0.0010096803,0.0064927787,0.0012752451,-0.00075591356,0.03659089,0.02532114,-0.010427617,0.013058342,-0.032170884,-0.014424321,-0.01682536,0.008619819,0.0032309666,-0.028847266,0.03834457,0.026167274,-0.00608019,0.01139576,0.023409959,0.018708425,0.0011907583,0.013118181,0.0045497306,0.013116827,-0.020052977,-0.030483786
FAM91A1,0.021694906,-0.05060687,-0.055448882,-0.04563282,-0.032803413,-0.051057994,0.056392808,0.026352502,0.03320497,0.017348334,-0.048285402,0.03963341,-0.037984304,0.02531125,-0.06552851,-0.025603324,-0.03632224,-0.039474644,-0.044198625,0.03431002,-0.028515156,0.016606294,0.00092434883,0.080082774,-0.037261397,0.01194942,0.017484257,-0.070907645,-0.0016999971,0.033827852,-0.040642805,-0.012234181,0.027915731,0.034339506,0.03239683,-0.014774781,-0.011219837,-0.028764024,0.016614322,0.028319906,0.022852134,0.013387591,0.038598053,0.063441545,0.017850101,0.031712785,-0.06372222,-0.034340147,-0.037673227,0.023667902,-0.0029480867,-0.053924244,0.06241007,0.019146152,-0.04496426,0.008356996,0.054267574,-0.015408589,0.022562604,0.034169313,-0.019129172,0.021037072,-0.028709829,-0.046312336
COPB1,-0.14495668,-0.13133381,-0.11639557,-0.19188629,0.11775936,-0.24894844,-0.019773673,-0.10732959,0.19990939,-0.065117404,-0.17207909,0.03267154,-0.012738809,0.15148431,-0.14825383,0.057357803,-0.1577748,0.004022859,-0.16373502,0.20793262,-0.09158402,0.2505651,0.19767542,0.20176981,-0.09889614,-0.16812384,0.22555752,-0.20569703,-0.12075186,0.18549474,-0.20062774,-0.18223345,0.047720097,-0.045693893,-0.07505136,-0.21680215,-0.18922035,0.18375331,0.2152439,0.18994997,0.19388257,0.1807445,0.009818202,0.25967258,0.22140458,0.18329005,-0.17411867,-0.13694729,-0.2271299,0.19678771,-0.098810196,-0.12217734,0.10189574,-0.08615266,-0.27980033,-0.11142585,0.19666676,-0.2333996,0.15119374,0.251407,-0.073914,0.17555965,-0.17800416,-0.15382409
NUSAP1,-0.05210788,-0.08675488,-0.07779089,-0.11567284,0.03346221,-0.13693206,0.023903526,-0.038447954,0.10762951,-0.015414398,-0.09923284,0.034463793,-0.028431565,0.07558857,-0.10564434,0.006657295,-0.09357856,-0.018772073,-0.093559265,0.11729618,-0.058255844,0.12665954,0.095965914,0.13640454,-0.06451867,-0.06583639,0.109655045,-0.13712284,-0.053680945,0.098826684,-0.11010901,-0.08610717,0.036374725,-0.0036444636,-0.022308689,-0.10390225,-0.09024932,0.06897371,0.11242512,0.09065767,0.09222917,0.08767778,0.0235905,0.15052825,0.10949413,0.10063852,-0.11644117,-0.083018415,-0.12304737,0.10415146,-0.048955783,-0.089734964,0.06965596,-0.02394519,-0.15197699,-0.04542169,0.119185954,-0.12110431,0.078036636,0.12532243,-0.040971972,0.08699412,-0.09969486,-0.10095985
NDN,0.15307814,0.15826297,0.14141393,0.23721755,-0.123316675,0.2796247,0.04883065,0.10712713,-0.20497495,0.049619354,0.19541365,-0.09692883,0.07517848,-0.13464573,0.1797232,-0.03123203,0.16209993,0.030860964,0.2103041,-0.221208,0.117080525,-0.26919168,-0.20757475,-0.24123505,0.10205719,0.15268104,-0.26920372,0.2696709,0.12033443,-0.1702134,0.21705985,0.2254374,-0.046725474,0.03807857,0.06481722,0.23155019,0.20631537,-0.23775902,-0.24172443,-0.19828886,-0.2111826,-0.20564094,0.011250911,-0.29525664,-0.2712444,-0.20745012,0.18640111,0.1612305,0.22624472,-0.23316261,0.1305446,0.180828,-0.115738265,0.10845093,0.29618776,0.109848216,-0.2366479,0.28146502,-0.13146633,-0.2910423,0.053190783,-0.18576278,0.1817596,0.18264292
VPS33B,-0.050775286,-0.09934704,-0.08827419,-0.121334836,0.03094784,-0.1470328,0.031714045,-0.034474432,0.113258466,-0.004805032,-0.10855615,0.042651772,-0.036693215,0.08496165,-0.11202641,0.0026072115,-0.09750889,-0.02522,-0.09995267,0.12246929,-0.060091622,0.13101254,0.09163165,0.14810003,-0.07301808,-0.06733503,0.11007125,-0.14568867,-0.060317677,0.11165833,-0.11975696,-0.09080054,0.045191035,0.0009539826,-0.012038119,-0.10150943,-0.09083679,0.059519865,0.109900355,0.0974036,0.10518052,0.09210944,0.031001667,0.15663265,0.118119545,0.11166416,-0.12311013,-0.0872396,-0.13089445,0.108033255,-0.041877024,-0.103159726,0.08673756,-0.019182358,-0.15969096,-0.04505136,0.13053396,-0.12112857,0.08063311,0.13115554,-0.050315015,0.08793028,-0.09530767,-0.10846427
LRRC14,0.010340528,-0.04958654,-0.054667063,-0.050002314,-0.011238195,-0.06164619,0.03913792,0.006228298,0.05041697,0.0055410936,-0.05457601,0.03463748,-0.031201743,0.041632477,-0.07549272,-0.018569916,-0.049674124,-0.020407274,-0.058175392,0.04128641,-0.034868486,0.046426065,0.026654368,0.07464508,-0.050214328,-0.008220736,0.03917902,-0.07943992,-0.011633132,0.05051031,-0.062843874,-0.025084294,0.022247963,0.01795894,0.01963678,-0.023284193,-0.027506776,0.0055005476,0.03854835,0.04216038,0.041480213,0.03416632,0.035552837,0.07528992,0.038340174,0.05316189,-0.05868092,-0.042332303,-0.05513178,0.04600473,-0.009855159,-0.05429549,0.061157137,0.012286641,-0.05768492,-0.008392487,0.062327128,-0.033427123,0.03267127,0.06227761,-0.012845442,0.044866823,-0.047366843,-0.06288189
ABI1,-0.07102402,-0.09392962,-0.07992456,-0.13732307,0.04385259,-0.1577996,0.022593068,-0.041331656,0.11913872,-0.021307206,-0.11694234,0.044844165,-0.025044948,0.07193537,-0.11187208,0.0169871,-0.10676716,-0.016578384,-0.10976677,0.12154018,-0.06550741,0.14359374,0.10018903,0.15815413,-0.066562034,-0.08594401,0.13238178,-0.14124826,-0.068500966,0.12497869,-0.12746844,-0.10147803,0.038734652,-0.014406175,-0.027244333,-0.12697998,-0.1043957,0.073154934,0.1292743,0.11399241,0.11056665,0.0922548,0.03287746,0.15691294,0.13093454,0.114471704,-0.10837376,-0.08858107,-0.13908473,0.11833197,-0.061515976,-0.10062088,0.09117719,-0.033168275,-0.16793063,-0.05455767,0.12954503,-0.1378996,0.083053105,0.13886228,-0.037002683,0.10112511,-0.10313706,-0.10335514
MAPK1,-0.04723062,-0.102951646,-0.10276685,-0.1092695,0.022126174,-0.1403198,0.03775754,-0.0228692,0.10422164,0.0019268021,-0.10224697,0.058283977,-0.03846079,0.07841821,-0.092524044,0.00023129582,-0.08828783,-0.05084186,-0.09843171,0.10197955,-0.059757352,0.118934356,0.06902121,0.14729133,-0.0777323,-0.051829338,0.12824622,-0.12546678,-0.050273407,0.11010362,-0.11901105,-0.09009755,0.037485138,0.022730831,0.000680821,-0.08805538,-0.07679528,0.05013793,0.08943835,0.11806117,0.09962161,0.09495831,0.048085034,0.16456054,0.11156563,0.10634382,-0.10340394,-0.09630158,-0.11025214,0.09388289,-0.029373601,-0.09764779,0.10602509,-0.018310845,-0.14614397,-0.046818506,0.12261501,-0.11113937,0.07087929,0.12598568,-0.044623315,0.07493119,-0.06975609,-0.10107739
ASB8,-0.047005348,-0.111365244,-0.10590691,-0.12389308,0.026779385,-0.15722172,0.03928667,-0.03244207,0.1226652,0.0026969314,-0.11857467,0.04286045,-0.041721687,0.10314168,-0.12388942,-0.0009327084,-0.10320574,-0.03409303,-0.11368677,0.13068038,-0.06338429,0.14097148,0.0956916,0.15999788,-0.089611016,-0.0719958,0.11858492,-0.16760197,-0.06300448,0.118624955,-0.1339322,-0.095567234,0.047222286,0.011213428,-0.0037863553,-0.09468469,-0.093938366,0.0591911,0.10795277,0.10573347,0.121969774,0.10761786,0.03483948,0.17423125,0.12485994,0.13119031,-0.1336412,-0.09529812,-0.14114235,0.118477985,-0.03354163,-0.10794916,0.102169745,-0.012318127,-0.16841143,-0.04579305,0.14469886,-0.124129646,0.08169706,0.14990962,-0.05862715,0.09403262,-0.101894096,-0.12205359
TTF2,0.014193027,-0.053188846,-0.056877293,-0.053550117,-0.020411989,-0.063031934,0.04932035,0.017628614,0.044422917,0.0060949996,-0.055826955,0.03558705,-0.033809885,0.03042518,-0.0731413,-0.020320438,-0.044834696,-0.02957689,-0.046354216,0.043041438,-0.026040208,0.03224555,0.011881198,0.0884734,-0.03585621,-0.0014048815,0.030528141,-0.08375065,-0.0052887127,0.033029933,-0.043339804,-0.022906382,0.023756593,0.029212356,0.018187594,-0.023420107,-0.026697308,-0.01232858,0.03636225,0.033917163,0.030267244,0.021568902,0.035843495,0.07828744,0.024951078,0.03502047,-0.07456373,-0.042227823,-0.055003285,0.04138492,-0.015032247,-0.056497704,0.056276683,0.013661645,-0.054785788,-0.0008978769,0.06481345,-0.036207817,0.026936086,0.04445648,-0.02045969,0.03088395,-0.0425184,-0.057645272
RGS1,0.04627868,0.0025800318,0.013577573,0.05542535,-0.050770514,0.03638507,0.04118887,0.040525265,-0.029813353,0.038427025,0.036218695,-0.0034864377,0.01073242,-0.048593514,0.035696268,-0.006285444,0.02541501,-0.001080893,0.03833728,-0.028486222,0.03413359,-0.07652505,-0.07318928,-0.008256413,0.031778652,0.037070826,-0.045431048,0.04557893,0.03160102,-0.03306693,0.06051442,0.035504766,-0.025573839,0.045148227,0.050600387,0.05667568,0.052039742,-0.102146834,-0.06037063,-0.029315664,-0.03196426,-0.05739435,0.026874483,-0.062421232,-0.06634036,-0.05880796,0.025214322,0.01845818,0.06729037,-0.06446788,0.0354564,0.02699915,0.009001937,-0.0003639683,0.08842777,0.008877814,-0.047223303,0.07218718,-0.012601723,-0.078679815,-0.007005848,-0.04350858,0.05231423,0.03172774
PPIC,0.1494765,0.13881426,0.12950477,0.21402457,-0.085419215,0.25348452,0.02517758,0.0847232,-0.17640734,0.02560725,0.17778367,-0.09875726,0.06522993,-0.1346936,0.14864941,-0.015488595,0.1450251,0.039641615,0.17431526,-0.19677424,0.10670895,-0.22436425,-0.16918387,-0.19288191,0.10682823,0.12757123,-0.24389239,0.22890484,0.10686062,-0.1590416,0.1942555,0.20206177,-0.060166217,0.020745438,0.06078297,0.18950889,0.15966749,-0.17476222,-0.19865984,-0.17365246,-0.17039776,-0.18642008,0.011019437,-0.25033715,-0.22842985,-0.18768461,0.16199587,0.14044683,0.19866401,-0.1947889,0.10897806,0.15852591,-0.10196123,0.07166078,0.2825601,0.08331597,-0.2002486,0.25480744,-0.10926235,-0.25924075,0.06256974,-0.13927257,0.14964047,0.16890725
CYB5R3,0.0548486,0.0087042,0.006636165,0.028163534,-0.037382703,0.035366785,0.028493224,0.045982968,-0.019936353,0.008300208,0.011056691,0.010233967,-0.0009592548,-0.013840269,0.0018851385,-0.016914576,0.016859017,-0.0062399507,0.0047711655,-0.056498185,-0.0018433481,-0.053384162,-0.04930994,-0.014867179,-0.0057034194,0.039616004,-0.04335186,0.030318964,0.026412938,-0.014134716,0.009391416,0.04550883,-0.013783954,0.031695895,0.039853152,0.052791372,0.030015565,-0.053697683,-0.030696608,-0.01771133,-0.028936718,-0.036927924,0.029951185,-0.03773347,-0.046809405,-0.029945124,0.030823074,0.019618582,0.026652806,-0.031685237,0.01689152,0.018874638,0.018576872,0.029733323,0.05490619,0.020798288,-0.027389232,0.058135748,-0.010596064,-0.02404868,0.018288124,-0.0075420793,0.018223554,0.014579929
CYB5R1,-0.028058816,-0.10610601,-0.10483209,-0.108594924,0.00528536,-0.13402526,0.060084023,-0.004275255,0.099469066,0.015591249,-0.11400346,0.063015655,-0.054418966,0.082692966,-0.11005235,-0.014557928,-0.08768578,-0.059662573,-0.09629321,0.10645455,-0.056440353,0.11203996,0.057870567,0.1577922,-0.08391499,-0.039103236,0.10441318,-0.1442847,-0.048106592,0.10193641,-0.115708806,-0.080524415,0.053689726,0.025673293,0.012046805,-0.07334538,-0.06839112,0.022131003,0.0760646,0.10593502,0.10228095,0.081744075,0.054611184,0.15509641,0.100601755,0.11404763,-0.116707236,-0.09412241,-0.1121863,0.0892885,-0.02047533,-0.10852527,0.1095433,0.0017940775,-0.14241242,-0.029570622,0.13347289,-0.09852055,0.059731808,0.122341275,-0.047483303,0.068867244,-0.07108315,-0.11464226
ZDHHC6,-0.056671012,-0.0955799,-0.096548416,-0.11964476,0.040666595,-0.15507008,0.027470287,-0.04411626,0.11444108,-0.013418134,-0.10978381,0.044148542,-0.03327547,0.10201518,-0.1110677,0.0043632835,-0.10264321,-0.023574665,-0.10170485,0.12596458,-0.058832683,0.14311577,0.09626342,0.14270136,-0.07548594,-0.067916095,0.120583944,-0.1472746,-0.059963588,0.11077984,-0.12437645,-0.0954142,0.046096437,-0.0038743922,-0.01734456,-0.10878662,-0.09424998,0.07339928,0.11202092,0.10524468,0.11000893,0.10247298,0.026340159,0.17272462,0.12034995,0.11369248,-0.12999569,-0.096141435,-0.13391075,0.11120258,-0.043398093,-0.10030653,0.08351776,-0.02436255,-0.16683991,-0.04799491,0.13072094,-0.13259032,0.086258054,0.14170659,-0.05465477,0.09384079,-0.1006101,-0.11410609
UBE2C,0.006725774,-0.01716714,-0.025501728,-0.03069942,-0.009837743,-0.022916006,0.016257968,0.0061500333,0.023428753,-0.0034549087,-0.02239424,0.015381424,-0.0036479086,0.018929925,-0.051786426,-0.009483278,-0.023537964,-0.002424769,-0.03514319,0.012894075,-0.018074494,0.017392313,0.025010863,0.04054454,-0.014313377,-0.0014516413,0.0052758176,-0.036836162,0.0017738324,0.023299847,-0.022902407,-0.0126433745,-0.0027997717,0.004074118,0.0061328374,-0.013369393,-0.019880958,-0.0007809177,0.020930454,0.0067725107,0.0011752732,0.00747101,0.028798547,0.035790037,0.008563347,0.01815676,-0.03666597,-0.019243944,-0.03504485,0.018381786,-0.013272937,-0.013324871,0.017117513,0.0032493398,-0.02944679,0.00063076615,0.02615447,0.0013816319,0.017494883,0.02713291,-0.0022698604,0.027189646,-0.03267734,-0.026760478
PREP,-0.016694505,-0.047426347,-0.049759284,-0.0629527,0.006917039,-0.07529895,0.02632035,0.0062490106,0.050856106,-0.011410993,-0.06673221,0.037904516,-0.016063444,0.025954936,-0.061705716,0.000505507,-0.043772217,-0.023862228,-0.060960405,0.043641742,-0.025709819,0.064156674,0.024075411,0.091308706,-0.03120996,-0.02269762,0.06368548,-0.06877161,-0.022860166,0.059519134,-0.060619146,-0.037673466,0.022474982,0.00081515964,-0.0024283938,-0.05742434,-0.047995023,0.01660005,0.052164085,0.059684377,0.042786498,0.037723914,0.042750597,0.084679514,0.053696327,0.046734847,-0.059143044,-0.046658278,-0.06455523,0.04956541,-0.02611147,-0.05269662,0.05645541,-0.00854627,-0.06863919,-0.014749777,0.069705576,-0.0593519,0.033349797,0.058771137,-0.008766763,0.050222926,-0.04142784,-0.05291548
HDAC10,0.16419259,0.20435317,0.20600387,0.27193555,-0.07951685,0.3199152,-0.021827009,0.09459022,-0.23750024,-0.0075043626,0.232414,-0.14638941,0.10003644,-0.17579122,0.23179635,-0.0021903962,0.19794142,0.0662305,0.20153816,-0.2710836,0.16486123,-0.2902329,-0.20899005,-0.30575818,0.14350896,0.1353044,-0.30963933,0.31659955,0.13154162,-0.19345741,0.26576793,0.245076,-0.08508645,-0.0038602613,0.060777716,0.2314395,0.19553253,-0.19581571,-0.21564528,-0.25372097,-0.23127794,-0.23133636,-0.008024514,-0.33939996,-0.29088056,-0.2687265,0.22336487,0.21202706,0.2661859,-0.20989761,0.12651649,0.22371607,-0.17625426,0.097922586,0.36663345,0.12466189,-0.2883966,0.29861772,-0.14975998,-0.32306123,0.10343821,-0.18427666,0.18856874,0.23891051
ARMC8,-0.09384596,-0.09964846,-0.08447615,-0.15054087,0.073946126,-0.17887728,0.0027315058,-0.07346749,0.1450431,-0.041068852,-0.11850718,0.025452806,-0.019054495,0.09732412,-0.11564772,0.030162852,-0.12118058,-0.004239209,-0.11812842,0.15153708,-0.07115064,0.17015576,0.14285249,0.1599493,-0.07118433,-0.10864179,0.14786784,-0.15562268,-0.08775574,0.13691828,-0.14625636,-0.120915346,0.039390884,-0.02989304,-0.045994982,-0.1482628,-0.12721598,0.11464452,0.15960379,0.12128092,0.12575693,0.120706744,0.010946421,0.18237157,0.15559167,0.1303276,-0.13302626,-0.099173896,-0.16336942,0.14322883,-0.07708545,-0.09864836,0.077135146,-0.052051507,-0.20524235,-0.07234993,0.14098883,-0.1615228,0.105362356,0.16742784,-0.050276242,0.118938245,-0.12847155,-0.10997273
HEXA,-0.08049251,-0.10009923,-0.079476394,-0.1374922,0.05091832,-0.16447477,0.003469199,-0.05054626,0.12596494,-0.023035452,-0.10263087,0.027036546,-0.018823914,0.07152152,-0.090908945,0.027469706,-0.10143726,-0.020208843,-0.10696012,0.13129085,-0.06451904,0.12805066,0.10457988,0.15242723,-0.06239409,-0.0827597,0.13607888,-0.12452297,-0.065220565,0.1260246,-0.12171241,-0.11402631,0.030746974,0.0013014441,-0.020354755,-0.13159364,-0.104421444,0.07834897,0.13307413,0.11532895,0.110670954,0.0959963,0.020823902,0.16302355,0.1350593,0.10397564,-0.11330917,-0.089873984,-0.123648845,0.1197592,-0.06167561,-0.08804341,0.08555273,-0.045658655,-0.16936336,-0.06395355,0.11905864,-0.14623302,0.099932715,0.13762653,-0.044387855,0.09671344,-0.09248525,-0.08657631
GLIPR2,0.020672057,-0.04239774,-0.016212843,-0.02101687,-0.028708631,-0.02789142,0.036878765,0.021758065,0.021888234,0.031247295,-0.015905984,0.008612117,-0.015321426,-0.02454302,-0.022187024,-0.016191445,-0.013654936,-0.029970251,-0.013218407,0.026438244,-0.0127154365,-0.004037507,-0.0021308288,0.046176758,-0.017073102,0.010846347,0.005263731,-0.030516751,0.009154338,0.021375006,-0.0033494085,-0.015189633,0.0055566803,0.029836923,0.04100834,-0.013041683,-0.0030070096,-0.048950784,0.008276105,0.0005082786,0.0065447874,0.00031273812,0.028108243,0.02027513,-0.0018041432,0.009621859,-0.027101323,-0.015837066,0.008318551,0.014469102,0.0038389377,-0.036106553,0.034784693,0.0117179975,-0.010035679,-6.264821e-05,0.016665377,0.009609003,0.024062706,-0.0143013485,-0.0069402233,0.0063392697,-0.009078331,-0.0045933314
USP37,-0.08715974,-0.100066304,-0.09575132,-0.14708912,0.06452126,-0.17819743,0.0066137426,-0.069257736,0.14027092,-0.036698896,-0.11646826,0.031259336,-0.021207877,0.10803169,-0.11583707,0.02219233,-0.118232414,-0.010744147,-0.11550006,0.14789623,-0.069263846,0.16742438,0.12987441,0.15518326,-0.0777977,-0.097899035,0.1495683,-0.15753718,-0.07636763,0.13003953,-0.1420753,-0.118342236,0.04173959,-0.015749257,-0.040220074,-0.14223915,-0.11974616,0.11477447,0.15004657,0.12252419,0.124064535,0.12246617,0.012537761,0.19455811,0.15013418,0.12459643,-0.14245744,-0.10690725,-0.16092359,0.13685885,-0.070247605,-0.099117406,0.078210324,-0.047758505,-0.19836317,-0.06886639,0.14247474,-0.1671099,0.107761905,0.16732743,-0.05887247,0.112909816,-0.12391967,-0.120011225
SPPL2B,0.062082935,0.048899457,0.04401732,0.070788786,-0.040337626,0.08877523,0.0026792549,0.05447667,-0.061572414,0.0078140795,0.038029514,-0.02381038,0.026967585,-0.043246727,0.033231243,-0.011123173,0.05958969,0.014643952,0.038002852,-0.08666552,0.04040446,-0.08590001,-0.06955119,-0.05899077,0.03309768,0.05546011,-0.09638794,0.07961413,0.04562009,-0.055096164,0.06884232,0.065643854,-0.039011832,0.013852534,0.031629357,0.059912108,0.04235982,-0.07891918,-0.0524406,-0.07540167,-0.06260526,-0.07390268,0.022256492,-0.084921025,-0.097455174,-0.08560857,0.04541526,0.0551506,0.052546866,-0.055674147,0.03310908,0.051517557,-0.028344134,0.028000288,0.09999786,0.04557091,-0.07344027,0.1091064,-0.034909744,-0.09113071,0.03225502,-0.021027213,0.036027007,0.061383817
XPC,-0.093797386,-0.062145986,-0.013830371,-0.11449094,0.07169384,-0.13342243,-0.03446165,-0.0768469,0.11305696,-0.06262846,-0.064399056,-0.0226292,0.02310472,0.013554234,-0.056469172,0.058503404,-0.08625035,0.024046518,-0.08229601,0.11447699,-0.058093756,0.11326634,0.12214824,0.110422224,-0.014917269,-0.09898481,0.10948474,-0.08248867,-0.067767054,0.09650519,-0.08149708,-0.086142726,-0.006614484,-0.044065714,-0.046817727,-0.13239491,-0.10058877,0.09147442,0.14878163,0.06543718,0.060884368,0.0672527,-0.012559673,0.09253918,0.104369126,0.0665025,-0.06130872,-0.038178388,-0.094796196,0.11875476,-0.087125,-0.04444489,0.03346751,-0.07217661,-0.12213235,-0.0742123,0.06461805,-0.114659734,0.094990075,0.09795062,-0.003034573,0.09700248,-0.10708411,-0.03360569
CD9,0.09125747,0.07743256,0.0664855,0.1349892,-0.0739869,0.1385246,0.03559689,0.061344735,-0.09759694,0.041486613,0.10113949,-0.041712984,0.033559177,-0.08552386,0.07970694,-0.010975271,0.08993283,0.019700956,0.10365854,-0.11017411,0.06868576,-0.14058053,-0.12565191,-0.110675216,0.06283169,0.084558114,-0.14144407,0.1286626,0.07314356,-0.08032345,0.11813924,0.11800449,-0.039307363,0.032217845,0.05282765,0.113638826,0.101569235,-0.13723594,-0.13699841,-0.09434022,-0.09565826,-0.11595348,0.01919952,-0.13918932,-0.13377011,-0.10998508,0.089400575,0.08125661,0.1268537,-0.13215981,0.08186403,0.08179485,-0.04947359,0.04366418,0.17894763,0.04532458,-0.10686153,0.14822057,-0.061316755,-0.1575127,0.017860383,-0.08854732,0.10441375,0.095903516
ST6GALNAC4,0.1024694,0.039277703,0.042051885,0.09312414,-0.076001674,0.10030374,0.049544215,0.082670696,-0.06981227,0.03316406,0.041811913,-0.006851889,0.005452499,-0.04017623,0.047385357,-0.02664572,0.057293184,-0.0071282685,0.055229437,-0.1062685,0.02917048,-0.12445032,-0.10168519,-0.06282526,0.02211077,0.074708745,-0.11606092,0.08016048,0.05748048,-0.06533227,0.06825104,0.09988015,-0.028994367,0.049464073,0.05558098,0.10851476,0.07852462,-0.12733012,-0.09911046,-0.070084766,-0.06797153,-0.085698694,0.03235789,-0.109805696,-0.11421469,-0.07943869,0.07211779,0.06586168,0.08195279,-0.08562571,0.05414189,0.05020881,-0.0071072597,0.061955802,0.122131936,0.048445523,-0.080970846,0.1317552,-0.04612292,-0.09329416,0.025411578,-0.046437323,0.06131336,0.05755178
SPC24,0.04513785,-0.008165441,-0.016925037,0.008558467,-0.04754117,0.020172928,0.040870283,0.053504907,-0.00997347,0.019209199,-0.013511084,0.026884204,-0.012655951,-0.0027211308,-0.018854447,-0.024615072,0.015261456,-0.030637704,-0.0066284053,-0.03353198,-0.0015722327,-0.03261547,-0.044248402,0.016456913,-0.013355412,0.038038835,-0.029341275,-0.0018945225,0.022207264,-0.006990541,0.006980352,0.028813563,-0.00039169192,0.03635335,0.03538781,0.03495825,0.02007088,-0.05418074,-0.029837169,-0.00922754,-0.018104006,-0.025363747,0.042865403,-0.0016115103,-0.032748163,-0.016583854,-0.0016973391,0.0013287598,0.0031977668,-0.024069134,0.018427249,-0.00267532,0.03130361,0.034675524,0.026034486,0.022830471,0.0045113936,0.044782043,-0.009954621,-0.014434652,0.0033287704,-0.004748082,0.008753687,-0.011524696
USF3,-0.0149875125,-0.08681917,-0.08492131,-0.09785232,-0.0007164944,-0.10889961,0.051775247,-0.005107999,0.08325726,0.012166895,-0.08683923,0.045917526,-0.04691255,0.06680621,-0.10137968,-0.017025135,-0.07631862,-0.040547654,-0.07961744,0.091789275,-0.05001483,0.08624648,0.05637286,0.1285276,-0.06824654,-0.031190313,0.07311957,-0.13104574,-0.036906917,0.08063813,-0.093805365,-0.055908766,0.048658513,0.01930501,0.010121549,-0.058345605,-0.054534405,0.019612238,0.06862399,0.0651924,0.07067243,0.0660431,0.03887104,0.12631796,0.079201706,0.08899194,-0.108511955,-0.07332576,-0.09822439,0.07667917,-0.023053257,-0.094470054,0.0807806,0.005620651,-0.11636884,-0.019960828,0.11130585,-0.08121896,0.052392446,0.0926055,-0.04012487,0.052935712,-0.06778485,-0.09420335
PBK,-0.019101553,-0.06972124,-0.07540659,-0.08803083,0.00967312,-0.09643489,0.037120912,-0.010374919,0.07556841,-0.003668666,-0.07155357,0.03871449,-0.03340728,0.06584893,-0.091077216,-0.008622333,-0.07325705,-0.027274571,-0.07577072,0.07873359,-0.042565987,0.079989985,0.05888421,0.10657694,-0.055449165,-0.029272381,0.06803545,-0.109443754,-0.03304531,0.071262315,-0.085708044,-0.056391157,0.036691733,0.009221195,0.0046530496,-0.057481788,-0.052190162,0.03216055,0.065057516,0.059545774,0.061392523,0.059616916,0.029952528,0.1155577,0.0706689,0.07357907,-0.09711019,-0.0683213,-0.087364614,0.06750951,-0.028282603,-0.07339257,0.06389997,-0.0051055327,-0.10742775,-0.021243967,0.09263718,-0.074495696,0.05194108,0.08784473,-0.032388486,0.054426983,-0.06502937,-0.08118674
ANKFY1,-0.031596135,-0.083274946,-0.0731181,-0.10177642,0.01147983,-0.11925161,0.041018613,-0.017291367,0.090183064,0.0070812516,-0.09421685,0.039631598,-0.037790418,0.057037134,-0.10376978,-0.007225603,-0.07968849,-0.030471288,-0.0862761,0.10132431,-0.054271556,0.10437869,0.07116974,0.13236606,-0.060981125,-0.046762675,0.08499672,-0.12833248,-0.044995923,0.09133595,-0.09923268,-0.06588138,0.041179515,0.0030207848,-0.003376145,-0.083443746,-0.07174921,0.031145312,0.085768744,0.07660206,0.07861736,0.068287194,0.03700186,0.12874542,0.090725936,0.09423761,-0.10131974,-0.06630252,-0.1061834,0.08833656,-0.030672561,-0.092807524,0.0795988,-0.0031962767,-0.13022336,-0.025114216,0.111101836,-0.08732822,0.061384212,0.10274999,-0.033683814,0.07025623,-0.08055342,-0.08768067
SUPT7L,0.005262833,-0.08293224,-0.07265099,-0.07182317,-0.019571368,-0.08310115,0.061469838,0.011788804,0.06395927,0.029418036,-0.07862701,0.048396558,-0.053530782,0.04463474,-0.091080144,-0.025896855,-0.05662286,-0.045785688,-0.06717849,0.074134596,-0.04488001,0.061058175,0.03673035,0.113105156,-0.06393289,-0.013676614,0.04761187,-0.11537887,-0.02475097,0.06426461,-0.07925909,-0.034570783,0.043266498,0.024547677,0.024010904,-0.035503823,-0.03524426,-0.012338027,0.03976636,0.05001529,0.05535888,0.044685125,0.050424226,0.096922025,0.05353386,0.07591443,-0.08336099,-0.053673893,-0.06842449,0.056314968,-0.0024864264,-0.089003466,0.07920113,0.023702748,-0.08491228,-0.008655913,0.09465009,-0.042873997,0.0386126,0.07264021,-0.0285784,0.043201037,-0.052150857,-0.07957314
CBFB,-0.20226535,0.30411172,0.40907568,0.21286336,0.30776852,0.16582145,-0.3825515,-0.22752188,-0.050454665,-0.46344638,0.32169503,-0.44610012,0.37273598,-0.33182907,0.2746964,0.34672743,0.008981369,0.46490294,0.14536743,-0.14436993,0.08047831,-0.089303724,0.11504858,-0.31552452,0.36125338,-0.21078397,-0.17992336,0.36923483,-0.008358546,-0.1595793,0.21014056,0.07593959,-0.39154524,-0.331239,-0.22419134,-0.10624985,-0.09387456,0.2353873,0.28672478,-0.31709877,-0.21997672,-0.18464866,-0.36138892,-0.37834677,-0.17601326,-0.38112485,0.2859305,0.29125962,0.121415384,0.073357865,-0.21761161,0.36899894,-0.3947857,-0.3034045,0.24201985,-0.17136641,-0.4059618,0.111948855,0.03568231,-0.15490165,0.24890223,0.09345871,-0.13644433,0.46805465
DNAJC5,-0.048053253,-0.099539265,-0.098075666,-0.11326741,0.025618983,-0.13982333,0.03284521,-0.031930827,0.10859883,-0.0066470727,-0.10090913,0.041718766,-0.03706649,0.08519323,-0.10413599,0.0015961379,-0.091984004,-0.03739082,-0.101202294,0.1120085,-0.059401937,0.1228961,0.08320262,0.14118442,-0.07798939,-0.05951561,0.1114675,-0.13836205,-0.05358925,0.10559518,-0.11710668,-0.08522376,0.039948486,0.011407065,-0.0058586746,-0.09035444,-0.08117208,0.058325976,0.09692445,0.096383974,0.10018174,0.09351022,0.03036028,0.16063388,0.11066375,0.10668157,-0.11589177,-0.08696222,-0.11888956,0.102374196,-0.03299099,-0.09394106,0.09131045,-0.01492656,-0.14808944,-0.044662558,0.124803886,-0.11442696,0.07673593,0.13150193,-0.049497932,0.08145712,-0.086011544,-0.10436554
UNK,-0.0444688,-0.10274516,-0.098303534,-0.11705215,0.029201673,-0.14935812,0.034909524,-0.03192895,0.11471003,-0.0035494827,-0.11267321,0.045949295,-0.0409604,0.09290366,-0.11652786,-0.0001693517,-0.0985391,-0.027772047,-0.102660984,0.121313184,-0.05752988,0.12997538,0.08556678,0.14610678,-0.082283534,-0.06645368,0.109723456,-0.15342899,-0.056905475,0.10914338,-0.12389649,-0.08872656,0.04391391,0.008827033,-0.0064090043,-0.08974565,-0.088436276,0.056931503,0.10213839,0.10151605,0.11317979,0.09623178,0.03174158,0.16167377,0.11468143,0.11442794,-0.12716486,-0.090969756,-0.13181868,0.1092858,-0.034458086,-0.10201781,0.092361294,-0.016591772,-0.15634917,-0.04684761,0.13418382,-0.12039729,0.08257418,0.14065713,-0.05557868,0.0903807,-0.09440604,-0.116163
BAG2,0.0687736,0.018922575,0.010476284,0.05009241,-0.05806274,0.058660638,0.038618352,0.065866664,-0.030848164,0.020348929,0.013475522,0.007365009,0.0024097264,-0.013617016,0.011013992,-0.019217014,0.030099943,-0.009681709,0.020852912,-0.068730496,0.0087027345,-0.07141534,-0.063604325,-0.022396684,0.0034397207,0.054828763,-0.06447239,0.041204978,0.03768409,-0.033805646,0.030762251,0.060979106,-0.025312066,0.045100838,0.042632513,0.076607294,0.04562998,-0.07786428,-0.056315854,-0.027257763,-0.04146414,-0.04632612,0.03892585,-0.056960084,-0.07126954,-0.037440903,0.035163656,0.028745078,0.030153684,-0.0507097,0.031205457,0.027465291,0.012501596,0.033641823,0.07163619,0.028865233,-0.0431518,0.08785531,-0.02951676,-0.042046,0.019943587,-0.019295892,0.029144742,0.017714202
MFNG,0.045805898,0.0121243,0.021410305,0.067507654,-0.04062931,0.050067376,0.035681196,0.032074872,-0.037464518,0.045279548,0.0531132,-0.008986225,0.025802918,-0.052221537,0.046675086,-0.0083404705,0.037697397,0.0065509602,0.048063125,-0.03728097,0.033074614,-0.08834123,-0.06598595,-0.033823796,0.037164826,0.039020456,-0.051051855,0.062072102,0.04030817,-0.03844349,0.06443785,0.032525152,-0.033955235,0.040302332,0.055271145,0.06035491,0.0525838,-0.1028029,-0.0641538,-0.04333805,-0.03983027,-0.06025839,0.017862458,-0.066071846,-0.07691507,-0.067757875,0.040363856,0.020727176,0.090889595,-0.07032119,0.041993793,0.0384428,-0.00039893948,0.004166268,0.09857435,0.0082787275,-0.0606028,0.076512225,-0.0012078686,-0.08798556,-0.010371365,-0.04694891,0.05518216,0.051181063
APEH,-0.042861212,-0.02906837,-0.017177776,-0.060334474,0.043128625,-0.08017614,-0.019309577,-0.03589043,0.063013375,-0.053216055,-0.03817273,-0.0005208049,0.014500909,0.0019957162,-0.03959152,0.034420997,-0.054095194,0.018625949,-0.057218812,0.044193815,-0.024824534,0.06656012,0.056140155,0.0668083,-0.002458401,-0.051921465,0.068026766,-0.043428656,-0.033371087,0.055483773,-0.049301237,-0.03731528,-0.009830423,-0.02947985,-0.03203278,-0.07931538,-0.06372687,0.060326762,0.08466672,0.04324623,0.028459862,0.035561606,0.004535338,0.0652588,0.057749726,0.021612957,-0.032917067,-0.017152555,-0.061434917,0.066702984,-0.05319468,-0.02354256,0.031827822,-0.04260755,-0.054813378,-0.040393762,0.034645516,-0.06548304,0.051712226,0.055147734,0.010143105,0.06866642,-0.05589964,-0.018600099
MYB,-0.03500954,0.0037704036,0.040588472,-0.00069209933,0.034478247,-0.02115969,-0.052663524,-0.020966128,0.024827588,-0.056252047,0.019599296,-0.034688666,0.045192562,-0.06402859,0.04722941,0.054059952,0.0016088784,0.030141518,-0.008702707,-0.010458492,0.010246754,-0.0017861761,0.021254415,0.001725398,0.040308766,-0.037502497,0.037691362,0.046834048,-0.004386915,0.017351072,0.018981636,-0.007274583,-0.057884812,-0.013165054,-0.011445254,-0.039094105,-0.028768245,0.035665013,0.049383506,0.00645357,-0.024477694,-0.005487919,-0.0012849681,-0.013992411,0.009619437,-0.037141792,0.035838343,0.011719857,0.018515058,0.020073604,-0.045663804,0.033387613,-0.014523787,-0.048112012,0.033819955,-0.050602064,-0.034588378,-0.0058868807,0.03106672,-0.0028628074,0.027276734,0.02058031,0.0011770129,0.041905306
SLC39A9,-0.034300037,-0.07855202,-0.07513986,-0.0981759,0.019966727,-0.12220013,0.038704436,-0.020521648,0.09063169,-0.002014853,-0.094615966,0.041301116,-0.040051647,0.05983988,-0.10248716,-0.0032360405,-0.083650984,-0.02898109,-0.0849303,0.09758154,-0.050934255,0.10653917,0.068429105,0.12664512,-0.0609963,-0.044383842,0.08719155,-0.12481265,-0.045374084,0.09228513,-0.10015813,-0.06717055,0.040790923,0.0016642576,-0.006518349,-0.081982575,-0.071911015,0.03392399,0.08614265,0.08264221,0.08119257,0.06973777,0.033796936,0.1300452,0.091779016,0.09313263,-0.10360423,-0.07059776,-0.108704746,0.09028447,-0.032925215,-0.09137007,0.076517366,-0.009103142,-0.13205189,-0.029852452,0.11066033,-0.09187603,0.061147463,0.105947584,-0.034143664,0.07043169,-0.07577721,-0.08636835
MYO1G,0.016996905,0.061574444,0.09598625,0.0766291,0.008307194,0.057111148,-0.045890983,0.0010834113,-0.035344597,-0.050829545,0.09285847,-0.091739304,0.06273195,-0.121741116,0.08556105,0.04996497,0.034545437,0.06576659,0.051485244,-0.052995227,0.04546576,-0.099708214,-0.0355646,-0.0631772,0.09269992,0.00087112933,-0.06432104,0.11470899,0.03656508,-0.057180345,0.10328386,0.04986374,-0.09230669,-0.023869485,0.016239801,0.023971885,0.026097074,-0.03755216,-0.0063128695,-0.0912215,-0.078502774,-0.08081483,-0.03910911,-0.11833237,-0.0816632,-0.1062242,0.07606895,0.07208355,0.10160599,-0.032310236,-0.006741181,0.088374555,-0.054084316,-0.0390709,0.1309212,-0.013754472,-0.11326526,0.08860142,0.0035538627,-0.11092901,0.045600653,-0.02259077,0.02362436,0.114457875
TBC1D2B,0.11231916,0.04287958,0.046729717,0.099773705,-0.087204725,0.11190979,0.05479682,0.08461635,-0.08373204,0.040660806,0.059175096,-0.011019632,-0.0062777176,-0.071204245,0.05759442,-0.031204194,0.066946894,-0.0162744,0.07709195,-0.1011791,0.039053448,-0.1441187,-0.11031572,-0.063055545,0.03596643,0.08856921,-0.13880514,0.08585146,0.06263767,-0.08077282,0.09816623,0.11578768,-0.018422429,0.05209808,0.053730328,0.11931837,0.09017344,-0.14365715,-0.112883784,-0.08924553,-0.09341191,-0.09912945,0.032833517,-0.11965988,-0.13298765,-0.09580684,0.06773597,0.07523663,0.0960438,-0.101643026,0.06527357,0.05307592,-0.014571192,0.07231862,0.13645488,0.055985563,-0.08785513,0.14470878,-0.0652187,-0.13017294,0.027424058,-0.075076565,0.07727948,0.069156654
PLAC8,0.055873726,0.27613026,0.31969368,0.28092638,0.052954733,0.29037827,-0.18832426,-0.018959925,-0.20179611,-0.1436724,0.31990016,-0.26708084,0.20716606,-0.27744052,0.30501154,0.121174216,0.16529031,0.22296354,0.2044911,-0.25463322,0.18604106,-0.2691328,-0.10895846,-0.3521697,0.26111895,0.038815506,-0.27828535,0.40320975,0.10382518,-0.20588927,0.30679497,0.18729785,-0.23634973,-0.13419846,-0.007010367,0.10703441,0.11812949,-0.04073161,-0.09899262,-0.3154725,-0.24289364,-0.25182253,-0.14584795,-0.38749784,-0.26154658,-0.33287644,0.2842846,0.23986767,0.3168531,-0.1689317,0.012458291,0.29226094,-0.25776312,-0.05529912,0.41103545,0.018529162,-0.37938586,0.28493038,-0.047159035,-0.33876878,0.14525482,-0.09657315,0.12415451,0.33072522
AP1B1,-0.012310471,-0.054392815,-0.055778645,-0.05543258,0.0019914713,-0.07266602,0.026290603,-0.001858674,0.05608765,-0.004975844,-0.06266073,0.036152646,-0.023570724,0.038141984,-0.06835377,-0.0033298805,-0.045126997,-0.019245006,-0.06190789,0.047028832,-0.03332578,0.062371016,0.031667866,0.07797692,-0.044512615,-0.023791995,0.053096943,-0.07116037,-0.017569374,0.0579255,-0.06811435,-0.037141904,0.014433406,0.012250741,0.008020595,-0.043687154,-0.043891653,0.02389986,0.04505586,0.059178036,0.048532557,0.038952388,0.035888024,0.08771914,0.04944513,0.047245264,-0.056387953,-0.04217958,-0.0616766,0.04978487,-0.015172752,-0.048446942,0.058199883,0.00032509118,-0.06832118,-0.018167749,0.07187018,-0.052109867,0.04546056,0.07436064,-0.015705988,0.055040754,-0.04840993,-0.06021263
FBXW5,-0.01721526,-0.07584013,-0.07627452,-0.08201413,0.007209016,-0.10414678,0.044368632,-0.010216653,0.07537555,0.0034599341,-0.08025901,0.043451115,-0.040316887,0.061853696,-0.09228908,-0.008846968,-0.07341999,-0.02983249,-0.07744471,0.079898685,-0.04824867,0.081617616,0.052894354,0.11421938,-0.061714463,-0.033650316,0.07147326,-0.10962321,-0.034595,0.08249206,-0.09186263,-0.05427444,0.037640013,0.01045427,0.009738335,-0.059139922,-0.054454695,0.020592459,0.06599611,0.06884052,0.072145715,0.059085205,0.038808394,0.11686014,0.07558177,0.081082664,-0.09032957,-0.06578016,-0.08533494,0.07302941,-0.018717363,-0.08461226,0.08039131,0.0011598244,-0.10788558,-0.023835387,0.09930277,-0.07031817,0.051439863,0.09168261,-0.032760248,0.059486173,-0.06469156,-0.07929811
MSH6,-0.06297217,-0.08818224,-0.086940534,-0.11743194,0.04576675,-0.1489484,0.015625004,-0.04784283,0.11215021,-0.025580768,-0.09835502,0.038084894,-0.021924973,0.08617151,-0.09758871,0.011403162,-0.097457886,-0.01434204,-0.094334446,0.11683263,-0.056926064,0.13106243,0.09475196,0.1323246,-0.062077656,-0.0707505,0.12338669,-0.12649578,-0.056273926,0.10274512,-0.114950694,-0.09409684,0.032353573,-0.003290617,-0.025402736,-0.11048494,-0.09540528,0.08232529,0.11833763,0.10385442,0.09900895,0.09499421,0.017745996,0.16380177,0.11487154,0.09670715,-0.117235795,-0.09159489,-0.12229747,0.10748196,-0.053304512,-0.08603172,0.07488918,-0.035928868,-0.15760861,-0.05298269,0.113910645,-0.13471338,0.088359594,0.13207032,-0.048978917,0.09116137,-0.0980726,-0.09865354
EPAS1,0.0769701,-0.014583152,-0.013449393,0.026688118,-0.07883625,0.015451837,0.07888292,0.0642775,-0.017044194,0.039219722,-0.0069140494,0.017334541,-0.039931342,-0.029795393,-0.021963067,-0.04188145,0.0068999827,-0.03342805,0.01397568,-0.013483591,0.0052511245,-0.06538244,-0.06644934,0.023226969,-0.008753918,0.056583405,-0.06462818,-0.011112642,0.034000352,-0.023912847,0.029622402,0.04751762,0.0118565485,0.047972627,0.060090095,0.048948266,0.03928201,-0.11257806,-0.04700134,-0.032826558,-0.024130438,-0.044922516,0.03825383,-0.023510743,-0.06746283,-0.024028562,-0.012849845,0.027005251,0.028047591,-0.029419784,0.039823163,-0.020357605,0.0379479,0.04641881,0.03915716,0.038820773,-0.0059374534,0.067919105,-0.033863556,-0.057907138,0.0038421825,-0.021056795,0.017479219,0.0058342777
SLC6A6,-0.08238924,-0.09161056,-0.08009005,-0.13845167,0.06292639,-0.16852495,0.0016792342,-0.06185992,0.12942019,-0.038578376,-0.10728116,0.027051797,-0.015727006,0.08512753,-0.105114505,0.028695974,-0.11294003,-0.00821089,-0.11310892,0.13161182,-0.06671358,0.1498988,0.11658854,0.14999762,-0.06369959,-0.09366172,0.13849539,-0.13692354,-0.07504994,0.12866603,-0.13051075,-0.10844291,0.03515149,-0.019699048,-0.03609833,-0.13820662,-0.11264253,0.09739717,0.1421231,0.11306213,0.11462331,0.10482832,0.0139374975,0.16922396,0.14151528,0.113486946,-0.1168824,-0.08803153,-0.13989393,0.12868416,-0.06725489,-0.09412001,0.082745396,-0.0476279,-0.17590739,-0.0651788,0.124901876,-0.15010867,0.09810867,0.14865975,-0.042518564,0.10677949,-0.10987106,-0.095011786
TMEM97,-0.02019075,-0.06267818,-0.06800135,-0.078041136,0.010102397,-0.09219812,0.036291953,-0.009197019,0.066292614,-0.004498627,-0.06950852,0.04045088,-0.029923469,0.05017863,-0.08152521,-0.007524371,-0.062208787,-0.029408865,-0.06836137,0.06825109,-0.041436337,0.07632105,0.047987863,0.10222446,-0.04753726,-0.02633826,0.06830456,-0.09306761,-0.03055935,0.06715386,-0.07908539,-0.048980884,0.03227389,0.003978119,1.3649464e-05,-0.06061144,-0.05362306,0.0250014,0.06094297,0.06332746,0.05392376,0.053841345,0.034080446,0.10767903,0.06596532,0.065956734,-0.08056002,-0.05745455,-0.079748526,0.062834606,-0.025293764,-0.06779307,0.0633687,-0.0033105537,-0.09805835,-0.016354635,0.0850288,-0.06824645,0.047224052,0.07748763,-0.024189763,0.05274199,-0.05635605,-0.066974595
MFSD14B,-0.0682049,-0.10182219,-0.09659783,-0.133101,0.05209297,-0.16415222,0.020491017,-0.05121579,0.12780121,-0.020017732,-0.11937867,0.04135202,-0.033917382,0.10526116,-0.12030777,0.012993805,-0.11137624,-0.022538729,-0.11510599,0.1361278,-0.06470718,0.1588096,0.11246619,0.15506062,-0.07875546,-0.08171975,0.13183321,-0.15652059,-0.072429076,0.12517646,-0.13813183,-0.10691987,0.048094086,-0.0128159905,-0.02479598,-0.120784126,-0.10862926,0.086203225,0.12628081,0.11592196,0.12192485,0.11068549,0.02845001,0.17946343,0.13759413,0.12826349,-0.13385467,-0.09928526,-0.14940736,0.12507986,-0.052053027,-0.102850534,0.087071486,-0.031821527,-0.18373221,-0.055036727,0.14533858,-0.14246523,0.09237793,0.15734375,-0.05356781,0.10434542,-0.10801385,-0.118629485
POLE3,-0.05984236,-0.08983089,-0.09133012,-0.11703569,0.036418483,-0.14218067,0.023562456,-0.04187727,0.11355522,-0.01971701,-0.10265131,0.039876215,-0.032563686,0.08987044,-0.112677306,0.005139552,-0.09738256,-0.025018945,-0.10345033,0.11892493,-0.06308777,0.13763143,0.09821085,0.13796198,-0.07400675,-0.06687741,0.11915883,-0.1394798,-0.058282774,0.10683339,-0.121951945,-0.089842245,0.036850013,-0.0037333006,-0.020425659,-0.1071029,-0.08962174,0.081914894,0.10768281,0.104979485,0.10231517,0.09523889,0.029606799,0.16445215,0.12040513,0.10740368,-0.11756216,-0.088236056,-0.12697813,0.10845287,-0.043710187,-0.092239,0.07798533,-0.023461536,-0.1568842,-0.046718754,0.12618618,-0.12077149,0.081779934,0.14256072,-0.041951887,0.08926302,-0.09577198,-0.106246054
MARCH5,0.012927127,-0.032682072,-0.03113097,-0.024040988,-0.011152096,-0.03271395,0.023258723,0.015615139,0.026143942,0.0017726719,-0.038066786,0.03008326,-0.016826041,0.010365587,-0.039537948,-0.008766964,-0.016398177,-0.014970131,-0.03738009,0.007755041,-0.020585991,0.020808393,-0.00029132608,0.044241183,-0.03234099,-0.0012302101,0.0180357,-0.034074105,-0.0008464549,0.03150623,-0.038159706,-0.0076295473,0.0037461668,0.019597836,0.019319925,-0.008861788,-0.01912567,-0.0044786856,0.020333521,0.0285686,0.019695714,0.011665463,0.037014995,0.04241006,0.01247406,0.015897803,-0.021393627,-0.019639865,-0.027050503,0.019947369,-0.0017743967,-0.024807315,0.043602116,0.011524342,-0.020225246,-0.0077978596,0.03991061,-0.013777729,0.021279255,0.03544273,-0.0010288395,0.032321997,-0.023268357,-0.032260094
TBL3,-0.062442034,-0.09367365,-0.09348542,-0.1244387,0.04484754,-0.15751287,0.022578737,-0.045392707,0.11899729,-0.020075483,-0.11303379,0.04130034,-0.031194896,0.097663224,-0.114783496,0.009427547,-0.10445477,-0.019834273,-0.10587404,0.12696679,-0.061112292,0.14819497,0.09983235,0.14591767,-0.071312174,-0.074026294,0.124776,-0.14581627,-0.06383684,0.11489129,-0.12813562,-0.09737933,0.044798575,-0.010454283,-0.023291647,-0.11865123,-0.10197678,0.07974935,0.11800398,0.112750396,0.112590775,0.101718225,0.026860157,0.17378628,0.12766436,0.11530535,-0.12790623,-0.091091305,-0.13907868,0.11742163,-0.050272226,-0.10004602,0.08458441,-0.028477926,-0.1712005,-0.04812195,0.13400313,-0.13593605,0.09012185,0.14611667,-0.04935711,0.099806905,-0.102294356,-0.111296296
QARS,-0.05178598,-0.094721586,-0.10105837,-0.12603775,0.028897697,-0.14690897,0.043456733,-0.025860153,0.107502505,-0.0034626573,-0.117564246,0.062003642,-0.041119426,0.09715685,-0.122738525,-0.0023287535,-0.10231011,-0.03542562,-0.10630599,0.11642294,-0.06520996,0.13785914,0.08734897,0.15625697,-0.08028371,-0.062775955,0.12239394,-0.14321035,-0.05845206,0.12060548,-0.13373858,-0.094649285,0.050799392,-0.0011881599,-0.007874917,-0.10140139,-0.0898706,0.05909337,0.09876312,0.119972184,0.11249234,0.09133636,0.050034158,0.16503249,0.12276774,0.12559141,-0.1214752,-0.102471784,-0.13397342,0.101884186,-0.042169385,-0.10547292,0.09566007,-0.01792949,-0.16713314,-0.034931958,0.14051196,-0.117209546,0.073006295,0.14309075,-0.045418248,0.082328565,-0.08836648,-0.11680269
LY6A,0.1265268,0.15528381,0.13908282,0.21980992,-0.059095845,0.24200062,0.0075235255,0.052103266,-0.17312084,0.031062528,0.18513289,-0.10335083,0.100849584,-0.118824765,0.15941687,-0.001200892,0.13309109,0.068323836,0.17970018,-0.1908297,0.123704635,-0.21974272,-0.1615969,-0.20905414,0.12379376,0.11274114,-0.23015355,0.2540323,0.098143205,-0.15800136,0.19915211,0.16525877,-0.086418614,0.014852176,0.06194613,0.18317705,0.16773778,-0.16906527,-0.19735095,-0.16956566,-0.15887554,-0.19270813,-0.0042031705,-0.2657713,-0.22709423,-0.19592838,0.1741999,0.12258871,0.22085959,-0.20159382,0.09941216,0.17756419,-0.112952895,0.038730435,0.28692773,0.068773046,-0.2253924,0.24780276,-0.07717736,-0.25566903,0.044253163,-0.13000815,0.14968356,0.1818892
HAGH,-0.052841764,-0.08235678,-0.08024173,-0.115391836,0.035325572,-0.13572821,0.022270074,-0.040370338,0.102519274,-0.01835246,-0.09053905,0.036873505,-0.024895579,0.08014651,-0.0980977,0.0068467855,-0.09420614,-0.015088439,-0.08778018,0.10983364,-0.053688772,0.12504135,0.091232724,0.1269323,-0.06023486,-0.06192244,0.10874506,-0.12831165,-0.05151694,0.09732071,-0.106542386,-0.0840225,0.036024205,-0.004467313,-0.02302875,-0.10409057,-0.08726758,0.0715181,0.11097436,0.08783436,0.08786189,0.08637685,0.017071197,0.15204887,0.107854955,0.09090184,-0.11581054,-0.08294046,-0.12130776,0.0980849,-0.052994266,-0.089915715,0.066947825,-0.02603506,-0.1489786,-0.04399801,0.11013636,-0.123247914,0.08022598,0.119183436,-0.04391203,0.08233896,-0.09268169,-0.10076268
BYSL,-0.025806572,-0.08058837,-0.07644468,-0.09511192,0.013051162,-0.10931501,0.038138382,-0.016506955,0.08525579,-0.0014555082,-0.082125746,0.04037705,-0.03600262,0.06919603,-0.09543753,-0.0076025724,-0.07816359,-0.028086133,-0.07772078,0.09280427,-0.046019055,0.0913757,0.069023475,0.11970794,-0.058095388,-0.039342783,0.07463095,-0.119086966,-0.03971157,0.07800266,-0.0926935,-0.065579236,0.036336787,0.008002424,0.0007067546,-0.066063695,-0.062184498,0.035744697,0.07443873,0.06807661,0.071517885,0.06427065,0.030918578,0.12343468,0.07747287,0.08330047,-0.10356581,-0.074245475,-0.094536796,0.07501594,-0.03138011,-0.0813198,0.06771848,-0.0063308105,-0.12042087,-0.025966797,0.101011485,-0.082203746,0.05783725,0.09733288,-0.038477324,0.060674302,-0.07454579,-0.08992307
SGTA,-0.067187734,-0.09554802,-0.10042939,-0.12449011,0.04905127,-0.15940578,0.015717957,-0.05489473,0.12538101,-0.025169168,-0.10748166,0.03585065,-0.02732601,0.11010766,-0.11371636,0.011053212,-0.10891853,-0.014584459,-0.11148769,0.12815124,-0.062486418,0.15024021,0.11020423,0.13551654,-0.08301491,-0.08078333,0.13294731,-0.14905219,-0.06166288,0.1167129,-0.13186425,-0.103113115,0.035327442,-0.0025110366,-0.021215163,-0.11243048,-0.09860107,0.09862184,0.12224738,0.1096116,0.11729257,0.111158274,0.016619517,0.17905338,0.12805817,0.11487652,-0.13104111,-0.10291069,-0.13769959,0.12074198,-0.049375318,-0.09515472,0.082935154,-0.03356398,-0.17059447,-0.0608756,0.13013303,-0.14171791,0.09652339,0.1595346,-0.05640673,0.10328734,-0.11122054,-0.12016539
COL5A1,0.13222556,0.14588223,0.12561728,0.20444056,-0.114107855,0.2142825,0.022764174,0.09944922,-0.16164355,0.013896294,0.14674583,-0.0724633,0.059374504,-0.09383213,0.15196574,-0.029749751,0.13533273,0.03414484,0.15862279,-0.19755054,0.0904019,-0.26031402,-0.17208551,-0.19406623,0.10542351,0.11901836,-0.23598947,0.23668325,0.09096186,-0.14259328,0.19278586,0.18328854,-0.07816337,0.025029931,0.045055814,0.18653083,0.14401492,-0.20041189,-0.1651009,-0.17635097,-0.17507605,-0.15983948,0.008923217,-0.24640064,-0.2496987,-0.20497093,0.16138034,0.16012171,0.17988458,-0.1703633,0.09493756,0.1619119,-0.083548516,0.08440141,0.22030692,0.09607811,-0.22827944,0.26633975,-0.1361229,-0.23326354,0.055899568,-0.13424625,0.1360451,0.17909677
METTL8,-0.0032972712,-0.07264978,-0.069015555,-0.07888813,-0.009209929,-0.08870821,0.05093954,0.0035153627,0.065405205,0.012170754,-0.07121792,0.039853387,-0.04011205,0.048803035,-0.08792157,-0.017924026,-0.06247249,-0.033019282,-0.061783377,0.07379883,-0.03845647,0.061358962,0.04306484,0.109491855,-0.052563496,-0.019836739,0.050240137,-0.107612066,-0.022973813,0.06081473,-0.07160125,-0.045467414,0.034484304,0.022550225,0.0136507545,-0.043091737,-0.044973742,0.0032884106,0.055228315,0.048267562,0.053253226,0.044267565,0.03372053,0.10125344,0.052656986,0.066839926,-0.09445883,-0.060676083,-0.077070564,0.05792257,-0.020373642,-0.0777474,0.0661217,0.008599572,-0.09350533,-0.010895673,0.08670865,-0.05812548,0.040588554,0.06835812,-0.033153825,0.04203553,-0.059449006,-0.077717945
RNF213,0.07436103,0.023234189,0.024245668,0.06755358,-0.05413436,0.07411441,0.034359545,0.065676264,-0.05477077,0.02868209,0.027612008,0.008129446,0.00078917295,-0.04410736,0.03164559,-0.03054791,0.052746356,-0.012902521,0.03561676,-0.08196091,0.036003288,-0.08268656,-0.08929883,-0.045098633,0.019536844,0.060892478,-0.07290849,0.05423649,0.049080707,-0.041931763,0.05570393,0.065841906,-0.007946871,0.035097532,0.049093395,0.066667594,0.05867,-0.09740135,-0.076644905,-0.04660303,-0.047174748,-0.07190621,0.03832008,-0.06644404,-0.07383124,-0.06625383,0.042393535,0.036848612,0.07349963,-0.06490892,0.040972177,0.027539939,-0.011350708,0.049323075,0.101420216,0.035967425,-0.052155465,0.09041113,-0.030732159,-0.07399673,0.013170015,-0.042998552,0.062106222,0.042083163
